//Neural Network File Format by Kyle Julian, Stanford 2016.
3, 1, 1, 10,
1, 10, 4, 1,
This line extraneous
-6.55e4,
6.55e4,
0.0,0.0,
1.0,1.0,
0.6056104990494569,
0.4153028716379672,
0.9211172771907692,
0.2337320346795826,
-0.5957559609248659,
-0.17712891699074218,
0.7563221647013192,
0.497896687328248,
0.614048448426562,
0.5499342581672466,
-0.8574446625056127,
-0.919638558370075,
0.2326569292081957,
0.38718335917717983,
0.12518547549706804,
0.8438695512449073,
-0.15689219443077862,
0.6380050148705587,
0.41684527217112866,
-0.19584691852488145,
-0.39929726406313426, 0.8634132887594488, 0.7260776577184167, 0.5476079589860796, -0.11645387238005345, -0.9763078272638324, -0.7072271928747731, -0.3782046273915718, -0.12822766617709824, -0.25749980751445234,
0.6087255883404721, 0.27672435171986365, 0.013796491993485649, -0.7507175477563961, -0.10781015174161412, -0.4430298819366967, 0.3057828145026549, 0.5297725069762946, 0.12665597749467228, -0.024344255775905044,
0.03969722810117915, 0.31564795852976335, -0.11855837259628954, 0.07795694929324659, 0.5474700198948521, 0.851099924423175, -0.6355798183896688, -0.24581714752140593, -0.3714798186326491, 0.06687676478576954,
-0.4631439646296185, 0.9698558089482034, -0.1983517970232147, -0.07948410433555608, -0.38149957270425006, -0.21018353824392655, 0.06998383190492374, 0.9162467465387176, 0.8749088001755645, 0.8364563198419699,
0.4494273710727077,
0.4231183055354779,
-0.6367233292307635,
-0.11212840414412462,
-0.6212272362460571, 0.5550303453301497, -0.5171046343123766, 0.3980174350551633,
-0.7898476136974883,
