//Neural Network File Format by Kyle Julian, Stanford 2016.
2, 4, 4, 8,
4, 8, 4,
This line extraneous
-6.55e4,-6.55e4,-6.55e4,-6.55e4,
6.55e4,6.55e4,6.55e4,6.55e4,
0.0,0.0,0.0,0.0,0.0,
1.0,1.0,1.0,1.0,1.0,
0.6140225497380456, -0.10164818650426977, -0.8124684411237504, -0.1680253578199915,
-0.4574323429591405, 0.6938035333549069, -0.7569449241683932, -0.8472273173184637,
0.05258184755815165, 0.830217275171865, 0.19491208045742603, 0.1308144272241467,
0.911846700900834, 0.8052442602716257, 0.6783139404857033, -0.6555859415206315,
-0.2188661930511926, 0.020610939479837054, 0.6542454778420015, -0.06284759675644791,
0.2883280185473205, 0.060294030640813734, -0.9907701665023865, 0.9023433936206748,
-0.9301427129036979, 0.5594703743144818, -0.9096257124633249, 0.5711331116116605,
0.23313398762470117, 0.8655288690931147, -0.4463881835976511, 0.12287110813181723,
-0.3172197948007329,
-0.9297178066215235,
-0.5895161750242113,
-0.8435685968207425,
-0.38462859390822723,
-0.741264820673281,
0.42520352455170984,
-0.2750585944772128,
0.1711673700159242, 0.2588384573298428, 0.42197783430474445, 0.812111342759358, -0.5957385551271965, 0.08112779503760947, 0.23066821013068894, -0.6281162894811376,
0.7236871423094438, 0.8552279449648816, 0.13554631440777998, -0.2742259192622214, 0.17450438876530638, -0.9966452417855192, 0.42397431220709336, 0.00033399620438379074,
0.8974265385318683, 0.03235651045375754, -0.3393771641808896, 0.003773104518737913, -0.8362279717103203, -0.7355770018521648, -0.9266104481632982, -0.6686804303888754,
-0.07644871884821391, -0.9919956283881985, 0.6402904729438594, 0.6375570334564857, -0.09156989874286348, 0.5839081597164348, -0.6228168546830544, 0.7116678920140127,
-0.3426829930479869,
-0.3995999808293158,
0.8212246325937569,
0.7411904902618471,
