//Neural Network File Format by Kyle Julian, Stanford 2016.
4, 5, 5, 12,
5, 8, 12, 10, 5,
This line extraneous
-6.55e4,-6.55e4,-6.55e4,-6.55e4,-6.55e4,
6.55e4,6.55e4,6.55e4,6.55e4,6.55e4,
0.0,0.0,0.0,0.0,0.0,0.0,
1.0,1.0,1.0,1.0,1.0,1.0,
-0.7204365126875629, -0.9871682358183098, -0.12262950460807209,
0.7114520143151113, -0.31048468075947744, -0.12473667727947735,
0.08373159725198853, 0.505878575204346, -0.7889308852836066,
0.47714496000459405, 0.5116213660338782, 0.454472913537888,
-0.04731687990081834, -0.28356886909111667, -0.9887046252004978,
0.27919185349084197, 0.9409713012440153, -0.23443840805214888,
-0.5783954243664269, 0.3629930058966089, -0.6897800221500403,
-0.8627480630551152, 0.049800667919054575, -0.37393407585782024,
-0.4240778345937848,
-0.624642690763543,
0.46684439760698915,
-0.4727807674304625,
-0.34653037493854466,
0.6798573944641797,
-0.6728112080951791,
0.7310020063054785,
-0.9933030100827094, 0.8720134069880445, 0.26331507912208263, 0.2952616931761787, -0.07742023716632129, 0.16796616333784753, -0.4542815200076662, 0.193456498783378,
0.7865943977511516, -0.5217978844620088, -0.7577944567668702, -0.36943065556273513, 0.3941276927461237, -0.1949668244707512, 0.11813027723206737, -0.5723288392712496,
0.9451185222282001, 0.4477606036820805, 0.04564268971913066, -0.2100694801455285, 0.9650254276119643, -0.7286319984511573, 0.49022775535722296, -0.5540906574092928,
-0.7333013566634525, 0.6475723135990661, -0.42631871369801466, -0.9062372484806471, 0.19674357165079526, 0.10363760676174882, 0.9439183984727126, -0.7318698056378437,
0.9839042849964796, 0.4427299452301816, 0.9596865603536755, -0.5853079719816168, 0.4648214669094961, 0.09172522584308762, 0.22081695309248817, -0.2445156946491518,
-0.4094589954455272, -0.18625957770371349, 0.4597676199466729, 0.8567198533488067, 0.5753722710823683, 0.6194594628334666, -0.3481390885590816, -0.9149000885618435,
0.3419585727279415, 0.8340204142307832, -0.7950139220696033, 0.5672824846930671, -0.6366414802051938, -0.43937613986827184, -0.9465436247321706, 0.16704790441100537,
-0.3387807221687176, -0.5200982126529596, -0.6377695250475255, 0.6266949356980369, 0.9451325867639513, -0.8234052898989286, -0.7031006494361387, 0.7329636838394498,
-0.5364464493191332, -0.1381688069875926, 0.030819311045857223, 0.6489531221650511, 0.971229462730145, 0.791853854131837, -0.25832245311970325, 0.7391083080135972,
-0.4285022524856563, 0.22257804249935598, 0.6938437495983609, -0.12537070976003983, -0.18825426770343956, 0.14415597288887172, 0.6092209610412174, -0.9397990685086373,
0.3064020310817601, -0.5719424523809455, -0.5828229616091414, -0.8823899980628638, 0.739632434348823, -0.8508700059050871, -0.3603930802177331, -0.6107623443239696,
-0.6635823789032345, 0.7166165673828684, -0.45894186807435666, -0.7013175146962385, -0.3300315505889011, 0.018614277123252254, -0.9900510084961511, 0.9367584748129705,
0.46927133233491025,
0.5255809722632461,
0.7632402144533081,
-0.6638356627525228,
0.7130347434917432,
-0.6345558108943834,
0.6569497602878007,
0.8122977508665583,
0.16783786053759853,
0.6044548907541114,
-0.1610720504123413,
0.8804142953002412,
-0.09219795275441012, 0.3437463983558082, 0.2508450547021823, 0.3495255407237128, 0.09446545011871388, -0.1503078584167099, -0.7508526622496854, 0.990009617642289, -0.754691050726028, -0.03472960716623508, 0.995339350578806, 0.6312322337233649,
-0.28748805687440093, 0.715064905046741, 0.07243507857381237, -0.47994260894618135, -0.6648543388854788, 0.2828504209887637, -0.805922847472738, -0.8076848399079588, 0.0020237886576328634, -0.5418445285689084, 0.7523046264440145, 0.8351421069225258,
-0.2598273143722438, -0.6259573872906392, 0.46134114571327434, -0.6916770862922781, 0.7207292478056986, 0.3664551749168581, 0.47790901432120325, 0.2698426255884292, 0.5174077758731612, -0.007471306474716943, -0.8774313987975195, 0.658772681949396,
0.277120152842139, 0.024925238274299044, 0.4681976903089815, -0.6461342418871467, -0.6407800783531155, -0.19566697963385993, 0.18947312254386972, -0.5688184744618523, 0.41406120905064947, 0.7613645213546656, -0.9725086769375171, 0.04729595710445311,
-0.19591761691506848, -0.6531601301007433, 0.4743598843343162, -0.6250071120424887, -0.3934945139630739, -0.8563228414693298, -0.25949691188079793, 0.6406788418366149, -0.01883391747392915, -0.7905288880029051, -0.6035314349944749, -0.5403716697800864,
0.5896461705154286, 0.23072758445808406, 0.04546423909730635, -0.4810793716629278, -0.9403826677424867, 0.39529734619881296, 0.280214314830316, -0.10452676347354206, 0.4360064388307672, -0.17847983484224317, -0.10100272647019315, 0.3073937844092627,
-0.7637193692701727, 0.1565609086291091, -0.4858571851509188, 0.43358741329535677, -0.7506494123957723, -0.10293961569100052, -0.760888147917318, 0.8924314726838212, -0.6240969569562336, 0.7214924354849632, -0.936108421011304, 0.5095360600229903,
0.6745237200662926, -0.6509491413924926, 0.5362257763927523, 0.876002956332933, -0.786699897093079, 0.5700910865797009, 0.5240561173404332, -0.962532468454885, 0.17254137670645875, -0.0034119500250238133, 0.9525070821241934, 0.6113602820326522,
0.6631458891969833, -0.21307096005553383, 0.6132043473478741, 0.1435800351614569, -0.5370534083268041, -0.3615731513988054, -0.23758284117604722, 0.36890311550619304, -0.6812429027319928, -0.7167912260422491, 0.7009676456091865, 0.34834988626182284,
-0.3471815789356434, 0.49322531005437575, -0.9988225164194673, 0.7616223101510005, -0.07503823434244161, -0.26855662040520567, 0.12244753278939369, -0.04524767449753142, -0.47122537389101504, -0.34338859898275187, -0.7812431540440148, 0.5911745745227259,
-0.37340952921285764,
-0.6812878987732791,
0.5858912098868072,
0.7107000438794628,
0.3521311866684398,
0.6518857575583841,
-0.5104944155200917,
0.18543022144848376,
-0.7457477048771772,
-0.6679396020047395,
0.5987472415432986, -0.513568537738045, -0.8884709899741563, -0.44739224852635795, -0.07019677481561848, 0.7175103480936245, 0.35783104761660045, -0.36197432651661776, -0.28177392412554125, -0.5669468472304979,
0.744427858202783, 0.3903578818501079, -0.6783735920096392, -0.39542691501126326, 0.8203023934720095, 0.06874979315673402, -0.6964017276700134, 0.0072120985289423345, -0.8086079994304929, 0.4234483076756659,
-0.9772465676786912, -0.9121621422337785, 0.9433248772059875, -0.6997281474050596, -0.7393923248209928, -0.1454489628275928, -0.8723901823758529, 0.9168682205559309, 0.35087858958340945, -0.5910891198064023,
-0.46395047406982304, -0.5914892726031744, -0.4040911167919883, 0.542822903092631, 0.2581517300440752, -0.21166846407598428, -0.6597396617717708, -0.6133400732697982, -0.2179702054545407, -0.6234394753604682,
-0.5169328568580855, 0.17061319425057198, 0.4427713779737683, -0.9565670437684197, 0.12110932480381553, -0.4668351994807085, 0.9995142353602335, 0.8753458410678885, -0.5465002834038533, -0.6750164463116679,
0.9615075691465469,
-0.2358192493136122,
0.13079269737784527,
0.17177509145403524,
-0.23034614668473985,
