//Neural Network File Format by Kyle Julian, Stanford 2016.
4, 1, 1, 12,
1, 10, 12, 10, 1,
This line extraneous
-6.55e4,
6.55e4,
0.0,0.0,
1.0,1.0,
-0.6455995296215535,
-0.49890056701172236,
-0.22647112351550014,
0.9595632011609005,
-0.1278453129336805,
0.16831116849409566,
0.4642871310372376,
0.25412382613114604,
-0.9657372126113422,
-0.9916106772215136,
-0.6946855942089316,
0.31329653673657143,
0.7950035344871571,
-0.7178208693852,
0.2725816673040269,
-0.004240502241884769,
-0.13566977446620898,
-0.9966629458315541,
-0.37782068637150834,
0.4127299875112058,
0.34066902282673617, 0.4406594307494083, 0.47099082468598663, 0.4756259392259832, -0.8666182808850937, 0.8513385241629874, 0.8939798818531144, 0.3111495772739685, 0.8049420138553178, -0.1944990435554046,
0.013633820030100718, 0.4553458821340648, 0.9201840582735099, 0.2826249043200497, 0.6994140728253924, -0.272043552384023, 0.6550186088621182, -0.4001868740056347, -0.5077690298684945, 0.7516415465567143,
0.7457803233929159, 0.7902679577551668, 0.8700723030692967, -0.6438364693023528, -0.7035057875022295, -0.5145337669264998, 0.5689240556809234, 0.8811186448278265, 0.9496826787906434, 0.3990950844356531,
-0.3455931341677152, 0.8551617987432567, 0.36283624369921297, -0.006899546367408416, 0.19957262068754167, 0.6253032702913326, -0.035670649260629794, -0.768815500805542, 0.48233416086151504, -0.5754418810849891,
0.18603182799967666, 0.9612266426378735, 0.8769263389146027, -0.5874095136621418, 0.8701181325872298, 0.5373402168716055, 0.015164754991591423, 0.8527736979803957, -0.007159785536996921, -0.24985547227310612,
-0.1359917492609739, -0.6899298074125353, -0.4576471893833025, -0.06877971174398079, 0.8560142420938868, -0.7862375534067683, -0.46709805689859385, 0.41014082501596727, 0.6978378746785916, -0.6343633326584186,
-0.22628301203028478, 0.5480468908659746, 0.11605299668567826, 0.08958196430473819, -0.5862844138794387, 0.7678687384729939, 0.150832891917549, 0.39418888239419614, -0.7681905183060427, -0.7174385531379617,
-0.7386429778295835, 0.6762294343211734, -0.44140135276361825, 0.4518040088230739, 0.9550716294064103, 0.931315719278186, 0.6165102434489698, 0.6525860125611471, 0.3297921357012843, 0.7493438651999287,
-0.4388481745938182, 0.8453285733756513, 0.41403040992770235, 0.08359495358167957, 0.8528304283782853, 0.2853440873080664, 0.8452427184116926, -0.48232935794045373, 0.323251447605021, -0.9034838219007915,
-0.35590681203225305, -0.31086416942564155, -0.40922775832090474, -0.7592326016179514, 0.3483152075659608, -0.5299384332903996, -0.7876457984669538, -0.35307575378911693, 0.9918242873424727, -0.46891194722216456,
-0.5852400475718831, 0.389966797339544, 0.7031163894585628, -0.198161770737308, -0.19790789956606103, -0.3631367114969515, -0.9061537031729405, 0.007789055306313131, -0.5644943588457956, -0.830307968798365,
-0.9331865407593942, -0.05098349225196541, 0.5766014657955112, 0.5098652330069053, 0.4985189063488269, -0.6349924838189831, 0.9128285202337558, -0.7849129309030136, 0.1744720356632632, 0.25616270791314566,
-0.7547301687097003,
-0.676797353907145,
-0.06632304814557566,
-0.662595715428274,
-0.16568584855372226,
0.6732509927217691,
-0.5922527532155399,
0.06132273684771716,
0.11525601292524357,
0.03841752209175198,
0.7342440353863458,
-0.790547306865887,
0.6480028185434308, -0.6518379783229222, 0.2056566215508302, -0.15055586828511913, 0.4534999309902088, -0.7101654321817041, 0.5135320062936479, -0.4191268396652297, 0.7078368616395134, -0.42557207320282897, -0.5669190824116392, -0.4666512057241712,
-0.4166842517735536, 0.9623218019708903, 0.13363066163268789, 0.8039386036667828, -0.286051555904991, 0.9378433435030029, -0.21900544760316087, -0.7671518316533681, 0.06499051370279618, 0.9856159027016971, -0.1492761116893453, -0.6211144507028394,
0.766055331839778, 0.6422564351519169, 0.5286998961638467, -0.8402598075839709, 0.3373232977553702, -0.18299520823683046, 0.7348594631937573, 0.5576775661624933, -0.05068323103978445, 0.29221723052998305, -0.23271130520638916, -0.6901006434186452,
0.19476938367265495, -0.46568174103673465, -0.8412930294742376, -0.7343374356704979, -0.7610712373478865, 0.36858465529410234, -0.24137717332175912, 0.6438224869864917, 0.8855116703326544, 0.9150341944536984, -0.4482183459983293, -0.4066957309523178,
-0.05117827840165834, -0.5877009745120501, 0.3510162129072594, 0.5807737874087633, 0.8729632195505612, -0.6536651915738108, -0.042591254492612585, -0.24046656938383926, -0.7145334023954915, -0.19361824145034756, -0.3818836141053126, 0.7075290112092882,
-0.9704439483451996, 0.16473434342790538, -0.915959707143545, 0.08702894077223222, 0.810078642646058, -0.24098002392066897, 0.9620480685201969, 0.8689562474506514, -0.8442283196278035, -0.4546216539755763, 0.21645480923382232, -0.045326149980136066,
0.21173319622726794, 0.18451276269034134, 0.5429854323664922, -0.9626476440716654, 0.22652852611032648, -0.5385838260583204, -0.6920290009133194, 0.5258694806788178, -0.5678796651193534, 0.9290684544883714, 0.12635569976533834, -0.07116294221511854,
-0.4907096536478961, -0.9153896723473887, 0.9526170972977765, 0.5819852637651759, 0.3990127582625389, -0.6444130633032215, 0.2537068027940004, 0.17106450119915761, -0.13532141867414715, -0.3218397393188437, 0.32517383829298474, -0.12204501376726462,
0.6220380544766417, 0.8761453745602297, 0.1419432196002628, -0.8962086047789501, -0.3268608141429854, 0.5511079802862304, -0.48580773468641647, 0.3089335402221791, -0.117942832246547, -0.11252322415499316, 0.46589664016496446, -0.024246817592999736,
0.8214251925599592, 0.5395525474324998, 0.12626564682213326, -0.7867663493976118, 0.5940366912216799, 0.217315389309078, 0.6481280017070183, 0.9278319191636308, -0.6580195939287483, 0.40229263232799894, 0.15744609679380295, -0.42747429751710486,
0.6973201130737428,
-0.8680854908768199,
0.35321563546553136,
-0.37160209882065764,
-0.4710229879323027,
0.3829818473898001,
-0.7632754030930267,
-0.05003237318765841,
0.6763614580135004,
0.06483636223225497,
0.2377618514000326, 0.7698412904333014, -0.7434385643832893, -0.6398869550205601, -0.6888319385906057, -0.21189218032496937, -0.6264402222509067, -0.28813401505098435, 0.7424619440311928, -0.18431226556737768,
0.048292162531143656,
