//Neural Network File Format by Kyle Julian, Stanford 2016.
4, 5, 5, 12,
5, 8, 12, 10, 5,
This line extraneous
-6.55e4,-6.55e4,-6.55e4,-6.55e4,-6.55e4,
6.55e4,6.55e4,6.55e4,6.55e4,6.55e4,
0.0,0.0,0.0,0.0,0.0,0.0,
1.0,1.0,1.0,1.0,1.0,1.0,
0.7408269521966067, -0.8711567433498755, -0.8632379595732127,
0.32408848582528016, -0.7099957009636131, -0.16162016455569495,
0.8504720154198728, -0.7914476487607134, -0.7044129095131892,
-0.03985429630741466, 0.8757023774259145, 0.9753431068110614,
-0.9704534163076333, 0.5995447613385729, -0.10636229035485245,
0.6243925072665992, 0.6640787706546658, 0.22340050731849503,
-0.5422730996075469, -0.10636543726654235, 0.28686247666624576,
0.19589874696224951, -0.43492438113547083, -0.6377332381489484,
-0.043062358995245464,
-0.9644841944202764,
0.7917786741051498,
0.9458332000134417,
-0.10888755731929933,
0.9747482307167656,
-0.8982275822116499,
0.3078592914182523,
0.29076885803167185, -0.13205423298841978, -0.5104637526140032, -0.4444862819398674, -0.10345319980539802, -0.8027813038562757, -0.8017261428941205, -0.9074459772588073,
0.2660428596956743, 0.8419349491930967, 0.23580445616419077, -0.6563468799943091, 0.7501140766079613, 0.05791543616750561, -0.908179240660675, 0.011510788357143475,
0.052363683062977895, -0.10677687289694449, 0.6463451249795389, 0.35722236433896937, -0.4496776214612912, 0.6865008055884969, 0.06307451297715172, -0.3107108742224556,
0.2830962256219842, 0.42749355084299534, 0.12790781280326868, 0.6706286273660167, -0.4753158868372185, -0.9682303995076893, 0.579953476723345, 0.0873117724717547,
-0.9535025313976702, -0.15038923741759458, 0.7780476582644602, -0.00496103000473358, 0.2984872036478299, 0.5387983744576132, -0.6558132706020587, -0.08800715012673077,
0.37626276136308023, 0.3782504739742065, 0.3404528416941299, 0.6553257916853625, 0.9758725925006169, 0.5951105983368841, 0.4512512826813473, -0.10588530370993965,
-0.3194746330011169, 0.731649683146101, 0.5775196261572129, 0.8867357466831027, 0.08073326559058724, 0.39002925785957787, 0.8747195728303074, 0.432545416148312,
-0.3167899976790469, -0.13151813635169907, 0.515151374533473, -0.3453409007474253, -0.18548447629849685, 0.4224251737457343, -0.3747304919919445, -0.8667907398368557,
-0.528657559847368, 0.07347821418374645, -0.8359825818271025, -0.9565540196861164, -0.8876538966427217, -0.3922499069888108, 0.48260367729842146, 0.48953360096560194,
0.5665573259975196, -0.3740529814337368, -0.4784746712321746, -0.006462769798538215, 0.6484976392708908, 0.7082395960283026, -0.9653292820630104, 0.8620211867388576,
0.7332856130301226, 0.2278034190278504, 0.373938400884835, 0.6677094640998256, 0.21813996650794154, 0.8634141607427175, 0.6393836974220597, -0.31039547082859054,
0.6137368393727938, 0.9985917199098426, 0.12366337384030945, 0.7069219314545916, 0.41556404503969, 0.408551940119799, -0.6711590289167049, 0.05623161920049835,
0.21127392987923654,
-0.2934590131975314,
0.16150919665313523,
-0.8749747946200945,
-0.0181176148523412,
-0.57523275641375,
0.5025803577890091,
-0.07817988067502446,
0.0700672942550451,
-0.48132716435711265,
0.766474634182376,
-0.18578133941324904,
0.6432276706911888, -0.6541881154282221, 0.19817290754919803, -0.4139306577784323, 0.5389399274957776, 0.9220585802077101, 0.9430692104770957, 0.03019505371797182, 0.6702407520795548, -0.054831776397569865, -0.8067784766403836, -0.19539711612645672,
-0.8163448881081545, -0.5811127377983705, 0.3306432116006284, 0.4759846126270242, -0.23555340528528435, -0.7558166063924587, 0.8850701251501794, -0.7644298131156053, 0.030973918486226548, 0.5266687161786487, -0.4206155246408505, -0.4841129232443411,
-0.551073266855262, 0.26541102071151457, -0.6515682737675172, 0.8269500892666128, 0.9304707293096639, 0.2444773542806642, -0.34435584817444553, 0.12233012229148343, -0.8912545669814116, -0.09767387328807287, -0.7368603326245666, 0.2648591203013346,
-0.233648808091389, -0.5392576003922533, -0.027690171771858285, -0.8641634652986281, 0.3160845953624376, 0.027352493857454085, -0.01536182598059721, 0.7250933749763893, -0.2549519916102514, 0.46439131720862825, 0.7359740160893353, -0.8216820786011794,
0.14695125511699958, -0.09089613348961034, 0.14821513529645625, 0.07010483370951981, -0.2968854895725026, -0.8947859770689397, 0.08784084146365378, -0.8054174178443883, -0.6230531362955127, -0.4272999258815502, 0.39081515208888495, 0.09531999740543373,
0.6821020177343611, -0.2096141974237571, 0.7051009424317187, -0.7472102787361581, 0.875311345741193, 0.0013946282317593983, 0.670074378076559, -0.23434986263309332, -0.20153871580581884, -0.877203853200303, 0.7861301287883582, -0.793932214751949,
0.20091421620704608, -0.7523115556685656, -0.15679673893859158, -0.9838705112863586, -0.9107934178619095, 0.5140733970932772, 0.5389322404189096, 0.7854984589324809, -0.5110867602886393, -0.3958239704303832, -0.3765198391680715, 0.37162729625496826,
-0.4769793551055712, 0.8891730762379333, 0.3926045782071119, 0.11828819049836303, -0.2660562127825554, -0.4143166466095414, 0.33332352948669497, 0.20351403139973057, -0.07684941320315586, 0.23597945368672635, -0.038518588697483036, 0.5070269102173679,
-0.35543467924697714, -0.7811506630576575, -0.5760746390019675, -0.5767906125225459, -0.24584472829136672, 0.8391344066534789, 0.14107607853567927, 0.08983357475798304, -0.19240130834648772, 0.7164547916681436, -0.9199968213481933, -0.2580345643873745,
0.9751268388850303, -0.9332251045591442, 0.20084432963898236, -0.5921273678806944, 0.6101771165627685, 0.9160453423209312, 0.8453654696017363, -0.435925861984797, 0.7301815088566563, -0.7619662852348155, 0.4692739374462809, 0.4776289825143021,
-0.14533897009513863,
0.7496850413169054,
0.6617441783435769,
0.9869980675468648,
0.3755703309861347,
-0.3190364742537919,
-0.9014173679802999,
-0.9858649240150679,
0.6435678103500155,
-0.0803715266733187,
-0.4678896835726425, 0.3487456891151828, 0.9938011465034635, -0.6187670230512308, 0.5365667935004472, 0.41932611950276577, -0.42200845533645515, -0.23301129741234394, 0.9887704553422476, 0.5797815192709774,
-0.8747227227460095, 0.050430200761730326, 0.27828538427209626, -0.6248276935380952, -0.8917627396836982, -0.7332819041956253, 0.5963001616915893, -0.6532288964904831, -0.20819957709595815, 0.34896722225906496,
-0.5545588645034809, 0.4247549733413525, 0.6630742938089154, -0.6228052361142309, -0.3471787545576568, -0.8701888665091428, -0.9518597319751367, 0.7393808091414442, -0.5380308866371966, -0.3699246199938826,
-0.130680178396251, -0.18787476221335542, -0.7411876665593087, -0.3402181673021558, 0.6428613954856939, -0.864233906706128, -0.7129961064289785, 0.13943665679858563, 0.037633352333039216, 0.9568990006348823,
0.613641488705523, 0.38337329379775653, -0.8483052871007972, 0.6616606225588169, 0.40977215678340073, 0.3787667408099651, 0.31626923878777724, -0.6626893853381044, 0.9073672380212483, -0.8799516214445218,
0.5826702530969334,
-0.5147613769679662,
0.352897717817811,
-0.19225483033302737,
-0.632822986372843,
