//Neural Network File Format by Kyle Julian, Stanford 2016.
4, 5, 5, 12,
5, 8, 12, 10, 5,
This line extraneous
-6.55e4,-6.55e4,-6.55e4,-6.55e4,-6.55e4,
6.55e4,6.55e4,6.55e4,6.55e4,6.55e4,
0.0,0.0,0.0,0.0,0.0,0.0,
1.0,1.0,1.0,1.0,1.0,1.0,
-0.009221884249157153, 0.3241552786851565, 0.3527977117202621,
0.8743507138773117, 0.5415931022388905, -0.4633506392526301,
-0.7111780066792219, 0.0955363308606314, -0.6512936617926037,
0.7115220776776261, 0.643635728903083, -0.4620055455243266,
0.4074763024296493, 0.5278477975327753, -0.49983616294170785,
0.6822436813011006, 0.6780791681622587, -0.07025687738166209,
-0.8520512349105758, 0.7216371673574797, 0.9910467485231038,
-0.4660220051760824, -0.8247099782291083, -0.23906871733226387,
-0.23622393279511567,
-0.3031855091222124,
-0.7411504080849802,
0.3589882040242345,
0.6835678898206972,
0.5571603200281809,
0.29381690134586336,
-0.8451007888004209,
-0.20420359481495698, -0.4598673703635128, 0.9448266368059115, -0.08470048144665387, 0.726716785025717, 0.6424139092684378, 0.4969382409641727, -0.6230349458200126,
-0.6108033547047995, 0.04323270330435891, -0.0826349656516645, 0.30084735622226866, 0.3563183081355108, 0.06606463254833006, 0.9798025836410127, -0.8123652928728924,
0.4578858362645257, 0.2719941512407149, 0.8319889096121091, -0.36455490909251065, -0.345829136901596, -0.21055950353292774, 0.4899828821953651, 0.14726767169227006,
-0.3868277536229372, 0.24572069468895608, 0.37729724891522887, -0.6807391690611491, 0.9734064980941088, 0.7686586718629531, 0.11357569156496705, 0.9668255461308854,
0.3462772783237158, -0.8946903055807116, 0.6764951096468046, -0.04569650565506711, -0.5350435141095575, -0.006432391865273779, -0.7691871829026593, 0.5275164676962407,
-0.3997982435693439, -0.5764546013218164, 0.4120880232637698, -0.7152327898508424, 0.025670579049845266, 0.7992624318602006, -0.7022387617758818, 0.1809684591549905,
-0.5740627841891413, -0.3223278537919452, 0.26593550309662906, 0.8569351590587893, 0.6617800816731498, 0.476743813681086, 0.6277220670373809, 0.2763174309968819,
0.2644781598413659, -0.29569293111099704, 0.9283836509421057, -0.7007083470755515, 0.458078449569876, -0.48524161529253895, 0.5511633199931012, 0.4184948809630411,
0.47807440859817607, -0.09385409647887633, -0.841360135212597, 0.2335371410442284, -0.8085773663536688, 0.49065007896625223, -0.6582572509686346, 0.3702570673103609,
0.5457101379242992, 0.46737742992449594, -0.726629639080838, 0.23526750394799967, 0.1581502314275407, 0.6217016660016439, 0.5379872780765584, 0.7515403972018526,
0.8637716507074136, 0.5933364874684273, 0.7869664481476741, -0.6437406941737915, -0.46113170233518197, 0.0768233083253258, -0.12424826623213603, -0.4546197863302597,
0.9754737954323618, -0.7225806579112692, -0.824458465565225, -0.198046860002016, 0.4326575697302486, -0.08094916430531152, 0.2476474148742822, -0.009775715435660803,
-0.9119463735908129,
-0.5866830291683462,
-0.6859725389697924,
-0.7022167524276313,
-0.09866055705324506,
-0.7167813294560577,
-0.33227504799081276,
0.07241103343410815,
-0.7500591657233429,
-0.2597964461570843,
0.42530940694108166,
0.35729028339783175,
0.7674528992787226, 0.6612339959210893, 0.8050532785339293, 0.020957957993986476, -0.5691332511221261, 0.9117537275702343, -0.6995059117346938, -0.8480399188673791, -0.3338372607910607, 0.22715013154402497, 0.5719735903418197, -0.5574672269611103,
0.6289853732173141, 0.3387411915036518, 0.6591935570979643, -0.43680443035761174, 0.3893921937965139, -0.8078590560052117, 0.4902030786098144, 0.9328505998219785, -0.4445404086450644, -0.48888759970819073, -0.4410587799058221, 0.6379123715478445,
-0.02158439262423517, -0.4640610280851436, 0.7943670269303413, -0.42355842452937553, -0.1389256814085189, -0.23017987933224493, -0.8515900873932414, -0.5746832708595178, -0.6177212483979351, 0.7902969126784187, 0.8431378727732843, 0.8523274670924308,
0.7498847085111442, -0.7260229811999128, 0.20256044153221486, -0.240376700074576, 0.3133573087528023, 0.9649488497874161, 0.3941764485760828, 0.5783341527447412, -0.6312665319922783, -0.2943188218319688, -0.38428193839825564, 0.2669622810238077,
0.691554298755876, -0.6503214554369321, 0.8358016321132844, -0.6162596894229244, -0.1180902028570614, -0.03752363550759075, 0.6610298403705386, -0.19941802488440796, 0.013925498865337449, -0.49582496875950444, -0.9079155310846496, 0.9843549234677735,
-0.47007070755351865, -0.11690103686281805, -0.03245234486373372, -0.3876190379578115, -0.16767927443729036, -0.7490371254954846, -0.599432933820947, 0.044245223837964254, 0.26299534558445625, -0.07594120502441015, -0.0830172944919565, 0.12339445540136396,
-0.4683142539087046, -0.6423865281060919, 0.36591358365139603, -0.20368736144655886, -0.31358680387480886, -0.5838885864202608, 0.6451283691141283, -0.9927009667396747, -0.9938181592934523, 0.5949011100930206, 0.25560762520158287, 0.7598124076562205,
0.9026023896091453, 0.8100951766868225, 0.2709438532048556, -0.4791577491896222, -0.052490597822417495, -0.1686193914025198, 0.6053060535627277, 0.17949633745608917, -0.9732716268208876, -0.2961568389743916, -0.7715569610531312, 0.06441254819662978,
-0.36998422562200695, 0.9808609515496123, -0.7501586178924171, -0.6800451360851669, 0.4821165627260391, 0.23956049835315252, 0.7156180318290439, -0.4153876912187946, 0.7250632809185764, 0.056151423657488486, 0.7779332993234771, -0.6009989880561837,
-0.9284245463393814, 0.863043138089703, -0.8134881068441473, -0.2116768152690529, -0.05779094241622573, 0.8962216351103724, -0.5394166122607089, -0.2704561101527272, -0.9293988176103332, 0.8090453035131997, 0.9166594731115301, -0.4646063621652785,
0.9650538890556519,
-0.9343256717626871,
0.6693258651333029,
0.8002944326642063,
0.40212911967104104,
0.6571755145060485,
0.29397155197064917,
0.6688255959354912,
0.7347381437143214,
0.8795046908885928,
-0.5729372925123468, -0.01189321418749989, 0.24212013370924979, 0.6277417439555881, 0.9430947525833884, 0.9860344538587662, -0.8788325823937089, 0.9324081721652973, 0.5314135150278303, -0.1833613718655922,
0.6160576484184777, -0.264692332368444, -0.43673802748119206, 0.35093711141731454, -0.2000576519320605, 0.1901868035664629, -0.3063079704262539, 0.837300454030792, -0.15484318457626367, -0.9486598715259871,
0.15706983469879887, 0.5880804867938578, 0.38357507418907977, 0.9444297355893543, -0.06048079500542469, -0.8320694514758169, 0.09978053906683693, -0.967572838296868, 0.549069703539236, 0.5320130157848126,
-0.5946314341804881, 0.34974944632467864, -0.5293358510356678, -0.6484530652911746, -0.35199980834661737, -0.037444458010599035, 0.06508958169948453, -0.4678618127517842, 0.3395270530335046, -0.507741901598953,
-0.23759479616334023, 0.23356433529984377, 0.39184161585929767, -0.28377378920302343, -0.807172930922345, -0.3676472817818843, -0.7882803353174035, -0.7374434356722186, -0.07232818733262336, 0.7079137781029048,
-0.7276107756537606,
-0.4181730888030719,
-0.23029509133458603,
-0.6130780338942912,
-0.5083382094163733,
