//Neural Network File Format by Kyle Julian, Stanford 2016.
4, 1, 1, 12,
1, 10, 12, 10, 1,
This line extraneous
-6.55e4,
6.55e4,
0.0,0.0,
1.0,1.0,
-0.9814103524786177,
-0.021787974399506638,
0.16455582635893995,
0.20655001425885455,
-0.5019864033862951,
0.30406583582658797,
0.6286343286980047,
0.41895384845546557,
0.08209406959822374,
-0.8921350878048235,
0.9979214916437456,
-0.7622380373044786,
-0.6616159795332619,
-0.8263789146272451,
0.26822807397511506,
0.31608946630008994,
-0.5823360236580881,
0.5062631242208973,
-0.42709964930611655,
0.24672367694530273,
0.42502543936257187, 0.5038211760503897, 0.318826840758601, -0.8012104869555632, 0.032210478130438425, 0.6900548837947862, -0.5287549391183317, 0.5297557398646044, -0.2296931065069967, -0.7779266713158721,
-0.7502544115308409, -0.7714199436602871, 0.9117773384391401, 0.6524664047243309, 0.9850057242787273, 0.5538889150399902, 0.2089692643556944, -0.6418916888620125, -0.6541943183636527, -0.6295473652258492,
0.42563405873231197, -0.551046698588658, -0.5630960877239359, -0.8003966317738174, 0.19512067722986437, 0.8830861008773394, 0.3570450637335494, -0.6950207588112058, 0.8430613461874432, -0.9786734125793397,
0.6133394312543143, -0.18651356021722254, 0.8989541578997282, -0.5262253555014125, 0.2655310684627805, 0.4828739530135939, 0.13690773375134002, -0.6883644592044806, 0.09123515032487362, 0.9992272553417161,
-0.4701284364067737, 0.4159655815457546, 0.5208559550809229, -0.9583763845458138, -0.8032579226536716, -0.6890045282404884, 0.47336751756268836, 0.9402180708796526, -0.2652310797822839, -0.06995748155717241,
-0.9632920762330222, -0.1606226987627939, 0.9481513618604795, -0.4465538134007785, 0.662411343924886, 0.8220002949442584, -0.21784248627371428, -0.12930293412936322, 0.7648382430906624, 0.5418109724103322,
-0.08443964197174925, -0.7473843919665555, 0.7272434446809806, 0.23797909770099013, 0.7424729798679812, 0.8959768930943715, -0.5498064494846431, -0.523823115778371, 0.35004031868235286, -0.9171763524275565,
0.9614411205091664, 0.21247911587753476, -0.3132115778258391, 0.5979867810464601, -0.08886509576348933, 0.08336325648841303, 0.2790073915981992, 0.37346909697559605, -0.29031191071665985, 0.3740524175506046,
-0.27757687892653626, 0.3136872648713309, -0.6961452262384795, -0.9373235902721486, 0.045279653983153256, 0.5764004898194726, -0.4484656262681401, 0.5862152222498889, 0.8508425955392136, 0.24485250154664318,
-0.8173299325465799, 0.4980255667315192, 0.9306099907467722, 0.20563328373897471, 0.4872759844714589, 0.8189293667834967, 0.33863120739540564, -0.39153214797795055, 0.5325244428729023, 0.521279633518636,
0.6606929271069526, -0.4471420619278752, -0.703241419304518, -0.739502377734591, -0.256720783182379, -0.8434099510289998, -0.8985808738173287, 0.27949243358907294, 0.29620149590552636, 0.2465628463839824,
-0.3319752328410339, 0.7113144538875904, -0.2323461556060571, -0.5620129662782896, -0.2480875281263999, -0.9814247066764228, 0.1729922261711434, -0.7181049776743409, 0.8462278733221971, -0.5386510163787839,
0.3709973156301043,
-0.8035738749953025,
-0.09581213535561028,
-0.6492569550839105,
-0.573533043073283,
-0.17244819024414104,
0.4958656180219725,
0.3200475550285802,
-0.27559282052882894,
-0.036061893594375505,
0.7190168655928857,
-0.7554906567390471,
-0.4054325696695291, -0.34291499040639195, 0.7199008905123696, 0.8379833609424558, -0.04518616083102556, -0.3978486232656451, 0.051409708798942244, -0.5164833268451017, -0.6877840492545664, -0.7698972155752903, -0.5443672113243458, 0.9570999293419713,
-0.45073110158549223, 0.8253393416220356, 0.6516876369596947, 0.09235341685015408, 0.632076241821534, -0.889625134702154, 0.5223742554190851, -0.8503920338365707, 0.8872877188881061, -0.41531725332148195, 0.017133716700035606, 0.741876291256081,
-0.3894206541857863, 0.19605692091543903, -0.07228659047511599, 0.22212851841281767, -0.3721815840700926, -0.25981591814666904, 0.8208278784585423, -0.43613111083162304, 0.7529795844430733, 0.7580194818106332, -0.9351862452284032, -0.45023580600051627,
-0.8398037478649796, -0.48393439094419755, -0.9966491807848321, 0.21752366207293683, 0.6181048293326619, -0.34358542567591943, -0.615905077705432, -0.17450588285979896, 0.6405483161505585, -0.15034209646544916, -0.331668228715031, 0.17099344623705948,
-0.8898830910977789, 0.6946671652107872, -0.6661470866742802, 0.9093274729200091, 0.23160363716796262, -0.0075191310052629134, -0.8586851451614761, 0.22010081944251736, -0.38618561505503646, -0.5206494913476045, -0.9116659251464787, -0.07257890710820902,
0.3731123704622048, 0.769949279056588, -0.09411381355450121, 0.7131885598800412, -0.2494552457553625, -0.3059704439243336, 0.35660217750813406, -0.1888287240269646, 0.1414977011992553, 0.2523274631276866, -0.7960288058530742, -0.012230858026792024,
-0.38533169007289425, 0.12613978318911467, 0.1876759305324711, 0.13496409096968032, 0.6574872853122109, -0.33006953780725024, 0.6317455248243831, -0.4055077682603656, -0.26601453495373883, -0.8698825389674978, 0.2497984743360342, -0.8583583471598693,
-0.9284985899115132, 0.8700131709989196, -0.20884357624892047, 0.8187603534462347, 0.8664088609048584, -0.34603571032123037, -0.49338054695024525, 0.40202382959211347, -0.007421771170001978, 0.527541004709434, 0.5125346330926055, -0.7799517072283098,
0.2578512793786958, 0.8234139216292657, 0.022754279177464642, 0.2933931402010974, 0.4433052546270888, -0.6956126050451412, -0.25678538836489606, -0.7898538022771775, -0.8164564573577189, -0.6564190374129253, -0.8627121589107896, 0.5408497567697443,
-0.8134914422800863, 0.9390867537467504, -0.39709670188226376, -0.9479838072072142, -0.6173430510805469, -0.32522293436252525, 0.19776073938865002, -0.14094195662468545, 0.8318292393361593, 0.3307171479756654, -0.6172705923615367, -0.12851308830384722,
0.7479520667534283,
-0.9163858205413904,
0.5215277537882099,
0.0077316550957480246,
-0.6514859757072871,
-0.906984154758236,
-0.5440261023751507,
-0.28247209636537196,
0.9256121379481628,
-0.8405176567833692,
0.932816833710965, 0.371505690616293, -0.29179079598918944, -0.053520165559217237, 0.7613371823455974, 0.09373197527132682, 0.2828756521436473, -0.13980633433332157, -0.09116539976290206, -0.5147721363678084,
-0.4329732702326208,
