//Neural Network File Format by Kyle Julian, Stanford 2016.
2, 2, 2, 3,
2, 3, 2,
This line extraneous
-6.55e4,-6.55e4,
6.55e4,6.55e4,
0.0,0.0,0.0,
1.0,1.0,1.0,
0.4059761274504661, 0.74701089293989, -0.255650714832226, -0.07027286603512595, 0.5749614534987733, 0.5564365641077704, 0.5733320895695915, -0.7876477855079949, -0.9664735931112212, -0.005431476232794719,
-0.9365323179409595, 0.3235215198042547, 0.36351046180843527, 0.7058229003877403, 0.6068380889878786, 0.05584781280040074, 0.8234459036515887, -0.4162639139016955, 0.18704663977563118, -0.6478828633988178,
-0.05537228560530494, -0.24696766150346416, -0.6057353493320572, -0.19201079542068644, 0.9897565546607932, -0.6865264369485611, 0.1903377809484903, -0.20963507511218582, -0.19325824013347503, 0.4177251271773126,
0.9877362100166489,
0.6540616832808746,
-0.6594457714901174,
-0.6138009640211095, -0.925227858416402, -0.0370133015927685,
0.2995648918723548, -0.20875973214799304, 0.8496770537830369,
-0.23637392475703045,
-0.9841438224791115,
