//Neural Network File Format by Kyle Julian, Stanford 2016.
2, 1, 1, 8,
1, 8, 1,
This line extraneous
-6.55e4,
6.55e4,
0.0,0.0,
1.0,1.0,
-0.056277207179587396, 0.43507304921394985, 0.3634314854521583, 0.4241748134819625, 0.6894051203936806,
-0.7337215603290539, -0.5474454488429248, 0.1303766519590832, -0.9455481993213346, 0.8684010441801981,
-0.4339266027309634, -0.5941806247305097, -0.08628526930950242, 0.2766649597762605, 0.7229316583920471,
0.4315836369148611, 0.9492413273607023, 0.08061893424176159, 0.4823471079970547, 0.9106897184737957,
0.2094593773354516, -0.5358240503283849, 0.10884576050883821, -0.049882874108803765, -0.2723535254503924,
-0.6554622911787056, 0.722345502931931, -0.7987060762833904, -0.5948450772075167, -0.3107706707926088,
-0.2367588207050204, 0.2046698470910524, -0.9762106453541293, -0.7867137169917471, -0.9516439821032803,
0.32980396196797557, 0.7818431364013749, -0.34538578576724266, 0.7741222854369805, -0.7245480989869608,
0.5762404056321166,
0.20078523467154463,
0.6319569761997252,
0.991500910043249,
-0.8072574593506037,
-0.4049905717169784,
-0.4678805414851954,
-0.7698657924684293,
0.7584204776629346, 0.6668329637293327, 0.41008213577621433, -0.6502267631093894, -0.48922378186851523, 0.10876142583923754, 0.5748775752625765, 0.8745356198208691,
0.9438071769109055,
