//Neural Network File Format by Kyle Julian, Stanford 2016.
4, 1, 1, 12,
1, 10, 12, 10, 1,
This line extraneous
-6.55e4,
6.55e4,
0.0,0.0,
1.0,1.0,
0.14730661478781704,
0.6732129892166245,
-0.23899081548238543,
-0.12738692792938044,
-0.2188261763167585,
-0.9363458470182109,
0.854371304107977,
0.8797158703262764,
-0.07487069740375496,
0.580305496645261,
0.0761731270537811,
-0.5796560632892453,
-0.7491653588135216,
0.6602429961828089,
0.7539111645105581,
-0.2656440372750648,
0.015368204062611301,
0.03398299434956353,
0.4483906967280329,
0.5008414316207439,
-0.7383048655625672, -0.056313636974630654, 0.3314007133715817, 0.9592109132856632, 0.9467220061504151, -0.9789515378956803, 0.18997456252077916, 0.9726798700471533, -0.4399005012506576, 0.6463229560511183,
0.5719914501825611, 0.2620583690562279, 0.9570659008834252, 0.6135098747226548, 0.28314361038488345, -0.05339351824831384, 0.19520119533073688, -0.11710880656800571, 0.16103934285617738, -0.921538406988927,
0.8444248210865339, -0.18585335149009197, 0.898117534059057, 0.3665143423977848, 0.10899769804348214, 0.8853238465214814, -0.17665157771100537, -0.2673700077433798, 0.21416279048323084, -0.06913772142067609,
-0.2913820638186615, -0.6300009498114578, -0.9996100818231999, 0.9182441281756191, 0.20787064166688118, 0.21118199573355279, 0.4238588856452665, -0.6612158698607411, 0.9786972318324234, 0.5647609618460989,
0.9851109046424886, -0.8497723795314527, 0.3689034070722066, 0.12661276890655282, 0.3463908643721605, -0.5994404970111598, 0.8323740155024315, 0.0574233821092105, 0.8276381661918619, -0.7249219574257895,
-0.41993167152147937, -0.07124115526960795, -0.29553769476781167, 0.18928401551608687, 0.9575532096821666, 0.7715123060977618, 0.9417444611176853, 0.17175657671193667, -0.6631454521874351, -0.30847572124045763,
-0.42350061540608985, 0.06406396379008417, 0.7629663945547258, -0.47479909214400084, -0.9074614889328418, -0.6128648414097304, 0.7279761682351267, 0.450117349650498, -0.04959780599952257, 0.09200104475015891,
-0.024515279971641046, -0.9996984660257358, 0.3917228921136888, 0.07652773286629033, 0.10190806045024559, 0.327920966435681, 0.5380591648191166, -0.8520162422095323, 0.610527217879048, -0.8530378234048284,
0.27086144134610324, 0.2538587704813837, 0.47632380041169275, -0.6868853804562023, 0.7048665307021582, 0.03564591612100676, -0.09088087253957511, -0.465706832893964, 0.2906489078201959, -0.8603798825837541,
-0.7184447690999503, -0.2005709533869635, 0.4814560750935968, -0.3428564404715009, 0.9504847915318346, 0.4652675143025, 0.2146147685387949, -0.8396370921926919, 0.6305020115010791, -0.11152130801954119,
-0.04598422651819867, -0.5975917726179727, -0.06216959723224358, 0.5419066407769897, 0.8077255259554099, 0.7978382952321277, 0.6944177197105073, 0.17866336278765793, -0.26426380534335037, 0.8683737376969209,
-0.5194697857728583, -0.7366426897023941, 0.018134126686103258, -0.33089349351404884, 0.1431426944273273, -0.21335036325503465, 0.04115678266560563, -0.3294240211746553, 0.8876715165976305, -0.013262375204078136,
0.8207971078762473,
0.2186392416873444,
-0.687640593992715,
-0.7810541423609778,
-0.10529092132100981,
0.27699067174070535,
0.6321436045632365,
-0.7409387955311817,
-0.4346724107034956,
0.8411893708038152,
-0.6904584748545792,
-0.01313294390614761,
0.7220740548845339, 0.7885025925865374, -0.3502605145835527, 0.12407696773354493, 0.9433397834312593, 0.398771147767218, -0.8991013457461463, 0.3435802216857087, -0.8515957197051369, -0.5660507849915408, -0.2755738863206463, 0.26489394155139223,
-0.4105691775756575, 0.5808461986664826, 0.6693281565085183, 0.19276437862965512, -0.290427073510783, 0.3903202079067891, 0.5965617774385579, -0.5467475946609777, 0.2538704274158712, 0.5313116854401261, 0.10376272234232786, -0.3463387036664076,
-0.5585754682966648, 0.7023970139128721, -0.07664075047693197, -0.3627161931337075, 0.5887684073257895, -0.09894667385623368, 0.46720855270346817, 0.9716974110503553, 0.4572390418323615, 0.04739979815031958, 0.28158559331269206, 0.2820434657912463,
-0.9190625489866577, -0.44275622057207453, 0.8414874689670295, 0.5810286094203376, -0.1150622775155119, -0.9201616494247356, 0.7377022601284158, 0.19570466038950896, 0.2136177379807287, 0.9124401133116793, -0.1554839373746737, 0.8708263134791574,
0.036415740950134445, -0.7760292621072304, 0.07496519321247241, 0.9645363281777026, 0.9637961166941738, 0.02847640769063231, 0.14907117461720176, -0.9633574935733917, 0.8544617125322636, 0.35146582675006943, -0.818585485685122, -0.10692130049071391,
-0.3441446479919845, -0.882903189535285, 0.46134617188904103, -0.2811760615596932, 0.5318077055987329, 0.11056486705485824, 0.10323972561429784, 0.35207031610064066, -0.3955545273696215, -0.053405304383004726, -0.24818219743870173, -0.1296816673817931,
-0.7964914348771885, -0.894571010279404, 0.7787673591712592, -0.9328297274408364, -0.8018550293990669, -0.35883363422693737, -0.9327422320897583, 0.6146302484444148, 0.8765988403774108, 0.8510515602900255, 0.3184879136948129, -0.10309397040242896,
0.8775909575838918, -0.45668076113372535, -0.6998304728958851, 0.6188443769612353, 0.8902896800795133, 0.8239130371386967, -0.5069831814377648, 0.42776743668652895, 0.4980824166563238, -0.8359567142339523, -0.3084537954568165, 0.40462376833905767,
-0.7098391179016859, -0.6810911275222011, -0.5330080301027635, 0.7080113199969311, 0.4932675858704414, 0.48633721302539934, -0.15774957697223568, -0.8687270698222309, 0.8180944623606026, -0.22239266966992233, 0.40806077190360446, 0.5739714956814495,
0.23860267181653505, 0.13846069744694534, 0.47552467962754674, -0.3811323873307715, -0.2547772862644444, 0.11427883633409186, 0.18373808730295282, -0.5910164471298351, -0.8790628754334477, -0.23399968901176393, 0.32285691470181277, 0.18077306510538804,
0.5011017527151291,
0.947091744577687,
0.7794290359599407,
-0.12084276978934838,
0.5692615206913896,
0.6014780103545068,
0.18702546413635623,
-0.3297906214665747,
-0.729902347042485,
0.7212258761920549,
-0.03650230340391669, 0.16931492213179977, 0.6814553425560339, 0.633608623139267, 0.22471669799183225, 0.568947019368228, -0.5912731971704983, 0.6151879415124557, -0.47137121367008605, -0.9982018165525428,
0.6070535278245726,
