//Neural Network File Format by Kyle Julian, Stanford 2016.
2, 2, 2, 3,
2, 3, 2,
This line extraneous
-6.55e4,-6.55e4,
6.55e4,6.55e4,
0.0,0.0,0.0,
1.0,1.0,1.0,
-0.7208725856979261, -0.8203786280497516, -0.16568388992701033, 0.7728775293854628, 0.5175822426078764, 0.5073618519565013, -0.5921958328567669, -0.6939475569415161, 0.6924180500453723, -0.27445108866203816,
-0.7150282659811324, -0.8895996236318027, 0.978242511166524, -0.9902167469970671, -0.06444262776956888, 0.6830841255840787, 0.6121236195513906, 0.08160341814872218, 0.46698103792318246, 0.6773144541606348,
0.8047078149409783, -0.8246796184690437, 0.15229807373897675, -0.5421257019561172, 0.44745148793301315, -0.7684943456776714, 0.8564813781463463, -0.5823835971635116, -0.3649059779257753, -0.44815825415572785,
0.4522663693944411,
-0.7361057719904038,
0.04544965174335713,
-0.8050557864797305, -0.45374607662489463, 0.009958553487887212,
-0.10337064682434427, 0.9822103701839136, 0.8869684236508473,
-0.5459791435374308,
0.4091772966830911,
