//Neural Network File Format by Kyle Julian, Stanford 2016.
2, 1, 1, 8,
1, 8, 1,
This line extraneous
-6.55e4,
6.55e4,
0.0,0.0,
1.0,1.0,
-0.860380576442072, -0.13627563826271372, 0.8663908357828278, 0.7431152631256634, 0.13207114966869105,
-0.3730878247249123, 0.2043240975369538, 0.8406115252637356, -0.3462863658610589, 0.2933917510180972,
-0.28388870634892927, -0.7273009871033889, -0.009286919798833893, 0.5901756063965835, -0.3438785618997189,
0.6057216144805846, -0.5270437198379483, 0.8390763889302688, 0.9191108360779507, 0.0972546273303343,
-0.6137298824741446, 0.36196907871135364, 0.0915734569241553, -0.13754978637035098, 0.7295217964136436,
-0.11249150738611213, 0.3322931006622234, -0.059143911923130066, 0.8666166613530808, -0.08126529079289302,
-0.27750326702266204, 0.28947350347120393, -0.8375860109485549, -0.3851820204556402, 0.028758959623780722,
-0.49332382840370004, 0.7282664924189053, -0.8620812429473976, 0.1987105643082625, 0.3821436814794472,
-0.35587161713605786,
-0.7137633900453544,
0.9743662103070139,
-0.9133440134554212,
0.48462827496638994,
0.7344894660679175,
0.42457472205083713,
-0.8775399920398099,
-0.8486050547454171, -0.269349596807956, 0.8794070928243523, -0.15165253001205103, 0.12787572844354989, 0.21697555871444907, -0.5720010684902932, 0.7391230093488517,
0.4791687974490624,
