//Neural Network File Format by Kyle Julian, Stanford 2016.
2, 2, 2, 3,
2, 3, 2,
This line extraneous
-6.55e4,-6.55e4,
6.55e4,6.55e4,
0.0,0.0,0.0,
1.0,1.0,1.0,
-0.9524325891780254, -0.99398952099809, 0.41416359575153017, -0.25471233765778134, -0.3343600618156861, -0.07087441002759132, -0.27720242121065475, 0.32032804294777506, 0.8789496428525054, -0.09158564506199829,
-0.9005116790542989, 0.3494063520662065, -0.03580317364555485, 0.5089981911913983, -0.09914207014880638, -0.32107471940201204, 0.002192807079844261, 0.5951809974406586, -0.14778136396552943, 0.4086734135015102,
0.7254208001186928, 0.1759187214607656, 0.16664505840274302, -0.03344003430054121, 0.5267653825483083, 0.8070045817526537, -0.8926044449317594, 0.9205972336864958, 0.6035888689954318, 0.4159665505251695,
0.44723495888543097,
-0.9594703871295462,
0.2030791042000475,
-0.7667669448061396, -0.2565221193624452, 0.8122092716956275,
-0.2903718436025571, -0.9646192875990409, 0.28729941245440527,
-0.8853194138884373,
0.636323357987437,
