//Neural Network File Format by Kyle Julian, Stanford 2016.
4, 5, 5, 12,
5, 8, 12, 10, 5,
This line extraneous
-6.55e4,-6.55e4,-6.55e4,-6.55e4,-6.55e4,
6.55e4,6.55e4,6.55e4,6.55e4,6.55e4,
0.0,0.0,0.0,0.0,0.0,0.0,
1.0,1.0,1.0,1.0,1.0,1.0,
-0.45450894628465655, 0.43087434721828677, 0.16967085986436103,
-0.8972923143561458, -0.5014750270727815, 0.5626932801399254,
0.31508664122602204, -0.18947724939261867, 0.36540130894408396,
-0.06530503182463798, 0.43963722546022366, 0.2684027402314322,
-0.35575234818463564, 0.1513718461414273, 0.7414512382661615,
-0.8269368078238761, 0.24565805939423724, 0.3848941173707754,
-0.8151215366174944, 0.5382209960300117, -0.08437397785563094,
-0.13983992307840998, 0.7554992377003411, 0.6931907467276957,
-0.021202292032802106,
0.6878143532812366,
-0.5985140734060246,
-0.9379328828236986,
0.7643965951446026,
-0.948971689975604,
-0.9796310771143872,
-0.6419013184099756,
-0.7559602147853601, 0.19159244590409186, -0.40215067119180326, 0.29785441760178877, 0.8781357247252628, 0.27022294577576167, -0.6551397280179558, -0.515835705279295,
0.18708885296985978, -0.5608005928358053, 0.3219354994737049, 0.3956928922435461, 0.029652759378000937, -0.7695862371674127, 0.6647258429916207, 0.5394213881120855,
0.8248843241403727, 0.6143848942646213, 0.9151277268463947, 0.0279484226265172, -0.4965269165438331, -0.7751997139209346, -0.9355002056049275, 0.34555105660693775,
-0.8017283613418162, -0.9843562527189991, 0.7276492878958751, -0.8597935259642733, -0.89343455579517, 0.9190375591708309, -0.12405667677101118, 0.4442258039504461,
-0.5641410967467055, -0.5975685292579729, -0.4399750101790074, -0.5053875364170692, 0.9808303149160458, 0.5640625776018449, 0.44753005045977323, 0.7058114461732652,
0.31358746505057455, -0.9834397665267103, -0.7853282319676431, 0.27954432262525364, -0.8400208017819559, -0.170241771428981, 0.1600642887974244, 0.6615302963305831,
-0.9230363275574489, -0.8219350600378821, -0.5590085941782812, -0.8530300333623435, -0.677441266768839, 0.530485475206453, -0.4182392049244603, 0.4080794799012719,
0.4222479264560497, 0.24950118874627192, 0.17408954563455792, 0.7288774740145545, -0.552254903224652, 0.6624421810465115, 0.47981565128233905, 0.6389590482358489,
-0.7113252515789665, 0.4532784967117096, -0.9433177279011469, 0.4525533427887023, -0.048365339983109656, 0.44415071146814267, 0.7887680671332973, -0.6818043246706562,
0.1023987785523559, 0.932313090201232, 0.3334202343237682, -0.5707032060076043, -0.2744742400827498, 0.1799427855269471, 0.8959354904994701, -0.44220281722636745,
-0.930242120148201, 0.004643743156775848, -0.7062931221749258, -0.8465452691776223, 0.7189382743481683, -0.5333548207573098, -0.425593663666624, -0.09079191493757088,
-0.22525288098675889, -0.38451321906386626, 0.4531012533047183, -0.8041300298483707, -0.9431631191931222, -0.7458581915008313, 0.2374483371520677, -0.8434545390373693,
0.8765614840482217,
0.5895484858835083,
0.5691888321539551,
0.18572945471829527,
0.8771992331302152,
-0.6865687163983814,
0.30339315585104165,
-0.029694015764007542,
-0.08798105754986452,
-0.19658784031290333,
-0.806867484422348,
0.512567022884066,
-0.5631592116279376, -0.30066174890217434, 0.8841713227186343, 0.18748464999040193, -0.11652975360961637, 0.965315729152112, -0.6845202150997256, 0.0923481750836177, -0.9463182267509822, -0.7425494276726963, 0.05363185516739222, -0.7151080988434466,
0.9145917489581823, 0.6805691976328636, -0.8744604755421843, 0.91066465474043, 0.010194021730456804, -0.6885693533133339, -0.555667025152426, -0.7521083099894286, 0.1850872616397048, 0.8197300055988554, -0.09799572127762746, -0.9788057538506165,
0.03629032040553337, 0.9827236042645557, 0.2779657108785627, -0.8017328477804972, -0.842611436998622, -0.9300290854219648, 0.7091565249021796, -0.9420672121622249, 0.537132312663918, -0.01713339166995942, -0.14548881124306856, 0.3518082296436731,
0.48013787413645437, -0.2709776079284336, -0.17134215967884048, -0.1419356193527248, -0.08094087880622514, -0.762095892731792, -0.998232759210711, -0.8757156825835586, 0.19343154348652591, -0.3838264668201461, -0.049366313920842675, 0.9300013381807557,
0.19043305395657129, -0.33308537623031453, 0.8380612867531014, -0.572198734375486, -0.3041828765207968, -0.35502318846511116, 0.9001228007041351, 0.48269223541551787, -0.4727202870445688, 0.0566321642184584, -0.474434193906224, 0.5930686866917725,
0.5644600106918047, -0.23314826854522552, 0.1239060018008793, -0.5518650187996168, 0.3504740644904758, -0.4566433599474249, -0.44357130144528334, -0.9829966441698983, 0.542597259691612, -0.6767421742850219, -0.6817384416217034, 0.9504539926223283,
-0.12965393695837113, 0.03358456248382424, -0.9819390053324475, -0.496016170130233, -0.18436691108508807, 0.3986226474347112, 0.7885574389604031, -0.9924713302378056, 0.5878620748196961, 0.16198652583395434, 0.8345163569893748, -0.8184384383298116,
-0.6916606689360121, 0.5783969005895169, -0.5570767382381372, 0.09039615283820623, -0.6635900211997128, 0.8214135083741989, -0.40331038818471754, 0.08890842667036125, -0.49706961395424587, 0.9215661530786576, 0.3946041372997562, -0.9338211664431815,
-0.05511966968866844, 0.365345747207511, 0.8021760485604239, -0.20707226708494497, 0.1590616698720564, 0.9791867700474741, -0.4592945086884481, -0.5594725279170318, 0.8927645435047467, 0.8191541563599372, 0.4086419297682715, 0.1343082579163548,
0.43939503934749835, 0.8534833641115092, -0.6894169039379872, 0.16168582349756822, 0.7209116656858923, -0.6739733426350902, 0.8218597036049924, -0.35019575258431246, -0.42860484291341105, 0.036840148094178904, -0.21564972211550693, -0.17234831446454013,
0.7936755639238915,
-0.7734784108280235,
0.46658166861007855,
0.9203630411575703,
0.5834246836712964,
0.5979920970712276,
-0.8150706433163073,
0.792840236373336,
-0.49639378127512623,
0.31952624875939994,
-0.5866996133180682, 0.8970284164088982, -0.7701190940101768, -0.13362849836969426, 0.2580648288596761, 0.28673317635186635, 0.8196518495367449, -0.3613239210861021, 0.8205031586116527, -0.7417319162387357,
0.29910144590877863, 0.8694158430108394, -0.28903324232366323, -0.7284369007682399, -0.6501923137997934, 0.8496505324156116, 0.8803369733050115, -0.7848619863466171, -0.22988580026451055, 0.8765702406643099,
0.1770345967123057, -0.18317123802705648, 0.5000551000763425, 0.79583849867752, -0.5686050037573214, -0.041514997107293006, -0.028235574682724973, -0.043902679803383915, -0.6750739354410009, -0.5890971727786498,
0.3437478981000117, -0.5550542231958597, -0.11346892319525725, 0.18040641830799453, -0.650829183738586, 0.2572698801167874, 0.5710719255055468, 0.254768349745758, 0.1595457791325261, -0.46997972424001766,
-0.8483587714863718, 0.8185284639951522, -0.24823519097145175, 0.6911374009215079, -0.43857953062805155, 0.6602263124515728, 0.2831691164279606, -0.6531929683425526, 0.12672186954208886, 0.5700268549094898,
0.2769579239176405,
0.14356750314614786,
0.9773615000156441,
0.06965119428189093,
-0.7249930094871737,
