//Neural Network File Format by Kyle Julian, Stanford 2016.
2, 1, 1, 8,
1, 8, 1,
This line extraneous
-6.55e4,
6.55e4,
0.0,0.0,
1.0,1.0,
-0.08168716184825797, -0.2738144171859491, 0.5676189771206128, -0.302725988696948, -0.4430366791079057, 0.5521603107541835,
-0.09550327432332706, -0.27630850571710797, 0.06757197142519455, -0.5129890355254005, 0.11367918842588898, -0.3797904857542931,
-0.6087798229166674, -0.5192319576086444, -0.842998861759503, 0.40392353500362743, -0.6310080601822725, -0.4480466716679863,
-0.8384111653004509, 0.9934686038437737, -0.2334720258830152, 0.2748701080941949, 0.5013998795446568, 0.6600960801990916,
0.4351710090438785, 0.13224730775099536, -0.14070394114316898, 0.2778146529126486, -0.17535425822009643, 0.6966472035231446,
-0.620527898433116, -0.19587295416303885, 0.8778174036369908, -0.16408242757165947, 0.10117721859699857, 0.32193120130588504,
0.3371866517314559, -0.5830010995518151, 0.6193992363102754, -0.7452258016604847, -0.06404988706080461, -0.4637077841495869,
0.7768094070069926, -0.19140726634557792, -0.35195534937619977, 0.594973286348063, -0.7263231650199873, 0.35882775869594097,
0.17362152866312686,
0.049967938864668326,
-0.4018115441224217,
-0.8778089060188989,
0.2805469541508536,
0.00949002320709802,
0.007635464469883502,
0.5312623066051985,
-0.2928578923618268, -0.7601030168377902, 0.9589774093067072, -0.8320084528456504, 0.04498599056935104, -0.632372091729887, 0.3756072737324856, 0.18679331844633085,
-0.681049751796921,
