//Neural Network File Format by Kyle Julian, Stanford 2016.
4, 5, 5, 12,
5, 8, 12, 10, 5,
This line extraneous
-6.55e4,-6.55e4,-6.55e4,-6.55e4,-6.55e4,
6.55e4,6.55e4,6.55e4,6.55e4,6.55e4,
0.0,0.0,0.0,0.0,0.0,0.0,
1.0,1.0,1.0,1.0,1.0,1.0,
-0.680548353571778, -0.3616519470161901, 0.8182956099421248,
0.9045775670063714, 0.8644517353176262, 0.9902258574244405,
-0.7824899163604608, 0.6077439777659097, 0.7609059849455044,
-0.4682533833113869, 0.08032217684877674, -0.8005445815465944,
0.6444507633354859, 0.1432427008534476, 0.4758303494766589,
-0.4716045998395475, 0.8870341848334786, 0.1444286957280152,
-0.8265139257061245, -0.6699843724255934, 0.6062578748727825,
0.32268342798575, -0.3407334957946708, 0.9372840902749253,
0.4206754656752487,
0.46399872648698004,
0.46562788774967645,
0.15149115803387092,
-0.5212740002473,
0.6597609767950998,
0.953064173484246,
0.7021518275309582,
-0.5346095343682729, 0.9373809266681938, -0.9744701512001757, 0.33140478916212546, 0.7260029022476946, 0.8682158392170893, -0.9536868325476013, -0.2120858346369423,
0.9150456223399357, -0.3368994733583297, -0.4455069270958183, -0.6221236007660957, 0.003920729916534693, 0.33142642314329684, -0.12847402274711683, -0.27601967239024994,
-0.9799246685031182, 0.08751708328979779, 0.4368586236389387, -0.15243278310434238, -0.21987152976914093, -0.9881035266181457, -0.25904613700381196, 0.3999135434945136,
-0.9045545598648026, 0.7253702161330864, -0.182764188350089, 0.7463781615473435, 0.8258892101722433, 0.9244868682905949, 0.8145747168834241, -0.4179057161559059,
-0.44090936065984865, 0.4569208920949488, 0.1692369679511745, -0.9012544739644519, 0.46995762264653607, -0.3713519304572488, -0.9365923599454855, -0.9012190841521073,
-0.6953722159650955, 0.22594320245107236, 0.4519540042700254, -0.9917390850935495, -0.6253154127099418, 0.7872208137701575, -0.9986294232603434, 0.8931350252930663,
-0.013124290157082275, -0.48654430559696715, -0.1253216180217427, -0.9917740160489279, 0.9964721449284486, -0.3084812505298191, -0.06827909924596653, -0.593591436660299,
-0.49081107736996366, -0.29178839328453776, 0.5829044470048776, 0.3311764212227648, 0.9147818541177957, -0.11047657748443118, 0.08549706907591359, 0.04738375736550404,
-0.139995613584166, 0.5285630965053847, -0.7912968998172256, -0.029749178907303886, 0.6862968716271514, -0.8201618983350345, -0.5801917715704024, -0.7065109944449812,
-0.00999256460410125, -0.965583725917396, 0.0842202275150048, 0.9907140946162558, -0.6469152367640683, 0.11149253674132131, -0.1425544626420363, 0.24743951184075996,
-0.10151654296929902, 0.7516658063364061, 0.4417246446102596, -0.23574849018245025, 0.5055628580118663, 0.4321966215646489, -0.37311392931318466, 0.356492061988698,
0.9699909475012056, 0.3722526829485595, -0.8680469223983893, 0.49979245446123244, -0.13242406305787258, 0.6846773214194406, -0.7130951769852918, 0.7064292213124954,
-0.4818732131422383,
-0.3750390379155255,
-0.4835716081562187,
-0.3458936685267795,
-0.43487847066107443,
-0.2922409299234805,
-0.28939216263595213,
-0.9608538107120013,
0.059939569366778134,
-0.792602239187624,
-0.5584040177512724,
0.7278881074733996,
0.03460287195479328, -0.3857063196984174, -0.7041663954801409, 0.8092625384790826, 0.6250904990788486, 0.9466300452796688, 0.3750885373913251, 0.34825327531588846, 0.3226478562405033, -0.8670357164851406, -0.957012552782849, -0.4661029054931536,
-0.5955071172590398, 0.6164150581690673, -0.9217190584189163, 0.5235027877676819, -0.83002854910576, -0.5831506259364039, -0.5395895461493674, -0.5873841731564311, 0.5557871515376256, -0.02339668469067524, -0.35556173599738816, -0.13754204889241484,
-0.12589767735534219, 0.5419289856839486, 0.570840588683363, -0.6383207647594822, 0.868673002632645, -0.38289492861767904, -0.9475483533522997, 0.07208325046559727, 0.4935631134608558, 0.661992549773168, 0.8097404377554609, -0.4151563025761984,
-0.8643387635850677, -0.22938945609910766, -0.7733981359040794, 0.6455081136000769, -0.9171353252809888, 0.9248348258603585, -0.11829567205842251, -0.9773617310132083, -0.6398862493484452, 0.696029756857167, -0.2608242142612123, -0.31772856526705295,
0.693319636727221, -0.5066818183386061, 0.13665093621815405, 0.6681530450996331, 0.1175111730827556, -0.07963837746699687, 0.16975086378326942, 0.6972105486679898, 0.7789408539282223, 0.2205601773062753, 0.8045067382825737, 0.45522875685330355,
0.47599802391198676, -0.27841104969126285, -0.4259819449127029, 0.39616203102179126, -0.4163577829337317, 0.23308034604320715, -0.23467368665186417, -0.5668725923189206, 0.8683169623632327, 0.018010212619509858, 0.046911052374860596, 0.8773427724792531,
-0.03196169704496343, -0.04676291518256237, -0.46768965493284487, 0.950909960128818, -0.8679287767524131, 0.688290728538445, -0.5434366487140916, 0.838457717308887, 0.9776978564928851, 0.4279000674777107, -0.0109331838517015, 0.48065479672048816,
-0.8398669044613114, -0.9249262822078474, 0.294399851320013, 0.7501691547781251, -0.7340358929359323, -0.5741523928732395, -0.9892881699803731, 0.5257186708079327, -0.20839281768835605, -0.2950151875627878, 0.13615879331710357, 0.3048538932119551,
0.5129356957210005, -0.9635718336722339, 0.7765148279800145, -0.6821956451128837, 0.4891747563381843, 0.19178445432274316, -0.5004264146013049, 0.9118235264060015, -0.8506706788044518, -0.6024466116444027, 0.3484876499424554, 0.10785894780618444,
0.48783751913853557, 0.3165038702254286, -0.309566164973031, -0.25056001672781214, 0.5358643507405496, 0.3682759511467344, -0.09149619008498622, -0.6472680807253495, 0.5454239330021657, -0.18052461563917, 0.28349457416843604, -0.9698337760993043,
0.7586919133657815,
-0.9014002977143596,
-0.2280000731971361,
0.36447412519250655,
0.4447259084654518,
-0.9506286273763278,
-0.9243869220747762,
0.9791719881475385,
-0.23307514821082664,
0.34851304661631,
0.19593579662446636, 0.4928577783700394, 0.6170916884646971, -0.5495719549322602, -0.5299234887849362, 0.5372515953960328, -0.2635489346393438, -0.8411284087666084, 0.7486289900015382, 0.6652803422471854,
0.4595538188872692, -0.41791345354483944, 0.7281194098156747, 0.7879306460550621, -0.2250218909750168, 0.24611527835401148, -0.4097141810095035, 0.43942615607582036, -0.1795968982435343, 0.2481795631508832,
0.46730991099497565, -0.1430620394289055, -0.8138140624390742, 0.1274275864675758, 0.8203057834871332, 0.3818032431417495, -0.4743066615602123, -0.051722283703449445, 0.2302576211930769, 0.033004299965487593,
0.7173239081559393, 0.030042147948371678, 0.06533937852108096, -0.4117927706634603, 0.23731495321416984, 0.0047294842174401275, 0.8725067861360367, 0.6995290279420501, 0.25425730890417997, 0.7143328299171761,
-0.8520283834108859, -0.7620134363832745, 0.607017586891109, 0.9106360026152158, -0.4560600983453522, 0.7854869305470773, -0.29725108479659346, -0.5150357384842477, -0.806849094544817, 0.8509062121992423,
0.6384963485177337,
0.5859591396889101,
0.16483868033664084,
-0.3838716213826312,
0.46724737548636286,
