//Neural Network File Format by Kyle Julian, Stanford 2016.
2, 1, 1, 8,
1, 8, 1,
This line extraneous
-6.55e4,
6.55e4,
0.0,0.0,
1.0,1.0,
0.014625468551765053, -0.42397736339768244, -0.5956639037317402, 0.7547973469011384, 0.7761227860459803, -0.2694296134183731,
0.7671929463660101, -0.3102297001993639, 0.6357614337395154, -0.7374202105085081, -0.01120425871084274, 0.677478629838872,
-0.41443319408017354, 0.7151660032555163, 0.9436208898121414, 0.002288754242064872, -0.07965494485486779, -0.8436711796943186,
0.9342286109064597, -0.9414876430703107, -0.8989608444060941, -0.1659950340087133, -0.8906560879332464, 0.31357399386751217,
-0.17180733745623433, 0.39496473149353184, 0.16404498671733814, 0.08034515441018719, 0.5176400680625219, -0.680956249475162,
0.43083452385457566, 0.46096320096434384, -0.9162339990633934, -0.3462266548884836, -0.4681352711972462, -0.29986795728644866,
0.5806584003571058, -0.9143524481652157, -0.7574937094169227, 0.9165032628728986, -0.02450969880358267, 0.22547340721988052,
-0.2845581878471588, 0.5465709211074414, -0.985996249805619, 0.1507592555885715, 0.315046749867951, 0.9231531291673103,
-0.5328172425999913,
0.11662779502989773,
-0.5761734360214383,
-0.6435989756333669,
0.3895570573236533,
-0.16199805736085304,
0.4362519244219274,
0.23352033748589296,
-0.8144269913952993, -0.2151406116785819, -0.44312626833270574, -0.58832292009386, 0.7797002007103466, 0.7767435272146321, -0.6835307430565476, 0.24341035713682535,
-0.06491284246681284,
