//Neural Network File Format by Kyle Julian, Stanford 2016.
2, 1, 1, 8,
1, 8, 1,
This line extraneous
-6.55e4,
6.55e4,
0.0,0.0,
1.0,1.0,
-0.35157289419829896, 0.4373253294516726, -0.2762012265224998, 0.5660131058084921, 0.021863039391038175, 0.49436722428537827,
-0.5354730523983604, -0.2702641606150191, 0.7838549368604841, 0.5182654833681668, -0.03407567311310533, -0.3587922320873602,
-0.6127277444742023, -0.025123542423468592, -0.8604066781832582, -0.6248049131677336, 0.9037954109974473, 0.14616558913215094,
0.10531503398853559, 0.36710981832264267, -0.08061196551373051, -0.5559091067777531, 0.2165700715555099, -0.7041665660670313,
0.7663380777275766, -0.8038196789227587, -0.7008287692378317, 0.9254126992584393, 0.4719993813198502, 0.08517649336617472,
0.6340437278169766, 0.47259615313516967, 0.3989342680981589, -0.5179443965229216, 0.9191447819284959, 0.8175373406607083,
0.1733958346944071, -0.8680815077442596, -0.054563664879732965, 0.47597906505517296, 0.6025165043065064, 0.07696489603116863,
-0.7577467668097819, -0.2725837019277235, 0.056078771636314695, 0.5720738292052188, -0.2928063735353481, 0.35446120325590513,
0.4091227797080559,
0.1010430712281174,
-0.08691390347394323,
0.30090963909333324,
-0.13543546192506328,
-0.09732277735567951,
-0.8989266200343824,
-0.8478054386213492,
-0.8093103325265734, 0.9474616122875266, 0.5426408875456383, -0.7576831929104668, -0.9990663503453634, -0.9274845281286899, 0.3573465977272807, -0.1328466371772783,
0.6693449922950996,
