//Neural Network File Format by Kyle Julian, Stanford 2016.
4, 1, 1, 12,
1, 10, 12, 10, 1,
This line extraneous
-6.55e4,
6.55e4,
0.0,0.0,
1.0,1.0,
-0.06849985973166683,
0.27894086121442907,
0.7376889871449341,
-0.5705922285427554,
-0.6246266985212836,
-0.004128931903820021,
-0.39541345035157427,
-0.29082660774266245,
0.05421373001536933,
-0.4631658946155839,
-0.4757607920131184,
0.5902250492131862,
-0.4380959654153056,
0.9935724849883574,
-0.15283980115365958,
0.16813886766466624,
-0.8534710247114976,
-0.7557882135220062,
-0.7649130855949093,
-0.29665567866633236,
0.2104186849837184, -0.36964904496787554, 0.996221512921939, 0.610929446465466, 0.8307133545753151, -0.7855174963263996, 0.449825400717875, 0.6516064073640959, -0.5212538852568045, -0.6053863516744609,
-0.4620267707592469, -0.4606074549781787, 0.5530609164151699, -0.962196792417175, 0.7004210201896761, -0.13463894485237127, 0.519644552529297, 0.6813059374210035, 0.8257279867955298, 0.6821512005024761,
0.2629393566019824, 0.891402486631407, -0.19619530839680044, -0.6972139074705601, 0.912075779184625, -0.7588893208848684, 0.5628736815197617, -0.46343171132119343, -0.35812938652281545, 0.13869896709669138,
0.05293571043376888, 0.7384782449081886, 0.7596761695956373, -0.7617735770259868, -0.31361015654753777, -0.12853192374953748, -0.038923848854695464, 0.6230801953239999, 0.9273889464145544, 0.8103415992367293,
-0.42699308638019184, -0.6172126651025893, 0.9993156664202338, 0.07341506997934744, -0.9582754702173952, 0.7244150850014028, 0.6096354954518124, 0.49378395598590963, -0.5425707307074057, 0.8941827324901332,
0.42339466881130994, -0.49726855801822945, 0.3050439179039395, -0.5370076839901037, -0.40540051558049095, 0.6751662956586486, 0.08783044498091463, -0.4599402211633885, 0.6072023726145752, -0.9003628420570688,
-0.06393240951016876, 0.338440286292903, -0.9670209037075304, -0.6508638463075203, -0.5582169773211483, 0.9642544762958445, -0.034164709937469784, -0.21586622806708622, 0.30855924445791105, 0.6355972185793748,
0.03268055305530204, -0.42413881009139276, 0.2902706083744455, -0.5269629987269115, 0.961456040702021, -0.7767998878075919, 0.8609453554202333, -0.7983139483514625, 0.6413145025841547, 0.5974830770573201,
0.06891138131747088, -0.4574087177834687, 0.07430540374208627, -0.10964665275055774, 0.13544809782337408, 0.14126403834946144, 0.31641483048839003, -0.6205620731218837, 0.2882235348615536, 0.1918551299534248,
0.22990933236124445, -0.6401481855500735, -0.702195064432646, 0.2214498653840935, 0.9592467517844954, 0.24660594330396224, 0.4412846689065053, 0.34235026046291406, -0.8179801988765791, 0.20070832831515428,
-0.5763395133072713, -0.6878776136768185, -0.9472838273043491, 0.5122212209742729, -0.7741562754936755, 0.362653522674826, 0.4980823665182941, -0.08833213859682054, 0.9717858107094961, -0.6371198761195238,
-0.0028748341268345357, 0.5658623157430571, -0.9859925373148348, 0.31362521173879143, -0.8397748721005316, -0.14738231923934197, 0.05248567501178725, 0.7482890695229929, 0.2772786270747458, -0.08835847765392968,
-0.04270811497539828,
0.4933192700666562,
0.31088455987418095,
-0.6348140115033143,
0.09912856234526357,
0.08782145789154683,
-0.12001765657486674,
-0.7400833065121661,
0.9696545404347754,
-0.5025358433665796,
-0.8783577016236359,
-0.7127604518839874,
0.9121592929123912, 0.15816247881034373, 0.9103001218534219, -0.6393375208662619, -0.5094384645271339, -0.8097668889377796, -0.8629477491463353, -0.30549404857764273, 0.29157159364912655, 0.9254324474632596, -0.14392257146881793, 0.9481447318923659,
-0.026337040902082443, -0.6071521587383995, -0.8196777541294038, 0.09998549167393866, 0.28932375129242205, -0.7765733589340358, 0.8613397973973647, 0.22004796448867925, 0.2172042747016949, 0.7524518770476041, 0.6829716586892545, 0.07934265795497009,
0.8611043443132327, 0.43798523356249097, 0.06682962146597538, 0.3267699327174114, 0.916869392088921, 0.2224408314636741, -0.30821587780350335, -0.6111338891501763, -0.3858179264363968, 0.6999496968488632, 0.19898682835208303, 0.2606175465148186,
0.969466206927176, -0.06399737033315667, 0.07037075615492938, 0.8326160644641685, -0.20745083855030266, -0.5735437630907585, -0.8081023364875408, 0.19946546322750836, 0.7626518985156596, -0.11457605862805442, -0.3850492279730653, 0.7606685327311542,
-0.3281786557774127, -0.018182696222718953, -0.030081409065678688, 0.7966258402078252, 0.9639332015604718, -0.5088244486431472, -0.7263015457453701, 0.03779804254066432, -0.035909708384248784, -0.8531630155414485, -0.2071189590770346, -0.824050021434791,
-0.4138378712973343, 0.19419135094965867, 0.28355123635085544, 0.8977716554856108, -0.13168539708751315, -0.9157233294859335, -0.6079761376767339, 0.5923811184751977, 0.20115067088414973, 0.5690461706982295, 0.03461972565577254, 0.8616401074806843,
-0.6536732803237406, -0.11878405579305884, -0.68252146112739, 0.0030365199531501297, -0.04327106568733763, 0.8093677827491739, -0.4218918243582048, -0.6799412633416608, -0.04339082004380357, -0.12185493715523021, -0.8915185815363049, 0.15706076352206377,
0.40547091232780064, 0.6259872885510362, 0.8000833025191674, -0.426463626122763, 0.7866063984944498, 0.5545890464027727, -0.507753096368694, 0.5959747746633282, 0.008858607088594095, 0.4043419912245265, -0.9318713478651559, 0.583108675423913,
0.7374793867915455, 0.2800410961454536, -0.7108255898679703, -0.20713220773013008, -0.5192609215588533, -0.7965623240893565, 0.37268033672065926, -0.4672998439683935, -0.5529963192695897, 0.2902390348870445, -0.784295185718205, 0.754751264715591,
0.9426380593010477, 0.45418050495779116, -0.8474588471889715, -0.23266209441704522, -0.7417711474924613, -0.3128735506188418, -0.6495786151825222, -0.3664526604887568, -0.3923410655410895, 0.6088970998622005, 0.11881802412198361, 0.46827365725057524,
0.03763259487413784,
0.23460543422903601,
0.8860565946319952,
0.9528187640902099,
0.5966498143816543,
0.8360696755031944,
0.3921366536759976,
-0.8114607501360944,
0.17926531704001514,
-0.9332397975934432,
-0.7704861786214141, 0.38444613007765893, 0.32678462384476337, 0.0326964966832497, 0.7497484056606338, 0.12589955152293175, -0.8024849144614836, 0.06800133719060364, -0.31223174602667303, -0.14500131994579712,
-0.8152963607456329,
