//Neural Network File Format by Kyle Julian, Stanford 2016.
4, 1, 1, 12,
1, 10, 12, 10, 1,
This line extraneous
-6.55e4,
6.55e4,
0.0,0.0,
1.0,1.0,
-0.6675556168781016,
-0.30671110610369823,
0.21424958245581127,
-0.6266101106245627,
0.7503167944839726,
0.10465484547626858,
-0.3796747532951805,
0.20588932874432597,
0.13085063943666242,
-0.5197444931989748,
0.7191030805377934,
0.45186852385754284,
0.006896218668990706,
0.9399348658856153,
-0.870194265703363,
-0.15056389622553956,
0.36553791598505603,
0.4854562755867722,
-0.5316192320698838,
0.5269346318786376,
-0.5312898709199252, 0.2867379488850914, 0.47313059692080106, -0.45504867895358325, 0.1938078666448355, -0.11768597893952881, -0.5380892955149239, -0.47546830474156376, -0.9123489944191991, -0.12996782361066428,
-0.7066996077569909, 0.19238040350469676, 0.9098492539339991, 0.7980113547768224, 0.15348054047609772, 0.19577080488014165, 0.17946596796672676, -0.30231345403629994, -0.6762996703533624, 0.8471988588324724,
0.14043068923572521, 0.45036383014874115, 0.040015291316670254, 0.8493300042679968, -0.8247473106015502, 0.19696631819578148, 0.8216542423329933, -0.8531530028617613, 0.19543885858844767, 0.5579498709491904,
-0.22406881797417233, 0.8384255537078866, -0.9187749851267606, 0.9158407330436034, 0.626355237069931, 0.7287522804078805, 0.07166848701944861, 0.15109288737726212, -0.1615627800587629, 0.3780692807601884,
0.5395668743320279, -0.2625112139644492, 0.6010140312284578, 0.9394446630610993, -0.9370145320297181, 0.44462851324631725, 0.9084642133444212, -0.8220539922826333, -0.42846956900986655, 0.8732126019821513,
0.17130068354081995, 0.416815250084865, -0.6180604765861113, 0.261556160411875, -0.9167467821252111, -0.4663256937760165, 0.13748147113832987, 0.7767244504412694, 0.5812529175797954, 0.3730066732610764,
-0.010282489992579524, 0.2567318343893592, -0.07860786822261856, 0.8472531251412319, -0.9257775056225142, 0.2358997750704499, -0.23490561528821363, -0.35476840567159806, -0.5217361107136296, 0.11350730806106935,
0.5047273696613588, 0.023551990702312064, 0.31185989275341885, 0.774363914699947, 0.06564915008439165, -0.4500616635309225, -0.62830123870798, -0.48992477878492924, -0.6914737669990836, -0.8023701521593112,
-0.8027431627543651, -0.4451060857932738, 0.2828118620708797, 0.9994307102097157, -0.8229266294311226, 0.17779028855109358, -0.21852995108964635, -0.23473069590223306, 0.606775790012664, -0.2651814413133269,
-0.00243940495139805, 0.8492442538786227, 0.9918396481283511, -0.5222327315768931, 0.13822845598653188, 0.9016990065299839, 0.26359585742642944, -0.4686233111176379, 0.530266261948519, -0.4174065998430869,
-0.47581282722350116, -0.3005854138910271, 0.6739023968865738, -0.4512096459827548, 0.7719378379879767, -0.9215944225139654, -0.7437437447135551, -0.008602284314620068, -0.9707857841182963, 0.5066762957405597,
-0.7840818110117387, -0.2939316477468519, 0.11352592850481891, 0.6137623253978246, -0.8582022375706355, -0.46602767549928314, 0.8837048684557511, -0.8773291774962826, -0.4400967155721971, 0.6451736698784507,
-0.9763198107908484,
-0.8652182414763754,
-0.022336192821022394,
0.9769809683749915,
-0.640508155873134,
0.8416732448903281,
0.5961988903831879,
0.9950012960790877,
-0.48561950979066726,
0.7117005370748108,
-0.6718529279750727,
-0.18943748757670908,
0.315074204708361, -0.4536795277090837, 0.04250322462173539, -0.3986964557294126, -0.9551626400238908, 0.6559002085930157, -0.20924929621838606, -0.6929428719381239, 0.8318280320733007, 0.507908751365207, 0.5117676260377904, 0.846090933369847,
-0.45248161571453815, -0.8760809115754236, -0.16770025025229485, 0.6448967010145923, -0.4710274297639514, 0.23543334288380224, -0.8828718808817957, -0.9141336368095558, -0.9522660289726517, 0.16069604077748822, -0.780694705769529, 0.4358654956463637,
-0.8791531782941724, -0.5117161577539941, 0.1468960011154934, -0.8135422903549543, 0.011616703609465429, -0.4603555119112146, 0.2359456108538054, -0.33754646816349476, -0.08786125168630043, 0.7319856684650001, 0.24765078456916712, 0.2720105271440336,
0.8934030198620375, -0.09098887955020896, 0.5353131450783577, 0.488960650890895, -0.4159619626313935, 0.28470761304993264, -0.643437253781125, 0.9528725086461303, 0.32999656342555594, 0.03459419086272142, 0.5921749517429817, 0.0722994119460032,
0.9452383586097857, -0.12973432084167724, 0.32211828793359354, -0.8080461642684833, 0.6912880628233311, 0.4815097604319196, 0.23989619389121586, -0.42038798041969994, -0.2955040672621094, 0.6376410992557857, 0.9475445189196137, -0.5248886717680459,
-0.7311786376565745, 0.4951165852245851, 0.20035513285309525, 0.44259408345474194, -0.5915724660571677, -0.15350785650357324, 0.5959689009046314, 0.35287388977042644, 0.42301328542783834, -0.7023345250220037, -0.46501599991183573, -0.8071128783144341,
-0.1414924933943258, -0.9852140966473599, 0.051287093983782395, 0.6926380859688304, 0.8953822959535729, -0.5934740427319158, -0.1570378801969987, -0.2906763273667834, -0.41720207211713944, 0.6244366631526477, -0.18370756376296393, 0.5798282493569973,
-0.16642660375026885, 0.24546251791844975, -0.33119859752734593, 0.6855366580538078, 0.020620683894820857, -0.7892917598222544, -0.9811657755790448, -0.4286258736002986, -0.8132084417184338, 0.5232840412772717, 0.13248312329023237, 0.4229636116585409,
0.5317137578026605, 0.4572753984768667, 0.27317271635574025, 0.6449128399059503, 0.9857244700016188, 0.37307654896137477, 0.8007750902134476, -0.5857758104125788, 0.7653941448114807, 0.21347474530600152, -0.11978387528773426, -0.8542907548063643,
0.9833838464738709, 0.801020128334379, 0.8277631684667277, -0.6605285447280029, 0.06217690166850032, 0.2573020954700227, -0.218438079238211, -0.8339216648167547, 0.013837206148949566, 0.115437602359445, 0.7671767428346921, -0.51382766511052,
0.75194155931983,
0.5753557764597499,
0.20013737361617645,
0.7290675916678508,
-0.7320463755288271,
0.6869000244695886,
0.93551164619655,
0.07321267560685163,
-0.25725013935079266,
0.1871022089147263,
-0.6495717100044747, 0.33545623022259496, 0.09542836517068531, -0.5133253488058691, -0.2881864450862879, -0.45011358155658554, 0.4999584326131048, -0.6089782332247866, 0.7832480012210392, -0.27985145002802403,
0.1355742400719424,
