//Neural Network File Format by Kyle Julian, Stanford 2016.
4, 5, 5, 12,
5, 8, 12, 10, 5,
This line extraneous
-6.55e4,-6.55e4,-6.55e4,-6.55e4,-6.55e4,
6.55e4,6.55e4,6.55e4,6.55e4,6.55e4,
0.0,0.0,0.0,0.0,0.0,0.0,
1.0,1.0,1.0,1.0,1.0,1.0,
-0.030843463884411282, -0.7439334216823386, 0.48670668564981767,
0.16448901308479158, 0.5634148129609633, -0.43796703780905677,
0.834666965825063, -0.1280341882979399, 0.21559772700040636,
0.6900453863179643, -0.24204532422757818, 0.7841016991241081,
-0.32177034597846, -0.5209691813928141, 0.8553467906974372,
-0.28404512845524676, -0.23685366051676526, -0.8229135856064964,
-0.6938459447795537, -0.29174336854149896, 0.8382573376399285,
0.32342876976815216, 0.7883422228064147, -0.7507572641097928,
-0.24231745769256596,
-0.5684682464075612,
-0.8567903363505067,
-0.20969936314061233,
-0.415707437210866,
-0.8061928382617931,
-0.19306464587999672,
-0.6382081427123576,
0.8791365519546588, -0.42832838690079766, -0.734997941505561, 0.5540910354065987, -0.01818922358678643, 0.3913860927959911, 0.2128390778674234, 0.6793116230133078,
-0.8272013994806158, -0.6301656853573365, 0.16168348470436156, 0.969491941031773, 0.41578102309463816, 0.32891713585947846, 0.5788590193606677, -0.916223420347333,
-0.1616257052523049, -0.6602939038226796, -0.30574299442940633, 0.23404338026131732, -0.13852762342765557, 0.6428095638462383, 0.18547471244186076, -0.673290036499715,
0.7847908949296389, 0.4884512435010975, -0.053854248489614065, 0.6819078500753144, -0.6161157530532795, -0.9135935772673465, 0.6104550031882723, -0.20602582824475713,
-0.7212030261775526, -0.5631432494204724, 0.02700550018825698, 0.5003290855290965, 0.9080454118988701, 0.15979689988936396, 0.5358813667490518, -0.4927270253173841,
0.9954683230030037, -0.6831204233195121, 0.12374848996043886, 0.5936104390532342, -0.4607680068026556, 0.0038023803947893065, -0.766720988232513, 0.14922415769440667,
0.9721096459338963, 0.24619267719936966, -0.11948625036095528, 0.02225325739294215, 0.8237617254195011, 0.4411062667472829, -0.9889811827405737, 0.31279951788655413,
0.7561156492042538, 0.004784125466255951, 0.4276500388196305, 0.609615563880888, 0.6403246147840775, -0.2701904421829342, 0.8911138685146778, 0.02447626066166686,
-0.871465440311336, -0.009236453307859271, -0.06353268112098753, -0.9158400800908768, -0.04454883054471681, -0.4608679174616661, 0.8096320159719741, 0.5366807069257074,
0.48610671180693554, 0.8220680152018032, 0.04745132135418073, -0.3815505233631624, 0.5255486111361503, 0.435219270319009, -0.3620079979560247, -0.06403818806104056,
0.9396459966254809, -0.9762025453868133, 0.660147513384421, -0.6575971543508019, 0.46678913827741386, 0.48822723222651865, 0.16166666828142917, -0.06138473161203395,
-0.64117446836751, 0.6162482633363671, -0.682663210733327, 0.8872685552971666, -0.6019231880630591, -0.37296837747349265, -0.9195466138176598, -0.031069492495513718,
-0.1502795998706894,
-0.2099674313664952,
-0.03535544729239737,
-0.295828523535262,
0.1049763499000469,
-0.24061141439914246,
-0.8746150026559261,
0.5073765110221671,
0.03767315589114961,
-0.7111905294569065,
-0.18990747090234894,
-0.7976541479448973,
0.9153596962700479, -0.8598899883243734, -0.24399893860642852, -0.7284669913504809, -0.11579085797825961, 0.983365425837492, -0.6923685640575505, 0.8922912944217392, 0.5137501893987446, -0.15501561615784176, -0.6124725665456734, -0.462686720204875,
-0.2990106717622325, -0.7815968692576072, -0.7176393233910927, 0.654688147963634, -0.6406745312092088, -0.8837982515577361, -0.32758132177903043, 0.5356131642307136, -0.07557345660443726, 0.1369655068747, -0.9000283067122323, 0.872224722007727,
0.943739374120951, 0.528365021501159, 0.8355323274945707, 0.5854395911948966, 0.17661718900308632, 0.9921702464183331, 0.7227142936877393, -0.2948339813603136, -0.875137215965252, -0.07928272335352515, 0.28824130728990704, -0.6558630319988739,
-0.6493012799975277, -0.4481963025823248, -0.525902744804065, -0.8225107103191118, -0.7763580610774534, -0.7894214185077026, -0.16865590391636376, 0.44650586523815905, 0.7807593174998906, 0.4686869495580761, 0.39028696380831374, 0.38729610524796376,
-0.6598648581826212, -0.3291838700566134, 0.047481278234309254, 0.01572439620259436, -0.7877680288277795, -0.7860976900675971, -0.05540600577218102, 0.03477977108202257, 0.7129676064843142, 0.12349542479628672, -0.31879110807445077, 0.9738922517935777,
-0.8172765682331637, 0.40521354070664684, -0.15165932551952999, -0.828472536162836, 0.11005850197994071, 0.1784988694926839, 0.47645525214208106, 0.6243567897196729, 0.6728066670625026, -0.4541330860642767, -0.14215340275414112, 0.37821429078273194,
0.4244379305859245, -0.8309005694840503, -0.31897458763842446, 0.1667433678185115, 0.2773801430922389, 0.07891743471255053, -0.4635600341089381, 0.021760836197247446, 0.013855600576306859, 0.8838442204659382, -0.8552046063368923, 0.9877210364842015,
0.03903604052884324, 0.35990997634793986, 0.8665128734832193, 0.6368411904747369, 0.23639135911241071, -0.4715241516587718, 0.5537618761381329, 0.4477657139323581, -0.7025171686074669, 0.22400523014193574, 0.7213281290974005, 0.4872906535368924,
0.6572935863937599, 0.4823853111040046, 0.8005664081355262, 0.9862298221535992, 0.25817758655415135, 0.2181937752608718, -0.11891879539930938, 0.4425513540159667, -0.3663252730371771, -0.4644555343687502, -0.5126616119614287, 0.7031148539836893,
-0.6566836673320133, 0.4340859637279144, -0.8231157482003115, 0.10221409771216505, 0.43225046136538436, -0.24541778413826254, 0.32220007174400855, -0.38502575973064523, -0.8756044722796346, 0.033747971311095526, 0.34625174874726516, 0.32486728939009923,
-0.18502574022288343,
0.7868625279497294,
-0.48169653439755633,
0.8253532656151221,
0.05379770991170174,
-0.25540182992584626,
-0.9486570378477963,
0.3117485401299671,
0.857453369422303,
0.5406578796106416,
0.4279659039965411, 0.9156375025666934, 0.1479783137785371, -0.9194589618878046, -0.36382143666193656, -0.21077014457089538, -0.6547314077367106, -0.4229749327179064, 0.15192778852517463, -0.6902529879364567,
-0.3034432747080973, 0.5248763834700876, 0.2845638403813515, -0.2550864872218823, -0.9907094653707995, -0.2366622015480897, -0.8968059214538977, -0.7115391726272264, -0.05328740662089748, 0.04583444020310745,
0.4951722729726371, 0.20752217899326997, -0.8029268901702773, 0.9639297893137928, 0.03202690352204707, 0.6107486292176945, -0.2518871647147267, -0.11624301094548661, -0.8800766792370438, 0.3427193875425689,
-0.9147960148591161, 0.5467678748651634, 0.7948966474336445, 0.481100351282584, 0.8062347639281646, -0.22776908789639405, 0.13276527831800866, 0.24951848240372287, -0.7056126449630296, 0.6612217336910229,
0.7285699736281788, -0.34641145765266845, 0.9015155129937042, -0.5313812397406554, -0.2740944922020532, -0.07671072382711719, -0.6468026337875621, 0.5766100970179293, -0.9907764824519503, -0.07525893260086258,
0.930902864674326,
0.42765104471872917,
-0.5884815095703773,
-0.04868524545651587,
-0.7337098028939892,
