//Neural Network File Format by Kyle Julian, Stanford 2016.
4, 1, 1, 12,
1, 10, 12, 10, 1,
This line extraneous
-6.55e4,
6.55e4,
0.0,0.0,
1.0,1.0,
-0.4512661083124003,
0.973963007922912,
-0.7962737411884229,
0.23158527439632248,
0.2745837057056111,
0.17922166511613247,
-0.7094588797020855,
0.09058475934231458,
-0.9539703425927621,
-0.631367657123612,
0.20244416154267686,
0.8545388342381868,
-0.2414200090740235,
0.056157055029526504,
0.4623622172626365,
-0.6197668024101057,
-0.6137733211312466,
0.5516594593267024,
-0.2510694663971593,
-0.02723924026643676,
-0.310006728161917, -0.4604182611288219, -0.735054755205212, 0.08713127158517553, 0.5570817686823286, -0.7165721753789462, 0.9796020731535737, 0.13660424613369582, 0.3597758374636526, -0.29811348708296226,
-0.6763612569078261, 0.12226554873239026, 0.8947927382327525, 0.5258786474109769, -0.6522228583886567, 0.6549409343762393, -0.9347677273914705, -0.38237685345157146, 0.6734818250654344, 0.6467148391604716,
-0.8695673722041168, 0.32841236282732345, 0.436968022414411, -0.3485740182600239, 0.49323048560756133, -0.16223076012780835, -0.2494641323311475, 0.8637436937209664, -0.846076676547455, 0.8658718959314884,
-0.9053888740492111, -0.2281403981578336, -0.8822410744840568, 0.9225232958243601, 0.2985672451894148, 0.6277013296271865, -0.20897217399374668, 0.8655000089666807, -0.8337675262994937, 0.5791842832367458,
-0.5512275818775976, 0.49572202574295865, -0.40084974193013423, -0.38457815867866385, -0.7332592031933873, -0.736533515995276, 0.08584328986148604, 0.9833120125733754, 0.7550487560379548, 0.1466592575425265,
0.21664575159368615, -0.8492141580189401, -0.5610084243984481, 0.2813806251137225, -0.19784920817297724, 0.04008217865832053, 0.4074076801671449, 0.9837349384390204, -0.04103493367039057, -0.5981844817308244,
-0.6583481072383406, 0.4258374909668996, 0.8295767751310237, 0.16449891362308078, -0.42265089352410534, -0.7338821230595687, 0.3168891948499888, 8.594042775156296e-5, 0.7018559006959131, -0.4192248755623833,
-0.3010182131330037, 0.293161924974922, 0.5976036480722668, 0.9684613518894727, 0.0018141630005370502, -0.9487228200791313, -0.5198180141793021, 0.573672520184699, -0.5852496569518908, -0.3072120525126083,
-0.37606491546871057, -0.1464092882269168, 0.008782491717818974, 0.02000067579510212, -0.5227911031498644, -0.7475365438972257, -0.3716501388408635, -0.05024379360886844, -0.39396075575701683, 0.7637978012094799,
0.41740377094001024, -0.9332262265465596, -0.24147555606802618, -0.319406196262888, 0.1028911293826682, -0.9924660854481226, -0.10201984540225206, 0.9294394565948445, -0.48717575835208926, -0.8828244343765221,
-0.5338428389707817, -0.25780664324249214, -0.768675013573159, 0.8437553485935636, -0.0909320079163658, 0.9030023052322771, 0.3751813282941088, -0.9859992975076377, -0.05192763262010791, 0.11287527490570515,
-0.9173791222285264, -0.5075885676383449, 0.3129438553797046, -0.10067601476979648, 0.8733195828646325, 0.4531820194552476, -0.5134734948507615, -0.05399751060623226, 0.9420444743410847, -0.42638995519801215,
-0.7006790938400136,
0.23996193210386352,
0.9636679296735133,
0.5374273655775732,
-0.7284304512207602,
0.3909311029197844,
-0.49194711701307225,
0.47237491270255605,
0.04144469253499983,
-0.9861536564989843,
-0.7814962039863174,
-0.029790479389527835,
-0.4525806158737331, -0.5730290733094634, 0.36933356791486815, 0.8289036839158554, 0.6082445213322414, 0.8454741236102126, -0.4730487030832262, 0.8743017273327585, 0.6263204252575711, 0.43293893330181055, 0.31969600276339927, -0.8189359525287458,
0.7047300436457982, 0.20981700893058575, -0.9853153745639833, -0.1791133356598431, 0.19601038342668975, -0.744065188131013, -0.9129135480515029, 0.6396859377208841, 0.5881202412862376, -0.09668295517987824, -0.8253675960271356, 0.1635046589543383,
0.44358937627015704, -0.1736084534486797, 0.586092616171686, 0.4788037683124573, 0.8023495567683119, -0.6094994002294509, 0.5326463027365347, -0.6854303514795932, 0.5135552143776043, 0.08524548843815793, -0.14140781720672857, -0.8074378464051137,
-0.7036330117000129, 0.9974031831525685, 0.8454189774763967, -0.9800495267745091, -0.317815010881235, -0.11875125598888925, 0.4783784539634395, -0.11329002613637051, -0.13108543498312875, -0.4649511771971788, 0.9399319522117411, 0.24865959545506433,
-0.41459680564479795, 0.4657894944588823, -0.6858336685747797, 0.3189672581104701, 0.5193545692844488, -0.12929867227747405, 0.7720481934257664, -0.42409732792299915, -0.002102625315206552, -0.9004966489175898, 0.7117858565238264, 0.06934548309698307,
-0.23722752348950182, -0.9563781254594059, -0.02054378334480722, 0.5046499253082852, -0.2146761935067243, -0.45320606118404827, -0.5936459488350536, 0.33571552747139943, -0.6872153196097366, 0.3322957990283837, 0.558559259239527, -0.049884824503917624,
-0.4559547087258853, -0.6851369960525235, -0.9814478174529953, -0.7528641803716498, 0.03915409389784319, -0.10137901725998644, 0.17170832755054688, -0.9535899056925654, 0.20961128099353754, 0.5291896187157037, 0.6040087942404622, 0.7322278430882379,
0.7047893010655142, 0.7702782770145902, 0.07723378423019112, 0.11649763976629712, 0.20964023300913537, -0.08835019261596866, 0.49198312689156465, 0.10371325306795232, -0.8647164214843999, -0.47043652553090043, 0.6468592812362255, 0.7180318044423948,
-0.9559399402488955, -0.11377026897498999, -0.39622707553872116, -0.009773213839096684, 0.7286536717584498, 0.8516429171728759, -0.21520477706127794, -0.29971284889657346, 0.9077281175089666, 0.16414916596607387, 0.26750646031858993, -0.150577575471182,
0.1988251481412182, 0.08785519184847423, 0.7383390246251262, 0.9438255410429579, 0.7291432033144774, 0.5454020695779391, -0.7890215196139136, 0.21487162416800265, -0.5100488292418617, 0.5497526594784561, -0.6460277380488582, -0.7019492157005089,
-0.6421267814339426,
-0.27954130702635904,
0.8191340068313928,
0.9025847788810095,
0.35344838689614155,
-0.8524152299550734,
-0.015639573732550094,
-0.686469617554545,
-0.4127004405927326,
0.7400328465299681,
-0.16168942978626566, -0.9652597660228968, -0.15718918503712853, 0.3679071152429949, -0.8749158824766781, 0.05136429345566684, 0.934077426370953, 0.17525811056277218, -0.3486856029746024, 0.10539871034913562,
-0.5649983573457278,
