//Neural Network File Format by Kyle Julian, Stanford 2016.
4, 5, 5, 12,
5, 8, 12, 10, 5,
This line extraneous
-6.55e4,-6.55e4,-6.55e4,-6.55e4,-6.55e4,
6.55e4,6.55e4,6.55e4,6.55e4,6.55e4,
0.0,0.0,0.0,0.0,0.0,0.0,
1.0,1.0,1.0,1.0,1.0,1.0,
-0.624683421209622, -0.3491167172767984, -0.1057336660092556,
0.3811104758547521, -0.6123712255673173, -0.17818845773919811,
-0.9030888406602426, 0.36564439426672557, -0.5373207929570882,
0.09561688274533253, -0.7876002536974953, -0.9133870290604329,
-0.21904448209235872, -0.299753221979282, 0.3980895466641736,
0.06755104556822467, -0.9958011026508875, 0.1666956428687696,
-0.8101305058252763, 0.4051008372291749, -0.5719270845635753,
0.4611943072035376, 0.31402050224999245, -0.7187995770882156,
0.5883694339396746,
0.9357988862460558,
0.06314667921259831,
-0.49353734293830653,
0.04325303300534511,
0.5901249929383878,
-0.8197673522448308,
-0.12475876501660732,
-0.29973698748753375, 0.7328347010715954, -0.5738435533765083, -0.10009772440873821, -0.6379596018634253, 0.36454691769650394, -0.4357916910724078, 0.40546532135895763,
0.2002713587711087, -0.29689286490076316, -0.052054301475222164, -0.577229097679568, 0.8162431906872576, 0.7765783666816648, 0.0009205315194686925, 0.4822214952557031,
-0.14537403598410625, -0.050623815620967516, -0.4418292119276428, 0.6194507072169531, 0.43436458148862167, 0.35183937841268875, 0.4706605529357799, 0.7370357415537692,
-0.04472269391989281, -0.32009846883963045, -0.9082759083392644, -0.8050971606582702, -0.487459885824034, 0.9471272771982227, -0.04948133883874384, 0.7786000344470834,
0.2937965969490208, -0.20488943820029926, 0.41408589911300586, 0.07307718654015893, 0.7461689690400286, -0.5322556855296985, 0.7639020337456559, 0.22192625730604032,
0.6257988794043867, -0.7610605373249992, -0.5739751972221923, -0.16390508870690335, 0.8578018683583735, 0.6301640325583913, -0.7013779943326948, 0.1557285906114534,
-0.9596355645422645, -0.883905841573736, -0.37314469807616213, 0.815248039964656, 0.41448420676072706, -0.4636781167378965, -0.44982873057623385, -0.8572086238724594,
-0.3901477373768065, -0.2999079641061315, -0.6219528915833452, 0.8530688024791115, -0.12450029039405974, -0.5833167831201758, 0.9255085401033813, -0.9025162857664348,
-0.9725356948975268, 0.18810744222857068, 0.23905459794794837, 0.8652604926928755, 0.5189299949053776, 0.12819326379410523, -0.300412685452196, -0.12010065782570045,
-0.692852250423281, -0.4342020744991921, 0.573670853758228, -0.3468402628914058, -0.12598770247299207, -0.41721832502588807, -0.287531682975684, -0.7414010358829026,
0.8593010708533559, 0.49568512088270644, -0.687174814270874, 0.9490178392241648, -0.4830301389647267, -0.1413833174131307, -0.6147068155961692, 0.9433790739603531,
-0.692623325622395, -0.27351911215953706, -0.9105352727112077, 0.5365095035214362, -0.7618909116915402, -0.5344828284238661, -0.8763651243299639, 0.8607381846025048,
0.7985924178607506,
0.9569331842254258,
0.25807998569003043,
0.10331597139806448,
-0.8442775898912482,
-0.759827553312002,
0.7764364750908164,
0.6731046150928233,
-0.708238935835523,
-0.5109626307336459,
0.6952341099285078,
-0.42544187126622557,
0.2330386873795951, 0.24325426293668917, -0.5473334391028515, 0.16339586629177916, -0.9869492408619718, -0.6191942778358479, -0.009383924368618679, 0.9289770680438854, 0.20500145490231603, 0.8497155726265624, 0.8944340270686832, -0.7640287188959096,
-0.7079451286260241, 0.11448773918809252, -0.8433251657070198, -0.1740171249910052, -0.5311074608668216, 0.15065242461616624, 0.8726131412765095, 0.604205073748957, -0.3275543200057456, -0.6234846424741343, 0.24648376401814076, -0.5724863438988228,
-0.9878276819365901, -0.3597630795345088, -0.25052592205637536, 0.5464639962262825, 0.788591305596201, -0.5934119464502774, -0.6268610649715272, 0.10125569289190972, 0.5629862143049551, 0.04552118603971067, -0.6007192398616148, -0.29545583641966777,
0.24443500728730339, -0.4069211917631237, 0.45921180924061344, 0.10673831938202838, 0.1960622824500411, 0.762007134258122, 0.37801915446201306, 0.8970101287352383, -0.15618358605508487, 0.5458652397413304, 0.31693075111730185, 0.8408625522968065,
-0.8129108071040982, 0.17648423455475815, -0.3246272109793762, 0.1686004287996452, 0.9134212500687644, 0.9846890304755616, 0.32091472829010215, 0.9770448577548989, -0.819078559464733, 0.2708500587728935, -0.7281878071129366, -0.9705881309130553,
0.3119194832918524, -0.7895901014358189, 0.6477664988562029, -0.7224594012303904, 0.25598562460844043, -0.6684279062698573, 0.2983596389448113, -0.584333189808413, -0.3953619288261998, -0.7828126827288555, -0.6977095171125303, 0.6810341227875734,
-0.13090753635117958, 0.4845106110590782, -0.23344236662392603, 0.5318396996803525, -0.735941263033185, 0.9719829035911576, -0.028683302738668814, 0.28836884825320874, 0.9652581170792787, -0.46820842800475093, 0.9284097996139486, 0.23702614302515013,
0.8705118610719573, 0.6814274021875053, 0.9136146584234242, -0.7982809979322201, 0.2847249106862355, -0.28056430574891467, 0.28052900377468504, 0.2523149470799071, 0.8998416734445911, -0.7668851504082044, -0.06738796667411329, 0.9716232601063566,
-0.324426459750907, 0.3882533690658234, -0.9297779568898825, -0.2764739924304429, -0.27042549399920146, -0.2702430150257058, -0.7830439054586043, -0.8249433279097866, 0.6344078441912728, -0.19273782298970765, 0.4962378477393763, 0.814702861995499,
0.6363951878532794, 0.17330364562704714, -0.274503295753457, -0.6987272840354568, 0.0762182199558783, 0.821608555313317, 0.7160578733887255, 0.7597648598402853, 0.7905497115851228, -0.7082000072824695, -0.14461981317178818, -0.7438931824314694,
0.8626753515173515,
-0.010143506185412487,
0.2772423334896197,
0.06617543630649259,
-0.5918419633981058,
-0.5980240136264197,
0.3998647493888856,
0.1883991139750507,
0.017756343631881055,
0.8216582126682663,
0.4545638014509388, 0.4790692447905771, 0.9633775459811105, -0.49084528028581076, -0.60454545347452, 0.38216290784147455, -0.3884885130687188, -0.513193510452695, 0.15613683358968622, -0.05369820079018428,
-0.10008220518681821, -0.14935639926804578, -0.6231331444808506, 0.74583803039847, -0.11619911508716019, -0.828271617743046, -0.25176273092389234, -0.7123791777133235, -0.7214718979800603, 0.377129383169986,
-0.6909734168570205, -0.28381902106037504, -0.9588996352593075, -0.3895272618508976, -0.8474773787218091, 0.6263033917958261, -0.10927052713851149, -0.4267132211965792, -0.05713407318717323, -0.7292921895898954,
-0.44977605264162746, 0.9530294383422704, 0.6721346120903995, -0.12530256031506992, -0.6164361041455777, 0.6180418387063251, 0.8110661815655145, -0.26811659793395615, -0.930576837307119, -0.5419213413142177,
0.013989092396196057, -0.8501010541771512, -0.014360726798386736, 0.11535266504306918, -0.0030376328680610243, 0.5560361905281446, 0.9167592317052078, 0.7448492667938891, -0.12796311335170074, 0.12079852852993644,
0.7430740968378515,
0.21075082133019318,
0.6170378945294623,
0.679482840876513,
0.6904505355486337,
