//Neural Network File Format by Kyle Julian, Stanford 2016.
4, 5, 5, 12,
5, 8, 12, 10, 5,
This line extraneous
-6.55e4,-6.55e4,-6.55e4,-6.55e4,-6.55e4,
6.55e4,6.55e4,6.55e4,6.55e4,6.55e4,
0.0,0.0,0.0,0.0,0.0,0.0,
1.0,1.0,1.0,1.0,1.0,1.0,
-0.9766778370010876, 0.9849815181685009, -0.8905812714503334,
0.3915577790382021, -0.4407998153506192, 0.9703931447309433,
0.9331308040076087, 0.8443734224556967, 0.017316693746287637,
-0.6718137019611041, 0.32526031165509073, -0.05513555082910271,
-0.5435603839935661, -0.55027145611857, 0.42802690988518854,
-0.26864795782416007, 0.007148053535947163, -0.19631803740790765,
-0.7177017565680699, 0.03677313665174564, -0.5262646001744669,
0.007997369449719294, -0.02113931934015767, -0.4074759401035757,
0.9467127763094441,
0.8692677085030378,
-0.5975986689636787,
-0.4671351468437397,
-0.0055317147328164396,
-0.6981237206892703,
0.21625905987673066,
-0.5363770150396427,
-0.6158219170654045, 0.4409653525527686, 0.31574648665800487, 0.42126859471171096, -0.3478089682193941, 0.20791976631598486, -0.057932185440930706, -0.5068432147570077,
-0.3221906031881634, -0.4131589058645999, 0.2224588263682561, 0.2182053770394261, -0.455268131882264, -0.8076924958079155, 0.5618525855360539, 0.0181194561288871,
-0.6580290194501304, -0.27965416277531263, -0.7855709896040519, 0.656454725768008, -0.9027531997379579, -0.6846975723769742, 0.9467493782695406, 0.24440337773958998,
0.8809708444563622, 0.7193873011593781, 0.9485359947191871, -0.8950744539171298, 0.28172756071301563, -0.6996568566688426, 0.1445737280312125, 0.9865793850305797,
0.7830864347280424, 0.4073047632276783, 0.8358151324297518, 0.7630058865393945, 0.08627245136671613, -0.9558044289104841, -0.10014422979183868, -0.9782322902195251,
-0.7339554363784271, -0.12340568741100544, 0.5174238662953146, -0.502112543752407, -0.8787532527338313, -0.18740382864774796, -0.419466593193929, -0.9131613479766796,
0.3236171935407621, -0.5087715613359718, 0.3066422857521074, -0.5535598983005978, 0.14826760202064726, -0.554193250239313, -0.13152781418598058, -0.39747866561823164,
-0.04094567903251756, -0.05061220781287501, -0.09777616009105738, 0.6944436848693432, -0.8025166665541139, -0.16729554739407382, -0.9062769281578675, -0.2633092276970541,
-0.04294937199327942, 0.37908978559817275, -0.17041931050360537, -0.4710104331930016, -0.9663306897945332, 0.6259652671309186, -0.20533255719082844, 0.42079441456953415,
-0.901929442268429, -0.553783402338905, -0.9055813959474204, -0.39324085271561326, 0.23096969463328154, -0.32725528589318564, 0.02411200499797772, -0.6459781281709129,
0.4242270540371611, -0.8847325762306757, -0.08379422502920342, -0.5560983070906675, -0.43888766760579534, -0.18388597643865445, -0.18330489553709173, -0.6099275816468221,
0.10965046655182098, 0.7381186315873731, 0.7883014374233759, -0.3283606989657111, -0.6468254288097897, 0.11777504442781872, 0.34812647338492075, -0.5204571410678898,
-0.6780487600813978,
-0.5677853793588086,
-0.06991148900211464,
-0.7081712789077663,
-0.6997743031457664,
0.16978479686968795,
0.9358052024433543,
-0.3644324842780393,
0.4342569775987477,
0.8694934323679617,
-0.9877424011460212,
-0.8369345607117795,
-0.16752983516279762, -0.845137413615026, -0.8865171483015892, 0.37703675291874506, -0.790727268073971, 0.1993434907430629, 0.9128332685953757, 0.9806114644143253, -0.07208228271087647, -0.037900816505778145, -0.926581487427312, 0.742948080850184,
-0.3234727808337472, 0.475131765882586, -0.5745229094687638, -0.9645136386844273, 0.17493301715326703, -0.27099136160531145, 0.5560426022110825, -0.752586304988085, 0.5164798593300626, 0.5993255211121129, 0.06441327397278318, -0.5802204108890034,
0.9646157339085577, -0.2950303574911457, -0.6894191576541462, 0.764746856957911, 0.5868274016590473, -0.15124684729480586, 0.7834483324950567, 0.7230538177000034, -0.9946033476529168, 0.3262892780315183, 0.9729544580092782, 0.10230113317024392,
0.32037317487670336, -0.002370949928655719, -0.10338598247286512, 0.7570566441461763, 0.5568602803536513, -0.07986962532516095, 0.21336340889271366, 0.9584598126753776, -0.8443640394063592, -0.17904472144045602, 0.48891473213239856, 0.717223144216701,
-0.018019454713782412, 0.7032385329809414, 0.5208638900596503, 0.8610451223918445, 0.7582339508707863, 0.9132458114856981, 0.32323957546361903, 0.6117310515305565, -0.9923367508589225, -0.29717783243464746, -0.6856969220865419, -0.5107648452707205,
0.8724813057269221, -0.03850449469183248, 0.1650834690962255, -0.12802216186200788, 0.27923795055810574, -0.2117254384847107, 0.0333593668380745, -0.3096853129294237, -0.5909283685018414, -0.2747581942488093, 0.06826717847400898, 0.8722006618195679,
-0.6063185291277775, -0.5300415818947952, -0.5483497370994543, 0.13923031845539713, -0.5206604736705316, -0.011534737483841262, -0.3796086172826083, 0.21494806062097682, -0.7714264992654956, -0.05471727634260004, -0.16754889242585103, 0.7414557366649666,
0.31064571197683266, -0.16236720087530765, -0.6509818429874348, 0.8664785370703063, -0.8733561886650625, 0.8596413343034657, -0.7786338088944507, 0.13471605893389027, 0.8440163705098969, -0.13445469964494938, 0.0787454866787578, -0.3078003062218806,
-0.32846249092611357, 0.25751533210625244, -0.5704931746486928, 0.33332042153801167, 0.7322131501386897, 0.4711397784443898, -0.3787602689258418, -0.42127559612498544, -0.8438865425039115, -0.8103838136883383, -0.7676909770326414, -0.7738865076427559,
0.5241386678152722, 0.7911957276811639, 0.012979273103053579, 0.5536609178063818, -0.037054285578624224, 0.11016293603880456, -0.7616539400060938, 0.3946718440857504, 0.9553697147458791, 0.029202284121596644, -0.26010015451737356, 0.04567914975390419,
-0.5494814651174318,
0.964354009368996,
-0.3786995204075687,
-0.8159141786054902,
0.18448197272532774,
0.003136561871983634,
0.5208692971529727,
-0.7255315511550462,
0.8446178553175216,
0.16031177961934429,
0.9695464726317558, 0.5931539579613454, 0.36754145795727045, 0.3973222342488616, -0.9074144011288743, -0.9810909689974383, -0.9873166318018174, -0.8809773792078186, -0.7505108384251056, -0.4674555157898932,
-0.13774237069711281, -0.3623027605192939, -0.507126105751456, -0.9299173814847217, -0.025857959154071963, 0.9576292199692196, 0.6295400102724269, 0.04233864958333866, -0.9634722025587399, -0.8514870704425408,
-0.17229500502996276, -0.48166368306160434, -0.422898332109106, 0.012224254843710813, -0.6017621385237781, -0.6279941348638185, 0.5947428178131133, 0.022648160231499403, -0.33610256452383913, 0.0964295303445879,
-0.3475728609365252, -0.6079202650323317, 0.24598552167493537, -0.3110776365827306, -0.9191008533036089, -0.805227413344062, 0.43882143115333516, 0.6342809186019545, -0.6156015682503027, -0.6093674571054737,
-0.008979903749753326, -0.5287109510529322, -0.7711963706716474, -0.10517996193141999, 0.9660623086212636, -0.6832878444740156, -0.5679279508372677, 0.015636833943982964, 0.5690552975974597, -0.3827895773380603,
-0.4887293704057143,
0.498023586196608,
0.49128697795606957,
0.29585783933405674,
0.9922771268303769,
