//Neural Network File Format by Kyle Julian, Stanford 2016.
2, 1, 1, 8,
1, 8, 1,
This line extraneous
-6.55e4,
6.55e4,
0.0,0.0,
1.0,1.0,
0.2872676790717188, 0.2384668744592906, -0.44125516640242823, 0.5465712420076443, -0.24896079757531542,
0.5792632143810761, 0.2659379850546726, 0.2601311416768719, -0.09235576858895866, -0.11774237539899213,
0.14693833502012943, 0.6983719636533263, -0.601408042242312, -0.42743595522241495, 0.18005520856745783,
0.5611334682654365, 0.17037821240919948, 0.4253753284109085, -0.061366248421686365, -0.2209641334251291,
0.13658909983845025, -0.04408264830025432, 0.5619157427005494, 0.1825227545231236, 0.07550581253069577,
-0.9400984464247242, 0.1335917835270557, 0.6531033799717818, 0.720156430988613, -0.9710374998633284,
0.28114652109517735, -0.525770001666003, 0.01815906718941207, -0.6529967296312749, 0.9093352856119874,
0.08893278839669216, 0.42638435381082607, 0.13813630009257016, -0.07893949599957129, 0.15451868717464734,
-0.978260090997745,
0.6222459141130194,
0.6762121978305133,
0.2637708085521182,
-0.8253694148584749,
-0.670679805871389,
-0.8557945099771365,
-0.345794354157015,
0.19664947133375055, -0.06933392443359221, -0.565351163560257, 0.7368358787425437, -0.3610292123421357, 0.7473484226738498, -0.24110358006565047, 0.3955637116023536,
-0.6881105607698719,
