//Neural Network File Format by Kyle Julian, Stanford 2016.
4, 1, 1, 12,
1, 10, 12, 10, 1,
This line extraneous
-6.55e4,
6.55e4,
0.0,0.0,
1.0,1.0,
0.7240712229277233,
0.5195541002411299,
-0.4569772835686692,
-0.6775538332376789,
0.7028700896723326,
0.33550947502224515,
0.3234371534939702,
-0.9630134111843733,
-0.9835882578924631,
-0.5501510746902532,
-0.7714231694186613,
0.6382246364215298,
-0.11981177115535901,
-0.7667406551468408,
-0.9568207308707093,
0.3265386633249894,
-0.7424149635804405,
-0.0837450758775069,
-0.3259324520333906,
0.25930823014702487,
-0.3250913919553189, -0.6981076007854137, 0.28384420972212165, -0.11812269996959168, 0.1411286876497111, 0.5791091543546374, -0.33461075754862657, 0.8492157778098925, -0.47061261237702245, -0.9784074960605955,
0.34744227699780916, 0.8725984023632618, -0.7596308143911412, -0.21681818257098673, -0.0411456384911304, -0.6183731604926552, 0.41788158917116647, -0.594921090469041, 0.6731647613350136, 0.860081192793575,
0.20776463123545685, -0.22630354693000676, 0.9391082061416887, 0.12738105354444684, -0.9219995674896602, -0.3519789039260859, 0.6246444564373936, -0.05516118206107912, -0.5803092177705231, -0.13789957724578228,
-0.02160851062077196, -0.9218240376567164, 0.5796899635853574, -0.04295008908798126, -0.32594429027947847, 0.32610380776746206, 0.815774889923357, 0.2450507435035454, 0.7481082100976693, -0.6478589507229229,
-0.8604524291471249, -0.43497709996670153, -0.6746872631651595, 0.8226245449234, -0.9706629070507562, 0.07905230313337697, 0.31231178907133783, 0.23453146102034772, -0.4287613829138013, -0.35090065288677597,
0.09337526589116818, -0.5804288849695078, -0.7881623735463199, 0.002782924245831264, 0.7796881683602757, 0.16437075428927184, 0.7361920920031002, 0.949507695129169, 0.011980837598260852, 0.8299711270183017,
0.02511299250174881, 0.8163051095495133, -0.8938587690975441, 0.029517721753957726, -0.03798204702839314, -0.6187137680985355, -0.7228962064125981, 0.6949623187620224, 0.9617726359601324, 0.11019772482235757,
-0.6333647887261629, -0.9288517245019499, 0.32298996286408554, 0.4206292276142136, -0.5598798889802148, -0.10693346971802375, 0.5422819108885122, -0.09019139970262513, -0.4760828818273932, 0.4645306084479701,
0.7711152154556973, -0.5626547855663007, -0.31680729900987314, 0.6113896995336825, -0.5888546245063178, 0.5950394278824715, -0.46265325872631324, 0.716753051771569, -0.16163124826060926, 0.3368853610698257,
-0.40401747260591137, 0.538424095718752, -0.8478909379305963, -0.7555006056006368, -0.6182957091569579, -0.9744438919793117, 0.038579841441295226, -0.20612682294285678, -0.9877468248385353, 0.9408462902369279,
-0.7901953322121642, -0.03929409226485969, -0.22392918851378596, 0.9316554718644441, 0.7539390336745124, -0.9091613453272145, 0.6158059625948344, 0.10944740941921882, 0.6687739896506835, -0.4732282806646624,
0.39017417879131155, -0.12816703205143476, -0.18765287470816094, 0.630686685477087, 0.47331102722005847, 0.21861703979298408, -0.41953846641851644, 0.017240628599769714, 0.3618992755177266, -0.4149624829922529,
0.41039240968466784,
0.7116897290562276,
0.26052975779755494,
-0.6446897184702678,
-0.6947794402207572,
-0.036782148056059505,
-0.8719680113881241,
0.1833416023412946,
-0.22533682834116453,
-0.6191715168998866,
-0.22472654473766296,
-0.24535731528551752,
-0.7901835753278492, -0.01949213896808777, -0.8469317368065061, -0.1962254987584382, -0.8747138155953382, 0.6667011174870074, 0.026126752863394387, -0.7663643956637602, -0.5304764303078446, -0.21315552514633618, -0.6004756431134948, 0.2327510870701497,
-0.019298067107973438, -0.10692505691330734, 0.9134409219768078, -0.04760132003860029, 0.7019908091716562, 0.5340680229236319, -0.09743134856449087, 0.20207147240333923, 0.4294648643649577, 0.32587308616614274, -0.5962813531779241, 0.7043048962203233,
0.9297404400768374, -0.21325313653885214, 0.30672320998740865, 0.5452870198495328, -0.44991483543368327, -0.6495934662103817, 0.28300283887948474, 0.9135025637369547, -0.06417312776528439, 0.618983428063749, -0.13143464975667962, -0.6563797668035041,
0.5175564615948245, 0.04585792958534718, -0.7903494620253029, 0.3972067850205687, 0.685664021766732, -0.33534461843437535, -0.04174428015575149, 0.544034381996136, -0.4009098951117438, 0.6360002578678801, -0.8703669900104747, -0.8161083954423729,
-0.12072558047450821, -0.032005415501576984, -0.38803108987241286, -0.5359097224259197, 0.1541485303831771, -0.6816631730621632, 0.10968003492166067, -0.8942338555144267, 0.13072145407671432, 0.24714581813782965, 0.5852879926917129, 0.22242967198184438,
-0.2658871093138786, 0.6109074223251398, 0.8618398039186346, -0.20662997224807356, -0.24744367427576153, 0.3884779472788362, -0.11531147296887756, -0.08204307214012463, -0.18840570838552395, -0.10438606889839486, -0.4804938906795444, -0.22876560726664463,
-0.11662559110533843, -0.15170272036600085, -0.42783131482095405, -0.20690307034698696, 0.13246616590942706, -0.11894622651942743, -0.08210737838884263, -0.4824719352118314, -0.0760737421455846, -0.4002410205726017, -0.782589041873412, -0.4918928847991797,
0.6869231813945618, 0.7945645546444471, -0.5695852022592587, -0.08986247525130331, -0.07224505812001425, -0.5085746786208287, -0.9144911251351759, 0.5023741148199536, -0.8016451225133987, 0.7005506782883537, -0.0495210107650772, -0.9978797316763037,
0.8367151665772639, 0.7930352948546635, 0.39897857353101784, -0.03361319878342517, -0.9849233536416482, 0.6900095689441028, -0.520240426473078, 0.7088903513304539, -0.860868741720155, -0.011581063691416205, 0.7515041619511718, -0.038462671535428594,
-0.4868944268695783, 0.44157317505895755, 0.38180003802765894, 0.5423483042834469, 0.6691266040686612, -0.8889764202399424, 0.08959336004191742, -0.5034966121469302, -0.05167223163946533, -0.25137746409987516, 0.8565696045155478, -0.7763374160352257,
0.07554756752492153,
-0.8821725201135844,
-0.4903936803843978,
0.30604163652285266,
-0.20395089865821836,
0.2090423525723697,
0.13192431616648959,
0.4136730353093996,
-0.6632141572327406,
0.9140170515466579,
-0.26549609422192066, 0.3661510006984434, -0.2122459594853563, -0.3310681340447159, 0.10183959276929722, -0.7583349040430196, 0.9384843128894689, -0.9265611296133152, -0.2985457043722297, -0.5037030730272023,
-0.07920867121350028,
