//Neural Network File Format by Kyle Julian, Stanford 2016.
2, 2, 2, 3,
2, 3, 2,
This line extraneous
-6.55e4,-6.55e4,
6.55e4,6.55e4,
0.0,0.0,0.0,
1.0,1.0,1.0,
-0.1329465202422626, -0.25286379699046035, -0.9394690075403584, 0.5386986093251802, 0.26340805945395473, -0.46229249188243715, 0.6243002841422758, 0.3737587408510312, 0.7811045021140859, 0.9181522420876682,
-0.6696216636210339, -0.7586356205248626, -0.5799633032134448, 0.258449868463162, 0.7348768470687328, 0.37251402468349104, -0.9289890966887051, -0.32825353547973934, -0.8034067744926516, 0.2669051389936956,
-0.45972188434778305, 0.13691613830361282, 0.6278029317392373, 0.4591594281669167, -0.7132940103286369, 0.03445703154268909, 0.3613940861611935, -0.690071906240834, -0.8817090612431104, -0.8275818999601641,
0.38199216725478236,
0.6325799924263298,
-0.7911609401171091,
-0.6948117931118092, -0.08070628637309563, -0.030950225564454037,
-0.8900405962351106, 0.9813181217561371, 0.5073514805311161,
0.06206836400093607,
0.5278983371265391,
