//Neural Network File Format by Kyle Julian, Stanford 2016.
4, 1, 1, 12,
1, 10, 12, 10, 1,
This line extraneous
-6.55e4,
6.55e4,
0.0,0.0,
1.0,1.0,
-0.47239257538915336,
0.7413934692882136,
-0.9209211586299757,
-0.4571502447286995,
0.5511437981626566,
-0.13503571707501294,
-0.18614090299170316,
0.37818988430942246,
-0.7437678728043764,
-0.6658363562979099,
0.40213118375633394,
0.8886611997490284,
-0.18602506127112317,
0.914101900184098,
0.5128764519284026,
0.5622533028760106,
0.33983030977615725,
0.00011176326805539816,
0.3807548210568221,
-0.5607903959052281,
0.8285286433641161, -0.8449056848872898, -0.7220898040145212, 0.37958911704946807, 0.7172079682733972, 0.9840295956927987, 0.1700857776444007, -0.9311519460706372, -0.13927260785628048, -0.8980295420897937,
-0.6657325785971548, 0.6522989332040514, -0.0499379797306605, -0.4832265015322652, -0.4381229482144722, 0.9030945588532813, -0.6639184960315387, 0.9048543905029773, -0.24191855151921393, -0.5582371289871269,
0.9054189306981573, -0.4024396280853373, 0.140953495073461, -0.667552412257709, -0.019478803572242853, 0.7724552338779871, -0.3724572227507643, 0.6811667839187185, 0.5683105693462522, -0.4474608517168388,
0.35258511650022895, 0.6684032791291377, -0.33229152155289965, -0.49899926791865123, 0.106961718686998, -0.813888556695967, -0.140148276261999, 0.9543841118692988, -0.7604508715995024, -0.9810873876088015,
0.2449493942823957, -0.8753179571170842, -0.5571390722813416, 0.8701250346307146, -0.9813948881350258, 0.22048815347452955, -0.8026695993730022, -0.8667412908259595, 0.9483741329163937, 0.5641724603024416,
0.1739616971451201, -0.3995660924657547, 0.6858379560419401, -0.9509803199943581, -0.9186252065196578, -0.7983381974828294, 0.22656449309000593, -0.7506861462601715, -0.7547154027556662, -0.5103647534998395,
0.20814155356562525, 0.07074115159303407, 0.1433234373477763, 0.7049616592500918, -0.3483809987105597, 0.8132788318645447, -0.7608062061885237, -0.1783133841856186, -0.5363596450916828, -0.16733663865538073,
-0.6795587448185549, -0.5558022917338614, -0.2488647762731011, -0.8230007145294858, 0.7843700919700836, 0.976285908203125, 0.2171705528594221, 0.8513265492346465, -0.8642781539508011, -0.7949541839337666,
0.4442723871241565, -0.6224559931189053, -0.6079208019784561, 0.6932594081476844, -0.6068034997126479, -0.22538795265948286, 0.39864757293348063, 0.912712436180863, 0.4210733760437213, -0.16575508867681066,
0.29594995144131797, -0.19243367582150972, 0.6720778892029147, -0.13817794508336556, -0.6570340475291521, 0.15364395500528527, 0.6717887593859309, -0.15760263804587193, -0.39236158186964065, -0.6485094647857723,
-0.2947453306636363, -0.5358609892877406, 0.7966405113545076, -0.5067523297303351, 0.7656658943944663, -0.8264196545926406, -0.4339469171659247, 0.85299794497916, 0.5079376803753464, -0.617937506173579,
-0.9785855655111741, -0.7104263603409056, -0.7400971552805977, -0.47190106704756474, -0.7128728890383544, 0.8046938492010685, 0.5878616387734241, 0.5171343329972542, -0.9709851114586603, -0.886619676443194,
0.33250853744830167,
0.19189313297643817,
-0.43072826252419993,
0.8113731662159203,
-0.658361802880647,
-0.07592393761466054,
-0.13955637166279722,
-0.25761520237097146,
0.8221844982914415,
-0.48919725834094985,
0.5157494608803934,
0.5148924051770409,
-0.19555408309910138, 0.2815987346148372, 0.95935853103797, 0.10940842802838446, -0.5697094318213534, 0.4312524409223424, 0.10045554283288327, 0.14912852689490297, 0.1444665884277132, 0.21863890703935196, -0.2635321238648145, 0.6774016670732026,
-0.3271234536078347, -0.22123821605337346, 0.1450560665406777, 0.16857097481023997, 0.23910835354896243, 0.4644828816310116, -0.47705164823673885, -0.3958002715798865, -0.03335599381906107, -0.527101856195892, -0.3156684642215919, -0.8235872602028884,
0.006322694375612947, -0.31149776567460385, -0.5824237465860196, 0.30753178694088756, -0.7408503228436292, -0.4036609352569518, 0.6481335398937684, -0.9698591392099822, -0.08454498836885005, 0.7075967596684003, 0.10865107562065557, 0.04785494513820421,
0.30753647392337013, 0.8980022607193305, -0.467791896641232, 0.5269374978332877, -0.7476961678641199, 0.888013209194511, -0.1776367832072996, -0.45775444874908233, -0.40398803783443826, -0.8435128398292502, -0.9527796648168798, 0.38306989476102604,
0.5819995186486207, 0.97135735455202, 0.6918844370370003, -0.2541842857282388, 0.585760122766855, -0.7760290493335691, -0.9205945112925047, 0.7642695446070107, 0.5289922365450015, 0.16588419682858913, 0.028115087940999484, 0.2653991778204521,
0.24844316851120585, 0.5112235564509122, 0.5166656944902899, -0.21886786585427576, 0.9281906140501857, 0.34460449624058276, -0.04379766922195705, -0.5023230949465187, -0.4372809951059695, -0.42382800749821836, -0.6180311509168788, -0.36296445417371315,
0.3769827092051252, -0.8706420674864752, 0.660811127806892, 0.8639819969404909, -0.30704407141405765, -0.2480821931555739, -0.3849217041960413, 0.5479623483525695, -0.44755492599187674, -0.7228192162527081, 0.8151606798067506, -0.077923536635228,
0.26714577494056213, -0.5552466247631087, -0.4337429448585892, -0.7953534842296239, -0.408645497596984, 0.03710841451794744, -0.23688712187389882, 0.5158233815622872, -0.5563132025136537, 0.8484166040846279, -0.7310187921324887, -0.9305291977585028,
-0.8215434382594671, 0.21850791905239575, 0.3751613549280215, -0.4622088895207521, 0.21683656885107627, -0.20388640569384897, 0.5783786122744998, -0.16183698175411232, -0.783635187278187, 0.5006699734471596, 0.5619181072595967, -0.15533027880120676,
0.31982758848881376, -0.013952500559960335, -0.040960416199555816, 0.7408743367530071, 0.8953409276077351, 0.47154795309853803, 0.38428664440575044, 0.3762341962456399, -0.9800316277213437, -0.8060295593041458, -0.9135807755839758, -0.922506916116212,
-0.7542102631020393,
0.12317183867457304,
-0.2659245918303834,
0.06431559305674872,
-0.8170445169467491,
0.6234759247792829,
0.25399318238221547,
0.2330020465952578,
0.13983930897841423,
-0.8249852962941513,
-0.6024621492043067, 0.3524921740226019, 0.24143029969248353, -0.035459607013219596, 0.05431976337283828, -0.7203468484938922, -0.03564527829489572, 0.3564254631902286, 0.14674633826108474, -0.490511000387555,
-0.7877833059867574,
