//Neural Network File Format by Kyle Julian, Stanford 2016.
4, 1, 1, 12,
1, 10, 12, 10, 1,
This line extraneous
-6.55e4,
6.55e4,
0.0,0.0,
1.0,1.0,
-0.5611351886969898,
-0.3623423426584864,
0.06121218954086771,
-0.3542795693270726,
-0.7986476213466105,
0.7462699736208371,
0.7450302513841307,
0.31065902079033636,
-0.9215187137790348,
0.9982511114703634,
-0.023475407105638446,
0.44279434319320643,
0.5444762652278068,
0.2786095351601654,
-0.15445956843333164,
-0.8539244696975796,
0.48137916209214415,
-0.9584946214228505,
0.4669705879411361,
0.5835566904831082,
0.8120332652318742, -0.4767793872602999, 0.9066168747002439, 0.4257248555906581, 0.21297604884794774, -0.8116524520167161, -0.11672190495703605, 0.162992694559549, -0.45044328619579144, 0.5204414072023318,
0.5081016398298099, 0.6831649374550044, -0.20212694607178294, 0.42952982866046474, 0.5517399984171156, -0.9336273231497292, -0.8335826393252201, 0.27793584129633997, -0.19032043498724116, -0.3546617120335749,
0.8915806283871408, -0.3932727971050962, -0.29284071484282403, 0.7788823842876358, 0.1092404524769024, -0.6037457359479275, 0.32400348235698084, -0.23264606851976, 0.1424187212181316, -0.6870807587849557,
0.5242328063987771, 0.6094042261443451, 0.7082615161461954, -0.933031525029222, -0.15066937844230655, 0.8051927460873354, 0.00981717769602275, -0.8100172808056589, 0.9568121648082131, -0.5410015156786043,
-0.4873588427635389, 0.5952867176003287, -0.4015680936782622, -0.7451275784121925, -0.5916104767244628, 0.1443924736545541, 0.2204532983992249, 0.41208167200521917, -0.3114874500267608, 0.7765872287366977,
-0.38022649436800426, -0.9703997721101949, -0.7743509121847079, 0.24467673580415594, -0.6379296853130829, -0.27506061639175483, -0.06647771856625839, -0.788266935024597, 0.5521440302214309, -0.15869434316474829,
0.47588649668297345, 0.5088152670338717, -0.16250112189479182, -0.1285935556181963, 0.687137326873116, 0.8295969050009213, -0.7742194217043954, -0.8658407774871777, 0.08795291381388903, 0.27905314765527933,
0.6770923895254883, -0.417471844423154, 0.7489025964377816, 0.20096545542103073, -0.5722109753700773, -0.8614085303415302, 0.8739617336209533, 0.27929534190462446, -0.5103786025474166, 0.08027642332638552,
0.5215792041936931, -0.6396119367387536, -0.84196685797935, 0.8094239191484762, -0.22959380999612478, -0.359291167207513, 0.24445188573393262, -0.7872014705932915, 0.376507651644721, -0.11334397887144432,
0.706827321129821, 0.8835131024918987, -0.47604660040938995, 0.3550566727775837, 0.2628472514855291, -0.6573480277910551, -0.979191195640591, 0.5833837790256742, 0.9134692287432804, 0.5756129996910992,
-0.40069584585664186, 0.9310625305476488, -0.28242636212959793, 0.9105531977390697, 0.9140810107520547, -0.6110318247755027, 0.6003646221752934, 0.5173495539168957, 0.7249058309757412, -0.2517828916399618,
0.04861299955432541, -0.690887692629202, -0.3739556775224262, -0.11590536472877844, 0.4291208844152532, 0.6160501385877541, 0.9688645237443745, 0.4535294104624379, -0.8459395834052654, -0.498777266069101,
-0.4914575615295327,
0.23301334913694927,
-0.3654018719344334,
-0.6996762991242043,
0.33669081595930406,
0.16259175756927968,
-0.23757977916033113,
-0.5017764066174162,
-0.9816746499567177,
-0.0287855554177332,
0.9466490797006211,
-0.7228696656869555,
0.9860682546388531, 0.008450953902880531, 0.6400745806907957, -0.9683395906023642, 0.8434373878288808, -0.3294451743668856, 0.8470336239629277, 0.3238814704089408, -0.4162923051769143, 0.8083265677541704, -0.007517774853666115, -0.7498110575531549,
-0.9397427403058871, -0.05208222229596293, 0.06449756743873092, 0.08703584454698587, -0.5099605470268931, 0.2168558616380145, 0.8020714745709001, -0.1417625165223404, 0.0928716347399785, -0.9119276355925665, 0.1302274475365892, -0.1901932960039443,
-0.7115383246373681, -0.17621734766634845, 0.11926331842421822, 0.6885567961820094, 0.25056769249420574, 0.6286579960453937, -0.32551339002308, -0.9289767850276589, 0.7725537051374749, 0.3536354306889802, 0.9785198596106843, -0.9192835939934323,
-0.7589480897043135, -0.7891822239103075, 0.47255216072259376, -0.28778696301038265, 0.42669256396433974, 0.9528797698646834, 0.013257323678636634, 0.13708064711816315, -0.2776439046258714, 0.8029577231216383, 0.39185648652339866, -0.18778760479432055,
-0.9905922482031748, 0.4232334121881216, -0.4300224948806264, -0.764881788381953, -0.7724693709596693, 0.17107094876502504, -0.2971286438919689, 0.4322542394490947, 0.1219768720685197, -0.529287944163717, 0.19662097801949185, 0.05307694176995925,
-0.6930578163499836, 0.6451569186837376, 0.9585365774209302, 0.02546775382702826, -0.2768964392710709, 0.7027614907267714, -0.6780655787267253, -0.3004350955657267, -0.13716223677842398, 0.9176395303546117, -0.9415510669200846, -0.3693931816664744,
0.5129787548609386, 0.2593996309710369, 0.4040236388007705, -0.384738460535512, -0.129415128528239, 0.8266304750690665, -0.4068009944332265, 0.9188688362578792, 0.09317498340667019, -0.5982058625639497, 0.5082365724117817, 0.7413093860209607,
-0.9515013242620136, 0.4324381679616973, -0.7470336696679301, 0.7755867991906391, 0.27357555960061797, -0.9126675692347668, 0.40319983103020185, 0.5278024567335189, -0.6022278308996354, -0.43995788047884377, -0.7599894021163682, -0.48452017820600846,
-0.46682169291735365, 0.821623869846948, 0.7139488037436532, -0.8112502017852217, -0.35735757446608396, 0.1922218548792647, -0.12373858826815898, 0.1636605746976545, -0.7013063128791646, 0.7724067156656647, 0.4752561277877647, 0.23124313636532667,
-0.3799492948160652, -0.6956604964146873, -0.9439412551191326, -0.5143288478693604, -0.48680578767040794, 0.5949380188337403, 0.017092618351923772, 0.89479552523489, -0.49035418620028004, 0.12030774120984322, -0.6920766853581464, -0.8139893419509883,
0.09982251276129261,
0.7475261591817097,
-0.47994410105020524,
0.5036542625971299,
0.48945061818634006,
-0.8877676608533904,
-0.9494158381075537,
-0.7751722563975241,
0.3130560082209186,
0.6228874488992209,
0.8481187094533658, -0.916541206431333, -0.7070001592519279, 0.15846500952511633, 0.6873238729475264, -0.42268054360728646, -0.006433021812713768, -0.2852355562315143, -0.27588568596497254, 0.21965429465028263,
0.019913098204976887,
