//Neural Network File Format by Kyle Julian, Stanford 2016.
4, 5, 5, 12,
5, 8, 12, 10, 5,
This line extraneous
-6.55e4,-6.55e4,-6.55e4,-6.55e4,-6.55e4,
6.55e4,6.55e4,6.55e4,6.55e4,6.55e4,
0.0,0.0,0.0,0.0,0.0,0.0,
1.0,1.0,1.0,1.0,1.0,1.0,
-0.7409820378676177, 0.5145239597760636, -0.40932520624677204,
-0.9858812327972051, -0.7899539203462345, -0.6006682405320012,
-0.2017810283103154, 0.24240120694355483, 0.04962406514997886,
0.8416536654032352, -0.3167149593474696, 0.32726774964326477,
0.7321255098814601, 0.044483861136678016, 0.11236528025066272,
0.9912605511745434, 0.9646821535943642, 0.5294896872532351,
-0.8707087088883929, 0.2403890467806553, 0.9062273302744996,
-0.49391612368703885, 0.03379267689085186, -0.33702005706921057,
-0.8558076782909856,
-0.4168654763774895,
-0.46004228391096724,
-0.5773716008631427,
-0.48071782791549644,
0.585361170688266,
-0.6154599067854201,
0.5780176700081885,
0.4180889176231446, -0.08962935419679718, -0.9583735433727956, 0.8984633921254677, 0.5360816174924445, -0.1675300874428114, -0.4170376661552675, 0.5370543531970418,
-0.985604919458118, -0.2981302831375907, -0.8724613248521695, -0.4273555587396767, 0.7054924455691309, -0.04536965059401421, 0.5468531659652696, 0.47728834868134573,
-0.8443759043694428, -0.7031901465299009, 0.3233115713294237, 0.9922129119239003, -0.8927218451475931, 0.8287216303452309, -0.45478418914202035, 0.20484342703408043,
0.07864246086860227, -0.29517290979020094, 0.7398996535117632, -0.9249294910291317, 0.7707881720621881, -0.821504750261413, 0.3680248967208062, 0.10759959392252139,
-0.5311263790208205, -0.9902591986927303, -0.6546537198436049, 0.6828761219311787, 0.43623423845745446, -0.34106720755790887, -0.5815905717642962, 0.3353447721647962,
-0.9596686082787915, -0.5095568715032113, -0.18789735343003766, 0.8665285637187332, -0.5758730628499498, 0.33721549965337916, -0.9788616639426211, 0.006464409567985552,
0.06889373571450275, 0.44761705314515376, -0.4131608670579521, 0.36546416544249816, 0.7396460273691701, -0.7656836472777786, 0.38730031867311476, 0.49501706954923197,
-0.060449923346105994, -0.3753236799103843, 0.9536758721265803, 0.9131175005392222, 0.10931264067454993, -0.6550949930073888, -0.17169034301697783, 0.7188940430036563,
0.21831160223198287, -0.19383794444211366, 0.5574837650649567, 0.48769179944866625, 0.5985552075473883, -0.8982161820062533, 0.9227082270598466, 0.25722837728272596,
-0.45766998642868684, 0.7554168339786207, 0.839416377871165, 0.3727337979731602, 0.6798641673721018, 0.14871377465679725, 0.8117276241802283, 0.323137423719972,
0.7897738306855149, 0.47133095476209874, -0.18687692840007886, 0.12747727599181058, -0.024462112771020728, 0.4512949249792495, -0.2077501580790715, 0.8082832890252907,
-0.8583245159391719, -0.5963675076366259, -0.7065137304812694, 0.24993916224753843, 0.14457938377421486, 0.39532346929446494, 0.6096190323228909, -0.04254703334653165,
0.5289898426023463,
-0.05599811940936972,
0.8714144693045043,
-0.5771973434846309,
0.05069802493041253,
0.9251021936716044,
0.8901048777306095,
-0.9957443049074697,
0.4982735197460584,
-0.6626924544873436,
-0.4385524884769092,
-0.5541182551725838,
-0.2313121991377507, 0.5528734127066026, -0.6724555701147228, -0.8672340964874556, 0.43983299962153977, 0.39411428526445524, 0.3496053534287862, -0.871352562481174, -0.23926453318619645, -0.43259325798481996, 0.5543369277014141, -0.06453143050708698,
-0.06413813828543002, 0.5656896292154605, 0.5975403572509528, 0.9934636996921808, -0.2575221903667049, 0.41593018306973706, -0.6762069101377572, -0.23268856623381495, -0.3353696238888859, -0.23973430918695549, -0.0885186542541434, 0.22339132033020626,
-0.5361899888811719, -0.5183305715880371, 0.32418306441326017, 0.8962629165583822, -0.616814581078239, -0.30466073412759354, -0.16865659371758657, 0.09358199160045633, -0.2474090051550628, -0.037550585491267885, 0.7151535390303532, 0.03955398111286135,
-0.05364761729918133, 0.5775924677058399, -0.5787645309189116, -0.9081973429632701, -0.7869169256141264, -0.5423232980972901, 0.2616469443202498, 0.026957787525990984, 0.01249868034409607, -0.9148053444687347, 0.4296730634709518, -0.3288219719194623,
0.5432074482828715, 0.20333132858139447, 0.23626319158119768, -0.7753347696419746, 0.5991941447585183, 0.09164242531065314, -0.6145717371441779, 0.6885179727392718, 0.34195329891661563, 0.9240581216229073, 0.9973915502708923, 0.7408658900126133,
-0.3123229626701942, -0.509401440562923, 0.12020892978589481, 0.6775652135518584, 0.35825603186446653, 0.7295487941442422, -0.9151476633481082, 0.2738307420773718, -0.9474711081316602, -0.7038681123930037, 0.8472027865532246, 0.7934089232050319,
-0.2606719018043129, -0.5470250776441281, 0.5876188169537557, -0.1652813089732117, 0.7936390671040519, 0.18111742726846414, -0.679267418569828, 0.2366720309027901, 0.7533697141731968, 0.050773285894894826, -0.6285852503027511, -0.8305575364280342,
-0.08393764874702958, 0.284664215438748, -0.9920228585444253, 0.24328869171003742, -0.6213182383648337, -0.8590782317497982, -0.4743671565437877, -0.03575977774410166, 0.877950531684395, -0.2522257187521295, -0.7093589539995739, 0.08764392671494159,
0.21137504129031548, 0.7585846580157543, -0.6279136352391781, -0.034197781231512625, 0.046954356905995365, 0.7785396037853363, -0.5047477598347032, -0.3424844817250037, -0.7263650752929101, -0.03382505023519622, 0.39596992906393913, -0.1462934027875855,
0.06346195853605474, 0.35413063889384366, -0.08519294623082363, -0.13341283840003548, -0.34053096921496406, -0.8269246012011493, -0.6658845631709616, -0.3404308994357077, -0.28631427110081287, -0.8307115551217579, 0.016668560652353115, -0.35554530934573103,
0.5384893922268938,
-0.08842786710423223,
-0.37911667935517857,
-0.5080081374712377,
-0.12073884575900617,
0.014642502328672258,
-0.7603096239689671,
-0.07060323318371298,
-0.39251710156828157,
-0.7328060758906392,
0.49979592367448955, -0.9245928854192189, -0.2628740069177282, 0.47155181462689866, -0.018944517570524066, -0.7909075369334282, -0.9674455526860393, 0.9464805182921747, -0.8865111075783823, 0.024725300707038045,
0.09873097762227045, -0.6589713928894518, 0.0871024373755791, 0.45162980344401094, -0.28997129547881784, 0.9817798712204193, 0.5068465867606804, 0.7537310109374844, -0.9542430171111249, 0.9334105131999406,
-0.3769810976110084, 0.5254847135885181, -0.9967150349208311, 0.3178756775096736, -0.8127012576394046, -0.8377658087952145, -0.7852242019417361, -0.04999551725826512, 0.9266019158625216, 0.6136140055065944,
0.8803875922369016, 0.5200950684161763, -0.01506239762734829, -0.03594428415855422, 0.796305173311358, 0.9365463247046755, 0.35127797551044315, 0.7052156270669778, -0.6952875627168424, -0.5043371171880766,
-0.8102856341507665, 0.8577075150651949, -0.5503326072806103, 0.6173782154621117, 0.5741832077322786, 0.5760445176249775, -0.8891818228053014, 0.3287124300310871, 0.20526593891681744, 0.0667629814392603,
0.8847867127918296,
0.49124326912603866,
-0.20459488001725035,
-0.06765987015662756,
-0.49486737537406045,
