//Neural Network File Format by Kyle Julian, Stanford 2016.
4, 1, 1, 12,
1, 10, 12, 10, 1,
This line extraneous
-6.55e4,
6.55e4,
0.0,0.0,
1.0,1.0,
-0.003018534021631769,
-0.6571789621432487,
-0.48769999963786903,
-0.8156965468307371,
-0.9050744408157936,
0.9435391489356708,
0.5570766720748712,
-0.7799761079977645,
-0.2860507307990323,
-0.944121653239343,
-0.6889811728247666,
-0.8354633747338833,
0.030786793601482287,
-0.5831170388921576,
0.4047106731416701,
0.7754920629200077,
-0.33579642331410975,
0.80965565833145,
-0.5959274233051728,
0.7561365036938357,
-0.6763173199602974, 0.9411323010888553, -0.016413952126054898, -0.34367193695648357, -0.9992110927771884, -0.2058321608695417, -0.884532676084012, 0.1590142261368186, -0.9404477757458398, -0.7198277593882323,
0.08323014790974437, -0.002253841289014069, 0.9193076474891169, -0.369081118434305, -0.13576951377273838, 0.45918781658361585, -0.9728491105523753, 0.8756121462663651, 0.8919305554934609, 0.06712044799942296,
-0.5984926356378644, 0.45292067489539534, -0.9980375576941407, 0.992961127207086, -0.9232313629093594, 0.2273299818867569, 0.0441661163620779, 0.592207646556655, 0.5927499623981549, 0.7408561094282566,
0.35110542088435404, 0.6675864922308343, -0.5844678784704449, 0.7066905572944449, -0.4590351452678596, -0.05267028430091436, 0.5856712698399433, 0.5775706437947847, 0.2110627739432105, -0.17883314328470146,
-0.7199829837388201, 0.042615589700636836, -0.4417514687186337, 0.24654391928639097, 0.809288502939367, -0.7685696015149666, 0.7011738907364342, 0.009153864466455719, -0.5240030566086324, 0.3659003173909441,
-0.2549137217074571, 0.1250522290244631, 0.20365618151683806, -0.6791889648316718, 0.833144938000522, 0.8127128892299016, -0.7515289219526031, -0.5900941194837124, -0.9073078537233941, 0.5559228637065479,
0.6405095970542556, -0.9931979703139149, -0.9470580252650396, -0.3810100446187139, 0.9185875590039418, 0.7949773207874706, 0.39558105004946054, 0.4951541252008118, -0.6335986613455211, -0.0681028226562268,
0.014084657899629427, 0.12764114912717606, 0.043594726959590435, -0.17179340945212296, -0.6449368024470612, -0.22046674768135155, -0.25433797261034874, -0.006415326313419456, 0.7912539548748843, 0.5175497887009812,
-0.447312850755174, 0.11450377462233208, -0.9148916664749844, -0.25467687770722636, 0.17120036780024028, -0.44331477030680677, -0.6868667616951827, 0.7454872844741551, -0.5824548149452804, -0.8413266285774994,
0.9945148542049171, -0.5218057846607533, 0.5735482855463272, -0.5734907391405888, -0.07529017514427938, -0.42461628452843003, 0.07338151784023772, 0.7359161383584514, -0.47085116042976916, 0.008933193227394387,
-0.2102482070735574, 0.9350093864264815, 0.5318521109063448, 0.4098786232762839, -0.43104618616240176, 0.648379994788967, -0.7360643564269838, -0.706522676915021, 0.588748906358826, 0.72331675095475,
0.6886947647660886, -0.9708036543297789, 0.21686427022414767, 0.3029081624132868, 0.5021263954460791, 0.042920090935996136, 0.9261918230719788, -0.633959891508797, 0.8420842572484664, -0.7472767616889522,
0.5105744763241962,
0.08076754035685951,
-0.5243726920256653,
0.2804325386230704,
0.18094489252250323,
0.3256646727791255,
0.18487189607556376,
0.6651438281972513,
0.030581715847354474,
-0.12334153385152113,
-0.19744856220334617,
0.5288381486475893,
0.39022027099682166, -0.7569537264226476, -0.18304721948830105, 0.3998949254790256, 0.5162235778414086, 0.5394218946355065, -0.7120357112429345, 0.8625754116373656, -0.3753677568110443, -0.7890689482993078, -0.4787782685871611, 0.24129679721918817,
0.4454949769157257, -0.7858351472162215, -0.75452204616799, 0.8793781376994327, -0.38859128506405316, -0.6965753889929331, -0.8139660571618377, 0.39457915031265145, -0.823004967143266, -0.45780001601321585, 0.28465302939658077, 0.12161524942838087,
-0.6965348844853168, 0.40824097966469797, -0.025927712579623563, -0.6570146521125046, -0.7949875806274296, -0.12284881314526208, -0.062082137772938584, 0.45031104295996194, -0.32026750456842557, 0.308070995591891, -0.22443491233488588, -0.2987087355992255,
-0.8971276858268773, 0.7559449514535714, 0.5961308322152261, -0.9597201792354433, -0.47561902300665215, -0.1629396566591801, 0.054199903119137804, -0.7441845368569608, -0.6422476939211226, -0.7907573335120328, -0.11743855490534694, 0.9455891140048611,
-0.05693283608730004, 0.8951958480955082, -0.7413136258012174, 0.9129270105836418, -0.16122898346743142, -0.3682180495858218, -0.5620283324772521, -0.9636364080912241, -0.24364169110505385, -0.6930004594909898, -0.30558059667751314, -0.4462187368185395,
0.06768461490255007, 0.5203039354251446, -0.6521373079048769, 0.08044727542941033, -0.6631489367645558, -0.16391000512688736, 0.1245190865988981, 0.17128371659823127, -0.928429475651054, 0.26544097411408485, 0.34133447727245647, -0.6337944652013059,
-0.32238718197439686, 0.13984375750571765, -0.3445184911392598, 0.8853271918943659, 0.8778742569247497, 0.29556822487389, -0.30356124835292864, -0.5221558614287543, 0.5569667767556759, -0.684446106203406, -0.051286102891424434, 0.6728622834007352,
0.6513919842755369, 0.6436472962009638, 0.8804680859201817, -0.09872402728324214, 0.7765269314674397, 0.4090061227415114, -0.06286259837254704, 0.10060406495008234, -0.8612214254867254, 0.25323524458156754, 0.013558179100312984, 0.7531634892713686,
-0.15326464049383492, 0.8174418181253329, 0.8279982388643461, 0.8550007830098227, -0.07299846080736572, 0.8022687070245178, 0.4263678096638621, 0.2616444138149805, 0.3920332147121881, -0.555916847863585, -0.1660554976869908, -0.84244658160079,
0.7891089210165299, -0.09104788383145479, 0.805353270707287, 0.22956829695642123, 0.9481084017939412, -0.08622937980746315, -0.9259824107712324, -0.49774021681011993, 0.4412320294021108, 0.1299959467542453, 0.23621965056729, -0.5596273676535382,
-0.9344759836163483,
0.44861745398119046,
-0.10053073280118241,
-0.8459728231658956,
0.20925160957550215,
-0.7818820908200421,
0.4614795548766706,
0.21027840086371352,
0.8101807623275619,
0.32090313967562745,
0.6776820174324452, 0.8918280650083141, -0.16554194759093344, -0.4299862703153856, -0.7428740181385414, -0.4093280471537488, -0.3850846764508886, -0.3216301610627874, -0.2834091091837663, 0.43927664844501946,
-0.7908330426339307,
