//Neural Network File Format by Kyle Julian, Stanford 2016.
4, 1, 1, 12,
1, 10, 12, 10, 1,
This line extraneous
-6.55e4,
6.55e4,
0.0,0.0,
1.0,1.0,
0.565980331544631,
0.7609662880734227,
-0.6843877059972612,
0.6851378370386021,
0.920739548039911,
0.4696911747153716,
0.6804123481066209,
0.6848020247481097,
0.13093006852388678,
0.6929055303339986,
-0.13983349067986328,
0.07347364045863092,
0.6980851610670049,
0.07558420541014099,
0.6226734429203162,
-0.19235594968992498,
0.8101977891162369,
-0.9243849541324631,
-0.5011121447657763,
0.3496155581389626,
0.4796827624328621, -0.7005169461597838, 0.21536326156029784, 0.9653662242218473, 0.6500347640052451, 0.3942966095906164, 0.024223402207584677, 0.9881337663784007, -0.18742248488151203, -0.9533037026780704,
-0.43832242532293186, 0.6545626098875572, -0.10479938262418997, 0.17600727614186473, 0.03809192829427799, 0.5329594530923916, -0.141029847017339, 0.3132437601063929, -0.31401727733839024, 0.6853646564592375,
0.760177546401481, 0.9452965077008519, 0.4117737662168266, 0.049621234330870845, -0.6462791358648157, -0.5060469001680974, -0.2010421000906768, -0.32822180333333684, 0.8036475313772034, -0.47211492015767753,
0.27540037478746804, -0.2578592325293161, 0.00881390015992256, -0.9310673849109343, -0.0793081599143175, 0.3332484289445996, 0.6327052954104291, 0.532696416722001, 0.1459587320474527, 0.27823793295443444,
-0.046815335261975566, 0.5600221509354864, 0.32777987943703213, 0.021584083999806047, -0.2516946942538363, -0.9699348886604939, 0.26951124965755824, 0.13565310094562522, 0.4556324413571353, -0.831275819683492,
-0.21960100734539578, -0.5063225974242589, 0.8343113862779714, -0.29713185636061157, 0.249337430221523, -0.06609639447749505, -0.2801298598228086, 0.369320759745269, 0.6907814474906719, -0.8995519222550059,
-0.9047097431344535, -0.007103823324119851, -0.41648207758191, -0.6367102003114038, -0.2131146418871186, -0.2118298473852005, -0.5479708926809459, 0.06922254342590461, 0.7128328432947528, -0.7284419744959183,
0.46962419326677995, 0.8069959444216948, -0.5683244191523316, -0.03224088803091796, -0.958345351340304, 0.4793806830538956, -0.1428790343118349, -0.6333556013174739, -0.5140525189661118, 0.21338133929502145,
-0.7672055928363091, 0.17634754199513347, 0.5892364695252543, 0.8118500187795568, -0.7519303315222765, 0.500590814623104, -0.6236574624982651, 0.34601545381956234, 0.14432587702269872, -0.8975783363233982,
0.07869288040602518, 0.03931984106076092, 0.2437830170596249, -0.033990244218006005, 0.9185800306126604, 0.7627987796061286, -0.9935715254250526, 0.5143836419618908, 0.9565880334121171, 0.41253526858296663,
0.23175753182093617, 0.2447405991944418, 0.5458064315996762, 0.45456061711103635, -0.7316919521881813, -0.9206069933323904, -0.8620673224149673, -0.2546890225362364, 0.014842558132398764, -0.7222647040423769,
0.3290529188151159, -0.8140643850673785, -0.3436495392403405, 0.15430204860617458, -0.1825227973074144, 0.48960099378611543, 0.9813241665633816, 0.5490854259863931, 0.44794803908723724, 0.9301399290468115,
-0.6134229641560638,
0.1636202340478783,
-0.35718007564697585,
0.9173412678575943,
-0.7529371576494284,
-0.07386106464692954,
0.7271920980925479,
-0.9027105671023312,
-0.014439342015283962,
-0.41195435731233676,
-0.23478289502645433,
-0.2540812388833529,
0.3822333039781367, 0.6733143067547442, 0.8414338267894439, 0.1760217304025935, -0.7236875379031562, 0.37202361242842663, -0.7033618469983871, 0.7434776321633763, -0.36927138070311516, -0.7468219256583586, -0.8322015427861222, 0.9400340337300506,
-0.9012707256277368, 0.10266310237601672, -0.522213954530359, -0.9668913523457383, 0.4907857648336793, 0.18545997111724866, -0.008406114076477955, -0.2936995116456331, 0.9759464094813302, -0.042281333764825124, -0.009822111822126, -0.20285334234928243,
0.0519811319193737, -0.887935004488591, -0.7580128525975378, 0.14415665300197844, 0.19859526427666285, -0.4311316170937971, 0.019682263430540026, -0.2052049442598749, 0.3978374071526658, 0.4921910755721566, 0.3764165765566636, -0.39530738265525844,
-0.9103028230137613, -0.030205852074480344, -0.2356579400966674, -0.3938105789927322, 0.2647214266055897, 0.790148819647901, -0.3722367062958791, 0.36782702210434337, 0.8439514705892992, -0.08658495776939734, -0.48709027875651056, -0.1556848329073679,
-0.4798686278123898, 0.1316356096139124, 0.47306309762800636, 0.7734425597624144, 0.5780537942825204, 0.38350886887346647, -0.21785470772571758, -0.951929900567722, 0.28495703313740695, -0.21641653185387133, -0.5096722027866956, 0.4127514440526121,
0.11749961828277744, -0.2705979415913635, 0.3711213607762365, 0.16546303201797619, -0.4576899509860164, -0.5677795589194741, -0.2731196845433943, 0.13501883473123488, -0.6486415494097724, -0.8781378003920657, 0.16640098525718328, -0.629370249054662,
-0.3617210538756961, 0.5523179973265417, -0.8374977093418075, 0.09650279478944146, 0.9242832822587124, 0.21741121183214984, 0.6493110660928827, -0.6913898839115515, -0.6723112644546694, 0.7332622719731843, -0.4193533064138899, 0.5690970418532313,
-0.6761429917040465, 0.434173995953393, -0.9745892533733711, 0.12178676928441856, 0.565750930711757, 0.5071276361614312, -0.4709073997795903, -0.2965727774768494, -0.9714731087184143, 0.222842429646104, -0.43469295200685876, 0.9502823223660593,
0.9297531243741006, 0.20736432571073582, -0.3472242903308813, -0.9467199648907063, 0.5067150466916126, -0.23621167652045116, -0.32034385209472616, 0.11931975902193148, 0.9113867583098565, 0.755212622158961, 0.48816574536504254, -0.20214140681951598,
0.7805803016462822, 0.3329268713015878, -0.4611942748429976, 0.8845614587816235, -0.20374976130326106, -0.6234206889502896, 0.5478987494014609, 0.007836596319094724, -0.7048358199510494, 0.01988349182541338, -0.15682546436460054, -0.22674264894301066,
0.8678604771489717,
-0.49251198671754937,
0.882917402506135,
0.8962299016799484,
-0.27358057092508226,
0.9824497580609779,
-0.8697907727112146,
0.32714511583640693,
0.1314262907163224,
0.3282907510931663,
-0.7268505378826142, 0.1305726262962783, -0.5763462400197863, 0.31999815211954097, -0.6535636560401796, -0.3694030688898331, -0.8825748451798363, -0.2912570410373858, 0.8971820639960528, 0.9055573507143246,
0.11260521265880952,
