//Neural Network File Format by Kyle Julian, Stanford 2016.
2, 1, 1, 8,
1, 8, 1,
This line extraneous
-6.55e4,
6.55e4,
0.0,0.0,
1.0,1.0,
-0.1418084564651383, 0.6667537170027047, 0.6121274395705654, -0.6918773091570802, 0.23149647506797644, -0.6146994061474382,
-0.5343381261597737, 0.9441859496608611, 0.7612622141670888, -0.47291768105635956, -0.26205906208617114, -0.9684567980064074,
-0.3625221455089238, -0.5608235818702485, 0.76700425636606, 0.8693951899124102, 0.8478807874401499, -0.6808291110249809,
-0.3450435676188812, 0.20452108223014642, -0.41293248981988073, 0.52578979415666, 0.7810998645427287, -0.15815581296474557,
-0.38547889239146027, 0.3932587704066197, -0.12818938722683493, -0.2461590672537879, 0.42290853891914226, 0.5681627966403409,
-0.26740443300408323, 0.6237495078821333, -0.20906922068325828, 0.6585927785274119, -0.1211615374428554, 0.09938556802354759,
-0.4215288372223118, -0.5185003901962464, -0.023187910830531067, 0.7359886686370305, -0.6411450191147039, -0.12476138633268885,
-0.43448590554037425, -0.806064459381671, 0.4687847365744622, 0.6059847890502255, -0.9683657605440188, 0.28037050483984105,
-0.3710358317461919,
0.21490201616563542,
-0.3878928656317506,
-0.45932066871256083,
-0.6556455300338091,
0.026565577926817685,
0.17247429326681551,
0.28011788115715053,
0.19372509849330743, -0.620524635249418, 0.7017754187953704, -0.4044373960681855, -0.738628788057452, 0.025416487947126587, 0.3395447928607038, -0.17966196578909743,
0.23861797900331894,
