//Neural Network File Format by Kyle Julian, Stanford 2016.
4, 5, 5, 12,
5, 8, 12, 10, 5,
This line extraneous
-6.55e4,-6.55e4,-6.55e4,-6.55e4,-6.55e4,
6.55e4,6.55e4,6.55e4,6.55e4,6.55e4,
0.0,0.0,0.0,0.0,0.0,0.0,
1.0,1.0,1.0,1.0,1.0,1.0,
0.6994893082789062, 0.7011421635621922, 0.7764018628625862,
0.9711139771890505, 0.5506601480917177, 0.676987477339495,
0.6402635185572527, -0.6667916802640175, -0.24883582658063697,
-0.08820533041577816, 0.20873634348858028, 0.4889661944556827,
-0.04636660438413731, 0.34102062717370885, 0.16524956666370727,
-0.40276674410202373, -0.5725016294453447, 0.5922606313120475,
0.35920228034893986, -0.7506935589454922, 0.19297685072548498,
-0.46517611768820055, -0.6761958156841126, -0.7204280377212902,
0.7384899958540925,
0.27736113233461124,
0.12315629617984492,
-0.14429035481899088,
-0.7151518628013687,
-0.5275758157320585,
-0.508808251342201,
-0.37528020983284005,
-0.07738375469335379, 0.5392773806973556, -0.6570668437813301, -0.9409830921640219, -0.9977422691529925, -0.2371961249851946, -0.2236899007449873, 0.8899368026590571,
-0.843635888945661, 0.8829675522596379, -0.8862615707400736, 0.3409723383225347, -0.7387187586536741, 0.34025067212746496, -0.7830092064548713, 0.47913542652930463,
-0.7515347027031805, 0.2865741474018084, 0.698180252202746, -0.48903827931163235, -0.6175348056139858, 0.8602585287616518, 0.2575084526390099, -0.47667986002545204,
-0.39530622303254015, -0.3719641298459022, -0.0808506784846954, 0.13155749738102163, 0.5470353922138447, 0.7973604578815316, 0.5434424143725969, 0.38880757255863996,
0.93871771656592, 0.904897747418739, -0.6295474948904318, 0.4768662715644001, -0.5219727795117857, 0.7128200767385233, 0.5296484104387575, 0.33632904039555633,
-0.3103174968977851, -0.3181967939337551, -0.9889278975792264, -0.1334911166511774, 0.0020615921374003143, -0.984118480197953, 0.9584417294319225, -0.49635744124223624,
-0.7056301991774654, 0.5921452117405979, 0.945636237464591, 0.8326814515506133, 0.7263828944487938, 0.04384334116897737, 0.775166900424725, -0.20566464282630914,
0.7383091258836938, 0.23518920678753386, 0.8367982089420036, 0.13958026884769525, -0.15097151990636393, 0.3765988249543071, -0.9892335719553391, 0.04070340910532089,
-0.019057112711498903, -0.45504250064933993, 0.902220957180702, -0.5179876361076481, -0.140399173579139, -0.9688272437483492, 0.7770559848490861, -0.19174164123919102,
-0.8680685595383211, 0.2713790729189176, 0.9402023003105899, 0.38638660111215284, -0.7238886864701843, -0.47907437654540175, -0.8645417206956165, -0.7917150454557622,
-0.7911052703154988, 0.519575667083163, -0.7816768088360897, -0.22730740747845335, -0.2643962836111049, 0.04887864446936785, 0.7326534451793423, -0.5536196111756415,
0.49753175302490993, -0.21547859709948858, 0.05046387646874262, -0.8259270878861615, 0.6744967532758595, -0.16807035560105943, 0.9852880508344666, 0.5703952473547238,
0.4271864758878561,
0.7301424737484843,
0.7068413404193632,
-0.5920009043743719,
0.5720225084259591,
0.12576481964872066,
0.5357335165293713,
0.05691985289870605,
0.1778705859028027,
-0.07892476187276287,
-0.376991486068432,
0.04404805694853087,
0.5069310657869379, -0.6300590562214259, -0.6134047824921223, -0.37959285236536333, 0.8986179223396551, 0.06685990622838123, 0.6019231795703863, 0.8898495705509966, 0.6309714879884032, 0.6852141983950122, -0.9460389382706564, -0.4836331290457889,
-0.2713529493989828, 0.43550117479828465, -0.5176901846482478, -0.41045911602127827, -0.4565783699779149, -0.20088562417010403, -0.6584258362102196, -0.1522077201526515, 0.8054898508120729, 0.3380496684842673, 0.38582470010856884, -0.985267510720687,
0.8361139497793473, -0.1898820431116608, -0.4955237814307387, 0.32473481487473066, -0.8530432154353398, 0.629964189438379, -0.5488945701848276, 0.9460845396912729, 0.1035164543029592, 0.9102049173525306, 0.6494783563748001, -0.3609508203869467,
-0.9011631124763362, -0.3594271732804133, -0.38771010623839963, 0.40202349187723474, 0.05271131854951694, 0.10382963565288161, 0.3365032268498491, 0.3658532551559026, -0.6902887548933374, 0.9265773798192987, -0.4074914286907929, -0.34340876740572046,
-0.04675923231019263, -0.4946146517966552, -0.0949752475933181, -0.23563906136590917, -0.48768057578712076, 0.9641404878960187, -0.16413306571606556, 0.3635739866934502, 0.09808159240870928, -0.49903198275547567, 0.7956689691450536, -0.7953413309163673,
0.7909774031669548, 0.9525221839221869, 0.8970857457985901, 0.839725068446632, 0.3459325919768257, -0.373818393714342, -0.948384726165254, 0.09532178067758768, -0.2570794070276974, 0.20383694873671754, 0.4261293986551591, -0.13441101950162038,
-0.3400650415977733, 0.6471482425812356, -0.9785186608572332, 0.7134144574327252, 0.42155055073602243, -0.7471670860124164, 0.2187373747054071, 0.1211154802203982, 0.39038236718274666, 0.30660615214843867, -0.2774151595490544, -0.1534257907193397,
-0.6085678395622534, -0.913222639670292, 0.5900323391966662, -0.6492882209253463, -0.10485018575418747, -0.3912042383883745, 0.34971924865097614, 0.4645821465774107, 0.25939539964288993, 0.4943832459794604, 0.20962068392557942, 0.2857906821925096,
-0.6779355696262188, -0.8674391867067053, 0.22880751008347788, -0.6556186979748642, -0.329671402589125, 0.44898525046176063, -0.4710873473077033, -0.04034635772542794, -0.838943545695257, -0.5942165329039413, -0.24586745277325095, 0.4399752420393588,
-0.8842269331723531, -0.1381993754545472, -0.18927347102815117, -0.016772273197589893, 0.26064585005994756, 0.4992555415820319, -0.7135176639433567, -0.10934899413031118, 0.14320365866844265, -0.8924160456919328, 0.8992124361393437, -0.039827801178440314,
-0.45567455612315744,
0.9270279870215781,
-0.5790341061225757,
-0.09918783815542564,
-0.17260076403792546,
-0.16819419248047884,
0.4532021586944075,
-0.602407455481575,
0.06940868240733344,
-0.9030593985322706,
-0.30858853566526, 0.8251733292964754, -0.12112660239319206, 0.6550235091967753, -0.25865126252596804, -0.04297779965994719, -0.6994872289993346, 0.06869837381068367, 0.7569613557521184, -0.5183127863714834,
-0.6887382354052818, 0.7209451664077271, -0.3674592750242778, 0.1113962754147999, -0.5387276011363467, 0.050875587820268464, -0.2937953785599259, -0.41474432758678104, -0.11464560284009018, -0.7412900353641381,
0.20401374103006242, 0.8469113762747367, 0.8865940138547361, -0.12311934689128501, 0.5110946857339997, -0.06980271752232214, 0.26338454846317516, -0.8936391131163615, -0.9886304526143599, -0.874277640526826,
0.7729175417407377, 0.8886866718253685, 0.5276365214127536, -0.8988380107158185, -0.9536227056489137, -0.7145311733964728, -0.04203018151909754, 0.6938083888993116, -0.2217545910140224, -0.07853398185873717,
0.11528451015488228, 0.14705190491800035, -0.9875052710648982, -0.030862650708971096, -0.2086091886378605, -0.8974098750128947, 0.16020575273836268, -0.6855136592293043, 0.354113597719119, -0.028656521065744567,
-0.7037984482127975,
0.9497009610367937,
-0.5876442418280816,
-0.10816377964501145,
0.6380371201820845,
