//Neural Network File Format by Kyle Julian, Stanford 2016.
2, 1, 1, 8,
1, 8, 1,
This line extraneous
-6.55e4,
6.55e4,
0.0,0.0,
1.0,1.0,
-0.8696101928898567, 0.4636575566963792, 0.6978206686790442, 0.09013304422574908, 0.47217004884376834, -0.7859385282047584,
-0.42187959014048415, -0.05458762395364847, 0.839178479771284, 0.4039591473675803, 0.48079534681146674, 0.0946333702126787,
-0.23980226900563517, -0.5604224650388447, -0.9467328371625996, -0.0047006711833579296, 0.5283753620827079, -0.5302290425992107,
-0.10142828105449997, -0.2385440071265128, -0.7898883180004033, 0.44651736309598133, 0.8320220277865702, 0.8807783495241286,
-0.8744597011506197, 0.9069450200699292, 0.3279934635641739, -0.9651306864608062, -0.9923966704565625, 0.07430671180228021,
-0.41703363283619144, 0.5601880847745977, 0.6297175818719842, 0.5457592862443952, 0.8535813642390084, -0.6086499652395401,
0.3849063987635839, 0.2776626997594578, -0.6064187917135215, 0.14480686801432974, -0.44596257542838424, -0.2051058769327576,
0.09202501341061398, -0.6296780543358529, 0.6520669367563809, 0.3363413744850048, 0.649759445136445, 0.16117045678227804,
0.798765128853268,
0.7684583876158526,
0.33606758628154143,
0.08003674054400323,
-0.07700415084404355,
0.4496617715129654,
-0.16753335093899047,
-0.3370160651669152,
0.22606671040100546, 0.7487102107176322, -0.5546752813637403, -0.061172080660471195, 0.8500334415551971, -0.7025771741121312, 0.0903199357937794, 0.5575525119842326,
0.6119208044442286,
