//Neural Network File Format by Kyle Julian, Stanford 2016.
4, 5, 5, 12,
5, 8, 12, 10, 5,
This line extraneous
-6.55e4,-6.55e4,-6.55e4,-6.55e4,-6.55e4,
6.55e4,6.55e4,6.55e4,6.55e4,6.55e4,
0.0,0.0,0.0,0.0,0.0,0.0,
1.0,1.0,1.0,1.0,1.0,1.0,
-0.6740251642278938, 0.024020933619068874, 0.1487064483589693,
0.6796861515640233, 0.7927274697209357, 0.9123583157907658,
0.11308254541934426, 0.2553487419615159, -0.14073734564372176,
0.4933820181885795, -0.2746853713884412, -0.5652682987536495,
-0.8011145559160968, -0.02523085810658454, -0.8121489900081076,
0.7625198524210988, -0.05954562599393931, -0.659545667815852,
0.18944845720213221, 0.9339604238679104, -0.2107532478282117,
-0.7596551578936852, -0.7669591797924316, -0.6139814280597191,
0.11471800367440421,
0.7328579453862747,
0.000356764328405923,
0.6745940865310498,
-0.5729336891896719,
0.24011252151173368,
0.6681092478155293,
0.8389931348939954,
-0.33611589890511384, -0.7706608541779367, 0.6412575730523855, -0.6348229132477297, 0.5737933135194608, 0.773430646373964, 0.8850155305160161, -0.1391219911519408,
-0.5727445161621478, 0.7403529703466063, -0.7172139925670145, -0.690578034727718, -0.2633897711253761, 0.5073156290740819, -0.7821561008869651, -0.7364676713676892,
-0.7538487806986915, -0.3636639153880221, 0.33534622641906564, 0.4534725284337404, 0.5261814053409881, -0.1756663449045046, -0.34803699048898107, -0.35176834942167146,
0.0487538169281887, -0.11792884026863693, -0.22683977730837457, -0.9893046906280092, -0.43623161383315034, 0.6000934190059253, -0.09000320840741693, 0.8468131311650642,
-0.36685833746179375, 0.47092804785374076, -0.0931522174341457, 0.5076096992585999, 0.9266422776455898, 0.9456038802069058, 0.9807934701145586, 0.5726799469290973,
-0.6208704246235293, 0.17857002595795723, -0.1606343361036653, -0.042307139275561845, -0.9619411754720102, -0.24688148619666705, 0.29435878027271034, 0.90456818243418,
0.03675481459765084, 0.7789236415249183, 0.11601505005902268, -0.22843045356418124, -0.10404105092601146, 0.30065528374661543, -0.4520259965810327, 0.5292907928894497,
-0.6243935993938519, 0.9226965283168385, -0.23186975335113758, -0.11303578427500449, -0.4399171820305319, -0.4580113622229187, -0.17760088796145634, 0.831253060244801,
0.7607371112043091, 0.38169731420526043, 0.2383546202640816, 0.6595509797278334, -0.16881634886215746, -0.6861745626811264, 0.04454263266732861, -0.8400170002724074,
0.20078998121069613, -0.8816394910503655, -0.05070598870746457, 0.7869953406454231, -0.8869917266566696, -0.7936378013622303, -0.8944470277278893, 0.365604483804177,
-0.583107497822493, -0.4545920975323794, -0.8234513569206063, 0.14065672381919336, -0.6697529308330514, 0.6303415257680824, 0.5523048222674278, -0.3077535744953339,
0.7142299418757703, -0.4301110047411081, -0.0010135873816712326, -0.7305587005907856, 0.40872348604766007, -0.176748674130232, -0.4151683764625598, -0.9018834594642082,
0.8040626376780335,
-0.617247136273201,
-0.256031010099548,
-0.4121751637148141,
-0.23367743614883985,
-0.6821823367486046,
0.6623740009166301,
0.21384136958260447,
-0.9592752048760969,
0.18355723228301102,
-0.5265456449560939,
-0.11930939234744642,
-0.13745890936541283, -0.5926360457719269, 0.023714841483931437, -0.18745307538285472, -0.86012180550498, 0.10974389170023402, 0.46465334112047163, -0.7484348096420645, -0.5844741292550428, 0.13554381270529925, -0.383127772319662, 0.9941107245019478,
-0.1563183040382241, 0.6325642652504482, -0.9735256826248158, -0.5841502281210675, 0.8843424263710875, 0.28023769094259743, -0.4389401739315226, 0.4563284341179328, 0.21799670207035193, -0.1605886859496244, -0.13693356773641385, 0.8355627332447773,
0.8619159865400987, 0.15483207951482436, 0.4187763581083912, 0.7748683647261876, -0.13856656869447237, -0.8369995792124407, 0.9772767059864149, 0.31310125022091295, 0.4651839004737157, -0.42874364020704947, -0.9378736130256731, -0.9346625424141912,
0.6948511934820791, -0.5027213621059081, 0.5970483777482936, 0.5014018218365268, -0.4022135563175695, -0.8909923888205156, -0.12529777970657152, -0.040864854894412606, -0.07586262337203431, -0.47959755778862423, -0.8865855961531919, 0.7325225129667752,
-0.4066499455178758, -0.8077342816802524, 0.9129925292491574, -0.5298506171981439, 0.22972801411779287, -0.1287023217854686, -0.38311705091059745, 0.2710626680578745, -0.6688893538693415, 0.9982596495157514, -0.45844726001904057, -0.1250958183037012,
0.36616342536950564, 0.21171449993063307, 0.7653469892330693, 0.33354166020787845, -0.5737342373106631, 0.0386027614994906, -0.5934406314900613, 0.058300214192093414, -0.7272062094286729, -0.922729355783662, 0.6063463185053122, -0.29348177021112454,
0.5493888038083456, -0.5715238205045448, -0.40983471003245064, 0.17555312027861314, -0.682686834275779, 0.12219595967703256, -0.554376658392032, -0.47828249724025085, 0.26146332277048856, 0.9267693220354944, 0.2984555916816771, 0.9531312589414962,
-0.15503292265728374, 0.2225064101003369, 0.7243510962955235, -0.9099838963776197, -0.5349783308623599, -0.09127947652474466, 0.29518388874073187, -0.05360740309830536, -0.5531388063614755, 0.5781223917048526, 0.3322767762816312, 0.6919371370170078,
0.9133019989653666, 0.8152137529077379, 0.6101826117546119, -0.2479553476529195, 0.023280592514269838, -0.48490307720081116, 0.5731337182486649, 0.49515206026231606, -0.2699056181163466, -0.7075757571828136, -0.4037057556582244, 0.9843220779083217,
-0.21521874088799064, 0.41873496061293647, 0.5472467781337524, -0.9033117714620471, 0.32210518298816737, 0.29775254334754386, 0.9052363770509402, 0.08231049565553006, -0.3545151071146395, -0.6259627103927832, 0.7437143751614235, 0.06918448278914058,
0.8955920038948273,
-0.4270870693304172,
-0.1362990533889854,
-0.4898503637453073,
0.20481680751013664,
0.27940226347816477,
-0.19401702365298146,
-0.6692057419197441,
-0.6393256514106667,
0.23528386457664263,
-0.6997191464759078, -0.49140796916348917, 0.04287668321888427, 0.521488933007924, -0.20676845445529812, 0.5983104373186263, 0.20215799917300137, -0.6772771250541161, 0.9485949651736041, -0.2654424109739715,
-0.25551213509149173, 0.2967483365162389, -0.20103685985406594, 0.09218648633782767, 0.527582892598677, -0.7999254377664058, 0.6820015198898002, 0.47279714664705663, 0.7720642508035231, -0.7704504074227212,
-0.3762497136608789, 0.9929703464195994, -0.3553301656738439, 0.6490029874484566, 0.04465520343889162, -0.8089739575179693, 0.42583805037536626, -0.03306840653841636, 0.7484875620936866, 0.6146452824657533,
-0.3740873656513042, 0.9322662122727632, -0.8650945881562926, 0.31504102231946307, 0.9385592845373107, -0.18601593253081994, 0.5480745711839168, 0.9305871763442828, -0.30425878382661864, -0.7537854178335888,
0.003043797235571244, -0.5245860754022118, -0.501438280421266, 0.31264199728304387, 0.9120695233220726, -0.8199405372283071, 0.9571642188092948, -0.4167298879318526, -0.44702072442883134, -0.9176833823171839,
0.9368330020766602,
-0.7001719252595775,
0.3688632261532403,
-0.5738951979232811,
-0.28523466204790404,
