//Neural Network File Format by Kyle Julian, Stanford 2016.
2, 2, 2, 3,
2, 3, 2,
This line extraneous
-6.55e4,-6.55e4,
6.55e4,6.55e4,
0.0,0.0,0.0,
1.0,1.0,1.0,
0.37358249455079884, -0.44038898966507345, -0.32332852706681425, -0.28160417085747724, -0.12599980660428, 0.48119551467083843, -0.9766784865440168, -0.4085200696597693, -0.7787372485279191, 0.4282058559448809,
-0.23072004741101315, -0.5465488267782921, -0.9645077000352802, -0.2542072808371292, -0.8930063925180134, -0.8056908447065512, -0.16487048744834354, -0.2797892855027011, 0.6038527102379616, 0.7854741985018485,
-0.49534954536965436, 0.3046394864666748, 0.30444850383729616, -0.6040680305439889, 0.14974581204118032, -0.07736992291141087, 0.8362221473523523, 0.2361243759558005, 0.26402884047540587, 0.3317328185341979,
-0.28934271695583647,
-0.7654944161098891,
0.5590266359021521,
-0.36532632444512236, -0.6063393496821008, -0.4022755208696265,
-0.29409020395051, -0.8080923445228283, 0.41911096549047366,
0.8845831965204232,
-0.9274146918645649,
