//Neural Network File Format by Kyle Julian, Stanford 2016.
2, 1, 1, 8,
1, 8, 1,
This line extraneous
-6.55e4,
6.55e4,
0.0,0.0,
1.0,1.0,
0.2819422732922727, -0.28918792806581894, -0.9074071611889623, 0.35323550828594596, 0.5407159737766851,
-0.5071108070466752, -0.3567520348778239, 0.4085048351230718, -0.018765599585375714, -0.28333674156407573,
-0.5986440559188209, -0.4448356878261728, 0.42677991950297, -0.8534475162330066, 0.14688671461849845,
0.28451457226685983, -0.2236524899111778, 0.9070525227103672, 0.6824236472671346, -0.5848247835470977,
-0.28957148224116924, 0.7321045053030155, 0.31398612408070603, 0.8538211733582219, -0.5364250784789109,
0.31207219127087527, -0.5082481025380536, -0.9329090210941633, 0.80946596848786, -0.36968422988946914,
0.5554756955493074, -0.2448670196212186, -0.7830385377974514, -0.9832213982923967, -0.7923632105912737,
0.9672085186824102, -0.3094090431207781, 0.6427085312747782, 0.3293630967990895, 0.6916258625822613,
0.8560014702176515,
0.05269496973750831,
0.8891835885323078,
0.5310505041899116,
0.3118745995958254,
0.36888629272607387,
0.9892051826725359,
0.3629925090462729,
0.021202843463410836, -0.9187584391008441, -0.8451123783302337, 0.06525589680433708, -0.38989898819646207, 0.44817580187195416, -0.26182392515901975, -0.20592754724281903,
0.7451659351114923,
