//Neural Network File Format by Kyle Julian, Stanford 2016.
4, 5, 5, 12,
5, 8, 12, 10, 5,
This line extraneous
-6.55e4,-6.55e4,-6.55e4,-6.55e4,-6.55e4,
6.55e4,6.55e4,6.55e4,6.55e4,6.55e4,
0.0,0.0,0.0,0.0,0.0,0.0,
1.0,1.0,1.0,1.0,1.0,1.0,
-0.8864132931603854, -0.26831654177225506, -0.39402913993598965,
-0.9160993831459683, 0.13565437845823203, 0.4228525354793895,
0.14010798539403524, -0.8818507807096347, 0.9137213715758272,
-0.8428078168420736, -0.324366420493849, -0.2805988280455187,
-0.6804739079924103, 0.9202677142866866, 0.41060741367788856,
-0.7209089303802627, -0.6898726395232218, -0.33195533045937387,
0.546055769212983, -0.47404243586328043, -0.3645728820451244,
0.30385501958499184, 0.43603283201262677, 0.9807829245185378,
0.17743051247792296,
-0.5351584787056884,
-0.2597861597047415,
0.3968310832361772,
-0.8789562628629546,
-0.8987400219394575,
-0.641005376132338,
0.9709151553683903,
-0.8539789184122033, 0.9180524450887311, 0.511806105570134, 0.21114360280534106, -0.322536835123294, -0.5841686772396728, -0.14312398345674682, -0.5732724602656538,
0.13459020742107475, -0.4481046857641715, 0.767516257629838, 0.6315881683655364, -0.5916891302781737, 0.6891895345544987, 0.026064794238118694, 0.2564651367941502,
0.07876423676579991, -0.48884622167955705, -0.9764860140511993, -0.23255236121604872, 0.9559200785598674, 0.513745258332658, -0.6822073430314903, 0.4213651803899414,
0.7605673868785456, 0.680045570627648, 0.3366952966588985, 0.7490223017537043, 0.8750129492685708, -0.6966470112184884, 0.5636541146594776, -0.7128897000101895,
-0.3080407918104373, 0.177006988600926, -0.5622469294270807, -0.687226225858443, 0.7086831377183791, -0.6252707965178979, 0.8366103349117098, 0.3380336369427557,
-0.7678765682545956, 0.4068488029730153, -0.6567370729838382, -0.11281857814670682, -0.1210579509158558, 0.8319133392162663, 0.2964073067223527, 0.10990283238768717,
0.7511852046147851, -0.8346646996653622, 0.5333193712171544, 0.40994476782086275, -0.7231242240984663, 0.6521041674537704, -0.015280536956299606, -0.4012656885573276,
-0.83823088210056, 0.22491078655733032, 0.32887794103245893, -0.48474577165249055, 0.04015425394822891, -0.30804053942195697, -0.8947503686102771, 0.9078311520348912,
0.859974889841332, 0.9491948581528198, 0.22602980932485517, -0.06576065539295461, -0.5815846008514551, 0.9945866456232841, 0.999009589565047, -0.3312018406666324,
0.7021521375042381, -0.36575079373392283, 0.14777961595359468, -0.07660375801216324, -0.12543266041452616, 0.1636457484065046, 0.15832651390099883, 0.3472484045897355,
-0.37756579522196043, -0.8804676382182701, 0.5928888272790949, 0.6583302103420849, 0.38686991556739914, -0.02476277409255756, -0.03363538491738938, -0.9355630986341845,
0.6057143036304806, 0.7033487054474223, 0.9862645461861619, 0.2488989008339746, -0.9178119010943648, 0.16174501268683983, 0.49325036277992673, -0.9875273923336145,
0.7431402645879812,
0.9971322617564926,
-0.8563989772747793,
0.9541576028136496,
0.43576693822798385,
-0.5239453945165131,
0.344344267797819,
0.06828642016521735,
-0.054517611741082384,
0.24626399103367946,
-0.9137826278017638,
0.2727243459386175,
0.39171387675444835, 0.23866864871316817, -0.17389169675952632, -0.07133821188828549, 0.9931283679691769, -0.03095415019182557, -0.5105965189829527, -0.6635605717843549, 0.9720902136035203, -0.23767323913501714, -0.9507388672116308, 0.13334561600300887,
-0.1996422918204157, -0.7702257987736503, 0.686273111097111, 0.23208681339125814, -0.5540151922052896, -0.4798363364175362, -0.47986633720131167, -0.49919958598361536, 0.028793616069892725, -0.17193239523414583, -0.8584617133044459, -0.8040399044966389,
-0.512326247507799, -0.641433137012207, 0.6294214058060921, 0.3012927766662683, 0.11665204803168239, 0.2958470142753957, -0.5096915311595298, -0.5221496975371744, -0.5342260646038932, 0.2209822165151607, -0.28203001313440046, -0.22034383045935213,
-0.6010688227302805, 0.14452756949658774, 0.8678006720281175, 0.32773752487974894, 0.10940278592019492, 0.10108655761705876, -0.3285952651375812, -0.6574676486161475, 0.7901504595568198, 0.6976294322185268, -0.8675614846143032, 0.9979046249323202,
0.9671420187103803, 0.38660786546685655, -0.3503331435499, -0.5812552302656768, -0.26382651908010013, 0.30633064367806817, -0.5481837456546499, 0.1374143997328372, -0.7740620440437498, 0.4830839232613373, -0.1970137110574397, 0.22450250074296552,
0.48751212980134806, -0.3422318478898836, -0.9198195854390931, -0.07600142945568633, -0.16467509445339257, -0.7364035676280025, 0.010594424405710345, 0.9877993723788809, -0.5273320322234358, -0.865351071835784, 0.3211756605161513, 0.5024616288161328,
0.673137327753127, -0.17543359570382, 0.6506285705865387, 0.295208413904672, 0.4501053449164236, 0.5701744007061036, -0.6195686433666245, 0.8434534390390498, -0.9995632600584439, 0.19335166592083164, 0.8296417868827568, -0.40920874074188385,
-0.0036791916543652547, -0.3144394931514056, -0.22292302080945348, -0.7763834272587204, 0.08099638316623103, 0.0833512056400636, 0.9048781927858651, -0.6184835263500967, -0.5656649836201919, 0.706852673932274, -0.16169300474933834, -0.8828215973391638,
-0.29684384908327033, -0.6844553364139454, -0.8421118199116209, -0.9981842593781094, -0.5752662277870351, -0.33049890197840615, -0.12465086664110059, 0.5474987949977375, -0.16461536840153057, 0.7991874209794343, 0.021529880310224847, -0.7506375447570894,
-0.31612691261611126, -0.720627135247168, 0.7737594517073791, -0.9290004717794167, 0.9911518862946544, 0.4130060930515942, -0.5383124144252789, -0.007038940576131303, 0.9151892879479924, -0.25862072455071505, 0.46222867532117284, 0.659254611327801,
-0.8372167813574669,
-0.7170545088802331,
-0.6091657376075448,
-0.9767129268481529,
-0.27224446342261954,
-0.9048665623785936,
-0.7855319847290714,
-0.2992393098449919,
0.00798840980188631,
0.2908368266921655,
0.6193163140123557, 0.23342303531608444, -0.3745470565306017, 0.7320507542801438, -0.9194960666708099, -0.9609366166399633, -0.47600271444426845, 0.5259867329697951, -0.5571162987348535, -0.9243893199347166,
0.036861334916582056, 0.8000804407216351, -0.5642010209399309, 0.3466070849450391, -0.552882534639604, -0.2793604632981279, 0.6909226129747399, 0.445368835226017, 0.37940276254182326, -0.23640779244819976,
0.7398220695109132, 0.8267882881690771, 0.5453251144641764, 0.9921415858388798, 0.24648625098665944, 0.14102880322274025, -0.7748659614198328, -0.23655600271757615, -0.837528332859061, 0.288208428578141,
-0.6686985159321464, -0.9102794448972857, 0.9570319616142657, 0.6631014544416263, 0.3255162783567842, -0.37933378924096806, 0.008011495781603983, -0.6354294430944227, 0.8888260769470899, 0.07844417134709403,
-0.6679782622429995, -0.6976244167931478, 0.14622833969200277, 0.6434601201019174, 0.9108670239310848, -0.5049445866475422, -0.812982669244918, 0.8052380871143248, -0.03904151327534988, -0.4052276410279947,
-0.8826471440509169,
-0.688584402000993,
-0.9204138669580955,
-0.15996424700211254,
0.7963118848502,
