//Neural Network File Format by Kyle Julian, Stanford 2016.
2, 1, 1, 8,
1, 8, 1,
This line extraneous
-6.55e4,
6.55e4,
0.0,0.0,
1.0,1.0,
0.05719650504083562, -0.8176171864918906, 0.9059670936957334, 0.8822679308594616, 0.12179691559070305, 0.9979308816525534,
0.8722926059203466, 0.9530903617806645, -0.61604043970961, -0.6189805618320801, 0.38944014049977627, -0.16424155983529953,
-0.029831125091949406, 0.4307915266505846, -0.30336839230459667, 0.9235136486853839, 0.4433594463902488, 0.597164182764435,
0.49047964490089724, 0.2542229313486932, -0.9481117261733139, -0.39936144413610064, 0.7729273288964809, 0.2456311067315462,
0.08757590478961008, -0.8472788252557923, -0.531628367749378, 0.7751061330012017, -0.862852842238119, -0.9799501698919939,
-0.20242645027316408, -0.8671423896803168, 0.6987397985216388, -0.6423613197264655, -0.021188301986237335, 0.657395044319061,
0.6320123514638651, -0.8827865928871255, -0.4679694613999579, -0.26883520256815485, -0.7557118164012602, 0.12261551153258088,
0.7396409805261435, 0.8915538223311428, -0.06234794596981397, -0.5871011988748016, 0.0034585257247030654, -0.07236325313755376,
0.8999847434259896,
-0.5146821604878853,
-0.1687173733112397,
0.07186654954103622,
-0.04173191845695179,
0.6165225798310661,
-0.9555608930007646,
-0.3898527304230326,
-0.8620463474904985, 0.6001218159038793, 0.07514947321886334, -0.3291333492031798, 0.06737662133560329, -0.08558987971124665, -0.9205567993896073, 0.2453347557572294,
0.7134407106090848,
