//Neural Network File Format by Kyle Julian, Stanford 2016.
2, 1, 1, 8,
1, 8, 1,
This line extraneous
-6.55e4,
6.55e4,
0.0,0.0,
1.0,1.0,
0.47435367186587785, -0.5711771207720795, 0.08438140042229136, 0.4287914613400692, 0.013961707497163633, 0.9917490658895733,
0.0246884100543312, -0.17118434443533648, -0.4531561389201513, 0.5852607256830002, 0.347756129098864, 0.2628848135599626,
-0.5681279723636838, -0.29543137147338694, -0.864252063893856, -0.7843360637098007, -0.08951163795445982, -0.1162508948692329,
0.5699088563984076, 0.28147806497107153, -0.27788073200359076, -0.4839907009730702, -0.7316241636399012, -0.6162644821782925,
0.6082238606978709, 0.16669539239772346, -0.776397909077502, -0.3321711036211932, 0.6811455741471741, -0.7548208238286693,
0.724293586934857, 0.3371677938987969, 0.03697904246131101, -0.9688037330529791, 0.3523297067381339, 0.07033528385948262,
-0.7354972256797621, -0.5097133066216153, 0.8439495806498307, -0.05471826798035728, 0.9219768980256804, 0.9092584832961572,
0.5183823744261282, -0.052193705119497835, 0.7270935435122223, -0.11887080082351753, -0.6127445217057272, -0.34431252903727305,
0.32603166394733485,
-0.6158620157499763,
-0.4062466254636652,
-0.7047797696568523,
0.4238585611870329,
-0.04017705589715481,
0.9598221858802654,
-0.4587810262599823,
0.09365461830034238, 0.08915416677652344, 0.6273147891915509, 0.17307368170321258, -0.2696393792639844, -0.9666030105397247, -0.04266945365302943, 0.48245822541748673,
0.06733515901529019,
