//Neural Network File Format by Kyle Julian, Stanford 2016.
2, 1, 1, 8,
1, 8, 1,
This line extraneous
-6.55e4,
6.55e4,
0.0,0.0,
1.0,1.0,
-0.5482359527061806, -0.7990349925349527, 0.7012931869044521, -0.6189086260160814, 0.38645671552000316, -0.0044689911304978125,
0.6488546192866078, 0.05920430108848551, 0.6010998234647698, -0.6478320109121167, 0.11965030551800293, -0.7079534242352965,
0.016639910136968528, -0.3477804162760876, 0.7358097565175301, -0.5195592128892028, -0.9105278811187292, 0.42027545205961214,
0.8307187108814618, -0.674254350771847, 0.3799133003692581, -0.16544498402867225, 0.4121242792605715, -0.10489696227912004,
0.7586118642528623, -0.891549712151416, -0.8991222301176545, -0.1327259395972602, 0.09948947754995396, 0.7297355809724082,
0.5047665940341917, -0.6319029979578978, -0.758845944187124, -0.392607957686828, -0.37140641317129486, -0.7160783004018669,
-0.20866339977300763, -0.8375332048590769, -0.8675940498341079, 0.3082214323486756, -0.5018385582285552, -0.5317729241648417,
-0.21726494306719601, -0.6879959556088768, 0.4772385411502076, -0.6768631537139553, 0.10159266899340036, 0.057708919576588524,
0.0659783836284169,
0.9399500182889655,
0.7055458159903445,
-0.8510053506151984,
0.09740690964212995,
-0.20510178059606732,
-0.5741445689400506,
0.7240317137383179,
-0.6220871823957697, -0.689859020286578, -0.17845780157676483, -0.3012825157998926, 0.32866889651842524, -0.11451510074495763, 0.06988105079739482, 0.34137826160395646,
-0.7936861877577721,
