//Neural Network File Format by Kyle Julian, Stanford 2016.
2, 1, 1, 8,
1, 8, 1,
This line extraneous
-6.55e4,
6.55e4,
0.0,0.0,
1.0,1.0,
0.8855239623540947, 0.8049562693579877, -0.45781097498350043, -0.5243703270423685, 0.39106897019670894, 0.7481934504453993,
-0.5181497525244154, -0.6200035252076384, -0.34499834258962503, 0.25457667949543916, -0.07059871194624678, -0.36535058593008696,
-0.5052030184931113, -0.36278721262830604, 0.8969840218999323, -0.1331118178019377, -0.3155035320510735, -0.7708363470907202,
0.7025162847910882, 0.15285761255614005, 0.5805557316009602, 0.45922483233951805, -0.6758964077551077, 0.1050321527571203,
0.4421070745098272, -0.6630916913358456, -0.7664125418848626, 0.1712482519755394, 0.03091574881179593, 0.35341093945843927,
-0.8566413653430516, -0.5565507256478801, -0.350774885956604, -0.018454229982251213, 0.7308866629271042, -0.22019207234308347,
0.30717030625567343, 0.9880460037729435, -0.14472238720293173, -0.6104460142803525, 0.6285408271685058, 0.6217372843005591,
0.6213909872852166, 0.0060377181216964, -0.6576388103482804, -0.4122247595385775, -0.3718541456419282, 0.42464516872325664,
-0.4514008325425851,
0.16814210033188726,
-0.21921460613781107,
-0.14257663420963773,
0.7858828844634549,
-0.5619861334232112,
0.5952616270055442,
0.039132511630062705,
0.6697845458838168, -0.1595990248078718, 0.8137941698044275, 0.8633551838111271, -0.9625874982341722, -0.9467002431700577, -0.13780168985683883, 0.4483318163101879,
0.10941691625398287,
