//Neural Network File Format by Kyle Julian, Stanford 2016.
2, 2, 2, 3,
2, 3, 2,
This line extraneous
-6.55e4,-6.55e4,
6.55e4,6.55e4,
0.0,0.0,0.0,
1.0,1.0,1.0,
0.8840518178572161, 0.9290922279631197, 0.5882597867097616, -0.09406924782794635, -0.25857947672599346, -0.9875477005515174, -0.22146107786848557, -0.0025543927634981145, 0.6066967722143826, 0.9182802044112695,
0.14413664049348052, -0.3699101467883952, -0.6934824368050916, 0.16939891751778946, 0.712513929231255, 0.3239865215309976, 0.9562649715378995, 0.3967529120939628, -0.995618686440694, -0.565100388048533,
-0.07648104291794011, 0.48649417337875267, 0.8821307775146052, -0.8959143525582998, 0.3972689587124516, -0.2509662534827415, 0.12528606491611827, 0.44276527428359813, 0.8685055643735162, 0.25189352373475016,
0.9038543609431193,
-0.17335750434968444,
-0.15108630674722123,
-0.6759592102831564, -0.9510539325143919, 0.21182711638951535,
0.40375510568196527, -0.8116039047770056, -0.2988094822360292,
0.54781057197573,
-0.28363642261482314,
