//Neural Network File Format by Kyle Julian, Stanford 2016.
4, 1, 1, 12,
1, 10, 12, 10, 1,
This line extraneous
-6.55e4,
6.55e4,
0.0,0.0,
1.0,1.0,
-0.8781398829529103,
-0.48554496527132507,
0.5924790921131269,
-0.09919399381892946,
0.5225155000630255,
-0.40281477497286255,
-0.3966408585092229,
0.6599155403374182,
0.75568094923449,
0.10804850484041273,
0.5114081460261897,
0.03563963661570746,
0.5138650402656397,
-0.5559211724784592,
-0.853998949784196,
-0.8265211842146236,
0.7104633608812407,
-0.2084262713420859,
0.5989354048325803,
-0.152852313033212,
-0.19760047175724837, -0.7989740734293167, -0.5790124318983128, -0.24797213959574593, 0.26115933896552024, 0.06339331136536464, 0.24651720409409839, 0.06987721317406281, -0.21988217783139197, -0.4242168323088431,
0.07555251900066162, -0.15726925265422498, -0.464923062845894, 0.9516661512411595, -0.10682664193607305, 0.22640750325131842, 0.8879585003273336, -0.95223137940049, -0.21380076670258985, 0.788389994311546,
-0.13047665780219164, 0.6329735323205683, 0.669777062678425, -0.08434952401767992, -0.3594430440015257, -0.4288122823792371, 0.5863830029659818, 0.7801676111933382, -0.8030805130060141, -0.378645396235501,
-0.3405596870279046, 0.529699687028331, 0.6880992830686905, -0.25163581113645517, 0.3647155161480886, 0.8440829403325916, 0.8137489981917443, 0.47382971893486614, -0.5513279813583543, -0.4108182059134644,
-0.3171697800070814, -0.8310233408438239, -0.6321312734205424, -0.13589308807020917, 0.5651249254863631, -0.08457488979247119, -0.910266400930265, -0.9672461338440623, 0.3322193435372278, 0.8255922112906213,
-0.7543365445910459, -0.9259413935785377, -0.1863954624544233, 0.7975629192068414, 0.1779295358064763, 0.7904086930155727, 0.48292126304595673, 0.2995896829351077, 0.7171898955716478, 0.463457752438468,
0.45379384816536916, 0.18511332732019703, -0.9893887322372112, 0.6618692742806882, 0.9053361669658311, -0.043613701067951816, -0.20621517493729336, -0.7842572910286112, -0.01113485960026983, -0.4225193835640706,
-0.8071512122963922, 0.4914215012627716, -0.3867535151169448, 0.18992444727303415, -0.7490512734154917, -0.5992528264692787, 0.777842988950328, 0.3173930507058751, 0.7415707073377757, 0.015281184391977565,
0.46156634442652367, -0.06994377080056191, -0.6175775859567985, 0.7398762097116793, 0.7461031080242604, -0.18717684537893398, -0.19407284449065854, 0.2994030810284283, 0.31032583834798233, -0.6095242456551229,
0.8091392183376858, -0.6379911676854411, 0.1986932924410132, 0.5946069756203678, -0.7228217970343507, 0.5359034439433765, -0.1727363536851234, 0.8606724469757481, -0.8794334092347609, 0.38572339858436644,
0.025606735530718794, -0.8291336774006672, 0.15009055959696882, 0.8042740001532134, 0.6705668029295055, -0.7480806179337245, 0.35133035790244316, -0.7715193810350982, 0.8725706359803493, 0.44447497655981927,
0.7388514754691995, -0.9973487158874068, 0.002413395163630039, -0.4903905635829253, 0.7740163413733478, 0.3828388150683968, 0.4745028001266647, 0.622935143215102, -0.12966508428349766, -0.9654643511652066,
0.6082262542361079,
0.4523388295344679,
0.16463972260027226,
0.689840754686124,
0.6529072315728484,
0.05693284379735841,
-0.7993541201948631,
-0.7602511310789803,
0.5516892287183448,
0.18828773029011803,
-0.6632773178252638,
-0.41444462968229034,
-0.8162975625863864, -0.7636813081180494, -0.11554307429981803, 0.1551318011879581, 0.8159435541470148, 0.9752017168966227, 0.22211351281460168, 0.8676593670070436, -0.7572553363905223, 0.44672858509056157, -0.5815128997069587, -0.482004815317135,
0.5913664540273333, 0.6882483799543913, 0.35224459494531724, 0.682508232795155, -0.5727506920270997, -0.9373270517917813, -0.5807460546851391, -0.14652963231255178, -0.6634711381773855, -0.6200089104070949, -0.1663037496377635, 0.07994883888765925,
0.26198872298186826, -0.11189926010024642, -0.1654538757618238, -0.7558747674663491, 0.6311516322806865, 0.7138246661714875, 0.8209542838263224, 0.9718182688112842, -0.2274250656584571, 0.8600107844909064, -0.4980021644815231, 0.28710376010105065,
-0.8282130396069949, 0.5350627553476017, 0.512504166387501, 0.4385912406716659, -0.3494868781307816, -0.9155467588204971, -0.24103086270248353, -0.08477606903780277, 0.008997086374854302, -0.5733845009990568, -0.14724677870167868, 0.4683705147181252,
-0.24514748436197387, -0.6702731933183901, 0.020531335017005325, 0.2935348332361394, 0.23624993015080564, 0.6636550206167748, -0.6339725644362062, 0.0065935649234405425, -0.16746603434260132, -0.1707269051812772, 0.9816179878285802, 0.5071700713816458,
-0.480769071967345, -0.3953911927275593, -0.7670315132866783, 0.376935440157784, -0.49973133650745405, -0.506740944694847, -0.6666301343412839, -0.49816219711520926, 0.5538709229756456, 0.15534948319786324, -0.22262435164742778, -0.40255129849489135,
0.45539779299140326, 0.2600556242955636, 0.38437612935948895, -0.3012667784054739, 0.8589378279248492, -0.6206317070770968, -0.12169178723782137, 0.3541969358075976, -0.0763275093759268, 0.1561177431619365, -0.5348393517976122, 0.8056570262303651,
-0.517209164146577, 0.8696389628247743, -0.12256912051140745, 0.6521296699570427, -0.48753035459529936, -0.9657262081032045, 0.4790080287682237, 0.4444997949083249, -0.08399110214041627, 0.2261414681935996, -0.13773428240702668, 0.2731594658748828,
0.01914377929348321, -0.9785716755651435, 0.414777756164014, 0.5774763293997047, -0.17758838274501754, -0.9243227407488908, 0.5777846078310707, -0.9146697399661541, 0.4866697704123606, 0.13447201088255412, 0.9037084361382903, -0.7792626582399556,
-0.615178761254473, -0.04656147384546916, 0.4737415156391389, -0.2042309857409692, 0.5297809714064656, 0.22361229952658768, 0.7207023105043149, 0.7918386630138028, -0.6236533180075696, -0.5773375558716207, -0.5044620129304462, -0.3884290980721956,
-0.915715577769959,
-0.8890733417918666,
0.9495299128631842,
0.9792920707286665,
0.1502182585768188,
-0.2919027965228951,
-0.12255617401345331,
0.9219375073329092,
0.2046017854440838,
0.8680128739181652,
0.8497651508393091, 0.8957926335635218, 0.3698140277587627, 0.08700396507123997, -0.34963836124162917, -0.5731970309080361, 0.9016697484744647, -0.17513547728709788, 0.8789388567095147, -0.13152169518155477,
0.8821941047351016,
