//Neural Network File Format by Kyle Julian, Stanford 2016.
2, 1, 1, 8,
1, 8, 1,
This line extraneous
-6.55e4,
6.55e4,
0.0,0.0,
1.0,1.0,
0.495772511902397, -0.7623667453209335, 0.6107059475352026, -0.8313429248938919, 0.25608745023196544, 0.4571894798699727,
0.2838639704794095, 0.26233837270248905, -0.1194428192531567, -0.39658177482931345, -0.5535200521912378, -0.497176048350942,
0.9784896838947459, -0.5954653167978052, 0.7383875960827999, 0.7518128374497501, -0.8276015173318161, -0.6769329886390039,
0.06748296400303255, -0.9606348142209837, 0.4716969985509043, 0.3600964630999801, 0.5182768145513434, 0.07634974992894827,
-0.23447302085453048, 0.0391075150881095, -0.9342522012752745, -0.5444429088275853, 0.2045271184945432, -0.8670406724422222,
0.5612297622608629, -0.9616359453639172, 0.1654834093609634, -0.36683479958084675, -0.8356226977946282, -0.9801728363978088,
-0.9081595556513045, -0.14119682921207044, 0.8122788151992686, -0.5380887019668585, 0.9765640672438254, 0.9105073023612507,
0.10632662204135324, -0.43787092752626267, -0.7886719096268404, -0.5004782822629323, -0.9244379537767116, 0.14267798564051581,
0.6318029736049668,
-0.6658461334926247,
-0.8950404473731615,
0.2958773260393035,
0.899791981941938,
-0.6507934755667715,
-0.5546031483982143,
-0.5907628509270033,
-0.5729604353923667, -0.21323486526429658, 0.2748262995053308, -0.23218895244578652, -0.5802894954124866, -0.6914617949250754, -0.4536425035321532, 0.07226562354832167,
0.5423705665608827,
