//Neural Network File Format by Kyle Julian, Stanford 2016.
2, 2, 2, 3,
2, 3, 2,
This line extraneous
-6.55e4,-6.55e4,
6.55e4,6.55e4,
0.0,0.0,0.0,
1.0,1.0,1.0,
0.09355309503132725, -0.70240846912675, 0.6746356247857657, -0.8145723593620118, -0.7549300035782531, 0.08095907243227574, -0.009532145357686872, 0.22651664026410767, 0.9858556324124645, 0.6285124591240008,
0.5004444066168849, -0.5464551895716312, -0.7820699580429, -0.7687665052538812, -0.4430598174125069, 0.23465735882347882, -0.5537426039863447, 0.7329852415045464, 0.9872122416325904, -0.11776137099843176,
-0.5941969255745083, 0.08275237812490621, 0.9457354469033308, -0.45287700040545475, 0.9561969637001884, 0.7400581758090805, -0.3599195947314504, 0.8373853660657993, -0.39940667134405716, -0.5169833414196892,
-0.1450358158451297,
-0.03243520818482626,
-0.03732889769041625,
0.7090963830787915, 0.10825435731561805, -0.9324976601292114,
-0.1732821606698045, -0.2850343059763274, 0.8716053565807917,
-0.5125980992305004,
-0.24728172624299383,
