//Neural Network File Format by Kyle Julian, Stanford 2016.
2, 2, 2, 3,
2, 3, 2,
This line extraneous
-6.55e4,-6.55e4,
6.55e4,6.55e4,
0.0,0.0,0.0,
1.0,1.0,1.0,
-0.5756852598320212, -0.23916642809323596, -0.1565347896023832, 0.13653300891479336, -0.36692320448529436, 0.41930937621710385, -0.343529202508555, -0.9383926521978414, -0.6268578032878782, -0.9741310023997518,
-0.4022953017468791, -0.36436087060653266, 0.649640822279971, 0.46446123505514825, 0.13894253703983583, 0.9953655380544539, -0.5346346540804832, 0.16235691889189763, -0.8305995628670138, -0.1607332717997303,
-0.8358339041464711, -0.17060921695351272, 0.5697805390794684, -0.7230351521749361, -0.14465528325276988, 0.7677069923859658, -0.9482532979117879, -0.1274116831343508, -0.4319852309562986, 0.7464215485931893,
0.21520814965477797,
-0.759231791750496,
-0.04117747430222263,
0.9857075362476038, -0.804588975027476, 0.7847776451361925,
-0.5183261376672346, -0.19282395574487632, 0.005228048735229418,
0.043410015020476145,
0.8717964622427736,
