//Neural Network File Format by Kyle Julian, Stanford 2016.
2, 2, 2, 3,
2, 3, 2,
This line extraneous
-6.55e4,-6.55e4,
6.55e4,6.55e4,
0.0,0.0,0.0,
1.0,1.0,1.0,
-0.711892121247998, 0.3107603981053346, -0.8958657071988241, -0.2415023672015204, -0.10391474846757509, 0.287679886220102, -0.04747214358474583, -0.7401619178922574, 0.14012818777387137, -0.25671527926289617,
0.9023492079301292, 0.3731721288718086, -0.44616278791190167, -0.7907006994665249, 0.4165149487874906, -0.9745157767865171, -0.7560919163599169, -0.4535639494579673, 0.19523273507510508, 0.13745953687927726,
0.9210607208133816, -0.9479070212431564, 0.7776857285525969, 0.7195125770038486, -0.3447004151353057, 0.45626705503660325, 0.1832867780988261, 0.8025896503441454, 0.3464033234919963, -0.5892148750605597,
-0.300233571115776,
-0.27045790890194965,
-0.544074334967545,
-0.6751894329524104, -0.5492686388193322, 0.6870683460005789,
0.30379706592197797, -0.5987346823616644, 0.3568671066532585,
0.6464519379024112,
-0.6725559956839113,
