//Neural Network File Format by Kyle Julian, Stanford 2016.
4, 1, 1, 12,
1, 10, 12, 10, 1,
This line extraneous
-6.55e4,
6.55e4,
0.0,0.0,
1.0,1.0,
-0.650717371266107,
0.05847761040810662,
-0.864414452707079,
0.7075530288618421,
0.4989845254465215,
-0.8443188776721602,
-0.7368939015419138,
0.18844080351456904,
0.6244084433075923,
-0.5078309004749313,
-0.39405609877934156,
-0.10187135013858395,
0.6511930048904175,
0.46718982313678703,
-0.33654752030043955,
-0.4258219676245121,
-0.21587462450400974,
0.6322761809734785,
-0.09717460553852986,
0.7586137194099329,
0.7665111699985152, -0.22435856804172172, -0.9796555743461433, 0.9909326906402653, -0.32624326477266585, -0.07746051312179647, -0.12271441876740674, -0.8037358954994085, 0.11385527771793624, -0.7803217648960437,
-0.5733389269237952, 0.8579368800296043, -0.6374523816897542, -0.4500888530459126, -0.8301390875263324, 0.5533678847856889, 0.45702320915022643, 0.49740198065687746, -0.46201371099932764, 0.11539880283351911,
-0.8137391799913609, -0.504592195287977, -0.7694465466826941, 0.412007753549259, 0.6557322669614036, -0.04608947281882658, 0.8152712181476134, -0.2683206325641687, 0.470919229520792, 0.3528792600871724,
0.04693381673487762, -0.6641191877442703, 0.563233093307522, -0.85921385502678, 0.7886632362383135, -0.8912827459868273, 0.09058453229752583, 0.9338938589478669, -0.9985140552120435, 0.3162426239595373,
0.9201718939368773, 0.11034749110057929, 0.0400429967504321, 0.9211602508336925, -0.6733920328289114, 0.5164789230722779, 0.8400792477307673, -0.3204004184858724, -0.8001781630256888, 0.6607722559296865,
-0.0672123862875944, 0.7555094503734736, 0.6701583454614801, -0.24041409520060553, 0.6326573898590087, 0.21562686621213478, -0.34818801941292854, -0.24053769258809554, 0.7493340877096943, -0.8729239149683674,
0.3460408876491239, -0.8071438185097799, -0.7344401950097916, -0.2536052682492911, -0.7804221718502986, -0.25286754081866913, -0.9146224859365515, 0.525182610785214, -0.3233205597970632, -0.02269957674483747,
0.15664570593326754, -0.19233613003553174, 0.5905665527670698, 0.8036050748256578, 0.2118047802980274, -0.403754634407425, -0.387440396182019, -0.5784914713015272, -0.1786944338945622, 0.03045374036273074,
0.33379830363609964, -0.4395599787995166, 0.1214409238196712, 0.17934329329929222, -0.12475167426540601, -0.6176735216002687, 0.11116487530870067, 0.9754620774703335, -0.8342710493769556, 0.47852328955554846,
-0.4903784536856741, -0.09571995058637084, 0.9565032951387908, -0.4371935006605523, -0.6824465580775576, -0.46266333348491573, 0.49283137357592954, 0.028984207710201382, -0.12982546003830686, -0.5836568011639516,
0.47497673962866926, 0.12977152612439813, 0.6229021127074419, 0.3691082187076873, 0.324155412632956, 0.28083649990334525, 0.7756353246197634, 0.7401659967506116, 0.13631967278051604, 0.29900472701013925,
-0.12873997795296654, -0.23410761633497312, 0.003033911660341726, -0.028137703182285367, -0.10809473155022609, 0.3351726308397729, 0.15784939589485436, 0.16625528788718702, -0.5855333014556758, 0.8051701681901924,
0.7351112327642002,
0.027821451426658594,
-0.38535194247837623,
-0.16099546001806742,
-0.7870622129707492,
0.30576331006255764,
-0.1693706141137321,
0.7381344144989512,
-0.8633817286142409,
0.9492605999915074,
-0.08566603437704279,
-0.38143067194386493,
0.33513370621003125, 0.18018942312865383, -0.9469277965234837, -0.32475997897299314, 0.13359306107426372, -0.9784381694244, -0.07014486193890024, -0.8740946750922296, -0.7474915183732675, -0.7510498566975499, 0.0826122546353365, -0.25257569659599266,
0.27980951269880494, -0.6356881388995812, -0.9109380716701603, -0.2063083325035424, -0.7021935827202448, -0.7254054278834956, -0.15131611370545084, 0.7418559730118917, -0.1300808897126351, 0.6595803148263846, -0.7583611779499608, 0.31823825735403766,
-0.6097474874566413, -0.4389587496732239, 0.8239515570078444, 0.629127660038804, -0.02730044775986773, -0.6269530758729971, 0.9311494857045246, -0.02123405362524755, -0.5581441981035002, 0.6519022035399402, -0.750279160411512, 0.8256224377059058,
-0.3074314988359026, -0.9958855372023518, -0.06486887386804119, -0.813895616217871, 0.6883953955534885, 0.9609451166190772, -0.500414354663302, -0.14321778446280176, 0.43525099292206404, 0.2530936721419992, 0.7226266397778525, 0.7758999606195172,
0.8057700131501675, -0.5711243370013839, 0.5591133880808066, 0.1902424852641187, 0.9704418656068658, 0.8579294491699763, -0.18121367574714986, -0.1625018649014831, 0.07162656255287558, 0.44855969511058724, -0.09260598944038412, -0.6022245079535087,
0.6578318831085115, -0.8277973984013602, -0.3130568551966957, -0.7353988609429272, -0.5971506096234589, -0.7574947895089932, 0.7532891290354256, -0.07917432525510781, 0.1615228788371179, 0.9647038377138708, -0.5523589475481381, -0.7263898585461943,
-0.5273770321387965, 0.18129329466475363, 0.7962125668596252, -0.9450135134494304, 0.030631170954629194, -0.1230186086269609, 0.7211692868687667, 0.7797646062281669, 0.4908419702757194, -0.8914851059092013, -0.3679564313885457, 0.9018456904978271,
-0.9012772340938717, 0.830928276221178, 0.4838098742011345, -0.8803667083580309, 0.2770412514597296, 0.6204708328444593, -0.6665589018772802, 0.22000400856892854, -0.47041166233453646, -0.7510824376033889, 0.8509235476505248, 0.5535129379472981,
-0.053203856844610264, 0.5889224102029877, 0.4350038656658817, 0.7352646863959049, -0.7785857626077943, -0.4324198149995935, -0.8033811747024653, -0.1243742907529608, 0.15301719560205607, -0.9129619281273462, 0.38397555595950195, 0.9430988874010189,
-0.47707989144440877, 0.6049357714894876, -0.943500521738871, 0.8214225082903974, 0.6303003124470492, -0.08864971626118301, -0.20089516288705633, 0.5194326921844117, 0.6208547780051492, 0.37270797064433614, 0.8273762081191252, -0.5208728885477383,
0.9129616279414523,
-0.7606079006369639,
0.3877327655996683,
-0.27811238111667214,
-0.7882283233563565,
-0.36740457265299753,
-0.33350943481347217,
0.47431001228165215,
-0.6022300340968108,
0.8913241333752997,
-0.2445092567990308, 0.18655393904143125, 0.03531699165479818, -0.3081119337150251, 0.598150034959974, -0.7379865749711776, -0.06108445711450772, -0.2029678962854664, -0.10129791947781541, -0.24356686535139138,
0.9995410360153318,
