//Neural Network File Format by Kyle Julian, Stanford 2016.
4, 5, 5, 12,
5, 8, 12, 10, 5,
This line extraneous
-6.55e4,-6.55e4,-6.55e4,-6.55e4,-6.55e4,
6.55e4,6.55e4,6.55e4,6.55e4,6.55e4,
0.0,0.0,0.0,0.0,0.0,0.0,
1.0,1.0,1.0,1.0,1.0,1.0,
-0.28742555089911503, -0.1940756156004393, -0.4172876544638404,
0.35786496653082045, 0.9367262428333554, 0.5437763780271867,
-0.4887671551498758, -0.5608480800902833, 0.27428106753107784,
0.952940174630291, 0.8522133679757458, -0.3567157854712315,
0.07784966668792181, 0.9380441541856976, 0.9901111568727368,
-0.3364956115053621, 0.5507205467026774, -0.8065205413431462,
-0.2761634038296177, 0.38696710731384254, -0.29898043350252346,
0.8907537762791091, 0.9209212207460675, -0.46330518906146434,
-0.9998531831409911,
-0.08977130593444471,
0.4666511979497119,
-0.669856214477401,
-0.7773311021051783,
-0.8272990592931544,
0.04466748040695556,
-0.49666090365225957,
-0.3157651813284308, 0.9757129001854778, 0.004085721035802514, -0.4827220859076333, 0.1803019854891894, 0.8525199662359833, 0.7544254970458977, 0.9450989215026957,
0.9521203152510851, -0.008694348995594847, 0.02868851285017948, 0.5830271875490642, -0.78904704868122, -0.4017042238900226, -0.7052475423334448, -0.8585513995193206,
-0.8546338732620353, 0.12522160429405504, 0.7637515981584588, -0.1869096218080859, -0.29914997829869794, 0.31586447803262097, -0.8596840467583409, -0.30071348462383707,
0.05847554790964171, -0.9869434201585321, -0.6725551951920594, 0.5961168592383626, 0.8373717620731354, -0.6105775484121625, -0.25612392973004905, -0.7013623266107447,
0.4477818372324158, -0.3421369207848115, -0.770123165239446, -0.09046967475613776, 0.2702120900470173, -0.21541113234031783, -0.3761716723940882, -0.10957786993388785,
0.8193020306545753, -0.515956549215205, 0.09792029669946434, 0.28870369597521783, -0.2520512287664398, 0.1099451248223251, -0.39232675511302384, 0.7020264452115392,
0.6204123575351432, 0.9896117991523985, 0.056651170601794476, 0.04996035575162683, -0.5166532718364576, -0.5186916290550165, 0.5624230660971037, -0.8246518551299968,
-0.7407091405201482, 0.44011572894994755, 0.1310373338618378, -0.9123186165650283, -0.4223759120909749, -0.5977179217072637, 0.40231718852680665, 0.20515918598777994,
0.990435564637894, -0.477425418039767, -0.4132587613574805, 0.17005721046209743, -0.5296268982538042, -0.8627083535310911, -0.3678983543504404, -0.32335856186129286,
-0.6866988129776388, -0.16310695831593813, -0.34573285691020805, -0.5335655511653474, -0.5855982475163621, -0.5382876075866938, -0.8842829676088346, -0.665227387076524,
0.8547696859947531, 0.22630265673100824, -0.8449955067975154, -0.6895533723322629, -0.7055852372429263, -0.23081307675113427, 0.7778960435029916, -0.24775953228505188,
-0.11824982182549304, 0.6231013755962294, -0.4142167825769012, 0.9125606944875879, 0.9970019680820617, 0.6365892008152927, 0.8329268094908864, -0.1211201532517272,
0.2055813547617702,
-0.8622172452916312,
0.47316084789626034,
-0.5043923531360415,
0.8301348577266907,
0.7876872279993554,
0.7856720325142099,
-0.7761975362979867,
0.8734784965989708,
-0.28220119012923517,
0.04519384516860603,
0.15562087304220817,
-0.6557722950668818, -0.10754951226921339, -0.26325570303542234, 0.8677853005297651, 0.767933929119275, -0.00754551435900197, 0.9196082159940753, -0.5451831746349947, 0.4814636184567367, 0.7317660642814894, 0.5019195805025922, 0.3437514015465215,
-0.6876673040723267, 0.7652927598668269, 0.16100234714099182, -0.619158705430872, 0.11137056392810907, 0.9822980168417432, 0.8016370356706823, -0.46830949780854825, -0.1550709238941108, 0.22925140917639686, -0.8071392151708552, -0.07951432664872948,
0.33933748318687895, 0.6136478192120638, 0.11437402855208978, 0.7224745753027988, -0.5105623784439861, 0.14677932601231802, 0.7542461077967397, 0.2806697468867778, -0.4356312224490977, -0.9211510218419465, -0.10629572057677761, 0.6262623941070089,
-0.15382471274019283, 0.07003734961200792, 0.6390828458874003, 0.19984273824418208, -0.8211646562437944, 0.0800520474313915, -0.11235907632172326, -0.6621547686913174, -0.5019054899121662, 0.047453472770667915, 0.15072748558089133, -0.8240479830447187,
0.8989069867442101, -0.9378164734486476, 0.7659242696010646, -0.002363174427617132, 0.5694883349696243, -0.658454553670115, 0.5101654139034641, -0.6799198073201422, 0.07778903703380768, -0.3170495538563838, 0.9209620070976388, -0.7168274319882815,
0.017326534505044844, 0.2917617489321591, 0.8359754919325622, -0.34637883840360173, 0.14791459841932575, 0.9733164177410836, -0.7389502590396537, 0.33677327099060195, -0.3394838043113806, 0.32398714274705576, 0.08267072873730452, 0.8225210834834065,
0.9847737357739921, 0.502964270683766, -0.12912363579076702, -0.1820492761045589, 0.8527925356487462, 0.6012765645121756, -0.9090575977855164, -0.8969202661623452, 0.1589700605783415, 0.7668085035703105, -0.9963197547894449, 0.5102371029056325,
-0.4549597763097246, -0.022278438928998057, 0.3288159480316266, -0.45477475864608774, 0.6518882776796562, 0.323657756052123, -0.42665077262156936, 0.4077175271649791, 0.8970730421399176, -0.9585361925791926, 0.6149418626809, 0.36661088325329994,
-0.915396820519609, -0.021067483282358523, -0.24686941435696275, -0.5926922354277502, 0.4259241506732159, -0.8259216747883471, -0.10947014790591858, -0.34537481902162215, 0.11077924225686919, -0.502847168184799, -0.9697351560622263, 0.9952525462405424,
-0.04403028504338424, 0.9286316014566647, -0.4943321249146999, 0.7311340883711206, -0.5361606320723626, -0.7005109052866385, 0.9316438216021656, 0.23488950084680305, 0.8459210256741376, -0.40006711080769586, -0.6145008584103513, 0.24049909440123152,
-0.3869434227538715,
0.8388526764590609,
-0.8499479005861224,
-0.9818086829288752,
0.7263468491886562,
-0.7227968098217596,
-0.4908292903497746,
0.9520719671471869,
-0.48939612966923374,
0.01729820530229631,
-0.3600216513875836, -0.8252590248451503, 0.33519139973060863, -0.7425489212730723, 0.6889995921700591, 0.24657966651782992, 0.0007089273587004286, -0.10929384868778458, -0.09428528108443279, 0.7910061181193102,
0.5018438917749193, 0.9644815022474988, -0.7994362960617685, 0.4735429798406141, 0.07207515173539747, 0.33228347000796443, 0.3558242928102362, 0.2542177080011929, 0.7398226913742998, 0.07340552238997056,
0.2277000010846688, -0.5224995822742908, 0.20486290684998387, 0.5363890881453042, -0.8903266230919655, -0.3653122423824353, 0.8248006442708493, -0.06694438286502047, 0.8841645237587419, 0.9802270922511767,
-0.04865877228299187, -0.8589167460829685, -0.2905789386776849, -0.07020802905582668, 0.09260249709885748, 0.6008976623024505, -0.923456465684215, 0.1515036981366351, 0.45195833637113747, -0.11892177266901971,
-0.6345662266381673, -0.12018746226212551, -0.9870164820339307, -0.6438203795599673, -0.2808379202274587, 0.34235247011001935, 0.6840877951881961, -0.19953381082269894, 0.48583052415973604, -0.2736955502433531,
0.9087717671087496,
0.8012587896148893,
-0.4951314717265056,
-0.11339624129808534,
0.5040547118227123,
