//Neural Network File Format by Kyle Julian, Stanford 2016.
4, 1, 1, 12,
1, 10, 12, 10, 1,
This line extraneous
-6.55e4,
6.55e4,
0.0,0.0,
1.0,1.0,
0.6095532211631811,
0.14427151768043345,
0.014961814822817665,
-0.6103867571421984,
0.8740046469499752,
0.7135542835136839,
-0.76739818912099,
-0.06379830148334298,
0.6860076003763549,
0.2920457033750452,
-0.14049979389681022,
0.6722506597828204,
-0.5192713883307629,
-0.2710156746768786,
0.08121787304976236,
-0.9562153216189611,
-0.4090954299579175,
-0.0392633637450257,
0.42921658458803513,
0.24887085644728257,
-0.21313653557414813, -0.9714590192520061, -0.3454015108954369, 0.6630320829373173, 0.16150712994809968, 0.09178357106922075, 0.49345260207659836, 0.40290588567801766, -0.4276814449772166, -0.7969997589953244,
-0.7923307619034463, -0.37955734633800153, -0.37699449084372416, 0.8494586074987076, -0.30086170248216604, 0.9693947039186153, 0.042140010448110665, -0.8550268530951262, 0.6120483743234231, 0.7371711955469551,
-0.30258081865974074, 0.26048724705150894, 0.8471438978046586, -0.8177591035966745, -0.6559829610652752, 0.761620328936802, -0.9129868022910972, -0.8956106466135436, 0.6486748536192257, 0.005242027614119404,
0.6927406729784429, 0.14342569629665025, 0.5309323067578107, -0.4527603272459273, 0.9863350929202452, -0.8149865478536831, 0.22461917188077996, -0.4938750747498868, -0.9536288198363962, 0.9463730074393175,
0.02065544343936887, -0.36407240326803825, -0.8908936473075277, -0.6775874246231495, -0.1472119897198909, 0.11311348943687749, -0.5423256388187263, -0.2931973383870976, -0.6086718755066309, 0.9869406964502168,
0.7878663216283357, 0.06903272771491054, -0.4118886663636139, 0.14613086163903333, -0.3030148785873692, -0.22618044082000477, 0.24757572762613878, 0.20436003392907232, 0.6119188045842803, 0.12897827493182534,
0.4992839697114424, -0.7550238169573111, 0.819316089422196, -0.18744489795359875, 0.4282066042047843, 0.6731315936484452, 0.40213207614362023, 0.09892789661113621, -0.019493596631776633, 0.6641229903793406,
0.3767063404137758, -0.47747077555282624, -0.3209606700979224, 0.908438928530745, -0.929235487132333, -0.11097781449016697, -0.1590615428699511, -0.9572719929332352, 0.678939667941993, -0.8557394381740764,
-0.5214668116512149, 0.5867339628583923, 0.2588096430090028, 0.6385872269661084, -0.8971851724429087, -0.5331418179486209, 0.6790366249526736, -0.30786392504992843, -0.2489101098394202, 0.3030910247064966,
-0.4221113778613419, 0.6185142328807567, 0.8342502651521495, 0.2043666805319293, -0.11590433501214337, -0.6327205312534412, 0.05582640229705316, 0.9864879985900372, -0.6765549044788282, 0.9333439135905843,
-0.5761374496012035, -0.36935697041455473, -0.911632599101682, -0.9879401983447664, 0.9588590633708343, -0.8065927385150533, -0.9695429688281543, -0.5536194386822624, -0.5572162981957103, -0.5489213010981984,
0.46492364861977276, -0.3606444400149176, -0.9801562286093732, -0.4216256205518656, -0.7916003174518216, -0.9912735382097915, 0.6688364526260671, 0.07880036563247073, 0.8335083766180906, 0.5038683663872163,
0.12593722624560533,
0.05120938204233294,
-0.2374875374889065,
0.02777607813547922,
0.20269563435569005,
0.4014215935124792,
0.022562456543351317,
0.8552864498569877,
-0.39141463720046765,
-0.7013018729953879,
-0.7832774671202443,
0.19569309386835565,
0.19701644617512093, -0.6545865357458545, -0.34752758951947627, 0.32433774395139325, 0.8883614784729961, -0.13090379248553496, 0.5490484575171308, -0.8348096735150556, -0.365033266509863, 0.5522028403545924, 0.16372691533092798, 0.06475300906009496,
-0.1935162178512626, -0.07635831480652833, -0.4354159774162265, 0.7611889612929721, 0.4662072913662936, -0.6346751856097188, -0.5344661443318985, 0.9984887963056637, 0.5523588680292675, -0.9479128172485951, 0.003766807585733112, -0.8932416168542443,
-0.6778197411367506, 0.154265166942813, -0.5954408969149845, -0.3300942118417711, 0.5844963912100463, 0.25724396542776207, -0.45037539676278104, -0.6463198152639231, 0.9753395820704331, -0.4611399483759566, -0.1350470390778682, 0.5122969909006398,
-0.03290133013671648, -0.5494524356738157, 0.9505994600326466, 0.32912803513978783, 0.06595107240913167, 0.11159445360015763, -0.17268068876730203, -0.06727876995809279, -0.2407053421286025, -0.6223252898684515, 0.5381331293307876, -0.5434464611513259,
-0.014038122237013617, 0.3039284374572673, 0.0673338018823002, -0.9636078747189871, -0.8885257559229984, -0.9754704928734141, 0.4533674948525266, -0.34152754873928926, 0.6025415883050371, 0.015467182509944166, -0.8395675635066215, 0.4772099272044139,
-0.31662660409377263, -0.5378776894103625, -0.5779575228441516, 0.281964269505004, 0.8772313537425314, -0.7404546695376415, 0.5024656640598053, -0.22158491066056207, -0.4466510377442847, -0.4361277902635914, 0.4496572821731637, -0.08086721007667164,
0.5006346540498519, -0.44103904166036534, 0.623324162134856, -0.7544834692655091, 0.7032548960853644, 0.8212850111814327, -0.8652776156325848, -0.9815013297962727, 0.22856117064345316, 0.2966107877190587, 0.5562396032691637, -0.5430735100968627,
-0.22511384001898005, 0.61951407027636, -0.8664956224026725, -0.6092205773099146, -0.16679659938031133, 0.26572239557752386, -0.28875081295974336, 0.34236179646571063, 0.03457212759977635, -0.9550919776561102, -0.7826797265188086, 0.736964477644757,
0.07597109993585738, 0.8871396955756348, 0.4960668599498983, 0.8546192960205787, -0.6187587026011707, 0.8329539679574647, -0.4241117990554035, -0.9330751856306625, 0.4681553227268851, -0.6766044520889052, -0.3332081685007573, -0.343978809808164,
0.32849310582918445, -0.24287967573343394, -0.8964098490495758, 0.30810172517775225, -0.2729132047902034, -0.8907664225107683, -0.07995681783543596, 0.8582954891477499, 0.2540112093485347, -0.06935451517607216, -0.29761744616564423, -0.9875989089631845,
-0.3022088274944532,
-0.06210256203976261,
0.6409304135389591,
-0.2226600645492387,
-0.22193460419962285,
-0.4226749307557296,
0.40222437690679635,
0.9453900832641571,
0.11335745297700095,
0.6846611978423085,
-0.019900749885914948, -0.7343035191627232, 0.21745204374417826, -0.7442077765509363, -0.7601213870512047, -0.8876062993708054, -0.9939391782666345, 0.5928611291180363, -0.5588377972959813, -0.5673288842278326,
0.9178148488710538,
