//Neural Network File Format by Kyle Julian, Stanford 2016.
4, 5, 5, 12,
5, 8, 12, 10, 5,
This line extraneous
-6.55e4,-6.55e4,-6.55e4,-6.55e4,-6.55e4,
6.55e4,6.55e4,6.55e4,6.55e4,6.55e4,
0.0,0.0,0.0,0.0,0.0,0.0,
1.0,1.0,1.0,1.0,1.0,1.0,
0.686318341201404, -0.8856431125681077, -0.7728315162667379,
0.230510408835912, 0.08877403869799938, 0.3323080170403556,
0.388447815166844, -0.8382534329360056, -0.316873511476762,
0.681692324681229, 0.8157892918874166, -0.38454598700869713,
-0.7291374776637545, -0.7671867542235202, -0.008255704980832945,
0.9911042862886124, 0.8399765672047756, 0.9561935998804354,
-0.519705745383471, 0.13490427067060473, 0.04918823014812146,
0.6532053649734966, -0.7796391308492203, 0.7821574057280687,
-0.11135706419888436,
0.27328985276183815,
0.7380383389790866,
-0.09341699275310056,
-0.8366669816450258,
0.9504504685490014,
-0.48670604497194425,
-0.9952188996690254,
0.22895722575120692, 0.29684187358375524, -0.7067960731558847, -0.33853880752330934, 0.906444236072721, -0.6514186558240538, -0.8644600690621869, 0.005825346649062091,
0.2180649407534494, 0.20282777873194435, -0.6498480027099913, 0.22098622277621782, 0.4960521751486473, -0.4011591485276047, -0.039647097168531875, 0.4013573802056767,
0.8757630524014464, -0.012529679329253529, 0.4452456953313795, 0.6328824711138359, 0.21483122257367837, -0.5171580314800432, -0.03873541452253537, -0.3572297067012067,
-0.8078533875729974, -0.859453228784604, 0.8828272908242552, 0.3099640782735973, -0.1971066371733916, 0.6682080515037958, 0.4739781960250564, -0.6298645423340323,
-0.5906059868756377, -0.4711258290407687, 0.7187615470368587, 0.7001245912371474, -0.36414156429839295, 0.423361825129946, 0.3406849588356735, -0.9205958771687848,
0.10301362157316918, -0.5295667607085592, -0.24890474100616578, -0.23384552974055683, 0.7220121810173601, -0.2733313333553551, 0.43356757469639406, -0.5353519511320366,
0.629114789013256, -0.6719648434861578, 0.2632681737873881, 0.9649101082660803, -0.46582587591606917, 0.9771941240114312, 0.5839412584034558, -0.5009805037874271,
-0.8498821007191544, 0.049421061478570394, -0.9757818883213254, -0.05752737266829566, -0.9364341177851752, -0.4098468108947042, -0.3724032990274875, 0.7114674851544538,
0.22344118245953437, -0.13842807017704706, 0.34562369034729334, -0.47440301528361184, -0.022896677838356805, -0.6754901552438088, 0.13100200223728997, -0.7764382642326311,
-0.5302530012312934, -0.5282623636475816, -0.8195005216494984, 0.46681839843288575, -0.24577326199772953, 0.631930391936061, 0.7319073450625191, 0.6404841102409722,
-0.47006216713566484, 0.642990090489139, -0.3946665009321011, -0.28628073227842465, -0.8494634020316987, 0.9178229654085777, 0.911039529640564, -0.5075660199150254,
-0.40669072187215205, -0.6290489083673774, -0.07262880615774492, 0.5190510953847163, 0.09073823387638225, -0.15786602229045021, -0.27780864375258973, -0.7864143887911363,
0.5450348402943948,
-0.2626463893487454,
-0.8753662011060714,
-0.4137810726269855,
-0.9946316058293054,
-0.21734807579093696,
-0.7772114772829402,
-0.841155220047928,
-0.49670722792892397,
-0.4160381282989105,
0.4963033588839507,
0.007140697276839969,
0.4672310783334912, -0.6197384451521586, -0.7010629652115368, -0.35568132072155967, 0.1459387876922773, 0.8639226711804846, -0.4605727180020778, -0.30844095208647415, -0.7582254081983653, 0.18875264859399188, 0.6894748238779855, -0.45889778173058504,
-0.890139983130037, -0.5942738632313294, -0.02309246387781405, -0.1902508583013529, -0.16207878628131533, -0.7660832288792179, 0.6299747256389407, -0.5737878181003024, -0.08609943075480642, 0.8473867027391306, -0.2963565517074369, -0.07746325747149374,
0.8173910849929524, 0.08686326814614231, -0.8371217052584412, -0.5460310094525105, 0.46778886283228305, -0.8177642839879891, -0.7068361404089001, 0.07728909617047419, -0.2228897449154026, -0.7406787227033265, 0.39645051853429836, 0.8687200504142836,
0.49424962686448737, 0.8956684461831022, 0.9311060033685545, -0.8057746219097242, -0.5606526840960995, -0.673049195708002, 0.4206876131210895, 0.5566650020012833, 0.38275328280796383, 0.7463386722322287, -0.03309085798953282, 0.01387070436405935,
-0.34122281616128314, -0.9421938713908009, 0.9531396557434757, -0.7905844140009006, -0.4199441206303267, -0.08437365573314626, 0.267098265610922, 0.4881151906479144, 0.1295368714921934, 0.7362298034927477, 0.5869152562184667, 0.6478341775372334,
0.829079696347089, -0.9984375748832472, -0.08004816430377826, 0.3290584569970556, -0.49590895433891635, -0.771199404642422, -0.17136561156671037, -0.7822420347141974, -0.9042681053615698, -0.4176991155226366, -0.38079865700842097, 0.4859102543203293,
-0.5134222270120135, 0.04589208317901683, -0.8776537845845178, -0.8115147322040568, -0.2066443448120463, -0.5183938236376013, 0.3607490844778658, 0.6966367476835953, 0.7323197312573759, -0.8671692543070941, -0.5275826232322505, 0.7247967393546695,
0.224637103488742, -0.9322853781923048, -0.14023569548673276, 0.21758960012329753, -0.6008167740165034, -0.6268202558355682, -0.9624465247302587, -0.6245846781675963, 0.750344462838437, 0.48499806170653414, 0.346869784519674, -0.6661862252966748,
0.5443875728032004, -0.7338749627415151, 0.9123485241920095, -0.4702373309268775, -0.18965491954022085, 0.46248209082221026, 0.27710351592727545, 0.012299555110306226, -0.6672667702587773, -0.8205283616996786, 0.7496504156842168, -0.5805105382397682,
0.8676503105817428, -0.9653089219136475, -0.9890900578825543, -0.2830691982154323, -0.6195746981861028, -0.41783299528964557, 0.8079043134792472, -0.6568654921895591, 0.8345375454569832, 0.8498278829551693, -0.945123369932217, 0.18825616780153887,
-0.8968626857021449,
-0.3713678970778269,
-0.12026716797485193,
0.3283197077915352,
0.24057388280991665,
-0.1659908026990049,
-0.26829016072868317,
0.32848755689899223,
-0.8588224580479284,
0.9860376909990891,
0.7184290736818935, 0.5554185457513148, 0.08826573603595245, -0.6253460442460756, 0.6013472142130674, 0.8310220651745222, 0.16248614928727623, 0.14523327244018613, -0.9799877127032501, 0.4343218395363393,
-0.7184448761711297, 0.18590729146327645, 0.8848014933794341, -0.7835859696009644, -0.4837576303968465, -0.41741731474352006, -0.7086055290603621, 0.7115881290812118, -0.8038051662005818, 0.7954744541596166,
0.9450088831586574, 0.07505141447186903, -0.3933883203902835, -0.34137200019594527, -0.6596893215606512, -0.991578941807743, 0.7859049592359373, -0.2230135548882104, -0.804104277291267, 0.8900493516403762,
0.8825957000407194, 0.13571001245289072, 0.7308434764232663, -0.11266887467245734, 0.00833491753400617, 0.6705620933866272, 0.5853360287746567, 0.835804804538629, -0.622425214207555, 0.9663779008514344,
0.7674632202234117, 0.12719434979318223, -0.21151118540726666, 0.2626598138340106, -0.8544910348396466, -0.5547962509782471, 0.43609689465855883, 0.7043492793413355, -0.2921618580287495, 0.38038226998561564,
0.22682556456366854,
0.8397520192695147,
-0.7032164876542271,
-0.23328912784623812,
0.5527726607893557,
