//Neural Network File Format by Kyle Julian, Stanford 2016.
2, 1, 1, 8,
1, 8, 1,
This line extraneous
-6.55e4,
6.55e4,
0.0,0.0,
1.0,1.0,
-0.5461383666616473, 0.8315786762818687, 0.7120173986889076, 0.5727764063372609, -0.6326202261790916,
0.7443295284443399, -0.6996517794575565, -0.6463129722230074, 0.7867481954692228, -0.6638437962664363,
-0.3827818530947096, -0.6687214210061905, -0.4678894917232723, 0.3254837772697021, -0.33474702684936997,
-0.0928304505339499, -0.09750783454332845, -0.8628987748240844, 0.8822984784018773, 0.8669142371118608,
0.7002984248136168, -0.5620641038553251, 0.2642583164818788, 0.7222177221786725, -0.3909742075040059,
-0.8560695337322417, -0.9041978458033353, 0.7233031678958044, -0.10883520343443731, 0.5565156962572031,
0.494163255022229, -0.10154859372598013, 0.553466604305132, 0.11019121644287111, -0.2847396518652898,
-0.47712285804730303, -0.8752485757288135, -0.33901956554483714, 0.33827620835096317, -0.6225920025422651,
-0.26927916801416085,
-0.1020520335086097,
-0.9479857526302347,
-0.999403642426667,
0.8427258752650046,
0.9721764832310829,
0.5407689912062534,
-0.300346457902009,
-0.5101681936955451, -0.9862664235341474, 0.5849940624907219, -0.5323057147971939, 0.012288432923552861, -0.6894372064054992, 0.45937980593350103, 0.44919396779338605,
-0.04728114370195868,
