//Neural Network File Format by Kyle Julian, Stanford 2016.
4, 5, 5, 12,
5, 8, 12, 10, 5,
This line extraneous
-6.55e4,-6.55e4,-6.55e4,-6.55e4,-6.55e4,
6.55e4,6.55e4,6.55e4,6.55e4,6.55e4,
0.0,0.0,0.0,0.0,0.0,0.0,
1.0,1.0,1.0,1.0,1.0,1.0,
-0.3516259655389131, 0.6294771502360659, 0.1171383476140484,
-0.05988074830335144, 0.8937296996862063, -0.7888810616530164,
-0.6712734629801442, -0.3521699396826503, 0.47872795932943113,
-0.1695795614903166, -0.8210984638152907, 0.32172181197785,
-0.5423580519675015, 0.7672634064905255, 0.18590714647098716,
-0.3236225980038254, 0.6247373557253595, -0.4066009219374149,
-0.07372660094113215, -0.3974796542611081, 0.5293712631033363,
-0.30514715295137584, -0.4632561856908972, 0.3259375773534914,
-0.6379805747118397,
-0.8824907652063056,
0.7622855168743241,
0.9238580562906327,
-0.9808811215990629,
0.8091741278062705,
-0.29387982040725236,
0.848096122034812,
-0.2841785007287454, -0.8660068202912408, -0.36178574355261217, -0.8758338835037107, 0.5745794530029338, -0.28316868439265797, -0.2020178401775623, 0.1313926237717853,
0.4613304051691012, -0.8460950453811558, 0.7717124942232862, -0.8577994137970353, -0.795601809251298, 0.9446522428641724, -0.32339988915320506, -0.803140529118751,
0.26566836793546633, -0.18392149604269248, -0.1561106863273789, 0.23000940461820463, 0.12581863754152067, 0.4175924247879572, -0.8804494687578814, -0.2839949209708732,
-0.009889765616931445, 0.0615838542553826, -0.609557281293525, -0.4164286849252452, -0.6926423753350397, -0.6156328557092148, 0.4637697861892227, -0.8251694844403232,
0.9356570528718975, 0.3704642317808151, -0.18253437050323296, 0.5691604762738147, -0.4271124269806448, -0.6327476608274547, -0.10178190045559443, 0.0005345448800433417,
-0.9152597188595744, 0.9681615146248479, -0.10908321289874312, -0.5788792177395021, -0.3333713214645959, -0.31203536151859357, 0.48757992955470053, 0.17256247605344033,
-0.21368721257624923, 0.06418908103384702, 0.20400727555091525, 0.9770149246884845, 0.5008261126797464, -0.9176915981632381, 0.12123757861797158, 0.46327966169625734,
-0.3312583509681497, -0.3797440526709024, -0.23197268556308215, -0.837667298419341, -0.5717502783111752, -0.594806079387733, 0.9709864566406563, 0.5490318811836481,
0.9597383985988528, 0.11467959858939247, 0.6520319615116046, 0.7550447674050842, 0.19855508809625455, -0.41755002531927765, 0.9828861009726308, -0.928395905845794,
0.6699787431472721, 0.7417797290295831, -0.11052017956972504, -0.7735639923877837, -0.8552495266867504, 0.1270233815400168, -0.07883218801028313, -0.898191278341169,
-0.5127196387760722, -0.4225471652351027, 0.8779669076434278, -0.5991927614962802, -0.19410600684255153, 0.49829897612992013, -0.22906623564110706, -0.23533950267755666,
-0.9367251711857052, 0.9329503758374429, 0.5804238358015334, 0.057085966201495975, -0.19779490605359218, 0.39218628773533304, -0.01736036409817876, -0.7652267636052081,
0.008359364871467712,
-0.30776192506727895,
-0.6580165017203439,
0.5652387982853613,
0.764001589729594,
0.23983865198537924,
0.912178431215497,
0.16088277021163355,
0.6587382032447606,
-0.9186670436000854,
-0.9467497270188932,
0.9143418319183034,
-0.5544796125659595, -0.8730210010152981, -0.6967716889892639, -0.2282795086923346, 0.5532023174982577, -0.3607286614056182, 0.798173525414112, 0.8963501096861055, -0.6945097931114015, 0.9485390341264051, -0.7104758723542575, 0.6588275618143777,
-0.5242929925479589, -0.7662993550412982, 0.828775746734677, -0.9027278419516684, -0.16532069178443587, 0.5865518629049595, 0.09155403419515595, -0.9150777863602806, -0.863047127699812, 0.9613834151852672, 0.7643755180660694, 0.30962757987933376,
0.855012371441572, -0.16960660457614907, -0.38003299176392646, 0.15562204173386318, -0.6804871061136875, 0.39472650435854906, -0.47344509010492253, 0.738821653500545, 0.7286957557550395, -0.7779750033046615, 0.9619174927691816, 0.996293376655319,
0.6197979327470597, -0.07921686210244294, 0.7967233181579711, 0.1094790912510395, 0.08016727310937366, 0.34854928626017223, 0.12943922114882556, 0.3536822594375266, 0.8408848384998433, -0.3718925091451002, -0.6171273510357351, 0.22422359105763556,
-0.8740046111036612, -0.36064023958409885, -0.38975749550607564, -0.7099719752365097, 0.3296051208021762, 0.23229317715640363, 0.5977895701533931, 0.8422935557229905, 0.4011105575839373, -0.2561607636168297, 0.4970057865813562, 0.8244024563115935,
0.3237911686504553, -0.6469920113313976, 0.029086108066729732, -0.047937578883083365, -0.7420342512542817, -0.37769077622980163, -0.48571196028017294, -0.7537049076036504, 0.7100441643903124, -0.7408055066035675, -0.9022432727145269, -0.5051366871411589,
-0.6567506385692257, -0.48102218243494077, -0.3250294105842171, -0.47569290613429827, -0.5620904371598643, 0.1786787477737204, 0.07545249244738494, -0.5465670824469528, 0.19649073666370898, 0.20300996629359735, 0.5989734076933266, -0.7687295654257982,
0.5393163360605011, 0.2473146362020162, 0.5967961674375131, 0.07991932949457548, -0.0814994153050903, 0.6271020231899844, 0.08227367297735988, 0.15463323241815496, -0.4026839435674576, 0.33719725174098514, -0.8981475715711822, -0.8210112739252664,
-0.15055033494059478, 0.03397972272721672, -0.5439295837257974, 0.14988902115428804, -0.7806245064921495, 0.9301500110757899, 0.3782226841079752, -0.03744542894951186, -0.09744961682365716, 0.8750124054728698, -0.40392004886239086, -0.6007301690346587,
0.15768062778402037, 0.24910185220128245, 0.4760463423213408, -0.7860657354899088, -0.07310797435807492, -0.6455390493538071, -0.07082623709181624, -0.13156807309915797, 0.9768562208241871, 0.024692578192826886, -0.6344900954863433, 0.11061116763506851,
0.6304214236333401,
0.26861969477489334,
-0.9274762338947107,
-0.3582740923950105,
0.3394978223237741,
-0.2764659254452977,
0.8176264048230109,
0.9377261239744707,
0.8457563261481322,
-0.8834546669018426,
0.16862526913498588, 0.8003368399771378, -0.7755817959461693, 0.22705888993266043, -0.5492839390852651, 0.642467317068173, -0.5512280759599948, -0.6905424549795494, 0.5721298076860646, -0.8611028982594195,
-0.7417565191974842, 0.3203681317396452, -0.8577997820495016, 0.05902946266275144, 0.3218363679069136, 0.2775724573432079, -0.10528575140478358, -0.9132821989953221, -0.9030110127600173, 0.8457202154621037,
0.09135334513898208, -0.6128900283619871, 0.21865910404435906, 0.12123506345262136, 0.03633182750939579, -0.7264819154762363, -0.6272017744112866, 0.5324564708143886, 0.07101472296373457, -0.685523200526216,
-0.7366348483722645, 0.05607703829451527, -0.7620051081424126, -0.5220983635532828, 0.9838937352576105, 0.6948934789196093, 0.9117723526050963, -0.5790934091956648, 0.5524988998931755, -0.6336250763938622,
0.6435935250132987, 0.6915919724159827, 0.13335781368996713, -0.3550317230105291, -0.5491784741676793, 0.8399716772931405, -0.8710620859130387, -0.3183260997233597, 0.38147979822695177, 0.5127129109325437,
0.12201340050948994,
-0.6182776218264179,
-0.07024595515503496,
-0.15377832567614336,
0.8221164167322472,
