//Neural Network File Format by Kyle Julian, Stanford 2016.
4, 1, 1, 12,
1, 10, 12, 10, 1,
This line extraneous
-6.55e4,
6.55e4,
0.0,0.0,
1.0,1.0,
0.6504567722126882,
0.422125741897863,
-0.7047084691913206,
-0.8213873571058112,
-0.12114569379043161,
-0.05202246321261139,
-0.9384009358092795,
-0.7868766416727948,
-0.23361104642041353,
-0.260572471289676,
-0.5434711905725322,
-0.29256411012404593,
-0.9077609231113315,
-0.6667710547661239,
-0.3011132056205601,
0.18437453873808618,
-0.38706691094719936,
0.7720189040558978,
0.5866729744633523,
-0.4556028821957563,
-0.47034893729334026, -0.4549782079203726, -0.26452851537277633, -0.8386771205436965, -0.9190865547460216, 0.9411333245342703, 0.9072942910246877, 0.1163289484300507, 0.7124350689689201, 0.8677320995187374,
-0.22090015364085636, 0.9630208441710879, -0.45355375638690765, 0.9221328388215864, 0.10611877334292963, 0.9545466296571581, 0.8936892984347735, -0.6802454058720144, 0.8621852469759514, 0.7518359660340876,
0.4675594998487509, -0.6021724633561414, 0.11971054567594219, 0.6954106478802529, -0.4441084098468915, 0.14653279319146817, 0.7049932844279412, 0.6171664869102713, 0.3192408795523627, 0.28294284723857466,
0.6685923056994869, -0.1754557796950409, -0.7624920139917464, -0.8627449379306218, 0.7332445176538482, 0.34874616310140993, -0.9527973111470973, -0.43499719179715823, 0.5833371437554229, -0.47215642383192424,
0.022675329830734725, -0.9176844382810683, -0.028526215410296984, -0.9073468620069227, 0.368402021076113, -0.7931715492805389, 0.7139937576537556, 0.3256902938774249, 0.1754038495436161, -0.922882006742348,
0.06421033549560473, -0.6680873628944011, -0.277671602723192, 0.465354816135358, -0.8025244885439267, 0.5207651525561476, 0.6591156866714858, 0.16663101100357025, -0.5536283106283832, -0.05003596021188228,
0.5769721338774194, 0.08756448976103126, -0.29243337166197225, -0.3204011192618723, -0.5062393424161828, 0.9579961061844933, 0.36422792402756743, 0.421996483070727, 0.8676908491628055, 0.2530674372970356,
-0.5699660097375938, -0.11481597627926066, 0.9010106850017898, -0.16158287165854546, 0.32063302229034374, 0.6662791751622787, -0.783192633066411, 0.13359982891401723, 0.2568307746146088, 0.9700333468852507,
-0.8513388938575344, -0.6110814881420814, -0.6701965189668493, 0.40633506301107136, 0.9975011497031576, -0.7009920950285609, 0.3696752224704367, 0.6905694343073456, 0.06551697857898509, -0.7391519013208621,
0.7001376902452501, -0.09226186375129997, -0.44292716815627475, -0.7994335788420357, -0.2998091218185541, -0.3742660211201301, 0.42821829236164843, 0.031698721704325195, 0.9485239534201502, 0.13305567076446945,
-0.41532399054636215, 0.3847404439808333, 0.6524588965443154, -0.5781069081131376, 0.6224312307769115, 0.9236293579587787, -0.4440747432239158, -0.4865879851335979, 0.6404619515077372, 0.567749103333862,
0.07321205577400303, -0.7087862174354878, -0.3642817880763549, -0.2709089414467565, 0.13125640235450442, 0.9309913358708619, -0.10465208652531954, -0.2530214313023724, -0.7508254721388932, 0.7256920068405144,
0.9787465406347886,
0.8262568005667985,
0.29579405572254425,
0.44494631045858224,
0.29063990972597287,
-0.5886374185940668,
-0.7207422703972637,
0.7209417433400112,
0.08008353855974315,
0.32203441978406255,
0.788763889204704,
-0.5100791921896644,
0.7497332649136208, 0.3898448661825573, 0.6248287963503225, 0.42944505231222907, 0.3859394805942449, 0.9540076109703772, -0.04056709416738524, -0.30832980740414406, -0.4646838698561715, 0.553894253916769, 0.4714604973384251, 0.7882832162032432,
0.9684254610677709, 0.4001442176139345, -0.3888145232801663, 0.7909082484462648, -0.027252077398818297, 0.6946662463124569, -0.8477864736919245, 0.8916429911189616, -0.9623020127921493, -0.886700144258227, -0.42240961552421563, 0.7394449519040536,
0.31818513159055106, -0.006436475793004881, 0.9547205854236869, -0.854260418567649, 0.18762443607676627, -0.7913821891394246, 0.6932940804037733, 0.8451464107128799, -0.6156175053471657, -0.7861764667219746, 0.2249987206323283, 0.04056297959750976,
0.5690201111257114, 0.9819592244925506, 0.837277435456206, -0.8618427208638799, -0.35200207338668044, 0.0704414495558825, 0.3914539984193022, -0.5838852768720071, 0.2820961271887401, -0.6386854819974217, 0.9527254005831969, 0.38629612612863484,
0.3248784125694253, 0.7752416439118464, -0.6910471730958379, 0.040841592090770984, -0.4613636947553661, -0.4095193609641421, 0.5337675549670653, -0.20817200144383907, 0.3766064004666485, 0.5813479794802947, 0.9810465225660638, -0.07325018904172209,
-0.8646282987361196, -0.48275791494972875, -0.5429259618846416, 0.08834299849337013, -0.9835883155203731, 0.5352495314820254, -0.40818168587085335, 0.6010237302983437, -0.657043975808997, -0.12109307481570131, 0.066940614701398, 0.6118423497085002,
-0.40098735970376165, -0.20343388550257924, -0.8230585389204124, -0.9584505715720457, -0.37988723985818273, 0.8607026899410171, -0.717574781842707, -0.8432580553735187, 0.7314158326929814, 0.7505946278651794, 0.2762466793304492, -0.49849187952026597,
0.13159831260477706, 0.13992861149327895, -0.4443323228374707, -0.8668623933094772, -0.8803393765146028, 0.5362535220397042, -0.5360252472025389, -0.036918094063914, -0.29713846962277346, -0.8039531424833184, 0.8204135028895441, -0.13989268856786774,
-0.9439127865020644, 0.6967716707940412, -0.49582162059826684, -0.0030645449469459685, 0.7556996650248151, 0.7176155269022133, -0.7082112592713661, 0.22556125837842478, 0.9668034764870175, -0.4842831170278954, 0.5192714994537364, 0.9231102933368738,
-0.776976477641361, -0.5031670610037668, -0.6564107876711862, 0.3209263083524716, -0.8678077463050062, 0.5642511324337636, -0.9830361038420712, 0.1909342454441174, 0.12013673668115787, 0.5143528172149514, -0.8253251881449195, -0.36366505751661915,
-0.8617265103867462,
0.7665245785774784,
-0.3011138481211022,
-0.6905416212433368,
-0.25754753298579436,
-0.5389427471357098,
0.9725753393202976,
0.9827087927821458,
-0.8719825510516515,
-0.49828802676585493,
-0.4551767151086281, -0.746389466317884, -0.6791652022668648, 0.7598281000749387, 0.8785409343829018, -0.7894527813928041, -0.22184662124202026, 0.8782915967694449, -0.02121080715859769, -0.05604155086220963,
-0.6252633904969054,
