//Neural Network File Format by Kyle Julian, Stanford 2016.
2, 2, 2, 3,
2, 3, 2,
This line extraneous
-6.55e4,-6.55e4,
6.55e4,6.55e4,
0.0,0.0,0.0,
1.0,1.0,1.0,
-0.9110386802948991, 0.7103549043778692, 0.6727096493113138, 0.9774245598642715, 0.32945167302713285, 0.9356262659139976, -0.3443167974218264, -0.44602048603124267, -0.6541437924196298, -0.6970518504847156,
-0.19571394898301486, -0.15161970412577785, 0.22643506191631735, -0.0013167022006408402, 0.8406724453913248, -0.5038934863419549, -0.014134977058551268, -0.9508142533807846, -0.7081611196466175, 0.06668470220166611,
0.3200484796410099, -0.14667247565409447, -0.6932357889154352, 0.6700326119564788, 0.7046762201331429, -0.9938870676074232, 0.9776152925299293, -0.9939592540740652, -0.5212920049113579, 0.34599379947886,
-0.8634718047921743,
-0.5633113342078682,
0.018236756683701394,
0.9614194086443644, -0.9188633198302725, 0.9283354027849766,
0.7146789631023869, -0.30981531727920464, 0.7406729980126938,
-0.04970597597984305,
-0.9935881626117853,
