// Neural Network File Format by Kyle Julian, Stanford 2016
5,784,10,784,
784,25,25,25,25,10,
0,
0,0,0,0,0,0,0,0,0,0,0,0,0,0,0,0,0,0,0,0,0,0,0,0,0,0,0,0,0,0,0,0,0,0,0,0,0,0,0,0,0,0,0,0,0,0,0,0,0,0,0,0,0,0,0,0,0,0,0,0,0,0,0,0,0,0,0,0,0,0,0,0,0,0,0,0,0,0,0,0,0,0,0,0,0,0,0,0,0,0,0,0,0,0,0,0,0,0,0,0,0,0,0,0,0,0,0,0,0,0,0,0,0,0,0,0,0,0,0,0,0,0,0,0,0,0,0,0,0,0,0,0,0,0,0,0,0,0,0,0,0,0,0,0,0,0,0,0,0,0,0,0,0,0,0,0,0,0,0,0,0,0,0,0,0,0,0,0,0,0,0,0,0,0,0,0,0,0,0,0,0,0,0,0,0,0,0,0,0,0,0,0,0,0,0,0,0,0,0,0,0,0,0,0,0,0,0,0,0,0,0,0,0,0,0,0,0,0,0,0,0,0,0,0,0,0,0,0,0,0,0,0,0,0,0,0,0,0,0,0,0,0,0,0,0,0,0,0,0,0,0,0,0,0,0,0,0,0,0,0,0,0,0,0,0,0,0,0,0,0,0,0,0,0,0,0,0,0,0,0,0,0,0,0,0,0,0,0,0,0,0,0,0,0,0,0,0,0,0,0,0,0,0,0,0,0,0,0,0,0,0,0,0,0,0,0,0,0,0,0,0,0,0,0,0,0,0,0,0,0,0,0,0,0,0,0,0,0,0,0,0,0,0,0,0,0,0,0,0,0,0,0,0,0,0,0,0,0,0,0,0,0,0,0,0,0,0,0,0,0,0,0,0,0,0,0,0,0,0,0,0,0,0,0,0,0,0,0,0,0,0,0,0,0,0,0,0,0,0,0,0,0,0,0,0,0,0,0,0,0,0,0,0,0,0,0,0,0,0,0,0,0,0,0,0,0,0,0,0,0,0,0,0,0,0,0,0,0,0,0,0,0,0,0,0,0,0,0,0,0,0,0,0,0,0,0,0,0,0,0,0,0,0,0,0,0,0,0,0,0,0,0,0,0,0,0,0,0,0,0,0,0,0,0,0,0,0,0,0,0,0,0,0,0,0,0,0,0,0,0,0,0,0,0,0,0,0,0,0,0,0,0,0,0,0,0,0,0,0,0,0,0,0,0,0,0,0,0,0,0,0,0,0,0,0,0,0,0,0,0,0,0,0,0,0,0,0,0,0,0,0,0,0,0,0,0,0,0,0,0,0,0,0,0,0,0,0,0,0,0,0,0,0,0,0,0,0,0,0,0,0,0,0,0,0,0,0,0,0,0,0,0,0,0,0,0,0,0,0,0,0,0,0,0,0,0,0,0,0,0,0,0,0,0,0,0,0,0,0,0,0,0,0,0,0,0,0,0,0,0,0,0,0,0,0,0,0,0,0,0,0,0,0,0,0,0,0,0,0,0,0,0,0,0,0,0,0,0,0,0,0,0,0,0,0,0,0,0,0,0,0,0,0,0,0,0,0,0,0,0,0,0,0,0,0,0,0,0,0,0,0,0,0,0,0,0,0,0,0,0,0,0,0,0,0,0,0,0,0,0,0,0,0,0,0,0,0,0,0,0,0,0,0,0,0,0,0,0,0,0,0,0,0,0,0,0,0,0,0,0,0,0,0,0,0,0,0,0,0,0,0,0,0,0,0,0,0,0,0,0,0,0,0,0,0,0,0,0,0,0,0,0,0,0,0,0,0,0,0,0,0,0,0,0,
255,255,255,255,255,255,255,255,255,255,255,255,255,255,255,255,255,255,255,255,255,255,255,255,255,255,255,255,255,255,255,255,255,255,255,255,255,255,255,255,255,255,255,255,255,255,255,255,255,255,255,255,255,255,255,255,255,255,255,255,255,255,255,255,255,255,255,255,255,255,255,255,255,255,255,255,255,255,255,255,255,255,255,255,255,255,255,255,255,255,255,255,255,255,255,255,255,255,255,255,255,255,255,255,255,255,255,255,255,255,255,255,255,255,255,255,255,255,255,255,255,255,255,255,255,255,255,255,255,255,255,255,255,255,255,255,255,255,255,255,255,255,255,255,255,255,255,255,255,255,255,255,255,255,255,255,255,255,255,255,255,255,255,255,255,255,255,255,255,255,255,255,255,255,255,255,255,255,255,255,255,255,255,255,255,255,255,255,255,255,255,255,255,255,255,255,255,255,255,255,255,255,255,255,255,255,255,255,255,255,255,255,255,255,255,255,255,255,255,255,255,255,255,255,255,255,255,255,255,255,255,255,255,255,255,255,255,255,255,255,255,255,255,255,255,255,255,255,255,255,255,255,255,255,255,255,255,255,255,255,255,255,255,255,255,255,255,255,255,255,255,255,255,255,255,255,255,255,255,255,255,255,255,255,255,255,255,255,255,255,255,255,255,255,255,255,255,255,255,255,255,255,255,255,255,255,255,255,255,255,255,255,255,255,255,255,255,255,255,255,255,255,255,255,255,255,255,255,255,255,255,255,255,255,255,255,255,255,255,255,255,255,255,255,255,255,255,255,255,255,255,255,255,255,255,255,255,255,255,255,255,255,255,255,255,255,255,255,255,255,255,255,255,255,255,255,255,255,255,255,255,255,255,255,255,255,255,255,255,255,255,255,255,255,255,255,255,255,255,255,255,255,255,255,255,255,255,255,255,255,255,255,255,255,255,255,255,255,255,255,255,255,255,255,255,255,255,255,255,255,255,255,255,255,255,255,255,255,255,255,255,255,255,255,255,255,255,255,255,255,255,255,255,255,255,255,255,255,255,255,255,255,255,255,255,255,255,255,255,255,255,255,255,255,255,255,255,255,255,255,255,255,255,255,255,255,255,255,255,255,255,255,255,255,255,255,255,255,255,255,255,255,255,255,255,255,255,255,255,255,255,255,255,255,255,255,255,255,255,255,255,255,255,255,255,255,255,255,255,255,255,255,255,255,255,255,255,255,255,255,255,255,255,255,255,255,255,255,255,255,255,255,255,255,255,255,255,255,255,255,255,255,255,255,255,255,255,255,255,255,255,255,255,255,255,255,255,255,255,255,255,255,255,255,255,255,255,255,255,255,255,255,255,255,255,255,255,255,255,255,255,255,255,255,255,255,255,255,255,255,255,255,255,255,255,255,255,255,255,255,255,255,255,255,255,255,255,255,255,255,255,255,255,255,255,255,255,255,255,255,255,255,255,255,255,255,255,255,255,255,255,255,255,255,255,255,255,255,255,255,255,255,255,255,255,255,255,255,255,255,255,255,255,255,255,255,255,255,255,255,255,255,255,255,255,255,255,255,255,255,255,255,255,255,255,255,255,255,255,255,255,255,255,255,255,255,255,255,255,255,255,255,255,255,255,255,255,255,255,255,255,255,255,255,255,255,255,255,255,255,255,255,255,255,255,255,255,255,255,255,255,255,255,255,255,255,255,255,255,255,255,255,255,255,255,255,255,255,255,255,255,255,255,255,255,255,255,255,255,255,255,255,255,255,255,255,255,255,255,255,255,255,255,255,
0,0,0,0,0,0,0,0,0,0,0,0,0,0,0,0,0,0,0,0,0,0,0,0,0,0,0,0,0,0,0,0,0,0,0,0,0,0,0,0,0,0,0,0,0,0,0,0,0,0,0,0,0,0,0,0,0,0,0,0,0,0,0,0,0,0,0,0,0,0,0,0,0,0,0,0,0,0,0,0,0,0,0,0,0,0,0,0,0,0,0,0,0,0,0,0,0,0,0,0,0,0,0,0,0,0,0,0,0,0,0,0,0,0,0,0,0,0,0,0,0,0,0,0,0,0,0,0,0,0,0,0,0,0,0,0,0,0,0,0,0,0,0,0,0,0,0,0,0,0,0,0,0,0,0,0,0,0,0,0,0,0,0,0,0,0,0,0,0,0,0,0,0,0,0,0,0,0,0,0,0,0,0,0,0,0,0,0,0,0,0,0,0,0,0,0,0,0,0,0,0,0,0,0,0,0,0,0,0,0,0,0,0,0,0,0,0,0,0,0,0,0,0,0,0,0,0,0,0,0,0,0,0,0,0,0,0,0,0,0,0,0,0,0,0,0,0,0,0,0,0,0,0,0,0,0,0,0,0,0,0,0,0,0,0,0,0,0,0,0,0,0,0,0,0,0,0,0,0,0,0,0,0,0,0,0,0,0,0,0,0,0,0,0,0,0,0,0,0,0,0,0,0,0,0,0,0,0,0,0,0,0,0,0,0,0,0,0,0,0,0,0,0,0,0,0,0,0,0,0,0,0,0,0,0,0,0,0,0,0,0,0,0,0,0,0,0,0,0,0,0,0,0,0,0,0,0,0,0,0,0,0,0,0,0,0,0,0,0,0,0,0,0,0,0,0,0,0,0,0,0,0,0,0,0,0,0,0,0,0,0,0,0,0,0,0,0,0,0,0,0,0,0,0,0,0,0,0,0,0,0,0,0,0,0,0,0,0,0,0,0,0,0,0,0,0,0,0,0,0,0,0,0,0,0,0,0,0,0,0,0,0,0,0,0,0,0,0,0,0,0,0,0,0,0,0,0,0,0,0,0,0,0,0,0,0,0,0,0,0,0,0,0,0,0,0,0,0,0,0,0,0,0,0,0,0,0,0,0,0,0,0,0,0,0,0,0,0,0,0,0,0,0,0,0,0,0,0,0,0,0,0,0,0,0,0,0,0,0,0,0,0,0,0,0,0,0,0,0,0,0,0,0,0,0,0,0,0,0,0,0,0,0,0,0,0,0,0,0,0,0,0,0,0,0,0,0,0,0,0,0,0,0,0,0,0,0,0,0,0,0,0,0,0,0,0,0,0,0,0,0,0,0,0,0,0,0,0,0,0,0,0,0,0,0,0,0,0,0,0,0,0,0,0,0,0,0,0,0,0,0,0,0,0,0,0,0,0,0,0,0,0,0,0,0,0,0,0,0,0,0,0,0,0,0,0,0,0,0,0,0,0,0,0,0,0,0,0,0,0,0,0,0,0,0,0,0,0,0,0,0,0,0,0,0,0,0,0,0,0,0,0,0,0,0,0,0,0,0,0,0,0,0,0,0,0,0,0,0,0,0,0,0,0,0,0,0,0,0,0,0,0,0,0,0,0,0,0,0,0,0,0,0,0,0,0,0,0,0,0,0,0,0,0,0,0,0,0,0,0,0,0,0,0,0,0,0,0,0,0,0,0,0,0,0,0,0,0,0,0,0,0,0,0,0,0,0,0,0,0,0,0,0,0,0,0,0,0,0,0,0,0,0,0,0,0,0,0,0,0,0,0,0,0,
0,0,0,0,0,0,0,0,0,0,0,0,0,0,0,0,0,0,0,0,0,0,0,0,0,0,0,0,0,0,0,0,0,0,0,0,0,0,0,0,0,0,0,0,0,0,0,0,0,0,0,0,0,0,0,0,0,0,0,0,0,0,0,0,0,0,0,0,0,0,0,0,0,0,0,0,0,0,0,0,0,0,0,0,0,0,0,0,0,0,0,0,0,0,0,0,0,0,0,0,0,0,0,0,0,0,0,0,0,0,0,0,0,0,0,0,0,0,0,0,0,0,0,0,0,0,0,0,0,0,0,0,0,0,0,0,0,0,0,0,0,0,0,0,0,0,0,0,0,0,0,0,0,0,0,0,0,0,0,0,0,0,0,0,0,0,0,0,0,0,0,0,0,0,0,0,0,0,0,0,0,0,0,0,0,0,0,0,0,0,0,0,0,0,0,0,0,0,0,0,0,0,0,0,0,0,0,0,0,0,0,0,0,0,0,0,0,0,0,0,0,0,0,0,0,0,0,0,0,0,0,0,0,0,0,0,0,0,0,0,0,0,0,0,0,0,0,0,0,0,0,0,0,0,0,0,0,0,0,0,0,0,0,0,0,0,0,0,0,0,0,0,0,0,0,0,0,0,0,0,0,0,0,0,0,0,0,0,0,0,0,0,0,0,0,0,0,0,0,0,0,0,0,0,0,0,0,0,0,0,0,0,0,0,0,0,0,0,0,0,0,0,0,0,0,0,0,0,0,0,0,0,0,0,0,0,0,0,0,0,0,0,0,0,0,0,0,0,0,0,0,0,0,0,0,0,0,0,0,0,0,0,0,0,0,0,0,0,0,0,0,0,0,0,0,0,0,0,0,0,0,0,0,0,0,0,0,0,0,0,0,0,0,0,0,0,0,0,0,0,0,0,0,0,0,0,0,0,0,0,0,0,0,0,0,0,0,0,0,0,0,0,0,0,0,0,0,0,0,0,0,0,0,0,0,0,0,0,0,0,0,0,0,0,0,0,0,0,0,0,0,0,0,0,0,0,0,0,0,0,0,0,0,0,0,0,0,0,0,0,0,0,0,0,0,0,0,0,0,0,0,0,0,0,0,0,0,0,0,0,0,0,0,0,0,0,0,0,0,0,0,0,0,0,0,0,0,0,0,0,0,0,0,0,0,0,0,0,0,0,0,0,0,0,0,0,0,0,0,0,0,0,0,0,0,0,0,0,0,0,0,0,0,0,0,0,0,0,0,0,0,0,0,0,0,0,0,0,0,0,0,0,0,0,0,0,0,0,0,0,0,0,0,0,0,0,0,0,0,0,0,0,0,0,0,0,0,0,0,0,0,0,0,0,0,0,0,0,0,0,0,0,0,0,0,0,0,0,0,0,0,0,0,0,0,0,0,0,0,0,0,0,0,0,0,0,0,0,0,0,0,0,0,0,0,0,0,0,0,0,0,0,0,0,0,0,0,0,0,0,0,0,0,0,0,0,0,0,0,0,0,0,0,0,0,0,0,0,0,0,0,0,0,0,0,0,0,0,0,0,0,0,0,0,0,0,0,0,0,0,0,0,0,0,0,0,0,0,0,0,0,0,0,0,0,0,0,0,0,0,0,0,0,0,0,0,0,0,0,0,0,0,0,0,0,0,0,0,0,0,0,0,0,0,0,0,0,0,0,0,0,0,0,0,0,0,0,0,0,0,0,0,0,0,0,0,0,0,0,0,0,0,0,0,0,0,0,0,0,0,0,0,0,0,0,0,0,0,0,0,0,0,0,0,
4.31283e-02,4.01576e-02,8.97653e-02,-1.13898e-01,5.80114e-02,-8.55362e-02,-3.63360e-02,-8.47962e-02,-8.81099e-03,-1.83030e-02,8.33568e-03,9.48787e-02,3.02604e-01,7.57861e-02,-2.86213e-03,-9.45591e-02,5.38900e-02,1.01059e-01,-3.97734e-02,-5.36725e-03,-6.89461e-02,4.33368e-02,-4.20624e-02,-6.62439e-02,-1.16370e-01,2.02368e-03,7.21441e-02,4.44483e-03,-1.65603e-01,-5.15086e-02,3.83012e-02,-8.21965e-02,-4.78201e-02,-1.17114e-02,4.26209e-01,2.38903e-01,8.27114e-03,1.39259e-01,3.92146e-01,4.17371e-01,3.27946e-01,2.53300e-01,-4.83799e-02,5.54447e-01,4.55634e-01,4.14545e-01,5.20852e-01,2.84415e-01,2.28297e-01,2.22653e-01,1.17051e-01,1.22254e-01,-7.79030e-02,3.82170e-02,-6.75547e-02,5.60740e-02,2.25554e-02,-6.77832e-03,-5.65172e-03,2.04373e-01,2.47969e-01,2.91635e-01,3.21030e-01,4.69388e-01,1.15522e-01,2.37182e-01,8.20360e-02,2.26081e-01,2.05715e-01,1.64945e-01,-2.84609e-02,1.21231e-01,2.44290e-01,1.64316e-01,1.89590e-01,9.00189e-02,2.03625e-01,3.06408e-01,3.19288e-01,3.23203e-01,-2.05585e-01,-8.47713e-02,-2.46928e-02,4.07560e-02,-2.03497e-02,-1.27132e-02,-9.35947e-02,1.99080e-01,3.55367e-02,3.40803e-02,-5.25529e-02,3.66696e-02,1.24520e-01,2.62830e-01,-2.26148e-01,-1.23664e-01,-1.49840e-01,1.19136e-01,-8.90242e-02,-7.05693e-02,1.44643e-01,-1.11406e-01,1.60093e-02,1.29739e-01,9.40260e-02,2.10351e-01,1.32546e-01,1.14932e-01,4.72205e-02,-1.25434e-01,-6.96949e-02,-6.62531e-02,8.05068e-02,-1.27127e-01,-3.22790e-01,-4.64350e-02,3.83032e-02,-1.83180e-02,-1.90254e-01,-1.95014e-01,-2.67166e-02,-4.58957e-02,5.30058e-02,7.68517e-02,1.42649e-01,2.43749e-02,1.09031e-01,1.61433e-01,-1.01893e-01,1.52758e-01,-1.36445e-01,4.78889e-02,-2.21443e-02,8.23764e-02,-5.62914e-02,-9.18948e-02,-2.06606e-01,-1.33219e-01,-7.81562e-02,1.12704e-01,1.55518e-01,1.43076e-01,-1.84457e-01,2.23539e-02,-2.18974e-01,-1.77587e-01,-3.05156e-01,-2.20237e-01,-2.55125e-02,2.29539e-02,7.37011e-02,2.11166e-02,-3.15185e-02,-8.94162e-02,6.49083e-02,-7.25251e-02,-1.77074e-01,-2.60318e-02,1.14316e-01,6.90780e-02,6.24886e-03,2.50128e-02,-6.28698e-02,-6.56232e-02,1.00121e-01,9.54610e-02,7.42794e-02,1.97475e-01,-1.43427e-01,-9.80046e-02,-5.68845e-03,-1.33681e-01,-1.18155e-01,-1.58375e-01,-2.66073e-01,-8.24484e-02,-1.37050e-01,1.15891e-01,1.26879e-01,1.24803e-01,1.33363e-01,1.38470e-01,-1.50778e-01,-6.03460e-02,-2.65279e-02,-2.45907e-01,-1.41264e-01,-1.78163e-03,3.58690e-02,1.69616e-01,8.85604e-02,4.08079e-02,2.56538e-01,1.05752e-01,-2.21516e-01,-4.93798e-02,1.07343e-01,1.75762e-02,4.56509e-03,-1.71352e-01,-1.05142e-01,2.14791e-02,-9.26724e-03,1.23597e-01,-4.40176e-02,4.25183e-02,1.40738e-01,2.81405e-01,-2.80787e-02,-8.44560e-02,9.07904e-02,-6.18632e-02,-2.00582e-01,-1.81493e-03,2.92860e-02,-9.25632e-02,-1.64862e-01,1.03370e-01,2.45100e-01,1.49894e-01,3.38911e-01,2.57537e-01,2.12375e-01,1.14799e-01,1.81096e-02,1.74610e-02,-8.57874e-02,-1.33453e-01,-6.97508e-02,-1.03726e-01,-7.78397e-02,-5.66522e-02,8.29038e-02,4.37377e-02,2.14930e-01,2.35780e-01,2.25566e-01,1.43811e-01,4.03181e-02,-1.41453e-01,-1.14226e-01,-2.50805e-02,-2.42433e-01,3.77277e-02,1.21267e-01,9.91393e-02,9.89866e-03,6.61879e-02,7.32449e-02,2.17453e-02,-4.38531e-02,-6.48420e-03,4.38871e-03,-3.32820e-01,-8.30080e-02,3.09483e-02,-2.57236e-01,7.74179e-02,3.33747e-02,1.30405e-01,2.76096e-02,4.17394e-02,1.26048e-01,1.68703e-01,9.01420e-02,7.11304e-02,-5.94518e-02,-5.77190e-02,-1.74117e-01,-1.26359e-01,-6.94923e-02,-4.21112e-02,-1.42749e-01,1.26526e-01,-1.57469e-01,1.15675e-01,3.16257e-01,9.95099e-02,2.33434e-01,-1.58120e-01,-7.10096e-02,-2.55640e-01,-6.78925e-02,5.76350e-02,-6.02660e-03,3.39553e-02,1.99696e-01,5.05915e-02,2.29204e-01,1.55516e-01,7.34970e-02,3.18036e-01,6.04267e-02,3.08431e-01,1.02219e-01,3.93063e-02,-2.36797e-01,-1.91681e-01,-8.66510e-02,-1.88403e-01,-1.34255e-01,-1.78271e-02,-2.04763e-01,8.97562e-02,3.15106e-01,7.91531e-02,1.14069e-01,2.10333e-03,-1.79773e-02,7.30757e-02,-1.86421e-01,-9.85772e-02,-1.18088e-01,7.18228e-02,1.69365e-01,1.53605e-01,3.28747e-02,1.37370e-01,1.10069e-01,4.44531e-03,1.49412e-01,1.22455e-01,-5.73313e-02,-1.91926e-01,-1.53831e-02,-2.31713e-01,1.61496e-02,4.46198e-02,-8.41816e-02,-1.06663e-01,-1.12390e-01,-5.47849e-02,1.48730e-01,1.76630e-01,9.48875e-02,1.41750e-01,-2.50052e-01,-9.29175e-02,-1.30331e-01,-4.02638e-03,-2.27424e-01,-1.90436e-02,-1.91374e-02,-6.52912e-02,1.05297e-01,1.00456e-01,3.22123e-02,1.73382e-01,-6.31780e-02,8.75414e-02,-2.33190e-01,-4.69141e-03,5.31543e-02,-3.79176e-02,-2.96016e-02,-4.33186e-02,-1.23474e-01,1.39642e-01,-7.38895e-02,-5.96792e-02,1.69147e-02,1.77067e-01,1.19981e-01,-6.37362e-02,4.49502e-02,-1.17139e-01,-1.47433e-01,6.49674e-03,-2.11620e-01,-1.30431e-01,-1.89605e-01,-3.88497e-02,5.32496e-02,-4.69818e-02,-7.18725e-02,3.28515e-02,-7.42010e-03,-1.40745e-01,6.89023e-02,-1.19732e-02,-6.08179e-02,8.01764e-03,-3.04175e-02,9.06444e-02,-9.81849e-02,-1.44787e-03,-3.37839e-02,2.85465e-01,2.56565e-01,1.06617e-02,-9.05588e-02,1.24796e-02,1.51124e-01,-2.08460e-01,-1.02764e-01,-4.70356e-02,-2.99035e-01,-1.76788e-01,-1.51043e-01,-2.02823e-01,-1.24333e-01,-2.29203e-01,1.06518e-01,-8.56119e-02,-7.31582e-02,-1.26382e-01,1.83994e-01,2.61778e-02,-1.54998e-01,-3.01094e-01,-9.50866e-02,-4.50345e-02,8.16496e-02,-4.16721e-02,6.85728e-02,1.24789e-01,2.59012e-01,-2.86298e-02,-1.56047e-02,2.30997e-01,3.65230e-02,-1.26881e-01,-2.28908e-01,-2.66076e-03,-3.32350e-01,-1.65030e-01,-2.28047e-01,-1.67251e-01,-2.13224e-01,1.22270e-02,8.19737e-02,2.36047e-02,-7.64690e-02,9.40331e-02,8.08417e-02,-4.65006e-02,-2.23169e-01,-1.46252e-01,-7.41506e-02,-1.37943e-01,-1.17199e-01,6.14697e-02,-1.24412e-01,1.62933e-01,9.87093e-02,1.67036e-01,2.18404e-01,5.92256e-02,-2.20223e-01,-2.15865e-01,-7.80765e-02,-1.35265e-01,-2.03691e-01,-1.85577e-02,-2.88497e-01,-4.56798e-02,3.89866e-02,3.92066e-02,-2.64462e-02,1.51598e-02,8.38236e-02,6.42430e-03,-5.34835e-02,-4.88111e-02,2.97365e-02,-1.58955e-01,-1.62733e-01,-2.01705e-01,-1.19048e-01,5.44146e-02,-7.99944e-02,2.34522e-01,1.75393e-01,2.37571e-01,5.40081e-02,1.90555e-02,-1.62928e-02,-1.11323e-01,-2.75386e-01,4.68109e-02,-1.24647e-01,-2.20677e-03,-3.33267e-02,-1.15662e-01,-1.40298e-01,-1.47084e-01,2.94744e-01,8.11746e-02,1.95584e-01,9.12449e-02,3.46477e-02,-1.62964e-01,-9.16735e-02,-1.12498e-01,-1.73642e-02,-3.66542e-02,-9.00054e-02,-1.67593e-01,1.29840e-01,4.05467e-02,4.44845e-01,3.53889e-01,7.79702e-04,2.30304e-01,-2.99736e-02,-3.47529e-02,-3.68625e-01,-3.21576e-02,7.64259e-02,-1.23392e-01,7.32013e-02,1.23487e-01,-3.84205e-02,6.81835e-02,7.78823e-02,-3.85235e-02,1.33875e-01,7.32446e-02,3.83044e-02,-3.99310e-03,-9.60102e-02,-9.99734e-02,-1.34419e-01,-6.27900e-02,5.51942e-02,4.79566e-02,2.34191e-02,7.82027e-02,2.78045e-01,1.36506e-01,-3.29763e-01,-2.14288e-01,1.47884e-01,-1.35036e-01,-3.41600e-01,-6.34177e-02,2.81737e-02,-1.31959e-01,1.25879e-02,2.35835e-01,2.30078e-01,1.75430e-02,1.26238e-01,2.19564e-01,1.65738e-01,7.37951e-02,4.84459e-02,1.25426e-02,-3.04499e-02,3.68231e-02,3.72154e-02,4.80759e-02,1.00320e-01,1.21298e-01,9.17744e-02,3.28032e-01,3.11661e-01,1.28261e-01,5.93584e-02,-1.11031e-01,-4.31223e-02,6.17317e-02,-3.32017e-02,9.60265e-02,-1.06320e-01,1.08884e-01,1.65629e-01,9.04901e-02,9.49901e-02,2.26474e-01,8.38336e-02,1.17926e-01,3.25664e-01,5.27943e-02,9.46416e-02,1.87707e-01,-2.37925e-02,-2.14155e-02,1.38038e-01,-2.92610e-02,1.36064e-01,1.25153e-01,1.52903e-01,3.19592e-01,1.88976e-01,2.47570e-01,2.62929e-01,1.92368e-01,7.01707e-02,1.51984e-01,1.49593e-01,-1.10189e-01,1.21557e-01,-7.98882e-02,-1.21893e-01,3.53652e-02,2.21356e-01,1.61107e-01,2.53716e-01,1.80844e-01,2.57799e-01,2.70539e-01,2.25051e-01,9.42309e-02,2.48251e-01,2.41659e-01,-1.57654e-02,-2.84481e-02,1.80843e-01,-1.17587e-02,1.91506e-01,3.94582e-01,1.88990e-01,7.89007e-03,2.01336e-01,1.13347e-01,1.25850e-01,-1.48627e-01,1.38882e-02,2.06359e-01,7.95897e-02,2.69197e-01,-1.01029e-01,-9.46965e-02,2.58812e-01,2.63344e-01,1.34940e-01,-3.23299e-02,2.23200e-01,1.72760e-02,1.37098e-01,8.69014e-02,8.54745e-02,1.58181e-01,3.45849e-02,2.36954e-01,7.12473e-02,3.35348e-02,5.44983e-02,1.73777e-01,9.84427e-02,-1.81273e-01,7.67491e-02,5.78939e-02,1.30475e-01,4.48361e-03,1.28114e-01,1.83803e-02,-1.14065e-01,1.12503e-02,-5.24041e-02,-2.53218e-02,-1.08692e-01,3.60033e-02,1.58844e-01,6.07193e-02,7.03496e-02,5.93578e-02,9.68074e-02,1.87826e-01,1.95677e-02,1.51844e-01,2.55355e-02,1.53782e-01,8.65853e-03,6.20614e-02,8.88941e-02,-1.57907e-02,-1.99453e-01,-1.12302e-01,1.11853e-01,-2.96742e-02,3.58321e-02,-5.11927e-02,-1.93025e-01,-2.22726e-01,-1.40082e-01,-6.54374e-02,-1.07064e-01,-1.18993e-01,-5.53095e-02,9.29164e-02,-7.88462e-02,5.04733e-02,-2.03558e-02,1.68922e-01,1.10529e-01,8.00100e-02,-2.66640e-02,-8.39241e-03,1.19197e-01,3.77986e-02,-2.95478e-02,-8.91745e-02,2.43846e-02,3.76277e-03,1.17370e-01,1.25591e-01,2.11126e-01,8.97695e-02,2.86723e-02,-5.17824e-02,-9.17528e-02,2.94318e-01,-1.80432e-01,-4.73333e-01,-8.31368e-03,1.01636e-02,-1.91310e-01,5.81737e-03,-1.92347e-03,1.39777e-01,1.17454e-01,8.92486e-02,1.30641e-01,1.35517e-01,1.67597e-01,2.04908e-02,-4.01314e-02,1.40498e-02,1.03543e-01,-5.24814e-02,6.82545e-03,2.11121e-01,1.85169e-01,-1.22036e-01,1.27220e-01,-1.54071e-01,1.07610e-01,9.30300e-02,6.42797e-02,-1.00096e-01,-2.12297e-01,-1.03566e-01,-2.98241e-01,-4.98899e-01,-3.48956e-01,-2.06646e-01,-2.84888e-01,1.17252e-01,-5.53480e-02,-6.09466e-02,-2.08986e-01,2.95570e-02,-1.36900e-01,-2.05733e-01,-1.04701e-01,-2.41465e-01,-1.90134e-01,-2.29108e-01,-3.54763e-02,-1.51588e-01,1.96177e-02,1.42408e-01,-6.46798e-03,-2.40020e-03,-1.19913e-02,-4.30635e-02,-1.75174e-02,-6.30851e-02,-5.61934e-02,-1.20861e-01,-3.26839e-01,-1.79946e-01,-2.36918e-01,-9.77571e-02,-1.80895e-01,1.49498e-02,-1.59548e-01,-1.18613e-01,-2.06145e-01,-1.14851e-01,-9.98296e-02,-6.34298e-02,-4.08897e-01,-3.13119e-02,-2.46165e-01,-9.81024e-02,-9.44839e-02,3.83742e-02,-2.21875e-02,1.92181e-01,-6.07096e-02,-1.25865e-01,
1.23761e-01,-1.20497e-01,-1.48863e-01,-3.18227e-02,7.21234e-02,5.58658e-02,1.35121e-01,-1.53767e-02,6.22947e-02,-7.64620e-02,-1.65473e-01,1.04403e-01,2.08645e-01,3.13912e-01,1.07440e-01,1.88151e-01,9.40239e-02,8.73955e-02,-5.94494e-02,-1.26259e-01,-1.22715e-01,-2.63927e-02,3.23833e-02,-1.71729e-03,1.02674e-01,5.75630e-02,-6.61255e-02,-1.02607e-01,-5.39251e-02,1.20378e-01,-6.00101e-02,-8.71382e-02,5.61946e-02,2.24558e-01,1.28787e-01,9.91335e-02,2.99444e-01,1.65561e-01,2.15478e-01,1.54087e-01,-4.61747e-02,2.61891e-01,-1.01791e-01,1.53000e-01,1.56047e-01,3.98546e-02,-2.16720e-01,-1.84565e-01,-1.11180e-01,-7.26809e-02,2.46257e-01,4.32714e-02,1.66385e-01,-1.20885e-01,3.35179e-02,5.68658e-02,4.10239e-02,1.94295e-01,-1.52941e-02,-3.26927e-02,1.54789e-01,-2.25698e-02,4.87649e-03,3.00108e-01,2.81759e-01,2.35761e-01,2.12950e-01,2.80831e-01,2.46752e-01,-8.67230e-02,2.37791e-01,-8.57867e-02,-3.40289e-02,-1.06830e-01,-1.03174e-01,-8.24718e-02,-1.55614e-01,1.13824e-02,-1.15009e-01,-1.20845e-01,1.01622e-01,2.03684e-01,7.39594e-02,1.09226e-01,4.87933e-02,1.05927e-01,8.46727e-02,1.20023e-01,-1.66448e-01,-1.80646e-01,-8.62467e-02,4.36186e-02,4.11372e-01,1.91679e-01,1.64739e-01,1.71942e-01,4.04800e-01,2.58245e-01,2.61221e-01,-4.86969e-03,-4.55679e-02,6.27613e-02,-8.00089e-02,-2.02485e-01,-2.64980e-01,-3.16230e-01,-2.58881e-01,-8.36392e-02,-1.07791e-01,-6.07409e-02,-1.44608e-02,8.53784e-02,3.07145e-02,3.94128e-02,-1.46831e-01,-2.02679e-01,2.86644e-02,-2.36625e-02,7.75292e-02,7.26022e-03,2.13625e-01,9.32947e-02,6.89695e-02,2.53126e-01,1.01259e-01,2.47114e-01,2.72925e-01,1.91225e-01,-1.27391e-01,7.67959e-02,-7.38586e-02,7.63688e-03,4.43448e-02,-6.96050e-02,-1.50475e-01,-3.77757e-01,-4.25230e-01,3.21830e-02,1.24201e-01,-9.00015e-02,-1.89193e-02,-3.23404e-02,1.57547e-01,-1.19275e-01,-1.31162e-01,-2.22195e-01,-9.56541e-02,4.99304e-02,1.65087e-01,6.96843e-02,2.41150e-01,-2.76726e-02,7.24444e-02,1.45873e-01,1.19163e-01,2.60556e-01,2.01041e-01,2.01718e-02,1.13142e-01,7.28720e-02,9.52332e-03,-1.05332e-01,4.58093e-02,-2.84339e-02,-3.02186e-01,-1.90614e-01,-1.78016e-01,-2.99246e-02,-6.05496e-02,1.65126e-01,-5.69775e-02,-9.22496e-02,-1.05154e-01,1.41895e-02,-2.47748e-02,-4.37868e-02,1.08833e-01,9.40381e-02,4.27767e-02,1.54834e-01,2.16335e-01,1.82921e-01,1.79065e-01,1.25196e-01,3.41061e-01,1.91093e-01,1.14113e-01,1.46853e-01,-2.96833e-02,8.41706e-04,1.28364e-01,-1.84522e-01,-2.96920e-01,-3.22979e-01,-9.14590e-02,-1.51998e-01,1.56305e-02,3.36926e-01,5.15298e-02,-1.00175e-02,6.08173e-02,4.44931e-02,1.86539e-01,1.36418e-02,-3.60539e-03,1.49278e-01,1.25056e-01,1.85580e-01,4.66740e-02,1.83458e-02,2.09292e-01,3.65213e-01,1.12380e-01,1.46775e-01,1.84006e-01,4.58747e-02,-5.60108e-02,9.82563e-03,-1.04431e-01,-2.93272e-01,-2.68194e-01,-1.40903e-01,-1.24347e-01,5.70392e-02,2.99804e-01,1.33613e-01,8.26876e-02,1.12229e-01,6.95809e-02,-1.08353e-01,1.38611e-02,-4.40969e-02,-2.09818e-02,9.61442e-03,3.21396e-02,1.56716e-01,1.93976e-01,1.51219e-01,2.22877e-01,2.71975e-01,3.29776e-01,6.52151e-02,-3.02932e-02,1.18302e-01,6.38960e-02,-1.21755e-02,1.20360e-01,-4.14667e-02,-1.55594e-01,-8.40882e-02,1.20153e-01,-1.24463e-01,1.81191e-01,2.39336e-01,9.65305e-02,-8.98031e-03,-7.18887e-02,-2.72714e-02,-2.67149e-02,-1.14350e-01,4.47619e-02,1.11529e-01,-8.60610e-02,-2.33914e-01,-6.64574e-02,1.11484e-01,2.29755e-02,6.92295e-02,9.39640e-02,9.86098e-02,4.60516e-02,1.66847e-01,5.16867e-02,6.55600e-02,-8.18907e-02,9.52170e-02,-2.43551e-01,-2.16032e-01,-1.38203e-01,-2.22089e-01,5.37932e-03,1.87143e-01,5.29735e-03,8.45460e-03,-1.69244e-01,-5.00001e-02,7.57307e-02,-5.94724e-02,-3.60486e-02,-2.43357e-01,-2.07891e-01,-2.11114e-01,-2.23552e-01,-2.15041e-01,-2.11139e-01,-4.88932e-02,8.40822e-02,5.05538e-02,1.57681e-02,2.03981e-01,9.77067e-02,5.94979e-02,8.70231e-02,-8.79349e-02,-2.92173e-01,1.36667e-02,-5.81137e-02,-2.93227e-01,2.55594e-01,-2.57309e-02,-2.15523e-01,-1.25215e-03,-1.82320e-01,-2.49944e-01,-1.97848e-01,-5.41273e-02,3.71204e-02,-1.13621e-01,-3.71380e-02,-3.10163e-01,-3.14785e-01,-2.55041e-01,-3.32839e-01,-3.07049e-01,-1.29808e-01,7.99745e-02,1.03483e-01,2.97010e-02,1.37343e-01,-3.35767e-02,-1.44555e-01,1.30191e-01,-1.44321e-01,8.83681e-02,-3.41454e-01,-9.88444e-02,2.41631e-01,1.37811e-01,2.52232e-02,-1.61986e-01,-2.31389e-01,-1.21638e-01,-1.26167e-01,-1.58140e-01,-1.21140e-01,-2.23338e-01,-1.51017e-01,-2.43895e-01,-3.00771e-01,-3.78112e-01,-9.83231e-02,-9.35756e-02,-1.06966e-01,3.16125e-02,1.71479e-02,2.36398e-01,1.01950e-03,-2.88397e-02,-3.46348e-02,-1.26287e-01,-7.24724e-02,-5.38858e-02,3.25953e-02,-1.28849e-02,-7.74795e-02,2.75599e-01,1.05892e-01,-2.36436e-03,-1.57860e-01,-3.38766e-01,-9.20316e-02,-2.68829e-01,-2.14654e-01,-8.44730e-02,-3.28248e-02,2.43712e-02,-1.05190e-01,3.96198e-02,-2.57812e-02,-1.35528e-01,-3.32274e-02,-1.03070e-01,-1.25621e-01,-8.42861e-03,2.12244e-03,-1.52605e-01,1.82506e-03,4.52022e-02,-7.27610e-02,-1.48591e-01,1.70854e-01,8.88368e-02,2.75892e-02,-7.48069e-02,2.12883e-01,7.94363e-05,-2.77567e-01,-1.73415e-01,-1.82630e-01,1.00588e-01,-3.83440e-02,1.10889e-01,2.63732e-02,1.08026e-01,9.41899e-02,2.84792e-02,2.69038e-02,-4.85254e-02,-5.62875e-02,-1.23463e-01,-6.37271e-03,-1.46068e-01,-7.41094e-02,-1.54062e-01,-2.76601e-01,-1.95973e-01,2.56924e-02,4.33538e-02,5.62665e-01,2.03470e-01,-1.49760e-01,-2.28992e-01,-1.31019e-01,-2.02675e-01,-1.02707e-02,-5.79252e-02,4.23321e-02,1.42830e-01,6.99053e-02,3.93763e-03,6.59333e-02,-1.14192e-01,4.87575e-02,-7.06897e-02,-5.21690e-02,1.26392e-01,-1.53472e-01,-1.03438e-01,-7.68885e-02,-1.35782e-01,-1.69394e-01,-4.87540e-02,-7.73870e-02,-1.81383e-01,3.42965e-02,2.80093e-02,2.61870e-01,2.80305e-01,3.51314e-02,-1.95964e-01,-5.97804e-02,-1.06065e-01,-1.37064e-01,1.88050e-01,9.25709e-02,-1.04183e-01,3.27305e-02,1.01846e-02,6.21707e-02,-1.86599e-02,1.57696e-02,6.29942e-02,-8.85071e-02,7.63159e-02,6.62770e-02,-6.50510e-02,-2.31888e-01,-2.64036e-01,-1.82455e-01,-1.26041e-01,-4.68671e-02,2.66028e-02,-2.72943e-02,6.87484e-02,3.68181e-01,1.31851e-01,7.07422e-02,-2.33229e-01,-7.80328e-04,-7.82718e-02,3.31591e-03,-1.01510e-01,-1.51549e-01,1.88585e-02,6.56028e-02,6.73623e-03,3.18930e-02,6.08341e-02,4.32058e-03,-4.85736e-02,2.87028e-02,9.32694e-03,-1.46150e-02,-3.39026e-02,-1.75471e-01,-1.05528e-01,-1.28259e-01,-1.87454e-01,-1.10324e-01,-2.24417e-01,1.62603e-01,3.89921e-01,3.62636e-01,1.35011e-01,1.73002e-02,-2.32569e-01,-2.31609e-01,-7.65224e-02,-2.10052e-02,-2.03503e-01,-2.93580e-02,-6.74429e-03,-2.91491e-02,1.01252e-01,1.05153e-01,9.68602e-02,6.79782e-02,7.03388e-02,-1.07630e-01,1.44248e-01,3.85233e-02,9.06565e-02,-3.66184e-02,-1.22339e-01,-3.15322e-01,-2.54589e-01,5.79774e-03,1.02644e-01,2.43950e-01,3.40162e-01,2.10344e-01,2.10699e-01,-1.64810e-01,1.61989e-01,-1.45175e-01,-1.04659e-01,-1.34096e-01,-8.73231e-02,-1.55848e-01,-2.09337e-02,5.18138e-02,-7.22092e-02,2.34641e-01,2.70862e-03,1.58733e-01,4.30104e-04,-3.51833e-02,2.52723e-02,1.13776e-01,-5.30823e-02,-3.49310e-02,5.56697e-02,2.97317e-02,-1.57603e-01,-6.83006e-02,1.50149e-01,1.63003e-01,2.43284e-01,2.27877e-01,4.49156e-02,-3.88486e-02,3.47842e-01,9.85381e-02,2.26754e-01,8.18066e-03,1.02726e-01,-3.87102e-02,7.34838e-02,-2.64872e-02,1.69748e-01,8.41073e-02,9.98102e-02,2.42379e-01,2.77842e-01,2.62791e-01,3.80338e-02,1.16874e-02,-6.08996e-02,-2.53567e-02,-1.27482e-02,-6.13299e-03,3.90480e-02,3.35753e-02,8.53841e-02,-2.74538e-02,1.69040e-01,3.17214e-01,-1.58858e-01,-5.61689e-02,1.30274e-01,2.35945e-01,1.37787e-01,7.24654e-02,-8.65527e-02,-5.67216e-02,4.83163e-02,-1.50351e-01,-8.11061e-02,-8.80901e-03,1.71040e-01,1.26176e-01,-7.18123e-03,1.38180e-01,7.10835e-02,1.79812e-01,3.09122e-02,-3.40190e-03,1.68820e-03,-2.91664e-02,-2.31428e-02,1.46026e-01,8.40686e-02,3.01672e-02,1.33861e-01,2.02787e-01,2.61577e-02,-4.63356e-02,-1.35831e-01,2.95304e-01,6.03707e-02,-1.12287e-01,1.24059e-02,1.28278e-01,-4.05704e-02,4.33174e-02,5.90924e-02,6.78040e-03,3.96764e-02,1.23904e-01,2.76075e-02,1.21307e-01,1.85141e-02,5.23859e-02,-3.16972e-02,5.88910e-02,3.31097e-02,1.81661e-01,1.83878e-01,1.70890e-01,1.40430e-01,2.44006e-01,1.09267e-01,-4.48467e-02,-2.58004e-02,6.03966e-02,5.21482e-03,-2.67385e-03,1.36071e-01,1.64221e-01,-6.77267e-03,-1.99937e-03,1.00853e-01,-6.29418e-02,1.11914e-01,8.85966e-02,1.93642e-01,1.79209e-01,-2.18088e-02,1.42570e-02,-7.41351e-02,8.90934e-02,7.18833e-02,8.28160e-02,1.29724e-01,1.61802e-02,2.41441e-01,9.67136e-02,2.54659e-02,1.20812e-01,2.35744e-02,-2.06101e-01,6.95891e-02,1.61705e-01,1.93515e-03,-1.14395e-01,1.41307e-02,2.30015e-01,-8.98220e-02,-3.45348e-02,-4.50862e-02,-1.79533e-01,-1.74033e-02,-8.61245e-02,-1.02794e-01,4.93008e-02,2.01570e-01,-3.99961e-02,4.72785e-02,4.29660e-02,7.94333e-02,-5.19690e-02,2.71134e-02,1.36706e-02,2.50666e-01,1.44187e-01,7.14874e-02,2.35126e-01,1.41561e-01,3.11057e-01,1.33685e-01,-5.59393e-02,-1.87112e-02,-2.44607e-01,8.33028e-02,2.12260e-01,2.08648e-02,-6.53121e-02,5.12179e-02,-4.20883e-02,5.70773e-02,-6.38621e-02,-3.82255e-02,-1.10225e-02,3.03280e-02,5.29019e-02,1.69945e-01,-1.25066e-01,4.66556e-02,1.49542e-01,2.57366e-02,-2.30294e-01,-6.56362e-02,-1.55121e-01,-2.43379e-01,-2.48236e-01,-1.00795e-01,1.09867e-01,-5.23477e-02,-8.52357e-02,5.91206e-03,-1.71081e-01,1.68897e-01,-1.84528e-01,-2.61211e-01,-4.30669e-02,-9.31580e-02,1.37064e-01,1.43686e-01,-3.73771e-02,-1.21346e-01,-1.93863e-01,2.40483e-03,-3.36478e-02,1.96555e-01,-1.26479e-02,-1.23433e-01,-8.78994e-02,-1.69851e-01,-2.62208e-01,-2.58745e-01,5.89213e-02,3.68607e-02,-1.07591e-02,1.59301e-01,1.20110e-01,-1.37054e-01,-1.22193e-01,1.39916e-01,-5.79814e-02,-1.68178e-02,1.17816e-01,2.95717e-01,2.97065e-01,3.01348e-01,6.15251e-03,1.98398e-02,1.61968e-01,3.27526e-02,1.16734e-01,2.98818e-01,1.83577e-01,2.43936e-01,3.67703e-01,7.06329e-02,3.83879e-02,1.41914e-01,-3.23964e-02,3.00744e-03,-8.86315e-02,1.35822e-01,8.43352e-02,-9.62809e-02,-3.47185e-02,-7.37687e-02,
-1.05673e-01,1.05414e-02,-1.06608e-01,9.96466e-02,1.68599e-02,-4.98457e-02,-6.01209e-02,3.56818e-02,1.97061e-01,-1.54986e-02,1.23103e-01,4.91085e-02,-1.77780e-01,-2.25804e-01,2.02895e-02,-3.62632e-02,1.95541e-01,8.25450e-02,-8.54123e-02,5.46595e-02,-9.18326e-02,-9.91421e-02,-5.69498e-02,-8.21215e-02,8.63000e-02,5.25027e-02,9.37724e-02,-1.66511e-01,-7.79337e-02,-6.96331e-02,8.06645e-02,7.54496e-02,-4.10663e-02,-4.94947e-02,-1.37491e-01,-1.67079e-01,1.60796e-02,1.27114e-01,-1.05722e-01,-3.10483e-02,1.26350e-01,9.73126e-02,-1.88061e-01,-7.83824e-02,7.91972e-02,2.56983e-01,-1.39397e-01,-2.80305e-01,-1.62612e-01,-2.88773e-02,-1.59464e-01,1.39963e-01,2.59760e-03,7.57510e-02,-8.69236e-02,4.30805e-03,3.44021e-02,-1.36339e-01,-7.07948e-02,2.10825e-01,2.73034e-01,6.95863e-02,1.86615e-01,8.86339e-02,1.36121e-01,3.44943e-01,2.74336e-01,3.54755e-01,2.31253e-01,-2.98633e-02,5.80414e-02,-1.71305e-01,-1.74517e-01,-1.00188e-01,-2.18406e-01,-7.19021e-02,-3.49499e-02,1.26385e-01,-1.60983e-01,6.72273e-02,2.06757e-01,5.67418e-02,1.68517e-01,1.88564e-01,-4.30731e-02,3.12319e-02,-6.27382e-02,-1.25489e-01,-2.38304e-01,-9.34451e-02,2.10252e-02,-1.99288e-01,-8.05459e-02,2.36185e-01,3.16413e-02,1.67022e-01,-9.01378e-02,-2.19193e-02,-1.09568e-02,-3.79681e-04,1.37835e-01,-6.26232e-02,1.13191e-01,-2.14653e-01,-1.80092e-01,-1.08051e-01,2.07371e-01,4.89230e-03,6.25412e-02,1.63439e-01,1.12398e-01,7.93112e-02,-1.02411e-01,-1.81097e-01,-1.45420e-01,-6.39585e-02,-2.48942e-01,-1.45569e-01,8.86117e-02,3.83001e-02,1.22994e-02,8.42737e-03,-8.96035e-02,-5.42103e-02,1.35830e-01,4.75089e-02,1.02521e-01,5.89889e-02,8.43531e-02,1.53355e-01,-9.79590e-02,-9.80367e-02,1.93827e-02,1.98801e-02,-6.15601e-02,-1.46139e-01,-2.74057e-01,7.41923e-02,-4.75535e-02,4.41015e-02,1.35937e-01,-1.29854e-02,-9.43836e-02,-7.08728e-02,7.62247e-04,-1.97895e-01,3.68231e-02,1.98393e-02,6.71211e-02,1.34532e-01,8.34955e-02,-6.65392e-02,8.71155e-02,1.41316e-02,2.11760e-01,-1.40389e-01,1.43863e-01,1.49867e-01,8.20354e-02,2.04653e-01,8.04470e-02,1.38595e-01,-8.02897e-02,-1.45225e-01,-2.80995e-01,-3.46778e-02,-3.38686e-01,-1.05267e-01,4.21288e-02,-9.04945e-02,-1.04748e-02,3.32624e-01,1.94061e-01,-1.40921e-01,-1.01393e-01,-3.29641e-02,-5.66539e-02,1.23030e-01,-2.02612e-01,-3.11604e-02,-5.05986e-02,-1.88747e-01,-1.42996e-01,-1.29859e-01,4.34818e-02,3.47088e-02,-1.31602e-01,-1.42576e-01,-1.72380e-02,6.48180e-02,4.70541e-04,-8.58698e-02,-1.32906e-01,-1.10769e-01,-5.77612e-01,-1.77720e-01,-1.54209e-01,3.90973e-02,2.02892e-01,6.41578e-02,1.53578e-01,9.71874e-02,1.75606e-01,9.44194e-02,-3.88999e-02,-7.83447e-02,-5.90387e-04,1.84914e-01,-9.74686e-02,1.17031e-01,-1.53214e-01,-1.20540e-01,3.87342e-02,-9.91077e-02,5.52937e-02,1.11206e-02,7.23723e-02,1.45072e-01,3.21414e-01,4.79274e-02,1.37762e-02,3.12927e-02,-1.36548e-01,-3.46315e-01,2.87813e-01,6.03264e-02,2.64174e-01,2.00470e-02,1.92558e-01,1.77528e-01,2.03913e-01,3.15766e-03,6.23708e-02,6.02898e-02,2.10785e-01,-8.56598e-03,7.19620e-02,8.66529e-02,-5.57492e-02,-6.95700e-02,-5.89505e-02,-2.80227e-01,5.52970e-02,1.23085e-01,9.62311e-02,8.48511e-02,1.31519e-02,1.56624e-01,6.04235e-02,-2.01880e-01,1.54655e-01,-3.07515e-01,9.64743e-02,3.85285e-02,1.77645e-01,-3.59917e-02,3.34911e-01,2.12630e-01,1.61163e-01,1.86969e-01,5.77197e-02,3.65641e-01,1.16400e-01,8.58792e-02,-1.46377e-02,1.29375e-02,5.11530e-02,-2.23776e-01,-1.18130e-01,-1.39502e-01,1.04286e-01,8.97084e-02,2.29441e-01,2.95413e-01,1.62503e-01,2.47738e-01,2.87774e-02,-2.54200e-01,-2.08456e-01,-3.90260e-01,8.68938e-02,3.93105e-01,-9.45703e-02,6.23871e-02,7.36547e-02,2.28221e-01,1.85029e-01,1.22703e-01,1.02710e-01,2.30400e-01,1.01431e-01,8.72855e-02,1.51189e-01,9.92899e-02,-1.17664e-01,-3.15932e-01,-6.65028e-02,-1.00485e-01,1.87855e-01,7.11270e-02,2.91247e-01,2.62043e-01,2.87215e-01,4.09447e-02,-1.21864e-01,-2.76435e-01,-3.22746e-01,-3.02879e-01,3.48715e-01,2.13199e-01,9.03239e-02,6.51031e-03,1.49887e-01,1.95705e-01,6.75553e-02,5.03517e-02,-1.13326e-01,8.49968e-02,1.31293e-01,2.69222e-01,5.88941e-02,-1.00149e-01,-1.98925e-01,-2.66859e-01,-9.94138e-02,-1.79185e-01,3.03093e-02,2.11623e-01,1.34253e-01,1.82259e-01,2.59943e-01,1.23313e-01,-1.63383e-02,1.76862e-02,-6.26288e-02,-1.87939e-01,8.91035e-02,2.68627e-01,2.36697e-01,-1.62024e-01,6.19607e-02,1.47081e-01,-3.96563e-02,1.22069e-01,1.63082e-01,3.17222e-01,1.45563e-01,3.17681e-01,-1.60870e-02,7.29899e-02,-1.63903e-01,-1.54340e-01,-1.73277e-01,1.83791e-02,-1.22552e-01,-2.62893e-02,6.37665e-02,2.27607e-01,1.38374e-01,1.57423e-01,2.18129e-01,2.64061e-02,-6.29584e-02,6.54660e-02,-1.09956e-01,2.64543e-01,2.31422e-01,3.55772e-02,-1.04884e-01,-4.30981e-02,-8.04045e-02,-9.68299e-02,2.50497e-01,3.26420e-03,1.04381e-01,1.41753e-01,7.25597e-02,-7.56549e-03,-1.54527e-03,3.53716e-02,-4.33436e-03,3.71163e-02,-2.65688e-02,1.84493e-01,-3.79610e-02,1.03490e-01,1.42266e-01,1.93465e-01,1.57563e-01,4.18837e-01,3.13835e-01,3.10917e-01,-1.30955e-01,-1.18121e-01,2.88232e-01,4.89820e-02,-6.64001e-02,-1.08496e-01,-2.08359e-01,7.00539e-02,-1.34467e-02,-1.74890e-01,3.02543e-02,6.86019e-02,1.63432e-01,4.22467e-02,-1.59228e-02,1.31836e-01,-1.20564e-01,1.35423e-01,7.20399e-02,8.36851e-02,1.48616e-01,-8.17886e-03,1.59416e-01,-5.43668e-02,1.68206e-01,3.52473e-01,4.03214e-01,2.67023e-01,-1.55248e-01,-1.92628e-01,-1.69477e-01,6.19395e-02,-1.27172e-01,2.27448e-02,7.43307e-02,8.78504e-02,6.42496e-02,4.50999e-02,6.53357e-02,9.30694e-02,-5.70640e-02,2.56877e-01,1.89462e-01,8.66005e-02,4.67923e-02,1.27113e-01,1.13699e-01,7.38849e-02,1.30233e-01,-1.80456e-02,7.24799e-02,-7.30765e-02,2.60285e-01,2.35642e-01,2.22731e-01,2.83377e-01,-1.67216e-01,-2.57769e-01,-1.57800e-01,-2.49240e-02,6.86853e-02,1.32144e-01,1.32188e-01,-1.12429e-01,1.15811e-01,1.39631e-01,1.20623e-01,1.01108e-01,1.75552e-01,2.47978e-01,6.34099e-02,2.36908e-01,4.00347e-01,3.41176e-01,2.89373e-02,2.18417e-01,1.49702e-01,2.17754e-02,6.41311e-02,6.20978e-02,9.77049e-02,4.04485e-01,3.53522e-01,1.83090e-01,3.72555e-03,-1.20360e-01,-9.22384e-02,6.14382e-02,1.02517e-01,3.21952e-02,2.04937e-02,-2.02664e-02,1.05228e-01,2.33201e-03,1.15398e-01,1.93603e-01,8.93942e-02,1.72554e-01,9.87508e-02,2.98654e-01,3.36011e-01,1.93521e-01,7.15857e-02,-7.50444e-02,9.19755e-02,7.30268e-02,1.00159e-01,-1.03215e-01,9.53131e-02,3.70537e-01,2.23403e-01,3.26134e-01,4.81555e-02,-2.68888e-01,7.30372e-02,-3.65953e-03,3.71052e-02,4.93050e-02,-7.88346e-02,1.62920e-01,7.82641e-02,-4.76930e-02,9.87154e-02,4.14408e-02,-2.62315e-02,2.47846e-01,8.22233e-02,4.53963e-02,2.77301e-01,8.28269e-02,1.06702e-01,1.92141e-01,1.87540e-01,1.78094e-02,6.21191e-02,3.78884e-02,-2.11372e-02,2.81909e-01,2.30312e-01,1.66451e-01,-1.49506e-01,9.94357e-02,1.08452e-02,9.54374e-03,-2.98134e-03,1.54977e-01,7.80440e-02,1.30653e-01,-1.17903e-02,-5.53629e-02,-8.57082e-02,-3.17013e-02,2.96966e-02,-2.52203e-02,7.82278e-02,-4.81198e-02,1.50792e-02,1.69941e-01,4.59644e-02,1.89749e-01,4.83473e-02,-2.22926e-02,8.77995e-02,2.11697e-01,-1.51438e-01,5.74891e-02,1.13348e-01,1.71515e-01,-8.32068e-02,2.12238e-01,2.06163e-02,2.40543e-01,1.64779e-01,9.32265e-02,-4.32801e-02,2.60711e-01,-1.33152e-01,-1.54465e-02,-1.10031e-01,-9.70997e-02,-9.32313e-02,-1.10218e-01,-1.25107e-01,1.40911e-01,-1.32451e-01,-9.21856e-02,-1.53882e-01,1.33263e-01,1.63836e-01,1.91102e-01,1.30366e-01,5.10440e-02,2.08828e-02,2.41155e-02,2.71133e-01,-1.03849e-01,-8.32548e-02,1.63667e-01,9.31120e-02,1.46616e-01,6.05516e-02,-4.86659e-02,1.64704e-02,9.56480e-02,-1.49321e-01,-1.01994e-02,-1.39791e-02,-5.50620e-02,9.20987e-02,-3.16989e-02,-1.38827e-01,-6.79024e-02,-7.52328e-02,1.13204e-02,-1.33989e-01,3.38548e-02,7.03560e-02,-6.90159e-02,1.41338e-01,1.20053e-01,-3.29893e-02,-5.24260e-02,3.41910e-01,5.97908e-02,-2.31154e-01,8.59195e-02,1.22102e-01,1.96191e-01,-5.85781e-02,3.48351e-02,9.68499e-02,1.29044e-01,6.70750e-02,8.54356e-02,1.89041e-01,4.87320e-02,2.45506e-01,1.17910e-01,1.05572e-01,-9.59304e-02,4.76312e-02,-2.21188e-01,-1.07571e-01,-2.74196e-02,-2.00960e-03,-4.93875e-02,-1.44371e-03,-1.33818e-01,7.06003e-02,-1.32152e-02,-1.69846e-01,1.32154e-01,-1.15249e-01,-6.44949e-02,1.36512e-01,-1.26040e-01,-1.32578e-01,-2.69021e-01,8.58567e-03,7.47948e-02,1.61028e-01,-2.58386e-02,-1.35974e-01,3.90886e-02,4.01619e-02,1.24570e-01,3.15781e-02,-4.07311e-02,5.11862e-02,-1.62656e-01,-1.22561e-02,2.00212e-01,3.57247e-02,1.42688e-01,7.31613e-02,-1.41778e-01,-1.00602e-01,3.32655e-03,-2.48464e-01,-9.13080e-02,1.18085e-01,-7.74114e-02,-1.01352e-01,-1.30442e-01,-3.13298e-02,-4.31202e-02,-4.32648e-02,-1.83321e-02,-4.42689e-02,-3.72306e-02,-1.07829e-01,1.50077e-01,1.12940e-01,4.48298e-02,1.21054e-01,2.74719e-02,1.15112e-01,1.24738e-01,6.64740e-02,-5.45773e-02,-1.60084e-01,-5.33253e-02,-1.98247e-02,-5.51085e-02,2.55856e-01,3.20869e-02,-5.27867e-02,-1.43025e-02,-6.82639e-02,-9.14625e-02,-1.53291e-01,-1.40783e-01,-4.76999e-03,4.70387e-02,1.13323e-01,-4.97058e-02,7.70393e-02,-1.26731e-01,-4.01083e-02,-6.76272e-02,4.82748e-02,7.06445e-02,1.17201e-01,8.80072e-02,9.89517e-02,1.08224e-01,-1.00916e-01,-3.28074e-02,-1.76724e-01,-1.33120e-01,-1.90674e-01,-2.14321e-01,-1.55879e-01,-2.08799e-03,2.47813e-01,4.79082e-02,1.42984e-01,-4.84621e-03,3.69295e-02,1.08081e-02,-1.88053e-01,-7.67904e-02,-1.06417e-02,-1.21128e-01,2.01690e-01,-1.53402e-01,8.72469e-02,-2.65112e-02,-7.32420e-02,-9.87353e-02,-8.03754e-02,2.67637e-02,-2.18680e-01,-5.92250e-02,1.25059e-01,8.35833e-02,-1.81906e-01,-1.65553e-01,-2.21467e-01,-8.16269e-02,-1.10566e-01,2.11889e-02,9.82680e-02,7.83983e-02,8.17402e-02,8.41907e-02,4.08314e-02,-1.99310e-02,1.27795e-01,6.31288e-02,-5.06572e-02,-3.20877e-04,-1.12110e-01,2.00830e-02,3.93114e-02,-2.27092e-01,-2.12351e-01,-1.24002e-01,-2.29439e-01,-1.57769e-01,-2.47511e-01,-9.84535e-02,-1.45152e-01,-4.80305e-03,-1.56955e-01,-1.34958e-01,-9.55296e-02,-4.23805e-02,5.31268e-02,-1.56499e-01,6.07910e-02,1.15254e-01,
-1.77725e-01,1.16494e-01,7.75866e-02,-1.17419e-01,1.19301e-02,-4.78919e-02,1.71555e-02,-8.35612e-04,1.02818e-01,5.27032e-02,2.06539e-02,-7.64439e-02,-3.37537e-02,2.94857e-02,1.44037e-01,1.47770e-01,1.41208e-01,-8.75173e-02,-5.73390e-03,-4.84298e-02,6.64293e-02,-1.17330e-01,7.90325e-02,-6.25313e-02,1.42973e-01,4.52532e-02,-1.61541e-01,1.02287e-02,-4.02764e-02,1.80203e-01,8.12706e-02,-7.13011e-02,2.31905e-01,-6.59432e-02,1.53281e-01,2.18934e-01,3.09737e-01,1.92446e-01,2.02094e-01,-1.39073e-01,5.07628e-02,6.58014e-02,-1.95078e-01,-8.11497e-02,1.53979e-01,5.05787e-02,1.12282e-01,2.75665e-01,5.21296e-02,1.27483e-01,1.54375e-01,1.21022e-01,-1.02081e-01,-1.49109e-01,-1.39934e-01,1.37213e-01,-2.33669e-03,-1.19183e-01,9.35201e-02,2.37885e-01,1.46505e-01,1.45314e-01,1.43212e-01,4.32506e-01,3.75818e-01,2.92894e-01,2.07524e-01,2.15483e-01,1.46734e-01,4.65624e-02,2.27062e-01,1.96347e-01,-5.67510e-02,1.55526e-01,-2.19202e-02,5.47372e-02,1.12122e-01,-7.37737e-02,1.06130e-01,2.27636e-01,3.11678e-01,1.18012e-01,1.14664e-01,-9.51607e-02,5.41670e-02,-2.76241e-02,3.60988e-02,2.91840e-01,2.22881e-01,2.22159e-01,2.09511e-01,4.32387e-02,3.12194e-01,2.53283e-01,3.87220e-01,4.14863e-01,3.94041e-01,3.83265e-01,3.41208e-01,2.76332e-01,7.17604e-02,2.48446e-01,9.81747e-02,9.23987e-02,6.36452e-02,1.26694e-01,-2.55127e-03,1.30844e-01,1.71561e-01,1.59480e-01,2.05794e-01,6.18823e-02,-1.67838e-01,1.34613e-01,-1.10011e-01,-5.69285e-03,-2.21130e-02,1.66736e-01,8.92252e-02,4.61796e-02,3.30168e-01,3.10895e-01,3.82597e-01,3.89503e-01,2.09331e-01,2.06237e-01,2.92308e-01,2.08997e-01,2.65792e-01,9.51901e-02,4.64426e-01,1.37347e-01,-1.07491e-01,1.76057e-01,-6.98185e-02,-1.42308e-01,8.57609e-02,4.60950e-01,3.81535e-01,9.49988e-02,-1.57944e-01,-1.50127e-01,2.43268e-01,1.94111e-01,-6.24079e-03,-8.18533e-02,2.42197e-02,1.09368e-01,-7.91380e-02,9.03806e-02,1.20680e-01,7.33779e-02,8.26642e-02,-1.02755e-02,-4.17720e-03,2.12821e-02,2.65748e-01,2.54222e-01,1.96985e-01,5.34397e-02,1.02954e-01,1.05908e-01,5.35773e-02,5.32375e-02,1.86991e-01,4.06947e-01,3.10485e-01,-2.41497e-02,-3.27807e-02,2.55794e-01,1.49089e-01,1.11110e-01,4.08651e-03,-1.01349e-01,4.26658e-02,6.93478e-02,1.49612e-01,1.92351e-01,9.60934e-02,-3.48504e-04,-6.62522e-02,2.02601e-03,9.64077e-03,1.79593e-01,-5.54506e-02,3.43982e-02,-2.84506e-02,8.14203e-02,8.81528e-02,-1.04546e-01,-2.17711e-03,3.74402e-01,3.60289e-01,3.16371e-01,4.30080e-01,3.09747e-01,-7.25398e-02,8.63298e-02,-1.86452e-01,1.46554e-02,2.52428e-01,7.67133e-02,8.08395e-02,9.09444e-02,6.43871e-02,8.06321e-02,7.58949e-02,-1.11719e-01,1.08099e-01,2.38430e-01,1.40012e-01,8.59401e-03,1.79453e-02,-5.09496e-02,-1.66158e-01,-2.58897e-02,1.80002e-02,-7.97323e-02,1.74068e-01,1.38492e-02,2.95352e-01,4.04279e-01,3.80133e-01,3.06526e-01,1.89927e-01,-9.67035e-02,2.33050e-02,-7.90022e-02,1.26822e-01,-7.33839e-02,-2.96989e-02,-1.22318e-01,-8.15909e-02,8.33175e-02,-9.52607e-03,-1.03672e-01,1.39932e-01,2.94873e-01,-8.34711e-02,-5.90387e-02,-1.33147e-01,2.17279e-02,1.10968e-01,3.36349e-04,8.45035e-02,-6.02339e-02,3.30278e-01,-4.18489e-02,1.18035e-01,3.32276e-01,5.51705e-01,1.66207e-01,9.48548e-03,-1.57498e-01,3.89711e-02,4.55119e-02,3.22761e-04,-9.07162e-02,1.95959e-02,1.27285e-01,-1.05993e-02,-1.20202e-01,8.70411e-02,1.10828e-01,1.06764e-02,-3.00152e-02,-5.28722e-02,-1.11605e-01,-1.04222e-01,1.67315e-01,-1.10503e-03,6.62331e-02,4.20027e-02,-4.64806e-03,1.15669e-01,1.33910e-01,1.13515e-01,3.07749e-01,3.78797e-01,-1.08266e-01,-1.12084e-01,-5.67545e-01,-4.90574e-03,2.40299e-01,1.51992e-01,-1.02088e-01,-2.03543e-01,3.45571e-02,-3.11898e-02,-1.87935e-01,-2.66524e-02,-1.04204e-01,5.22611e-02,-7.10910e-02,-2.69502e-01,-2.36075e-01,-3.98104e-02,-3.11315e-02,1.46078e-01,-6.32959e-02,3.70050e-02,-7.91556e-02,-1.07572e-01,1.39155e-01,1.11026e-01,1.11645e-01,4.74434e-01,1.12198e-02,-1.71045e-01,-2.50669e-02,-3.45577e-01,1.09461e-01,-1.62151e-01,1.53394e-03,-9.86400e-02,-3.59411e-01,-9.96636e-02,-7.42667e-02,-1.57987e-01,-4.12514e-02,1.63878e-02,4.70857e-02,3.23248e-04,-1.57463e-01,-1.23845e-01,-4.69313e-02,1.23943e-01,1.31923e-01,-6.28699e-03,-2.35651e-01,-1.08106e-01,9.82030e-02,6.97660e-02,2.94137e-01,4.51983e-01,-1.11199e-01,-2.46247e-01,-3.43174e-01,-1.46002e-01,6.12507e-03,-1.33252e-01,-1.59101e-01,-7.19468e-02,-3.04560e-01,-3.03035e-01,-1.32220e-01,2.73210e-02,1.21843e-01,7.53150e-02,1.96964e-01,5.58451e-02,5.62509e-02,2.36199e-02,-1.11776e-01,5.65744e-02,1.55364e-01,6.09514e-02,-2.39478e-01,-4.10290e-01,-2.38387e-01,9.35859e-02,7.07075e-02,1.61307e-01,3.21105e-02,1.14957e-01,-9.30590e-02,-3.18436e-01,-3.81337e-03,-1.35617e-02,-1.58899e-01,-1.15680e-01,-1.00924e-01,-1.71962e-01,3.40271e-02,1.79958e-01,2.11370e-01,2.39542e-01,3.35860e-01,1.20443e-01,8.59710e-02,-1.47893e-01,-2.39827e-02,3.63464e-02,1.31477e-01,-2.92355e-02,-3.14871e-01,-2.55525e-01,-2.49254e-01,-8.41579e-02,5.31542e-02,2.20337e-01,1.30095e-01,1.45868e-01,-1.39463e-01,-1.45619e-01,-4.75340e-02,-1.38341e-01,4.39446e-02,7.72674e-02,2.10423e-01,-1.10757e-02,8.27646e-02,4.58903e-04,6.61377e-02,2.15052e-01,2.31305e-01,3.52997e-01,-1.48694e-01,-1.01670e-01,1.29799e-01,9.23473e-02,-1.09262e-02,-2.08047e-01,-2.39861e-01,-2.14109e-01,-2.34115e-01,-1.82735e-01,1.57712e-01,3.23786e-01,4.99945e-02,-1.22979e-01,-1.35999e-01,1.15108e-03,-3.25415e-03,-6.12036e-02,2.87762e-01,2.10008e-01,9.56468e-02,8.05745e-02,8.50857e-02,3.04420e-02,7.40930e-02,1.48582e-01,1.69725e-01,2.55040e-01,1.82013e-01,2.62195e-01,2.43599e-01,-1.80921e-02,7.69271e-03,-1.44973e-01,-1.69541e-01,-1.01343e-01,-1.42752e-01,1.24440e-01,3.62786e-01,8.17721e-02,2.76373e-01,-2.56857e-01,1.25954e-01,2.07785e-01,4.63757e-01,1.36471e-01,1.37558e-02,2.39262e-01,1.49670e-01,-1.12768e-01,-6.83011e-02,1.09790e-01,1.05846e-01,2.98147e-01,3.94220e-01,1.59462e-01,-4.55051e-02,9.66311e-02,1.46256e-01,8.44239e-02,2.30728e-02,-4.07919e-02,-5.49006e-02,-1.70202e-01,1.79408e-01,1.33590e-01,4.46337e-01,1.12166e-01,1.83912e-01,-5.48199e-02,-8.24013e-03,3.00655e-01,2.85203e-01,2.35186e-01,1.81390e-01,1.72140e-01,6.45010e-02,4.14546e-02,-3.55432e-02,-3.34237e-02,1.15424e-01,3.07151e-01,1.11276e-01,2.84401e-02,1.45519e-01,2.97581e-01,7.73688e-02,1.09974e-01,7.41482e-02,4.07551e-02,-1.48321e-02,7.82242e-02,1.43753e-01,-1.19922e-01,1.88365e-01,3.71297e-01,2.11211e-01,-2.99679e-03,5.43533e-02,4.57641e-02,2.98855e-01,3.40252e-01,3.83744e-01,1.51423e-01,1.16464e-01,3.26364e-02,2.18203e-02,-7.14970e-02,1.62655e-01,8.83987e-02,5.89254e-02,5.41493e-02,8.59419e-02,1.78298e-01,1.26544e-01,-1.03583e-02,-2.86721e-02,1.15660e-01,7.11289e-02,-1.08108e-01,2.10895e-01,2.46518e-01,3.38123e-01,-9.46174e-02,2.07348e-01,-5.54505e-02,-2.78503e-01,-8.60949e-02,1.29589e-01,7.81896e-02,3.36771e-01,1.41515e-01,2.53569e-01,1.92176e-02,-8.19569e-02,8.23099e-03,7.39775e-02,2.87746e-02,6.33181e-02,2.25977e-01,1.93968e-01,1.34157e-01,1.86894e-02,1.74923e-01,3.19334e-02,1.99594e-02,1.13474e-01,1.49861e-01,4.70857e-01,2.61921e-01,1.27076e-01,3.53948e-01,2.57935e-02,-1.23503e-01,-7.47168e-02,2.71186e-01,2.77986e-01,3.83243e-01,1.49482e-01,1.57252e-01,1.41295e-01,-1.44908e-01,1.32809e-01,-1.58880e-01,-1.23164e-01,-7.77301e-02,9.31524e-03,1.76655e-02,7.27349e-02,6.69456e-02,1.18814e-01,3.55833e-01,3.63231e-02,2.28346e-01,2.15767e-01,2.14392e-01,3.17643e-01,7.84274e-02,2.12317e-01,3.21881e-01,-4.96960e-02,-1.35322e-01,3.60939e-01,1.97272e-01,5.26695e-01,1.99282e-01,-1.79537e-01,8.99486e-02,6.54527e-02,-1.42618e-02,5.24786e-03,-1.82300e-01,7.25347e-02,-8.06146e-02,6.92188e-02,6.55359e-02,7.42553e-02,-4.33296e-02,9.55243e-02,2.62170e-01,1.13792e-02,8.41609e-02,1.58777e-01,3.30122e-01,2.61622e-01,8.58249e-02,7.32583e-03,1.55232e-01,7.72360e-02,-5.69278e-02,1.28657e-02,3.18988e-01,4.80728e-01,4.47052e-02,-9.76912e-02,1.90743e-01,-6.45112e-02,-3.60505e-03,-6.76872e-02,-1.34486e-01,1.71495e-01,2.48289e-01,2.20336e-01,-1.12770e-01,1.35926e-01,-1.88418e-02,1.01340e-01,6.77139e-03,2.06406e-01,3.89727e-01,3.80971e-01,3.57004e-02,1.46332e-01,1.78399e-01,-9.69989e-03,-1.35263e-01,9.70647e-02,1.55877e-01,-1.53892e-02,2.88501e-01,2.28941e-01,1.70670e-01,-1.14147e-01,-1.45547e-01,-3.56832e-02,-4.16728e-02,1.39320e-01,-2.94144e-02,-3.40151e-02,-1.77863e-02,1.28243e-01,2.74311e-01,1.08267e-01,3.04770e-01,1.12294e-01,3.42714e-01,6.76257e-02,3.57307e-01,2.17623e-01,1.99631e-01,1.59399e-01,5.07882e-02,-4.82419e-02,-2.58126e-01,4.25239e-03,9.01174e-02,-6.42796e-02,1.07151e-01,2.44875e-01,-4.41688e-02,-1.70787e-01,-1.17684e-01,1.14970e-01,1.77120e-01,7.00069e-02,-3.92352e-03,6.02655e-02,2.05664e-01,1.36040e-01,2.05861e-01,2.61918e-01,2.65648e-02,2.05884e-01,1.16180e-01,5.06152e-02,5.65267e-02,5.36782e-03,1.02572e-01,1.87124e-01,2.30700e-01,1.86225e-01,1.62368e-01,-1.08189e-01,-1.76008e-02,-8.80217e-02,4.10594e-01,-8.12186e-02,-1.35398e-01,4.64125e-02,-6.04067e-04,1.34325e-01,-1.04225e-02,1.11296e-01,1.86566e-01,1.21995e-02,-1.47297e-01,6.87874e-03,-1.07012e-01,4.59586e-02,1.43169e-01,1.87745e-01,5.47309e-02,-2.69776e-02,5.82738e-02,-1.53200e-01,-5.61438e-02,1.07228e-01,6.35076e-02,-6.16438e-02,2.63970e-02,-1.04170e-01,-1.34930e-01,-2.54211e-02,1.00207e-01,1.73764e-02,8.02294e-02,9.27831e-02,2.64560e-02,-4.04453e-03,-1.52408e-01,-2.39437e-01,-6.28756e-02,-9.11849e-03,2.79255e-02,-1.53472e-01,-1.40840e-01,-3.82454e-02,-4.49499e-02,2.20909e-02,-1.00200e-01,4.86390e-02,1.31052e-01,6.62808e-02,-5.09047e-02,-8.22259e-02,-2.30802e-02,-4.73558e-04,-1.27458e-01,-2.08396e-02,6.14447e-02,-9.26274e-02,-3.02414e-02,-5.67718e-02,3.86865e-02,-3.20179e-01,9.86631e-02,9.08529e-02,-6.76351e-02,-1.43296e-01,-9.20111e-02,-2.10261e-02,1.27470e-01,-2.57996e-01,-2.77593e-02,-5.39625e-02,8.84712e-02,-4.36293e-02,2.90048e-02,-2.46181e-01,-7.74424e-02,1.72911e-01,-2.86307e-02,-7.32589e-02,1.20627e-01,-1.45960e-02,-9.38464e-02,1.07602e-01,
-1.01904e-01,-1.32094e-01,-5.05535e-02,-1.50242e-02,-2.21384e-02,6.53263e-02,2.50228e-02,1.03766e-01,-5.50360e-02,4.82412e-02,1.86942e-04,-9.98365e-02,7.07978e-02,2.17311e-02,8.52010e-02,-2.76553e-03,-6.59013e-02,-6.53564e-02,2.83921e-02,1.01141e-01,-1.37307e-01,7.70147e-02,-1.61984e-01,1.75449e-02,6.99203e-02,-8.81051e-02,1.07727e-01,-7.63810e-04,1.03839e-01,-9.83315e-02,-5.35045e-02,4.61097e-02,-6.58817e-02,2.99875e-02,-1.16112e-02,-3.64307e-02,-5.29514e-02,-2.24751e-01,-1.36588e-01,-6.17217e-02,-2.80087e-01,-7.62934e-02,1.10473e-01,-1.01827e-01,-2.96631e-02,-6.75745e-02,-1.30649e-02,-7.93681e-02,-1.54939e-01,-2.50300e-01,-2.30371e-01,-2.51167e-01,1.78669e-03,8.79913e-02,3.50234e-02,1.15344e-02,-6.81943e-02,1.48006e-01,1.24785e-01,-1.52564e-01,-8.52149e-02,6.69963e-02,-1.19231e-01,-2.37831e-01,-2.32425e-01,-4.46883e-01,-1.07692e-01,-5.23132e-01,-5.05945e-01,-4.89782e-01,-4.09895e-01,-2.68999e-01,-2.05356e-01,-1.75639e-01,-2.91453e-01,-1.51483e-01,-1.78849e-01,-3.68973e-01,-2.44636e-01,-2.82262e-01,-8.40096e-02,-1.39351e-01,-5.86962e-02,-1.64871e-01,2.99596e-02,-1.11063e-01,-4.28878e-02,-3.42336e-01,-6.12056e-02,-3.78876e-01,-1.96690e-01,-2.53556e-01,-3.03196e-01,-2.81036e-01,-2.91069e-01,-3.64348e-01,-5.93856e-01,-5.80699e-01,-3.66549e-01,-2.87826e-01,-4.78748e-01,-2.57946e-01,-3.04696e-02,-8.07913e-02,-2.00436e-01,-5.48337e-02,1.40595e-01,4.80753e-02,-2.23695e-01,-6.72047e-02,1.84708e-02,6.99933e-02,3.79018e-02,9.98042e-02,3.07465e-02,-5.84668e-02,9.32992e-02,-1.21739e-01,-1.30425e-01,-3.62967e-01,-2.02929e-01,-2.65305e-01,-5.36902e-02,-1.32418e-01,3.82381e-02,3.55456e-02,9.47658e-03,-1.82486e-01,9.62721e-02,-4.88177e-02,-2.24955e-01,1.21269e-01,7.54154e-02,1.22051e-01,2.51969e-02,4.08155e-02,-4.61693e-04,-1.16760e-03,6.28134e-02,-2.35491e-01,1.99637e-02,-1.00603e-01,1.74165e-01,3.37258e-01,2.21815e-01,-1.07097e-01,5.38132e-02,-7.85389e-02,3.47319e-02,1.08657e-01,1.29054e-01,1.05495e-01,2.39221e-01,-5.44978e-02,-1.10929e-01,-3.67517e-02,-2.15335e-02,5.97692e-03,1.06990e-01,1.29945e-01,-8.60654e-02,6.37433e-02,1.29965e-01,-8.13990e-02,-8.80518e-02,1.72905e-01,-9.40040e-02,-2.66409e-01,-2.09878e-02,5.54289e-03,-1.00965e-01,-1.06782e-01,-4.21311e-02,6.80054e-02,1.07154e-01,-1.61932e-01,2.42456e-01,3.03582e-01,2.03007e-01,2.14674e-01,5.71565e-02,6.75612e-02,-9.67159e-02,2.62619e-02,-2.45498e-02,-1.29508e-01,1.39942e-01,-1.03891e-01,1.16690e-01,8.05211e-02,7.17464e-02,2.55837e-01,5.51160e-02,-8.21437e-02,1.60318e-01,2.98953e-02,1.50083e-01,3.33288e-02,5.65761e-02,1.78558e-01,1.61107e-02,1.39834e-01,-9.73811e-02,-1.40039e-01,8.76545e-02,4.69814e-02,7.42080e-02,4.32034e-02,1.16321e-01,8.73873e-02,1.18545e-01,4.54035e-02,6.27036e-02,-8.86763e-03,2.51608e-01,7.56849e-02,-1.09895e-01,2.03200e-01,1.64681e-01,1.46203e-01,1.14791e-01,1.83525e-01,5.81434e-02,-8.85693e-02,-1.90197e-01,-2.55021e-01,-1.42164e-02,3.73371e-02,2.80683e-01,1.03272e-02,1.50833e-01,-2.08517e-02,8.26311e-02,2.27292e-01,1.25752e-02,5.04610e-02,-7.32932e-02,2.24435e-02,-1.43722e-01,3.02272e-02,6.50385e-02,1.61198e-01,1.95114e-01,2.19867e-01,1.32466e-01,1.05866e-01,2.29454e-01,-7.52809e-03,3.11763e-02,2.72586e-01,1.87057e-01,1.41291e-01,-4.81716e-02,5.82253e-02,-6.68829e-02,7.76889e-02,-3.99844e-02,1.03569e-01,8.61604e-02,6.97813e-03,2.01238e-01,9.29369e-02,1.47178e-01,8.05400e-02,9.26748e-02,-4.91347e-02,3.78255e-03,-4.26875e-02,-9.48789e-02,8.12547e-02,1.85197e-01,1.64269e-01,4.07005e-02,7.25915e-02,8.63247e-02,4.04390e-02,1.47828e-02,4.46021e-02,5.02210e-02,-1.50483e-01,9.97785e-02,1.02511e-01,-1.22496e-01,-1.74517e-01,7.15571e-03,4.64068e-02,-3.02120e-02,1.36367e-01,1.87445e-01,-2.57654e-02,1.95596e-01,1.13164e-02,5.74313e-02,-2.56137e-02,2.95652e-02,1.77339e-02,-1.12373e-01,8.54370e-03,1.09798e-01,2.38971e-01,-4.45598e-03,5.09878e-02,2.27856e-01,2.27413e-01,-4.96338e-02,5.07504e-02,1.64476e-01,-4.79410e-02,-6.59237e-02,-2.92381e-01,8.18053e-02,-1.30296e-01,6.98624e-02,-1.35682e-01,1.69739e-01,9.83092e-02,2.22606e-01,1.18258e-01,1.08512e-01,1.37053e-02,2.33504e-01,-1.32293e-02,1.34624e-01,-7.02206e-02,-6.04101e-02,5.91533e-02,1.27246e-01,7.78516e-02,2.37600e-01,8.46742e-02,1.27053e-01,8.93999e-02,4.67764e-02,1.44453e-01,2.10658e-01,1.62198e-02,7.08459e-02,-1.42154e-01,5.30250e-02,-1.44434e-01,-1.96908e-01,-8.49267e-02,-1.24314e-01,2.67711e-01,-2.33302e-02,9.34298e-02,-3.66118e-02,-1.57656e-02,1.26970e-01,2.98986e-02,3.69088e-02,-1.03365e-01,-1.59198e-02,2.06515e-01,1.25400e-01,1.35371e-01,1.11348e-01,1.03784e-01,4.07479e-02,2.43400e-01,-5.46496e-04,7.14655e-02,8.66847e-02,-2.44927e-01,1.53889e-01,-2.33687e-01,-1.88989e-01,-1.04867e-01,2.14462e-02,-1.02369e-01,-8.48622e-02,1.19270e-02,1.29419e-01,1.07180e-01,5.57795e-02,2.53384e-02,-2.30509e-02,1.60922e-01,1.17944e-01,7.08727e-02,8.24066e-02,1.73734e-01,3.30151e-01,1.33436e-01,2.64649e-01,4.02468e-02,-4.71205e-02,8.47117e-02,-2.29242e-01,-6.30298e-03,-8.65009e-02,4.37196e-02,-9.69691e-02,1.32728e-01,-1.71402e-01,-6.27117e-03,-3.61692e-02,-1.81964e-01,5.74164e-02,-1.96961e-01,6.97153e-02,-8.24310e-03,-1.49436e-01,1.08450e-01,5.39337e-02,8.99679e-02,7.73609e-02,4.25282e-02,-7.92725e-02,1.74944e-01,9.97235e-02,2.06274e-02,9.85431e-02,-1.32347e-02,-7.50556e-02,-1.83428e-01,-1.80786e-01,-2.39161e-02,-2.77368e-01,-5.50198e-02,-6.10775e-02,2.87182e-01,1.31870e-01,-5.17375e-02,-1.59494e-01,-2.48338e-01,-3.98308e-02,9.67936e-02,-9.11681e-03,-3.92119e-02,-1.01938e-01,8.45007e-02,-2.08204e-02,1.20960e-01,1.63467e-01,4.91357e-02,1.36829e-01,1.94135e-01,-1.94676e-02,-1.77421e-01,-7.73247e-02,-1.79207e-01,-1.27791e-01,4.49417e-02,-1.40847e-01,-2.20255e-01,-3.19151e-01,-1.17734e-01,-1.34396e-01,2.73343e-01,2.61320e-01,1.45587e-01,-3.07323e-02,-2.11584e-01,-9.94912e-02,-4.36614e-03,1.24889e-01,-1.37562e-01,-2.02640e-02,-2.18887e-03,1.92173e-01,2.55691e-03,1.30384e-01,1.16094e-01,-5.02497e-02,6.01618e-02,-2.56286e-01,-2.85012e-01,-1.13159e-01,-2.54412e-01,-2.00258e-01,1.31968e-02,3.82133e-02,-1.86810e-01,-1.59348e-01,-8.49220e-02,1.24942e-01,3.29504e-01,1.16647e-01,-1.16127e-01,6.07071e-02,-1.51779e-01,-2.47275e-01,-3.95894e-02,-5.60690e-02,9.53013e-03,-1.01049e-01,-1.38757e-01,8.39002e-02,-3.83684e-02,3.03375e-02,-6.44304e-02,-1.83031e-02,-1.88970e-01,-1.51574e-01,-2.14838e-01,-2.44731e-01,-1.39172e-01,9.35933e-02,-2.36766e-02,-1.25510e-01,-1.73589e-01,-1.23396e-01,-1.47309e-01,-2.94671e-02,1.30414e-01,3.09768e-01,-1.49434e-01,-3.17206e-01,-2.07299e-02,-8.35873e-02,-8.01043e-02,-2.10427e-01,-2.57762e-01,3.90601e-02,3.27910e-02,-4.48917e-02,-9.34892e-02,-1.10562e-01,-8.63712e-02,-1.72485e-01,-1.19373e-01,-1.27803e-01,-1.54837e-01,-1.60964e-01,-2.58318e-01,8.18976e-02,-1.54572e-01,-1.00922e-01,-2.24280e-01,-4.09479e-02,-1.29596e-01,1.70355e-01,-1.63468e-01,1.90523e-01,2.59776e-03,-3.30067e-01,-7.43986e-02,-1.92160e-01,-2.49126e-02,-1.25312e-01,-5.40957e-02,-1.28021e-01,-7.19523e-02,2.81783e-02,-1.15483e-01,-1.70332e-01,-1.38115e-01,-2.79740e-02,1.61674e-02,-5.38041e-02,-3.09583e-02,-5.94419e-02,-3.68409e-02,-2.51334e-01,-8.02357e-02,-5.81063e-02,-3.36836e-01,-2.31260e-01,2.06963e-01,1.69525e-04,4.11551e-02,1.22227e-01,-6.41246e-02,-1.94714e-02,5.75786e-05,-5.89384e-02,-8.99399e-02,4.35513e-02,-8.21613e-02,-1.63453e-01,-1.10801e-01,7.30937e-02,4.95798e-02,8.74117e-02,-5.41014e-02,-8.39018e-02,-1.02458e-01,-1.86454e-01,-2.49969e-01,-3.34440e-01,-6.30361e-02,-2.37863e-02,-1.18088e-01,-1.97019e-01,-4.21267e-02,-4.44860e-01,1.87566e-01,5.45662e-02,2.38433e-01,-1.76659e-01,-2.39007e-01,-7.83992e-02,-1.33642e-01,2.03316e-01,-1.23251e-01,1.79674e-04,-2.05018e-02,-3.69698e-03,-4.76213e-02,8.23990e-03,6.74345e-02,-1.32819e-01,-9.46478e-03,-7.75140e-03,-1.19333e-02,-7.05145e-02,-1.50248e-01,-3.46178e-01,-2.80574e-01,-1.41887e-01,-8.54358e-02,-6.78528e-02,-2.15686e-01,-4.03459e-01,-4.46605e-02,-8.46907e-02,2.16491e-01,8.87406e-02,1.19013e-02,-2.00437e-02,-1.07265e-01,1.36234e-01,2.04058e-01,8.45419e-02,4.72930e-02,-1.83258e-01,-6.72042e-02,1.13482e-01,7.34965e-02,2.04152e-01,4.29500e-02,-1.57431e-01,5.09081e-03,-1.74546e-01,-7.94160e-02,-1.16786e-01,-2.30104e-01,-1.97156e-02,-6.09640e-02,9.26961e-04,7.52494e-02,-6.46877e-02,-1.50339e-02,-1.70361e-01,3.07490e-02,1.82199e-01,-7.84932e-02,-6.46377e-02,9.60502e-02,1.22166e-01,1.78821e-01,-6.38554e-02,1.82481e-01,2.00334e-02,-3.80484e-02,2.02256e-01,1.93214e-01,2.00314e-01,1.58135e-01,2.85849e-01,2.05227e-01,7.87961e-02,-8.38978e-02,-1.92588e-01,-2.26067e-01,-1.82355e-02,4.74869e-02,1.27570e-02,-2.92999e-03,4.95349e-03,9.96030e-02,6.89579e-03,-1.04935e-01,2.79421e-01,6.47848e-03,-1.02694e-01,-1.56994e-02,2.53259e-02,1.21557e-01,1.46601e-01,-2.97661e-03,1.50019e-01,1.66992e-01,1.80146e-01,1.34025e-01,1.23809e-01,3.23545e-02,1.87011e-01,5.95348e-02,9.19358e-02,3.31979e-01,-6.86333e-02,-2.74415e-01,-1.66147e-01,1.37347e-01,-2.54576e-01,-1.68451e-01,-1.94950e-01,-2.98860e-02,6.91889e-02,1.28007e-01,1.50532e-01,8.21959e-02,-5.77260e-02,5.27349e-02,-3.89250e-02,1.19127e-01,1.57856e-01,2.94516e-02,1.48823e-01,8.86880e-02,4.06847e-02,1.36200e-01,2.25104e-01,2.12859e-01,1.71883e-01,2.11833e-01,1.92876e-01,2.10185e-01,2.04969e-01,-1.87371e-01,-3.05298e-01,3.31758e-03,-9.88197e-02,-3.06955e-03,-3.01060e-02,3.87931e-02,-8.39535e-02,-9.32565e-02,1.86101e-01,-1.26433e-02,1.50461e-01,6.23490e-02,1.06495e-01,6.08449e-02,-2.68282e-02,2.29620e-01,1.34409e-01,1.42859e-01,1.59400e-02,1.55061e-01,3.25197e-01,-3.99289e-02,8.60214e-02,1.53930e-01,1.26517e-01,-1.42181e-01,1.41327e-01,3.29182e-01,1.30884e-01,1.42875e-01,-8.00317e-02,4.26725e-02,1.06466e-01,-7.89115e-02,3.66078e-02,2.68882e-02,-1.65457e-02,3.31931e-02,-2.91281e-01,-1.70455e-02,1.34552e-01,1.73964e-01,-3.41649e-02,-1.86416e-02,-1.39902e-01,2.60419e-01,2.24759e-01,-1.23610e-01,2.37977e-01,1.91584e-01,2.02607e-01,2.04042e-01,2.44683e-02,8.72767e-02,8.98406e-02,1.16793e-01,-1.04355e-01,-1.04848e-01,1.14781e-01,-3.49484e-03,6.27492e-02,4.75810e-02,
-1.62464e-02,-5.84905e-02,-3.83810e-02,-8.03305e-02,-1.68236e-01,5.34408e-02,1.59345e-01,8.91696e-02,-3.89686e-02,-5.24404e-02,6.62554e-02,-6.56418e-02,1.16863e-01,1.30773e-01,1.00373e-01,5.86963e-02,5.72960e-02,-5.68074e-02,7.97658e-02,-4.11254e-03,-1.36600e-02,-7.09947e-02,-5.38909e-03,1.08811e-02,-2.89065e-02,-6.97205e-02,-5.23025e-02,-1.23562e-02,-1.09254e-01,1.24168e-01,4.42414e-02,-5.04676e-02,8.56826e-02,1.68675e-02,3.30235e-01,3.43770e-01,1.81446e-01,3.96762e-01,3.35828e-01,1.59858e-01,1.38376e-02,1.62843e-01,1.17841e-01,-2.67648e-01,-3.59135e-01,-9.04144e-02,4.43157e-01,4.04749e-01,4.21006e-01,2.92553e-01,2.24787e-01,4.08779e-02,1.20326e-01,-1.21651e-01,6.76063e-02,9.50490e-02,8.20312e-02,8.49555e-02,9.24621e-02,-1.09165e-01,2.63182e-01,2.06800e-01,4.17157e-01,3.55100e-01,2.51224e-01,1.19637e-01,2.64989e-01,1.65757e-01,3.70697e-02,2.63812e-01,1.23145e-01,8.57728e-02,8.22486e-02,4.30622e-02,1.60955e-01,-3.10438e-02,8.22899e-02,3.34542e-01,2.20744e-01,1.26969e-01,1.62088e-02,-1.39843e-01,1.38486e-02,1.99800e-01,5.12751e-02,1.85844e-01,-1.26280e-01,-1.79937e-02,-2.72980e-02,1.42490e-01,1.59014e-01,3.20586e-02,-4.85607e-02,9.79991e-02,4.45714e-02,1.34237e-01,5.56322e-03,-1.19741e-01,1.43637e-02,-1.70003e-01,-6.83175e-02,-3.87085e-03,-1.90311e-01,-1.66346e-01,-6.85307e-02,4.75803e-02,4.93421e-03,1.96988e-01,6.80965e-02,-1.22007e-01,-1.77063e-01,1.15015e-01,1.57915e-01,-2.20747e-02,-1.92221e-01,-1.57486e-01,3.08679e-01,2.13729e-01,2.21752e-01,-4.11937e-02,4.06874e-02,5.61694e-02,1.91379e-01,1.61439e-01,2.35729e-01,4.56876e-02,1.39573e-01,-2.91091e-01,-1.27332e-01,-7.21302e-02,-1.88494e-01,4.44733e-03,-6.44411e-02,7.47619e-02,-9.24741e-02,2.26005e-01,-1.16233e-01,-2.14756e-01,-1.19155e-01,1.90855e-01,-1.08122e-01,2.12252e-03,1.93143e-01,6.47663e-02,3.99529e-01,2.89619e-02,-1.45512e-01,6.45740e-02,-2.03581e-02,1.41530e-01,6.01717e-02,7.74469e-02,1.95591e-01,2.35483e-02,-3.01050e-02,1.48484e-01,7.67092e-03,1.39738e-01,6.73362e-02,-1.84777e-02,-1.39793e-01,-1.27068e-02,-1.13611e-03,3.40357e-02,2.02456e-01,-9.72295e-02,2.45723e-02,2.78735e-01,4.59261e-02,-1.17928e-01,-2.40527e-01,-2.61387e-02,-1.15071e-01,-4.10276e-02,-6.63922e-02,4.65384e-02,-3.12877e-02,2.45044e-02,-9.37437e-02,7.77855e-02,2.43342e-01,-3.69861e-02,2.10647e-01,1.24282e-01,1.57240e-01,1.54175e-01,4.35841e-03,3.26906e-02,-1.46346e-01,-8.03320e-02,-1.34287e-02,2.44169e-01,-6.39043e-02,1.79901e-01,5.36094e-02,-2.97437e-02,4.09006e-02,-3.93908e-01,-1.18881e-01,-1.14612e-01,2.20922e-01,1.05388e-01,-1.93615e-01,-1.69494e-01,-2.37845e-01,5.40376e-02,1.55793e-01,2.02318e-02,-7.50113e-03,2.35490e-01,1.95750e-01,2.03612e-01,1.83353e-01,-1.02118e-02,8.25806e-02,-2.39113e-02,-1.13395e-01,-7.88287e-02,-8.77596e-02,-6.71181e-03,1.03554e-01,-1.58130e-01,5.41658e-02,-2.19310e-01,9.60174e-02,-1.98210e-01,-7.89165e-02,1.41820e-02,8.07480e-02,-8.35230e-02,1.11769e-01,7.89857e-02,-7.25532e-02,7.64589e-02,-8.33181e-02,3.43723e-02,2.02514e-01,2.12500e-01,2.40775e-02,2.56383e-01,1.97131e-01,-6.37986e-02,-4.52590e-02,-6.38196e-02,-1.45303e-03,-1.63045e-01,-5.74696e-02,4.85616e-02,1.49993e-02,-1.04284e-01,1.51692e-01,6.68833e-02,8.10363e-03,-2.66462e-01,4.52054e-02,1.00965e-01,-1.19334e-01,4.49094e-02,-2.35916e-02,5.22506e-02,-6.26084e-02,-5.99838e-02,-4.00555e-02,-1.54290e-01,-4.54367e-02,6.16034e-02,1.22131e-01,9.25686e-03,-1.64178e-02,5.92083e-03,-1.21357e-01,1.86601e-01,2.47542e-02,-4.14277e-02,9.16918e-02,-2.42552e-02,-8.52386e-02,-2.53650e-01,-3.60576e-02,-2.52851e-01,-1.93778e-01,-4.86304e-01,-2.72868e-01,1.64018e-03,-1.93316e-01,3.73468e-02,-2.93231e-02,1.76595e-02,6.24483e-02,-5.35896e-02,-6.53510e-02,2.49186e-02,7.99703e-02,3.08627e-02,-2.42802e-02,4.18094e-02,5.36969e-02,1.73124e-02,1.06010e-02,1.50128e-01,-1.11277e-01,3.61868e-02,-5.78063e-02,1.26236e-01,-1.10691e-01,-9.43323e-02,-1.48871e-01,2.26645e-02,-1.38741e-01,-5.96244e-02,-1.80727e-01,9.83265e-02,-1.74393e-01,6.62627e-02,-7.91195e-02,1.67302e-02,4.18031e-03,1.19429e-01,4.31179e-02,-2.36012e-03,1.27698e-01,-2.29943e-02,6.47839e-02,-4.04955e-02,-7.94324e-02,6.45174e-03,-8.47454e-02,-1.63577e-02,1.90530e-03,-9.98786e-02,-1.75589e-01,-1.60156e-01,-1.08277e-01,-1.06735e-01,-4.48169e-03,4.37908e-02,-1.28823e-01,-2.56517e-01,-1.66103e-01,-1.01319e-01,-8.90961e-04,-7.64110e-02,-1.41192e-01,1.14799e-01,-4.54454e-03,1.33226e-01,-8.09731e-02,1.30133e-01,5.54478e-02,8.12370e-02,1.34237e-01,-7.49559e-02,-8.99880e-02,8.14661e-02,-1.18588e-01,-2.79381e-02,-1.13146e-01,-4.82555e-03,-6.94536e-02,-4.14500e-02,-2.38520e-02,4.67580e-03,-3.34869e-01,-2.66122e-01,1.64675e-01,-1.73117e-01,-2.53103e-01,5.87348e-02,-4.90514e-02,-1.29087e-01,1.79648e-02,7.28795e-02,-7.40283e-02,1.55560e-01,-6.87895e-02,-1.86020e-03,6.65399e-02,3.40018e-02,1.78445e-01,9.38031e-02,1.45059e-01,7.16629e-02,-5.07233e-02,4.66060e-02,-9.16137e-02,1.86122e-01,-1.73277e-02,5.79521e-02,1.25666e-01,-4.11029e-03,-1.35320e-01,-1.26617e-03,-1.41478e-01,-1.68904e-01,-4.71615e-01,-1.24929e-01,-8.39799e-03,-3.66865e-02,-9.40642e-02,4.15316e-02,1.43011e-01,1.00798e-01,-3.94929e-02,1.01009e-01,1.65746e-02,1.03254e-01,7.65527e-02,-1.02616e-01,5.25152e-02,9.61531e-02,-6.54563e-02,3.99377e-02,-1.32263e-01,-1.03864e-02,-9.01658e-02,-2.27158e-01,-1.15075e-01,9.42243e-02,-4.48400e-02,1.51139e-01,-2.01772e-01,-1.07835e-01,-1.40792e-01,1.20154e-01,-1.13572e-01,-6.73704e-02,8.79624e-02,-2.28761e-02,1.79265e-01,1.90141e-01,1.49794e-01,5.61088e-02,1.76393e-01,3.34012e-01,1.98152e-01,-8.90588e-02,1.94927e-01,1.48423e-01,-6.83941e-02,7.73049e-02,-2.92104e-01,-1.01585e-01,4.75665e-02,-8.81564e-03,-1.39197e-01,1.70824e-01,1.46280e-01,2.61487e-01,-8.47502e-02,-8.26728e-02,-1.64737e-01,-1.48657e-02,-1.42915e-01,-8.28312e-02,7.79455e-02,6.31722e-02,1.33255e-01,2.83432e-01,1.81285e-01,1.29261e-01,1.02634e-01,1.91847e-01,7.33180e-02,-2.36477e-02,1.12576e-01,-3.91498e-02,-3.79561e-02,-4.88836e-02,-3.11216e-02,-1.53171e-01,4.12213e-02,-6.18920e-02,1.29463e-02,3.02095e-01,2.35327e-02,-5.39820e-02,-8.66700e-02,-7.62437e-02,1.83338e-01,-1.89658e-01,-5.80610e-02,-8.27232e-03,-2.16631e-02,4.03771e-02,-1.57225e-04,1.16086e-01,1.13819e-01,-4.47817e-02,7.87476e-02,1.95860e-01,-5.29836e-02,1.51453e-01,3.11475e-02,1.10902e-01,-2.64730e-02,8.52228e-02,5.30698e-02,1.42715e-01,4.01270e-02,-1.21638e-01,-6.61718e-02,1.00012e-02,9.51559e-02,6.00104e-02,3.76160e-02,-1.44270e-01,-2.25528e-02,-2.77758e-01,6.44087e-02,-7.39711e-02,3.24091e-02,-4.59161e-02,6.34356e-02,9.83269e-02,-1.13485e-01,-7.35530e-02,1.18781e-01,7.68486e-02,6.37718e-02,1.04793e-01,1.17193e-02,7.91717e-03,2.18229e-02,1.42617e-01,1.36453e-01,1.92973e-02,9.37574e-03,-1.04433e-02,-1.86812e-02,-8.62947e-02,3.49185e-02,3.05527e-01,8.75302e-02,-2.69954e-02,-9.11541e-02,-5.17453e-02,-8.81354e-02,-1.72089e-01,-4.73390e-02,-1.17742e-01,-1.60342e-01,-1.63082e-01,-4.27292e-02,-1.41386e-01,1.98723e-02,1.25786e-01,-5.60328e-02,1.47013e-01,2.31675e-01,-8.72337e-02,-7.92320e-02,1.02519e-01,1.21204e-01,-6.27701e-02,-4.19093e-02,2.14442e-03,-1.43238e-01,4.78129e-02,2.42984e-01,3.43147e-02,4.53293e-02,-1.89096e-01,-1.16914e-01,-2.00361e-02,-1.10728e-02,-4.85773e-02,-1.48736e-01,1.58777e-01,-1.39037e-01,-5.65711e-03,2.00010e-01,-1.03719e-01,1.48812e-01,-1.46049e-01,1.28478e-01,2.10743e-02,-8.78792e-02,-9.50022e-02,-1.17682e-01,-3.75262e-02,1.98712e-03,2.18896e-01,2.27963e-02,-5.82265e-02,-1.14782e-01,-1.67467e-01,1.82381e-01,-6.20975e-02,1.82249e-01,2.26813e-01,1.52507e-02,-1.08470e-02,-1.39154e-01,3.13501e-02,9.82583e-02,-1.34540e-01,5.54663e-02,-1.24751e-01,1.50280e-01,-1.06903e-01,6.15000e-02,3.08444e-02,4.75648e-02,1.00201e-02,-2.18910e-02,-7.44975e-02,7.40617e-02,1.01667e-01,-4.33091e-02,1.23740e-01,1.40701e-01,1.85807e-01,-7.63973e-02,-1.70916e-01,1.25187e-01,-5.01442e-02,3.41265e-02,-2.45515e-02,2.26577e-01,1.48159e-01,3.61432e-04,7.93137e-02,1.05866e-01,7.15619e-02,1.87954e-01,-4.74242e-02,6.29917e-02,4.06904e-02,-8.58040e-03,6.68885e-02,1.54252e-01,7.81562e-02,8.07738e-02,5.48805e-02,3.75189e-02,-2.15619e-02,-5.06040e-02,1.90805e-01,-3.32356e-02,-7.54041e-02,-6.91199e-02,-1.73594e-01,-1.22109e-01,-3.03369e-02,3.75185e-02,-1.76169e-01,-1.05341e-02,-1.09083e-01,-2.87155e-02,-1.54004e-02,-3.09883e-02,8.02709e-02,1.68395e-01,6.84582e-03,6.43441e-02,6.42047e-02,2.31856e-01,2.09777e-01,1.36369e-01,-5.60320e-02,2.50414e-01,-6.72702e-02,1.72441e-01,7.94148e-02,2.20760e-01,-1.88885e-02,-6.28784e-04,2.70813e-01,-1.23930e-01,6.35938e-02,1.03593e-02,-5.47056e-02,-3.87676e-02,2.09189e-02,-7.05390e-02,-2.16266e-01,-2.70779e-01,-9.92235e-02,3.60550e-02,1.19026e-01,-5.98671e-02,9.13994e-02,1.83228e-01,-3.93082e-03,-5.71655e-02,1.10889e-01,1.27069e-01,2.01088e-02,9.54911e-02,7.39266e-02,-4.83709e-02,7.91356e-02,1.13920e-01,1.63900e-02,1.40830e-02,6.39388e-02,7.71268e-02,3.93776e-01,1.16032e-01,-9.12315e-02,-1.10746e-01,-1.20128e-01,1.67165e-01,-1.86217e-01,-2.12247e-01,-1.44404e-01,2.12771e-02,5.15546e-02,1.13668e-01,-9.34409e-02,5.08875e-02,1.08332e-01,-1.15941e-01,-2.72189e-01,-1.59680e-02,4.21192e-04,-4.29450e-02,2.05036e-02,4.60763e-02,-9.36026e-02,-3.59338e-03,7.47497e-02,-6.14222e-02,-1.05386e-01,-3.49898e-01,1.30105e-01,1.68171e-01,-1.41454e-01,-1.06041e-02,3.30959e-02,-8.20429e-02,-7.79792e-02,6.28981e-02,3.64764e-02,1.23504e-02,-1.18303e-01,-1.20064e-01,-1.31712e-02,-1.63023e-01,3.38831e-02,4.57407e-02,-1.84811e-01,-2.82620e-02,8.83298e-02,4.08466e-02,5.83112e-02,7.24222e-03,-5.15978e-02,1.48074e-01,7.98329e-02,-3.21078e-01,-8.96506e-02,-5.72305e-02,-1.54108e-01,3.71696e-03,-1.54713e-02,1.04229e-01,-8.01101e-02,3.24579e-02,-3.19466e-02,-2.03990e-01,-3.36042e-01,1.10051e-02,4.27949e-02,-1.30827e-01,-3.86165e-02,-1.51497e-01,1.17611e-01,2.75382e-02,-3.04560e-01,3.61185e-03,7.51731e-02,3.59149e-02,-3.42101e-03,-7.28625e-02,1.53705e-02,1.34363e-01,4.01445e-02,5.61766e-02,-3.46314e-01,-6.23052e-04,-8.19222e-02,1.01328e-02,6.49769e-02,
2.64957e-02,-1.25303e-01,-1.25036e-02,-1.24628e-01,-8.47226e-02,-8.04987e-02,3.25000e-02,-5.83330e-02,-8.18259e-02,-6.06666e-02,-1.14485e-01,2.61203e-02,-9.57783e-03,2.41616e-02,-3.30874e-03,-5.71469e-02,1.62647e-01,-2.08713e-02,4.88982e-02,-4.98577e-04,-1.52559e-01,3.55716e-02,-8.50591e-02,-2.99588e-02,-9.43548e-02,-1.68226e-02,4.03796e-03,4.01410e-02,-1.66996e-01,1.54797e-01,-9.54135e-03,1.00963e-01,2.94982e-02,-2.19247e-02,-4.51199e-02,-1.66617e-01,-1.57321e-01,-4.21140e-01,-2.16931e-01,6.24757e-02,1.00020e-01,1.95982e-01,-4.85076e-02,-1.85481e-01,-2.94773e-01,-1.79702e-01,-1.98832e-01,-3.32239e-01,-6.45718e-02,-1.41984e-01,-8.34706e-02,-8.66166e-02,-6.20385e-02,-1.75546e-01,1.48878e-01,3.13979e-02,-1.51443e-01,6.77357e-03,-6.37194e-02,9.91170e-02,-3.91715e-02,-9.41487e-02,5.02921e-02,-7.47925e-02,-5.16178e-02,-3.24982e-01,-1.85909e-01,-1.14929e-01,-1.42391e-01,-3.34585e-01,-5.15640e-01,-4.16582e-01,-2.89789e-01,-3.53676e-01,-2.70420e-01,-3.30253e-01,-3.23760e-01,-1.45934e-01,1.33124e-02,-1.06739e-01,8.35055e-02,1.32978e-01,9.27391e-03,-1.77379e-02,-1.75269e-02,9.84113e-02,-1.65875e-01,-6.40179e-02,-2.29981e-01,-3.84228e-02,-1.33916e-02,4.70966e-02,-1.26336e-01,2.01377e-02,-1.21776e-01,-1.04569e-01,1.06803e-01,-2.08256e-02,1.13783e-01,2.95478e-02,6.57145e-02,-1.04500e-01,-4.49417e-02,-1.71047e-01,1.11871e-01,-5.08528e-03,-2.28818e-01,-4.15575e-01,-9.64491e-02,1.70536e-01,2.02321e-01,-1.07933e-01,4.07017e-02,1.20275e-01,9.04562e-02,-2.34702e-02,-6.63582e-02,-1.89828e-01,1.75514e-03,3.39191e-02,1.37834e-01,1.43755e-01,1.20734e-01,1.09216e-01,6.21465e-02,5.34861e-02,-1.20507e-01,3.39563e-02,4.77950e-02,-5.08812e-02,1.41799e-02,-4.33143e-03,5.27040e-03,-7.06340e-02,6.43007e-03,-1.96990e-01,-1.42337e-01,1.14585e-01,1.65036e-01,-1.31961e-03,-2.50960e-02,1.14800e-02,-1.82903e-01,-2.88879e-01,1.91161e-02,-7.86637e-02,1.99735e-01,-2.84481e-02,3.27697e-01,2.06421e-01,3.61592e-02,2.95749e-01,2.12569e-01,2.95711e-01,1.25328e-01,4.79723e-02,1.00107e-01,1.05841e-01,1.16684e-01,-1.78027e-01,-1.33795e-01,5.67944e-02,5.98641e-02,3.50756e-02,-1.58451e-01,-1.60919e-01,-1.36569e-02,1.79180e-02,-1.25736e-01,6.24467e-02,2.37049e-01,5.07450e-03,-7.27601e-02,5.69058e-02,1.05437e-01,-2.64825e-02,1.54582e-02,5.83831e-02,2.06545e-01,1.04707e-01,-1.46686e-02,4.52680e-02,9.16869e-02,1.79984e-01,-2.87693e-02,4.26079e-02,5.92832e-02,2.88277e-02,-3.60706e-02,1.05508e-01,1.57929e-01,1.70523e-01,9.67515e-02,-1.38806e-01,-9.55189e-02,-1.02642e-01,1.06393e-02,1.84615e-01,2.42537e-01,2.60199e-01,9.96444e-03,3.31898e-02,2.01842e-01,9.44526e-02,-3.90307e-02,1.52074e-01,1.81257e-01,1.15436e-01,2.09461e-01,1.35490e-01,3.16913e-02,9.88930e-02,1.22949e-02,4.34773e-02,9.87869e-02,1.34695e-01,1.54661e-01,5.83416e-02,3.71738e-01,2.31322e-01,1.84178e-01,1.17895e-01,-1.23609e-01,-2.39515e-01,2.07858e-01,2.11867e-01,1.87256e-01,3.04302e-02,3.69829e-02,-1.28599e-01,8.09628e-03,-9.33191e-03,1.65597e-01,1.51712e-01,1.17374e-01,-9.48358e-02,3.14296e-02,-5.97017e-02,4.23404e-02,2.52906e-02,2.04856e-01,1.19706e-01,1.62051e-01,9.23695e-03,1.24195e-01,1.73424e-01,1.04863e-01,1.22224e-01,3.68521e-02,-2.51500e-01,-1.64920e-01,-2.64558e-01,2.77743e-01,4.62719e-01,7.23461e-02,-3.81367e-02,1.29049e-01,1.11263e-01,-4.50354e-02,1.62295e-01,1.39623e-02,-2.66946e-03,9.02023e-02,1.89675e-01,9.59946e-03,-6.48072e-03,1.06019e-01,9.64341e-02,2.43974e-01,2.34698e-01,2.86907e-01,1.81155e-01,4.36861e-02,4.06191e-02,2.01298e-01,3.47588e-01,1.27749e-01,-2.22852e-02,-3.38149e-01,1.79739e-01,3.37799e-01,6.73635e-01,8.87357e-02,-4.91054e-02,5.97336e-02,5.39774e-02,-4.55445e-02,9.29100e-02,-5.59129e-02,-6.51919e-02,5.22774e-04,4.06105e-02,-1.38589e-01,-6.64313e-02,-1.80523e-02,-3.45241e-02,1.16850e-01,2.45602e-01,1.04493e-01,3.69957e-03,1.28021e-01,1.08593e-01,1.04468e-01,1.72363e-01,3.47574e-02,-1.51184e-01,-1.55252e-01,1.14603e-01,2.75506e-01,4.14418e-01,3.38227e-01,1.98124e-01,-2.12366e-01,-1.73398e-01,6.19611e-02,-5.76751e-02,-1.46845e-02,-5.53630e-02,1.21269e-01,9.69628e-03,1.87923e-01,1.63065e-01,-1.11854e-01,-2.03113e-02,-1.92657e-01,2.38396e-01,3.01318e-02,5.71766e-02,1.17983e-01,6.45750e-02,-2.74895e-02,-1.50218e-01,-3.36542e-02,-6.83440e-02,1.48199e-02,-3.85767e-02,3.52871e-01,2.33128e-01,1.66595e-01,-1.08736e-01,2.92218e-02,-1.74808e-02,-3.80129e-02,1.04888e-01,2.07341e-01,5.58542e-02,8.23276e-02,2.69202e-01,1.04015e-01,2.86165e-02,-2.57857e-01,-2.29997e-01,-3.80325e-02,-8.49224e-02,3.59980e-02,-9.35972e-02,-1.67323e-02,-6.88947e-02,1.49956e-01,-3.56408e-02,-1.09697e-01,-4.46147e-02,-1.28253e-01,-1.10834e-01,2.82026e-02,3.05454e-01,2.12348e-01,4.88515e-02,-2.70344e-01,-3.61220e-02,1.00262e-01,-1.49744e-02,-7.93281e-02,5.46654e-02,4.22306e-02,4.43271e-02,-1.71446e-01,-6.73428e-02,-1.39009e-01,-2.87587e-01,6.13661e-03,1.13622e-02,-1.42860e-01,-1.06059e-02,-4.20843e-03,1.60796e-01,3.59440e-02,-8.51841e-02,-1.03539e-01,-2.73765e-01,-3.03541e-01,1.61548e-01,-1.17205e-01,6.64408e-02,2.28210e-01,8.18411e-02,1.34782e-01,7.21564e-02,1.81945e-01,1.82399e-01,1.11384e-01,6.03786e-02,-1.21090e-01,-2.77934e-01,-2.19454e-01,-2.10588e-01,-5.12752e-02,-1.94710e-01,-2.03506e-01,-1.56360e-01,3.41424e-02,-1.39370e-01,-9.91764e-02,1.20691e-01,-1.01089e-01,1.99550e-01,5.39963e-02,-1.03548e-01,-1.13882e-01,2.17235e-01,-1.75087e-01,-1.52637e-01,1.60025e-01,-1.82685e-01,-5.17761e-02,2.59843e-01,-8.02054e-02,9.15132e-02,6.82905e-03,-1.51036e-01,-3.19519e-01,-2.92584e-01,-2.24522e-01,-2.07676e-01,-2.41214e-02,-5.17742e-02,-2.93453e-01,-1.71928e-02,-1.26992e-01,1.68167e-02,7.15667e-02,1.06109e-01,1.02257e-01,6.14539e-02,1.18344e-01,-1.28188e-02,-9.06775e-02,-4.35242e-02,2.34202e-01,-1.71198e-01,1.12371e-01,-3.29803e-03,2.05273e-01,-1.09057e-01,-2.15940e-02,-5.56417e-02,-2.32361e-01,-8.61877e-02,-2.15921e-01,-2.05111e-01,-6.58157e-02,-5.02467e-02,-1.75765e-02,-1.83853e-01,-1.59244e-01,5.01559e-02,-1.77913e-02,8.70138e-02,3.85921e-02,-6.12690e-02,3.16421e-02,-5.79704e-02,-2.51620e-02,-2.24993e-01,-9.45504e-02,-7.78090e-02,6.50017e-02,-5.09458e-03,-2.14069e-01,-2.74066e-02,1.05639e-01,-9.77354e-02,7.25736e-02,-8.05752e-02,-9.79075e-02,-1.51799e-01,-1.34150e-01,-1.90641e-01,-3.00606e-02,-1.33455e-01,-2.42160e-01,-2.80061e-01,-1.56713e-01,-6.69559e-02,-4.17027e-02,3.19766e-02,2.77614e-02,1.26874e-01,2.69471e-02,-7.42614e-02,-1.85308e-01,-1.10606e-01,1.92719e-01,3.62232e-02,8.94480e-02,-9.16788e-03,-1.99217e-01,-1.54308e-01,9.01283e-02,-6.43293e-02,-8.27542e-02,4.03660e-02,4.67510e-02,1.61629e-01,3.42962e-02,-7.38101e-03,7.19728e-02,-1.24115e-01,-1.25923e-01,-2.76671e-01,-7.86725e-02,1.22108e-01,1.71360e-02,-4.55414e-02,-1.10056e-01,1.71115e-01,2.07035e-01,-6.81640e-02,-1.64377e-01,1.98943e-02,1.68654e-01,-6.34364e-02,8.51951e-02,2.08681e-01,1.38660e-01,-9.32034e-03,-2.91605e-02,1.07488e-01,1.18099e-02,-3.44042e-02,9.07691e-02,-5.35882e-02,3.16885e-02,1.46732e-01,6.48652e-02,4.36720e-02,2.09567e-02,-4.52552e-02,-7.00050e-02,-8.39367e-02,1.05226e-01,-2.45827e-02,4.88886e-02,-2.65289e-02,5.44007e-02,-1.91119e-02,-2.39794e-02,-1.43498e-01,8.40263e-02,1.49138e-01,8.76526e-02,1.44932e-01,-3.18551e-02,-1.48105e-01,-7.87045e-02,1.00964e-01,-1.77647e-02,-4.89730e-02,1.28591e-01,-2.06749e-02,6.46984e-02,1.61038e-01,3.19164e-02,1.04600e-01,1.21552e-01,1.09383e-01,1.12087e-01,-2.36283e-02,3.12647e-02,-8.23225e-02,-2.13230e-02,-1.32721e-01,-9.75327e-02,2.14212e-02,-1.46812e-01,1.34607e-01,1.93597e-01,1.40249e-02,-5.40666e-02,-9.45341e-02,-1.61089e-01,-1.50272e-01,-4.64262e-03,-9.87751e-02,-4.97258e-02,-1.05508e-01,1.39664e-01,5.53688e-03,6.81134e-02,-2.89511e-02,4.70138e-02,4.53878e-02,1.17315e-01,-4.33549e-02,1.25236e-01,-5.31601e-03,-1.50839e-02,-7.02472e-02,-4.31498e-02,-1.84475e-01,-1.71657e-02,-1.33721e-02,1.02585e-01,6.96339e-02,1.74415e-01,1.03119e-01,-1.59993e-01,-1.73819e-01,-9.79044e-02,-3.23918e-02,-2.19817e-01,4.94328e-03,-7.47151e-02,1.10577e-02,-1.11144e-02,1.34972e-01,-7.46413e-02,-2.29808e-02,-2.93899e-02,1.85832e-01,2.22367e-01,4.96001e-03,6.56083e-02,2.30609e-01,1.95361e-01,-8.58352e-02,3.86613e-02,-8.29468e-02,2.04471e-01,1.51232e-01,6.33589e-03,2.66713e-02,-3.57209e-02,8.57296e-02,-8.58621e-02,3.80239e-02,-2.18716e-01,1.35256e-01,-1.74597e-02,6.13740e-02,1.67614e-01,1.31522e-01,-1.61613e-02,-6.42512e-04,6.52550e-02,2.18704e-01,1.01327e-01,7.39472e-02,2.14899e-01,1.56567e-01,2.70997e-01,6.53692e-02,1.37388e-01,-6.63617e-02,1.82560e-02,-6.65697e-02,1.08135e-01,-7.54575e-02,1.20917e-01,1.64728e-01,-1.61797e-01,1.01744e-01,-7.93472e-03,-3.89938e-02,-1.93782e-02,1.33282e-01,1.40016e-01,6.24097e-02,6.71847e-02,1.12171e-01,-8.55909e-02,-6.99197e-03,-7.74679e-02,1.48635e-02,-6.15576e-02,1.15113e-01,6.51792e-02,1.54640e-01,-4.49904e-02,1.51712e-01,2.47204e-02,1.68438e-01,-3.12462e-02,1.73222e-01,1.82743e-01,4.18680e-02,3.47957e-01,-1.72368e-01,-7.84261e-03,-4.24682e-02,3.80500e-02,1.61972e-01,-3.16142e-01,1.60312e-01,1.12803e-01,-4.53525e-02,5.34457e-02,2.23855e-02,-7.93165e-02,1.45205e-01,-3.23654e-02,1.09832e-01,5.13806e-02,-6.68408e-02,-5.32408e-03,1.88372e-01,2.14401e-01,-1.81397e-02,-1.15971e-01,-1.20621e-02,1.10252e-01,1.37265e-01,8.84471e-02,-2.75114e-02,1.59211e-01,-1.39248e-01,-4.40108e-02,1.87007e-01,-1.23934e-01,1.79384e-01,7.37717e-04,5.42975e-02,-3.06200e-01,-1.12223e-01,-4.85144e-02,1.58264e-02,1.57466e-01,-1.33953e-01,-8.56043e-02,7.89614e-02,1.48092e-02,1.39939e-01,8.12739e-02,4.64731e-02,1.80494e-01,9.22879e-02,9.95179e-02,1.38182e-01,2.69154e-02,-1.17724e-01,5.25790e-02,-6.68590e-03,1.40569e-01,1.28510e-01,6.45552e-02,-1.22438e-01,8.77637e-02,1.14867e-01,-1.47088e-02,-1.09220e-01,8.85644e-02,1.83595e-01,-1.16787e-01,9.62421e-02,1.04688e-01,2.22069e-01,4.25041e-01,7.05480e-02,1.06449e-01,5.38627e-01,2.05876e-01,1.23299e-01,-1.38869e-01,1.52212e-01,2.10588e-02,1.33239e-01,1.73074e-01,7.54855e-02,8.34678e-02,4.58321e-02,1.21333e-01,-4.51577e-02,1.12933e-02,1.68485e-01,
1.39838e-01,1.22097e-01,-2.16772e-02,-8.69333e-02,5.01682e-02,-6.63234e-03,2.67459e-02,1.32635e-01,-3.85452e-02,-7.63494e-02,-1.67960e-01,-1.44582e-01,7.93213e-03,-1.20743e-01,1.37421e-01,-9.76009e-02,1.80288e-01,5.23852e-03,-3.05697e-02,-2.35033e-02,5.94484e-02,2.86514e-02,-3.84903e-03,-1.22866e-01,2.55283e-03,-9.86860e-02,-4.60201e-02,-7.28610e-02,-7.97267e-02,-4.37655e-02,9.25192e-03,-1.02368e-01,-1.45159e-01,-1.01651e-01,-1.72344e-02,4.03693e-02,-1.16828e-01,1.08800e-02,-4.04621e-02,1.74601e-01,2.22741e-01,1.84871e-01,-7.38029e-02,8.50500e-02,2.12666e-01,1.74532e-01,6.89242e-02,3.13798e-01,1.81702e-01,1.23821e-01,2.43937e-01,2.88442e-03,-2.92756e-02,1.19050e-01,-5.47902e-02,5.23983e-02,-1.06446e-02,-1.68549e-01,-1.30603e-02,2.14693e-02,1.82545e-01,-6.97982e-02,4.25198e-02,1.11111e-01,8.21412e-02,-1.33239e-01,-9.14088e-02,-8.44912e-02,-5.33753e-02,-3.22120e-01,-9.50854e-02,-1.13906e-01,-9.61172e-02,-1.93942e-01,1.27017e-01,-8.08750e-02,-5.25403e-02,1.81586e-01,-1.21315e-01,2.43618e-01,-2.74357e-02,-3.09737e-02,3.29703e-02,-8.42356e-02,1.39896e-01,-1.72919e-01,-1.95624e-02,6.03248e-02,8.61515e-02,1.06605e-01,-1.02598e-01,-3.31679e-02,-1.70446e-01,3.51249e-02,6.37839e-02,3.67138e-02,1.96160e-03,-1.88130e-01,-1.59700e-01,-1.99184e-01,-3.63607e-01,-4.85974e-02,-1.30421e-01,-5.04174e-02,1.16271e-01,1.28626e-01,-3.70049e-02,1.52522e-01,2.10548e-01,3.43932e-01,-1.63479e-03,-5.95434e-04,2.27752e-02,8.64280e-02,1.08422e-01,1.06652e-01,-1.62981e-01,-4.83570e-02,-2.58803e-01,-6.49179e-02,-1.72307e-01,-3.58745e-01,-4.67587e-01,-1.11793e-01,-2.78414e-01,-3.22213e-02,-2.23261e-01,-2.11701e-01,-3.74472e-01,1.14089e-02,-1.39169e-01,-1.55004e-02,-6.78408e-02,-1.15977e-02,8.86652e-02,5.84212e-02,1.51081e-01,1.04799e-01,2.39650e-01,3.35557e-01,6.48244e-03,-1.65425e-03,3.05405e-02,3.68877e-02,-1.25017e-01,-3.97960e-01,-1.49140e-01,-1.59112e-01,-2.65355e-01,-3.53637e-01,-2.83785e-01,-4.96383e-02,-1.79579e-01,-5.31916e-02,-1.60471e-01,-3.91626e-02,-1.54735e-01,-1.66189e-01,-1.98927e-01,-1.85449e-01,-3.61079e-02,-1.31765e-01,-7.61450e-03,5.43273e-02,-6.41010e-03,7.06007e-02,4.62747e-01,7.22486e-02,-9.61758e-03,1.40075e-01,2.36531e-01,5.41644e-02,-2.97542e-02,-1.21643e-01,-1.64407e-01,-2.18399e-01,-6.92598e-02,-3.34885e-01,-9.99117e-02,-9.00875e-02,-7.15855e-03,-5.26634e-02,-2.26128e-01,-5.74018e-02,-2.37683e-01,-7.18366e-02,-1.16345e-01,5.00273e-02,-1.22347e-01,-2.28668e-02,1.08036e-01,-1.25643e-01,1.31072e-02,6.49529e-02,5.53246e-04,1.73025e-01,1.35408e-01,8.56260e-02,3.27778e-01,3.64446e-02,3.87745e-02,-6.46102e-02,-1.19991e-01,-5.41332e-02,-1.82230e-02,-3.33110e-01,6.71882e-02,-7.81849e-02,-9.69593e-02,-6.72153e-02,-4.94502e-02,-1.91920e-01,-2.00278e-01,-2.72671e-02,-8.99614e-02,2.73848e-02,-2.78710e-02,5.54140e-02,1.53547e-01,2.48914e-01,-6.46442e-02,7.31656e-02,1.79504e-01,4.06306e-01,3.13524e-01,1.75596e-02,1.92512e-01,1.35095e-01,3.66169e-03,1.58951e-01,3.01785e-02,-1.26488e-01,-2.18439e-01,-1.54120e-01,-2.11302e-01,-1.67558e-01,-1.13386e-01,-2.83759e-01,-7.30411e-02,-2.39703e-02,2.36725e-01,1.27516e-01,7.20781e-02,8.80215e-03,1.84447e-01,1.42466e-01,1.36809e-01,1.19750e-01,3.01313e-01,2.05030e-01,-8.98442e-02,1.87577e-01,2.66660e-01,2.53332e-01,2.01981e-01,2.92434e-01,1.59108e-01,1.50854e-01,7.74699e-02,4.75086e-02,-7.16815e-02,-1.65838e-01,-1.02707e-02,5.39365e-02,-8.35074e-02,2.98092e-02,1.67409e-01,1.60459e-01,1.52669e-01,2.02547e-01,1.93910e-01,1.89309e-01,6.01861e-02,2.08490e-01,4.47163e-02,1.11405e-01,2.17633e-01,1.06198e-01,-3.55675e-03,1.84036e-01,2.84333e-01,4.38329e-01,1.02809e-02,7.41602e-02,-1.84058e-02,7.09567e-03,2.98613e-02,4.05547e-02,-2.34941e-01,-1.09589e-01,2.49520e-02,1.86162e-02,5.60323e-02,1.96634e-01,1.38002e-01,1.94316e-01,2.52078e-01,1.35314e-01,1.31234e-01,1.52153e-01,1.56035e-01,9.30079e-02,1.91019e-01,2.27157e-01,1.68523e-01,2.41736e-01,1.14713e-01,-2.10996e-02,4.26258e-02,1.63441e-01,-7.07293e-02,3.82287e-03,1.35066e-01,2.25482e-01,-1.78551e-01,-1.05582e-02,3.79627e-02,-7.42451e-02,-6.98547e-03,4.88905e-02,1.19904e-01,2.93459e-01,1.45795e-01,2.43781e-02,-4.53399e-02,-5.62948e-02,-1.70624e-02,1.52630e-01,2.87595e-01,1.30487e-01,1.04613e-01,7.69606e-02,1.25383e-01,2.27405e-01,-1.47605e-02,1.21652e-01,2.07570e-02,2.51693e-01,-8.71088e-02,1.30412e-01,1.57730e-01,1.49333e-01,-7.36993e-02,6.24584e-02,1.01313e-02,2.38603e-01,9.30100e-02,1.67079e-01,4.90952e-02,1.24968e-01,2.22720e-01,8.08081e-02,-2.79309e-01,-1.53496e-01,-1.73697e-01,-5.35925e-02,-8.18935e-02,-1.99163e-01,5.54991e-03,-8.27295e-02,-9.57428e-03,5.49780e-02,9.88148e-02,-2.43335e-01,-9.25152e-02,3.78462e-01,9.43331e-02,1.26557e-01,9.77888e-02,2.49492e-01,5.51495e-02,1.72589e-01,3.90141e-02,7.33536e-02,1.84192e-02,1.66619e-01,1.45778e-01,6.48655e-02,-5.33714e-02,-3.18028e-01,-1.06744e-01,-1.63796e-01,-2.24762e-01,-2.24380e-01,-1.80475e-01,-2.39577e-01,-1.81918e-01,-1.34219e-01,9.82678e-02,1.96255e-02,-4.56067e-02,-6.81448e-02,1.83696e-02,3.05060e-02,2.85668e-01,2.84938e-02,-2.64651e-02,1.08332e-01,3.33930e-02,-3.89801e-02,8.41354e-02,7.99457e-03,-6.03913e-02,5.10100e-02,1.02151e-01,-6.30781e-02,-1.09334e-01,-3.71981e-02,-2.20722e-01,-2.79095e-02,-2.26192e-01,-2.46483e-01,-5.89340e-02,-1.96507e-01,-5.60910e-02,6.67861e-02,5.14297e-02,-8.92206e-02,-1.97349e-01,-5.69046e-02,2.68443e-02,1.05961e-02,2.27051e-01,-1.04891e-01,1.47953e-02,6.34231e-02,1.84955e-02,1.28153e-01,-5.59482e-02,1.68732e-02,4.75389e-02,-5.87783e-03,6.08218e-02,-3.99466e-02,-1.07384e-01,-6.80997e-03,-4.41546e-02,1.12857e-02,7.18321e-02,-9.89721e-02,-9.07041e-02,-3.46397e-01,-1.15697e-01,9.82069e-02,8.27266e-02,-1.70278e-01,-6.13555e-02,-1.44315e-01,4.71611e-02,-1.79317e-01,-6.41257e-02,-3.24249e-01,4.02497e-02,1.52147e-01,-1.67525e-02,4.95588e-02,-7.47681e-02,-8.05918e-02,2.95826e-02,-3.34502e-02,-1.35628e-02,-1.00153e-01,-7.29789e-02,-3.87724e-03,5.22129e-03,-2.58302e-02,1.30505e-01,-6.24418e-04,-5.39564e-02,-1.21368e-01,-1.66793e-01,-8.90962e-02,-1.15563e-01,-1.44233e-01,-2.63007e-01,1.56806e-01,-1.78416e-01,-1.22231e-01,-1.98907e-01,-7.06706e-02,5.47759e-02,1.76317e-01,1.57298e-01,-1.18715e-01,7.85677e-02,-1.64457e-01,-1.52094e-01,-7.95256e-02,-2.64624e-01,-1.46533e-01,1.56209e-01,1.85527e-01,1.26563e-01,2.05430e-01,-2.97839e-02,2.83357e-02,-1.57879e-01,-1.46868e-01,-1.71421e-01,1.32371e-02,-1.52193e-01,-2.16859e-01,-2.38043e-01,2.09304e-01,4.04443e-02,-1.13925e-01,-1.22851e-01,-1.09470e-01,-5.34703e-02,1.03345e-01,1.30922e-01,-8.70174e-02,1.19318e-01,-9.20104e-02,1.06315e-01,-1.38867e-01,-1.91054e-01,9.75742e-02,2.07376e-01,1.22929e-01,1.29474e-01,6.18823e-02,1.69858e-01,-1.20393e-01,-7.67534e-02,-1.18554e-01,2.67569e-02,-9.06479e-02,6.47737e-03,-1.01083e-01,-8.06613e-02,5.43306e-02,2.10318e-02,1.44622e-01,-1.94376e-02,6.83750e-02,9.07459e-02,2.23017e-01,1.82587e-01,1.13043e-01,8.57604e-02,-3.74922e-03,-1.69322e-02,-1.16783e-01,1.37875e-01,4.98473e-02,-3.98132e-02,3.04874e-02,9.43060e-02,-1.09132e-01,-6.04643e-03,-3.21188e-02,-4.42490e-02,-1.10321e-01,-8.29865e-03,-5.92340e-02,1.77108e-03,-1.07875e-01,-6.32729e-02,-1.77303e-01,-5.54437e-02,2.84243e-02,-1.66758e-01,-2.78697e-01,-4.81367e-02,2.36881e-01,2.08211e-01,-7.14240e-02,-4.63459e-02,-1.97526e-02,1.37003e-01,1.27816e-01,4.62883e-02,8.07164e-02,1.62674e-02,-6.99584e-03,-9.39961e-02,8.42704e-02,-6.32544e-02,-3.28334e-02,1.09842e-01,-7.71433e-02,-1.84424e-02,-2.01814e-01,1.04801e-01,-1.08471e-02,-6.26938e-02,1.05334e-01,-9.64644e-02,-3.14526e-02,-1.21446e-01,-2.81992e-02,7.45822e-02,1.12895e-01,-1.29717e-01,1.17633e-01,-1.06922e-01,1.04425e-01,-4.71067e-02,6.07889e-02,1.36139e-02,-1.24626e-01,-4.49517e-02,-4.10495e-02,-1.43270e-01,-5.25867e-02,3.72602e-02,-1.20414e-01,-1.04295e-01,-1.93218e-01,-1.40084e-01,-2.44446e-01,-7.86430e-02,-3.19736e-02,4.86638e-02,1.00591e-01,-1.54083e-01,-2.29865e-01,-2.75632e-01,5.93367e-02,-7.79776e-02,2.14581e-02,-1.27378e-01,2.05319e-02,1.49691e-01,6.99359e-02,-3.32039e-02,1.21599e-01,-8.78625e-02,-3.51444e-02,-2.24822e-02,-1.61558e-01,-4.54521e-02,-1.07829e-01,-1.60774e-02,-9.01461e-03,-1.76150e-01,-1.64710e-01,-7.96753e-02,-1.63356e-01,-2.81610e-02,-1.71041e-01,-1.43737e-01,1.06608e-01,1.27005e-01,9.02404e-02,4.93384e-02,1.75080e-01,-1.04795e-01,-2.26074e-02,-1.56049e-02,-7.46760e-02,1.69289e-01,2.76567e-02,1.01331e-01,-6.62579e-02,1.27536e-01,-1.16935e-01,-1.00334e-02,1.66372e-02,-3.53774e-02,3.02379e-02,8.45483e-03,-3.15525e-01,-5.09004e-02,-3.33977e-01,-2.22650e-01,-3.67306e-01,-4.15486e-02,-2.47212e-01,-2.42556e-01,6.38613e-02,-1.02755e-01,1.07643e-01,1.62495e-01,1.36874e-01,5.04722e-02,-1.63757e-01,-5.80680e-02,-6.17042e-02,-1.32758e-02,1.21997e-01,-5.05523e-02,-1.13694e-01,1.73955e-01,-2.28050e-02,8.35353e-02,-1.14939e-01,5.86059e-02,9.49195e-02,1.55272e-02,-5.96445e-02,1.11298e-02,-1.24619e-01,-1.61498e-01,-2.14746e-01,8.14524e-02,-1.32814e-01,-1.82506e-01,1.24722e-01,2.91233e-02,9.20541e-02,-1.44098e-01,-1.42929e-01,2.21080e-01,-7.04837e-02,-2.46131e-01,-2.08900e-01,-1.54908e-01,-1.21034e-01,-5.95428e-02,4.39080e-02,-1.26235e-01,-1.06949e-01,-1.30332e-01,1.05224e-02,-6.97859e-02,2.78682e-02,-1.23606e-02,1.58970e-01,5.39114e-02,-8.27281e-02,5.46802e-02,4.16241e-02,9.98929e-02,1.18925e-01,5.42018e-02,-1.81646e-01,2.68327e-02,-7.89906e-02,7.44208e-02,-2.11836e-03,3.23989e-02,-1.63112e-01,4.82905e-02,2.59732e-02,6.45436e-03,-9.36905e-03,1.16538e-02,1.55883e-01,2.07618e-01,6.90221e-02,-1.65212e-01,4.54055e-02,6.67825e-02,2.64145e-01,1.28813e-01,1.22933e-01,4.96344e-02,-3.03314e-02,1.65912e-01,-6.81249e-02,-2.78209e-01,3.56089e-02,-9.08103e-02,-1.00777e-01,5.70044e-02,1.09994e-01,1.93273e-01,-8.29145e-02,1.92231e-01,3.23131e-01,-2.99069e-02,-6.07138e-02,-8.10710e-02,-9.94775e-02,1.23940e-01,4.77605e-02,-3.92046e-03,5.66121e-02,1.99250e-01,-6.38411e-02,9.48049e-02,1.36439e-01,-4.37164e-02,1.15366e-01,1.20376e-01,1.94493e-01,2.33712e-01,5.77353e-02,-1.40495e-02,-2.97535e-02,1.21468e-01,-5.92229e-02,
-1.71548e-01,5.37260e-02,1.60838e-02,1.05441e-01,-9.92333e-02,-1.27802e-01,4.40172e-02,-1.19841e-01,-1.38873e-01,-1.71014e-02,1.81376e-01,-8.76380e-02,1.74966e-01,1.06497e-01,-4.80518e-04,5.33942e-02,-1.60625e-01,-1.27605e-01,-6.30174e-02,-6.40035e-02,1.55102e-01,-1.68891e-01,4.96791e-02,-3.37870e-02,1.65318e-02,-4.67905e-02,-1.21964e-01,1.54380e-01,-6.84007e-02,-9.23066e-02,-7.12295e-02,-2.25573e-02,6.41630e-02,1.60518e-01,-2.79040e-03,5.21363e-02,2.24411e-01,2.92578e-01,2.15569e-01,3.04443e-01,3.66401e-01,2.85723e-01,-1.96456e-01,-2.38623e-01,-1.75067e-02,3.64075e-01,3.65233e-01,2.80465e-01,3.37966e-01,2.34761e-01,1.14532e-01,3.37622e-01,2.55841e-02,2.26689e-02,-4.37060e-02,-4.01183e-02,2.13577e-02,-2.49533e-02,1.45771e-01,2.33228e-01,1.82346e-01,4.80108e-02,1.49356e-01,1.98536e-01,2.36030e-01,1.36352e-01,3.55649e-01,3.69142e-01,2.09119e-01,-1.40232e-01,-1.11345e-01,-2.18759e-01,-1.92812e-01,4.95498e-02,2.10120e-01,6.81137e-02,1.26072e-01,2.19307e-01,1.60475e-01,3.10223e-01,7.61018e-02,9.07875e-02,-8.91297e-02,1.55457e-02,2.49413e-02,1.63286e-02,-2.72513e-02,-1.88824e-02,-9.63559e-02,7.21661e-02,2.60639e-01,4.40577e-01,6.07603e-01,4.10195e-01,3.04634e-01,5.11925e-01,9.78839e-02,2.82286e-01,1.11826e-01,8.14221e-02,1.88270e-02,1.84039e-01,2.53056e-01,2.51350e-01,4.23134e-01,-3.70419e-02,1.23042e-01,1.24410e-01,2.75761e-01,8.86197e-03,1.72523e-01,4.63716e-03,7.39776e-02,-6.03316e-02,-1.16875e-01,-1.51657e-01,-3.19824e-01,-8.59293e-02,-1.45375e-01,3.27594e-03,1.51457e-01,1.18616e-01,2.78801e-01,7.62386e-02,8.79077e-02,-9.38338e-02,1.61721e-01,9.35860e-02,1.10109e-01,2.16786e-02,7.43107e-02,-1.00747e-02,-2.65138e-02,-6.49752e-02,-1.09376e-01,1.39723e-01,2.63147e-01,1.90894e-01,2.26686e-01,1.61095e-01,-1.86531e-01,-3.05585e-03,-1.13133e-01,-8.79282e-02,-1.12050e-01,-3.39011e-01,-1.17955e-01,1.61399e-01,-1.20552e-02,1.86620e-01,3.56453e-01,1.86464e-01,1.10813e-01,9.22203e-02,2.44511e-02,1.41260e-01,2.30061e-01,1.23957e-01,-6.09581e-03,1.14774e-01,1.49621e-01,2.20957e-02,-1.29485e-01,-1.65533e-01,-1.01224e-02,3.21981e-01,1.75453e-01,5.88878e-02,1.06752e-01,-5.00840e-02,2.49038e-02,3.18641e-02,-1.54980e-01,-5.28534e-02,-5.81371e-03,-1.70805e-01,-1.59210e-01,9.99598e-02,7.55117e-02,1.19209e-01,2.00006e-01,1.67945e-01,1.92608e-01,1.44942e-01,1.83992e-01,1.27571e-01,-6.60635e-02,-7.81923e-02,4.60516e-02,5.99573e-03,-1.17007e-01,-5.64770e-02,2.03911e-02,9.82559e-02,6.47551e-02,-1.52852e-01,-1.28713e-02,-1.52441e-01,1.27355e-01,-1.80369e-01,-1.44496e-01,-2.59837e-02,1.00497e-01,-1.59443e-01,-9.14881e-02,2.88494e-03,4.41524e-04,2.79927e-02,-5.19313e-02,1.26484e-01,3.38089e-01,2.30505e-01,1.59956e-02,7.75778e-02,-1.10603e-01,-8.79002e-02,-1.21858e-01,-1.02500e-01,-3.37294e-01,-3.24054e-01,-2.96271e-01,1.68551e-02,2.42509e-01,9.88708e-02,3.08384e-02,-1.41895e-01,2.72873e-01,-1.21583e-01,-1.76759e-01,-7.92191e-02,-1.61441e-01,-1.47224e-01,-1.25085e-01,9.05769e-02,9.58630e-02,1.10950e-01,1.30125e-01,3.71529e-02,6.70151e-02,8.12350e-02,1.12878e-01,-7.40770e-02,-1.93196e-01,-1.61797e-01,-2.26449e-01,-5.17948e-02,-2.31692e-01,-2.59300e-01,-7.69331e-02,8.22895e-02,1.17957e-02,-2.84878e-02,-8.40429e-02,-1.83464e-01,2.12269e-01,4.50558e-02,-1.52445e-01,-1.90316e-02,-1.79993e-02,-2.24028e-01,-4.59102e-02,-3.88009e-02,6.52209e-02,-5.47839e-02,-3.14804e-02,4.72329e-02,-8.75960e-02,-1.66790e-01,7.00854e-02,-9.76044e-03,-9.42224e-02,6.68691e-02,-5.62159e-02,-1.72847e-01,-3.42667e-01,-7.72632e-02,3.91910e-02,3.25932e-03,-1.41654e-01,4.07028e-03,-2.18910e-01,1.27006e-02,4.18078e-02,5.76430e-02,1.14838e-02,6.02015e-02,1.24139e-03,2.79513e-02,-8.99814e-03,-5.98678e-02,-5.08859e-04,-2.05619e-02,-2.14241e-01,-7.29148e-02,-1.30808e-01,-1.58342e-01,-1.57307e-01,-1.13302e-01,1.15523e-02,1.91347e-01,4.95113e-02,-1.19365e-01,9.01875e-02,9.32573e-02,6.28392e-02,1.34674e-03,-1.85569e-02,7.45194e-02,7.16866e-02,5.08682e-02,3.41872e-02,-1.57091e-01,-1.34024e-01,-2.76152e-02,-1.06148e-01,-1.35456e-01,-2.55730e-02,-9.91913e-02,-2.07886e-01,3.24512e-02,3.21760e-02,2.40423e-02,-1.48833e-01,-1.68838e-01,-1.41771e-02,1.62614e-01,2.45022e-01,1.85943e-01,9.71393e-02,3.92275e-02,1.28172e-01,-9.53725e-02,1.65864e-01,-1.71727e-01,-7.88976e-02,-1.05555e-01,1.47171e-01,-9.00798e-04,-1.89626e-01,2.95554e-02,-2.71254e-03,-7.78034e-02,1.99976e-01,1.10862e-01,-1.00889e-01,-1.17663e-01,3.42732e-02,-9.10303e-02,-2.08989e-02,-7.57284e-02,-1.08717e-01,7.21022e-02,-3.31084e-02,8.72819e-02,1.87606e-01,6.77200e-02,2.54890e-01,2.15873e-02,7.88383e-02,1.62232e-02,-4.32844e-02,-1.59483e-01,-9.86829e-02,-1.61825e-02,-2.68596e-01,-9.52952e-03,-1.95775e-01,9.48107e-02,1.91148e-01,-9.19463e-03,1.10730e-01,3.16022e-01,1.85302e-01,1.42699e-01,1.61486e-01,9.89386e-02,7.13130e-02,1.76269e-01,2.19228e-01,-1.26872e-01,-5.40312e-02,2.35643e-01,3.17160e-01,2.22079e-01,2.39557e-02,-4.40979e-02,1.62119e-01,3.07644e-02,1.23705e-01,-7.29381e-02,1.65658e-02,-1.66755e-01,1.54766e-01,-2.10635e-01,-3.64691e-01,-1.30549e-01,2.80090e-03,2.70592e-01,2.39703e-01,2.91856e-01,2.04940e-01,1.29018e-01,1.95768e-01,4.43978e-02,4.36329e-02,1.07594e-02,-8.87434e-02,7.82454e-02,-1.31191e-01,6.03726e-03,1.48275e-01,1.28549e-01,4.50090e-02,2.27138e-01,1.06293e-01,5.31116e-02,7.51052e-02,-4.32586e-02,-7.24927e-02,-3.51838e-02,-6.74876e-02,-9.66574e-02,-1.11382e-01,-9.54586e-02,4.59617e-02,2.05524e-01,1.57848e-01,2.32496e-01,7.23733e-02,8.28900e-02,2.82587e-01,1.15652e-01,8.99060e-03,1.13447e-02,-1.09768e-03,-1.89746e-01,-3.88888e-02,1.63527e-01,2.63655e-01,7.40633e-02,2.94714e-01,-4.82617e-02,1.66539e-01,-3.70169e-02,1.66717e-01,1.58644e-01,9.10172e-02,-1.34926e-01,-2.17900e-02,3.66589e-02,-1.63138e-01,1.40488e-01,2.22384e-01,2.53130e-01,2.66783e-01,1.81946e-01,5.66918e-02,6.28331e-03,-9.34276e-02,1.42111e-01,5.16680e-02,-6.95040e-02,-1.77834e-01,3.25422e-02,6.08604e-02,2.63657e-01,1.78233e-01,9.37930e-02,1.88254e-01,-7.32521e-02,1.21319e-01,-2.37947e-02,2.93346e-02,2.79262e-01,-5.09397e-02,-4.18643e-02,6.51050e-02,-1.33366e-01,6.86405e-02,3.76155e-02,1.76908e-01,1.50350e-01,6.77167e-02,-1.21720e-02,-1.88091e-02,8.69626e-02,1.14469e-01,7.70570e-02,-5.94952e-02,-6.15051e-02,-1.11703e-01,-1.06951e-01,1.12379e-01,2.39982e-01,4.96209e-02,2.23796e-01,1.74220e-01,1.05823e-01,7.02885e-02,1.41865e-01,3.11921e-02,6.96420e-02,-9.22359e-02,2.65875e-01,-1.71255e-01,-1.46857e-01,-8.22138e-02,2.21567e-02,1.14016e-01,5.43227e-02,2.29792e-01,9.02376e-02,2.71534e-02,1.54744e-01,1.22818e-01,1.93139e-01,4.30008e-02,-7.82185e-02,-6.17856e-02,-2.30830e-02,6.20401e-02,1.11147e-01,7.86872e-02,1.05808e-01,2.76992e-02,-1.53405e-01,-1.07747e-01,5.87359e-02,3.88372e-02,-1.91313e-01,-2.87197e-01,-2.69733e-01,2.56069e-02,2.08637e-01,7.36772e-02,-4.83437e-02,1.80086e-01,4.42461e-02,-2.19907e-02,-5.76855e-02,1.78482e-01,-7.52945e-02,9.66386e-02,-7.13055e-02,1.12427e-02,-1.65021e-01,1.14710e-01,9.20157e-02,1.71807e-01,1.32766e-01,-1.46875e-02,-1.17646e-01,-9.29073e-03,1.32044e-01,7.03084e-02,-3.44486e-02,8.12722e-03,-1.96345e-01,4.52821e-02,-1.76595e-01,1.81932e-01,3.36015e-02,1.83765e-01,1.95972e-01,1.92470e-03,1.63604e-01,-6.16613e-02,4.27974e-02,-2.23176e-02,1.18476e-01,1.62280e-01,5.99413e-02,8.08321e-02,1.16390e-01,1.46376e-03,-4.42171e-02,1.24111e-03,-1.19652e-02,-1.89238e-01,-7.19820e-02,-1.79305e-01,1.12261e-01,1.73396e-01,-1.30456e-01,-3.90568e-02,5.11738e-02,-4.17908e-02,-3.99482e-02,-4.05696e-02,-1.12928e-01,1.25993e-01,4.39926e-02,3.75512e-02,6.53765e-03,-1.36322e-02,-2.16145e-02,1.85160e-02,-3.01789e-02,7.48513e-02,4.96008e-02,1.03264e-01,1.85579e-01,9.17260e-02,-3.55353e-02,-1.94584e-01,-2.43199e-01,-1.50152e-01,-1.44089e-01,4.18821e-02,3.03879e-02,6.79869e-02,-1.54840e-01,-1.09922e-01,2.16871e-01,2.09146e-01,-1.05765e-01,-1.65336e-01,1.73846e-02,1.37718e-01,2.66855e-01,1.26875e-01,-1.34305e-01,-4.70529e-02,-2.82909e-02,-2.59184e-02,3.73246e-03,6.35582e-02,1.42512e-01,3.51212e-03,1.73317e-01,7.02099e-02,-6.57448e-02,9.24297e-02,-1.28972e-01,-8.49246e-02,-1.88820e-01,-1.69846e-01,-1.05262e-02,-5.45245e-02,8.66096e-02,2.88471e-02,-4.18695e-03,1.99956e-01,1.14891e-01,-4.55092e-02,7.48804e-02,9.52959e-02,2.78397e-01,2.37929e-01,1.10332e-02,-1.00677e-01,7.76761e-02,4.56164e-02,-8.69821e-02,1.12258e-01,1.43995e-01,-6.10040e-02,5.84546e-02,1.26613e-01,7.48238e-02,-2.41966e-02,-1.47711e-01,-3.09159e-03,-1.96770e-01,8.20870e-03,-5.60995e-02,-1.04944e-02,2.73601e-02,-1.84228e-02,5.05539e-02,-4.70577e-02,3.81306e-02,-1.06742e-01,-3.54331e-03,9.43911e-02,2.69152e-01,2.04437e-01,-1.63563e-03,-1.39452e-02,8.78599e-02,1.87356e-02,1.08249e-01,3.55622e-02,3.72101e-02,7.38773e-02,7.05478e-02,1.07238e-01,7.98596e-02,2.95530e-01,7.10754e-02,1.16986e-01,1.00504e-01,-2.50389e-03,1.20741e-02,5.31191e-02,1.09620e-01,7.70451e-02,-5.19012e-02,-2.26028e-01,6.75837e-03,-1.11518e-01,8.70174e-03,4.63964e-02,-5.97417e-02,-8.45791e-02,1.56154e-01,1.13430e-01,-7.37636e-02,3.30626e-02,-8.98195e-02,1.65635e-01,1.18574e-01,-3.14581e-02,1.11759e-01,1.19095e-01,1.52839e-01,4.09607e-01,3.21780e-01,1.13304e-01,4.08207e-01,4.59013e-01,3.04080e-01,3.42588e-01,2.34843e-01,2.53020e-01,8.16606e-03,-1.94048e-01,5.18325e-02,1.12992e-01,-1.28184e-01,-5.61224e-02,-6.15733e-02,2.91262e-01,2.88626e-01,1.92900e-01,-3.38119e-02,-5.30749e-02,1.73684e-02,1.69744e-01,1.05168e-01,1.31430e-01,1.61550e-01,2.06207e-01,1.87967e-01,3.28699e-01,2.79551e-01,1.26591e-01,1.77302e-01,3.80495e-01,2.07532e-01,-7.75708e-02,-7.29365e-02,5.19141e-02,-8.01956e-02,-6.18499e-02,4.88662e-02,-3.53693e-02,-4.24022e-02,8.11769e-02,8.04805e-02,-3.19223e-01,-2.87794e-01,1.70806e-02,5.21351e-02,-8.64950e-02,1.84614e-01,1.57028e-01,1.26453e-01,1.73114e-01,1.04513e-01,2.82478e-01,2.47514e-01,7.72176e-02,3.32450e-01,7.50066e-02,4.44459e-02,6.14714e-02,1.94007e-01,1.35011e-01,-2.29980e-01,-4.50885e-02,-2.53793e-02,-4.54842e-02,-1.11666e-01,
