// Neural Network File Format by Kyle Julian, Stanford 2016
3,784,10,784,
784,30,20,10,
0,
0,0,0,0,0,0,0,0,0,0,0,0,0,0,0,0,0,0,0,0,0,0,0,0,0,0,0,0,0,0,0,0,0,0,0,0,0,0,0,0,0,0,0,0,0,0,0,0,0,0,0,0,0,0,0,0,0,0,0,0,0,0,0,0,0,0,0,0,0,0,0,0,0,0,0,0,0,0,0,0,0,0,0,0,0,0,0,0,0,0,0,0,0,0,0,0,0,0,0,0,0,0,0,0,0,0,0,0,0,0,0,0,0,0,0,0,0,0,0,0,0,0,0,0,0,0,0,0,0,0,0,0,0,0,0,0,0,0,0,0,0,0,0,0,0,0,0,0,0,0,0,0,0,0,0,0,0,0,0,0,0,0,0,0,0,0,0,0,0,0,0,0,0,0,0,0,0,0,0,0,0,0,0,0,0,0,0,0,0,0,0,0,0,0,0,0,0,0,0,0,0,0,0,0,0,0,0,0,0,0,0,0,0,0,0,0,0,0,0,0,0,0,0,0,0,0,0,0,0,0,0,0,0,0,0,0,0,0,0,0,0,0,0,0,0,0,0,0,0,0,0,0,0,0,0,0,0,0,0,0,0,0,0,0,0,0,0,0,0,0,0,0,0,0,0,0,0,0,0,0,0,0,0,0,0,0,0,0,0,0,0,0,0,0,0,0,0,0,0,0,0,0,0,0,0,0,0,0,0,0,0,0,0,0,0,0,0,0,0,0,0,0,0,0,0,0,0,0,0,0,0,0,0,0,0,0,0,0,0,0,0,0,0,0,0,0,0,0,0,0,0,0,0,0,0,0,0,0,0,0,0,0,0,0,0,0,0,0,0,0,0,0,0,0,0,0,0,0,0,0,0,0,0,0,0,0,0,0,0,0,0,0,0,0,0,0,0,0,0,0,0,0,0,0,0,0,0,0,0,0,0,0,0,0,0,0,0,0,0,0,0,0,0,0,0,0,0,0,0,0,0,0,0,0,0,0,0,0,0,0,0,0,0,0,0,0,0,0,0,0,0,0,0,0,0,0,0,0,0,0,0,0,0,0,0,0,0,0,0,0,0,0,0,0,0,0,0,0,0,0,0,0,0,0,0,0,0,0,0,0,0,0,0,0,0,0,0,0,0,0,0,0,0,0,0,0,0,0,0,0,0,0,0,0,0,0,0,0,0,0,0,0,0,0,0,0,0,0,0,0,0,0,0,0,0,0,0,0,0,0,0,0,0,0,0,0,0,0,0,0,0,0,0,0,0,0,0,0,0,0,0,0,0,0,0,0,0,0,0,0,0,0,0,0,0,0,0,0,0,0,0,0,0,0,0,0,0,0,0,0,0,0,0,0,0,0,0,0,0,0,0,0,0,0,0,0,0,0,0,0,0,0,0,0,0,0,0,0,0,0,0,0,0,0,0,0,0,0,0,0,0,0,0,0,0,0,0,0,0,0,0,0,0,0,0,0,0,0,0,0,0,0,0,0,0,0,0,0,0,0,0,0,0,0,0,0,0,0,0,0,0,0,0,0,0,0,0,0,0,0,0,0,0,0,0,0,0,0,0,0,0,0,0,0,0,0,0,0,0,0,0,0,0,0,0,0,0,0,0,0,0,0,0,0,0,0,0,0,0,0,0,0,0,0,0,0,0,0,0,0,0,0,0,0,0,0,0,0,0,0,0,0,0,0,0,0,0,0,0,0,0,0,0,0,0,0,0,0,0,0,0,0,0,0,0,0,0,0,0,0,0,0,0,0,0,0,0,0,0,0,0,0,0,0,
255,255,255,255,255,255,255,255,255,255,255,255,255,255,255,255,255,255,255,255,255,255,255,255,255,255,255,255,255,255,255,255,255,255,255,255,255,255,255,255,255,255,255,255,255,255,255,255,255,255,255,255,255,255,255,255,255,255,255,255,255,255,255,255,255,255,255,255,255,255,255,255,255,255,255,255,255,255,255,255,255,255,255,255,255,255,255,255,255,255,255,255,255,255,255,255,255,255,255,255,255,255,255,255,255,255,255,255,255,255,255,255,255,255,255,255,255,255,255,255,255,255,255,255,255,255,255,255,255,255,255,255,255,255,255,255,255,255,255,255,255,255,255,255,255,255,255,255,255,255,255,255,255,255,255,255,255,255,255,255,255,255,255,255,255,255,255,255,255,255,255,255,255,255,255,255,255,255,255,255,255,255,255,255,255,255,255,255,255,255,255,255,255,255,255,255,255,255,255,255,255,255,255,255,255,255,255,255,255,255,255,255,255,255,255,255,255,255,255,255,255,255,255,255,255,255,255,255,255,255,255,255,255,255,255,255,255,255,255,255,255,255,255,255,255,255,255,255,255,255,255,255,255,255,255,255,255,255,255,255,255,255,255,255,255,255,255,255,255,255,255,255,255,255,255,255,255,255,255,255,255,255,255,255,255,255,255,255,255,255,255,255,255,255,255,255,255,255,255,255,255,255,255,255,255,255,255,255,255,255,255,255,255,255,255,255,255,255,255,255,255,255,255,255,255,255,255,255,255,255,255,255,255,255,255,255,255,255,255,255,255,255,255,255,255,255,255,255,255,255,255,255,255,255,255,255,255,255,255,255,255,255,255,255,255,255,255,255,255,255,255,255,255,255,255,255,255,255,255,255,255,255,255,255,255,255,255,255,255,255,255,255,255,255,255,255,255,255,255,255,255,255,255,255,255,255,255,255,255,255,255,255,255,255,255,255,255,255,255,255,255,255,255,255,255,255,255,255,255,255,255,255,255,255,255,255,255,255,255,255,255,255,255,255,255,255,255,255,255,255,255,255,255,255,255,255,255,255,255,255,255,255,255,255,255,255,255,255,255,255,255,255,255,255,255,255,255,255,255,255,255,255,255,255,255,255,255,255,255,255,255,255,255,255,255,255,255,255,255,255,255,255,255,255,255,255,255,255,255,255,255,255,255,255,255,255,255,255,255,255,255,255,255,255,255,255,255,255,255,255,255,255,255,255,255,255,255,255,255,255,255,255,255,255,255,255,255,255,255,255,255,255,255,255,255,255,255,255,255,255,255,255,255,255,255,255,255,255,255,255,255,255,255,255,255,255,255,255,255,255,255,255,255,255,255,255,255,255,255,255,255,255,255,255,255,255,255,255,255,255,255,255,255,255,255,255,255,255,255,255,255,255,255,255,255,255,255,255,255,255,255,255,255,255,255,255,255,255,255,255,255,255,255,255,255,255,255,255,255,255,255,255,255,255,255,255,255,255,255,255,255,255,255,255,255,255,255,255,255,255,255,255,255,255,255,255,255,255,255,255,255,255,255,255,255,255,255,255,255,255,255,255,255,255,255,255,255,255,255,255,255,255,255,255,255,255,255,255,255,255,255,255,255,255,255,255,255,255,255,255,255,255,255,255,255,255,255,255,255,255,255,255,255,255,255,255,255,255,255,255,255,255,255,255,255,255,255,255,255,255,255,255,255,255,255,255,255,255,255,255,255,255,255,255,255,255,255,255,255,255,255,255,255,255,255,255,255,255,255,255,255,255,255,255,255,255,255,255,255,255,255,255,255,255,
-1,-1,-1,-1,-1,-1,-1,-1,-1,-1,-1,-1,-1,-1,-1,-1,-1,-1,-1,-1,-1,-1,-1,-1,-1,-1,-1,-1,-1,-1,-1,-1,-1,-1,-1,-1,-1,-1,-1,-1,-1,-1,-1,-1,-1,-1,-1,-1,-1,-1,-1,-1,-1,-1,-1,-1,-1,-1,-1,-1,-1,-1,-1,-1,-1,-1,-1,-1,-1,-1,-1,-1,-1,-1,-1,-1,-1,-1,-1,-1,-1,-1,-1,-1,-1,-1,-1,-1,-1,-1,-1,-1,-1,-1,-1,-1,-1,-1,-1,-1,-1,-1,-1,-1,-1,-1,-1,-1,-1,-1,-1,-1,-1,-1,-1,-1,-1,-1,-1,-1,-1,-1,-1,-1,-1,-1,-1,-1,-1,-1,-1,-1,-1,-1,-1,-1,-1,-1,-1,-1,-1,-1,-1,-1,-1,-1,-1,-1,-1,-1,-1,-1,-1,-1,-1,-1,-1,-1,-1,-1,-1,-1,-1,-1,-1,-1,-1,-1,-1,-1,-1,-1,-1,-1,-1,-1,-1,-1,-1,-1,-1,-1,-1,-1,-1,-1,-1,-1,-1,-1,-1,-1,-1,-1,-1,-1,-1,-1,-1,-1,-1,-1,-1,-1,-1,-1,-1,-1,-1,-1,-1,-1,-1,-1,-1,-1,-1,-1,-1,-1,-1,-1,-1,-1,-1,-1,-1,-1,-1,-1,-1,-1,-1,-1,-1,-1,-1,-1,-1,-1,-1,-1,-1,-1,-1,-1,-1,-1,-1,-1,-1,-1,-1,-1,-1,-1,-1,-1,-1,-1,-1,-1,-1,-1,-1,-1,-1,-1,-1,-1,-1,-1,-1,-1,-1,-1,-1,-1,-1,-1,-1,-1,-1,-1,-1,-1,-1,-1,-1,-1,-1,-1,-1,-1,-1,-1,-1,-1,-1,-1,-1,-1,-1,-1,-1,-1,-1,-1,-1,-1,-1,-1,-1,-1,-1,-1,-1,-1,-1,-1,-1,-1,-1,-1,-1,-1,-1,-1,-1,-1,-1,-1,-1,-1,-1,-1,-1,-1,-1,-1,-1,-1,-1,-1,-1,-1,-1,-1,-1,-1,-1,-1,-1,-1,-1,-1,-1,-1,-1,-1,-1,-1,-1,-1,-1,-1,-1,-1,-1,-1,-1,-1,-1,-1,-1,-1,-1,-1,-1,-1,-1,-1,-1,-1,-1,-1,-1,-1,-1,-1,-1,-1,-1,-1,-1,-1,-1,-1,-1,-1,-1,-1,-1,-1,-1,-1,-1,-1,-1,-1,-1,-1,-1,-1,-1,-1,-1,-1,-1,-1,-1,-1,-1,-1,-1,-1,-1,-1,-1,-1,-1,-1,-1,-1,-1,-1,-1,-1,-1,-1,-1,-1,-1,-1,-1,-1,-1,-1,-1,-1,-1,-1,-1,-1,-1,-1,-1,-1,-1,-1,-1,-1,-1,-1,-1,-1,-1,-1,-1,-1,-1,-1,-1,-1,-1,-1,-1,-1,-1,-1,-1,-1,-1,-1,-1,-1,-1,-1,-1,-1,-1,-1,-1,-1,-1,-1,-1,-1,-1,-1,-1,-1,-1,-1,-1,-1,-1,-1,-1,-1,-1,-1,-1,-1,-1,-1,-1,-1,-1,-1,-1,-1,-1,-1,-1,-1,-1,-1,-1,-1,-1,-1,-1,-1,-1,-1,-1,-1,-1,-1,-1,-1,-1,-1,-1,-1,-1,-1,-1,-1,-1,-1,-1,-1,-1,-1,-1,-1,-1,-1,-1,-1,-1,-1,-1,-1,-1,-1,-1,-1,-1,-1,-1,-1,-1,-1,-1,-1,-1,-1,-1,-1,-1,-1,-1,-1,-1,-1,-1,-1,-1,-1,-1,-1,-1,-1,-1,-1,-1,-1,-1,-1,-1,-1,-1,-1,-1,-1,-1,-1,-1,-1,-1,-1,-1,-1,-1,-1,-1,-1,-1,-1,-1,-1,-1,-1,-1,-1,-1,-1,-1,-1,-1,-1,-1,-1,-1,-1,-1,-1,-1,-1,-1,-1,-1,-1,-1,-1,-1,-1,-1,-1,-1,-1,-1,-1,-1,-1,-1,-1,-1,-1,-1,-1,-1,-1,-1,-1,-1,-1,-1,-1,-1,-1,-1,-1,-1,-1,-1,-1,-1,-1,-1,-1,-1,-1,-1,-1,-1,-1,-1,-1,-1,-1,-1,-1,-1,-1,-1,-1,-1,-1,-1,-1,-1,-1,-1,-1,-1,-1,-1,-1,-1,-1,-1,-1,-1,-1,-1,-1,-1,-1,-1,-1,-1,-1,-1,-1,-1,-1,-1,-1,-1,-1,-1,-1,-1,-1,-1,-1,-1,-1,-1,-1,-1,-1,-1,-1,-1,-1,-1,-1,-1,-1,-1,-1,-1,-1,-1,-1,-1,-1,-1,-1,-1,-1,-1,-1,-1,-1,-1,-1,-1,-1,-1,-1,-1,-1,-1,-1,-1,-1,-1,-1,-1,
-1,-1,-1,-1,-1,-1,-1,-1,-1,-1,-1,-1,-1,-1,-1,-1,-1,-1,-1,-1,-1,-1,-1,-1,-1,-1,-1,-1,-1,-1,-1,-1,-1,-1,-1,-1,-1,-1,-1,-1,-1,-1,-1,-1,-1,-1,-1,-1,-1,-1,-1,-1,-1,-1,-1,-1,-1,-1,-1,-1,-1,-1,-1,-1,-1,-1,-1,-1,-1,-1,-1,-1,-1,-1,-1,-1,-1,-1,-1,-1,-1,-1,-1,-1,-1,-1,-1,-1,-1,-1,-1,-1,-1,-1,-1,-1,-1,-1,-1,-1,-1,-1,-1,-1,-1,-1,-1,-1,-1,-1,-1,-1,-1,-1,-1,-1,-1,-1,-1,-1,-1,-1,-1,-1,-1,-1,-1,-1,-1,-1,-1,-1,-1,-1,-1,-1,-1,-1,-1,-1,-1,-1,-1,-1,-1,-1,-1,-1,-1,-1,-1,-1,-1,-1,-1,-1,-1,-1,-1,-1,-1,-1,-1,-1,-1,-1,-1,-1,-1,-1,-1,-1,-1,-1,-1,-1,-1,-1,-1,-1,-1,-1,-1,-1,-1,-1,-1,-1,-1,-1,-1,-1,-1,-1,-1,-1,-1,-1,-1,-1,-1,-1,-1,-1,-1,-1,-1,-1,-1,-1,-1,-1,-1,-1,-1,-1,-1,-1,-1,-1,-1,-1,-1,-1,-1,-1,-1,-1,-1,-1,-1,-1,-1,-1,-1,-1,-1,-1,-1,-1,-1,-1,-1,-1,-1,-1,-1,-1,-1,-1,-1,-1,-1,-1,-1,-1,-1,-1,-1,-1,-1,-1,-1,-1,-1,-1,-1,-1,-1,-1,-1,-1,-1,-1,-1,-1,-1,-1,-1,-1,-1,-1,-1,-1,-1,-1,-1,-1,-1,-1,-1,-1,-1,-1,-1,-1,-1,-1,-1,-1,-1,-1,-1,-1,-1,-1,-1,-1,-1,-1,-1,-1,-1,-1,-1,-1,-1,-1,-1,-1,-1,-1,-1,-1,-1,-1,-1,-1,-1,-1,-1,-1,-1,-1,-1,-1,-1,-1,-1,-1,-1,-1,-1,-1,-1,-1,-1,-1,-1,-1,-1,-1,-1,-1,-1,-1,-1,-1,-1,-1,-1,-1,-1,-1,-1,-1,-1,-1,-1,-1,-1,-1,-1,-1,-1,-1,-1,-1,-1,-1,-1,-1,-1,-1,-1,-1,-1,-1,-1,-1,-1,-1,-1,-1,-1,-1,-1,-1,-1,-1,-1,-1,-1,-1,-1,-1,-1,-1,-1,-1,-1,-1,-1,-1,-1,-1,-1,-1,-1,-1,-1,-1,-1,-1,-1,-1,-1,-1,-1,-1,-1,-1,-1,-1,-1,-1,-1,-1,-1,-1,-1,-1,-1,-1,-1,-1,-1,-1,-1,-1,-1,-1,-1,-1,-1,-1,-1,-1,-1,-1,-1,-1,-1,-1,-1,-1,-1,-1,-1,-1,-1,-1,-1,-1,-1,-1,-1,-1,-1,-1,-1,-1,-1,-1,-1,-1,-1,-1,-1,-1,-1,-1,-1,-1,-1,-1,-1,-1,-1,-1,-1,-1,-1,-1,-1,-1,-1,-1,-1,-1,-1,-1,-1,-1,-1,-1,-1,-1,-1,-1,-1,-1,-1,-1,-1,-1,-1,-1,-1,-1,-1,-1,-1,-1,-1,-1,-1,-1,-1,-1,-1,-1,-1,-1,-1,-1,-1,-1,-1,-1,-1,-1,-1,-1,-1,-1,-1,-1,-1,-1,-1,-1,-1,-1,-1,-1,-1,-1,-1,-1,-1,-1,-1,-1,-1,-1,-1,-1,-1,-1,-1,-1,-1,-1,-1,-1,-1,-1,-1,-1,-1,-1,-1,-1,-1,-1,-1,-1,-1,-1,-1,-1,-1,-1,-1,-1,-1,-1,-1,-1,-1,-1,-1,-1,-1,-1,-1,-1,-1,-1,-1,-1,-1,-1,-1,-1,-1,-1,-1,-1,-1,-1,-1,-1,-1,-1,-1,-1,-1,-1,-1,-1,-1,-1,-1,-1,-1,-1,-1,-1,-1,-1,-1,-1,-1,-1,-1,-1,-1,-1,-1,-1,-1,-1,-1,-1,-1,-1,-1,-1,-1,-1,-1,-1,-1,-1,-1,-1,-1,-1,-1,-1,-1,-1,-1,-1,-1,-1,-1,-1,-1,-1,-1,-1,-1,-1,-1,-1,-1,-1,-1,-1,-1,-1,-1,-1,-1,-1,-1,-1,-1,-1,-1,-1,-1,-1,-1,-1,-1,-1,-1,-1,-1,-1,-1,-1,-1,-1,-1,-1,-1,-1,-1,-1,-1,-1,-1,-1,-1,-1,-1,-1,-1,-1,-1,-1,-1,-1,-1,-1,-1,-1,-1,-1,-1,-1,-1,-1,-1,-1,-1,-1,-1,-1,-1,-1,-1,-1,-1,-1,-1,-1,-1,-1,-1,-1,-1,-1,-1,-1,-1,-1,-1,-1,-1,
1.84023e-02,-1.57635e-02,-6.92363e-03,1.67632e-02,-3.36227e-02,2.14185e-02,-7.34733e-03,1.81694e-02,4.96489e-03,-4.37301e-03,9.90575e-03,1.76185e-03,1.35047e-02,-1.29193e-02,-2.57311e-03,-3.21398e-03,5.17657e-03,-1.42671e-04,3.12202e-02,1.11139e-02,-1.33002e-02,-2.15700e-02,-5.98627e-03,-1.54050e-02,-1.14446e-02,1.71006e-03,2.12903e-02,1.94120e-02,-3.49125e-02,2.21400e-02,9.97728e-03,3.38770e-02,2.35735e-02,-3.25297e-02,-3.36422e-02,-1.61007e-02,3.17408e-02,-5.60826e-03,1.53699e-02,-1.80377e-02,3.48575e-02,-1.44202e-02,2.73507e-02,3.13130e-03,-1.58097e-02,1.86402e-02,-1.79574e-02,1.12610e-02,-9.78799e-03,-2.48301e-03,-3.28863e-02,-1.69569e-02,1.93798e-02,-8.68133e-03,3.55732e-02,2.86282e-02,-1.67227e-03,-2.38387e-02,2.17487e-02,1.10567e-02,-2.31410e-02,2.32315e-02,2.24967e-02,3.33816e-02,-1.72666e-02,-4.84248e-03,1.64505e-04,1.33757e-02,-1.59274e-02,-1.17228e-02,4.50553e-02,2.47371e-02,5.27886e-02,2.79924e-02,2.82296e-02,1.93848e-02,2.14335e-02,2.16308e-02,-3.05098e-02,1.89487e-02,-2.37775e-02,-2.62533e-02,2.17194e-03,-6.08597e-03,2.09759e-02,-2.06834e-02,-3.17457e-02,2.59408e-02,-5.27185e-03,1.79564e-02,1.05946e-02,-2.89554e-02,-3.53400e-04,5.41722e-03,-3.20157e-02,-2.48643e-02,8.20523e-04,-1.10266e-02,-3.96151e-02,-4.50698e-02,1.84835e-02,-3.16602e-02,-8.77260e-03,-1.50524e-02,-4.88819e-02,-4.03337e-02,2.79082e-02,-4.81443e-03,1.86815e-02,6.59878e-03,1.13098e-02,2.66771e-02,3.38648e-02,-2.36996e-02,4.48221e-03,2.63771e-02,2.30988e-02,1.74931e-02,-3.30684e-02,-4.42021e-02,-5.25394e-02,-2.16875e-02,-4.06894e-03,-7.51421e-02,-1.15162e-02,-5.71320e-02,-7.26548e-02,-4.67060e-02,-2.26615e-02,-5.98974e-03,-6.25619e-02,-1.27269e-02,2.56587e-02,3.34286e-04,-1.14978e-02,-2.81280e-03,-6.67147e-03,1.07096e-03,-2.30338e-02,-2.96333e-02,-1.63650e-02,-4.15878e-03,-2.18291e-02,9.23323e-03,6.04897e-03,-6.60933e-03,1.95957e-02,1.02986e-02,1.59650e-02,1.96883e-02,-1.30236e-02,4.86149e-02,3.75851e-02,2.79171e-02,-1.36727e-02,-2.30794e-02,-4.39100e-02,-5.00531e-02,-1.33140e-02,-5.51586e-02,-7.71412e-02,-1.63626e-02,-8.10271e-03,-7.62715e-03,-5.16647e-02,-4.79106e-03,-1.37044e-02,-8.11514e-03,-2.84614e-02,-1.62772e-02,-9.12437e-03,1.56767e-02,1.15146e-02,2.69698e-02,7.13170e-02,1.00223e-01,1.05457e-01,9.13797e-02,6.07306e-02,1.23051e-01,5.05562e-02,-1.32932e-02,-7.84210e-02,-6.66543e-02,-8.26064e-02,-5.24411e-02,-1.17800e-01,-7.52130e-02,-3.80580e-02,2.04054e-02,5.48124e-02,9.03087e-03,-3.57992e-02,-1.09556e-02,2.14817e-02,-2.60898e-02,1.69001e-02,2.31188e-02,4.39933e-02,-1.26253e-02,2.57491e-02,-4.43782e-03,1.13532e-01,1.08728e-01,1.57761e-01,1.25291e-01,1.26310e-01,1.00581e-01,4.19412e-02,-2.02514e-02,-1.07799e-01,-1.26679e-01,-1.53615e-01,-6.31860e-02,-2.78140e-02,8.60788e-03,6.44912e-02,8.44792e-02,1.26152e-01,1.18994e-01,-2.95086e-02,-1.76517e-03,-3.74068e-02,-2.54620e-02,1.66793e-02,-2.24280e-02,3.45805e-03,5.23546e-02,7.77286e-02,9.85205e-02,9.73444e-02,1.21117e-01,1.86099e-01,1.28905e-01,1.26862e-01,1.23536e-01,4.35051e-02,5.37897e-02,1.53517e-02,-7.66028e-02,-8.50975e-02,-2.80351e-02,1.84103e-02,2.34433e-02,3.57315e-02,9.84156e-02,7.83295e-02,4.94910e-02,-4.84253e-02,-2.02131e-02,2.24939e-02,-1.43977e-02,2.03969e-03,1.91137e-02,1.58539e-02,1.62485e-02,7.40280e-02,1.08841e-01,1.02326e-01,1.06981e-01,1.53590e-01,1.81873e-01,1.17133e-01,1.60867e-01,1.20291e-01,4.36736e-02,6.08374e-02,-1.37711e-02,3.94097e-02,-1.60230e-02,2.09196e-02,1.51860e-02,3.68602e-02,8.59171e-02,4.96589e-02,-7.37506e-03,-9.00223e-02,-6.44014e-02,-2.64443e-02,5.74129e-04,-6.66703e-03,1.51434e-02,4.42101e-02,3.53815e-02,2.94431e-02,3.57630e-02,3.91176e-02,1.02382e-01,1.06677e-01,1.53563e-01,1.38920e-01,6.84083e-02,5.61058e-02,3.31517e-03,-8.96511e-04,-1.09569e-03,-7.50734e-03,-9.77108e-03,-5.68425e-02,-5.44200e-02,-1.30387e-02,4.14594e-02,6.24373e-02,-2.41626e-02,-6.96174e-02,-7.36209e-02,-4.88843e-02,3.01917e-02,7.31414e-03,3.35998e-02,4.95936e-03,9.33734e-03,-2.51644e-02,-1.08736e-02,3.48339e-02,1.83203e-02,8.27557e-02,1.23319e-01,6.49210e-02,-3.06063e-03,-9.68802e-02,-1.30061e-01,-4.59554e-02,-2.01209e-02,1.62920e-02,-2.46536e-02,-5.55122e-02,-5.45542e-02,-4.58911e-02,2.70946e-02,6.24210e-02,1.27331e-02,5.45155e-03,-4.87426e-02,-6.24493e-03,-1.16359e-02,-1.97517e-02,-1.69447e-02,1.89580e-02,1.45407e-02,-2.92743e-02,-9.36295e-02,-1.12834e-01,4.64847e-03,1.71035e-02,-3.20824e-02,-1.15470e-01,-1.76589e-01,-2.63210e-01,-2.31943e-01,-6.31587e-02,3.00619e-03,6.01543e-03,-2.08442e-02,-1.53994e-02,-3.27564e-02,7.33878e-03,2.82435e-02,3.64895e-02,-6.47994e-03,-2.35171e-02,-1.96018e-02,2.91410e-02,-3.91572e-03,1.46532e-02,2.98429e-03,-2.59233e-02,-2.07880e-02,-3.92555e-02,-1.32219e-01,-1.72895e-01,-9.00095e-02,-1.23231e-01,-1.57322e-01,-1.69235e-01,-2.11410e-01,-3.05066e-01,-1.54795e-01,-4.24616e-02,5.08453e-02,4.41584e-02,-7.64703e-03,1.00820e-02,-7.12381e-02,-5.84558e-02,2.89140e-02,1.59546e-02,9.38667e-03,9.71807e-03,1.72220e-02,1.48991e-02,3.00671e-02,5.11443e-03,-1.79226e-02,3.68566e-02,-1.05328e-02,-3.05853e-02,-1.29542e-01,-1.04680e-01,-9.42632e-02,-2.29057e-01,-2.12677e-01,-2.14444e-01,-2.27353e-01,-2.05870e-01,-9.52155e-02,2.52686e-02,6.91554e-02,1.19534e-01,5.23172e-02,1.97210e-02,2.30495e-02,-1.21539e-02,-1.76944e-02,3.82732e-02,1.18113e-02,-2.27424e-02,5.47598e-02,-1.61725e-02,-1.38828e-02,-2.94006e-02,3.06687e-02,4.37900e-03,2.05282e-02,-4.37092e-02,-9.34134e-02,-1.23679e-01,-1.79943e-01,-1.73731e-01,-2.09931e-01,-1.79657e-01,-1.52137e-01,-6.79822e-02,5.97194e-02,1.49278e-01,1.21828e-01,1.28674e-01,1.03791e-01,4.89542e-02,1.55454e-02,-6.11984e-02,5.36043e-02,-3.64888e-02,-1.92318e-03,2.99189e-03,4.15579e-02,-1.18237e-02,2.30085e-02,-1.75772e-02,-3.37947e-02,2.89542e-03,-5.88863e-03,-8.24484e-03,-8.08317e-02,-5.52961e-02,-8.29674e-02,-1.04609e-01,-1.27392e-01,-4.32353e-02,-1.64483e-02,1.13329e-01,1.36472e-01,2.27684e-01,1.74978e-01,1.19073e-01,7.13017e-02,-5.00061e-02,-5.30274e-02,-4.59640e-02,-3.85569e-02,-5.12948e-02,-3.51434e-02,4.70899e-02,7.20489e-02,4.08791e-02,3.03014e-02,-3.42038e-02,1.13604e-02,1.74601e-03,-6.52170e-02,-3.96992e-02,-9.63363e-02,-1.18868e-01,-8.85899e-02,-2.61206e-02,1.24721e-03,4.39771e-02,1.75876e-01,2.20224e-01,2.74593e-01,2.59009e-01,1.21313e-01,5.72087e-02,-7.12728e-02,-8.45189e-02,-9.46473e-02,-5.40825e-02,-9.93502e-02,-8.23556e-02,-7.23725e-03,8.60211e-03,3.82814e-02,-1.76832e-02,-1.62109e-02,-6.81506e-03,-2.11874e-02,-2.77210e-02,-7.72465e-02,-4.03159e-02,-8.13569e-02,-1.52743e-01,-8.07666e-02,-8.25217e-02,4.35505e-02,1.07435e-01,1.33995e-01,1.78342e-01,2.28702e-01,1.82436e-01,8.95714e-02,-5.69282e-02,-1.34876e-01,-1.26383e-01,-1.50546e-01,-1.07320e-01,-1.27955e-01,-4.87894e-02,-1.46495e-02,3.68393e-02,2.98978e-02,1.67783e-02,1.09336e-02,1.58518e-02,1.14194e-02,-1.50766e-02,-7.84521e-02,-3.91860e-02,-8.92206e-02,-1.45328e-01,-4.76286e-02,-3.43971e-02,-2.20092e-02,4.25579e-02,9.24680e-02,1.53655e-01,2.18938e-01,1.25023e-01,9.24733e-02,-7.16228e-02,-1.46604e-01,-1.84544e-01,-1.62021e-01,-8.39561e-02,-1.31413e-01,-6.79662e-02,1.98762e-02,9.34496e-02,1.90007e-02,-1.54662e-02,-2.25889e-02,-1.57456e-02,-1.24322e-02,-1.66249e-02,-6.92897e-02,-5.35600e-02,-7.11896e-02,-9.14611e-02,-6.97757e-02,-1.17939e-02,9.42489e-05,6.52899e-02,6.73638e-02,1.13803e-01,7.95894e-02,6.46674e-02,6.33527e-03,-8.24603e-02,-1.54051e-01,-1.47690e-01,-1.27349e-01,-7.58788e-02,-5.36274e-02,-2.82488e-02,5.68888e-02,6.40716e-02,-4.81799e-03,-1.50016e-02,2.24237e-02,1.63077e-02,2.77314e-02,-1.34693e-02,-1.41943e-02,-4.31733e-02,-4.90478e-02,-4.25811e-02,4.12787e-03,4.41871e-03,3.15659e-02,4.56688e-02,6.38725e-02,6.05579e-02,2.32548e-02,5.05255e-02,2.64984e-03,-9.11639e-02,-1.22872e-01,-8.39729e-02,-5.31821e-02,-8.60423e-02,-5.67947e-03,5.34253e-03,1.25185e-02,2.00705e-02,1.97009e-02,7.95858e-03,2.41216e-02,1.30704e-02,1.62489e-02,2.22919e-02,-1.43830e-02,-3.23439e-02,-3.12707e-02,2.07874e-02,3.62910e-02,5.00546e-02,6.41738e-02,3.31568e-02,2.78695e-02,2.74217e-03,4.46554e-02,4.57319e-02,-1.37232e-02,-4.68144e-02,-7.47337e-02,-8.76765e-02,-6.15138e-02,-3.61639e-02,1.67090e-03,-2.00745e-02,-2.46030e-02,5.03889e-03,-7.76883e-03,2.44530e-02,2.90303e-02,2.27522e-02,1.58065e-02,-3.40183e-02,1.03567e-02,-5.79004e-02,-3.13896e-02,-1.97758e-02,2.62536e-02,-1.94062e-02,-1.54095e-02,-1.35665e-02,1.09279e-02,4.88317e-02,1.02970e-01,6.56599e-02,8.15992e-02,-1.21433e-02,1.03747e-02,-5.13613e-02,-7.80164e-02,-2.65021e-03,-1.22397e-02,3.14557e-02,-3.68073e-02,-4.08965e-02,-2.87469e-02,1.38287e-02,-4.00525e-03,-3.30864e-02,6.62204e-03,-4.55839e-03,2.07404e-04,-2.58320e-02,-1.09143e-02,2.86429e-02,-5.11945e-02,-2.02971e-02,-1.90301e-02,-4.84498e-02,1.14064e-02,3.98360e-02,1.08092e-02,5.18855e-02,3.07336e-02,-3.70267e-02,-6.77414e-02,-3.66559e-02,-7.70715e-02,-8.57689e-02,-4.90968e-02,-5.94264e-02,-5.92833e-02,8.85381e-03,-1.45414e-02,2.56549e-02,2.51399e-02,-2.27775e-02,-2.08204e-02,-1.42071e-02,2.10045e-02,3.49945e-03,7.73180e-03,3.69936e-02,3.44433e-02,1.39930e-02,-2.49964e-02,-1.11723e-02,-1.14878e-03,3.17689e-02,-2.23329e-02,-1.14398e-03,3.18325e-02,-8.82868e-03,-1.71269e-02,-4.58643e-02,-9.26300e-02,-3.48946e-02,-1.92928e-02,-1.89474e-02,-4.90949e-02,1.28542e-02,2.41027e-02,1.06295e-02,-1.38051e-02,2.39524e-03,-1.37200e-02,3.36234e-02,3.43480e-02,-1.00680e-02,-2.95815e-02,2.39999e-02,3.52605e-02,4.46598e-02,1.20708e-02,4.92873e-02,1.34529e-02,-2.45551e-02,-1.04283e-02,3.86857e-02,4.41753e-02,-1.74083e-02,1.95140e-02,2.74927e-02,9.46839e-03,5.26321e-04,-1.12337e-02,2.46769e-02,2.69204e-02,1.86142e-02,-2.56868e-02,-1.24645e-02,2.82935e-02,2.72277e-02,2.27885e-02,-1.49272e-02,-7.07315e-03,-2.65787e-02,-2.02648e-02,2.72093e-02,-2.87999e-02,-5.56368e-03,1.45622e-02,-9.79132e-03,1.67950e-02,1.13319e-02,3.85049e-02,-1.05081e-02,2.07377e-02,-1.88229e-02,3.57636e-02,4.47922e-02,-7.77052e-03,5.94463e-03,-1.68363e-02,-2.05787e-02,-1.70331e-02,-1.70142e-02,6.77936e-03,-4.09383e-03,2.50415e-03,
-2.73690e-02,-2.24379e-02,-3.09186e-02,-2.56694e-02,2.99077e-02,1.32687e-02,-3.40607e-02,-5.96086e-03,2.86628e-03,1.90795e-02,3.31234e-02,8.62413e-03,2.54821e-02,-1.19591e-02,-1.10662e-03,-2.15570e-02,8.22752e-03,3.29663e-02,2.24278e-02,3.55386e-02,-1.60925e-02,-4.46866e-03,7.36691e-03,2.87133e-02,-3.28300e-02,-1.75397e-02,5.18074e-03,-2.06430e-02,1.33415e-02,-2.43482e-03,-9.25457e-03,1.91539e-02,2.55240e-02,3.47389e-02,1.61729e-02,-9.66652e-04,2.94532e-02,2.83279e-02,-1.79641e-02,1.38858e-02,2.64344e-03,-1.64862e-02,-4.59406e-03,2.85152e-04,-1.45848e-02,-8.87045e-03,1.25023e-02,2.53047e-02,5.88059e-04,-3.63765e-02,1.86659e-02,-1.08066e-02,3.18947e-02,-3.45100e-02,-8.35595e-03,2.76972e-02,1.54500e-02,-1.78181e-02,-3.09253e-02,-3.83589e-04,1.37971e-02,-2.96845e-02,-2.99592e-02,-1.26075e-04,-9.28485e-03,1.81604e-02,-4.19446e-02,-1.68934e-03,-1.74638e-02,1.31945e-02,1.47664e-02,5.53064e-02,1.00446e-02,-1.69208e-02,-2.56630e-02,-3.86845e-02,8.78556e-03,-2.51310e-02,-3.19003e-02,2.15161e-02,-6.09331e-03,2.08117e-02,-1.10711e-02,-2.98803e-02,7.84384e-03,2.22390e-02,-3.47606e-02,3.88256e-03,8.93112e-03,1.01174e-02,5.03042e-03,-1.36363e-03,-1.75738e-02,2.79532e-02,-3.49997e-03,1.03073e-02,8.11341e-02,7.18998e-02,1.28572e-01,1.54294e-01,1.31763e-01,6.64082e-02,7.12179e-02,3.03324e-02,4.22389e-03,-4.04351e-03,-4.93387e-03,7.29012e-03,7.65949e-03,1.50684e-02,-1.44367e-02,-1.99121e-02,-1.69352e-02,2.93861e-02,-8.05306e-03,3.62053e-03,-2.29279e-02,3.44644e-02,4.17591e-02,5.19790e-02,1.30273e-01,8.51868e-02,1.43047e-01,1.59985e-01,1.34325e-01,2.04038e-01,1.85954e-01,1.74880e-01,1.52100e-01,1.04454e-01,1.00273e-01,1.23359e-01,9.30836e-02,2.54349e-02,-5.68862e-03,-3.46453e-02,6.00227e-03,1.03251e-02,-3.42803e-02,2.58116e-02,5.63190e-03,-3.32689e-02,1.27285e-02,3.66111e-02,4.84291e-02,1.11251e-01,1.02852e-01,7.05105e-02,9.77034e-02,1.32781e-01,9.53944e-02,1.19473e-01,9.30103e-02,1.02637e-01,1.08073e-01,1.69676e-01,1.02069e-01,9.73863e-02,1.14302e-01,1.21212e-01,1.63720e-01,9.47841e-02,1.46036e-02,-6.26265e-03,3.53538e-03,1.44598e-02,3.07591e-02,-2.07065e-02,1.49555e-03,3.48109e-02,-2.61203e-02,2.05143e-02,1.00633e-01,1.25228e-01,1.09432e-01,5.16556e-02,8.84694e-02,8.83552e-02,9.02217e-02,6.24650e-02,1.25861e-01,1.16889e-01,7.88083e-02,1.40692e-02,5.65003e-02,4.94180e-03,5.29336e-02,8.12946e-03,5.77929e-02,5.12190e-02,1.39501e-02,-5.81564e-02,4.77204e-03,-1.50794e-02,1.87602e-02,2.12207e-02,-5.40874e-03,2.19645e-02,1.15080e-02,5.77724e-02,6.73416e-02,9.76188e-02,5.81218e-02,7.34173e-02,1.66527e-02,3.70847e-02,5.71610e-02,7.05504e-02,6.84727e-02,-1.65726e-02,-3.84081e-02,-2.88817e-02,-5.13993e-02,-3.92115e-02,-2.25150e-02,1.63723e-02,3.34974e-02,2.32478e-02,1.21966e-03,-7.64900e-02,-5.60448e-02,1.30197e-02,2.61149e-02,-1.77822e-02,-4.95422e-03,-2.47979e-02,3.35807e-02,7.27198e-02,1.30311e-01,1.08817e-01,6.58557e-02,2.51499e-02,-2.85026e-03,-6.62114e-02,-3.56608e-02,-8.87585e-02,-9.75980e-02,-7.44291e-02,-1.00735e-01,-9.65437e-02,-5.57349e-02,-1.73809e-03,1.30456e-02,-1.12133e-02,-2.04191e-02,-4.72972e-03,-1.11557e-02,-1.16457e-01,-4.34925e-02,9.28550e-03,3.02424e-02,-7.28745e-03,-2.81607e-02,9.77472e-03,-1.40252e-02,4.79132e-02,4.67562e-02,6.62184e-02,2.97637e-03,-8.84624e-03,-7.53615e-02,-1.31627e-01,-1.77328e-01,-2.13662e-01,-1.84557e-01,-1.35454e-01,-8.13626e-02,-1.42486e-02,6.67563e-02,3.86169e-02,2.48629e-02,-1.00741e-02,-9.90501e-03,-7.82366e-02,-9.58469e-02,-1.16395e-01,-7.53309e-02,1.55616e-02,-2.67385e-02,3.50384e-03,-3.33126e-02,-1.85620e-03,5.58637e-03,1.12812e-02,3.30068e-04,-1.87597e-02,-4.64256e-02,-1.21025e-01,-2.19582e-01,-2.69621e-01,-2.70654e-01,-2.27627e-01,-1.60074e-01,-3.71901e-02,2.29777e-02,1.06054e-01,1.39453e-01,6.53439e-02,4.26456e-02,2.50217e-02,-1.95473e-02,-1.03312e-01,-1.79034e-01,-1.89720e-01,-8.52684e-02,3.69578e-02,2.35660e-02,1.10451e-02,-2.71975e-02,-2.59865e-02,3.24927e-02,2.51105e-02,-4.55162e-02,-9.99106e-02,-1.83525e-01,-2.23694e-01,-2.01258e-01,-1.92491e-01,-1.67984e-01,-5.46079e-02,-3.96180e-02,5.01594e-02,1.52662e-01,1.82082e-01,1.22960e-01,6.81610e-02,-1.70344e-02,-1.87660e-02,-9.79308e-02,-1.59056e-01,-1.83334e-01,-1.19663e-01,-7.60282e-02,-2.13428e-02,-8.68083e-03,6.48309e-03,2.61623e-02,2.86489e-02,2.59997e-02,1.55085e-02,-4.94056e-02,-1.28104e-01,-2.24282e-01,-1.77871e-01,-1.47353e-01,-4.72609e-02,2.56634e-02,3.57201e-02,1.02246e-02,1.03310e-01,1.75815e-01,1.70536e-01,1.02975e-01,1.97240e-02,-4.78022e-02,-4.85366e-02,-1.19267e-01,-1.10545e-01,-1.54323e-01,-1.61196e-01,-8.04470e-02,-8.48566e-03,-2.19801e-02,-1.51543e-02,-2.33981e-03,-2.98528e-02,-3.04229e-02,8.20947e-03,-7.74791e-02,-1.68432e-01,-2.02660e-01,-1.41796e-01,2.89235e-02,3.83311e-02,-1.57137e-02,-8.65335e-03,3.78577e-02,1.52217e-01,2.25516e-01,7.25897e-02,6.29804e-03,4.98161e-03,-8.66465e-02,-8.10892e-02,-1.04598e-01,-1.11344e-01,-1.44579e-01,-1.62439e-01,-5.55977e-02,-7.63613e-03,2.80246e-03,-1.90485e-02,1.44711e-02,3.43471e-02,-5.03801e-03,-1.65843e-02,-7.31678e-02,-9.28108e-02,-1.26656e-01,-8.77542e-02,-1.64632e-02,2.51392e-02,-3.12567e-02,-2.41130e-02,6.56469e-02,1.12158e-01,1.84803e-01,9.43065e-02,-1.67736e-02,-7.39852e-02,-5.66475e-02,-8.96165e-03,4.15487e-03,-9.90049e-03,-6.80325e-02,-7.34512e-02,-2.57887e-02,4.23772e-02,2.34307e-02,1.10768e-02,8.18693e-03,-3.14337e-02,-6.71710e-03,2.18428e-02,-2.21650e-02,-8.58854e-02,-3.54044e-02,-8.60313e-02,-1.29277e-01,-7.76554e-02,-8.24536e-02,-4.47374e-02,3.04397e-02,1.21406e-01,1.75063e-01,1.09086e-02,-5.01735e-02,-9.08026e-02,-2.77527e-02,3.30462e-02,5.52087e-02,5.43425e-02,1.96849e-02,-2.05055e-02,-1.27607e-02,-3.41478e-03,3.74676e-02,2.53661e-02,2.98153e-02,-1.72875e-02,4.62329e-02,4.35877e-02,4.37454e-02,-1.29256e-02,-2.86246e-02,-1.09798e-01,-1.52253e-01,-1.54971e-01,-1.19888e-01,-1.45621e-01,-6.42309e-02,8.17250e-02,1.33705e-01,-2.88535e-03,-9.12920e-02,-7.91938e-02,4.87465e-02,6.30658e-02,7.44879e-02,5.64023e-02,1.07270e-01,6.50261e-02,4.13257e-02,2.30748e-02,4.53231e-02,1.21186e-02,1.02476e-02,1.30875e-03,1.01569e-02,6.23433e-02,1.09378e-01,3.70284e-02,7.72405e-03,-6.66069e-02,-1.50508e-01,-1.97998e-01,-2.38057e-01,-2.35458e-01,-1.07752e-01,2.06124e-02,1.78084e-02,-5.32950e-02,-3.53886e-02,-5.31378e-02,4.32496e-02,5.14409e-02,5.17731e-02,7.51575e-02,8.54231e-02,7.21456e-02,5.99431e-02,2.53436e-02,4.20825e-02,9.82080e-03,-6.73879e-04,5.26869e-03,4.91850e-02,1.18236e-01,1.23320e-01,4.58127e-02,6.89148e-04,-2.98514e-02,-1.11844e-01,-1.12466e-01,-1.48073e-01,-1.79481e-01,-1.29354e-01,-1.43457e-02,1.36580e-02,2.07254e-02,4.88047e-02,6.57170e-02,4.07148e-02,9.88883e-02,7.69642e-02,1.26257e-01,7.41665e-02,4.20273e-02,3.79425e-02,4.02328e-02,1.86079e-03,3.09070e-03,1.32640e-04,1.93925e-02,2.81227e-02,9.45340e-02,8.99325e-02,7.46927e-02,5.55915e-02,6.71627e-02,7.79111e-03,3.80263e-02,-4.18979e-02,-5.41100e-02,-5.43299e-02,-1.92235e-02,-2.65009e-02,4.04278e-02,5.59778e-02,1.22980e-01,6.25430e-02,1.11624e-01,9.86200e-02,1.07445e-01,5.03325e-02,4.22231e-02,-2.39185e-02,4.40948e-02,-2.57578e-02,-7.43790e-03,-1.96829e-02,-2.24907e-02,5.10397e-03,1.26168e-01,1.26386e-01,9.73937e-02,1.43588e-01,8.40534e-02,7.72162e-02,9.16600e-02,1.05042e-01,6.66518e-02,-3.32503e-02,1.40213e-02,8.46557e-03,4.00671e-02,1.03351e-01,1.27690e-01,9.17442e-02,1.09807e-01,1.31703e-01,6.65005e-02,4.76191e-02,1.87463e-02,2.47284e-02,-7.37921e-03,-2.18399e-02,-1.31475e-02,-2.42150e-02,1.63490e-03,5.61463e-02,1.26447e-01,1.40916e-01,1.08932e-01,1.28991e-01,1.21725e-01,1.22897e-01,8.63108e-02,7.76972e-02,6.66795e-02,2.25686e-02,-2.54364e-02,-1.24382e-02,5.91719e-02,8.67794e-02,5.47348e-02,8.76056e-02,7.63171e-02,6.17326e-02,6.27910e-02,-4.66437e-02,1.60702e-03,-4.72793e-02,-1.71531e-02,-8.04614e-03,2.47383e-03,-5.71934e-03,-1.62885e-02,1.68156e-04,3.22730e-02,7.24271e-02,9.81999e-02,1.44148e-01,5.41412e-02,1.52995e-02,7.83261e-02,8.29022e-02,4.53749e-02,-7.01471e-02,-7.09913e-02,-3.33522e-02,-9.98920e-04,3.71723e-02,8.11600e-02,9.63223e-02,3.60131e-02,4.20269e-02,-4.28106e-02,-3.18984e-02,-2.09864e-02,-5.99446e-03,9.02833e-03,-1.93482e-04,2.35765e-02,7.44865e-03,3.12890e-02,1.60211e-02,1.15059e-02,1.02077e-01,1.22030e-01,1.43504e-01,6.40605e-02,4.25329e-02,2.26048e-03,4.45692e-02,-1.38604e-02,1.52558e-03,-9.52449e-03,8.45178e-04,-1.22406e-02,-1.53151e-02,4.18462e-02,2.33062e-02,3.38775e-02,-6.16247e-02,-8.08306e-02,-6.08642e-02,-1.20475e-02,1.13243e-02,-5.83192e-03,-6.29531e-03,-6.19378e-04,1.84072e-02,-3.02704e-02,-6.42505e-03,-1.72406e-02,4.10196e-02,6.86404e-02,1.23461e-01,1.18788e-01,1.84814e-02,2.01508e-02,1.67500e-02,-4.68146e-03,-3.27567e-02,-3.49398e-02,-2.63289e-02,-2.78323e-02,-2.74733e-02,-6.08614e-02,-7.55903e-02,-1.33287e-01,-9.25729e-02,-8.66920e-02,-6.71933e-02,-1.34201e-02,-2.11047e-02,2.60100e-02,2.84874e-02,-3.55473e-02,-2.48895e-03,-6.10138e-03,-1.96240e-02,-2.65789e-02,-1.67727e-02,1.85482e-02,3.02080e-02,4.91065e-02,1.85725e-02,2.25269e-02,-4.23059e-03,-5.76145e-03,6.67260e-03,-3.87257e-02,-4.54085e-02,-1.19027e-01,-1.01453e-01,-9.64475e-02,-6.69784e-02,-6.80726e-02,-3.46995e-02,-1.94384e-02,-2.24107e-02,2.37071e-02,2.31409e-02,1.00864e-02,-1.31544e-02,4.55522e-03,-2.45733e-02,2.48852e-02,3.33582e-02,-5.38709e-03,2.70534e-02,3.68532e-02,4.35593e-03,-4.80312e-03,4.93130e-03,-2.28094e-03,-3.88416e-02,-9.99324e-03,-2.37182e-02,5.20571e-03,-1.83868e-02,1.63378e-02,2.48026e-02,-2.03670e-02,-3.76233e-05,-2.52827e-03,-1.59965e-02,-1.92786e-02,-8.38632e-04,9.54766e-03,-6.28146e-03,6.06508e-03,2.23186e-02,1.48886e-02,1.47276e-02,1.00370e-02,-2.74543e-02,-2.16073e-02,-2.64849e-02,2.34692e-02,-3.14541e-02,-2.65111e-02,2.38438e-02,2.17274e-02,-3.00357e-02,2.36897e-02,-5.07051e-03,1.03833e-02,-1.81261e-02,-1.22048e-03,1.10391e-02,2.73742e-02,2.04532e-02,-1.88437e-02,-2.33144e-02,-2.17335e-03,1.12086e-02,1.95821e-02,-3.55894e-02,-2.91850e-03,1.26296e-03,-1.66792e-02,
2.81692e-02,-9.48033e-03,-3.40499e-02,-2.13242e-02,1.14511e-03,-2.65775e-02,8.15755e-03,3.47430e-02,1.46202e-03,-8.79836e-03,3.36467e-02,2.63657e-02,2.24374e-02,4.86916e-04,1.62735e-03,-2.76976e-02,3.63549e-03,3.47377e-02,1.88802e-03,-3.18709e-02,1.96023e-02,3.20521e-02,2.99408e-02,1.68446e-03,6.70940e-03,5.77966e-03,-1.46376e-02,-5.21111e-03,2.91359e-02,3.64368e-03,3.36602e-02,-2.37167e-02,-5.22036e-03,3.89044e-04,-2.38469e-02,2.23687e-02,1.92645e-02,-2.23697e-02,2.78357e-02,2.60404e-02,-3.36752e-02,-1.07702e-02,3.39492e-02,-2.67982e-02,-6.64405e-03,-2.87721e-02,2.23392e-02,4.23325e-03,1.49172e-02,2.29417e-02,-8.50193e-03,-3.69036e-02,1.74889e-03,-2.76387e-03,1.29524e-02,1.66711e-02,-1.77597e-02,-1.40677e-02,2.25132e-02,1.01670e-02,8.04203e-03,1.57653e-02,1.40867e-02,-3.29190e-02,-6.23238e-03,2.08263e-03,-4.75908e-02,-1.48827e-02,-2.96202e-02,2.99315e-03,-5.17664e-02,2.14666e-02,-2.55057e-02,1.94553e-02,2.53239e-02,-2.57689e-03,-1.08955e-02,-2.67638e-03,-2.50958e-02,1.36871e-03,1.47846e-02,7.23396e-03,-2.05669e-02,1.95143e-02,3.27732e-02,-1.08665e-02,1.85459e-02,-2.51467e-03,1.52621e-02,-2.44081e-02,-3.27199e-02,-5.84993e-03,-3.45461e-02,2.79319e-02,4.56532e-02,-1.85418e-02,-3.53043e-02,-4.44282e-02,-6.41317e-02,-5.44823e-02,-1.30614e-02,1.31314e-02,-3.84927e-02,2.21752e-03,-2.46802e-02,7.82804e-03,8.06088e-03,-1.42768e-02,1.83918e-02,2.28156e-02,-1.38556e-02,-4.97904e-03,-1.09460e-02,9.62306e-04,1.19218e-02,3.32076e-02,-2.72015e-02,3.05643e-02,-4.77381e-04,4.48317e-03,6.72654e-02,2.41948e-02,-1.30790e-02,2.73221e-04,-1.09499e-02,-1.88661e-02,-1.02546e-02,-3.90359e-02,-3.79158e-02,-8.64039e-02,-7.23493e-02,-3.67391e-03,-2.59683e-02,-2.72511e-02,1.27043e-02,-3.38231e-02,-4.35961e-02,-3.30869e-04,2.73805e-02,-4.50762e-03,-2.10732e-03,1.66875e-02,4.87280e-03,8.61947e-03,3.25893e-02,5.16744e-02,3.41078e-02,5.08860e-02,7.69146e-02,4.31236e-02,9.03299e-03,3.84452e-02,3.44851e-02,4.41011e-02,9.83063e-02,4.36495e-02,6.83663e-02,2.55443e-02,-6.75359e-05,1.27074e-02,1.14617e-02,-3.84663e-02,-1.20745e-02,2.59091e-02,-4.26107e-02,-2.78295e-02,1.22258e-02,-8.94747e-03,5.24536e-03,-3.56929e-02,1.77196e-02,-3.25013e-02,2.62052e-02,9.21446e-03,2.37523e-02,8.46881e-02,1.61051e-02,2.67906e-02,-1.47790e-02,-1.66354e-02,-2.01129e-02,9.99124e-03,-1.70624e-02,3.41264e-03,3.19670e-02,-2.75404e-02,-2.71521e-02,-2.56154e-02,-1.76947e-02,2.41810e-02,7.89741e-03,5.57762e-02,2.47176e-03,-3.44029e-02,-2.24403e-02,3.37488e-02,-1.93300e-02,-2.97334e-02,-2.58375e-02,9.49806e-03,4.04390e-02,6.46247e-02,6.17547e-02,2.47504e-02,1.15471e-02,2.40565e-02,-5.66966e-02,-8.24199e-02,-3.40632e-02,-2.72301e-02,-8.60951e-03,-3.11939e-02,-6.79014e-02,-8.00744e-02,-6.62952e-02,3.70265e-02,7.16197e-02,1.40704e-02,2.59693e-02,-4.47505e-03,-2.56090e-02,-5.27170e-02,-2.29913e-02,2.59545e-02,-2.04156e-02,2.74426e-02,-1.61471e-03,1.35102e-02,4.40320e-02,5.48516e-02,7.41088e-02,2.33548e-02,2.29056e-02,1.53525e-02,-5.49005e-02,-4.85772e-02,-8.24837e-02,-1.41065e-02,-5.50356e-02,-6.07203e-02,-9.75927e-02,-3.18504e-02,1.06116e-02,6.94107e-02,7.53055e-02,3.45406e-02,7.78924e-02,-6.63531e-02,-9.87473e-02,-4.78368e-02,1.36745e-02,8.51240e-03,-2.02307e-02,1.93924e-03,-2.89628e-02,-6.36320e-04,9.85997e-03,4.27419e-02,1.57487e-02,3.71390e-02,9.95221e-03,-5.68700e-02,-5.44389e-02,-1.01274e-01,-7.51138e-02,-4.51129e-02,-1.33065e-01,-5.89241e-02,-3.56172e-02,4.85308e-03,3.11615e-02,4.67047e-02,7.27773e-02,3.08382e-02,2.18056e-02,-8.82152e-02,-1.43937e-01,-6.41773e-02,-6.13252e-02,-2.33992e-02,-2.76155e-02,1.67404e-02,1.61549e-02,-4.61774e-02,4.67812e-03,2.61938e-02,-2.38937e-02,-3.44360e-02,-5.61382e-02,-8.51112e-02,-4.01652e-02,-7.98676e-02,-8.34450e-02,-1.02292e-01,-1.55657e-01,-1.08732e-01,-2.62808e-02,2.08495e-02,5.82584e-02,4.76830e-02,5.40457e-02,1.74094e-03,-2.00010e-02,-1.02169e-01,-1.71271e-01,-9.45070e-02,-4.60317e-02,1.88162e-02,3.43949e-02,6.25064e-03,1.45045e-02,-4.99273e-02,-1.27678e-02,8.26908e-03,-4.94402e-02,-8.72454e-02,-9.99184e-02,-2.79469e-02,-3.69805e-02,-4.04935e-02,-5.62587e-02,-1.18260e-01,-8.62332e-02,-8.93902e-03,5.10323e-02,7.49485e-02,5.62317e-02,6.05791e-02,1.37022e-02,1.35447e-02,-1.82447e-02,1.90282e-03,-6.21057e-02,-4.11533e-02,3.23243e-03,2.92991e-02,-2.47086e-02,3.44721e-03,-4.83428e-02,-9.86467e-03,-5.08950e-02,-1.66569e-02,-7.34247e-02,-4.92118e-02,-2.28067e-02,4.14415e-02,1.94289e-02,6.23261e-02,5.51944e-03,-4.74447e-02,6.75531e-02,1.22106e-01,1.25577e-01,5.26444e-02,6.65585e-02,2.23834e-02,4.35637e-03,5.17794e-02,1.60852e-03,3.09013e-02,-2.83523e-02,-1.77291e-02,-3.95712e-02,-6.64730e-03,-1.10341e-02,1.62532e-02,-1.75626e-02,1.33479e-02,4.78253e-03,-1.40302e-02,-1.77021e-02,-5.84797e-02,-1.93949e-02,3.12889e-02,4.00260e-02,9.95165e-02,6.58757e-02,1.04295e-01,1.31535e-01,1.55987e-01,1.97521e-01,1.12650e-01,1.98296e-02,2.33773e-02,-6.96668e-03,4.50649e-02,-1.06745e-02,-1.75125e-02,-2.57306e-02,1.95283e-02,2.20402e-02,3.29490e-02,3.47741e-03,2.11234e-02,-3.40777e-02,-2.02691e-02,4.03635e-02,2.69106e-02,5.01462e-02,5.43638e-02,6.77899e-02,4.09137e-02,-1.30292e-03,6.94119e-02,1.18951e-01,1.90014e-01,1.74609e-01,1.56630e-01,1.86766e-01,1.58816e-01,3.30099e-02,-2.56413e-03,-4.87511e-02,1.20896e-03,7.47305e-03,-6.91752e-02,-6.76155e-02,-3.89339e-02,2.32989e-02,3.31013e-02,3.51942e-02,3.14434e-02,-4.75733e-03,3.22230e-02,5.62739e-02,4.28801e-02,3.96185e-02,6.76136e-02,6.06763e-02,2.38371e-02,-3.45521e-02,3.56241e-02,1.16915e-01,2.10483e-01,2.74978e-01,2.06787e-01,1.58030e-01,1.38397e-01,-3.86253e-02,-4.81318e-02,-8.71365e-02,-9.94624e-03,3.52683e-02,-6.12476e-02,-3.73576e-02,-3.93967e-02,-5.09035e-03,-1.62693e-02,6.02044e-05,-2.50240e-02,7.71987e-03,-2.92374e-02,2.82881e-02,2.98815e-02,4.85653e-02,8.01185e-02,4.14455e-02,-1.48450e-02,-5.37056e-02,2.46752e-02,1.28616e-01,2.15908e-01,2.01565e-01,1.94798e-01,1.50023e-01,5.00314e-02,2.21119e-02,-6.38198e-02,-5.25473e-02,1.32728e-02,2.84747e-02,-5.97055e-02,-5.00098e-02,-1.17655e-02,-3.22395e-02,-1.00016e-02,1.30737e-02,-3.26348e-02,-3.57373e-02,-3.85231e-02,-1.44517e-02,4.52695e-02,3.72847e-02,5.92627e-02,1.27747e-02,-6.21256e-02,-1.20006e-02,-8.25452e-03,1.34060e-01,2.02856e-01,1.65886e-01,1.30158e-01,4.71055e-02,-7.77369e-03,-4.34080e-02,-2.61497e-02,-6.39633e-02,-2.23620e-02,4.46486e-03,1.00081e-02,-3.82397e-02,-1.10052e-02,3.08075e-02,1.07884e-02,-2.79868e-02,3.09028e-02,-2.77580e-02,2.96226e-02,2.07323e-02,3.13866e-02,-3.11252e-02,-1.67688e-02,-9.01609e-02,-5.42498e-02,-8.70057e-02,-3.36049e-02,-2.39299e-02,8.03599e-02,6.53162e-02,-4.24504e-03,2.24293e-02,-5.94054e-02,-4.56544e-02,-6.88668e-02,-4.65144e-02,-3.13389e-03,-4.59534e-02,-5.68115e-03,3.56577e-02,1.51772e-02,-1.53353e-02,-9.45207e-03,-9.39031e-03,1.53482e-02,2.42098e-02,3.87732e-02,-2.33914e-02,2.88836e-03,-2.92853e-02,-5.84532e-02,-7.50582e-02,-1.15620e-01,-1.19544e-01,-1.66666e-01,-1.32831e-01,-1.02888e-01,-5.92918e-02,-5.28222e-02,4.80228e-02,9.48822e-03,2.15668e-02,-5.28856e-02,-8.77383e-04,1.49011e-02,-5.33830e-04,2.78133e-02,2.30082e-03,1.15702e-02,1.61818e-02,-1.27462e-02,-1.45327e-02,-3.28814e-02,-3.47521e-02,-3.52165e-03,3.10871e-02,-4.94425e-03,-1.05686e-02,-3.32703e-02,-8.01970e-02,-1.21396e-01,-6.39119e-02,-1.57726e-01,-1.41978e-01,-9.66074e-02,-4.48864e-02,6.34371e-03,3.16939e-02,7.50127e-02,2.41375e-02,3.66700e-02,3.28331e-02,1.69085e-02,-3.11792e-02,-2.39064e-02,-7.08178e-04,1.49357e-02,3.75457e-02,2.14017e-02,3.24226e-02,3.34949e-02,2.87851e-02,-8.03146e-03,-1.48159e-02,-6.64513e-04,-3.29655e-02,-3.71850e-02,-2.34173e-02,2.93858e-02,-2.19315e-02,8.62850e-03,-4.63906e-02,-4.25560e-02,2.21902e-02,6.32644e-02,3.98748e-02,5.63031e-02,5.56585e-02,3.57535e-02,-3.83026e-03,7.09687e-03,-4.06167e-02,1.93252e-02,-1.35031e-02,-1.62864e-02,1.07215e-02,2.19480e-02,-4.60513e-04,-2.80412e-02,1.78456e-03,-1.35902e-03,-1.18881e-02,-1.52720e-02,8.56449e-03,-1.99138e-03,-9.69242e-03,-4.09072e-03,2.07144e-02,2.03135e-03,3.97067e-02,3.94577e-02,5.20950e-02,2.28479e-02,1.11610e-02,3.22147e-02,6.56985e-02,4.31237e-03,5.35249e-02,2.33262e-02,-2.96657e-02,-4.28336e-02,2.83420e-02,2.43885e-02,6.55620e-03,8.25596e-04,3.06222e-02,2.15523e-02,2.37068e-02,-2.00308e-02,-6.90903e-03,1.38909e-02,-3.51236e-02,5.99371e-02,3.37708e-02,3.86484e-02,3.39045e-02,4.54129e-02,4.79261e-02,3.38680e-02,5.40846e-02,2.87018e-02,1.96093e-02,-6.17867e-03,1.02056e-01,4.21105e-02,2.80401e-02,8.42101e-02,-8.59970e-03,1.75671e-02,1.43324e-02,-2.63756e-02,-2.99419e-02,-1.94157e-02,1.11779e-02,3.36896e-02,-5.62951e-04,-1.37954e-02,-2.04787e-02,-4.70841e-02,2.11027e-02,2.15463e-02,1.85807e-02,4.63121e-02,1.09242e-01,8.31718e-02,4.22099e-02,-1.14590e-02,-4.14511e-03,1.04982e-02,5.93484e-03,-2.02576e-02,5.06320e-03,-1.51292e-02,-6.38257e-03,1.29229e-02,-1.81883e-02,1.91702e-03,2.60671e-03,3.63534e-02,1.02108e-02,-2.09011e-04,-2.59564e-02,-1.43553e-02,-5.20593e-03,-2.85411e-02,-1.92253e-04,1.39725e-02,1.15791e-02,-2.37418e-02,-1.49649e-02,2.49613e-02,-2.50418e-02,-9.75767e-02,-7.59187e-02,-7.97392e-02,-8.57507e-02,-8.93249e-02,-1.22039e-01,-8.51289e-02,-8.40119e-02,-2.98827e-02,1.81095e-02,-3.28668e-02,-2.33125e-02,-2.78598e-03,-6.56984e-03,2.07687e-02,-2.19429e-03,5.77368e-03,-9.87208e-03,1.17796e-02,1.07905e-02,-2.87049e-02,2.16845e-02,-7.63832e-03,2.67749e-02,-4.61644e-02,-2.68974e-02,-1.35681e-02,-7.67144e-03,-4.30332e-02,-5.85202e-02,-5.81200e-02,-6.62680e-02,-2.25627e-02,-8.38088e-02,-5.80117e-02,-1.97642e-02,-1.23733e-02,-4.77675e-02,1.02364e-03,1.76087e-03,3.34984e-02,-1.38119e-03,1.51660e-02,-3.08678e-03,3.18780e-02,-3.64551e-03,-2.09865e-02,6.58748e-03,-1.89041e-02,8.91253e-03,2.47799e-02,-2.81871e-02,-2.82543e-02,-3.94567e-03,-7.76327e-03,-1.94626e-02,2.30142e-02,6.32489e-03,-2.21449e-02,-3.52431e-03,-1.07489e-02,-3.10607e-02,6.68365e-03,-3.09091e-02,-1.02454e-03,2.53001e-02,-3.19716e-02,2.52745e-03,3.29819e-02,1.61293e-02,-1.40846e-02,5.62054e-03,-3.35338e-02,
5.73474e-03,3.10518e-02,3.10356e-02,-5.70472e-04,1.29481e-02,-5.92732e-03,-1.00248e-02,6.86914e-04,-2.08036e-02,1.43793e-02,1.75091e-02,-9.68168e-03,-7.86764e-03,-2.42700e-02,4.63165e-03,1.42069e-02,3.39071e-02,-3.36507e-02,-3.01102e-02,1.00997e-03,3.30054e-02,2.29837e-03,9.91352e-03,5.07063e-03,-4.27089e-03,2.54896e-02,2.62170e-02,-2.05906e-02,-2.13884e-02,-2.77707e-02,-8.68556e-03,-8.04555e-04,2.98920e-02,-3.45464e-02,2.65912e-02,-1.73965e-02,3.70722e-03,-3.09350e-03,1.64475e-02,-3.39230e-02,-2.11452e-02,5.33183e-04,1.20305e-02,-2.34899e-02,7.32120e-03,-1.35755e-02,-3.38241e-02,4.24715e-03,-9.56328e-03,1.96768e-02,2.34436e-02,2.37495e-02,2.23705e-02,-2.76304e-02,-3.42628e-02,3.99064e-03,1.03708e-02,-2.74717e-02,2.91904e-02,-3.78148e-03,-2.16316e-02,2.44038e-02,3.15094e-02,6.93946e-03,-1.18590e-02,-9.59344e-03,-4.64108e-02,5.35610e-03,-9.31410e-04,-4.64220e-02,-6.77300e-02,-1.52345e-02,-7.06334e-02,-5.44375e-02,-4.52115e-03,-3.19698e-02,-2.47312e-03,2.39714e-02,-7.47764e-03,-8.17112e-03,3.61319e-02,8.96418e-03,1.24572e-02,-1.17358e-02,-3.08115e-02,5.59102e-03,-2.10984e-02,-1.82772e-02,-2.94542e-02,3.30010e-02,-2.28814e-02,1.39770e-02,4.44909e-03,1.26795e-02,-7.79196e-03,-5.75211e-02,-1.47195e-02,-8.28381e-02,-9.09613e-02,-1.12966e-01,-1.39486e-01,-1.04212e-01,-1.20464e-01,-3.62144e-02,-2.59306e-02,-4.00724e-02,-3.68635e-02,-3.73181e-02,-1.98596e-02,-2.04399e-02,3.84041e-03,8.54870e-03,3.09718e-02,4.80070e-03,-7.20632e-03,-1.47083e-02,-1.90038e-03,2.85832e-02,-9.05229e-03,6.48171e-05,4.58464e-02,2.13200e-03,-1.43016e-02,-4.71107e-02,-6.98885e-02,-1.27666e-01,-1.78637e-01,-2.14964e-01,-2.45455e-01,-2.02000e-01,-1.92700e-01,-9.23705e-02,-1.18014e-01,-6.98483e-02,-6.43961e-02,-5.79306e-02,-1.14933e-02,3.34047e-02,-1.48783e-02,3.27991e-02,-3.75671e-03,-1.12929e-02,1.76895e-02,3.48135e-02,5.26535e-02,6.72448e-02,1.34682e-02,3.69014e-02,4.38804e-02,-6.56608e-03,2.50422e-02,-5.94227e-04,-5.11106e-02,-4.52379e-02,-9.42617e-02,-1.06753e-01,-2.01464e-01,-2.09667e-01,-1.54160e-01,-1.58446e-01,-1.92606e-01,-1.41600e-01,-1.60020e-01,-1.19686e-01,-3.09754e-02,-3.07234e-02,2.08633e-02,1.53937e-02,-1.73348e-02,-7.82479e-03,-1.22222e-02,1.97483e-02,4.45901e-02,5.21669e-02,4.56856e-02,2.91845e-02,3.67103e-02,8.67535e-02,8.87963e-02,4.72780e-02,6.77089e-02,8.44132e-02,1.32766e-01,2.30863e-02,-1.31805e-02,-5.94032e-02,-9.28061e-02,-1.64771e-01,-1.58022e-01,-1.94623e-01,-2.15718e-01,-2.02463e-01,-8.14078e-02,-7.27536e-02,-1.86579e-02,2.78029e-02,1.93972e-02,-3.10412e-02,3.49286e-02,1.28277e-02,5.96507e-02,6.03157e-02,9.86874e-02,8.76521e-02,5.81261e-02,6.03144e-02,1.17421e-01,1.48443e-01,2.02035e-01,1.71708e-01,2.06332e-01,1.39246e-01,6.42871e-02,-2.79061e-02,-1.00462e-01,-1.29719e-01,-1.07001e-01,-1.55383e-01,-1.77016e-01,-1.67810e-01,-1.86844e-01,-7.37311e-02,4.56566e-03,-2.92719e-02,-1.08466e-02,2.96325e-02,-1.22718e-02,7.14801e-02,8.13188e-02,7.35171e-02,1.18010e-01,6.94623e-02,1.55477e-01,7.45173e-02,1.79434e-01,1.91379e-01,2.29866e-01,2.37606e-01,2.60890e-01,2.43998e-01,1.40862e-01,-6.96824e-03,-9.34306e-02,-7.12354e-02,-9.55650e-02,-1.33115e-01,-1.25680e-01,-1.62154e-01,-1.50958e-01,-8.07376e-02,-7.26526e-04,4.60490e-03,1.47797e-02,4.37881e-05,1.49518e-02,8.67876e-02,9.29068e-02,6.24093e-02,1.18572e-01,1.56916e-01,1.24266e-01,1.80949e-01,1.60448e-01,1.67160e-01,2.17517e-01,2.38236e-01,2.87272e-01,2.15057e-01,9.38550e-02,1.37289e-02,-1.07198e-02,-5.31542e-02,-6.92614e-02,-6.59588e-02,-6.41230e-02,-1.22375e-01,-9.55764e-02,-7.45755e-02,2.35295e-02,3.16177e-02,3.91763e-03,1.35873e-02,6.38508e-03,3.70293e-02,3.99055e-02,8.91179e-02,1.36774e-01,1.04731e-01,9.69042e-02,9.26001e-02,8.93073e-02,6.24079e-02,9.46124e-02,1.17820e-01,2.07365e-01,9.58475e-02,2.60027e-02,2.05100e-02,-4.47423e-03,-3.63590e-02,-2.90710e-03,-4.54059e-02,-3.46811e-02,-8.21964e-02,-1.08380e-01,-8.40128e-02,1.35051e-02,2.85133e-02,3.31173e-02,1.70591e-02,3.26341e-02,7.11721e-02,7.58237e-02,3.48499e-02,7.62748e-02,8.73843e-02,5.79102e-02,-1.28977e-02,9.77416e-03,1.48658e-03,-8.52727e-02,-4.50494e-02,3.37070e-02,-4.40477e-02,3.58054e-03,1.54832e-02,3.44531e-02,3.81033e-02,2.59180e-02,-2.97216e-02,-1.62900e-03,-9.92707e-02,-3.02061e-02,-3.97947e-02,3.76771e-03,-1.37967e-02,3.28373e-02,6.98729e-04,1.85250e-02,-1.01865e-02,5.02717e-02,-6.85569e-02,-7.35128e-03,1.17906e-02,-8.30938e-03,-4.30313e-02,-1.46211e-01,-1.53348e-01,-1.74691e-01,-1.32103e-01,3.30844e-02,-4.03586e-02,1.94545e-02,6.22641e-02,3.66040e-02,1.18326e-02,-8.03200e-04,-5.08965e-02,-1.83863e-02,-8.68181e-02,-1.91846e-02,-1.39692e-02,1.28718e-02,-3.30857e-02,4.09734e-03,2.05753e-02,-2.11154e-02,-5.06883e-03,-4.27985e-02,-7.20041e-02,-1.02465e-01,-6.37982e-02,-1.29059e-01,-1.02062e-01,-1.05694e-01,-1.55015e-01,-1.46703e-01,-2.85871e-02,7.92960e-02,1.65871e-02,3.56785e-02,7.20446e-02,2.52507e-02,-4.46374e-02,-8.48567e-02,-4.75456e-02,-1.15617e-01,-7.00916e-02,-1.54112e-03,5.03432e-02,3.81634e-02,1.37845e-02,-3.21333e-02,-1.17371e-02,2.61777e-02,-2.05330e-03,-4.80701e-02,-1.11718e-01,-1.10993e-01,-1.45434e-01,-1.75773e-01,-1.03516e-01,-8.30404e-02,-7.74174e-02,-4.13663e-02,2.63773e-02,5.25432e-02,2.22846e-03,6.55378e-02,2.94376e-02,8.81528e-02,9.32364e-04,7.08145e-03,-4.68307e-02,-5.94118e-02,3.60130e-03,3.12319e-02,7.42259e-02,3.92958e-02,-3.18067e-02,-2.52187e-02,2.43068e-02,-3.27149e-02,2.13226e-02,-6.32150e-02,-1.16837e-01,-1.13250e-01,-1.25050e-01,-1.36612e-01,-8.56715e-02,-4.80057e-02,-1.73161e-02,1.15169e-02,1.28318e-02,-3.67784e-02,1.71648e-02,7.61801e-02,9.53334e-02,8.38229e-02,2.76549e-02,2.86423e-02,7.52649e-02,-3.39776e-02,-3.09611e-02,5.12704e-02,8.93753e-02,2.44237e-02,-2.70819e-02,8.46072e-03,-1.28473e-03,-1.91459e-03,-4.96292e-02,-2.01560e-02,-7.23642e-02,-7.30787e-02,-3.08456e-02,-2.59619e-02,-4.38949e-02,2.83192e-02,-7.83100e-03,-2.03623e-02,-4.71099e-02,-2.90273e-02,-1.60050e-02,5.15976e-02,6.06305e-02,6.12615e-02,9.35954e-02,1.13645e-01,6.89605e-02,8.01264e-02,4.31323e-02,7.23055e-02,5.82401e-02,7.77776e-02,8.88488e-03,2.38397e-03,2.73475e-04,-1.82348e-02,-3.37972e-02,-6.48049e-02,-3.87851e-02,-5.88825e-02,-9.94950e-02,-3.63726e-02,-2.79192e-02,5.36755e-02,-1.05339e-02,2.99624e-02,3.29466e-02,-3.20468e-02,-1.64084e-04,2.62413e-03,3.56440e-02,2.75065e-02,9.95330e-02,4.58644e-02,8.40566e-02,4.62871e-02,2.58349e-02,2.67594e-02,7.26245e-02,1.83329e-02,5.58975e-03,1.92898e-02,1.40668e-02,1.78992e-02,1.68915e-02,-1.47440e-02,-2.36029e-04,-8.29848e-02,-9.42671e-02,-1.15332e-01,-6.97695e-02,-2.72426e-02,5.01279e-04,5.26047e-02,4.51042e-02,3.68575e-02,1.82591e-02,2.09004e-02,-8.00411e-04,9.63849e-04,6.10723e-02,9.03928e-02,4.89171e-02,6.42718e-02,4.48355e-02,7.95773e-02,4.53077e-02,-1.84342e-03,4.94662e-03,3.43838e-02,3.54811e-02,-2.17853e-02,-1.81171e-02,3.22285e-02,-6.08012e-02,-9.93469e-02,-9.55483e-02,-5.69204e-02,-2.64079e-02,9.69749e-03,2.90209e-03,2.49825e-02,2.31375e-02,4.20134e-02,-2.67928e-02,-1.60592e-02,-6.66355e-02,-3.97522e-02,5.01814e-02,3.97760e-02,1.45788e-02,2.03510e-02,2.79990e-02,8.39248e-02,1.70992e-02,3.64923e-02,-1.21303e-02,5.05153e-03,-2.09883e-02,1.14056e-02,-1.54069e-02,-3.72697e-03,-5.41195e-02,-7.37577e-02,-9.04348e-02,-9.71591e-02,-4.73070e-02,1.20877e-02,-5.76212e-02,1.52255e-02,1.27503e-02,7.81028e-03,-3.89587e-02,-5.66747e-02,-8.30825e-02,-1.02809e-01,-1.41446e-02,6.45765e-03,-6.35065e-03,-1.48191e-02,1.34653e-02,5.63252e-02,6.61902e-02,1.57184e-02,1.04694e-02,-1.77120e-02,-1.03342e-02,2.66666e-02,3.02330e-02,7.47787e-03,-5.89248e-02,-1.19238e-01,-1.17280e-01,-1.17153e-01,-6.85148e-02,-3.56302e-02,-5.96453e-02,1.03166e-02,-3.13218e-02,-5.84511e-02,-7.10377e-02,-7.96446e-02,-1.09145e-01,-5.35091e-02,6.93043e-03,-1.55024e-03,-5.14625e-02,-7.26558e-02,-1.73346e-02,6.13555e-02,1.41886e-02,-3.27752e-02,-1.49539e-02,-2.60475e-02,4.89393e-03,-2.99740e-03,-3.10975e-03,3.87059e-02,-3.40121e-02,-2.61778e-02,-7.37358e-02,-7.44118e-02,-8.62631e-02,-4.84184e-02,-1.67989e-02,-3.87016e-02,-5.92405e-02,-2.42112e-02,-3.70259e-02,-4.59734e-02,-4.11781e-02,-2.35050e-02,-2.31736e-02,5.61388e-03,-5.66844e-02,-2.36362e-02,-3.52868e-02,3.39788e-02,3.72749e-02,-3.06955e-02,-2.57181e-02,3.46313e-02,2.77459e-02,1.31430e-02,-3.33067e-02,2.47312e-02,2.97048e-02,6.91930e-02,3.93584e-02,-5.13661e-02,-4.95559e-02,-8.96417e-02,-2.02719e-02,-2.89516e-02,1.57349e-02,-5.08051e-02,-2.85229e-02,-4.22531e-02,-8.22602e-03,3.53995e-03,-3.69725e-02,-1.24726e-02,-4.36981e-02,-2.31312e-02,-7.76626e-03,1.43421e-03,-8.08127e-03,1.55495e-02,1.84879e-02,-6.41678e-03,-1.74108e-03,-7.89567e-03,7.29423e-04,4.08986e-03,4.51260e-02,2.81152e-02,4.01034e-02,1.46374e-02,-7.20676e-02,-5.33959e-02,-5.48076e-02,-9.94998e-03,-2.88921e-02,-2.89946e-02,3.31220e-03,-1.61351e-02,7.60759e-02,-3.61100e-03,-3.58486e-03,-2.86285e-03,1.55496e-02,-2.10765e-02,3.83633e-03,2.49825e-02,1.35630e-03,-1.70306e-02,2.86188e-02,-3.13225e-03,-2.34600e-02,1.89551e-02,3.24076e-02,3.83727e-02,5.06347e-02,5.35992e-02,-8.31585e-03,6.45902e-02,8.87433e-02,2.55435e-02,8.86593e-02,8.62407e-02,5.50562e-02,5.19401e-02,4.71694e-02,7.36857e-02,8.25881e-02,8.78258e-02,4.25842e-02,6.27247e-02,-8.04152e-03,-2.99969e-02,-6.44563e-03,-1.37503e-03,2.18706e-02,1.66319e-02,1.74560e-03,5.44945e-03,2.60979e-02,-3.35825e-02,-1.22216e-02,2.03429e-02,-2.79852e-02,2.91722e-02,5.05448e-02,6.79864e-02,5.56622e-02,6.59837e-02,9.55385e-02,5.74358e-02,9.65896e-02,1.32029e-01,1.28203e-01,1.27614e-01,4.18419e-02,4.61907e-02,7.88834e-02,2.22248e-02,-1.95609e-02,-7.99712e-03,2.70320e-02,-4.44807e-03,1.74360e-02,2.08134e-02,-1.09483e-02,1.85401e-02,1.10220e-02,-2.28239e-02,-7.19874e-03,2.16982e-02,1.43441e-02,6.56414e-03,8.14450e-04,-1.65467e-02,-2.85497e-03,3.66923e-02,7.70913e-03,1.02006e-03,3.09069e-02,-4.37414e-04,1.24926e-02,1.45536e-02,-1.39383e-02,-5.74355e-03,-1.30979e-02,-2.29501e-02,2.82812e-02,1.30289e-02,-2.50607e-02,-1.52238e-02,2.62369e-02,3.11799e-02,3.49105e-03,
4.76621e-04,-2.71869e-02,2.11606e-02,-1.00296e-02,3.36688e-03,-7.27260e-03,1.23572e-02,8.33014e-03,-8.23167e-03,-5.73115e-03,-1.05914e-04,-2.83001e-02,-4.87926e-04,-2.42195e-02,2.76496e-02,1.81696e-02,-3.78210e-03,2.46526e-02,3.15355e-03,3.26340e-02,7.16843e-03,1.68361e-02,5.46142e-03,-2.02299e-02,-3.35005e-02,-1.41940e-02,2.79430e-02,1.82593e-02,-1.16681e-02,-2.22165e-02,3.51693e-02,3.87117e-03,-3.07859e-02,-1.25865e-02,6.24835e-03,3.52691e-03,-4.20046e-03,1.73438e-02,-1.73457e-02,2.88148e-02,-3.10630e-03,4.47133e-02,3.25179e-02,3.88085e-02,-3.45404e-02,-6.68297e-03,-1.78242e-03,-2.83678e-02,2.00992e-02,-1.15207e-02,6.31885e-04,1.84269e-02,-2.78950e-02,4.91600e-03,-1.56524e-02,2.50602e-02,3.12293e-02,-8.37754e-03,-2.30129e-02,2.09310e-02,-2.47944e-02,3.42055e-02,3.26601e-02,2.72360e-02,3.21968e-03,4.85399e-02,6.51294e-02,4.34110e-02,4.42116e-02,7.16755e-02,9.17525e-02,9.01826e-02,2.68748e-02,7.81896e-02,1.37081e-02,3.21380e-02,4.16821e-03,-5.13353e-03,5.95471e-03,6.64810e-03,-3.00452e-02,-1.46722e-02,2.57054e-02,-1.48093e-03,-1.84944e-02,3.05950e-02,-3.33891e-02,-8.81730e-03,2.99059e-02,5.50092e-03,-2.54020e-03,3.71810e-03,3.30738e-02,2.24411e-02,4.60546e-02,1.07056e-01,1.02698e-01,8.40856e-02,1.22491e-01,8.37191e-02,9.87137e-02,1.05557e-01,7.04753e-02,1.39434e-02,3.96130e-02,4.57433e-02,1.25897e-02,3.04971e-02,-3.06194e-02,1.90988e-02,-3.54912e-02,1.56251e-02,-3.06300e-02,-1.08845e-02,-3.07576e-03,-4.43397e-03,-2.76883e-03,-2.19290e-02,-1.14627e-02,4.55767e-02,4.04853e-02,4.94086e-02,5.62687e-02,5.60891e-02,5.59988e-02,3.68971e-02,2.05519e-02,-1.63237e-02,2.09575e-02,-1.92755e-02,-4.67636e-04,1.10339e-03,2.38713e-02,3.58047e-03,1.00738e-02,1.81512e-03,-1.48004e-02,-4.29313e-02,3.73968e-03,2.66556e-02,2.23441e-02,-2.78695e-02,-1.09141e-02,1.92904e-02,1.37751e-02,1.31775e-02,1.43838e-02,-1.58394e-02,3.66199e-02,4.63497e-02,4.14424e-02,-2.95660e-02,1.13326e-02,5.56600e-02,3.12109e-02,6.40730e-02,3.02345e-02,3.67397e-02,7.18196e-03,2.78156e-02,3.77350e-02,2.39512e-02,1.96380e-02,5.28933e-02,-5.97100e-03,2.57278e-02,-1.59837e-02,2.97668e-02,1.18098e-03,-2.07826e-02,1.50583e-03,-4.88102e-03,1.83072e-02,2.57049e-02,-3.58721e-02,-2.42844e-02,-1.58293e-03,-6.56687e-02,-6.39204e-02,-3.45321e-02,-6.84238e-02,1.53367e-02,-8.08328e-03,-2.48128e-03,-2.25526e-02,-5.74742e-02,-1.02518e-01,-9.15511e-02,-2.82456e-02,6.68922e-03,3.95678e-02,5.91992e-02,2.50791e-02,1.87576e-02,-3.03257e-02,-1.36918e-02,2.88395e-02,1.50910e-02,3.09794e-03,-6.78322e-04,-9.44174e-03,4.31124e-02,-1.63503e-02,-2.77158e-02,-7.36494e-02,-1.16599e-01,-1.17797e-01,-6.43691e-02,-4.91446e-02,-7.00496e-02,-6.06269e-02,-1.19456e-01,-1.30054e-01,-1.67315e-01,-1.61382e-01,-8.33189e-02,-2.95739e-02,-3.80615e-02,2.10521e-02,4.91598e-02,2.06519e-02,5.90712e-02,-1.06366e-03,-2.44464e-02,-2.53653e-02,-1.61738e-02,-2.25039e-02,5.85650e-02,7.18612e-02,-1.42911e-02,-3.22909e-02,-7.57278e-03,-9.17754e-02,-8.57212e-02,-1.21788e-01,-4.68036e-02,-1.67629e-02,-7.74926e-03,-1.23088e-02,-8.23223e-02,-1.62826e-01,-1.41884e-01,-1.50563e-01,-9.31296e-02,-3.85309e-03,-3.18435e-03,2.34614e-02,5.92303e-03,2.13083e-02,-1.22810e-02,2.37119e-02,-9.91811e-03,1.42962e-02,-1.72439e-02,2.01136e-02,8.64634e-02,7.36879e-02,5.25970e-02,-4.16118e-02,-8.33969e-03,-5.60286e-02,-1.06593e-01,-1.94642e-02,8.56027e-02,1.02514e-01,1.84249e-01,9.79427e-02,-1.28348e-02,-9.77544e-02,-1.66286e-01,-7.73271e-02,-2.04339e-02,-2.91276e-02,-2.92953e-03,-7.13939e-03,3.11626e-02,6.88819e-02,3.23440e-02,-3.61567e-02,1.41923e-02,-8.98463e-03,1.40504e-02,3.53654e-02,6.95429e-02,1.03104e-01,7.33792e-02,3.77273e-03,2.46595e-02,3.17608e-02,5.05100e-02,1.28222e-01,1.44334e-01,2.04338e-01,2.81931e-01,1.61442e-01,-7.68263e-02,-1.04943e-01,-1.14481e-01,-6.68543e-02,2.40212e-02,4.34731e-02,3.58031e-02,4.93216e-03,3.01503e-03,1.64299e-02,3.34075e-02,-2.38873e-02,6.46335e-03,2.12554e-02,2.93587e-02,1.62579e-02,7.67814e-02,4.01840e-02,4.36031e-02,1.01887e-01,7.59103e-02,1.04433e-01,1.74427e-01,1.91010e-01,2.53564e-01,3.13260e-01,2.23037e-01,-2.68127e-02,-1.28027e-01,-1.51309e-01,-4.40805e-02,3.34189e-03,5.16064e-02,-2.19836e-02,-9.70078e-03,-2.33677e-02,-1.10381e-02,3.83473e-02,-2.87779e-02,-3.03552e-02,-1.22367e-02,-2.59063e-03,3.99559e-04,-2.30192e-03,7.70569e-02,5.54648e-02,4.20013e-02,1.28190e-01,1.74468e-01,2.08824e-01,1.61124e-01,1.74778e-01,2.77890e-01,2.05995e-01,1.10748e-01,-1.13202e-01,-1.44467e-01,-1.01837e-01,-2.91616e-02,6.12694e-03,-4.48602e-02,-2.38001e-02,-2.30383e-02,5.85839e-03,9.61448e-02,4.58191e-02,-1.31352e-02,7.41205e-03,3.42941e-02,3.03298e-02,-2.85920e-02,-3.06145e-03,4.37910e-02,3.13946e-02,1.29405e-01,1.91550e-01,1.84480e-01,2.45811e-01,1.97758e-01,1.91773e-01,1.18847e-01,5.27816e-02,-1.23262e-01,-1.20689e-01,-8.07533e-02,-4.38757e-02,-2.34344e-02,-4.84317e-04,-1.92303e-02,-6.73598e-02,-5.28401e-03,9.43432e-02,1.38060e-01,1.03389e-01,-1.23238e-02,1.03759e-02,-3.27167e-02,-3.03544e-02,3.01178e-02,7.83896e-03,-8.17551e-03,1.97232e-03,5.80312e-02,1.32933e-01,1.84848e-01,1.35558e-01,5.65109e-02,4.55918e-02,-3.70182e-02,-1.17698e-01,-1.46726e-01,-1.18568e-01,-6.83195e-02,-9.19265e-02,-6.89469e-02,-6.33614e-02,-1.80944e-02,-3.64980e-02,9.97154e-02,2.07386e-01,1.80588e-01,1.25209e-01,-1.81060e-02,2.59014e-02,2.54572e-02,1.01866e-02,1.85913e-02,6.10415e-04,2.91868e-03,-4.82724e-02,-2.42513e-03,5.31763e-02,9.38197e-02,3.59847e-02,1.95976e-02,2.06811e-03,-1.26076e-01,-1.88640e-01,-2.05585e-01,-1.51857e-01,-6.31661e-02,-5.53287e-02,-3.95669e-02,-1.62584e-02,-2.44582e-02,2.63974e-03,9.38026e-02,1.37594e-01,1.27869e-01,5.11349e-02,2.90987e-02,-2.52236e-02,-9.96991e-03,-2.75768e-02,-1.17610e-02,5.10631e-03,-2.78418e-04,-6.31491e-03,-8.31316e-03,-2.57658e-03,3.21941e-02,-6.52772e-02,-4.24288e-02,-5.79780e-02,-9.70298e-02,-2.44409e-01,-1.91610e-01,-3.87696e-02,-5.74671e-02,-8.11459e-02,-6.83429e-02,-3.12327e-02,-8.43168e-03,3.27238e-02,5.40192e-02,9.08805e-02,1.17647e-01,1.72981e-02,7.07500e-03,-1.93057e-02,-2.30137e-02,3.33525e-02,2.97580e-02,-2.42518e-02,-1.78637e-02,-7.36481e-02,-9.78098e-02,-3.12062e-02,-4.64225e-02,-6.97863e-02,-1.11904e-01,-7.41651e-02,-9.58111e-02,-2.41459e-01,-1.27193e-01,-9.39403e-03,-3.36029e-02,-3.33781e-02,2.91106e-02,4.21664e-02,-1.11357e-03,4.97441e-02,2.03834e-02,8.01152e-02,1.38003e-02,-7.21010e-03,-6.01332e-03,-1.48892e-02,3.47900e-04,-1.26773e-02,-2.90236e-02,2.47562e-02,-4.87583e-02,-5.82191e-02,-1.26488e-01,-7.40467e-02,-9.55417e-02,-1.00033e-01,-3.24019e-02,-3.12609e-02,-1.22117e-01,-1.78320e-01,-9.19150e-02,3.17456e-02,6.09697e-02,2.51372e-02,8.21142e-02,1.02911e-01,4.75510e-02,2.15248e-02,8.13304e-02,1.98727e-02,8.17448e-05,-4.98095e-02,-6.78828e-03,-4.15531e-02,1.11881e-02,-2.58800e-02,-3.13989e-02,-1.63120e-02,-1.76538e-03,-6.40824e-02,-1.23252e-01,-8.19631e-02,-1.03705e-01,-8.24197e-02,-6.00959e-02,3.44252e-03,4.88193e-02,-1.91045e-02,4.52854e-02,8.81193e-02,7.56822e-02,9.10973e-02,8.25081e-02,9.30471e-02,8.02009e-02,4.63601e-02,-6.96631e-03,-4.18605e-02,-2.81770e-02,-2.60622e-02,1.10246e-02,2.51512e-02,3.14002e-02,3.21804e-02,-3.46568e-02,-1.54974e-02,-1.05782e-02,-5.46860e-02,-7.87108e-02,-7.72305e-02,-6.35393e-02,-5.47961e-02,3.15078e-03,6.88522e-02,1.03409e-01,1.33332e-01,8.10838e-02,1.82294e-01,1.82962e-01,1.38030e-01,1.47223e-01,1.37433e-01,6.06257e-02,2.51481e-03,-3.85982e-02,-9.02744e-02,-5.20994e-02,-3.05933e-02,-4.21895e-02,-1.96841e-03,6.41968e-03,-5.80732e-03,-2.31568e-02,-2.69624e-02,5.23571e-03,-2.72716e-02,-7.99276e-02,-9.59279e-02,-6.02502e-02,-5.67350e-02,-3.49426e-02,2.26563e-02,1.15823e-01,9.58682e-02,1.28331e-01,1.39852e-01,1.26001e-01,1.16548e-01,1.54531e-01,1.28441e-01,4.11030e-02,3.90276e-03,-8.18403e-02,-4.25376e-02,-2.89571e-02,-4.81705e-02,-2.45059e-02,6.90565e-03,1.12680e-03,6.67282e-03,-2.03764e-03,-9.04441e-03,-1.58052e-02,-1.73901e-02,-4.81194e-02,-7.08591e-02,-2.68709e-02,1.62887e-02,4.09678e-02,3.89336e-02,-1.38456e-02,2.40040e-02,3.68219e-02,3.30241e-02,1.09011e-01,1.12058e-01,6.60123e-02,1.01148e-01,1.69131e-02,5.23118e-03,-4.81412e-02,-7.22059e-02,-1.25370e-02,-3.90585e-02,-2.14369e-02,-1.79743e-02,1.58832e-02,1.32505e-02,-1.88561e-02,-2.40802e-02,6.50306e-04,3.22512e-03,4.59668e-03,-5.32128e-02,-2.99072e-02,-5.78605e-02,9.80055e-04,3.48778e-02,-1.46524e-02,4.27659e-02,-4.72971e-03,6.51796e-02,5.67031e-02,6.81529e-02,8.44830e-02,5.89661e-02,-7.45852e-03,-1.93485e-02,-4.59885e-02,-1.21958e-02,-2.51943e-02,-3.03415e-02,-2.31954e-02,-8.13523e-03,-1.35838e-02,-1.33948e-02,3.34199e-02,-2.13900e-02,3.30676e-02,3.00226e-02,-1.96814e-02,1.76268e-02,-4.31118e-02,-1.49655e-02,-3.54362e-02,-1.10777e-02,8.10265e-03,1.97708e-02,-2.27955e-02,8.17340e-03,2.26019e-02,-3.56963e-03,7.54688e-02,8.26057e-03,2.84360e-03,9.45892e-03,-4.59148e-02,-3.94189e-02,-5.53413e-02,2.67864e-02,1.04902e-02,-2.74186e-02,-8.34480e-03,2.88062e-02,-3.43285e-02,2.77778e-03,-2.86128e-02,-2.83666e-02,-7.47575e-03,2.39607e-02,-2.26287e-02,-6.86779e-03,-7.51537e-03,-4.85044e-03,-2.61424e-02,-7.61551e-03,-4.17092e-02,-3.88650e-02,-5.45604e-02,5.39150e-03,-2.18838e-02,5.11843e-03,3.86426e-02,-4.14904e-02,-8.92582e-03,1.23474e-02,-5.86203e-03,2.48815e-02,-8.05914e-03,2.48307e-02,-2.02741e-02,-2.83305e-02,-2.35086e-02,1.94983e-02,3.22878e-03,-5.62882e-03,-5.58395e-03,-8.63086e-03,2.71300e-02,2.59446e-02,3.83369e-02,2.96520e-02,3.20717e-03,4.99461e-03,2.08788e-02,-2.42061e-02,5.74199e-02,4.99535e-02,4.87940e-02,4.87944e-02,2.50085e-02,2.43963e-02,1.91444e-02,1.94938e-02,-1.15124e-02,-1.86835e-02,-1.29710e-03,2.82164e-02,-1.94896e-02,-1.43661e-02,-1.76637e-02,-2.98585e-02,1.37747e-02,-5.13422e-03,3.58131e-03,3.46180e-02,5.02814e-03,3.18177e-02,1.34139e-02,1.38200e-03,2.51127e-02,2.35492e-02,2.00527e-02,1.89519e-02,-2.71542e-03,1.46445e-02,4.95228e-02,5.19011e-02,4.14855e-02,-2.03790e-02,3.66628e-03,1.71747e-02,2.61504e-02,-1.97060e-02,-2.84727e-02,1.21238e-02,-2.05414e-02,
3.56587e-02,-2.23455e-02,1.75861e-02,-1.10010e-02,-2.93561e-02,-3.48216e-02,1.55118e-02,-1.08913e-02,-2.29826e-02,3.52449e-02,2.09464e-02,2.35152e-02,-1.40499e-02,9.82715e-04,7.90159e-03,-4.10989e-03,1.71586e-02,-8.68868e-03,-7.98070e-03,-3.73735e-03,-1.40561e-02,-2.44863e-02,-4.00843e-03,-1.27775e-02,-1.12861e-02,-1.56126e-02,1.65379e-02,-5.80408e-03,2.75103e-02,1.04670e-02,-1.18866e-02,3.55359e-02,-1.11555e-02,-3.00515e-02,2.91708e-02,-1.19998e-02,3.51473e-02,3.48645e-02,-6.08768e-04,4.20872e-03,3.67983e-02,3.76982e-02,3.78939e-02,1.74168e-02,1.96834e-03,3.90421e-02,1.83810e-02,-1.96662e-02,-2.52051e-04,5.44359e-03,1.78206e-02,-3.15799e-02,-3.55111e-02,-2.03447e-02,4.57051e-03,2.42308e-02,-2.97512e-02,1.48011e-02,1.86721e-03,3.16096e-02,-1.92438e-02,-1.07234e-02,1.76994e-02,-1.94974e-02,4.44794e-02,1.53214e-02,6.23931e-02,5.37747e-02,1.30179e-01,1.18370e-01,1.14843e-01,9.03809e-02,8.08008e-02,8.70820e-02,5.47460e-02,7.49166e-02,8.81997e-02,5.15885e-02,1.81627e-02,-1.39356e-03,1.42159e-02,-3.08773e-02,-2.86060e-02,-2.91502e-03,2.09109e-02,-2.00662e-02,-5.34740e-03,-1.47156e-02,2.47023e-02,-1.06924e-02,1.01309e-02,4.44879e-02,3.04065e-02,9.07305e-02,5.17211e-02,8.96296e-02,1.30644e-01,1.31091e-01,1.17688e-01,1.37229e-01,1.15288e-01,1.66375e-01,1.41696e-01,1.12721e-01,1.21335e-01,8.19232e-02,2.74331e-02,5.26115e-02,-1.82884e-02,-3.08765e-02,2.43053e-02,1.76985e-02,1.67585e-02,1.18830e-02,-1.49501e-02,-3.24315e-02,9.47974e-03,4.17941e-02,5.67337e-02,4.42043e-02,7.28469e-02,8.79378e-02,1.48596e-01,9.82350e-02,1.24022e-01,8.16555e-02,9.52379e-02,2.44777e-02,3.34299e-02,8.07531e-02,3.67390e-02,1.05265e-01,5.80109e-02,5.23336e-02,-6.91196e-03,2.52309e-02,-5.03326e-03,-3.66773e-02,3.16210e-02,-3.56104e-02,3.16164e-02,1.04105e-02,2.38473e-02,1.96096e-02,-5.23809e-03,5.89636e-02,2.33489e-02,3.74550e-02,5.75150e-02,3.57963e-02,5.29230e-02,1.27339e-02,-4.23464e-03,-4.00242e-02,2.03118e-02,3.37131e-03,-1.74959e-02,-4.46726e-02,-5.50451e-02,-8.74651e-02,-7.02458e-02,-6.24477e-02,-9.84733e-02,-2.50658e-03,1.14263e-02,1.70279e-02,2.24807e-02,2.71968e-02,4.56963e-03,-1.71793e-02,-1.68047e-02,-7.17306e-03,5.78710e-02,6.36355e-02,6.13628e-02,1.60759e-02,7.35932e-02,4.44187e-02,-1.03064e-02,3.79298e-02,-2.99181e-02,-4.05572e-02,-4.06899e-02,7.79523e-05,-2.46365e-02,-9.38802e-02,-1.15466e-01,-1.69575e-01,-1.87641e-01,-1.79224e-01,-1.14452e-01,-7.31177e-02,-4.55626e-02,-2.79539e-02,2.43231e-02,2.81401e-02,-4.53213e-03,-1.09700e-02,2.00101e-02,6.41389e-02,5.85451e-02,7.78980e-02,6.99136e-02,4.39422e-02,3.66180e-02,-3.18427e-02,-7.67867e-03,-7.40408e-02,-1.09277e-01,-1.06723e-01,-9.02052e-02,-3.04673e-02,-9.44383e-02,-9.90872e-02,-2.04535e-01,-2.18368e-01,-1.93824e-01,-1.82474e-01,-1.47213e-01,-1.33292e-01,-1.80846e-02,-1.93609e-02,1.58005e-02,5.94986e-03,-2.87928e-02,-1.94197e-02,-5.66043e-03,2.23782e-02,8.81514e-02,4.64636e-02,2.83924e-02,9.53083e-03,-7.62785e-02,-8.22491e-02,-9.56676e-02,-1.27391e-01,-1.02060e-01,-8.18359e-02,-2.78602e-02,5.46628e-02,-6.49461e-02,-1.07813e-01,-2.17252e-01,-2.40897e-01,-2.07229e-01,-1.67774e-01,-1.61376e-01,-1.41975e-01,-8.06405e-03,-3.18266e-02,-1.71676e-02,1.87313e-02,2.74647e-02,3.07474e-02,4.46116e-03,8.71405e-02,1.19395e-01,-1.45373e-03,-6.62702e-02,-5.05911e-02,-4.52896e-02,-1.35750e-01,-1.48045e-01,-1.03423e-01,-5.17002e-02,6.42261e-02,1.71139e-01,1.54265e-01,-6.64099e-03,-1.09558e-01,-2.02266e-01,-2.20935e-01,-1.42804e-01,-1.55200e-01,-1.15489e-01,-8.17245e-02,-7.61907e-02,-9.72726e-03,-4.46162e-03,2.94260e-02,5.64611e-04,-4.35410e-03,6.14991e-03,5.20773e-02,5.78490e-02,2.93479e-02,-3.88474e-02,-6.89099e-02,-1.16057e-01,-1.29845e-01,-9.04327e-02,-8.98836e-02,3.72848e-02,1.41265e-01,2.70981e-01,1.00207e-01,-3.36504e-03,-1.01523e-01,-1.97478e-01,-1.79260e-01,-9.70012e-02,-5.11183e-02,-4.08461e-02,-9.04693e-02,-1.01212e-01,-1.85964e-02,-4.12374e-02,-2.01220e-02,1.90113e-02,2.09277e-02,1.21479e-02,2.83666e-02,8.28881e-02,4.33415e-02,-3.76742e-02,2.56912e-02,-5.10181e-02,-1.19171e-02,2.26952e-03,1.81152e-02,1.28407e-01,1.80915e-01,1.69504e-01,2.81971e-02,-8.40299e-02,-5.63943e-02,-3.96264e-02,-5.64668e-02,-9.75143e-03,-3.10317e-02,-7.79191e-03,-3.54620e-02,-3.76656e-02,-4.26180e-02,-3.62873e-02,-1.02832e-02,-3.28214e-02,-8.91464e-03,9.05189e-03,8.24373e-02,2.69060e-02,3.79181e-03,-9.99789e-03,3.56903e-02,9.17176e-02,2.64729e-02,5.44466e-02,6.73306e-02,1.37448e-01,1.47363e-01,1.38581e-01,7.36954e-02,1.50066e-02,-2.59592e-02,-2.81471e-04,-5.84109e-02,5.67908e-03,-2.28625e-02,1.07846e-02,7.13644e-02,1.41783e-02,-1.55626e-02,1.51263e-02,-1.75361e-02,-3.30948e-02,2.23880e-02,4.04395e-02,2.68024e-02,1.61143e-03,2.52338e-02,4.35468e-02,2.91735e-02,5.97278e-02,8.41117e-02,7.40702e-02,-5.27055e-03,3.02232e-02,1.44535e-02,4.23133e-02,5.01786e-02,4.79948e-02,3.11221e-02,4.36751e-02,1.62529e-02,2.31051e-02,8.40845e-02,4.24932e-02,1.10644e-01,6.15847e-02,-1.43217e-02,-3.09125e-03,7.04632e-03,4.74992e-04,2.26467e-02,-1.85103e-02,2.52357e-02,-2.49781e-03,-3.57159e-02,1.17173e-02,-2.44394e-02,1.42631e-02,2.46058e-02,-4.17503e-02,-3.60094e-02,-9.34943e-02,-8.30306e-02,1.23380e-02,9.58758e-02,4.13689e-02,1.85710e-02,6.38449e-02,1.43875e-01,1.38523e-01,1.97321e-01,1.39116e-01,1.19272e-01,5.20764e-02,-2.41445e-02,-4.47950e-02,-2.30184e-02,2.88702e-02,-9.47613e-03,-2.09866e-02,3.27066e-02,-3.95523e-02,-6.50563e-02,-1.83668e-02,2.96796e-03,-4.33666e-02,-2.84758e-03,-4.64290e-02,-8.42719e-02,-7.77381e-02,-3.11443e-02,8.81559e-02,1.50723e-02,-3.50210e-02,3.11035e-02,1.07686e-01,2.01060e-01,2.16431e-01,2.36219e-01,1.78164e-01,7.03445e-02,5.53826e-02,5.79474e-03,-3.80703e-02,-2.41638e-02,2.82821e-02,-6.04310e-04,1.25982e-02,-2.28897e-02,-1.79989e-02,-2.75571e-02,-6.46548e-03,3.88631e-02,-7.79140e-03,1.04581e-02,-4.71705e-02,-6.71139e-02,-1.23973e-01,-5.32321e-02,1.10722e-01,-5.16345e-02,-5.96364e-02,-3.84885e-02,5.72787e-02,1.85504e-01,1.38384e-01,1.77534e-01,1.57328e-01,2.41639e-02,-3.83135e-03,-7.13313e-03,-5.51812e-02,-2.20192e-02,-3.51816e-02,2.57434e-02,3.37157e-02,1.20847e-02,-4.79542e-02,-1.26040e-01,-4.69631e-02,-5.13784e-02,-3.63827e-02,-9.14425e-02,-9.03083e-02,-9.43006e-02,-1.61801e-01,-3.73625e-02,5.92146e-02,-6.08043e-02,-1.81478e-02,-3.71013e-02,5.05568e-02,8.75631e-02,6.13716e-02,9.44478e-02,9.31975e-02,1.99058e-02,-5.49709e-02,-4.70194e-02,-1.11585e-02,-3.69600e-02,1.83522e-02,-5.50716e-03,-2.10891e-02,7.56975e-03,-4.96867e-02,-7.89421e-02,-7.62668e-02,-9.12822e-02,-7.00556e-02,-4.82895e-02,-8.29258e-02,-9.02265e-02,-1.04925e-01,5.92750e-02,8.78003e-02,5.12847e-02,3.45272e-02,5.63090e-02,6.74251e-02,3.59513e-02,1.90166e-02,1.22467e-01,4.76985e-02,-6.35234e-02,-1.24638e-01,-4.29429e-02,2.51311e-03,-2.83898e-02,4.80916e-03,2.04677e-02,2.17052e-02,5.60619e-02,-5.63934e-02,-1.31985e-01,-1.18121e-01,-1.00909e-01,-3.96642e-02,-5.90226e-02,-8.52271e-02,-3.87684e-02,-7.26390e-04,1.15998e-01,1.26155e-01,1.26349e-01,1.52441e-01,1.40917e-01,1.13679e-01,2.41292e-03,3.79515e-03,1.34783e-02,-9.91134e-02,-1.30693e-01,-1.13380e-01,-6.80192e-02,1.57638e-02,-2.36118e-02,-2.22971e-02,-6.71121e-03,-1.15864e-02,3.08539e-02,-5.66807e-02,-5.51398e-02,-1.32493e-01,-9.30804e-02,-7.15339e-02,-3.30128e-02,-5.09033e-04,2.03023e-02,8.84623e-02,1.26268e-01,2.17690e-01,2.22080e-01,1.68181e-01,1.19025e-01,9.64767e-02,-3.62475e-02,-1.75091e-02,-1.32020e-01,-1.70105e-01,-1.30403e-01,-9.90437e-02,-2.10692e-02,2.94080e-02,2.75115e-02,2.89977e-02,-3.07991e-02,3.79280e-02,2.49841e-02,-8.26249e-03,-7.08177e-02,-1.24683e-01,-1.51191e-01,-9.67915e-02,-9.03360e-02,-5.49858e-02,3.68029e-02,6.67159e-02,1.21358e-01,1.78932e-01,2.15489e-01,1.41269e-01,6.81635e-02,1.07550e-02,-6.87920e-02,-9.60706e-02,-1.36116e-01,-1.44031e-01,-1.08693e-01,-4.73636e-02,-3.96449e-02,-1.32203e-02,2.00926e-02,-2.41879e-02,1.95969e-02,-1.80570e-02,-2.82244e-02,-2.71384e-03,-2.46317e-02,-7.30208e-02,-1.68078e-01,-1.70513e-01,-4.81550e-02,-7.08546e-02,-3.38400e-02,5.38155e-03,2.82622e-03,4.42027e-02,-9.91247e-04,2.27639e-02,-2.87725e-02,-2.83726e-02,-1.02886e-01,-1.11268e-01,-1.84537e-01,-1.29556e-01,-7.23222e-02,-2.57923e-02,5.13663e-03,1.43185e-02,2.92412e-02,-2.83898e-02,1.10456e-02,-2.63807e-02,8.58942e-03,2.16969e-02,-4.91246e-02,-7.63808e-02,-1.30367e-01,-8.21218e-02,-5.10099e-02,-2.52041e-02,-2.41387e-02,-5.22236e-02,-7.49615e-02,-6.51569e-02,-6.69363e-02,-5.87905e-02,-7.08887e-02,-5.74351e-02,-1.22517e-01,-1.32603e-01,-9.35009e-02,-1.09124e-01,-8.23625e-02,1.08554e-03,2.19921e-02,2.63821e-02,7.21663e-03,-3.01376e-03,-3.55202e-02,-7.29190e-03,1.98272e-02,-4.31336e-03,-1.55783e-03,2.66416e-02,-3.07489e-02,-1.98771e-02,-5.56726e-02,3.57025e-03,2.25159e-02,2.67682e-02,-5.02378e-03,-6.28708e-03,-9.67306e-03,-6.15881e-02,-2.50505e-02,-2.53012e-02,-7.13649e-02,-4.98364e-02,-4.23573e-02,-7.93138e-02,-5.27417e-02,1.56277e-02,3.27588e-02,-1.37551e-02,1.37286e-02,2.92715e-02,-2.89112e-02,-1.31414e-02,2.99474e-02,-3.25925e-03,2.00229e-02,3.31402e-02,2.99639e-02,5.75536e-02,5.17962e-02,-7.55802e-03,5.77853e-02,8.19658e-02,4.80445e-02,2.04868e-02,3.86758e-02,1.00602e-03,1.30568e-02,1.40457e-02,1.41858e-02,-2.95289e-02,-3.28394e-02,1.65612e-02,1.70126e-02,1.23663e-02,-3.42442e-02,1.46956e-02,2.96697e-03,-3.53359e-02,-3.49899e-02,5.23784e-03,-6.73036e-03,2.62336e-02,4.10509e-03,-2.03519e-02,8.98358e-03,4.39646e-02,3.90630e-02,7.36026e-02,8.00477e-02,4.79888e-02,6.23176e-02,3.33681e-03,4.89789e-02,3.15302e-02,1.29780e-02,2.30983e-02,4.11061e-02,-2.56268e-03,1.34653e-02,2.91301e-02,4.71409e-03,-4.58294e-03,-2.62898e-02,-1.98579e-02,1.09020e-03,7.10824e-03,-4.87308e-03,-3.21652e-02,-2.11869e-02,2.09173e-02,-1.84172e-03,-3.55053e-02,-3.17684e-02,-1.24686e-02,-2.43252e-02,3.73338e-02,4.07886e-02,2.03362e-02,5.10834e-02,2.77128e-02,3.96314e-03,1.64052e-02,5.91362e-03,1.63501e-03,3.02414e-02,4.00950e-03,1.77035e-02,1.76717e-02,2.19472e-02,2.27329e-03,1.90936e-03,2.07178e-02,-1.92393e-02,
4.28971e-04,9.93693e-03,-2.50334e-03,-6.40287e-03,1.76762e-02,1.50237e-02,-2.54699e-02,-8.58224e-03,-2.14568e-02,1.87428e-02,5.73287e-03,3.80812e-03,1.88482e-02,-8.71303e-05,2.37275e-02,-6.00985e-03,1.97578e-02,1.56923e-02,3.12833e-02,-5.23399e-03,4.80464e-03,-3.49625e-02,2.97745e-02,2.80986e-03,1.20215e-02,-3.22776e-02,-5.55775e-03,2.99567e-02,-1.71437e-02,1.00265e-02,2.09038e-02,1.94706e-02,3.31293e-02,-1.78198e-02,-2.11651e-02,1.67184e-02,2.72922e-04,-2.25396e-02,-3.13726e-02,3.20305e-02,-1.42960e-02,3.54166e-02,-2.56622e-02,1.81796e-02,-1.15550e-02,2.89486e-02,3.47346e-02,3.05242e-02,-1.88704e-02,-1.01753e-02,-2.15862e-02,-4.43797e-03,1.08319e-02,2.45233e-02,-1.70493e-02,2.29789e-02,-7.40035e-03,8.00487e-04,-2.34527e-02,8.38916e-03,4.48645e-03,2.33878e-02,2.91463e-02,3.67747e-02,3.32896e-02,3.43477e-03,2.70246e-02,4.34026e-02,4.27824e-02,3.43159e-02,-1.27579e-02,-7.01320e-03,-2.67314e-02,5.02788e-03,-1.75014e-02,-4.46608e-02,-2.57812e-02,-3.42594e-02,6.13466e-03,2.82822e-02,-1.57435e-03,-1.44801e-02,-1.11289e-02,-2.85875e-02,1.60166e-02,2.10255e-02,-2.53546e-02,2.55293e-02,1.21875e-02,-3.04894e-02,2.44587e-02,4.97350e-03,7.30423e-03,4.43303e-02,2.05059e-02,7.91022e-02,1.27842e-01,1.07572e-01,1.02816e-01,4.20454e-02,2.28693e-03,2.79037e-02,9.50582e-03,1.84551e-02,2.22028e-02,1.30067e-02,-2.40761e-03,-3.30902e-02,2.07639e-03,6.75463e-03,-2.07761e-02,-4.37843e-03,4.63258e-03,-2.51227e-02,4.14470e-03,-3.15336e-02,1.78106e-02,-2.19486e-02,1.84309e-02,2.23502e-02,2.19144e-02,7.53949e-02,7.37836e-02,1.53079e-01,1.12592e-01,6.94893e-02,5.12148e-02,7.61020e-02,8.71313e-02,1.04213e-01,8.40027e-02,3.39263e-02,-2.26176e-02,3.52251e-02,2.39600e-02,4.70428e-02,5.94075e-02,1.61428e-02,-1.48067e-02,2.41296e-02,7.61724e-03,-1.86509e-02,-2.31975e-02,-3.11447e-02,1.92994e-02,1.12087e-02,1.67550e-02,5.63598e-02,4.78226e-02,1.25217e-01,1.16312e-01,5.76225e-02,-4.76243e-03,-3.76562e-02,6.72456e-03,-1.24119e-03,5.67659e-02,1.20035e-01,9.05775e-02,1.16637e-01,1.01248e-01,6.19648e-02,4.38936e-02,4.03265e-02,7.82984e-02,2.70789e-02,-8.66613e-03,-1.48728e-03,-3.39761e-02,-1.28781e-02,-1.79305e-02,3.87047e-02,-1.17185e-02,2.69874e-02,7.51472e-02,7.25760e-02,1.54912e-01,9.39767e-02,9.81222e-02,6.10849e-02,3.65358e-02,9.59231e-02,9.35157e-02,4.18652e-02,9.63568e-02,1.00316e-01,9.89783e-02,1.21796e-01,9.20249e-02,9.76198e-02,1.11737e-01,4.44021e-02,4.93272e-02,7.07326e-02,8.31959e-03,1.62564e-02,-7.24381e-03,1.48045e-02,1.26949e-02,4.09707e-02,-4.03735e-03,7.35708e-02,1.10111e-01,1.06368e-01,1.06416e-01,1.60735e-01,1.39194e-01,1.67172e-01,1.45607e-01,1.14227e-01,1.08431e-01,9.30982e-02,1.27187e-01,1.08463e-01,1.54223e-01,1.39431e-01,6.45568e-02,1.07992e-01,7.83260e-02,4.47814e-02,7.65821e-02,5.01995e-02,3.16273e-02,-8.60726e-04,3.44765e-02,1.99860e-02,-2.02991e-03,-5.85745e-03,4.43578e-02,6.23120e-02,1.00435e-01,1.28481e-01,1.06324e-01,1.06192e-01,1.43715e-01,1.63116e-01,1.99561e-01,1.81508e-01,1.87479e-01,1.09845e-01,1.04838e-01,1.07480e-01,6.00981e-02,9.68658e-02,2.63206e-02,-4.82298e-03,4.27848e-02,4.10424e-02,5.20945e-02,8.76873e-02,-8.53534e-03,-4.74296e-03,-1.91001e-02,-2.17772e-02,-1.26801e-02,1.18419e-02,7.30036e-02,3.45527e-02,7.39666e-02,4.86881e-02,1.15190e-01,1.27134e-01,1.42980e-01,1.26958e-01,1.24466e-01,1.00404e-01,5.07386e-02,-7.96578e-03,-2.97176e-02,9.86907e-03,-1.56988e-02,3.49112e-02,-4.82148e-02,-8.16948e-02,-6.80025e-02,-2.10988e-02,8.39491e-02,7.59458e-02,8.70443e-03,-1.31951e-02,-2.67899e-02,-1.67975e-02,8.95384e-03,2.28939e-02,6.23389e-02,3.52990e-02,-2.65309e-02,-1.40913e-03,2.08705e-02,2.73206e-02,2.68918e-02,2.03567e-02,1.05264e-02,-2.55915e-02,-7.73833e-02,-1.43497e-01,-1.38978e-01,-7.50798e-02,-4.40856e-02,-4.93037e-02,-1.34622e-01,-1.11433e-01,-1.11628e-01,-4.19082e-02,4.15519e-02,7.94021e-02,5.78705e-02,-2.91149e-02,-2.37071e-02,2.17495e-02,2.90436e-02,5.35267e-02,4.34215e-02,-2.81988e-02,-3.59783e-02,-3.92614e-02,-2.30450e-02,-2.05127e-02,-4.67080e-02,-8.60562e-02,-1.02108e-01,-1.54688e-01,-2.31818e-01,-2.29428e-01,-2.31862e-01,-9.45046e-02,-8.77599e-02,-1.06389e-01,-1.54811e-01,-1.74401e-01,-1.31771e-01,-8.24198e-02,-1.82811e-02,3.94473e-02,3.48502e-02,2.08636e-03,5.67231e-03,1.66489e-02,-1.51729e-02,-2.54081e-02,-6.22093e-02,-7.42383e-02,-7.13633e-02,-4.99879e-02,-6.76326e-02,-3.00817e-02,-1.96633e-02,-1.02145e-01,-1.33850e-01,-1.80891e-01,-2.15405e-01,-1.58685e-01,-8.18496e-02,-3.46146e-02,-6.27983e-02,-8.61912e-02,-1.54571e-01,-1.74582e-01,-9.79165e-02,-5.59857e-02,-2.64452e-02,-2.16913e-02,-5.31555e-03,1.96914e-02,-1.54381e-03,-1.49820e-02,3.94048e-02,1.51703e-02,-5.43991e-02,-9.35872e-02,-3.42010e-02,9.90773e-03,-3.29194e-02,-4.98553e-02,-3.42675e-02,-9.32405e-02,-9.71131e-02,-1.09993e-01,-1.03541e-01,-1.52888e-01,-1.19476e-01,-5.02253e-02,-5.90097e-02,-1.16357e-01,-1.64307e-01,-8.96109e-02,-2.93693e-02,-2.89432e-03,4.93411e-02,1.96629e-02,-3.37176e-02,6.85698e-03,2.94081e-02,2.01175e-02,-2.45350e-02,-5.17064e-02,-8.02451e-02,-3.31666e-02,-5.01738e-02,-3.40913e-02,-8.65243e-03,8.78144e-03,1.09514e-02,-9.74274e-02,-7.35166e-02,-7.26393e-02,-2.62504e-02,-4.08518e-02,-9.51767e-02,-5.90892e-02,-7.51991e-02,-6.34838e-02,-7.60624e-02,1.59408e-02,-4.37075e-02,8.82510e-03,3.68160e-02,7.50244e-04,-2.44665e-02,-3.53316e-02,-1.99140e-02,3.52841e-02,3.87198e-02,-4.97347e-02,-6.66386e-02,-5.08284e-02,-7.44277e-02,-2.20808e-02,-4.14185e-02,3.74467e-02,-1.43330e-02,-7.04430e-02,-4.21440e-03,-3.32381e-03,1.79810e-04,-4.97260e-02,-7.80683e-02,-1.10782e-01,-2.75712e-02,-9.14476e-03,-7.14348e-03,5.15339e-02,4.79103e-02,6.04909e-02,5.01039e-02,5.11052e-02,-7.81292e-03,-2.57680e-02,-2.88834e-02,2.87749e-02,1.30822e-02,1.42278e-02,-4.14871e-02,-7.58549e-02,-1.74332e-01,-1.06371e-01,-1.06196e-01,-4.84106e-02,-1.12274e-02,5.31909e-03,6.73741e-02,3.82689e-02,-4.48429e-02,-8.12786e-02,-9.79570e-02,-9.84660e-02,-2.25900e-02,2.00956e-02,5.04806e-02,6.02811e-02,1.30011e-01,1.52010e-01,5.78442e-02,3.18074e-02,-2.64820e-02,8.72105e-03,2.70492e-02,-2.93783e-03,3.23352e-02,1.26152e-02,8.48995e-03,-3.71932e-02,-1.36753e-01,-1.79775e-01,-1.66721e-01,-1.31696e-01,-8.22199e-02,-5.27262e-02,2.25312e-02,-3.54437e-02,-9.96920e-02,-1.30625e-01,-1.38165e-01,-4.38278e-02,4.97599e-03,6.45923e-02,8.77280e-02,1.09972e-01,9.35010e-02,1.34065e-01,8.60003e-02,-4.96256e-03,-3.49409e-02,1.47256e-02,5.28244e-03,8.67780e-03,3.42751e-02,2.92223e-02,2.35476e-02,-2.41859e-02,-1.10440e-01,-1.93210e-01,-2.21575e-01,-2.19570e-01,-1.85344e-01,-1.24576e-01,-1.64017e-01,-1.35977e-01,-1.37608e-01,-1.26015e-01,-4.87286e-02,5.64969e-02,-1.08103e-03,1.05104e-01,7.42215e-02,1.12913e-01,1.47870e-01,1.01409e-01,3.79251e-02,-1.54548e-02,-2.91892e-02,-2.23178e-02,-3.18249e-02,2.49175e-02,2.33726e-02,3.46889e-02,4.87399e-02,8.25377e-03,-4.51757e-02,-8.40146e-02,-8.43121e-02,-1.37618e-01,-9.80042e-02,-1.23037e-01,-8.61625e-02,-6.10801e-02,-8.53722e-02,-4.96805e-02,-2.30103e-03,2.50009e-02,7.48789e-02,8.91357e-02,2.05422e-02,9.43440e-02,1.27702e-01,1.15668e-01,6.98213e-02,4.16426e-03,3.31236e-02,-7.66640e-03,1.84777e-03,-2.25164e-02,-1.49969e-02,3.84711e-02,3.41642e-02,5.03862e-02,-3.44154e-03,-8.40597e-02,-7.29477e-02,8.86199e-03,-2.99235e-02,-2.21218e-02,2.05664e-02,2.54074e-02,1.38702e-02,4.81688e-02,3.86547e-02,6.16363e-02,8.57802e-02,5.88401e-02,8.85350e-02,3.32966e-02,1.39780e-01,9.13730e-02,1.28662e-03,2.18652e-02,3.22061e-02,3.60305e-03,9.86994e-03,-9.89466e-03,4.66420e-03,3.43185e-02,5.66902e-02,5.86466e-02,1.76926e-02,3.89527e-02,9.51750e-04,-2.66248e-02,6.22833e-02,9.44483e-02,1.32016e-01,8.88827e-02,1.56795e-01,1.01761e-01,8.36923e-02,5.08715e-02,7.47380e-02,7.02808e-02,5.19934e-02,7.27126e-02,4.14718e-02,1.31121e-02,3.07760e-02,3.11220e-02,1.38721e-03,1.98165e-02,2.54823e-02,2.57525e-02,-8.20610e-03,1.47026e-02,3.49041e-02,6.38643e-02,1.07179e-01,7.03989e-02,2.92102e-02,9.79857e-02,7.10285e-02,1.05433e-01,1.02580e-01,1.73532e-01,9.69910e-02,1.20728e-01,1.02433e-01,9.94035e-02,4.99475e-02,7.74388e-02,1.06589e-02,-1.26281e-02,4.28954e-02,9.98750e-04,2.68868e-02,2.92705e-02,2.84225e-02,3.70619e-03,-2.73310e-02,-8.22453e-03,-1.17941e-02,1.77290e-02,1.41652e-02,5.39669e-02,1.03920e-01,1.19775e-01,9.47858e-02,1.38540e-01,1.30897e-01,1.14145e-01,1.03176e-01,1.52402e-01,1.24124e-01,8.13952e-02,8.25801e-02,1.02811e-01,4.66997e-02,3.96385e-02,-3.44700e-02,-3.42731e-02,-2.68600e-02,-2.68766e-02,-6.72392e-03,3.51635e-02,2.88017e-02,-2.43562e-02,1.06059e-02,3.10240e-02,4.04126e-03,1.17887e-02,5.40624e-02,3.48879e-02,5.85740e-02,1.33285e-01,1.37734e-01,1.17295e-01,1.57159e-01,1.85578e-01,2.21288e-01,1.88578e-01,1.81067e-01,1.74037e-01,1.66065e-01,8.86640e-02,1.06626e-01,9.14760e-03,-4.72305e-02,-7.94654e-02,-3.27589e-02,6.07183e-03,4.84683e-03,2.90578e-02,-2.22613e-02,-1.25953e-02,-4.11456e-03,1.44700e-02,1.18694e-02,2.19765e-02,-1.59160e-02,-1.00647e-02,3.22439e-02,5.28511e-02,1.17723e-01,1.34183e-01,1.32595e-01,1.62994e-01,1.56344e-01,1.09480e-01,9.92053e-02,1.37777e-01,1.00844e-01,1.02682e-01,4.26740e-02,1.23849e-02,-4.22411e-02,-5.45306e-02,-1.32063e-02,2.15161e-02,-7.86373e-04,-1.05495e-02,2.91980e-02,-1.62969e-02,9.25674e-03,6.59380e-04,1.04955e-02,2.06506e-02,5.27599e-03,-1.07071e-02,1.39160e-02,1.45344e-02,1.59542e-02,2.69335e-02,2.04812e-02,4.54972e-02,3.27770e-03,2.52319e-02,4.21997e-02,3.04055e-02,1.78512e-02,5.16278e-02,5.69255e-03,4.14975e-02,2.08622e-02,-2.27291e-02,-6.16432e-04,-1.68515e-02,2.98633e-02,-2.57109e-02,3.97725e-03,-2.00835e-02,2.81383e-02,1.73464e-02,3.08579e-02,-1.63908e-02,1.21111e-02,-2.97232e-02,2.24623e-02,-1.01262e-02,1.41527e-02,2.00434e-02,-1.35902e-02,3.25834e-02,-7.76363e-05,2.18689e-02,-9.56948e-03,1.08426e-02,1.56799e-02,4.37583e-02,2.06285e-02,9.01742e-03,-9.05498e-03,-3.76017e-02,-1.77934e-02,-1.20620e-02,1.33791e-02,-2.59019e-03,1.11885e-02,-1.85268e-02,
-3.55494e-02,1.30849e-02,1.92790e-02,1.88725e-02,2.96117e-02,-3.48326e-02,1.06210e-02,2.83598e-02,-1.82462e-02,1.99099e-02,1.84642e-02,7.60262e-03,-3.41557e-02,1.68235e-02,3.21523e-02,-4.89462e-03,1.42399e-02,2.72139e-02,-2.66651e-02,-3.32290e-02,1.39262e-02,-1.49836e-03,-1.67895e-02,-3.33686e-02,-2.21597e-02,9.65096e-03,-6.57080e-03,-3.10355e-02,-3.61311e-03,-1.80614e-03,-3.33259e-02,2.14114e-02,3.56837e-02,2.53441e-02,-3.21049e-02,-2.19924e-02,-2.78792e-02,3.01855e-02,-1.67294e-02,2.68162e-02,-1.47852e-02,1.30172e-02,2.12396e-02,-1.92319e-02,1.67317e-02,2.02863e-02,8.07913e-03,-1.59954e-02,-3.22603e-02,4.66570e-03,-3.25148e-02,-1.17755e-02,5.77797e-03,2.20304e-02,2.72854e-02,-2.99551e-02,-1.58183e-02,-3.20971e-03,-6.97855e-04,-8.42473e-03,-2.25944e-02,-7.98575e-03,-7.48125e-03,-2.12716e-02,1.26795e-02,-3.18917e-02,-3.66050e-02,-6.31538e-04,-2.65429e-02,8.43864e-03,-5.90341e-02,-6.51959e-02,-2.50483e-02,-5.10002e-02,-2.34703e-02,-8.56178e-03,1.36353e-03,6.13833e-03,7.28904e-03,-2.41454e-02,-1.05168e-02,-3.71195e-03,-3.32668e-05,2.79212e-02,1.08221e-02,-3.31619e-02,9.02561e-03,2.18017e-03,1.50154e-02,-1.11562e-02,3.10251e-02,-2.04895e-02,3.79482e-02,4.18939e-02,-5.90683e-03,2.55882e-02,1.04131e-01,5.08322e-02,6.30127e-02,1.01562e-02,7.21678e-03,-2.70985e-03,-2.68628e-02,-2.74594e-02,-3.08690e-02,-9.19775e-02,-3.07634e-02,-8.00484e-04,9.74701e-03,-2.26948e-02,1.68237e-02,7.96176e-03,-2.22747e-02,-3.13119e-02,-1.99599e-02,-2.71142e-02,-9.07502e-03,1.31259e-02,5.06329e-03,3.98043e-02,5.87658e-02,9.24518e-02,8.01902e-02,1.94958e-01,2.01295e-01,1.85422e-01,1.49588e-01,1.12441e-01,5.52671e-02,7.97820e-02,1.91723e-03,-7.09341e-02,-1.74136e-02,-8.47570e-02,-3.97385e-02,-7.99939e-02,-3.51666e-02,-1.41361e-02,7.73237e-03,3.42881e-04,-1.31665e-02,7.31725e-03,2.13267e-02,-1.21440e-02,2.92741e-02,4.02080e-03,4.08823e-02,3.25193e-02,4.46483e-02,1.06887e-01,8.73128e-02,1.26899e-01,5.38333e-02,1.18021e-01,1.05307e-01,6.01304e-02,1.01191e-01,8.86639e-02,7.12572e-02,-3.44363e-02,1.85320e-02,1.61750e-02,-6.24699e-02,-7.21367e-02,-5.51279e-02,3.23753e-02,-5.34903e-04,1.90338e-02,3.55801e-02,-2.58644e-02,-2.67513e-03,-1.22030e-02,2.79030e-02,5.40166e-02,1.19206e-02,3.81063e-02,4.94145e-02,2.23873e-02,6.67375e-02,7.09711e-02,6.30959e-02,7.69415e-02,1.45362e-01,1.27730e-01,1.66282e-01,1.29661e-01,1.49661e-01,4.48557e-02,3.17550e-02,4.32700e-02,-4.85515e-02,-1.32219e-02,-1.14040e-02,3.67798e-02,-1.78816e-02,-2.38836e-03,1.64247e-02,2.01736e-02,-3.71142e-03,4.04446e-02,4.08781e-02,2.43218e-02,-1.97645e-02,9.53589e-03,-5.91892e-03,-2.63147e-02,4.85011e-03,1.66384e-02,7.11032e-02,5.76286e-02,1.29838e-01,1.47024e-01,1.72605e-01,1.39978e-01,1.52624e-01,1.19482e-01,6.81693e-02,7.67214e-02,1.01668e-02,-2.23893e-02,3.97876e-02,3.99012e-02,3.35606e-04,8.75411e-03,8.55109e-03,-7.34404e-03,-2.21693e-02,-7.86745e-03,9.08563e-03,1.13557e-02,-1.72629e-02,-2.55857e-03,-2.97562e-02,-1.82889e-02,-1.12585e-03,-5.13878e-03,3.31072e-02,3.09801e-02,6.85909e-02,8.23665e-02,1.46308e-01,1.40118e-01,1.57178e-01,1.01564e-01,1.35054e-01,8.11891e-02,4.27777e-02,8.41446e-02,9.45928e-02,1.09866e-01,-7.26306e-03,-4.09811e-03,2.65911e-03,-2.16953e-02,-1.05901e-03,-5.39738e-04,1.10368e-02,-4.13508e-02,-1.78946e-02,-2.78975e-02,-1.45868e-02,-4.44590e-02,-6.62461e-02,-8.70129e-02,-4.11365e-02,-2.60110e-02,5.98663e-03,-2.48406e-02,2.29827e-02,4.19696e-02,1.08621e-01,1.36103e-01,1.17464e-01,9.30439e-02,8.77469e-02,1.33762e-01,1.83393e-01,1.03156e-01,4.66675e-02,3.67567e-02,-3.10366e-03,-1.61392e-03,1.98636e-02,2.49376e-03,-3.40640e-02,-3.86393e-02,-5.07602e-02,-1.36631e-01,-7.84296e-02,-9.97853e-02,-7.74813e-02,-7.48816e-02,-6.47874e-02,-8.74946e-02,-1.48051e-02,-6.06383e-02,-7.04436e-02,2.52015e-02,1.20190e-01,1.25047e-01,1.39985e-01,1.09985e-01,1.27436e-01,1.83101e-01,1.88074e-01,9.94092e-02,3.18349e-02,-2.30223e-02,-8.01276e-03,8.01532e-03,1.22415e-02,-1.21847e-02,-2.67322e-02,-9.22626e-02,-9.23537e-02,-1.26247e-01,-1.21404e-01,-1.10663e-01,-4.79518e-02,-6.23805e-02,-7.65139e-02,1.26015e-02,-9.99417e-03,-1.20316e-01,-9.64114e-02,-5.68050e-03,1.39954e-02,7.55364e-02,8.73930e-02,5.05917e-02,6.70699e-03,4.74952e-02,9.66723e-02,8.44691e-02,1.11518e-02,2.25175e-02,3.00010e-03,-1.77045e-02,7.93150e-03,-2.73845e-03,-9.80066e-02,-1.58298e-01,-1.08385e-01,-1.26004e-01,-6.73919e-02,-4.69896e-02,-3.16377e-02,9.48082e-03,-2.38062e-02,1.73153e-02,-4.21281e-02,-8.13706e-02,-1.14342e-01,-8.71477e-02,3.68431e-02,6.32040e-02,1.93324e-02,2.37712e-02,-1.58201e-02,-1.06274e-02,-2.54886e-02,2.76529e-02,-1.69870e-02,-1.40076e-02,1.09053e-02,-1.89716e-02,1.60318e-02,-3.32527e-03,-7.28892e-02,-8.08370e-02,-1.20895e-01,-8.42387e-02,-1.18884e-02,1.64705e-02,-8.83038e-03,-9.07129e-03,3.52486e-02,3.70474e-02,-1.19186e-02,-7.71876e-02,-1.32808e-01,-7.32953e-02,-3.48637e-02,-4.92872e-03,-2.35455e-02,-4.27079e-02,-6.44849e-02,-3.93146e-02,-4.23561e-02,-1.87844e-03,-6.70423e-03,3.14547e-02,-1.12757e-02,1.78040e-02,3.29116e-02,-1.98432e-02,-7.05274e-02,-6.85027e-02,-9.18749e-02,-6.37439e-02,7.10721e-03,6.04422e-02,1.08850e-02,-2.10620e-02,7.83999e-03,9.21572e-03,-1.91787e-02,-7.48725e-02,-9.90986e-02,-5.28122e-02,-6.96923e-03,-1.04905e-01,-4.32979e-02,-9.45565e-02,-9.76236e-02,-8.57278e-02,-6.83243e-02,-5.53848e-02,3.34640e-02,-2.96562e-02,2.44165e-02,3.23328e-02,-2.19560e-02,1.14418e-02,4.89711e-02,-3.22577e-02,-5.20149e-02,-4.36693e-04,-3.36479e-02,5.15788e-02,1.08679e-02,-2.96063e-02,-3.09704e-02,1.99432e-03,-6.00931e-02,-8.64111e-02,-9.85091e-02,-7.29636e-02,-4.39995e-02,-9.38900e-02,-4.48644e-02,-4.53117e-02,-5.76178e-02,-6.54425e-02,-4.28606e-02,-4.68405e-02,6.30605e-03,-1.82638e-03,4.93823e-03,1.37061e-02,3.53663e-02,5.51890e-02,9.09563e-02,4.28345e-02,-3.48743e-02,-7.27244e-02,-6.51768e-02,1.37574e-04,-1.29139e-03,3.21683e-02,5.61814e-02,-5.82118e-03,-1.26401e-01,-1.32405e-01,-9.47378e-02,-2.29698e-02,-1.12758e-02,-3.35998e-02,-5.37504e-02,-6.65039e-02,-6.75289e-02,-2.11284e-02,-1.77318e-04,1.00234e-02,9.43854e-03,2.45173e-02,3.13212e-02,-2.47912e-02,3.32453e-02,5.79690e-02,1.40163e-01,4.54024e-02,1.28828e-02,-1.78934e-02,-6.46860e-02,-5.83268e-02,-7.43666e-03,-3.22562e-02,-4.47289e-02,-1.14489e-01,-1.63746e-01,-1.55634e-01,-1.28331e-02,-5.93342e-02,-3.34338e-02,-4.85293e-02,-6.51289e-02,-5.96124e-02,-3.91655e-02,4.16667e-02,2.44660e-02,-1.65585e-02,-2.54593e-02,-1.19709e-03,2.29291e-02,1.99037e-02,1.57737e-02,9.07829e-02,9.55502e-02,1.15620e-01,8.75260e-02,-1.90646e-02,-4.99645e-02,-5.13017e-02,-6.46655e-02,-7.53689e-02,-6.17071e-02,-1.44237e-01,-1.74940e-01,-3.81095e-02,3.58037e-02,2.66214e-02,-6.56793e-03,1.04606e-02,-4.20108e-02,1.29630e-02,5.40246e-02,8.18403e-02,5.97365e-02,3.45408e-02,1.29102e-03,2.95544e-02,1.44843e-02,1.18936e-02,3.81856e-02,8.79086e-02,9.18513e-02,9.36874e-02,7.59316e-02,6.50391e-02,4.90092e-03,2.29367e-02,8.80846e-03,-8.92461e-02,-9.03256e-02,-7.84604e-02,-1.19126e-01,-3.01644e-02,2.67070e-02,4.48306e-02,6.64359e-02,-1.24714e-02,1.70915e-02,2.62741e-02,9.94861e-02,9.15523e-02,7.75179e-02,-1.89184e-02,-1.02338e-02,2.60040e-02,1.33666e-02,-2.75110e-02,3.63965e-02,1.06805e-01,9.63870e-02,8.26623e-02,5.54183e-02,2.84445e-02,7.96363e-03,2.69659e-02,2.90903e-02,-9.10309e-04,-2.27909e-02,-3.93288e-02,-1.75396e-02,2.76646e-02,5.89616e-03,1.55842e-02,5.96480e-02,3.12286e-02,-1.78816e-02,4.40274e-02,7.81770e-02,7.97433e-02,4.37020e-04,1.72686e-02,-5.54439e-03,-6.07515e-03,1.37104e-02,2.20663e-02,2.47071e-02,6.56513e-02,8.99608e-02,5.54385e-02,1.01042e-01,4.80316e-02,3.24078e-02,1.39499e-02,-4.32934e-02,1.26324e-02,-1.77729e-02,2.08311e-02,5.27382e-02,9.51242e-03,-1.48557e-03,-1.45321e-02,8.29345e-03,4.06525e-02,2.36422e-02,4.38124e-02,3.60852e-02,3.96308e-02,3.06744e-02,-1.54897e-03,1.62318e-02,-2.69717e-02,8.82435e-03,2.47484e-02,1.31361e-02,3.35755e-02,5.32458e-02,8.16281e-03,5.90455e-02,4.59410e-02,7.60260e-02,4.32275e-02,5.70649e-02,6.45960e-02,7.23391e-02,1.25239e-01,1.22618e-01,4.12000e-02,4.91559e-02,2.41978e-02,3.71525e-02,4.24626e-02,-1.61560e-02,-2.69742e-02,7.36273e-02,1.68632e-02,1.36484e-02,-3.25069e-02,-3.85758e-03,8.94889e-03,2.78759e-02,-2.21877e-02,-1.83405e-02,1.12296e-02,4.42077e-02,-1.70522e-02,-2.77762e-02,4.54254e-02,1.14903e-01,8.44964e-02,1.49048e-01,2.20153e-01,2.14787e-01,2.06603e-01,1.19922e-01,1.35790e-01,6.96522e-02,7.66327e-02,2.91940e-02,2.88962e-02,4.60399e-03,1.66224e-02,3.31035e-02,-9.80075e-03,1.38090e-02,-2.88616e-02,9.23549e-03,-1.44943e-02,-1.67652e-02,-3.40905e-04,6.85154e-03,-1.01361e-02,-2.43160e-02,3.94679e-03,-1.00902e-02,6.88117e-02,1.01051e-01,1.59696e-01,1.25847e-01,1.72446e-01,2.56240e-01,2.25403e-01,1.78209e-01,1.67921e-01,1.41685e-01,7.05830e-02,9.91041e-03,-1.85115e-03,-6.50516e-02,-5.69021e-03,-1.64866e-02,-3.21374e-02,-1.63908e-02,7.15151e-03,1.89966e-02,-5.69471e-03,-3.43380e-02,-1.53214e-04,3.37184e-02,-2.02032e-02,-2.33428e-03,-1.85245e-02,-4.43950e-02,-2.78084e-02,4.28617e-02,4.90223e-02,1.06129e-01,1.51925e-01,1.19787e-01,1.25945e-01,1.08217e-01,7.27501e-02,1.06918e-01,1.04945e-01,7.72496e-03,3.53314e-02,-4.58921e-03,-3.64300e-02,-3.97705e-02,-1.15748e-03,-2.42691e-02,2.04299e-02,-2.88341e-03,-7.97617e-03,-2.76334e-02,1.57365e-02,-2.04319e-02,2.55332e-02,-4.73138e-03,-3.23723e-02,1.35217e-02,1.16531e-02,-4.77864e-02,-4.21080e-02,-1.98566e-02,-1.85695e-02,2.09340e-02,-2.25025e-02,2.35752e-02,-2.97097e-02,-2.35629e-02,-5.89023e-03,-7.00812e-03,1.64523e-02,-2.02339e-02,3.33117e-02,-2.95075e-02,2.63303e-02,3.25208e-02,9.29987e-03,8.09633e-03,-1.95099e-02,1.10428e-02,2.95232e-02,-3.05843e-02,3.05620e-02,-1.64177e-02,8.28580e-03,1.72708e-02,-2.52821e-04,-2.36002e-02,-2.22085e-02,3.65690e-03,-1.61749e-02,-2.87000e-02,-4.29571e-02,2.39845e-02,-3.78424e-02,-2.85766e-02,1.03787e-02,1.90161e-02,3.17289e-02,1.14730e-02,2.95449e-02,-2.15545e-02,1.24038e-02,5.21202e-03,-3.23822e-02,3.16478e-02,1.19610e-02,
1.78122e-02,1.96071e-02,1.13828e-02,-1.85742e-02,2.17744e-02,2.67794e-03,-1.76440e-02,2.03278e-02,-1.26949e-03,6.36572e-03,2.36021e-02,2.72902e-02,-2.76430e-03,1.16080e-03,2.37229e-03,1.72034e-02,1.34989e-02,2.25180e-02,-1.07809e-02,-1.66873e-02,-8.30391e-03,2.07872e-02,2.89557e-02,-1.52322e-02,1.83078e-02,3.44877e-02,2.53236e-02,3.06241e-03,-6.68949e-03,3.49368e-02,1.20459e-02,-1.33655e-02,7.90406e-03,-1.99603e-02,-1.89127e-02,3.12617e-02,2.03356e-02,-2.39535e-02,-5.47861e-03,-1.80177e-04,-1.30542e-02,-1.55061e-02,1.93825e-02,2.02105e-02,-1.42771e-02,-3.06804e-02,2.85267e-02,-2.08904e-02,-2.59591e-03,-1.68103e-02,-1.36394e-02,2.37430e-02,2.90674e-02,-1.72662e-02,2.67124e-02,-2.14068e-02,-2.94092e-02,9.54380e-03,-2.33163e-03,1.84474e-02,2.57236e-02,-1.32331e-02,7.27920e-03,1.27682e-02,2.30012e-03,-6.73808e-03,2.05341e-03,-4.31430e-02,-1.75802e-02,-3.68802e-02,-4.96970e-02,1.09758e-02,-4.44907e-02,-3.11754e-02,2.64371e-02,-2.93521e-02,-1.48616e-02,2.45272e-02,1.64397e-02,1.84040e-02,8.54575e-03,-5.44984e-03,2.75616e-02,3.02522e-02,-3.54594e-03,-1.19470e-02,-1.52988e-02,3.60868e-03,-2.72673e-02,-3.43423e-02,-4.03581e-02,1.25513e-03,-9.56801e-03,-2.51157e-02,-4.83177e-02,-7.71445e-02,-6.08425e-02,-7.22929e-02,-7.82021e-02,-1.64966e-02,-6.09834e-02,-1.37241e-02,-2.12199e-02,-7.80568e-03,-6.86304e-03,-2.47300e-02,1.51761e-02,-9.18346e-03,-1.83336e-02,2.45705e-02,-1.56584e-02,3.28400e-02,-7.50020e-03,3.19931e-02,-2.52161e-02,-1.27805e-02,2.48475e-02,-3.34272e-02,-6.47850e-02,-5.18365e-02,-1.24599e-01,-8.59143e-02,-1.12203e-01,-4.78677e-02,-7.32437e-02,-7.30942e-02,-8.12849e-02,-1.51814e-02,4.48490e-03,7.80292e-02,4.99037e-03,4.19658e-02,3.98371e-02,2.74038e-02,8.22978e-02,9.59480e-02,7.78536e-02,2.93813e-02,3.27894e-02,1.53513e-02,-4.63324e-03,2.82140e-02,-3.09844e-02,-2.09957e-02,-6.57958e-02,-5.48583e-02,-8.50497e-02,-8.70001e-02,-1.37311e-01,-6.17886e-02,-5.90355e-02,-3.16430e-02,-4.59817e-02,-7.49313e-02,-5.51698e-02,-3.72468e-02,3.00441e-03,5.10044e-02,4.89504e-02,2.78156e-02,5.53517e-02,1.08667e-01,6.54656e-02,1.35017e-01,7.66349e-02,6.50371e-02,2.54267e-02,-1.70228e-03,2.86847e-02,8.67925e-03,-6.92159e-03,-5.04765e-02,-8.66345e-02,-7.55546e-02,-9.69391e-02,-7.92778e-02,-6.02370e-02,-4.72631e-02,2.94135e-02,-1.57485e-02,1.91446e-02,3.02589e-02,1.67482e-02,1.26822e-02,-6.73941e-03,3.49583e-03,2.73994e-02,8.35098e-02,7.25990e-02,1.18091e-01,1.69789e-01,1.86913e-01,1.93877e-01,1.13618e-01,1.33747e-02,-2.53249e-02,-1.30291e-02,-5.63710e-03,-3.40256e-02,-5.70772e-02,-6.15013e-02,-6.72199e-02,-1.36822e-01,-9.82972e-02,-7.10062e-03,1.77081e-02,4.67179e-03,3.19059e-02,-2.29108e-02,-1.54143e-02,-4.06249e-02,-3.45222e-02,-1.06872e-02,-5.14794e-03,5.32752e-02,1.86942e-02,4.59819e-02,7.53733e-02,1.13383e-01,2.46959e-01,2.41312e-01,1.57622e-01,3.38253e-02,-2.17705e-02,-6.27267e-03,7.22667e-03,1.82319e-02,-4.69248e-02,-1.37451e-01,-1.29152e-01,-1.34939e-01,-7.57491e-02,-4.14210e-02,4.66932e-02,2.83968e-02,5.27356e-02,1.50584e-02,3.54504e-02,-3.06737e-02,-1.16479e-01,-2.77079e-02,1.55164e-02,1.90108e-02,-1.62714e-02,2.88302e-02,6.48027e-02,7.88089e-02,2.17815e-01,3.29067e-01,1.84962e-01,6.30602e-02,-9.86366e-05,1.30945e-03,2.55604e-03,-7.54010e-03,-5.14435e-02,-1.08696e-01,-1.30867e-01,-1.01921e-01,-2.65339e-02,3.83673e-02,3.76694e-02,1.23344e-01,1.62598e-01,1.26160e-01,4.50346e-02,-6.94475e-02,-1.26322e-01,-7.72604e-02,-6.53127e-02,-1.33618e-03,-1.47224e-02,-1.19415e-02,2.37511e-02,8.48897e-02,2.35702e-01,3.17959e-01,2.18128e-01,6.64862e-02,3.29506e-02,1.08346e-02,3.22026e-02,2.21934e-02,-5.15444e-02,-8.41933e-02,-8.79891e-02,-2.46958e-02,1.12731e-02,8.73953e-02,1.38348e-01,1.68359e-01,1.99218e-01,1.73497e-01,1.63632e-01,-9.14614e-03,-1.22983e-01,-6.98112e-02,-8.62375e-02,-4.97641e-02,-6.71046e-02,-6.41239e-02,-3.66009e-02,3.74029e-02,1.59352e-01,2.33820e-01,2.14812e-01,7.37193e-02,1.98748e-02,1.98282e-02,2.33460e-02,4.98730e-03,-6.20761e-02,-1.23243e-02,-5.90721e-02,3.69553e-02,4.79715e-02,7.73616e-02,8.37658e-02,9.24660e-02,1.87991e-01,1.97209e-01,1.34089e-01,3.08321e-02,-1.11605e-01,-1.29017e-01,-6.42454e-02,-1.04036e-01,-1.35253e-01,-1.73100e-01,-9.00470e-02,-2.77903e-02,6.84582e-02,9.29232e-02,1.25019e-01,3.81913e-02,-7.08583e-03,-3.05036e-02,1.75746e-02,1.14510e-02,6.78808e-03,-1.09091e-02,3.49388e-02,4.74362e-02,2.20421e-02,3.88636e-02,2.34644e-03,4.23209e-02,1.03913e-01,1.66059e-01,1.04454e-01,-4.01449e-02,-1.17484e-01,-1.26405e-01,-1.14581e-01,-1.09854e-01,-1.34804e-01,-1.11494e-01,-1.18148e-01,-1.13665e-01,8.12249e-03,4.33963e-02,-1.95796e-02,-2.91248e-03,2.82304e-02,-6.42610e-03,2.04392e-02,3.01227e-02,5.69937e-03,8.35360e-03,3.13409e-02,4.66173e-02,4.05511e-02,-3.08815e-02,-1.66932e-02,1.05342e-01,8.87604e-02,1.14040e-01,3.63349e-02,-6.28183e-02,-1.00464e-01,-1.36676e-01,-1.57271e-01,-9.28784e-02,-1.17325e-01,-7.26828e-02,-9.02051e-02,-1.84809e-02,1.65248e-02,2.19720e-02,-4.03095e-02,-3.91855e-02,-1.50438e-02,1.01699e-02,-3.13042e-02,3.12238e-02,-6.50723e-03,-3.46614e-02,5.43190e-02,2.37718e-02,2.62510e-02,-3.05511e-02,6.12940e-02,8.08344e-02,1.16665e-01,-6.29040e-04,-5.38730e-02,-9.11809e-02,-8.58664e-02,-1.49196e-01,-1.68238e-01,-1.06922e-01,-6.04933e-02,-9.83267e-02,-7.23380e-02,-4.99419e-02,1.02339e-01,1.05552e-02,9.90974e-03,1.57107e-02,-3.18231e-02,-1.60510e-02,-1.47062e-02,1.87357e-02,-3.41295e-02,-2.41727e-02,-2.70901e-02,-2.99967e-02,7.68661e-03,-4.28550e-02,5.60885e-02,8.54490e-02,1.69964e-02,2.66284e-02,-9.23416e-02,-1.32408e-01,-5.75328e-02,-9.59841e-02,-8.91005e-02,-6.17080e-02,-9.66424e-02,-6.82651e-02,-4.36295e-02,-1.04645e-02,9.62187e-02,1.56269e-02,-2.51855e-03,-4.10479e-02,1.90369e-02,-7.91271e-03,3.29233e-02,-2.71248e-02,-4.78184e-02,-7.18599e-02,-3.02127e-02,-3.81618e-02,-2.43844e-02,-8.17675e-03,-3.73527e-02,8.91172e-03,6.15780e-03,6.31216e-05,-7.38951e-02,-1.04889e-01,-1.71194e-02,-5.85651e-02,-1.02172e-01,-3.64194e-02,-3.74295e-02,-3.57747e-02,-7.08395e-02,-2.66933e-02,5.28108e-02,-3.19842e-03,-4.70573e-02,-1.18797e-02,2.02974e-02,2.11580e-02,-1.44408e-02,-4.48285e-02,-2.69007e-02,-5.36328e-02,2.93445e-02,9.41178e-02,2.72905e-02,3.84464e-03,1.22644e-02,3.97117e-03,-1.29479e-02,-4.03691e-02,-9.27358e-02,-1.17111e-01,-1.60652e-02,-6.25141e-03,-6.04292e-02,-2.81214e-02,-1.36178e-02,8.18053e-03,-2.00471e-02,-2.64085e-02,5.34139e-02,-1.67528e-02,-8.97024e-02,-1.73403e-02,-1.68659e-02,2.15622e-02,1.54203e-02,-2.17729e-02,-8.13814e-02,-7.40445e-02,2.72934e-02,1.29304e-01,7.86139e-02,3.86544e-02,7.71318e-02,1.29680e-02,7.51770e-03,-2.01018e-02,-7.92130e-02,-5.24906e-02,-1.03958e-03,-2.10650e-02,-4.86955e-02,-1.01587e-01,-7.85688e-02,-4.31610e-02,-9.02987e-03,-1.29052e-02,1.40456e-02,-1.46841e-02,-6.99889e-02,-1.14466e-02,7.79988e-03,2.40906e-02,-4.09031e-03,-3.12512e-02,-8.90822e-02,-4.51691e-02,3.84687e-02,1.14897e-01,9.45043e-02,1.37446e-01,1.38205e-01,7.36255e-02,8.75751e-02,7.87566e-02,7.81582e-03,5.40182e-02,1.84504e-02,-4.14785e-02,-8.49679e-02,-6.44392e-02,-8.65282e-02,-2.30924e-02,-3.65620e-02,8.38152e-04,5.00873e-02,-2.06427e-02,-5.90680e-02,6.39129e-03,2.60294e-02,3.08813e-02,6.00518e-04,-9.07729e-03,-5.03645e-02,-4.07545e-02,3.20492e-04,5.34747e-02,7.21741e-02,1.02485e-01,8.81502e-02,1.28480e-01,9.73330e-02,1.32457e-01,1.26087e-01,4.97230e-02,-2.39853e-02,-3.18065e-02,-4.25308e-02,-7.46658e-02,-5.24777e-02,-8.78968e-02,3.68811e-02,3.98703e-02,6.27999e-02,-7.99531e-02,-4.51918e-02,1.99056e-02,9.02742e-03,-3.51315e-02,-3.26212e-02,-3.45050e-02,-3.03794e-02,-1.00474e-01,-4.88100e-02,-2.64246e-02,6.53164e-02,7.72952e-02,5.31824e-02,5.16742e-02,7.99391e-02,7.34632e-02,6.67284e-02,3.35754e-02,1.25070e-02,-7.33542e-02,-3.06289e-02,-1.22867e-01,-9.95730e-02,-3.77801e-02,6.59124e-02,7.38004e-02,-2.04727e-04,-6.62534e-02,-3.81027e-02,-3.35749e-02,1.23258e-03,2.03955e-02,-4.99671e-03,1.56629e-02,-3.97557e-02,-4.71336e-02,-8.64135e-02,-6.36873e-02,-9.27391e-04,4.78400e-02,6.03948e-02,2.00547e-02,7.67829e-02,8.95692e-02,1.20054e-01,4.95479e-02,2.74736e-02,-2.89282e-02,-1.54258e-02,-5.15019e-02,-7.87074e-02,-5.48887e-02,2.67822e-03,-1.27596e-03,3.31518e-02,1.64185e-02,-3.06208e-02,1.34434e-02,2.20812e-02,-1.73937e-02,-2.22071e-02,1.77576e-02,-1.22231e-02,-3.06289e-02,-8.14436e-02,-1.09527e-01,-4.24035e-02,2.56610e-02,8.77241e-02,8.99657e-02,1.26331e-01,7.01530e-02,9.32200e-02,8.68602e-02,3.66724e-02,1.34486e-02,-2.70535e-02,-7.36658e-02,-3.50428e-02,-5.39005e-02,-1.20166e-02,-4.24541e-02,1.92814e-02,-2.03422e-02,-2.55184e-02,3.03826e-02,-9.04007e-03,-5.58651e-03,-1.78850e-03,2.68995e-02,-1.98010e-02,-3.60212e-02,-6.73532e-02,-8.01194e-02,-7.48628e-02,3.24618e-02,1.80721e-02,7.85125e-02,6.50550e-02,6.73953e-02,1.11827e-01,5.76491e-02,6.80817e-02,1.26359e-02,3.17070e-02,-6.45104e-03,2.01327e-02,-1.64477e-02,-5.26708e-02,-1.83850e-02,3.03609e-02,-1.60580e-02,9.16963e-03,2.69347e-02,-6.17894e-03,-1.76128e-03,1.00854e-02,2.35771e-02,1.39669e-02,-6.62339e-03,-6.25669e-02,-6.59129e-02,-2.97852e-02,-6.37588e-02,-4.67035e-02,7.61794e-03,-3.66800e-02,-1.36564e-02,-3.04571e-02,4.02571e-02,2.40760e-02,5.13153e-02,-2.27683e-02,-5.03772e-02,5.80528e-03,-1.08964e-02,-5.35257e-02,-2.89970e-02,3.97920e-02,2.21884e-02,-3.62271e-02,-1.13915e-02,-4.10263e-03,-1.84936e-02,4.16803e-03,-1.72609e-02,-6.07658e-03,3.85764e-03,2.03163e-02,-3.66820e-02,-2.13998e-02,-7.45094e-02,-6.70742e-02,-4.70104e-02,-5.22251e-02,-3.08150e-02,-1.47380e-02,-3.47600e-02,-8.07610e-02,-5.93753e-02,-1.23050e-02,-3.27717e-02,-5.37218e-02,-3.61968e-02,-1.26794e-03,1.44714e-02,-1.93995e-03,2.07616e-02,3.26492e-02,3.06210e-03,2.63245e-02,3.36685e-02,3.05312e-02,3.53750e-02,-2.64209e-02,-1.85026e-02,-1.48142e-02,1.00177e-02,-2.19803e-04,-2.88247e-03,8.22594e-03,-2.20818e-02,3.22222e-02,-4.59025e-02,6.81314e-03,1.07281e-02,2.64413e-03,2.38559e-02,2.28857e-02,-1.35095e-03,1.16503e-02,-1.38977e-02,1.09753e-02,1.53636e-02,2.23713e-02,-2.45570e-02,2.52982e-02,-4.13425e-03,2.52287e-02,
