// Neural Network File Format by Kyle Julian, Stanford 2016
2,784,1,784,
784,100,1,
0,
0,0,0,0,0,0,0,0,0,0,0,0,0,0,0,0,0,0,0,0,0,0,0,0,0,0,0,0,0,0,0,0,0,0,0,0,0,0,0,0,0,0,0,0,0,0,0,0,0,0,0,0,0,0,0,0,0,0,0,0,0,0,0,0,0,0,0,0,0,0,0,0,0,0,0,0,0,0,0,0,0,0,0,0,0,0,0,0,0,0,0,0,0,0,0,0,0,0,0,0,0,0,0,0,0,0,0,0,0,0,0,0,0,0,0,0,0,0,0,0,0,0,0,0,0,0,0,0,0,0,0,0,0,0,0,0,0,0,0,0,0,0,0,0,0,0,0,0,0,0,0,0,0,0,0,0,0,0,0,0,0,0,0,0,0,0,0,0,0,0,0,0,0,0,0,0,0,0,0,0,0,0,0,0,0,0,0,0,0,0,0,0,0,0,0,0,0,0,0,0,0,0,0,0,0,0,0,0,0,0,0,0,0,0,0,0,0,0,0,0,0,0,0,0,0,0,0,0,0,0,0,0,0,0,0,0,0,0,0,0,0,0,0,0,0,0,0,0,0,0,0,0,0,0,0,0,0,0,0,0,0,0,0,0,0,0,0,0,0,0,0,0,0,0,0,0,0,0,0,0,0,0,0,0,0,0,0,0,0,0,0,0,0,0,0,0,0,0,0,0,0,0,0,0,0,0,0,0,0,0,0,0,0,0,0,0,0,0,0,0,0,0,0,0,0,0,0,0,0,0,0,0,0,0,0,0,0,0,0,0,0,0,0,0,0,0,0,0,0,0,0,0,0,0,0,0,0,0,0,0,0,0,0,0,0,0,0,0,0,0,0,0,0,0,0,0,0,0,0,0,0,0,0,0,0,0,0,0,0,0,0,0,0,0,0,0,0,0,0,0,0,0,0,0,0,0,0,0,0,0,0,0,0,0,0,0,0,0,0,0,0,0,0,0,0,0,0,0,0,0,0,0,0,0,0,0,0,0,0,0,0,0,0,0,0,0,0,0,0,0,0,0,0,0,0,0,0,0,0,0,0,0,0,0,0,0,0,0,0,0,0,0,0,0,0,0,0,0,0,0,0,0,0,0,0,0,0,0,0,0,0,0,0,0,0,0,0,0,0,0,0,0,0,0,0,0,0,0,0,0,0,0,0,0,0,0,0,0,0,0,0,0,0,0,0,0,0,0,0,0,0,0,0,0,0,0,0,0,0,0,0,0,0,0,0,0,0,0,0,0,0,0,0,0,0,0,0,0,0,0,0,0,0,0,0,0,0,0,0,0,0,0,0,0,0,0,0,0,0,0,0,0,0,0,0,0,0,0,0,0,0,0,0,0,0,0,0,0,0,0,0,0,0,0,0,0,0,0,0,0,0,0,0,0,0,0,0,0,0,0,0,0,0,0,0,0,0,0,0,0,0,0,0,0,0,0,0,0,0,0,0,0,0,0,0,0,0,0,0,0,0,0,0,0,0,0,0,0,0,0,0,0,0,0,0,0,0,0,0,0,0,0,0,0,0,0,0,0,0,0,0,0,0,0,0,0,0,0,0,0,0,0,0,0,0,0,0,0,0,0,0,0,0,0,0,0,0,0,0,0,0,0,0,0,0,0,0,0,0,0,0,0,0,0,0,0,0,0,0,0,0,0,0,0,0,0,0,0,0,0,0,0,0,0,0,0,0,0,0,0,0,0,0,0,0,0,0,0,0,0,0,0,0,0,0,0,0,0,0,0,0,0,0,0,0,0,0,0,0,0,0,0,0,0,
255.0,255.0,255.0,255.0,255.0,255.0,255.0,255.0,255.0,255.0,255.0,255.0,255.0,255.0,255.0,255.0,255.0,255.0,255.0,255.0,255.0,255.0,255.0,255.0,255.0,255.0,255.0,255.0,255.0,255.0,255.0,255.0,255.0,255.0,255.0,255.0,255.0,255.0,255.0,255.0,255.0,255.0,255.0,255.0,255.0,255.0,255.0,255.0,255.0,255.0,255.0,255.0,255.0,255.0,255.0,255.0,255.0,255.0,255.0,255.0,255.0,255.0,255.0,255.0,255.0,255.0,255.0,255.0,255.0,255.0,255.0,255.0,255.0,255.0,255.0,255.0,255.0,255.0,255.0,255.0,255.0,255.0,255.0,255.0,255.0,255.0,255.0,255.0,255.0,255.0,255.0,255.0,255.0,255.0,255.0,255.0,255.0,255.0,255.0,255.0,255.0,255.0,255.0,255.0,255.0,255.0,255.0,255.0,255.0,255.0,255.0,255.0,255.0,255.0,255.0,255.0,255.0,255.0,255.0,255.0,255.0,255.0,255.0,255.0,255.0,255.0,255.0,255.0,255.0,255.0,255.0,255.0,255.0,255.0,255.0,255.0,255.0,255.0,255.0,255.0,255.0,255.0,255.0,255.0,255.0,255.0,255.0,255.0,255.0,255.0,255.0,255.0,255.0,255.0,255.0,255.0,255.0,255.0,255.0,255.0,255.0,255.0,255.0,255.0,255.0,255.0,255.0,255.0,255.0,255.0,255.0,255.0,255.0,255.0,255.0,255.0,255.0,255.0,255.0,255.0,255.0,255.0,255.0,255.0,255.0,255.0,255.0,255.0,255.0,255.0,255.0,255.0,255.0,255.0,255.0,255.0,255.0,255.0,255.0,255.0,255.0,255.0,255.0,255.0,255.0,255.0,255.0,255.0,255.0,255.0,255.0,255.0,255.0,255.0,255.0,255.0,255.0,255.0,255.0,255.0,255.0,255.0,255.0,255.0,255.0,255.0,255.0,255.0,255.0,255.0,255.0,255.0,255.0,255.0,255.0,255.0,255.0,255.0,255.0,255.0,255.0,255.0,255.0,255.0,255.0,255.0,255.0,255.0,255.0,255.0,255.0,255.0,255.0,255.0,255.0,255.0,255.0,255.0,255.0,255.0,255.0,255.0,255.0,255.0,255.0,255.0,255.0,255.0,255.0,255.0,255.0,255.0,255.0,255.0,255.0,255.0,255.0,255.0,255.0,255.0,255.0,255.0,255.0,255.0,255.0,255.0,255.0,255.0,255.0,255.0,255.0,255.0,255.0,255.0,255.0,255.0,255.0,255.0,255.0,255.0,255.0,255.0,255.0,255.0,255.0,255.0,255.0,255.0,255.0,255.0,255.0,255.0,255.0,255.0,255.0,255.0,255.0,255.0,255.0,255.0,255.0,255.0,255.0,255.0,255.0,255.0,255.0,255.0,255.0,255.0,255.0,255.0,255.0,255.0,255.0,255.0,255.0,255.0,255.0,255.0,255.0,255.0,255.0,255.0,255.0,255.0,255.0,255.0,255.0,255.0,255.0,255.0,255.0,255.0,255.0,255.0,255.0,255.0,255.0,255.0,255.0,255.0,255.0,255.0,255.0,255.0,255.0,255.0,255.0,255.0,255.0,255.0,255.0,255.0,255.0,255.0,255.0,255.0,255.0,255.0,255.0,255.0,255.0,255.0,255.0,255.0,255.0,255.0,255.0,255.0,255.0,255.0,255.0,255.0,255.0,255.0,255.0,255.0,255.0,255.0,255.0,255.0,255.0,255.0,255.0,255.0,255.0,255.0,255.0,255.0,255.0,255.0,255.0,255.0,255.0,255.0,255.0,255.0,255.0,255.0,255.0,255.0,255.0,255.0,255.0,255.0,255.0,255.0,255.0,255.0,255.0,255.0,255.0,255.0,255.0,255.0,255.0,255.0,255.0,255.0,255.0,255.0,255.0,255.0,255.0,255.0,255.0,255.0,255.0,255.0,255.0,255.0,255.0,255.0,255.0,255.0,255.0,255.0,255.0,255.0,255.0,255.0,255.0,255.0,255.0,255.0,255.0,255.0,255.0,255.0,255.0,255.0,255.0,255.0,255.0,255.0,255.0,255.0,255.0,255.0,255.0,255.0,255.0,255.0,255.0,255.0,255.0,255.0,255.0,255.0,255.0,255.0,255.0,255.0,255.0,255.0,255.0,255.0,255.0,255.0,255.0,255.0,255.0,255.0,255.0,255.0,255.0,255.0,255.0,255.0,255.0,255.0,255.0,255.0,255.0,255.0,255.0,255.0,255.0,255.0,255.0,255.0,255.0,255.0,255.0,255.0,255.0,255.0,255.0,255.0,255.0,255.0,255.0,255.0,255.0,255.0,255.0,255.0,255.0,255.0,255.0,255.0,255.0,255.0,255.0,255.0,255.0,255.0,255.0,255.0,255.0,255.0,255.0,255.0,255.0,255.0,255.0,255.0,255.0,255.0,255.0,255.0,255.0,255.0,255.0,255.0,255.0,255.0,255.0,255.0,255.0,255.0,255.0,255.0,255.0,255.0,255.0,255.0,255.0,255.0,255.0,255.0,255.0,255.0,255.0,255.0,255.0,255.0,255.0,255.0,255.0,255.0,255.0,255.0,255.0,255.0,255.0,255.0,255.0,255.0,255.0,255.0,255.0,255.0,255.0,255.0,255.0,255.0,255.0,255.0,255.0,255.0,255.0,255.0,255.0,255.0,255.0,255.0,255.0,255.0,255.0,255.0,255.0,255.0,255.0,255.0,255.0,255.0,255.0,255.0,255.0,255.0,255.0,255.0,255.0,255.0,255.0,255.0,255.0,255.0,255.0,255.0,255.0,255.0,255.0,255.0,255.0,255.0,255.0,255.0,255.0,255.0,255.0,255.0,255.0,255.0,255.0,255.0,255.0,255.0,255.0,255.0,255.0,255.0,255.0,255.0,255.0,255.0,255.0,255.0,255.0,255.0,255.0,255.0,255.0,255.0,255.0,255.0,255.0,255.0,255.0,255.0,255.0,255.0,255.0,255.0,255.0,255.0,255.0,255.0,255.0,255.0,255.0,255.0,255.0,255.0,255.0,255.0,255.0,255.0,255.0,255.0,255.0,255.0,255.0,255.0,255.0,255.0,255.0,255.0,255.0,255.0,255.0,255.0,255.0,255.0,255.0,255.0,255.0,255.0,255.0,255.0,255.0,255.0,255.0,255.0,255.0,255.0,255.0,255.0,255.0,255.0,255.0,255.0,255.0,255.0,255.0,255.0,255.0,255.0,255.0,255.0,255.0,255.0,255.0,255.0,255.0,255.0,255.0,255.0,255.0,255.0,255.0,255.0,255.0,255.0,255.0,255.0,255.0,255.0,255.0,255.0,255.0,255.0,255.0,255.0,255.0,255.0,255.0,255.0,255.0,255.0,255.0,255.0,255.0,255.0,255.0,255.0,255.0,255.0,255.0,255.0,255.0,255.0,
127.0,127.0,127.0,127.0,127.0,127.0,127.0,127.0,127.0,127.0,127.0,127.0,127.0,127.0,127.0,127.0,127.0,127.0,127.0,127.0,127.0,127.0,127.0,127.0,127.0,127.0,127.0,127.0,127.0,127.0,127.0,127.0,127.0,127.0,127.0,127.0,127.0,127.0,127.0,127.0,127.0,127.0,127.0,127.0,127.0,127.0,127.0,127.0,127.0,127.0,127.0,127.0,127.0,127.0,127.0,127.0,127.0,127.0,127.0,127.0,127.0,127.0,127.0,127.0,127.0,127.0,127.0,127.0,127.0,127.0,127.0,127.0,127.0,127.0,127.0,127.0,127.0,127.0,127.0,127.0,127.0,127.0,127.0,127.0,127.0,127.0,127.0,127.0,127.0,127.0,127.0,127.0,127.0,127.0,127.0,127.0,127.0,127.0,127.0,127.0,127.0,127.0,127.0,127.0,127.0,127.0,127.0,127.0,127.0,127.0,127.0,127.0,127.0,127.0,127.0,127.0,127.0,127.0,127.0,127.0,127.0,127.0,127.0,127.0,127.0,127.0,127.0,127.0,127.0,127.0,127.0,127.0,127.0,127.0,127.0,127.0,127.0,127.0,127.0,127.0,127.0,127.0,127.0,127.0,127.0,127.0,127.0,127.0,127.0,127.0,127.0,127.0,127.0,127.0,127.0,127.0,127.0,127.0,127.0,127.0,127.0,127.0,127.0,127.0,127.0,127.0,127.0,127.0,127.0,127.0,127.0,127.0,127.0,127.0,127.0,127.0,127.0,127.0,127.0,127.0,127.0,127.0,127.0,127.0,127.0,127.0,127.0,127.0,127.0,127.0,127.0,127.0,127.0,127.0,127.0,127.0,127.0,127.0,127.0,127.0,127.0,127.0,127.0,127.0,127.0,127.0,127.0,127.0,127.0,127.0,127.0,127.0,127.0,127.0,127.0,127.0,127.0,127.0,127.0,127.0,127.0,127.0,127.0,127.0,127.0,127.0,127.0,127.0,127.0,127.0,127.0,127.0,127.0,127.0,127.0,127.0,127.0,127.0,127.0,127.0,127.0,127.0,127.0,127.0,127.0,127.0,127.0,127.0,127.0,127.0,127.0,127.0,127.0,127.0,127.0,127.0,127.0,127.0,127.0,127.0,127.0,127.0,127.0,127.0,127.0,127.0,127.0,127.0,127.0,127.0,127.0,127.0,127.0,127.0,127.0,127.0,127.0,127.0,127.0,127.0,127.0,127.0,127.0,127.0,127.0,127.0,127.0,127.0,127.0,127.0,127.0,127.0,127.0,127.0,127.0,127.0,127.0,127.0,127.0,127.0,127.0,127.0,127.0,127.0,127.0,127.0,127.0,127.0,127.0,127.0,127.0,127.0,127.0,127.0,127.0,127.0,127.0,127.0,127.0,127.0,127.0,127.0,127.0,127.0,127.0,127.0,127.0,127.0,127.0,127.0,127.0,127.0,127.0,127.0,127.0,127.0,127.0,127.0,127.0,127.0,127.0,127.0,127.0,127.0,127.0,127.0,127.0,127.0,127.0,127.0,127.0,127.0,127.0,127.0,127.0,127.0,127.0,127.0,127.0,127.0,127.0,127.0,127.0,127.0,127.0,127.0,127.0,127.0,127.0,127.0,127.0,127.0,127.0,127.0,127.0,127.0,127.0,127.0,127.0,127.0,127.0,127.0,127.0,127.0,127.0,127.0,127.0,127.0,127.0,127.0,127.0,127.0,127.0,127.0,127.0,127.0,127.0,127.0,127.0,127.0,127.0,127.0,127.0,127.0,127.0,127.0,127.0,127.0,127.0,127.0,127.0,127.0,127.0,127.0,127.0,127.0,127.0,127.0,127.0,127.0,127.0,127.0,127.0,127.0,127.0,127.0,127.0,127.0,127.0,127.0,127.0,127.0,127.0,127.0,127.0,127.0,127.0,127.0,127.0,127.0,127.0,127.0,127.0,127.0,127.0,127.0,127.0,127.0,127.0,127.0,127.0,127.0,127.0,127.0,127.0,127.0,127.0,127.0,127.0,127.0,127.0,127.0,127.0,127.0,127.0,127.0,127.0,127.0,127.0,127.0,127.0,127.0,127.0,127.0,127.0,127.0,127.0,127.0,127.0,127.0,127.0,127.0,127.0,127.0,127.0,127.0,127.0,127.0,127.0,127.0,127.0,127.0,127.0,127.0,127.0,127.0,127.0,127.0,127.0,127.0,127.0,127.0,127.0,127.0,127.0,127.0,127.0,127.0,127.0,127.0,127.0,127.0,127.0,127.0,127.0,127.0,127.0,127.0,127.0,127.0,127.0,127.0,127.0,127.0,127.0,127.0,127.0,127.0,127.0,127.0,127.0,127.0,127.0,127.0,127.0,127.0,127.0,127.0,127.0,127.0,127.0,127.0,127.0,127.0,127.0,127.0,127.0,127.0,127.0,127.0,127.0,127.0,127.0,127.0,127.0,127.0,127.0,127.0,127.0,127.0,127.0,127.0,127.0,127.0,127.0,127.0,127.0,127.0,127.0,127.0,127.0,127.0,127.0,127.0,127.0,127.0,127.0,127.0,127.0,127.0,127.0,127.0,127.0,127.0,127.0,127.0,127.0,127.0,127.0,127.0,127.0,127.0,127.0,127.0,127.0,127.0,127.0,127.0,127.0,127.0,127.0,127.0,127.0,127.0,127.0,127.0,127.0,127.0,127.0,127.0,127.0,127.0,127.0,127.0,127.0,127.0,127.0,127.0,127.0,127.0,127.0,127.0,127.0,127.0,127.0,127.0,127.0,127.0,127.0,127.0,127.0,127.0,127.0,127.0,127.0,127.0,127.0,127.0,127.0,127.0,127.0,127.0,127.0,127.0,127.0,127.0,127.0,127.0,127.0,127.0,127.0,127.0,127.0,127.0,127.0,127.0,127.0,127.0,127.0,127.0,127.0,127.0,127.0,127.0,127.0,127.0,127.0,127.0,127.0,127.0,127.0,127.0,127.0,127.0,127.0,127.0,127.0,127.0,127.0,127.0,127.0,127.0,127.0,127.0,127.0,127.0,127.0,127.0,127.0,127.0,127.0,127.0,127.0,127.0,127.0,127.0,127.0,127.0,127.0,127.0,127.0,127.0,127.0,127.0,127.0,127.0,127.0,127.0,127.0,127.0,127.0,127.0,127.0,127.0,127.0,127.0,127.0,127.0,127.0,127.0,127.0,127.0,127.0,127.0,127.0,127.0,127.0,127.0,127.0,127.0,127.0,127.0,127.0,127.0,127.0,127.0,127.0,127.0,127.0,127.0,127.0,127.0,127.0,127.0,127.0,127.0,127.0,127.0,127.0,127.0,127.0,127.0,127.0,127.0,127.0,127.0,127.0,127.0,127.0,127.0,127.0,127.0,127.0,127.0,127.0,127.0,127.0,127.0,127.0,127.0,127.0,127.0,127.0,127.0,127.0,127.0,127.0,127.0,127.0,127.0,127.0,127.0,127.0,127.0,
255.0,255.0,255.0,255.0,255.0,255.0,255.0,255.0,255.0,255.0,255.0,255.0,255.0,255.0,255.0,255.0,255.0,255.0,255.0,255.0,255.0,255.0,255.0,255.0,255.0,255.0,255.0,255.0,255.0,255.0,255.0,255.0,255.0,255.0,255.0,255.0,255.0,255.0,255.0,255.0,255.0,255.0,255.0,255.0,255.0,255.0,255.0,255.0,255.0,255.0,255.0,255.0,255.0,255.0,255.0,255.0,255.0,255.0,255.0,255.0,255.0,255.0,255.0,255.0,255.0,255.0,255.0,255.0,255.0,255.0,255.0,255.0,255.0,255.0,255.0,255.0,255.0,255.0,255.0,255.0,255.0,255.0,255.0,255.0,255.0,255.0,255.0,255.0,255.0,255.0,255.0,255.0,255.0,255.0,255.0,255.0,255.0,255.0,255.0,255.0,255.0,255.0,255.0,255.0,255.0,255.0,255.0,255.0,255.0,255.0,255.0,255.0,255.0,255.0,255.0,255.0,255.0,255.0,255.0,255.0,255.0,255.0,255.0,255.0,255.0,255.0,255.0,255.0,255.0,255.0,255.0,255.0,255.0,255.0,255.0,255.0,255.0,255.0,255.0,255.0,255.0,255.0,255.0,255.0,255.0,255.0,255.0,255.0,255.0,255.0,255.0,255.0,255.0,255.0,255.0,255.0,255.0,255.0,255.0,255.0,255.0,255.0,255.0,255.0,255.0,255.0,255.0,255.0,255.0,255.0,255.0,255.0,255.0,255.0,255.0,255.0,255.0,255.0,255.0,255.0,255.0,255.0,255.0,255.0,255.0,255.0,255.0,255.0,255.0,255.0,255.0,255.0,255.0,255.0,255.0,255.0,255.0,255.0,255.0,255.0,255.0,255.0,255.0,255.0,255.0,255.0,255.0,255.0,255.0,255.0,255.0,255.0,255.0,255.0,255.0,255.0,255.0,255.0,255.0,255.0,255.0,255.0,255.0,255.0,255.0,255.0,255.0,255.0,255.0,255.0,255.0,255.0,255.0,255.0,255.0,255.0,255.0,255.0,255.0,255.0,255.0,255.0,255.0,255.0,255.0,255.0,255.0,255.0,255.0,255.0,255.0,255.0,255.0,255.0,255.0,255.0,255.0,255.0,255.0,255.0,255.0,255.0,255.0,255.0,255.0,255.0,255.0,255.0,255.0,255.0,255.0,255.0,255.0,255.0,255.0,255.0,255.0,255.0,255.0,255.0,255.0,255.0,255.0,255.0,255.0,255.0,255.0,255.0,255.0,255.0,255.0,255.0,255.0,255.0,255.0,255.0,255.0,255.0,255.0,255.0,255.0,255.0,255.0,255.0,255.0,255.0,255.0,255.0,255.0,255.0,255.0,255.0,255.0,255.0,255.0,255.0,255.0,255.0,255.0,255.0,255.0,255.0,255.0,255.0,255.0,255.0,255.0,255.0,255.0,255.0,255.0,255.0,255.0,255.0,255.0,255.0,255.0,255.0,255.0,255.0,255.0,255.0,255.0,255.0,255.0,255.0,255.0,255.0,255.0,255.0,255.0,255.0,255.0,255.0,255.0,255.0,255.0,255.0,255.0,255.0,255.0,255.0,255.0,255.0,255.0,255.0,255.0,255.0,255.0,255.0,255.0,255.0,255.0,255.0,255.0,255.0,255.0,255.0,255.0,255.0,255.0,255.0,255.0,255.0,255.0,255.0,255.0,255.0,255.0,255.0,255.0,255.0,255.0,255.0,255.0,255.0,255.0,255.0,255.0,255.0,255.0,255.0,255.0,255.0,255.0,255.0,255.0,255.0,255.0,255.0,255.0,255.0,255.0,255.0,255.0,255.0,255.0,255.0,255.0,255.0,255.0,255.0,255.0,255.0,255.0,255.0,255.0,255.0,255.0,255.0,255.0,255.0,255.0,255.0,255.0,255.0,255.0,255.0,255.0,255.0,255.0,255.0,255.0,255.0,255.0,255.0,255.0,255.0,255.0,255.0,255.0,255.0,255.0,255.0,255.0,255.0,255.0,255.0,255.0,255.0,255.0,255.0,255.0,255.0,255.0,255.0,255.0,255.0,255.0,255.0,255.0,255.0,255.0,255.0,255.0,255.0,255.0,255.0,255.0,255.0,255.0,255.0,255.0,255.0,255.0,255.0,255.0,255.0,255.0,255.0,255.0,255.0,255.0,255.0,255.0,255.0,255.0,255.0,255.0,255.0,255.0,255.0,255.0,255.0,255.0,255.0,255.0,255.0,255.0,255.0,255.0,255.0,255.0,255.0,255.0,255.0,255.0,255.0,255.0,255.0,255.0,255.0,255.0,255.0,255.0,255.0,255.0,255.0,255.0,255.0,255.0,255.0,255.0,255.0,255.0,255.0,255.0,255.0,255.0,255.0,255.0,255.0,255.0,255.0,255.0,255.0,255.0,255.0,255.0,255.0,255.0,255.0,255.0,255.0,255.0,255.0,255.0,255.0,255.0,255.0,255.0,255.0,255.0,255.0,255.0,255.0,255.0,255.0,255.0,255.0,255.0,255.0,255.0,255.0,255.0,255.0,255.0,255.0,255.0,255.0,255.0,255.0,255.0,255.0,255.0,255.0,255.0,255.0,255.0,255.0,255.0,255.0,255.0,255.0,255.0,255.0,255.0,255.0,255.0,255.0,255.0,255.0,255.0,255.0,255.0,255.0,255.0,255.0,255.0,255.0,255.0,255.0,255.0,255.0,255.0,255.0,255.0,255.0,255.0,255.0,255.0,255.0,255.0,255.0,255.0,255.0,255.0,255.0,255.0,255.0,255.0,255.0,255.0,255.0,255.0,255.0,255.0,255.0,255.0,255.0,255.0,255.0,255.0,255.0,255.0,255.0,255.0,255.0,255.0,255.0,255.0,255.0,255.0,255.0,255.0,255.0,255.0,255.0,255.0,255.0,255.0,255.0,255.0,255.0,255.0,255.0,255.0,255.0,255.0,255.0,255.0,255.0,255.0,255.0,255.0,255.0,255.0,255.0,255.0,255.0,255.0,255.0,255.0,255.0,255.0,255.0,255.0,255.0,255.0,255.0,255.0,255.0,255.0,255.0,255.0,255.0,255.0,255.0,255.0,255.0,255.0,255.0,255.0,255.0,255.0,255.0,255.0,255.0,255.0,255.0,255.0,255.0,255.0,255.0,255.0,255.0,255.0,255.0,255.0,255.0,255.0,255.0,255.0,255.0,255.0,255.0,255.0,255.0,255.0,255.0,255.0,255.0,255.0,255.0,255.0,255.0,255.0,255.0,255.0,255.0,255.0,255.0,255.0,255.0,255.0,255.0,255.0,255.0,255.0,255.0,255.0,255.0,255.0,255.0,255.0,255.0,255.0,255.0,255.0,255.0,255.0,255.0,255.0,255.0,255.0,255.0,255.0,255.0,255.0,255.0,255.0,255.0,255.0,255.0,255.0,255.0,255.0,255.0,255.0,255.0,255.0,255.0,255.0,255.0,
1.91709e-02,1.74732e-01,5.88902e-02,-9.25417e-02,1.32102e-02,-1.15418e-01,1.97365e-02,1.94945e-02,-2.98326e-02,6.44510e-02,-1.32374e-01,-9.01356e-02,-5.89342e-02,-1.47292e-01,1.40658e-01,1.23640e-01,3.98528e-03,7.73604e-02,-1.87478e-02,1.26682e-02,-5.92980e-02,-4.83663e-02,-2.98989e-02,3.45766e-02,-1.58020e-01,-5.08044e-02,-2.64162e-03,4.20363e-02,-6.02337e-02,9.62997e-02,-1.27058e-02,-3.08454e-02,8.74291e-03,-1.31815e-01,-2.29024e-02,1.16710e-01,-1.38892e-01,8.38694e-04,1.32326e-01,2.12519e-02,6.65994e-02,1.41101e-01,-3.78080e-02,9.63683e-02,2.27944e-02,-5.61636e-02,2.10309e-02,5.26556e-02,4.12305e-02,5.74366e-02,-1.05616e-01,-1.72944e-02,4.22201e-02,-1.48880e-01,1.68770e-02,-4.00894e-02,2.51663e-02,-2.05265e-02,9.16597e-02,-1.08335e-01,3.20262e-02,-1.23137e-01,-5.20946e-02,-4.36176e-02,-3.09852e-02,-1.35065e-01,9.19102e-02,-3.33873e-02,-1.74385e-01,-5.70006e-02,-5.43518e-02,1.68557e-02,6.40217e-02,5.97310e-02,-2.48771e-02,2.05791e-02,7.40953e-02,8.57622e-03,8.76429e-02,1.60996e-01,3.30159e-02,-1.98260e-01,-2.94678e-02,1.68340e-01,9.21265e-02,1.59534e-01,7.37795e-02,5.47810e-02,-3.10935e-02,-1.94574e-02,3.41072e-02,-3.23976e-03,-5.08706e-02,2.02869e-02,-1.78654e-01,9.89365e-02,7.38229e-02,1.92770e-02,1.27784e-01,-4.92959e-02,-2.42257e-03,7.21543e-02,1.39455e-01,1.36204e-02,-3.92272e-02,-6.46219e-02,4.84454e-02,-1.56056e-01,-1.24683e-01,1.46402e-02,-1.60783e-02,8.08688e-02,-8.08366e-03,5.43801e-02,-2.77500e-02,-7.48255e-02,-3.43604e-02,-7.02874e-04,1.21341e-01,5.58694e-02,1.05866e-01,8.97632e-02,8.22108e-02,-1.69934e-02,1.15236e-01,2.44042e-01,3.52575e-02,-1.01917e-01,1.10596e-01,1.38189e-01,-6.60621e-02,2.13703e-02,-1.36883e-02,-1.37235e-01,1.10772e-01,-1.78881e-01,-9.83965e-02,-8.28004e-02,2.03452e-02,2.40363e-02,4.10087e-02,-2.06039e-02,1.06857e-01,3.15423e-02,1.86189e-02,-3.77641e-02,2.23948e-01,9.96430e-02,-9.04916e-02,1.34824e-01,-7.44748e-02,1.41249e-01,-1.41640e-01,-5.29178e-02,-5.16209e-02,7.26684e-02,7.20420e-02,-9.86586e-02,-1.39456e-02,-5.56927e-04,1.46707e-04,-1.80482e-02,-1.52934e-02,6.11380e-02,2.11221e-02,1.65358e-01,1.38764e-01,-1.46017e-01,-1.35398e-01,-5.59995e-02,8.65642e-02,9.70578e-02,1.95242e-01,7.08223e-02,2.79265e-02,1.77050e-01,2.05215e-01,-7.85168e-02,-2.04880e-01,-1.15024e-02,-4.49658e-02,5.01292e-02,-1.69748e-01,-9.95404e-02,-2.62669e-01,6.22112e-02,4.32650e-03,-1.07258e-01,7.34233e-03,-1.91107e-01,-4.73007e-02,-6.85470e-02,1.84280e-01,6.05296e-03,8.24384e-02,-1.89658e-02,-1.78277e-01,1.06994e-01,5.63769e-02,9.25238e-02,-4.40196e-02,1.58043e-01,-9.66476e-02,2.07308e-01,2.18234e-02,1.10030e-02,5.96853e-02,-2.89452e-02,-2.28449e-01,-2.58785e-02,-4.40331e-02,-2.55766e-01,-3.47286e-02,-1.40386e-01,-1.24878e-01,2.54436e-02,-1.28693e-01,-3.32942e-02,1.32884e-01,4.87053e-02,1.69446e-01,-7.08522e-02,-1.33027e-01,-8.20142e-02,-1.15136e-01,7.77204e-02,-9.06463e-02,-3.47110e-02,7.87892e-02,5.32221e-02,1.79382e-02,7.59821e-02,1.00181e-01,7.73719e-03,2.30745e-02,-2.42839e-02,1.41642e-01,-9.07386e-03,7.68140e-02,-7.55592e-02,-1.13116e-01,-9.35118e-03,1.05208e-02,5.10796e-02,1.07357e-02,4.32944e-02,9.75431e-02,1.01791e-01,2.29794e-01,-3.62053e-02,1.20246e-01,-6.88354e-02,2.79935e-02,6.78330e-02,-8.04667e-03,8.73523e-02,1.64107e-03,8.17391e-03,1.26199e-01,-4.68294e-02,2.31292e-01,7.30168e-02,1.28177e-01,1.43502e-01,7.30617e-02,-8.79774e-02,1.23066e-01,6.95907e-02,1.41996e-01,1.67006e-01,1.70749e-01,-1.04855e-02,1.12126e-03,1.65255e-01,-9.20510e-02,4.25253e-02,1.87239e-01,1.77183e-01,8.17299e-02,1.89887e-01,-1.66826e-01,1.22338e-01,1.89881e-01,2.30764e-01,-1.16804e-02,1.89295e-02,-6.88095e-02,9.47302e-02,6.30777e-02,1.53054e-01,1.13081e-01,1.30604e-01,2.14733e-01,2.37720e-01,1.98381e-01,1.80551e-01,-1.06590e-01,1.69600e-01,1.07944e-01,4.15570e-02,2.08269e-01,8.54126e-02,1.47324e-01,1.99769e-01,1.38469e-01,1.00865e-01,1.23603e-01,-1.48905e-02,-6.76607e-02,-7.32351e-02,1.34976e-01,7.57144e-02,4.48640e-02,-3.78369e-03,5.08521e-02,1.15431e-01,-1.87655e-02,-1.13707e-02,1.42922e-01,2.33525e-01,2.40675e-01,2.94390e-01,5.91274e-02,2.99696e-02,-5.03443e-02,5.01855e-02,-3.50396e-02,1.42648e-01,3.97903e-02,-7.27213e-02,1.70183e-01,-6.41251e-02,2.05292e-01,1.46097e-01,2.30712e-01,1.32854e-01,1.04826e-01,2.92097e-03,1.30938e-01,4.46396e-02,-1.33956e-01,7.98014e-03,9.07452e-02,5.72948e-02,8.74230e-02,2.02454e-01,4.66455e-02,7.33078e-02,1.63814e-01,6.08850e-02,1.70816e-02,-2.07028e-01,8.68033e-03,-9.55123e-02,-2.08918e-02,3.52148e-02,-5.32873e-03,-1.42760e-01,-8.56624e-02,-2.02125e-02,-8.24779e-02,-4.34798e-02,3.68811e-02,-9.67550e-02,-5.92475e-02,1.21138e-01,2.59129e-01,6.47430e-02,1.28407e-01,-1.13612e-01,-1.36493e-01,-6.22566e-03,8.62154e-02,1.34957e-01,-1.19099e-01,-3.76392e-02,-1.63246e-02,-9.99172e-02,-1.24569e-01,-1.32143e-01,3.78508e-02,-6.91157e-03,1.26271e-01,2.56011e-02,8.62566e-02,-9.76462e-02,5.02319e-02,-2.65202e-02,5.08999e-02,-3.65061e-02,-8.12069e-03,-1.79081e-01,-1.02426e-01,1.33021e-02,2.72018e-02,1.68488e-02,-4.19423e-02,3.25993e-02,6.87244e-02,-1.17660e-01,-5.15766e-02,1.29345e-01,4.00255e-02,6.15275e-02,-1.12149e-01,-1.09436e-01,-1.35694e-01,-5.59706e-02,1.04785e-02,-3.66088e-02,5.64525e-02,-1.12876e-01,5.02043e-02,-1.90854e-01,1.92397e-01,1.60795e-01,2.21902e-02,5.22975e-02,1.01523e-02,5.20805e-02,-8.63292e-02,-9.84328e-02,6.22989e-02,1.75262e-02,1.59877e-03,-6.85856e-02,2.96201e-02,-1.07553e-01,-6.36559e-02,4.89347e-02,4.61317e-02,-9.59234e-02,-8.33656e-02,-1.43692e-01,-2.07385e-01,-1.89962e-01,-8.09248e-02,8.68222e-02,3.15284e-02,8.76673e-02,4.98716e-02,1.15986e-01,-7.38543e-02,-7.03640e-02,-5.60544e-02,1.05155e-01,-2.06299e-01,1.32118e-01,-1.33708e-01,3.78803e-02,1.27257e-01,-1.08702e-01,1.27688e-02,3.02854e-03,-7.59971e-02,-1.41290e-02,6.63147e-03,-1.30469e-01,6.56072e-02,-1.56741e-01,-2.09166e-01,-2.24916e-01,-7.37501e-02,-1.19910e-02,-5.63513e-02,-1.19662e-01,-7.83061e-02,7.45706e-02,4.44050e-02,5.27000e-02,9.51548e-02,9.60675e-02,-1.57598e-01,-6.72093e-02,6.69513e-02,7.34885e-02,-1.02397e-01,2.72693e-02,1.40371e-02,-3.65810e-02,1.20717e-01,2.17672e-02,-1.65683e-01,-7.40060e-02,5.25045e-02,-2.18964e-01,3.22387e-03,-1.03539e-01,-2.05594e-01,2.43104e-02,-2.37107e-02,-9.53694e-02,-7.33187e-02,-1.38928e-01,-1.11329e-01,2.78523e-02,1.26980e-02,-5.50836e-02,2.70362e-02,2.13513e-01,2.75866e-02,-1.23401e-01,-2.82133e-02,-3.71286e-02,-1.65254e-02,-6.26447e-02,3.10656e-02,1.06473e-01,7.75669e-02,-5.57055e-02,9.24548e-02,-1.64265e-01,-1.77016e-01,6.47942e-02,-6.81057e-02,-2.29644e-01,8.54813e-02,7.29447e-02,1.67402e-03,-4.87776e-03,-4.68778e-02,-1.93264e-01,9.25128e-02,1.18139e-01,3.14990e-02,-1.02334e-02,1.19619e-01,8.22471e-02,3.17385e-02,-4.55126e-02,-2.42099e-01,5.71922e-02,-4.37738e-02,3.19026e-02,-1.48366e-02,-1.08329e-01,1.07175e-01,-4.58437e-02,1.82643e-01,1.30261e-01,-2.51509e-03,-2.62237e-02,5.81809e-02,-2.55837e-03,-7.49363e-02,-7.76898e-02,1.37644e-01,6.48428e-02,-2.85908e-02,1.85446e-01,-1.97056e-01,-7.10990e-02,9.24345e-02,-1.53524e-01,-1.62020e-01,-8.19829e-03,3.39800e-02,3.55141e-03,-1.71980e-01,2.88757e-02,-2.88295e-02,-7.89389e-02,-3.94683e-02,1.13219e-02,5.28219e-03,-1.31020e-01,3.90893e-02,-4.37463e-02,2.33973e-03,6.76100e-02,-1.30137e-01,-7.10491e-02,1.36624e-01,8.73210e-02,-1.53549e-02,-1.44696e-01,1.22452e-01,-1.59865e-01,1.31991e-01,1.11843e-01,5.53872e-03,-1.67320e-02,-7.95053e-02,1.15470e-01,-8.57513e-02,-9.09897e-02,-1.56406e-01,-4.50900e-03,-7.42867e-02,-1.05744e-01,1.33219e-01,-5.43361e-02,-2.01946e-02,1.66269e-02,5.57320e-02,8.80756e-02,-3.38344e-02,-3.73340e-02,1.07739e-02,-1.75016e-01,1.43301e-01,-5.25562e-02,1.12209e-02,6.91177e-02,-1.57256e-01,-7.58921e-02,1.37737e-01,-2.25441e-02,-5.74262e-02,5.77624e-02,5.25974e-02,-2.91808e-02,-2.27438e-01,1.49385e-01,-1.04226e-01,3.06465e-04,-3.35281e-02,7.40820e-02,-1.13336e-01,-5.40607e-02,-5.75433e-02,1.26356e-02,-9.63803e-02,1.12358e-02,9.11350e-02,-4.58944e-02,-1.51718e-02,-7.46725e-02,1.17578e-01,-1.88070e-03,-7.94355e-02,1.20760e-01,1.54888e-01,1.52749e-01,2.03835e-02,-1.20884e-03,-3.75888e-02,-2.50016e-02,-1.68846e-01,1.10472e-01,1.03665e-02,-1.02162e-01,-1.02313e-02,-1.61788e-01,1.00380e-01,-2.49816e-02,-1.25321e-01,4.40092e-02,-5.71502e-02,-9.14026e-02,-5.00031e-02,-1.43735e-01,-9.34229e-02,-1.17746e-01,-1.01175e-01,-1.27563e-01,-1.11876e-01,3.37044e-02,-5.74632e-02,1.29080e-01,-7.92818e-02,1.93489e-01,-6.35346e-02,-8.97993e-03,-9.11148e-02,-1.86897e-01,1.62735e-02,-1.84525e-01,-8.38428e-02,9.00639e-02,1.53966e-01,1.66652e-01,5.71948e-02,1.63015e-01,1.29440e-01,7.71356e-02,-2.50724e-02,-7.12306e-03,-2.53003e-02,-1.44768e-01,-8.31315e-02,1.64217e-01,8.76417e-03,-1.74174e-01,1.18292e-01,-9.13740e-03,2.14084e-01,2.37110e-01,4.82390e-02,1.77883e-02,3.44364e-02,2.61099e-02,-6.65938e-02,-1.12025e-01,-2.38092e-01,-2.42782e-02,-3.99466e-03,-4.90574e-02,-8.01473e-02,-1.71453e-01,-9.53953e-02,5.21650e-02,-1.56367e-03,2.17321e-01,-1.71719e-01,-6.72423e-02,3.81698e-02,-3.58393e-02,1.01926e-01,-1.36314e-02,1.87600e-01,2.46795e-02,4.49402e-02,1.25423e-01,-1.36155e-02,1.66216e-01,5.30106e-02,-9.60419e-02,-1.09120e-01,1.67888e-01,-3.30962e-03,9.34011e-02,1.46546e-02,1.03413e-01,4.05672e-02,-1.79799e-02,-5.08073e-02,-5.50657e-02,5.00125e-02,3.05569e-02,1.35970e-02,1.67910e-01,-1.30026e-01,-1.11481e-01,-1.58832e-02,1.33903e-01,9.71959e-02,-4.39953e-02,3.08203e-02,4.90495e-02,7.23435e-02,-1.08644e-01,9.61191e-02,-4.42377e-02,-8.82942e-02,6.22267e-02,1.02026e-01,2.14300e-02,-1.04665e-01,-3.25408e-02,-1.07807e-01,-2.11624e-01,2.43449e-02,6.68941e-02,-2.79342e-02,7.04658e-02,-9.13550e-02,7.24363e-03,-1.43327e-01,1.36514e-01,1.12916e-01,-4.50871e-03,9.21630e-02,9.21158e-02,8.07235e-02,-3.78928e-02,-2.52594e-02,7.70659e-02,-7.93401e-02,1.54664e-02,2.81244e-02,1.00447e-01,-4.71564e-02,1.15432e-01,-9.11027e-02,6.04216e-02,8.81266e-03,-1.18021e-01,7.69117e-02,1.90025e-01,-9.31182e-02,8.13694e-02,1.24186e-01,2.35446e-03,
-1.20835e-01,-9.33986e-03,-1.32173e-01,9.05803e-02,-1.26911e-01,8.69218e-02,6.81308e-02,-5.74494e-02,1.07486e-02,2.66614e-02,-9.42408e-04,1.56996e-02,-4.93653e-02,-1.86982e-01,-4.78951e-02,-5.43437e-02,-2.19782e-02,7.96094e-02,-9.65302e-02,-5.80350e-02,1.17303e-01,-3.22841e-02,-6.91298e-02,-9.44037e-02,-7.08864e-02,1.65541e-02,8.26618e-03,2.33095e-03,-6.12561e-03,9.36250e-02,-6.94369e-02,-7.98167e-03,-3.40106e-02,-3.74525e-02,1.03309e-01,-1.82551e-01,6.57152e-02,-8.49399e-02,-9.82172e-03,-7.33094e-03,-5.38806e-02,-9.32236e-02,9.99149e-03,-5.00469e-02,-4.14031e-04,5.75942e-02,-2.69842e-02,-8.30827e-02,1.41680e-03,-4.50243e-02,-3.05918e-02,1.04198e-01,3.79058e-02,5.24520e-02,-1.13537e-01,1.35607e-02,3.24481e-02,2.78109e-02,-1.03379e-01,-4.20391e-02,-2.28566e-02,-1.12414e-01,3.81687e-02,3.30682e-02,-7.73631e-02,1.03024e-01,1.25428e-01,-1.64371e-02,5.65586e-02,-2.58302e-02,-8.03555e-02,1.32505e-01,-7.73168e-02,6.35144e-02,-8.66849e-02,7.87255e-02,-1.44074e-01,-3.99606e-02,3.03452e-03,1.48883e-01,1.12033e-01,9.23097e-02,-1.39956e-01,1.57976e-01,9.58053e-02,-4.18525e-02,-7.58104e-02,-8.84501e-02,-7.62850e-02,-8.89428e-03,-3.98554e-03,-1.11480e-01,6.10154e-02,-3.01824e-02,3.45727e-02,-1.81066e-01,-1.58851e-01,-5.05723e-02,1.11366e-01,-7.34174e-02,-4.04358e-02,-8.44801e-02,-1.40653e-01,-7.43216e-02,6.60853e-02,-5.29250e-02,-2.19469e-02,7.22339e-02,-4.52603e-02,1.22546e-01,-1.38380e-01,3.94026e-02,1.73960e-01,-1.04304e-01,-4.58845e-03,1.17975e-01,-5.70212e-02,-1.34359e-02,4.58436e-02,-5.93485e-02,-9.72043e-02,-4.59512e-02,5.55405e-02,-1.99883e-01,-1.24253e-01,1.43989e-03,-2.95518e-02,1.15357e-01,1.55615e-01,-7.81644e-02,1.97878e-01,3.78026e-02,-4.33594e-02,-1.56853e-02,-1.49921e-01,1.44051e-01,3.04705e-02,8.59787e-03,-3.09255e-02,1.04284e-01,1.84097e-02,-1.10134e-01,-1.60447e-01,-1.79333e-01,-9.86097e-02,-5.45445e-03,-2.14195e-02,-2.07983e-01,-5.67118e-02,2.45014e-02,2.87005e-02,-8.82847e-03,6.58009e-02,1.57788e-01,-9.75176e-03,1.34654e-01,6.16482e-02,7.95097e-02,3.07785e-02,9.53835e-02,-9.33240e-02,2.08496e-01,5.71699e-02,1.69563e-01,1.74742e-02,3.53139e-02,-7.14790e-02,-8.23494e-02,-3.15872e-02,8.42912e-02,-1.87855e-01,3.96250e-02,6.53368e-02,-3.46531e-02,-1.21044e-01,2.10295e-02,-4.29018e-02,3.38613e-02,-1.09508e-01,1.11361e-01,-3.85982e-02,-1.80012e-02,2.55632e-02,1.26609e-01,3.69516e-02,1.21262e-01,4.62104e-02,1.32684e-01,-6.21511e-02,1.24085e-01,1.34235e-01,1.74046e-01,-1.82849e-02,-5.30479e-02,-1.32101e-01,-4.87749e-03,-1.19283e-01,-3.96812e-02,-1.11045e-01,-2.04293e-01,-5.08328e-02,-4.55747e-02,7.93891e-02,2.31242e-02,2.42815e-02,-9.94354e-02,-1.58639e-03,6.28747e-02,-1.62138e-01,-6.27826e-02,-7.36604e-02,-5.05643e-02,-1.06222e-01,-4.35982e-02,4.43379e-02,-7.39289e-02,1.99703e-03,6.86928e-02,1.19032e-01,5.81421e-02,1.96497e-01,5.55377e-02,5.67671e-02,-1.46351e-01,4.12121e-02,3.44083e-02,-5.20597e-02,8.05908e-02,3.65828e-02,8.44801e-02,-1.45209e-01,-4.92844e-02,-1.04866e-01,-5.09980e-02,1.57676e-01,-1.37235e-01,1.77460e-01,-6.78236e-02,3.69691e-02,-8.26061e-02,-9.15132e-02,-1.23362e-02,-1.05080e-01,3.78395e-02,5.21427e-02,2.38250e-02,-4.09822e-02,-9.58819e-02,-8.36535e-03,8.46319e-02,9.78597e-02,1.90177e-01,-5.52743e-02,6.81308e-02,-9.09605e-02,-8.85800e-02,1.63454e-02,-5.65938e-03,-1.30079e-02,-1.87218e-02,-8.18009e-02,-1.21143e-01,2.93947e-03,-3.58774e-02,-4.72093e-02,-6.58504e-02,-1.90762e-01,-6.52036e-02,-3.44160e-02,-2.33693e-02,-1.19391e-01,-1.93911e-01,1.08294e-01,-9.51163e-02,-2.88445e-02,3.27423e-03,-9.51826e-02,-1.54494e-01,-6.96673e-03,-6.59797e-02,-2.73950e-02,4.33412e-02,-6.84481e-02,-2.35474e-02,-2.79616e-02,-1.37862e-01,-2.71743e-02,-9.83623e-02,4.93804e-02,4.27107e-02,1.72624e-01,1.98977e-01,6.57214e-02,6.53249e-02,-1.35534e-01,-1.20952e-01,-8.17626e-02,-1.92502e-01,7.99779e-02,-1.50632e-02,1.33365e-01,-7.69845e-02,-1.25565e-01,-9.99782e-02,-9.49285e-03,-9.70060e-02,-5.98551e-03,5.18250e-02,-1.09622e-01,-8.24494e-02,2.12054e-02,7.55889e-02,1.27745e-01,-9.74009e-02,-3.01630e-02,-5.26684e-02,1.34918e-01,8.33776e-02,4.94075e-02,-5.55306e-02,1.09357e-01,-2.10042e-01,-2.12411e-01,8.96833e-02,-5.44084e-02,6.32271e-02,-1.30407e-01,1.56638e-02,4.97455e-02,5.05634e-02,9.12570e-02,2.21259e-01,6.71163e-02,-9.04909e-02,-6.03312e-02,-8.08400e-05,-4.07062e-02,1.48457e-02,-6.21187e-03,-6.82031e-02,-9.31633e-02,8.71894e-02,3.77486e-02,-9.05357e-02,-6.51716e-02,-1.04525e-01,-2.09041e-02,-6.34680e-02,-1.06746e-01,-2.28610e-03,-4.39794e-02,7.69065e-02,1.51671e-02,-1.78138e-02,-9.99987e-02,1.25037e-02,-3.78456e-02,1.52463e-01,1.66237e-01,1.59141e-01,9.00051e-02,1.57592e-01,8.42272e-02,-6.98188e-02,-1.13120e-02,-1.51358e-01,-1.31241e-01,-2.35868e-01,-2.92132e-02,-6.24991e-02,4.40497e-02,7.11122e-02,1.05132e-01,1.90593e-01,6.73859e-02,1.58539e-01,-2.15894e-02,8.94807e-02,-6.78099e-02,8.22518e-02,2.47562e-03,1.38469e-01,1.88384e-01,-1.94720e-02,1.79161e-01,8.34538e-02,3.65544e-02,1.70012e-01,2.86797e-02,3.36712e-02,5.44591e-02,6.97410e-03,-6.07256e-02,-1.16517e-01,-6.31224e-02,-6.20361e-02,-4.25921e-02,6.47964e-02,1.27009e-01,-5.82380e-02,-8.21951e-02,4.98629e-02,7.04200e-02,9.20023e-02,4.74695e-02,8.94402e-02,-8.62624e-02,1.84840e-02,4.41358e-02,1.39373e-01,1.12637e-01,4.74105e-02,3.14265e-02,-5.32761e-02,1.08583e-01,6.77394e-02,3.69438e-02,-5.41568e-04,1.10514e-01,-8.82796e-02,1.39069e-01,1.61867e-01,-1.46264e-01,-5.55634e-02,1.53336e-02,7.28768e-02,4.88816e-02,-3.87872e-02,1.13374e-01,2.76179e-01,5.25357e-02,1.77027e-01,7.00137e-02,5.36826e-02,2.39088e-02,6.43823e-02,1.53475e-01,1.08571e-01,-1.17647e-02,8.32630e-02,-1.26575e-01,-1.47067e-01,4.42302e-03,-5.24474e-02,-3.31154e-02,2.88307e-01,1.73182e-01,-5.96747e-02,1.63410e-02,-8.01426e-02,1.75733e-02,1.17945e-02,2.25468e-02,-1.13302e-02,9.27784e-02,1.31213e-01,7.26241e-02,8.14853e-02,5.34846e-02,1.12823e-01,4.88461e-02,1.12277e-01,1.35799e-01,1.06216e-02,1.29957e-01,-4.10576e-02,-1.38345e-01,-8.51679e-02,1.02385e-01,5.92621e-02,-4.31969e-02,2.60274e-02,-1.60585e-01,8.57194e-02,6.99340e-02,9.51612e-02,1.05947e-01,8.77949e-02,-5.15059e-02,-2.96862e-02,-3.87451e-02,1.19572e-01,2.26131e-01,-1.40425e-02,1.65327e-01,1.18590e-01,6.75723e-02,4.21695e-02,-4.00640e-02,9.39033e-02,-9.69929e-03,2.22014e-01,1.83436e-01,3.99239e-02,1.65718e-01,-1.19752e-02,-1.33726e-01,-1.41016e-01,-1.75042e-01,-1.25061e-01,5.65851e-02,-2.70530e-03,3.16653e-02,-1.43149e-01,1.76085e-02,3.31223e-02,-6.55852e-02,-4.19465e-02,-4.75376e-02,1.31968e-01,-6.59385e-02,-4.21080e-03,-1.06669e-01,1.29325e-01,1.25218e-01,1.06478e-01,9.65531e-02,1.04922e-01,8.59844e-02,1.33906e-01,2.17258e-01,-2.61591e-02,-5.38512e-02,-4.32964e-03,1.52822e-01,-1.69196e-01,1.28220e-02,-1.33615e-01,1.13857e-01,2.07756e-01,8.31472e-02,2.88587e-02,1.22630e-02,-7.76905e-03,-7.93415e-02,1.18327e-01,2.31958e-02,-1.26398e-02,1.56828e-01,6.53829e-02,3.79752e-02,1.66757e-01,1.71769e-01,2.66495e-02,-3.84620e-02,1.20041e-01,-2.45469e-02,-7.52526e-03,1.43475e-01,2.04906e-02,-1.42023e-02,-5.21788e-02,6.57487e-02,7.62129e-03,-5.24277e-03,-9.22724e-02,-1.02095e-02,3.23157e-02,2.40902e-01,1.19288e-01,-6.24108e-02,-7.79681e-03,5.18510e-02,1.78565e-02,-1.10261e-01,-5.03394e-02,-1.39496e-01,-1.16949e-01,-1.62721e-02,-8.22155e-03,3.38515e-02,-1.03011e-02,1.38015e-01,-3.06810e-02,2.62821e-02,-1.37153e-02,-5.31401e-02,1.98708e-01,-1.25744e-02,1.28509e-01,1.44532e-01,1.86207e-02,1.03966e-01,1.43469e-01,1.07628e-01,-6.27239e-02,-7.02943e-02,-8.09172e-03,8.72314e-02,-1.17392e-01,-1.73950e-01,-1.23369e-01,7.83239e-02,5.00025e-02,7.68625e-03,-7.38182e-02,-6.73843e-03,2.72290e-02,5.64132e-02,-2.72724e-02,1.34899e-01,2.02061e-02,-3.95996e-02,5.08037e-03,-2.57322e-02,6.62718e-02,-5.14795e-02,5.59316e-02,1.02220e-01,1.35885e-01,1.17084e-02,5.96683e-02,1.01291e-01,9.17728e-02,-6.24100e-02,1.42567e-01,-6.97361e-02,-3.89650e-02,5.88916e-02,2.80569e-03,-2.08476e-01,-2.50279e-02,-1.36617e-02,1.36491e-03,-9.14613e-02,7.56516e-02,-1.89143e-02,6.30845e-02,-5.68039e-02,1.67260e-01,5.72001e-02,1.25305e-01,-3.30070e-02,3.58084e-02,1.32880e-01,5.46151e-02,1.36762e-01,1.69493e-01,-1.82006e-02,8.17326e-02,-8.53761e-02,-9.83586e-02,9.16329e-02,-4.27920e-02,-5.50415e-02,-9.39597e-03,-8.32759e-02,2.75993e-02,-5.92110e-02,-8.75508e-02,-2.67062e-02,-1.64033e-01,4.30554e-02,-2.86710e-02,6.82117e-04,-1.23337e-01,-3.86169e-02,-8.35069e-02,-7.13632e-02,8.89604e-02,-1.14762e-01,-2.70934e-02,-4.09487e-02,9.61008e-02,2.22302e-01,6.72426e-02,9.58327e-02,1.73784e-01,7.14786e-02,-1.21884e-01,4.41761e-02,-5.82289e-02,-1.82865e-01,6.37306e-02,-1.03636e-01,-5.47817e-02,-1.17742e-01,-1.84435e-01,-2.23214e-01,-1.52243e-01,-1.42994e-01,1.58603e-02,7.32004e-02,-1.17426e-01,4.60739e-02,-2.43459e-01,-3.40392e-02,7.04886e-02,-8.12962e-02,1.98649e-01,-8.44917e-02,-1.54144e-03,8.55676e-02,1.28981e-01,1.70134e-01,1.95460e-01,9.50647e-02,1.48783e-01,1.48903e-01,8.96627e-02,-3.55789e-02,3.76543e-02,-1.14892e-01,-1.03202e-01,6.27552e-02,8.06833e-02,-2.74206e-01,-5.40510e-02,-9.50882e-02,-1.84812e-01,1.09977e-02,-2.15212e-01,-1.78335e-01,-5.11761e-02,-1.67264e-01,1.35193e-01,-1.84769e-01,-5.69894e-03,-5.23900e-02,-9.09935e-02,-8.86991e-03,-4.34290e-02,1.07384e-01,7.80130e-02,-5.02606e-02,8.09873e-02,5.80083e-02,-2.52229e-02,1.06961e-01,-1.58660e-01,-1.02894e-01,1.70344e-01,-5.01191e-02,1.09059e-01,-3.08488e-03,-1.78171e-01,-9.05357e-02,-1.15918e-01,-3.44501e-02,-1.91108e-01,-9.78365e-02,5.89156e-02,-1.68320e-01,-2.18992e-02,-3.80652e-02,-2.10191e-01,1.04877e-01,-1.49064e-01,1.55892e-01,5.80165e-02,-2.90655e-02,1.87336e-03,1.69311e-02,-5.72352e-03,1.10106e-01,1.22094e-01,2.96206e-02,-1.85055e-01,-2.51177e-02,-1.27223e-02,3.99337e-02,-6.23275e-02,1.42479e-01,-5.79782e-02,1.72063e-02,-9.26542e-02,-2.42578e-02,1.32270e-01,-7.59658e-02,7.21584e-03,-6.29075e-02,-1.13614e-01,-6.25498e-03,7.33395e-02,5.49372e-02,-4.08238e-02,1.07420e-01,-1.13427e-01,-4.64086e-02,-1.78442e-02,-9.68313e-04,-9.79654e-02,6.62843e-02,3.50552e-03,
-1.39600e-01,-7.46346e-02,6.20802e-02,-1.23591e-01,-5.66265e-02,-1.41567e-01,-6.50667e-02,-1.43898e-01,-9.53862e-02,9.44528e-02,-1.74293e-03,1.39855e-02,1.31036e-01,1.23569e-02,2.71229e-02,-5.13867e-02,9.39862e-02,-8.03905e-02,-2.20876e-02,5.59812e-02,-1.16582e-01,1.01070e-01,2.50808e-02,3.93724e-02,6.89612e-02,3.74997e-02,-1.17138e-01,3.44944e-03,-7.00430e-02,4.27381e-03,-2.46531e-03,-5.00826e-02,-4.32402e-02,2.35802e-02,3.80156e-02,-9.29716e-02,-8.35642e-02,-1.09914e-01,-6.97610e-02,3.97688e-02,-2.08064e-02,2.47719e-02,3.15801e-02,1.26805e-01,-6.23091e-02,1.55214e-02,-1.10256e-01,-1.13619e-01,9.01902e-02,2.32755e-01,7.44659e-02,-5.38964e-02,-6.96843e-02,8.45227e-02,1.41204e-01,1.44987e-01,1.09292e-02,1.93686e-02,1.35319e-01,4.86513e-02,-1.60503e-02,4.32693e-02,1.23979e-01,-5.12208e-02,-2.89713e-02,-4.34491e-02,8.78958e-02,3.61819e-02,1.22182e-01,1.38385e-02,-1.77774e-01,-6.06553e-03,-2.51122e-03,-5.22983e-02,-5.34014e-02,-1.61594e-01,2.01269e-01,1.39340e-01,3.66613e-02,1.92745e-02,1.29175e-01,-1.11050e-01,-2.36476e-02,-6.93276e-02,6.42258e-02,-8.26431e-02,-1.84108e-01,-3.29968e-02,2.97556e-02,3.35759e-02,4.55283e-02,9.78057e-03,1.74133e-01,1.53667e-01,-5.10303e-02,8.81037e-02,3.77463e-04,1.23817e-01,2.02338e-02,1.38344e-01,1.59925e-01,-1.23531e-01,6.55917e-03,4.04515e-03,-2.18932e-01,5.54924e-03,-2.02314e-01,-7.95494e-02,-3.92147e-02,-8.73750e-02,-2.63657e-02,2.73470e-02,-6.06949e-03,9.81177e-02,3.82765e-04,-1.75003e-01,1.57904e-01,-7.37857e-02,7.47804e-02,1.02497e-01,5.89893e-02,-5.25519e-02,1.81843e-01,-7.57707e-02,1.43754e-01,9.90391e-02,-6.74735e-02,1.29208e-01,-6.49447e-02,-7.43912e-02,-1.16313e-01,4.23014e-02,-6.22062e-02,3.69351e-02,-4.86703e-02,6.64270e-02,1.07952e-01,5.46646e-02,-2.59289e-03,9.90385e-02,8.41350e-02,-7.05566e-02,-2.81969e-02,8.84260e-02,7.02724e-02,8.48506e-03,1.04432e-01,-1.10551e-01,-1.20717e-01,4.02216e-02,1.45253e-01,-1.07038e-01,3.03523e-02,-1.46001e-01,3.42751e-04,-9.77033e-03,1.39233e-01,-8.09301e-02,2.66612e-03,1.75917e-02,-6.25739e-02,-1.30275e-01,-1.42180e-01,-1.60439e-01,-2.19916e-01,9.32507e-02,-2.02397e-02,-4.38428e-02,-1.35896e-01,-2.31478e-02,7.04549e-02,9.43725e-02,8.07504e-02,1.29301e-01,7.61154e-02,9.24435e-02,-1.02353e-02,7.50447e-03,6.90060e-02,1.12351e-01,1.20165e-01,2.65731e-02,-1.05864e-01,1.85991e-01,-7.91489e-02,7.47490e-02,8.02236e-02,-1.47771e-02,8.92246e-02,-6.97720e-02,2.63051e-02,-1.36768e-01,-1.42014e-02,-1.68357e-01,-2.14450e-01,-5.97646e-02,1.67365e-01,1.39997e-01,4.01870e-02,8.39101e-02,1.33637e-02,-8.99882e-02,3.94793e-02,-6.81164e-02,1.48280e-02,2.69966e-02,1.22310e-01,-7.03635e-03,-2.01758e-02,6.20217e-02,9.28581e-02,1.45818e-01,3.76558e-02,1.14422e-01,-3.01777e-02,-2.64882e-02,1.09509e-01,1.67496e-02,2.97289e-02,-4.34163e-02,7.94612e-02,-1.41484e-01,-1.21898e-01,-3.19865e-02,3.49678e-02,-3.56506e-02,-1.89832e-02,7.45497e-02,-8.89834e-02,1.14819e-01,-4.40215e-02,-4.51416e-02,7.10716e-02,1.06305e-01,9.03528e-03,9.02885e-02,-4.56186e-02,6.70588e-02,-2.82453e-04,1.81788e-01,1.24629e-01,1.22356e-01,1.05456e-01,5.95802e-02,4.62109e-02,-4.41883e-02,-1.14377e-01,2.22990e-03,-1.47379e-01,1.41639e-02,-1.25505e-01,-1.12288e-02,1.33376e-01,4.32641e-02,-8.26447e-02,3.92619e-02,1.33585e-01,-1.25229e-01,1.04184e-01,7.92425e-02,-3.07435e-02,2.92436e-02,3.17494e-02,6.99969e-02,4.71603e-02,1.14134e-01,7.54682e-02,-3.95083e-03,3.90282e-02,3.96900e-02,6.02097e-02,-8.86249e-03,7.39153e-02,-3.95185e-02,-4.38015e-02,1.43677e-01,-2.00424e-01,-1.09967e-01,-1.25525e-03,-1.37536e-01,1.67846e-01,2.78292e-02,4.03780e-02,1.22086e-02,1.91091e-02,1.76622e-01,-9.47266e-02,-3.26119e-02,-4.06396e-02,-6.66640e-02,1.14065e-01,-3.02532e-02,8.35426e-02,-4.24519e-02,-1.22581e-01,6.54029e-02,9.20244e-02,7.19380e-02,2.45331e-02,-2.78274e-02,2.53755e-02,6.43509e-02,-3.78625e-02,-7.72749e-02,-6.11839e-02,-1.16966e-01,-4.79501e-02,1.92126e-02,-2.62168e-02,1.64408e-01,1.32916e-01,-3.18295e-02,1.54482e-01,1.17771e-01,-2.67997e-02,-1.76738e-01,-7.83582e-02,7.45313e-02,1.38740e-01,-2.36308e-01,-1.16253e-01,-4.16710e-02,-1.23768e-01,-5.64712e-02,8.37741e-02,9.90677e-02,8.80348e-03,-2.58943e-02,7.96986e-02,1.29787e-01,1.38638e-01,-5.17672e-02,-3.69449e-02,-1.34378e-01,-9.80798e-02,3.98903e-02,-1.03121e-01,1.94579e-01,1.83153e-01,-5.26695e-02,-1.06869e-01,-1.50898e-01,4.20412e-02,-1.18770e-01,8.39013e-03,-1.10029e-01,2.79286e-02,2.89581e-02,-1.43377e-01,-1.86438e-02,-8.45931e-02,-2.42884e-01,-3.42106e-02,-3.15890e-02,-3.70945e-02,7.43410e-02,2.00597e-01,-8.88664e-02,4.71986e-02,7.43221e-02,8.50006e-02,-3.21052e-02,-2.62231e-02,4.81320e-02,-8.87322e-02,-3.06793e-02,9.92907e-02,-3.43007e-02,-2.25072e-02,-1.74073e-01,3.73580e-02,-2.00938e-02,-2.95924e-02,9.64076e-02,-1.40414e-01,-2.13654e-01,-2.61103e-01,-1.15034e-01,-1.30160e-01,-1.46122e-01,-1.53328e-01,8.46492e-02,1.39593e-01,2.48701e-02,2.74915e-02,1.80619e-01,9.33478e-02,1.45753e-01,9.46567e-02,1.57044e-01,4.35835e-02,1.34981e-02,1.53204e-01,-2.94468e-03,-9.83780e-02,-6.23067e-02,4.34144e-02,-1.40050e-02,1.25875e-01,9.65336e-02,1.80744e-01,-1.07937e-01,-7.87873e-02,-6.56551e-02,-7.57068e-02,5.29315e-02,-1.08981e-01,2.93559e-02,5.59900e-02,6.23385e-03,-7.97455e-02,1.22476e-01,-5.51391e-03,7.09864e-02,1.04397e-01,2.76906e-01,1.45885e-01,1.78007e-01,8.13698e-02,7.74252e-03,-1.02253e-01,4.92131e-03,6.55627e-02,9.13842e-02,1.09558e-01,8.77322e-02,1.29389e-01,8.57619e-02,5.39848e-02,1.07809e-01,-1.82708e-02,-1.57151e-01,-3.00390e-02,-3.29949e-02,-1.03710e-01,-1.43489e-01,-1.38768e-01,1.96815e-01,-4.34828e-02,2.16849e-01,3.42853e-02,5.51103e-02,-2.64666e-02,9.38446e-02,2.24002e-01,2.89464e-01,6.08205e-02,-5.80362e-02,-5.45704e-02,-5.37925e-02,4.10502e-03,-1.16037e-02,1.63868e-01,4.46424e-02,6.22518e-02,-6.58113e-03,-4.97790e-02,1.74873e-01,5.70639e-02,-1.28086e-02,1.33970e-01,-1.35358e-01,-1.19492e-01,1.55743e-01,-5.65442e-02,1.07681e-01,5.28594e-02,4.15036e-02,4.19024e-02,9.38911e-03,9.33341e-02,4.02628e-03,2.15494e-01,2.27743e-01,6.92760e-02,9.75150e-02,2.76224e-02,-9.88204e-03,-6.07086e-02,-1.29181e-01,5.51101e-02,-7.89843e-02,-5.71428e-04,1.30634e-01,3.82016e-02,-2.49634e-03,2.89058e-02,1.24853e-01,-1.17619e-01,-6.99772e-02,-8.78312e-02,2.62544e-02,1.21379e-01,7.18980e-02,3.69682e-02,7.84430e-02,1.03114e-01,4.31812e-02,6.99824e-02,7.66360e-02,2.26780e-01,2.37654e-01,4.43491e-02,8.52291e-02,2.01214e-01,-8.02379e-02,-1.15391e-02,1.07353e-01,1.55452e-01,1.07033e-01,-1.82624e-01,7.67707e-02,1.02798e-01,4.92572e-02,1.28177e-01,1.39894e-01,-4.91400e-02,1.35574e-01,1.43772e-01,-2.78207e-03,-1.48290e-03,-8.14539e-02,8.93107e-02,4.88100e-02,-3.06359e-02,-2.11389e-02,3.72060e-03,2.49399e-02,-9.47979e-02,3.09858e-03,-4.83893e-02,3.76826e-02,1.26141e-03,-9.43961e-02,-7.81278e-02,-1.65833e-02,1.19995e-03,-5.26601e-02,6.71372e-02,1.45163e-01,3.60855e-02,1.98930e-01,1.31703e-01,8.38329e-02,1.30549e-01,1.28635e-01,6.47041e-02,-1.41610e-03,1.41328e-01,9.20181e-02,5.56811e-02,-1.26089e-01,-2.30437e-02,1.55208e-02,-1.58108e-01,3.25719e-02,3.66471e-02,1.15260e-01,-9.97950e-02,3.67007e-03,-1.99858e-01,-1.26528e-01,8.20354e-03,-2.02367e-01,-1.64549e-01,3.42271e-02,-9.35565e-03,9.79290e-02,3.98153e-02,-1.29862e-01,3.21226e-02,1.00575e-01,6.91502e-02,2.38891e-02,8.51795e-02,-2.00537e-02,-1.26145e-01,2.57979e-02,-2.07290e-01,-7.93883e-02,-1.24034e-01,7.98449e-02,-1.86467e-01,-2.93223e-02,1.81129e-01,1.40692e-01,7.35382e-03,4.59401e-02,-7.48706e-02,-9.92371e-03,3.78162e-02,9.66607e-02,7.85870e-02,-3.58802e-02,-5.43948e-02,-9.91241e-02,2.33260e-02,7.51705e-02,2.03588e-01,9.88252e-02,5.32809e-02,3.61686e-02,-4.14890e-02,2.15436e-03,-8.15693e-02,3.90219e-02,-9.27237e-02,-1.40999e-01,-2.07151e-01,1.32509e-01,-6.94397e-02,1.30849e-03,1.27753e-01,3.63235e-02,6.87538e-02,3.71386e-02,4.19668e-02,2.79819e-02,1.10849e-01,-1.73155e-01,-1.63006e-01,-1.25302e-01,-1.50947e-02,-6.03817e-02,4.38929e-02,-7.72046e-02,2.22478e-02,-3.12254e-02,5.82664e-02,-9.85412e-03,2.98064e-02,1.19702e-01,3.66800e-02,8.16964e-02,1.16113e-01,-8.46130e-02,7.43497e-02,1.30575e-01,7.81957e-02,1.22606e-01,5.88764e-02,-1.50923e-01,-8.73829e-02,-4.36662e-02,7.22178e-02,-1.07222e-01,1.22688e-01,-1.83310e-01,5.55525e-02,1.90573e-02,-1.48159e-01,6.20588e-02,1.19696e-01,5.17921e-02,4.91099e-02,-1.30853e-01,-1.10661e-01,6.30479e-02,7.91888e-04,-1.82857e-01,-1.72878e-01,-5.79150e-02,-1.18800e-01,4.91224e-02,8.57617e-02,-1.83127e-01,1.27478e-01,7.47736e-02,2.95930e-02,2.49225e-02,-7.88284e-02,1.19586e-01,-5.23852e-02,1.65833e-01,1.31915e-02,-2.72417e-02,-6.33228e-03,1.46375e-01,1.35852e-01,-3.19876e-02,4.50352e-02,5.98977e-02,-1.03607e-01,-1.46905e-01,-6.17608e-02,-2.01767e-02,-6.91472e-02,-1.10563e-01,3.31387e-02,-1.63802e-02,3.21780e-02,-1.29896e-01,9.41768e-02,1.67205e-02,-7.46962e-02,1.25756e-01,5.76602e-02,3.91875e-02,-1.07041e-01,-1.91032e-02,1.41329e-01,7.91193e-02,6.18923e-02,1.74452e-02,2.14660e-03,5.25077e-02,1.43837e-01,-9.79525e-02,9.77546e-02,-2.75157e-02,-6.25588e-02,7.00018e-02,-4.19911e-02,1.50227e-01,1.54851e-02,-3.80063e-02,-3.42904e-04,-9.09642e-02,-5.06474e-03,-1.06738e-01,-1.19623e-01,-8.64882e-02,4.63843e-03,6.49349e-02,-1.42322e-01,1.16144e-01,1.06814e-01,3.26892e-02,6.60637e-02,1.44075e-01,-2.59231e-03,-3.90599e-02,7.09059e-02,1.82425e-01,1.51658e-01,1.10333e-01,2.24427e-01,8.98252e-02,5.11460e-02,-4.28547e-02,-2.33359e-02,1.23696e-01,1.17051e-01,2.63103e-01,-7.57378e-02,-8.90017e-02,2.05609e-01,2.15515e-01,-4.16142e-02,5.63360e-02,-1.66482e-02,-4.98785e-02,1.44237e-02,-2.64354e-02,1.36782e-01,6.04434e-02,1.07500e-01,1.93284e-01,4.96591e-02,9.87125e-02,1.87322e-02,1.11691e-01,4.20031e-02,1.99812e-01,-3.41791e-02,-1.87206e-02,4.76030e-02,8.19675e-03,1.57845e-01,1.97321e-01,2.55512e-01,1.42898e-02,7.56378e-02,1.22991e-01,6.31533e-03,9.34846e-02,-5.23807e-02,1.48422e-01,3.69014e-02,1.77014e-02,-1.11812e-01,2.15744e-02,-3.94758e-02,4.50016e-02,
-1.80682e-03,4.95025e-02,1.53496e-01,-5.81206e-02,-1.21092e-01,-9.38355e-02,-4.33924e-02,5.53996e-02,6.80494e-02,9.40636e-02,-1.23367e-01,2.31247e-02,-5.63346e-02,-5.24492e-02,1.81106e-01,1.88540e-02,-1.66460e-01,1.07475e-02,-7.09832e-02,-1.08008e-01,1.21864e-01,1.61379e-01,1.10578e-01,-1.84668e-01,-3.53499e-02,-5.72565e-02,-1.53001e-01,-7.23934e-02,-5.11689e-02,1.29764e-01,-7.97180e-02,-4.68797e-02,4.13673e-02,-5.10960e-02,-4.80322e-03,-6.07414e-02,1.68027e-02,7.76987e-02,1.88743e-01,1.97921e-01,1.45568e-01,9.82774e-02,-1.36564e-01,8.40707e-02,-7.62053e-02,-6.87735e-02,-1.11962e-01,7.64987e-02,2.27937e-01,-3.27132e-02,-1.30837e-01,-2.51254e-02,3.52784e-02,-7.60800e-02,-5.04796e-02,-9.28057e-03,5.33083e-02,-1.39420e-01,1.33102e-01,-1.15598e-02,4.02043e-02,-6.02328e-02,1.57943e-01,1.37943e-01,-2.95568e-02,-1.36469e-01,1.01875e-01,8.10591e-02,8.33930e-02,2.13136e-02,-2.66090e-02,2.64760e-02,1.91181e-01,-1.95173e-02,3.52205e-02,1.72880e-01,2.02439e-01,2.36531e-02,1.46377e-01,1.66901e-01,6.40513e-02,-1.39302e-01,-7.75696e-02,1.46567e-01,4.06496e-02,1.37427e-02,4.94225e-02,-3.08425e-03,1.42914e-01,2.02571e-02,1.54293e-01,-1.95439e-02,-4.50449e-02,-7.11840e-02,-1.58187e-01,8.45167e-02,-8.99465e-02,5.60861e-02,-1.33336e-02,-1.43227e-02,-6.44202e-02,-1.16625e-01,-8.14103e-02,8.96570e-02,-5.95700e-02,2.96473e-03,1.03668e-01,1.49338e-01,1.02766e-01,8.33043e-02,-9.73514e-02,2.02253e-02,-4.58951e-02,-6.26306e-02,2.12840e-02,-2.32697e-02,1.87767e-01,-1.83783e-01,-2.79642e-02,1.49263e-01,-1.14261e-02,-1.64421e-01,-1.01924e-01,-1.59964e-01,1.64609e-02,-9.59777e-02,-7.35500e-03,-1.60590e-01,-1.84853e-02,5.24912e-02,1.71214e-01,-3.44104e-02,4.08780e-02,1.56465e-01,1.67502e-01,2.12020e-01,-3.59674e-02,1.42340e-02,-3.74729e-02,5.11045e-02,-1.15631e-01,1.10532e-03,1.21358e-01,-7.41804e-02,7.05399e-02,-5.57530e-02,3.91011e-02,-1.79860e-01,5.17041e-03,-2.23015e-02,3.31234e-02,-2.91386e-02,2.88349e-02,4.57513e-02,-1.57769e-01,3.29928e-02,5.60721e-02,6.70065e-02,-5.01554e-03,-1.52593e-02,-6.57045e-02,3.05180e-03,-5.01189e-02,2.90265e-01,1.38441e-01,1.77862e-01,9.14887e-02,1.77455e-01,3.38536e-02,-1.45315e-01,1.19279e-02,-1.64026e-01,-8.57034e-02,-7.78642e-02,4.60324e-02,-9.43317e-02,-8.07380e-03,-5.15465e-02,-7.82340e-04,1.53943e-02,1.04573e-01,-1.26137e-02,9.83223e-02,2.94308e-02,2.39149e-02,1.10839e-01,-1.18630e-01,-4.18558e-02,-2.41145e-02,1.98789e-01,-5.54912e-05,6.86860e-02,9.34533e-02,3.47081e-01,-2.97116e-03,4.14402e-02,1.25807e-01,-3.49476e-02,-2.23147e-02,-8.79886e-02,9.72268e-03,-2.09860e-02,-1.62688e-01,9.29769e-02,-6.31316e-02,-1.02531e-01,1.37239e-01,-8.53257e-02,1.19398e-01,2.02108e-02,3.96696e-02,-1.96304e-02,-1.09290e-01,-1.12917e-01,-2.44034e-04,-5.81358e-02,4.82441e-02,8.59573e-03,1.39490e-01,2.46904e-01,1.02702e-01,1.52914e-01,-4.63371e-02,7.01190e-02,-2.64428e-02,-1.53911e-01,-1.48072e-01,-1.41246e-01,3.28634e-02,6.87958e-02,-7.10499e-02,-3.85199e-02,5.54923e-02,1.81009e-02,-1.21682e-01,-1.44943e-01,-5.09788e-02,-1.15425e-02,-1.24491e-01,-8.13023e-02,-1.77995e-01,1.19784e-03,6.42598e-02,6.26129e-02,-9.73773e-02,-3.69467e-03,1.31357e-01,-7.45189e-02,2.27352e-01,2.43726e-01,1.85807e-01,2.49811e-02,1.06298e-01,-6.17500e-02,8.89152e-02,-1.07966e-01,-1.09731e-01,-6.96850e-02,-2.77677e-02,-8.87407e-02,7.90620e-02,1.41046e-02,-6.31953e-02,8.04753e-02,1.08148e-01,1.10223e-01,-1.17994e-01,-5.09813e-02,-1.40378e-01,-1.05058e-01,-2.49774e-01,-4.84556e-02,-4.51043e-02,-1.38633e-02,6.91266e-03,7.35783e-02,1.28579e-01,2.28233e-01,6.27825e-02,-1.33679e-01,4.30679e-02,-2.33772e-01,-1.98879e-01,-1.58167e-01,7.45495e-03,-8.14069e-02,-5.87853e-02,5.23537e-02,7.58140e-02,-9.74510e-02,-4.62646e-02,8.22701e-02,1.07449e-01,-3.59651e-02,-1.45015e-02,8.97135e-03,-1.04065e-01,-5.16617e-02,2.54738e-02,-1.51563e-01,-9.56954e-02,-4.09324e-02,-2.56051e-02,8.57539e-02,6.02653e-02,-7.33690e-03,5.41980e-02,1.93495e-03,-8.47550e-02,-1.18700e-02,-5.33955e-02,-5.95059e-02,-5.34444e-02,-7.49400e-02,1.83773e-01,-6.61893e-03,1.03926e-01,1.04442e-01,2.59286e-01,1.20960e-01,2.85059e-02,3.74343e-02,-9.20712e-02,-4.00071e-02,-9.86981e-02,-1.83366e-02,-2.24302e-01,1.44936e-02,1.33134e-01,-3.59549e-02,-3.49174e-02,8.70548e-02,-8.36338e-02,-4.28857e-02,1.13139e-01,-8.85039e-03,-4.97724e-02,-7.50023e-02,-5.06739e-02,-1.73344e-01,-1.12882e-01,7.75523e-02,1.50676e-01,9.62930e-02,2.29147e-01,7.87951e-02,8.51413e-03,1.14677e-01,5.40467e-02,1.11239e-01,6.41077e-02,-7.94666e-02,-1.20367e-01,-3.56302e-02,-1.20495e-01,1.03025e-01,9.18224e-02,1.45230e-01,-1.23268e-02,8.18175e-02,2.21050e-01,4.86313e-02,-9.05467e-02,7.67244e-02,1.57078e-02,2.52712e-03,-1.98049e-02,6.08389e-02,1.44669e-01,8.70247e-02,3.17680e-02,6.44137e-03,1.63199e-01,1.10679e-01,1.10069e-01,2.09534e-01,1.76177e-02,1.28049e-01,-6.16544e-02,1.57149e-01,1.59222e-01,3.77216e-02,5.28999e-02,1.18150e-01,9.18852e-02,3.74621e-02,1.90373e-01,-6.93545e-02,-1.07235e-01,-2.29016e-01,-3.84108e-02,-1.82081e-02,3.28320e-02,2.06614e-02,-1.85845e-01,3.65007e-02,1.58889e-01,-3.53709e-02,1.48188e-01,9.43563e-02,-2.68766e-02,-4.30299e-02,2.07887e-01,9.91601e-02,2.35888e-01,7.62557e-02,7.08630e-02,9.64428e-02,1.84946e-02,1.52532e-01,1.35565e-01,-1.37463e-01,-9.97350e-03,-5.06905e-02,3.32270e-02,4.71366e-02,-7.67661e-02,-1.38327e-01,2.77295e-03,3.23638e-02,1.14066e-01,-5.45563e-02,-1.28293e-01,-4.31451e-02,-8.41309e-02,4.96414e-03,4.29915e-03,5.77428e-02,-6.43644e-02,7.35639e-02,1.69171e-01,-1.01716e-01,1.15254e-01,-5.77261e-03,-5.50312e-02,1.77735e-01,1.61566e-01,1.12461e-01,-2.50422e-02,-1.30878e-01,1.04171e-01,6.41920e-02,7.71763e-02,-1.95489e-02,2.35563e-02,-5.37476e-02,-2.18924e-01,-3.93102e-02,1.16961e-02,-7.63046e-02,6.19391e-02,-1.57690e-01,-7.25358e-02,3.70789e-02,-1.67384e-01,2.96061e-02,-8.68808e-02,-8.70484e-03,-4.00613e-02,1.68096e-02,7.68747e-02,1.01089e-01,-2.85766e-02,-1.83591e-02,-5.30651e-02,-1.13680e-01,-5.92745e-02,1.54863e-01,6.76994e-03,-1.33847e-01,-4.07761e-02,-1.49521e-01,1.07451e-01,1.41593e-02,-6.88666e-02,-1.32841e-01,-1.32978e-01,4.87824e-02,-1.65904e-01,-5.29637e-02,-2.13496e-01,-1.00982e-01,-7.74952e-02,4.77827e-02,6.85165e-03,-6.83711e-02,5.55476e-02,1.15986e-01,1.17136e-01,-3.64338e-02,-4.95475e-02,9.83216e-02,1.16065e-02,-2.74967e-02,2.90422e-02,-6.40342e-02,-1.40048e-01,3.44979e-03,9.26283e-02,-2.23369e-02,-6.03023e-02,-2.22024e-01,-1.39008e-01,-1.37500e-01,-1.08902e-01,-8.32135e-02,1.11764e-02,-1.65654e-02,-2.58583e-01,-4.18460e-02,-5.44610e-02,-1.25581e-01,-9.33654e-02,7.81511e-03,2.43737e-01,6.97512e-02,9.64603e-02,1.48158e-02,-6.94136e-02,-6.47842e-02,1.69005e-01,6.63426e-02,9.03777e-02,2.82306e-02,-6.12684e-02,5.44508e-02,1.19899e-01,-9.13495e-02,-5.49519e-02,-6.22349e-02,-1.74899e-01,1.43793e-01,-1.61429e-01,-1.79720e-01,-1.29748e-01,-1.89532e-01,-2.22198e-01,-2.04978e-01,-8.59779e-02,1.26707e-03,-1.33276e-01,-4.88918e-02,-1.17455e-01,-1.04798e-03,-3.32186e-02,1.82322e-01,8.40598e-02,-3.72605e-03,8.68762e-02,-1.17412e-01,9.29411e-02,-3.46287e-02,-1.39968e-01,-3.91483e-02,-1.31965e-01,1.48044e-02,-1.18627e-01,-2.71168e-01,-6.88240e-02,4.97912e-02,1.25514e-01,3.17672e-02,-1.19221e-01,-5.40484e-02,-1.42916e-01,-1.74261e-01,-1.74142e-01,-5.54716e-02,-2.08856e-02,-5.36854e-02,1.96770e-02,1.82274e-01,6.34854e-02,8.59866e-02,-3.49340e-02,5.32429e-02,1.43284e-01,-1.92136e-02,-1.75266e-01,-1.52183e-01,4.25935e-02,3.98518e-02,-1.27736e-01,-1.17581e-01,-2.28120e-01,-1.83363e-01,1.17856e-01,-3.01060e-02,4.08792e-02,-8.08975e-02,6.73561e-02,-1.26828e-01,-1.30723e-02,9.81656e-03,9.38070e-03,6.49165e-03,-8.43943e-02,4.26648e-02,6.89981e-02,6.47576e-02,1.44479e-02,-3.20807e-02,1.09189e-01,1.12423e-01,-3.74317e-02,5.46127e-02,1.16554e-01,-2.19231e-01,-6.47200e-02,-3.98109e-02,-1.13756e-01,1.56696e-01,1.67426e-02,-9.82286e-02,4.74663e-02,9.13169e-02,5.08841e-02,-1.07018e-01,-3.06767e-02,-1.24056e-01,-1.41622e-01,9.97699e-02,-1.28511e-01,-1.61584e-02,-2.04443e-01,1.98564e-03,2.10042e-02,-5.71970e-02,6.36064e-02,2.36954e-01,1.39257e-02,-4.98742e-02,-7.18378e-02,-6.93027e-02,5.60950e-02,-1.85565e-01,-1.88134e-01,-7.25346e-02,-2.07093e-02,2.07793e-01,6.19932e-02,-1.20553e-01,2.55490e-02,1.80443e-01,-1.34071e-02,-7.53351e-02,2.65360e-02,-1.08681e-01,-8.86631e-02,-5.90367e-02,-1.35571e-01,-8.53326e-02,2.33306e-02,-7.97705e-02,-6.21975e-02,-2.06236e-01,-6.81284e-02,7.58554e-02,9.32510e-02,4.51826e-02,4.95538e-02,4.40896e-02,-1.12463e-01,-1.47453e-01,-1.23750e-01,1.17549e-01,-6.45158e-02,5.91351e-02,-1.62586e-03,8.31383e-02,6.19124e-02,4.92059e-02,1.30705e-01,1.65590e-01,1.85721e-01,1.59582e-02,-5.58999e-02,-7.08477e-02,-2.74500e-01,-1.18557e-01,4.48753e-02,1.38664e-02,-2.44481e-02,2.44499e-02,9.01500e-02,7.28447e-02,3.71711e-02,-2.07551e-02,1.32290e-01,2.83430e-02,1.59593e-01,1.33178e-01,-1.07406e-01,-2.48599e-02,-1.74801e-02,-8.33279e-02,-6.20223e-02,-1.80828e-01,-4.47995e-02,-1.82503e-03,2.99962e-02,-1.47053e-01,4.04663e-02,-1.35182e-01,-1.48484e-01,1.43331e-01,-1.24703e-01,-7.34388e-02,5.98854e-02,9.43669e-02,-1.00294e-01,9.07098e-02,-7.79940e-02,-1.59536e-01,8.85765e-03,-1.36064e-01,-2.23195e-02,1.14979e-01,2.23487e-02,-7.93207e-02,1.04623e-01,7.02028e-02,5.00530e-02,-7.82261e-02,1.10567e-02,-1.66797e-02,-3.77739e-02,8.82359e-02,-9.64772e-02,-7.19245e-02,7.44866e-03,3.63371e-02,3.71591e-02,1.87462e-01,-5.83930e-02,1.01053e-01,-1.16016e-01,-1.41321e-01,3.73030e-02,-2.30615e-02,1.13427e-01,-6.68750e-02,8.52636e-02,-4.25368e-02,1.38842e-01,-1.31301e-01,7.75676e-02,3.38131e-02,9.49792e-02,1.61024e-01,-1.74901e-03,-1.49372e-01,1.28181e-01,1.98824e-02,-1.98240e-01,-4.05643e-02,1.16245e-01,9.77826e-02,-4.22509e-02,8.42705e-02,-1.30628e-01,-4.22996e-02,9.31023e-02,-1.21737e-01,1.35681e-01,-3.40775e-02,-1.06447e-01,-7.13264e-02,-1.15231e-01,4.57247e-02,-2.11132e-01,-1.10322e-01,7.21117e-03,-3.67315e-02,-6.38894e-03,8.80910e-02,-2.63321e-02,-3.15462e-02,8.59540e-03,1.31194e-02,-1.06756e-01,1.46802e-01,-1.81045e-01,-9.76331e-02,
-1.18815e-01,-1.52000e-01,8.85287e-02,-3.02533e-02,-7.37468e-02,-8.59217e-02,2.43061e-02,1.45375e-01,-1.62080e-01,1.57582e-01,1.25808e-03,-2.60578e-02,-1.14430e-01,-5.93611e-03,-1.33455e-01,3.28210e-02,-3.13429e-02,-6.36308e-03,9.77173e-03,-2.40844e-02,-4.91361e-02,3.80939e-02,-1.10491e-01,2.03259e-02,-1.93182e-03,-4.52890e-02,-1.30760e-01,7.66708e-02,-5.24841e-02,-2.54387e-02,7.82907e-02,-2.65836e-03,1.70519e-01,-3.63650e-02,6.70368e-02,-4.74184e-02,8.57023e-02,-5.63470e-02,-5.71006e-02,-1.21644e-01,-2.36124e-01,5.76912e-02,-3.39772e-02,-9.58479e-02,-6.96331e-03,-4.59168e-03,-8.51471e-02,1.30148e-01,1.35134e-01,-7.09807e-02,-1.75766e-01,1.16564e-02,9.90458e-02,-1.18231e-01,-2.91326e-02,7.15134e-02,5.49879e-02,1.01386e-01,1.66743e-01,3.10757e-02,5.33434e-02,-7.53958e-02,3.49886e-02,4.10923e-02,-1.64430e-01,-3.14063e-02,-1.44926e-01,-9.02136e-02,3.37549e-02,-7.30388e-02,-9.07206e-02,-1.17934e-01,-1.21821e-01,5.74685e-02,-3.23265e-02,1.62292e-02,9.75651e-02,-1.09666e-01,-1.33300e-01,8.02732e-02,-7.93748e-02,4.04636e-02,1.11619e-01,-4.20440e-02,-1.86218e-01,-1.15067e-01,-1.16723e-01,-9.58337e-02,-1.78884e-01,9.77219e-02,-1.81771e-01,-6.10782e-02,-8.18853e-02,-1.19748e-01,-9.73832e-02,1.40637e-01,-3.55399e-02,-1.23325e-01,-1.11327e-01,-2.79700e-02,2.10255e-02,6.33275e-02,-4.86993e-02,6.71595e-02,1.96407e-02,6.45839e-02,-7.48035e-02,-1.55115e-01,-7.46974e-02,8.72717e-02,-6.52870e-02,-1.04593e-01,-8.28125e-02,1.01081e-01,4.49179e-02,1.16151e-02,-4.31845e-02,-1.48258e-01,5.44911e-02,9.65821e-02,-1.54274e-01,6.77829e-02,6.36178e-02,1.12561e-01,8.75175e-02,2.07499e-01,-1.48826e-02,4.67083e-02,3.00636e-02,-1.23233e-02,-6.13510e-02,-6.11822e-02,4.67072e-02,-9.33029e-02,3.20207e-02,-1.05190e-02,-5.45578e-02,1.42684e-01,7.48944e-02,1.14575e-01,4.28221e-02,1.54169e-02,-5.10042e-02,8.91835e-02,2.95526e-02,1.02770e-02,1.65610e-01,1.26718e-01,-1.81887e-02,2.78348e-02,3.61440e-02,-6.03582e-02,3.44658e-03,5.01485e-02,-1.41867e-01,3.35112e-02,-2.78165e-02,-2.63755e-02,-8.96382e-02,-6.73709e-02,9.96802e-02,-1.55397e-01,1.62179e-02,-1.10429e-01,6.63631e-03,6.96197e-02,4.26455e-03,-1.38378e-01,-1.06455e-01,1.74903e-01,-2.05567e-02,-8.42370e-02,1.10248e-02,6.90582e-02,1.26336e-03,6.59527e-02,-4.23082e-02,1.17543e-01,-6.29991e-02,1.13474e-01,8.33184e-02,1.15732e-01,5.13549e-02,4.31951e-02,5.16234e-02,1.23759e-02,8.80003e-02,-7.29342e-02,1.40459e-02,-9.14532e-02,-1.31732e-02,-9.14783e-02,3.82164e-02,-1.16084e-01,1.41300e-01,4.12914e-02,3.08720e-02,-2.22622e-02,9.61502e-02,1.19146e-01,-7.97225e-02,-9.93223e-02,1.06195e-01,8.86072e-02,2.15491e-01,2.03253e-01,6.56599e-02,3.90237e-02,5.69336e-02,1.34669e-01,-7.90146e-02,4.78734e-03,7.71764e-02,-1.59055e-02,6.61549e-02,4.38155e-02,3.34458e-02,-7.95826e-02,4.28573e-02,-8.40049e-02,-4.70460e-02,-1.05112e-01,-7.99106e-02,-9.25918e-02,-6.78525e-02,9.29168e-02,1.17799e-01,1.31505e-01,9.25995e-02,1.53826e-01,6.23639e-02,-6.01345e-03,9.23018e-02,1.11519e-01,-8.98007e-02,4.66365e-02,-5.96578e-02,-4.37964e-02,4.18611e-02,7.63572e-02,-5.95742e-03,5.13041e-02,-9.00450e-02,1.08985e-01,1.29681e-01,5.40051e-02,1.50908e-01,1.60134e-01,1.03533e-01,2.94982e-02,8.78579e-02,4.05436e-02,-2.71898e-02,8.51783e-02,3.84881e-02,-1.37691e-02,-8.80276e-03,1.29130e-01,1.44223e-01,5.30210e-02,1.22096e-01,-6.90279e-03,3.80735e-02,-1.35878e-01,2.43274e-02,3.05412e-02,8.66517e-02,9.03489e-02,1.75395e-01,1.80314e-01,4.50127e-03,1.09629e-01,-5.92307e-02,6.79360e-02,7.49827e-02,1.83114e-02,6.40587e-02,2.68197e-01,1.68638e-01,4.77780e-02,-2.64479e-02,-3.79170e-02,-8.14512e-03,-1.11870e-01,4.95905e-02,6.97603e-02,-8.88887e-02,-1.68939e-01,-3.69943e-02,-8.62761e-02,-3.24014e-02,-1.85965e-02,-8.96422e-02,-2.46418e-02,1.39204e-01,3.89659e-02,4.17743e-02,-5.29386e-02,1.33503e-01,4.94614e-02,2.29152e-01,4.67435e-02,3.26562e-02,2.07878e-02,-7.80500e-02,2.22356e-01,-6.20197e-02,-1.74079e-03,-1.36676e-02,-1.05346e-01,1.61506e-01,8.64168e-02,-1.01301e-01,7.26973e-02,5.47455e-02,-1.99446e-01,1.42656e-01,1.28875e-01,-4.76304e-02,-1.28537e-02,2.00584e-01,2.09385e-01,1.61556e-01,2.10007e-01,1.46094e-01,9.18254e-02,-8.47830e-02,8.62833e-02,5.57216e-02,1.31767e-01,-1.21857e-01,-4.14135e-02,1.21856e-01,1.61262e-01,1.18052e-01,9.43373e-02,-9.09611e-02,2.14129e-01,2.18171e-02,3.28450e-02,-1.27200e-02,-7.17433e-02,1.76600e-02,-1.18183e-01,1.77816e-02,4.18876e-02,1.31086e-02,-3.82797e-02,-3.96462e-02,2.89512e-02,1.02587e-01,2.04375e-01,-1.07609e-01,6.69754e-02,5.81840e-02,1.80034e-01,-1.76765e-03,-4.44733e-02,-9.24528e-03,-1.34016e-01,-2.19263e-01,-7.64012e-02,2.01615e-01,6.14991e-02,1.11316e-01,1.92589e-01,7.34887e-02,8.81456e-02,1.01175e-01,4.85351e-02,-1.83755e-02,-6.48295e-02,-1.32325e-01,1.29835e-02,-9.05350e-03,-3.68468e-02,3.57379e-02,-1.03205e-01,-4.55483e-02,1.92876e-02,1.44855e-01,1.31997e-02,-9.08701e-02,2.27803e-02,-7.41517e-03,-5.45961e-02,-7.19141e-02,-8.53354e-02,-6.57877e-02,-6.38263e-02,-5.35440e-03,-1.18699e-01,2.75818e-02,1.47651e-01,6.39853e-02,1.12339e-01,1.97522e-02,5.72566e-02,-1.92485e-02,-1.13420e-02,1.26600e-01,7.65699e-02,2.33821e-02,1.30895e-01,-3.44321e-03,-6.09252e-02,2.47482e-02,-4.60935e-02,1.19310e-01,-8.16049e-02,7.87558e-02,3.54701e-02,-1.37410e-01,1.65577e-01,-2.07607e-02,7.48952e-02,-1.77234e-01,-3.90908e-02,-1.45341e-01,6.38066e-02,3.25806e-02,7.40919e-02,2.38669e-02,-3.99004e-02,-1.09409e-03,-5.08309e-02,-7.67893e-02,-1.99680e-02,-1.96311e-02,3.65107e-02,9.72101e-02,-6.65624e-02,5.71608e-02,1.21347e-02,-6.95679e-02,-5.61795e-03,-7.72515e-03,1.62818e-01,7.56726e-02,4.40361e-02,1.35230e-01,5.39159e-02,6.56269e-02,-6.88386e-03,-5.37613e-03,-7.33437e-02,7.70643e-02,1.02014e-01,1.98025e-01,-4.81117e-02,2.12405e-01,-3.21315e-02,-6.90079e-02,5.23673e-02,-2.28907e-01,-4.77427e-02,-1.18617e-01,-1.04754e-01,-1.39254e-01,-1.04426e-01,-5.57876e-02,-7.38654e-02,7.64036e-02,4.13951e-02,7.60636e-02,-2.36993e-03,1.47574e-01,-2.54186e-02,5.91679e-02,1.59141e-01,5.58448e-02,1.00706e-01,-1.73365e-02,-1.20830e-01,-2.64361e-02,6.27373e-02,1.72205e-01,7.30625e-02,1.10333e-01,1.53214e-02,-4.07848e-03,-7.30389e-02,-8.94869e-02,-3.23832e-02,-1.89396e-01,5.71774e-02,-1.56546e-01,-7.90412e-02,-3.16819e-02,1.08080e-02,-3.04685e-02,-1.16173e-01,2.08940e-02,1.95988e-01,2.69688e-02,-2.64529e-02,-7.96195e-02,5.56643e-02,5.79870e-02,-7.33737e-02,-1.03749e-01,-1.20786e-01,-1.93259e-01,-7.26442e-02,-5.21545e-02,-1.51117e-01,1.31945e-02,1.15097e-01,8.72964e-02,4.43237e-02,9.17716e-02,2.72816e-02,-6.86421e-02,3.40514e-02,-1.21670e-01,-1.21523e-01,-7.63885e-02,7.64369e-02,-1.00303e-01,1.58392e-02,1.37659e-01,-7.16242e-02,9.98625e-02,3.00359e-02,1.33321e-01,8.26935e-02,-8.37057e-02,-8.47332e-02,-5.97601e-02,-6.24591e-02,-4.52500e-02,-1.50309e-01,-2.46657e-03,1.68660e-02,3.80601e-02,1.28319e-01,7.10834e-02,9.94892e-02,4.14425e-02,-1.71344e-01,-6.64557e-02,-9.34662e-03,-1.86537e-01,5.50800e-02,-8.68288e-02,1.41007e-01,2.40493e-02,2.16029e-02,-3.06130e-02,9.08193e-04,1.75237e-03,2.97085e-02,-4.03965e-02,7.24301e-02,-4.99146e-02,-4.77464e-02,-1.43744e-01,-3.13333e-02,-8.39507e-02,-6.61869e-02,4.73948e-02,-1.01792e-01,-7.20864e-02,-1.29525e-01,-1.12972e-01,1.09777e-01,5.70441e-02,1.82714e-01,-2.32782e-02,-7.50882e-02,5.77197e-03,1.11897e-02,8.36542e-02,1.69778e-02,-7.59585e-02,-9.77463e-02,7.77512e-02,-7.24220e-02,5.39187e-02,8.96548e-02,-1.22613e-02,-1.66184e-01,-6.33709e-02,-1.07064e-02,-1.06762e-01,-2.93808e-02,-6.35937e-02,6.47109e-02,2.51893e-02,-1.12034e-01,-8.76839e-03,1.24266e-02,-4.34286e-02,5.79699e-02,-1.33185e-01,-3.66133e-03,-1.53048e-01,1.26875e-01,-6.53386e-02,-1.81840e-02,-2.15005e-03,-1.97521e-01,-5.56713e-02,1.60617e-01,1.64527e-02,8.11363e-02,-1.85539e-01,-2.95285e-02,-2.73398e-02,-3.47982e-02,-1.59207e-01,-1.04372e-01,7.47434e-02,-3.44687e-02,-5.91237e-03,-1.21980e-01,1.11193e-02,-1.28637e-02,1.97088e-02,-8.45554e-02,-8.26952e-02,2.80470e-02,1.30120e-01,-6.42986e-02,-1.97321e-01,1.79089e-01,-4.87551e-02,-3.47321e-02,-1.08991e-01,1.36854e-01,-5.13796e-02,-4.06357e-02,8.91793e-02,-7.14745e-02,-6.57299e-03,-6.46472e-02,6.73116e-02,-1.06838e-01,-4.49603e-02,-4.11400e-02,-9.68987e-02,-1.77723e-02,1.57629e-01,-9.14934e-02,-6.59236e-02,-3.87544e-02,1.48183e-01,1.39189e-01,2.00322e-01,6.45949e-02,1.60991e-01,1.32398e-01,9.69861e-02,3.94558e-02,1.02139e-01,6.68319e-02,-4.94260e-02,4.77573e-02,1.12240e-01,1.62225e-02,1.40680e-01,-5.75653e-02,1.12283e-01,-1.40051e-01,-1.20349e-01,8.91160e-03,-5.05150e-02,-7.33284e-02,3.99505e-02,8.85308e-03,2.35480e-02,5.20242e-02,2.81355e-02,6.73345e-02,6.73901e-02,1.65649e-02,1.03788e-01,2.00848e-01,7.66844e-02,5.73576e-02,-7.67861e-02,7.96131e-02,1.32037e-01,1.21498e-01,1.75031e-02,2.13647e-01,-7.45693e-03,2.23488e-01,-8.44700e-02,-5.88632e-02,-1.25674e-01,-1.68733e-01,-1.52138e-01,-1.89441e-01,-3.17814e-02,-2.37692e-01,6.92669e-02,1.35953e-02,-1.10744e-01,-3.02412e-02,-1.02890e-01,-9.88114e-03,-9.86947e-02,9.81133e-02,8.31485e-02,-1.08583e-02,2.01412e-02,1.03425e-01,2.37771e-01,-2.44918e-02,9.24368e-02,-6.59815e-03,2.14671e-01,1.62273e-01,2.02082e-01,1.53504e-02,5.20814e-02,-3.30558e-02,2.41128e-02,1.72913e-01,-4.83480e-02,-6.37406e-02,-8.19074e-02,2.95479e-02,1.18026e-01,-1.68001e-01,-4.70784e-02,5.92772e-02,8.56062e-02,9.10403e-02,7.85072e-02,6.73914e-03,-6.74291e-02,-1.31040e-01,-1.02175e-02,1.14647e-01,2.02497e-01,-1.14317e-01,9.28234e-02,-1.62036e-01,5.75779e-02,4.89615e-02,2.03374e-02,1.21380e-01,1.14255e-01,1.65589e-01,-3.55126e-03,5.04515e-02,-1.03238e-01,1.14638e-01,-9.15133e-02,8.37851e-02,5.74220e-02,-3.74906e-02,1.40215e-01,-3.63292e-02,9.21162e-02,1.04382e-02,-3.48017e-02,1.00185e-01,1.29056e-01,-1.70372e-01,-8.74435e-02,6.25181e-02,4.81902e-02,-2.40217e-02,9.45393e-02,4.25474e-02,-1.85220e-01,7.38010e-03,-5.73177e-02,4.86791e-02,-1.18636e-02,-6.42827e-02,2.22486e-01,2.84961e-02,-1.13510e-01,1.09328e-01,-5.51291e-02,1.19030e-01,-1.07099e-01,-1.03601e-01,-3.66424e-02,1.26060e-01,
7.59243e-02,-2.94741e-02,-4.96796e-02,-2.51719e-03,1.12353e-01,3.46693e-02,-1.03580e-01,-4.42571e-02,-6.44568e-02,4.47572e-02,-1.45076e-01,8.25447e-02,2.96723e-02,-9.66575e-03,-1.23519e-02,1.71278e-01,7.61984e-02,1.03169e-01,1.35163e-01,-1.07390e-02,-1.32087e-01,1.00484e-01,-1.72417e-01,-8.79440e-02,-9.34652e-02,-1.35405e-01,1.94954e-01,-4.38359e-02,1.78684e-02,7.88478e-02,-1.98640e-01,4.21413e-02,1.93109e-02,6.80859e-02,1.38540e-01,-5.49629e-02,4.59935e-02,-2.59987e-02,-1.53831e-01,9.90272e-02,-9.35753e-03,1.57881e-01,5.75683e-02,1.47104e-01,9.34085e-02,2.68622e-02,-4.71028e-02,7.25842e-02,-3.24572e-02,5.88848e-02,1.45339e-01,1.51050e-02,2.15203e-02,-8.67801e-02,-6.01236e-02,1.29692e-02,6.54816e-03,-6.13932e-02,-1.41277e-01,1.13439e-01,9.35629e-03,1.97022e-04,3.97939e-02,1.29215e-01,-7.79697e-02,-5.60983e-03,5.76447e-02,1.08937e-01,1.61620e-01,-4.37884e-02,-1.80464e-02,-6.87982e-02,-3.77710e-02,7.32777e-02,-6.62352e-02,4.57800e-03,3.40494e-02,-7.28367e-02,-1.07580e-01,1.77403e-01,1.63133e-01,1.61665e-01,-1.47085e-01,-3.56610e-02,4.48199e-02,4.44726e-02,-1.16849e-01,-2.65619e-02,-4.89434e-02,-1.04524e-01,-1.74143e-01,-1.38446e-01,-8.84786e-03,-7.71989e-03,-8.81283e-02,9.37043e-02,2.15609e-02,-1.25160e-02,3.93205e-02,-1.26515e-01,-7.18174e-02,2.00360e-02,8.80449e-02,-7.81295e-02,9.81490e-02,3.77154e-03,-5.99286e-02,-9.87481e-02,-3.64684e-02,1.20031e-01,7.01235e-02,-1.90285e-01,-1.15721e-01,-6.16244e-02,1.12936e-02,6.44174e-02,6.90775e-02,-1.07638e-01,-9.31330e-02,1.71126e-01,5.26427e-02,7.64306e-02,-3.67993e-03,1.91624e-01,-2.35813e-02,1.37723e-01,8.12752e-02,4.50834e-02,-3.33153e-02,2.67788e-03,-3.21906e-02,-9.92356e-02,5.27630e-02,6.07732e-03,-3.30954e-02,5.84373e-02,1.40807e-01,-2.09233e-01,-9.18288e-02,1.74394e-01,1.13829e-01,-8.55639e-02,-1.23059e-01,1.66175e-02,9.51971e-02,-1.06649e-01,1.55215e-01,1.66624e-01,8.52524e-02,1.22159e-02,-1.94730e-02,8.37008e-02,-4.86237e-03,4.88515e-02,8.27211e-02,7.83678e-03,-1.67678e-02,6.19902e-02,-5.22782e-02,9.07039e-02,3.10411e-02,5.97755e-03,-3.68375e-02,4.47086e-02,-5.86617e-02,6.62056e-02,-1.60539e-03,-7.21851e-02,6.50271e-02,6.49420e-03,3.65216e-02,5.24869e-02,1.72083e-01,4.56404e-02,-2.86939e-02,-1.91609e-02,1.02663e-01,1.35392e-01,1.02590e-02,2.02236e-02,8.85438e-02,-4.27566e-03,-1.30788e-02,-1.67414e-01,1.11687e-02,-4.52487e-02,1.22732e-02,-7.69348e-02,4.87868e-02,8.03492e-02,1.53021e-02,2.50964e-02,-1.14074e-01,-1.31988e-01,-4.59157e-02,-7.87068e-02,3.55829e-02,-6.33003e-02,3.03241e-02,8.25387e-02,-1.82456e-02,-1.29446e-01,8.77350e-02,5.17972e-02,8.72454e-03,5.18055e-02,2.15778e-02,1.92727e-02,1.36404e-02,1.26626e-01,-8.60234e-02,1.70375e-01,7.53508e-02,-8.68043e-02,7.07621e-02,-9.26209e-02,7.36563e-04,-6.48863e-02,1.11352e-02,-2.08821e-01,4.32264e-02,-1.10155e-01,-8.69317e-02,-1.64740e-01,1.00635e-01,-1.11534e-01,-9.03471e-02,1.51105e-01,2.16885e-01,1.54441e-01,1.80046e-01,-1.12448e-01,-1.30555e-02,-8.77694e-02,-1.16123e-01,1.00566e-01,1.29285e-01,-6.60602e-02,4.18335e-02,1.61188e-02,1.61214e-01,1.99708e-02,2.03128e-01,1.06652e-01,5.38025e-02,7.62776e-02,1.60953e-01,-4.68212e-02,-1.70557e-01,5.09806e-02,-6.57328e-02,4.57284e-02,-4.72982e-02,9.20209e-03,3.93622e-02,-9.47862e-02,-2.29181e-02,8.54023e-02,-6.67638e-02,2.97615e-02,1.17348e-01,5.13558e-02,4.55997e-02,1.82277e-02,4.56413e-02,6.92444e-02,1.10277e-01,6.81144e-02,-9.71238e-02,5.63177e-02,5.68973e-02,8.33686e-02,9.40243e-02,-9.59350e-02,-3.16859e-02,9.05101e-03,-1.35817e-01,-3.20123e-01,-1.55429e-01,-2.48503e-02,-2.71294e-02,-1.24870e-01,1.07040e-01,-4.29398e-02,-1.32065e-01,-1.59585e-01,-3.74379e-02,1.17271e-01,3.49055e-02,3.25774e-02,-1.32336e-01,8.62460e-02,-3.14839e-02,-7.85614e-02,1.86565e-02,-4.78407e-02,7.61144e-02,5.72304e-02,1.37440e-01,-7.07098e-02,3.82797e-02,-5.97345e-02,-2.72779e-02,-6.91292e-02,3.27742e-02,-1.34448e-01,-2.15039e-01,-1.47706e-01,1.53878e-01,5.16824e-02,5.48623e-02,-6.13990e-02,-7.59962e-02,-3.64863e-02,-1.16784e-01,7.05818e-02,-2.40875e-02,5.42923e-02,-1.92015e-02,-5.02043e-03,-8.08513e-02,-8.89894e-02,-2.26351e-01,-1.25696e-01,-1.55249e-01,-8.75884e-02,-4.59175e-03,9.22396e-02,1.70754e-01,-9.72450e-02,-6.22546e-02,-2.21722e-03,7.26625e-02,-2.07562e-01,-1.01649e-01,-1.69946e-02,-1.88941e-02,-3.78415e-02,-3.69118e-02,-4.09218e-02,-5.12587e-03,-1.65904e-01,4.47444e-02,4.23942e-02,-1.03968e-01,-7.94915e-03,9.86146e-02,-1.60744e-02,-9.10497e-02,-8.75285e-02,-1.65445e-01,-1.28917e-01,-1.21203e-01,1.23820e-02,-1.20873e-01,5.53436e-02,1.40613e-01,-7.45758e-02,9.09327e-02,1.41048e-01,1.42118e-01,5.49774e-02,9.10853e-02,1.53563e-01,2.34607e-02,2.01488e-01,1.94131e-01,-5.18816e-02,-6.20279e-02,-4.06766e-02,-1.49651e-01,1.48404e-01,-1.19065e-02,-1.78560e-01,-1.17202e-02,-3.97418e-03,-1.56829e-02,-1.20113e-01,-2.73528e-01,-1.70798e-01,1.75115e-02,-1.67505e-01,-1.33048e-01,-1.12950e-01,1.42430e-01,1.45073e-02,1.38738e-02,1.58722e-01,1.52491e-01,8.29642e-02,-8.47427e-02,-1.29618e-02,-1.16882e-01,-1.11414e-01,6.01251e-02,-6.28659e-03,1.30202e-02,-5.33679e-02,1.28441e-01,9.82845e-02,-2.14003e-02,5.81738e-02,-1.16014e-01,-5.86177e-02,3.97729e-02,-4.74519e-02,-1.23400e-01,-8.67523e-02,4.49661e-02,4.97255e-02,6.74725e-02,1.12187e-01,4.75728e-03,-5.79559e-02,1.05658e-01,7.20859e-02,3.18190e-02,1.04354e-03,2.52121e-01,7.20746e-02,8.21942e-02,-7.89481e-02,-1.60800e-02,-2.58889e-02,-1.06258e-02,1.33356e-01,1.62745e-01,9.31925e-02,2.50433e-01,-3.65620e-02,3.94126e-02,1.02614e-01,-4.48532e-02,-9.02702e-02,-5.68336e-02,-9.96437e-02,5.57913e-02,1.95434e-02,-5.18444e-02,-4.03225e-02,-1.14381e-01,8.58512e-02,3.35910e-02,1.26405e-01,1.94511e-02,8.33093e-02,7.01354e-02,1.29370e-01,-4.34095e-02,-1.54174e-01,2.81352e-02,4.89490e-02,-5.80429e-02,1.02371e-01,-3.46213e-02,1.36013e-03,2.54405e-01,1.67924e-01,1.17851e-01,1.33395e-01,4.03279e-02,2.45179e-02,1.42882e-02,2.80736e-02,2.08857e-01,9.74591e-02,7.41213e-02,-6.90357e-02,-8.36099e-03,2.19384e-01,-6.70599e-02,-1.07323e-01,2.00974e-01,2.39742e-01,1.92896e-01,-1.69024e-02,-9.77965e-02,1.18121e-02,-9.91085e-02,-1.02631e-01,-1.08174e-01,-4.97343e-03,1.46386e-01,1.01637e-01,6.22564e-02,9.02251e-03,2.97895e-01,9.78369e-02,1.06067e-01,1.64419e-01,4.23940e-02,1.28413e-01,2.75135e-02,1.06967e-01,1.34283e-01,-1.11366e-01,1.29255e-01,-1.59966e-01,8.37342e-02,-1.96587e-02,-7.05609e-02,8.32913e-02,9.19198e-02,-1.21714e-01,2.01782e-01,-1.56588e-01,-7.37647e-02,1.05920e-01,-1.68935e-02,-9.46610e-03,2.28069e-02,3.31031e-02,1.76214e-01,4.06147e-02,1.56048e-01,2.63197e-02,1.12787e-01,-6.63040e-02,-3.84780e-02,-7.32552e-02,1.39976e-01,2.97372e-02,9.04413e-02,1.33229e-03,7.98142e-02,-1.53830e-01,1.84250e-02,-8.26864e-02,1.73176e-01,-3.81818e-02,2.65833e-02,1.59280e-01,-1.01369e-01,1.15785e-01,2.05392e-02,3.26163e-04,2.02689e-01,9.11712e-02,9.02946e-02,-6.07398e-02,5.61074e-02,1.51096e-01,1.17923e-01,2.25454e-01,1.44879e-02,1.51855e-01,-1.11307e-01,1.51952e-01,4.01765e-02,-3.34982e-02,-1.21760e-01,9.86078e-02,-1.20902e-01,4.95147e-02,-1.04239e-01,-2.18956e-03,4.48777e-02,3.96954e-02,-1.96915e-03,-3.11587e-03,-1.10615e-01,-1.50271e-01,3.84119e-02,-1.20183e-01,1.13768e-01,-1.74113e-02,-6.20842e-02,2.26377e-03,-5.34748e-02,1.11325e-01,1.90052e-01,2.40103e-01,1.16096e-01,9.05871e-03,7.77042e-02,-1.51295e-01,-1.94901e-01,-7.25190e-03,-2.26047e-02,-6.22894e-02,2.00957e-02,-6.28784e-02,-7.63339e-02,7.05832e-03,-3.52459e-02,-1.94727e-02,-2.86603e-02,1.44680e-02,7.60351e-02,1.36646e-02,1.40483e-01,8.11644e-02,-1.89239e-02,-7.59676e-02,-1.33097e-01,1.17669e-01,-1.65146e-02,4.67697e-02,9.60527e-02,2.04315e-01,1.72694e-02,1.96958e-01,1.66943e-01,-3.55406e-02,-2.35737e-02,-1.10289e-01,3.41180e-02,2.95566e-02,1.31199e-01,-6.37802e-02,-2.71493e-02,-3.24322e-02,9.33671e-02,1.91375e-02,-1.99577e-02,-1.04951e-01,-1.31183e-01,-8.78740e-02,-1.15209e-01,-1.08044e-01,9.07803e-02,1.69761e-02,-1.63487e-02,-2.08358e-02,2.28848e-01,3.71373e-02,1.11395e-01,4.07563e-02,-4.73576e-02,1.87203e-01,-1.10646e-03,2.56153e-02,3.55661e-02,-6.26591e-02,3.57427e-02,-1.72837e-02,-1.19785e-01,6.61192e-02,4.11676e-02,-2.00422e-02,-2.03248e-02,-1.07885e-01,1.02334e-01,-3.57478e-02,-2.69273e-02,-3.04859e-02,7.28031e-02,-5.78393e-02,-1.56072e-01,-2.22499e-01,8.16938e-02,-2.63066e-02,-3.44405e-03,-1.98282e-02,2.04334e-02,2.07029e-01,1.16984e-01,3.89445e-02,1.55755e-01,-3.50732e-03,6.32530e-02,-1.67076e-02,4.56525e-02,-1.77100e-02,7.58635e-02,8.99297e-02,1.05793e-01,-5.59308e-02,-3.58545e-02,1.19122e-02,-1.45388e-01,-9.89361e-02,-1.39684e-02,1.12087e-01,-8.82904e-03,-1.91074e-02,4.14180e-02,6.16721e-03,-5.81930e-02,4.78515e-02,6.35097e-02,-7.56409e-02,-1.10687e-01,-5.34760e-02,-6.44552e-02,-1.02708e-01,4.46325e-02,-1.50807e-01,-7.77827e-02,6.88745e-02,-1.05528e-01,-6.31059e-02,-1.53505e-01,1.42879e-02,3.58030e-02,-1.12218e-01,-1.51146e-02,8.80770e-02,6.56648e-02,-8.22732e-02,1.87001e-01,-2.89429e-02,9.14113e-02,-1.63331e-01,4.56440e-02,6.81471e-03,-7.52421e-02,1.26528e-01,5.03080e-02,-1.67185e-01,-8.87407e-02,-1.72507e-01,-1.57284e-01,-7.14777e-02,-5.12937e-02,-3.85002e-02,-1.82206e-01,-1.26648e-01,-1.12973e-01,-7.81564e-02,2.88845e-02,-1.32368e-01,-1.23943e-01,-1.37988e-01,1.03361e-01,4.49389e-02,7.59147e-02,1.08872e-01,-1.69208e-02,-3.88723e-02,8.32379e-02,-3.55868e-02,-5.25128e-02,-6.32777e-02,-6.54676e-02,6.18528e-02,-2.28612e-02,-1.09140e-01,-2.38687e-02,-1.42484e-01,-1.17928e-01,6.81046e-02,2.46340e-02,-9.47331e-02,1.23832e-01,-6.24655e-02,-5.44258e-02,4.42430e-02,-4.48101e-02,-6.11702e-02,-5.09442e-02,-9.23712e-02,-6.00269e-02,1.64007e-01,1.03854e-01,-1.73288e-02,-2.97193e-02,-9.41258e-02,1.48687e-01,-1.53864e-01,1.55427e-01,1.03589e-01,-9.53371e-02,4.39882e-02,9.83128e-02,-3.75131e-02,3.29996e-02,4.88033e-02,-3.75413e-02,8.95863e-02,1.42522e-01,-3.05785e-02,1.27469e-01,-1.80102e-02,-5.65118e-03,4.46501e-02,-2.15135e-02,-1.24513e-02,-1.98707e-01,-2.05860e-01,-5.04497e-02,-1.05633e-01,-8.02239e-02,5.47512e-02,
8.80769e-02,5.78885e-02,-4.11295e-02,-8.51885e-02,-4.69016e-02,-1.66568e-02,3.69397e-02,-4.64114e-02,-2.16287e-02,-7.71665e-02,-1.64556e-01,8.13165e-02,-1.09220e-01,2.56300e-03,-8.13959e-02,-2.03916e-02,2.55298e-02,-3.17208e-02,-2.85616e-02,-1.89999e-01,-5.83674e-02,9.93289e-04,-4.03770e-02,1.01384e-02,-8.68661e-02,-8.20370e-02,8.58379e-02,-1.12187e-01,2.81708e-02,1.15407e-01,-2.78668e-02,-1.24309e-01,1.17112e-01,-8.56995e-02,-3.56694e-02,-1.79190e-01,1.26736e-01,-1.04316e-01,-8.22159e-03,-1.76523e-01,-2.79756e-02,-8.89821e-02,-7.46487e-02,1.30341e-02,-3.97363e-04,1.08089e-01,3.34791e-02,-1.42905e-01,9.21130e-02,-9.71460e-02,-9.44766e-02,-1.62884e-02,-2.22119e-02,-5.08423e-02,8.04896e-02,-8.06124e-02,-4.84683e-02,1.10262e-02,8.18321e-02,7.27074e-02,-1.06642e-02,-4.56441e-02,-7.96165e-02,-8.08193e-02,-1.85414e-01,-1.19072e-01,-2.03683e-01,-1.25760e-01,5.10086e-03,-4.55805e-03,1.30224e-03,-6.11209e-02,-6.11711e-02,6.92667e-02,-2.32701e-02,-1.73640e-02,-1.89185e-01,-5.87830e-02,-1.21658e-02,-9.67920e-02,8.27349e-02,1.22310e-01,5.58867e-03,4.52918e-02,-5.64880e-02,-5.62278e-02,7.54167e-02,-1.99864e-02,1.19072e-01,6.64716e-02,2.72197e-02,-1.64162e-01,1.01168e-01,-1.54411e-01,-1.41579e-01,-6.62417e-02,-5.25394e-02,2.77704e-02,2.93660e-02,8.04424e-02,4.55520e-02,-6.49238e-03,9.08184e-02,-1.17833e-01,-1.32360e-01,4.11818e-02,-8.70856e-02,3.29444e-03,-1.22361e-01,9.04511e-02,-1.84797e-01,8.43774e-03,1.46761e-02,1.18281e-01,1.34916e-02,9.25675e-02,-6.83349e-02,1.87275e-04,1.19615e-01,-9.36129e-02,7.99878e-03,-1.23847e-02,-1.41026e-01,-1.24258e-01,-9.52789e-02,9.49362e-02,-8.84341e-02,-6.18778e-02,-4.85228e-02,-2.85652e-03,-3.97810e-02,1.58086e-02,-1.33948e-02,-9.98732e-02,-2.72063e-02,1.67569e-01,1.19432e-01,3.37719e-02,4.24754e-03,-1.16391e-01,-1.18556e-01,1.87990e-01,2.70142e-02,3.38398e-02,-9.83080e-02,4.86006e-02,-1.11183e-01,1.31544e-01,-3.49293e-02,-5.24336e-02,4.53745e-02,-2.44313e-02,6.17352e-02,8.13699e-02,2.10581e-01,9.26209e-02,4.33319e-02,-3.33285e-04,-1.11600e-01,-8.47835e-03,1.58122e-02,5.14467e-02,-4.85693e-02,-3.55319e-02,9.42405e-02,7.79975e-02,3.38844e-02,1.56295e-01,4.66700e-02,-1.86536e-02,-9.17641e-02,2.69361e-02,-3.42568e-02,5.35470e-02,4.18524e-02,4.55561e-02,-1.29266e-01,2.60051e-02,1.68417e-01,-2.49857e-02,2.84397e-02,2.73866e-03,-9.15440e-02,2.01942e-01,-1.66868e-02,-1.27974e-01,-1.78895e-01,9.22332e-02,-2.42340e-02,-7.99733e-02,1.87021e-02,-1.38523e-02,-1.24066e-02,7.89961e-02,2.19937e-02,-3.11416e-02,-3.85588e-02,7.70458e-03,2.04624e-01,-6.03673e-02,2.25276e-02,1.71615e-01,1.19717e-01,8.47691e-02,-7.43157e-02,4.86968e-02,8.39569e-02,-2.06920e-02,2.08828e-01,4.42379e-02,8.99026e-02,-1.77351e-02,7.79334e-03,-1.01520e-02,-2.00766e-01,-4.57622e-02,1.51616e-01,-3.96390e-02,3.27766e-02,-2.79338e-02,1.82641e-01,8.55256e-02,1.48300e-01,4.37714e-02,5.91943e-03,1.44094e-01,-7.50025e-02,-4.25007e-02,-2.53844e-02,4.13088e-02,-9.72415e-02,6.63258e-02,-7.70746e-02,9.39402e-02,1.40469e-01,-6.20186e-02,-5.47312e-02,-3.07731e-02,8.76456e-02,3.62067e-02,-1.47229e-01,-8.49967e-02,-5.63937e-02,-7.07538e-02,6.98608e-02,6.49133e-02,5.20669e-03,2.02825e-01,6.79782e-02,-1.56362e-01,8.61965e-02,5.05828e-02,7.53330e-02,-3.35522e-03,7.96255e-02,1.03744e-01,-5.28405e-02,-5.91227e-02,1.10959e-01,-2.97545e-02,-4.56483e-02,-1.21299e-01,6.25316e-02,6.61230e-02,1.75599e-01,-5.65790e-02,2.03233e-01,6.89157e-02,-1.53416e-01,-2.00910e-01,-2.08012e-01,-1.58190e-02,-6.01191e-02,2.74997e-02,4.05376e-02,-4.79628e-02,-1.48900e-01,1.27154e-01,1.12288e-01,4.46097e-02,8.20674e-02,9.50779e-02,-1.49640e-02,4.59569e-02,2.68948e-02,-2.38024e-02,7.99608e-02,-5.92611e-02,1.31282e-01,-2.80378e-02,-9.00108e-02,-5.85268e-02,-2.39533e-03,1.29031e-01,7.23585e-02,5.27080e-02,-9.61494e-02,-7.16052e-03,-1.25089e-01,9.71919e-02,1.42600e-01,-4.32475e-02,1.00798e-01,1.41090e-01,-5.87242e-02,-1.29513e-02,-1.84988e-01,-9.14918e-03,4.36500e-02,-1.14804e-01,2.38794e-02,1.70607e-01,-2.66381e-02,1.90137e-01,1.05354e-01,2.36490e-04,-3.90875e-02,9.35122e-02,-1.18711e-01,4.70013e-02,8.06696e-02,2.08535e-02,6.57685e-03,1.07783e-01,-3.66897e-02,-1.36101e-01,-2.39028e-02,-8.22890e-02,5.82190e-02,6.19461e-02,1.87933e-01,4.30629e-02,-3.86913e-02,-1.55170e-01,2.21842e-02,2.03211e-01,1.04578e-01,-5.55951e-03,1.97363e-01,1.50426e-01,-1.31258e-01,-6.96578e-02,2.70711e-02,1.20948e-02,2.97228e-02,-1.46237e-01,-1.12493e-01,4.92095e-02,-6.51049e-02,-3.67192e-02,1.27559e-01,9.21765e-03,1.90640e-01,-1.18274e-01,2.42626e-04,1.06619e-01,3.89033e-02,1.18885e-01,4.77186e-02,-2.23876e-02,3.63566e-02,-1.28989e-01,-1.50315e-01,1.23560e-01,-5.72936e-02,2.67416e-02,1.44749e-01,-1.24935e-01,9.99566e-02,9.12566e-02,6.32392e-02,1.85047e-01,1.91909e-01,-9.29892e-02,-4.95485e-02,-3.41610e-02,7.06278e-02,-9.91325e-02,8.36352e-02,1.65270e-01,-9.70028e-02,-6.17316e-02,-5.47603e-02,1.53274e-01,6.62531e-02,1.68805e-01,1.41416e-01,-7.30418e-02,-4.25872e-02,1.92900e-02,3.70416e-02,4.50486e-02,5.40736e-02,-1.36274e-02,7.39266e-02,1.81223e-01,6.17147e-02,6.97060e-02,-4.48296e-02,-9.62360e-02,-9.43094e-02,5.17148e-02,8.83814e-02,-9.05091e-02,6.79533e-04,-9.01337e-02,-9.84892e-02,3.51426e-02,1.36889e-01,3.31615e-02,1.14873e-01,7.05732e-02,7.10274e-02,-3.23504e-02,-4.29964e-02,-1.23885e-01,-1.57966e-01,-5.74374e-02,1.34178e-01,-4.11669e-02,-8.94519e-02,1.17629e-01,-9.27011e-02,4.11010e-02,1.47018e-02,-4.76931e-02,1.36677e-01,-5.93280e-02,1.07887e-01,7.24388e-02,-1.36400e-03,-1.09800e-01,-1.39963e-01,-1.39041e-01,-5.86432e-02,5.76597e-02,1.46621e-01,4.37274e-02,8.89605e-02,9.15112e-02,-3.59136e-02,-1.45621e-02,7.93247e-02,-5.46164e-02,5.33876e-02,-1.48225e-01,-1.61239e-01,-7.17673e-02,1.10788e-01,2.07774e-02,-1.27315e-01,2.90659e-02,-5.45018e-02,4.70600e-02,-5.22609e-02,5.79919e-02,5.33941e-03,1.23217e-01,-5.09908e-02,-1.05391e-01,-1.78732e-01,-6.44869e-02,-4.29120e-02,1.15157e-01,1.26923e-01,-1.09447e-01,5.58716e-02,-1.25839e-01,8.73442e-02,-8.51966e-02,3.66120e-02,-1.95723e-01,-5.22140e-02,-9.98661e-02,-4.15642e-02,1.71658e-01,1.36515e-01,1.34342e-02,-1.77941e-02,8.73104e-02,-4.77667e-02,1.02877e-01,-8.16432e-02,8.03888e-02,6.93400e-02,1.26600e-01,-4.15026e-02,-1.03038e-01,-2.30116e-01,-1.25951e-01,2.38950e-01,2.26782e-01,6.85030e-02,-4.92924e-02,1.62533e-01,-8.27527e-02,2.58300e-02,-1.25976e-01,3.03730e-02,3.57522e-02,-1.18108e-01,-1.14631e-01,-1.16301e-01,-8.83634e-02,8.09264e-02,-8.30834e-03,2.43367e-02,6.66215e-02,5.12672e-02,-2.15186e-02,-9.34418e-02,2.76544e-02,1.46430e-02,-1.49418e-01,-1.61173e-01,-2.18048e-01,-7.34987e-02,-4.37160e-02,1.29126e-02,8.08795e-02,1.41327e-01,6.70260e-02,-7.51164e-02,1.03567e-01,1.12591e-02,4.17224e-02,-3.23013e-02,-1.45483e-01,-1.28422e-01,-9.75041e-02,1.83645e-01,1.88160e-01,-7.03715e-02,-1.10038e-01,8.62492e-02,-1.90000e-02,-6.99769e-02,-6.08373e-02,4.51533e-03,1.35973e-02,1.71982e-03,-1.13845e-01,-1.42600e-01,-4.72594e-02,-2.93558e-01,-6.02107e-02,2.52645e-01,4.84774e-02,-6.99765e-02,-6.13724e-02,-6.06965e-02,-1.08991e-01,9.87526e-02,-2.09694e-01,-1.73429e-01,-1.59125e-01,1.69781e-02,7.11766e-02,-7.73255e-02,8.02419e-03,1.36675e-01,1.40369e-02,-5.51699e-02,-1.61984e-01,-1.24065e-02,-3.19250e-02,-1.89149e-01,6.62097e-02,-2.07774e-01,-1.27698e-02,-8.16307e-02,-9.03761e-02,-1.14383e-01,1.15752e-01,6.94485e-02,1.71182e-01,9.66485e-02,1.05899e-01,1.39433e-01,-6.53936e-02,1.14611e-02,9.06287e-02,-3.22164e-02,-3.99662e-02,-3.68829e-02,-1.57547e-01,-9.97914e-02,-2.80699e-02,2.02970e-02,-3.76614e-02,-4.96638e-02,-7.90063e-02,-6.92773e-03,3.61299e-02,1.39454e-03,4.27724e-02,-1.02575e-01,4.82803e-02,-4.05100e-02,-1.62958e-01,-1.85582e-01,9.97686e-02,1.65227e-01,3.03534e-01,1.48040e-01,-1.00805e-01,-1.61289e-01,2.53961e-02,4.73978e-02,-1.79056e-02,8.29817e-02,-1.96153e-01,-8.67661e-02,1.00266e-01,2.09021e-01,4.73428e-02,-5.44041e-03,-8.26090e-02,-3.49994e-03,-5.33867e-02,-2.99919e-02,9.56595e-02,-5.66737e-03,-1.90536e-01,-5.85077e-02,1.13574e-02,-3.36773e-02,-1.11238e-01,6.90371e-02,4.57879e-03,-2.18917e-02,-4.48507e-02,4.43564e-02,1.35763e-01,1.43457e-02,-1.91832e-02,9.49499e-02,7.34935e-02,-4.81786e-02,-4.76639e-02,-5.97838e-02,7.49419e-02,6.04511e-02,1.38209e-01,1.40598e-02,-9.31760e-02,-6.92321e-02,7.02595e-02,-1.03290e-01,-8.39829e-02,-9.39677e-02,-1.04112e-01,1.14009e-01,-7.88455e-02,-2.47573e-01,-1.13537e-01,-8.35047e-02,2.54846e-02,-3.23351e-02,1.07274e-01,1.29305e-01,3.41211e-02,-3.66875e-02,-4.17934e-02,-1.28864e-01,1.30141e-01,4.63027e-02,3.48405e-02,-3.09561e-02,3.34080e-02,4.00055e-02,-1.81925e-03,1.34874e-01,1.04221e-01,-1.23624e-01,-6.01269e-02,-8.56043e-02,1.09521e-01,-1.14260e-01,-9.40669e-02,-6.33396e-02,-9.28824e-03,-1.49577e-01,-2.64227e-01,-3.53723e-02,-5.47106e-02,1.64676e-01,8.88615e-02,4.65037e-02,-5.92739e-02,-1.30482e-01,-8.56694e-02,5.85469e-02,-3.00929e-02,8.85546e-02,-3.65325e-02,-1.39494e-01,1.89842e-01,-2.50821e-03,1.38636e-01,-1.84774e-02,1.00046e-01,-1.46802e-02,-4.94753e-03,-1.98185e-02,7.96960e-02,-2.27354e-01,9.73928e-02,-9.59173e-03,-1.33336e-01,-1.43218e-01,-1.25594e-01,-1.13700e-01,2.57342e-02,-6.72313e-02,1.11660e-01,-1.56396e-01,4.13944e-02,-2.85658e-02,8.85900e-03,-2.22979e-01,4.26659e-02,-2.80989e-02,2.01196e-02,-1.54881e-01,6.91176e-02,-1.05015e-01,5.64926e-02,-1.14224e-01,4.36679e-02,-8.32364e-02,-1.20705e-01,4.94841e-02,3.57058e-02,3.12250e-03,-1.67738e-01,9.34897e-02,-6.99395e-02,1.46432e-02,-1.28772e-02,-9.81871e-02,4.89727e-03,5.13250e-02,-4.55404e-02,-1.11623e-01,1.14217e-01,-1.20283e-02,1.27701e-01,-1.02319e-01,-3.48992e-02,3.63097e-03,9.92811e-02,2.40128e-02,1.91512e-01,-9.89423e-02,-8.34371e-02,-8.53287e-02,1.48721e-01,3.28256e-03,-1.63095e-01,8.46179e-04,-4.79315e-02,-9.44755e-03,-5.08096e-02,5.80511e-02,-1.01227e-01,-1.11891e-01,8.35591e-02,5.35413e-02,4.89601e-02,6.38568e-02,1.94913e-02,9.35222e-02,-4.07444e-03,-2.74415e-02,8.21295e-02,-8.25466e-02,-1.45184e-02,4.06322e-02,1.06862e-01,-1.27130e-01,8.44842e-03,-6.33382e-02,8.11826e-02,
-1.06156e-02,8.82870e-02,3.29738e-02,1.28584e-01,-1.71353e-01,-1.05235e-01,-1.18285e-01,-1.75148e-02,5.20718e-02,1.21126e-01,-1.53059e-01,6.21820e-02,-1.62517e-01,-2.83548e-02,1.94403e-01,-1.02789e-01,8.25212e-02,-2.45524e-02,-4.63665e-02,-7.62015e-02,1.33952e-01,-9.84630e-03,1.36669e-01,2.49463e-02,-3.26836e-02,-2.85748e-02,8.34180e-02,-1.12159e-01,-6.87678e-02,9.38582e-02,-1.19464e-01,9.07518e-02,8.70651e-02,-8.53619e-02,5.51286e-02,-6.25156e-02,-2.26452e-02,2.04619e-02,4.44036e-02,7.01389e-02,-8.37778e-02,-4.68773e-02,-5.93542e-04,-3.77037e-02,7.07865e-02,4.70738e-02,1.59558e-01,-6.97594e-02,1.36134e-02,-9.48632e-02,8.40712e-02,2.31171e-03,-5.93215e-02,8.40442e-03,1.40638e-01,-4.83946e-02,6.57879e-02,6.59723e-02,-2.49335e-02,4.22640e-02,-2.02230e-01,1.06154e-01,-1.26093e-01,-9.92149e-02,-1.28091e-01,-6.46755e-02,7.59777e-02,8.96279e-02,-9.78298e-02,-7.70187e-02,1.52245e-01,1.04569e-01,8.99650e-03,-4.42202e-02,5.38917e-02,-2.22318e-02,-1.95808e-02,-8.27281e-02,3.42711e-02,-1.57202e-01,1.46520e-02,1.12601e-02,1.59594e-01,-1.71017e-02,-1.76239e-01,-4.34101e-02,1.37781e-01,-2.03025e-02,-1.29906e-01,6.08309e-03,-7.79597e-02,-1.15123e-01,-6.70563e-02,6.22114e-02,-1.54683e-01,-1.97790e-02,-4.69110e-02,-3.34877e-03,-1.08145e-01,-1.99769e-01,-2.80356e-02,-7.23324e-02,-1.81946e-01,-1.50489e-01,-1.20383e-02,-8.65054e-02,-7.81242e-02,-1.01912e-02,-8.48642e-02,8.71003e-02,-2.42938e-02,9.97024e-02,-7.92887e-02,4.27735e-02,1.61011e-02,-1.23026e-01,1.03029e-01,-4.21641e-02,1.22785e-02,-1.49377e-02,-1.20573e-01,8.95798e-02,-3.05769e-02,-2.25570e-03,6.39313e-02,-7.48730e-03,-5.01757e-02,4.35326e-02,9.06526e-02,4.38417e-02,1.17062e-02,-3.35292e-02,-9.38409e-02,-1.45099e-01,9.64259e-03,-2.48380e-01,-1.26757e-01,-1.19100e-01,-8.50601e-02,-5.47334e-02,-6.18730e-02,-1.07765e-01,-6.53674e-02,4.11619e-02,-1.90369e-01,6.06342e-02,9.08348e-02,-9.86121e-02,-1.24779e-01,-1.78342e-01,-8.03518e-02,-7.38023e-02,1.25325e-02,1.08397e-01,-1.37015e-01,2.53037e-02,-5.73692e-02,1.09477e-01,1.28726e-01,7.66621e-02,-3.89866e-03,-6.47773e-02,2.41747e-02,-1.27954e-01,-1.15353e-01,-1.28264e-01,1.45049e-01,2.17767e-02,-3.47810e-02,7.27784e-02,-1.17146e-01,6.67995e-02,-4.22924e-02,-1.89742e-01,7.45557e-02,1.05113e-02,1.14962e-01,-1.95507e-02,-3.58561e-02,6.40876e-02,-7.33448e-02,-1.50844e-02,7.01833e-02,6.88820e-02,-1.26292e-01,1.52659e-01,2.05797e-01,-1.79842e-01,-1.27350e-01,-1.58364e-01,-1.15279e-01,-1.27380e-01,-9.66211e-02,-1.62274e-01,5.76331e-02,-6.28003e-02,2.73165e-02,8.44772e-02,3.96379e-02,-8.49114e-02,8.55020e-02,7.61731e-02,1.12929e-02,7.66399e-02,4.87387e-02,2.96095e-02,1.66120e-02,1.14176e-01,2.39178e-03,-1.45091e-01,-9.71953e-02,-9.18155e-02,1.21014e-01,1.38316e-01,-6.25538e-02,-8.71129e-02,-4.91749e-02,-3.11764e-01,-2.65518e-01,-1.99717e-01,-1.58671e-01,-1.20325e-01,-2.35047e-01,-1.71321e-01,2.84632e-02,7.64691e-03,-5.44706e-02,6.59872e-02,3.87470e-02,4.78602e-02,1.72555e-02,-1.15256e-02,2.56072e-02,-1.30707e-01,-1.47677e-01,1.26073e-01,-3.99168e-02,4.46884e-02,1.01104e-01,1.07109e-01,2.23953e-01,2.32716e-01,3.49020e-02,-7.75624e-02,-1.33079e-01,-4.24063e-02,-1.75503e-01,-1.36419e-01,-1.12355e-02,8.14187e-03,-7.31704e-02,-1.05162e-01,8.38305e-02,5.40250e-02,9.79407e-02,-6.29674e-02,-1.20392e-01,-7.77280e-02,-1.07697e-01,-3.20374e-02,1.56828e-01,-5.68174e-02,-1.09738e-01,-1.29119e-01,-8.14670e-02,1.22676e-01,1.80229e-01,6.81430e-02,1.93231e-01,3.17176e-02,-2.88023e-02,-1.54541e-01,-1.89648e-01,-1.11163e-01,-2.54452e-01,-2.35223e-01,-9.28272e-03,-2.01286e-01,-8.32791e-02,-1.39717e-02,-4.50335e-02,2.07792e-01,-4.35615e-02,-5.10846e-02,-1.76460e-02,1.03966e-01,2.80214e-02,9.37737e-02,-1.69837e-01,1.16100e-01,-9.88657e-02,-9.87843e-02,-1.88969e-02,-7.65597e-02,1.21525e-01,8.96747e-02,3.63714e-01,1.44015e-01,-1.53911e-01,-3.09013e-01,-2.05069e-01,-1.25537e-01,-1.79644e-01,-2.13858e-01,-5.12482e-02,-4.61199e-02,5.53876e-02,-6.98376e-02,-2.09158e-02,8.01136e-02,9.57339e-02,1.34066e-01,-3.67843e-02,-5.35704e-02,-2.07692e-02,4.56840e-02,-4.24161e-02,6.76415e-02,-2.08119e-01,-1.12589e-01,-4.14499e-02,7.90690e-02,1.09439e-02,2.41679e-01,9.71379e-02,-4.63886e-02,-3.06797e-01,-5.07865e-02,-1.74034e-01,-7.98810e-02,-1.86240e-01,-7.16997e-03,-1.88470e-01,8.66663e-02,-5.71409e-02,1.17802e-01,-6.42366e-02,-8.65334e-03,1.08475e-01,1.02172e-01,4.98439e-02,-1.78368e-01,1.08289e-01,-2.67002e-02,-8.37737e-02,-1.07136e-01,-5.88701e-02,-2.52576e-01,-2.32198e-01,-9.47724e-02,1.26323e-01,1.14061e-01,1.58156e-01,-1.27022e-01,-2.47021e-01,-8.32856e-02,-1.84235e-01,-5.93191e-02,1.32403e-01,-1.34002e-01,1.24544e-01,9.89201e-02,5.72916e-02,1.07393e-01,1.12580e-02,5.08533e-02,-2.17057e-02,2.15121e-02,-4.71365e-02,-3.06075e-02,-3.39044e-03,6.86007e-02,1.15532e-01,-8.03271e-02,-9.90932e-02,-1.06032e-02,-1.42727e-01,-6.51387e-02,2.83277e-02,2.79784e-01,5.05282e-02,-9.15192e-02,-1.32821e-01,-1.65976e-01,-3.67163e-02,1.47414e-01,-3.09128e-02,7.27400e-02,3.78233e-02,1.24208e-02,6.46664e-02,2.93202e-02,7.28738e-02,1.32858e-01,-6.69728e-02,-1.25545e-01,-8.11868e-02,3.61705e-02,-5.55700e-02,1.15930e-01,-3.00616e-02,3.71230e-02,-5.68802e-02,-1.41470e-01,-1.20105e-01,3.45052e-02,2.23715e-01,1.45140e-01,4.98591e-02,-1.18510e-01,7.79480e-02,1.86649e-01,1.46093e-01,1.02877e-01,1.32767e-02,-4.05158e-02,2.35455e-02,1.11695e-01,1.50572e-02,1.99937e-03,-7.61816e-02,-4.15476e-02,1.37704e-01,6.31547e-02,-8.71667e-02,-5.91185e-02,-1.07280e-01,2.85145e-02,4.39839e-02,-1.53332e-01,-1.21887e-02,2.03456e-02,4.99550e-03,5.16209e-02,2.08282e-01,2.04551e-01,2.42592e-02,-6.20426e-03,-5.26897e-02,3.84688e-02,-4.60984e-03,-7.07182e-03,1.60416e-01,9.96307e-02,2.74348e-02,-1.00812e-01,1.27503e-01,3.31555e-02,-3.59408e-02,8.81079e-02,-8.44872e-02,2.50184e-02,-5.98235e-02,6.33989e-02,4.85414e-03,1.13827e-01,-9.52070e-02,1.57428e-03,-9.60824e-02,4.14428e-02,2.32783e-03,1.26495e-01,1.43746e-01,1.64025e-01,-1.07323e-02,1.09773e-01,-9.63020e-02,5.70791e-03,2.21407e-01,1.10829e-01,3.37261e-02,2.48687e-02,6.87567e-02,-6.40001e-02,1.05553e-01,1.99572e-02,8.67558e-02,-1.11831e-01,9.82732e-02,6.04924e-02,-1.73339e-01,7.61116e-02,1.77328e-03,1.39547e-02,6.32070e-02,-1.35906e-01,1.48328e-01,-2.03580e-02,9.50871e-02,9.17393e-02,1.12325e-01,1.15191e-01,-6.45769e-02,-1.02105e-01,-1.49896e-01,1.12341e-01,-1.00011e-01,6.87743e-02,5.57592e-02,3.29771e-02,1.77016e-01,3.54975e-02,2.27834e-02,-1.63057e-01,1.23085e-01,4.75105e-02,-4.84509e-03,-9.23773e-02,-1.32359e-01,-2.06837e-01,6.98018e-02,-1.15387e-01,-1.29224e-01,-3.18154e-02,1.81219e-02,6.16140e-02,9.37341e-02,1.64289e-01,1.19515e-01,8.78977e-02,-1.96604e-02,-3.08237e-02,-2.47435e-01,-3.83948e-04,6.24062e-02,-6.85230e-02,6.32235e-02,1.26077e-01,-2.10334e-02,-7.93924e-03,1.90504e-01,8.74629e-02,4.14011e-02,1.75940e-02,-1.87474e-02,-2.26322e-02,8.65483e-02,-2.08124e-01,-1.57314e-01,-2.32832e-01,-2.65335e-01,-1.66265e-01,-8.68063e-02,-3.60294e-03,1.74241e-01,2.80626e-01,-2.32935e-02,-9.38087e-02,-1.24374e-01,-1.78438e-01,-1.40842e-01,-2.26696e-01,-8.37062e-02,1.56345e-02,-2.28110e-01,5.96200e-02,-3.35169e-02,8.20408e-02,-2.30273e-03,7.08080e-02,4.52022e-03,-1.15099e-01,2.26514e-04,-8.00386e-03,-4.90012e-03,6.88882e-04,-5.31726e-02,-1.32854e-01,-1.01408e-01,-1.51312e-01,3.34005e-02,-3.39462e-02,1.08091e-02,5.77270e-02,9.07367e-02,-7.55762e-02,1.02710e-01,1.74121e-02,-1.22815e-01,-1.05957e-01,-2.71101e-01,-2.49697e-01,-1.87742e-01,-6.97878e-02,-1.19304e-01,-3.38892e-02,1.11806e-01,-1.12204e-01,-5.30573e-02,4.32001e-02,-3.00324e-02,-4.03803e-02,-8.71871e-02,-1.55992e-01,-2.15935e-01,-8.03611e-02,-1.17226e-01,-2.27724e-02,1.26267e-01,7.20987e-02,8.67193e-03,7.35211e-03,4.77585e-02,6.22499e-02,3.12741e-02,-4.11119e-02,-1.88650e-01,-9.95920e-02,-5.01987e-02,-2.74833e-03,-1.87935e-01,-8.16080e-02,-1.02462e-01,-3.15756e-02,4.45956e-02,-5.03483e-02,6.56218e-02,4.39747e-02,2.91251e-02,-1.24717e-01,-2.54574e-01,-1.80802e-01,-1.54988e-01,-1.49212e-01,-9.64276e-02,-7.05200e-02,-4.71360e-02,2.63118e-02,-6.76428e-02,-1.69401e-01,1.50825e-01,1.65469e-02,6.45949e-02,-5.48797e-02,6.76192e-02,-1.84645e-01,-1.04039e-02,-8.33114e-02,-4.47460e-02,-7.78802e-02,-1.06545e-01,-1.52132e-01,1.13536e-02,-1.26640e-01,3.60884e-02,3.40056e-02,-1.09939e-01,-4.10041e-02,2.99550e-03,-2.31087e-01,-1.70348e-01,-1.05504e-01,-3.79346e-02,-1.06349e-01,-5.57827e-02,2.10688e-02,3.20890e-02,4.44508e-02,9.68800e-02,1.64929e-01,3.40756e-02,2.19463e-01,7.14530e-02,2.32539e-02,-1.38586e-01,-1.34195e-01,2.76850e-02,-2.58896e-02,5.57624e-03,4.58687e-02,-4.93918e-02,-8.91984e-02,-5.22048e-02,9.67288e-03,-9.67139e-02,-8.35117e-02,-7.69908e-02,-1.24939e-01,-7.53390e-02,-1.03340e-01,-1.57011e-01,-3.62829e-02,-1.89796e-01,-2.34016e-02,2.52978e-02,-1.14262e-02,-1.31790e-02,1.07758e-02,-6.72224e-02,-7.37315e-02,3.52640e-02,-1.84788e-02,2.28319e-02,-9.39033e-03,-1.03780e-01,-2.17145e-01,-8.16513e-02,8.20229e-02,-4.69629e-04,-7.02883e-02,-9.80783e-02,5.30105e-02,1.13852e-01,1.00918e-02,4.21394e-02,-1.29835e-01,-2.04861e-02,1.37421e-02,-8.56684e-02,-2.02316e-01,-1.54534e-01,-1.46675e-01,-8.06513e-02,-1.16133e-01,1.89694e-03,-1.03060e-01,-7.03320e-02,-1.26536e-01,-1.41577e-01,-6.01217e-02,-6.04460e-05,-1.90495e-01,-3.15559e-02,-5.98747e-02,-7.13422e-02,4.27924e-02,8.80681e-02,-2.89464e-02,-2.41743e-02,-9.52266e-03,-4.22649e-02,8.15460e-02,3.57026e-02,4.18054e-02,1.72961e-01,6.23120e-02,1.27415e-01,-8.27230e-02,2.08704e-02,1.53703e-02,-1.25733e-01,-1.44614e-01,-1.69042e-01,-1.74153e-01,-4.71820e-02,-1.24691e-01,-4.75088e-02,-4.02092e-02,-4.29621e-02,1.07053e-01,4.37348e-02,3.69824e-02,1.97204e-02,1.29711e-01,-1.03482e-03,1.47058e-01,8.08938e-02,-1.12236e-01,5.51609e-02,-6.50143e-02,4.27049e-02,7.87697e-02,1.16863e-01,2.02104e-02,7.45290e-02,-4.01225e-02,-4.47932e-02,-7.49017e-02,-8.95170e-02,-3.21556e-03,-1.42471e-02,-4.77942e-02,-2.31515e-02,7.82644e-02,9.44426e-02,-1.15847e-01,-3.29517e-02,-3.31570e-02,-1.26948e-01,-1.35178e-01,-1.65287e-01,1.73568e-02,7.70196e-02,-1.12390e-01,
