// Neural Network File Format by Kyle Julian, Stanford 2016
4,784,10,784,
784,25,25,25,10,
0,
0,0,0,0,0,0,0,0,0,0,0,0,0,0,0,0,0,0,0,0,0,0,0,0,0,0,0,0,0,0,0,0,0,0,0,0,0,0,0,0,0,0,0,0,0,0,0,0,0,0,0,0,0,0,0,0,0,0,0,0,0,0,0,0,0,0,0,0,0,0,0,0,0,0,0,0,0,0,0,0,0,0,0,0,0,0,0,0,0,0,0,0,0,0,0,0,0,0,0,0,0,0,0,0,0,0,0,0,0,0,0,0,0,0,0,0,0,0,0,0,0,0,0,0,0,0,0,0,0,0,0,0,0,0,0,0,0,0,0,0,0,0,0,0,0,0,0,0,0,0,0,0,0,0,0,0,0,0,0,0,0,0,0,0,0,0,0,0,0,0,0,0,0,0,0,0,0,0,0,0,0,0,0,0,0,0,0,0,0,0,0,0,0,0,0,0,0,0,0,0,0,0,0,0,0,0,0,0,0,0,0,0,0,0,0,0,0,0,0,0,0,0,0,0,0,0,0,0,0,0,0,0,0,0,0,0,0,0,0,0,0,0,0,0,0,0,0,0,0,0,0,0,0,0,0,0,0,0,0,0,0,0,0,0,0,0,0,0,0,0,0,0,0,0,0,0,0,0,0,0,0,0,0,0,0,0,0,0,0,0,0,0,0,0,0,0,0,0,0,0,0,0,0,0,0,0,0,0,0,0,0,0,0,0,0,0,0,0,0,0,0,0,0,0,0,0,0,0,0,0,0,0,0,0,0,0,0,0,0,0,0,0,0,0,0,0,0,0,0,0,0,0,0,0,0,0,0,0,0,0,0,0,0,0,0,0,0,0,0,0,0,0,0,0,0,0,0,0,0,0,0,0,0,0,0,0,0,0,0,0,0,0,0,0,0,0,0,0,0,0,0,0,0,0,0,0,0,0,0,0,0,0,0,0,0,0,0,0,0,0,0,0,0,0,0,0,0,0,0,0,0,0,0,0,0,0,0,0,0,0,0,0,0,0,0,0,0,0,0,0,0,0,0,0,0,0,0,0,0,0,0,0,0,0,0,0,0,0,0,0,0,0,0,0,0,0,0,0,0,0,0,0,0,0,0,0,0,0,0,0,0,0,0,0,0,0,0,0,0,0,0,0,0,0,0,0,0,0,0,0,0,0,0,0,0,0,0,0,0,0,0,0,0,0,0,0,0,0,0,0,0,0,0,0,0,0,0,0,0,0,0,0,0,0,0,0,0,0,0,0,0,0,0,0,0,0,0,0,0,0,0,0,0,0,0,0,0,0,0,0,0,0,0,0,0,0,0,0,0,0,0,0,0,0,0,0,0,0,0,0,0,0,0,0,0,0,0,0,0,0,0,0,0,0,0,0,0,0,0,0,0,0,0,0,0,0,0,0,0,0,0,0,0,0,0,0,0,0,0,0,0,0,0,0,0,0,0,0,0,0,0,0,0,0,0,0,0,0,0,0,0,0,0,0,0,0,0,0,0,0,0,0,0,0,0,0,0,0,0,0,0,0,0,0,0,0,0,0,0,0,0,0,0,0,0,0,0,0,0,0,0,0,0,0,0,0,0,0,0,0,0,0,0,0,0,0,0,0,0,0,0,0,0,0,0,0,0,0,0,0,0,0,0,0,0,0,0,0,0,0,0,0,0,0,0,0,0,0,0,0,0,0,0,0,0,0,0,0,0,0,0,0,0,0,0,0,0,0,0,0,0,0,0,0,0,0,0,0,0,0,0,0,0,0,0,0,0,0,0,0,0,0,0,0,
255.0,255.0,255.0,255.0,255.0,255.0,255.0,255.0,255.0,255.0,255.0,255.0,255.0,255.0,255.0,255.0,255.0,255.0,255.0,255.0,255.0,255.0,255.0,255.0,255.0,255.0,255.0,255.0,255.0,255.0,255.0,255.0,255.0,255.0,255.0,255.0,255.0,255.0,255.0,255.0,255.0,255.0,255.0,255.0,255.0,255.0,255.0,255.0,255.0,255.0,255.0,255.0,255.0,255.0,255.0,255.0,255.0,255.0,255.0,255.0,255.0,255.0,255.0,255.0,255.0,255.0,255.0,255.0,255.0,255.0,255.0,255.0,255.0,255.0,255.0,255.0,255.0,255.0,255.0,255.0,255.0,255.0,255.0,255.0,255.0,255.0,255.0,255.0,255.0,255.0,255.0,255.0,255.0,255.0,255.0,255.0,255.0,255.0,255.0,255.0,255.0,255.0,255.0,255.0,255.0,255.0,255.0,255.0,255.0,255.0,255.0,255.0,255.0,255.0,255.0,255.0,255.0,255.0,255.0,255.0,255.0,255.0,255.0,255.0,255.0,255.0,255.0,255.0,255.0,255.0,255.0,255.0,255.0,255.0,255.0,255.0,255.0,255.0,255.0,255.0,255.0,255.0,255.0,255.0,255.0,255.0,255.0,255.0,255.0,255.0,255.0,255.0,255.0,255.0,255.0,255.0,255.0,255.0,255.0,255.0,255.0,255.0,255.0,255.0,255.0,255.0,255.0,255.0,255.0,255.0,255.0,255.0,255.0,255.0,255.0,255.0,255.0,255.0,255.0,255.0,255.0,255.0,255.0,255.0,255.0,255.0,255.0,255.0,255.0,255.0,255.0,255.0,255.0,255.0,255.0,255.0,255.0,255.0,255.0,255.0,255.0,255.0,255.0,255.0,255.0,255.0,255.0,255.0,255.0,255.0,255.0,255.0,255.0,255.0,255.0,255.0,255.0,255.0,255.0,255.0,255.0,255.0,255.0,255.0,255.0,255.0,255.0,255.0,255.0,255.0,255.0,255.0,255.0,255.0,255.0,255.0,255.0,255.0,255.0,255.0,255.0,255.0,255.0,255.0,255.0,255.0,255.0,255.0,255.0,255.0,255.0,255.0,255.0,255.0,255.0,255.0,255.0,255.0,255.0,255.0,255.0,255.0,255.0,255.0,255.0,255.0,255.0,255.0,255.0,255.0,255.0,255.0,255.0,255.0,255.0,255.0,255.0,255.0,255.0,255.0,255.0,255.0,255.0,255.0,255.0,255.0,255.0,255.0,255.0,255.0,255.0,255.0,255.0,255.0,255.0,255.0,255.0,255.0,255.0,255.0,255.0,255.0,255.0,255.0,255.0,255.0,255.0,255.0,255.0,255.0,255.0,255.0,255.0,255.0,255.0,255.0,255.0,255.0,255.0,255.0,255.0,255.0,255.0,255.0,255.0,255.0,255.0,255.0,255.0,255.0,255.0,255.0,255.0,255.0,255.0,255.0,255.0,255.0,255.0,255.0,255.0,255.0,255.0,255.0,255.0,255.0,255.0,255.0,255.0,255.0,255.0,255.0,255.0,255.0,255.0,255.0,255.0,255.0,255.0,255.0,255.0,255.0,255.0,255.0,255.0,255.0,255.0,255.0,255.0,255.0,255.0,255.0,255.0,255.0,255.0,255.0,255.0,255.0,255.0,255.0,255.0,255.0,255.0,255.0,255.0,255.0,255.0,255.0,255.0,255.0,255.0,255.0,255.0,255.0,255.0,255.0,255.0,255.0,255.0,255.0,255.0,255.0,255.0,255.0,255.0,255.0,255.0,255.0,255.0,255.0,255.0,255.0,255.0,255.0,255.0,255.0,255.0,255.0,255.0,255.0,255.0,255.0,255.0,255.0,255.0,255.0,255.0,255.0,255.0,255.0,255.0,255.0,255.0,255.0,255.0,255.0,255.0,255.0,255.0,255.0,255.0,255.0,255.0,255.0,255.0,255.0,255.0,255.0,255.0,255.0,255.0,255.0,255.0,255.0,255.0,255.0,255.0,255.0,255.0,255.0,255.0,255.0,255.0,255.0,255.0,255.0,255.0,255.0,255.0,255.0,255.0,255.0,255.0,255.0,255.0,255.0,255.0,255.0,255.0,255.0,255.0,255.0,255.0,255.0,255.0,255.0,255.0,255.0,255.0,255.0,255.0,255.0,255.0,255.0,255.0,255.0,255.0,255.0,255.0,255.0,255.0,255.0,255.0,255.0,255.0,255.0,255.0,255.0,255.0,255.0,255.0,255.0,255.0,255.0,255.0,255.0,255.0,255.0,255.0,255.0,255.0,255.0,255.0,255.0,255.0,255.0,255.0,255.0,255.0,255.0,255.0,255.0,255.0,255.0,255.0,255.0,255.0,255.0,255.0,255.0,255.0,255.0,255.0,255.0,255.0,255.0,255.0,255.0,255.0,255.0,255.0,255.0,255.0,255.0,255.0,255.0,255.0,255.0,255.0,255.0,255.0,255.0,255.0,255.0,255.0,255.0,255.0,255.0,255.0,255.0,255.0,255.0,255.0,255.0,255.0,255.0,255.0,255.0,255.0,255.0,255.0,255.0,255.0,255.0,255.0,255.0,255.0,255.0,255.0,255.0,255.0,255.0,255.0,255.0,255.0,255.0,255.0,255.0,255.0,255.0,255.0,255.0,255.0,255.0,255.0,255.0,255.0,255.0,255.0,255.0,255.0,255.0,255.0,255.0,255.0,255.0,255.0,255.0,255.0,255.0,255.0,255.0,255.0,255.0,255.0,255.0,255.0,255.0,255.0,255.0,255.0,255.0,255.0,255.0,255.0,255.0,255.0,255.0,255.0,255.0,255.0,255.0,255.0,255.0,255.0,255.0,255.0,255.0,255.0,255.0,255.0,255.0,255.0,255.0,255.0,255.0,255.0,255.0,255.0,255.0,255.0,255.0,255.0,255.0,255.0,255.0,255.0,255.0,255.0,255.0,255.0,255.0,255.0,255.0,255.0,255.0,255.0,255.0,255.0,255.0,255.0,255.0,255.0,255.0,255.0,255.0,255.0,255.0,255.0,255.0,255.0,255.0,255.0,255.0,255.0,255.0,255.0,255.0,255.0,255.0,255.0,255.0,255.0,255.0,255.0,255.0,255.0,255.0,255.0,255.0,255.0,255.0,255.0,255.0,255.0,255.0,255.0,255.0,255.0,255.0,255.0,255.0,255.0,255.0,255.0,255.0,255.0,255.0,255.0,255.0,255.0,255.0,255.0,255.0,255.0,255.0,255.0,255.0,255.0,255.0,255.0,255.0,255.0,255.0,255.0,255.0,255.0,255.0,255.0,255.0,255.0,255.0,255.0,255.0,255.0,255.0,255.0,255.0,255.0,255.0,255.0,255.0,255.0,255.0,255.0,255.0,255.0,255.0,255.0,255.0,255.0,255.0,255.0,255.0,255.0,255.0,255.0,255.0,255.0,255.0,255.0,255.0,255.0,255.0,
127.0,127.0,127.0,127.0,127.0,127.0,127.0,127.0,127.0,127.0,127.0,127.0,127.0,127.0,127.0,127.0,127.0,127.0,127.0,127.0,127.0,127.0,127.0,127.0,127.0,127.0,127.0,127.0,127.0,127.0,127.0,127.0,127.0,127.0,127.0,127.0,127.0,127.0,127.0,127.0,127.0,127.0,127.0,127.0,127.0,127.0,127.0,127.0,127.0,127.0,127.0,127.0,127.0,127.0,127.0,127.0,127.0,127.0,127.0,127.0,127.0,127.0,127.0,127.0,127.0,127.0,127.0,127.0,127.0,127.0,127.0,127.0,127.0,127.0,127.0,127.0,127.0,127.0,127.0,127.0,127.0,127.0,127.0,127.0,127.0,127.0,127.0,127.0,127.0,127.0,127.0,127.0,127.0,127.0,127.0,127.0,127.0,127.0,127.0,127.0,127.0,127.0,127.0,127.0,127.0,127.0,127.0,127.0,127.0,127.0,127.0,127.0,127.0,127.0,127.0,127.0,127.0,127.0,127.0,127.0,127.0,127.0,127.0,127.0,127.0,127.0,127.0,127.0,127.0,127.0,127.0,127.0,127.0,127.0,127.0,127.0,127.0,127.0,127.0,127.0,127.0,127.0,127.0,127.0,127.0,127.0,127.0,127.0,127.0,127.0,127.0,127.0,127.0,127.0,127.0,127.0,127.0,127.0,127.0,127.0,127.0,127.0,127.0,127.0,127.0,127.0,127.0,127.0,127.0,127.0,127.0,127.0,127.0,127.0,127.0,127.0,127.0,127.0,127.0,127.0,127.0,127.0,127.0,127.0,127.0,127.0,127.0,127.0,127.0,127.0,127.0,127.0,127.0,127.0,127.0,127.0,127.0,127.0,127.0,127.0,127.0,127.0,127.0,127.0,127.0,127.0,127.0,127.0,127.0,127.0,127.0,127.0,127.0,127.0,127.0,127.0,127.0,127.0,127.0,127.0,127.0,127.0,127.0,127.0,127.0,127.0,127.0,127.0,127.0,127.0,127.0,127.0,127.0,127.0,127.0,127.0,127.0,127.0,127.0,127.0,127.0,127.0,127.0,127.0,127.0,127.0,127.0,127.0,127.0,127.0,127.0,127.0,127.0,127.0,127.0,127.0,127.0,127.0,127.0,127.0,127.0,127.0,127.0,127.0,127.0,127.0,127.0,127.0,127.0,127.0,127.0,127.0,127.0,127.0,127.0,127.0,127.0,127.0,127.0,127.0,127.0,127.0,127.0,127.0,127.0,127.0,127.0,127.0,127.0,127.0,127.0,127.0,127.0,127.0,127.0,127.0,127.0,127.0,127.0,127.0,127.0,127.0,127.0,127.0,127.0,127.0,127.0,127.0,127.0,127.0,127.0,127.0,127.0,127.0,127.0,127.0,127.0,127.0,127.0,127.0,127.0,127.0,127.0,127.0,127.0,127.0,127.0,127.0,127.0,127.0,127.0,127.0,127.0,127.0,127.0,127.0,127.0,127.0,127.0,127.0,127.0,127.0,127.0,127.0,127.0,127.0,127.0,127.0,127.0,127.0,127.0,127.0,127.0,127.0,127.0,127.0,127.0,127.0,127.0,127.0,127.0,127.0,127.0,127.0,127.0,127.0,127.0,127.0,127.0,127.0,127.0,127.0,127.0,127.0,127.0,127.0,127.0,127.0,127.0,127.0,127.0,127.0,127.0,127.0,127.0,127.0,127.0,127.0,127.0,127.0,127.0,127.0,127.0,127.0,127.0,127.0,127.0,127.0,127.0,127.0,127.0,127.0,127.0,127.0,127.0,127.0,127.0,127.0,127.0,127.0,127.0,127.0,127.0,127.0,127.0,127.0,127.0,127.0,127.0,127.0,127.0,127.0,127.0,127.0,127.0,127.0,127.0,127.0,127.0,127.0,127.0,127.0,127.0,127.0,127.0,127.0,127.0,127.0,127.0,127.0,127.0,127.0,127.0,127.0,127.0,127.0,127.0,127.0,127.0,127.0,127.0,127.0,127.0,127.0,127.0,127.0,127.0,127.0,127.0,127.0,127.0,127.0,127.0,127.0,127.0,127.0,127.0,127.0,127.0,127.0,127.0,127.0,127.0,127.0,127.0,127.0,127.0,127.0,127.0,127.0,127.0,127.0,127.0,127.0,127.0,127.0,127.0,127.0,127.0,127.0,127.0,127.0,127.0,127.0,127.0,127.0,127.0,127.0,127.0,127.0,127.0,127.0,127.0,127.0,127.0,127.0,127.0,127.0,127.0,127.0,127.0,127.0,127.0,127.0,127.0,127.0,127.0,127.0,127.0,127.0,127.0,127.0,127.0,127.0,127.0,127.0,127.0,127.0,127.0,127.0,127.0,127.0,127.0,127.0,127.0,127.0,127.0,127.0,127.0,127.0,127.0,127.0,127.0,127.0,127.0,127.0,127.0,127.0,127.0,127.0,127.0,127.0,127.0,127.0,127.0,127.0,127.0,127.0,127.0,127.0,127.0,127.0,127.0,127.0,127.0,127.0,127.0,127.0,127.0,127.0,127.0,127.0,127.0,127.0,127.0,127.0,127.0,127.0,127.0,127.0,127.0,127.0,127.0,127.0,127.0,127.0,127.0,127.0,127.0,127.0,127.0,127.0,127.0,127.0,127.0,127.0,127.0,127.0,127.0,127.0,127.0,127.0,127.0,127.0,127.0,127.0,127.0,127.0,127.0,127.0,127.0,127.0,127.0,127.0,127.0,127.0,127.0,127.0,127.0,127.0,127.0,127.0,127.0,127.0,127.0,127.0,127.0,127.0,127.0,127.0,127.0,127.0,127.0,127.0,127.0,127.0,127.0,127.0,127.0,127.0,127.0,127.0,127.0,127.0,127.0,127.0,127.0,127.0,127.0,127.0,127.0,127.0,127.0,127.0,127.0,127.0,127.0,127.0,127.0,127.0,127.0,127.0,127.0,127.0,127.0,127.0,127.0,127.0,127.0,127.0,127.0,127.0,127.0,127.0,127.0,127.0,127.0,127.0,127.0,127.0,127.0,127.0,127.0,127.0,127.0,127.0,127.0,127.0,127.0,127.0,127.0,127.0,127.0,127.0,127.0,127.0,127.0,127.0,127.0,127.0,127.0,127.0,127.0,127.0,127.0,127.0,127.0,127.0,127.0,127.0,127.0,127.0,127.0,127.0,127.0,127.0,127.0,127.0,127.0,127.0,127.0,127.0,127.0,127.0,127.0,127.0,127.0,127.0,127.0,127.0,127.0,127.0,127.0,127.0,127.0,127.0,127.0,127.0,127.0,127.0,127.0,127.0,127.0,127.0,127.0,127.0,127.0,127.0,127.0,127.0,127.0,127.0,127.0,127.0,127.0,127.0,127.0,127.0,127.0,127.0,127.0,127.0,127.0,127.0,127.0,127.0,127.0,127.0,127.0,127.0,127.0,127.0,127.0,127.0,127.0,127.0,127.0,127.0,127.0,127.0,127.0,127.0,127.0,127.0,
255.0,255.0,255.0,255.0,255.0,255.0,255.0,255.0,255.0,255.0,255.0,255.0,255.0,255.0,255.0,255.0,255.0,255.0,255.0,255.0,255.0,255.0,255.0,255.0,255.0,255.0,255.0,255.0,255.0,255.0,255.0,255.0,255.0,255.0,255.0,255.0,255.0,255.0,255.0,255.0,255.0,255.0,255.0,255.0,255.0,255.0,255.0,255.0,255.0,255.0,255.0,255.0,255.0,255.0,255.0,255.0,255.0,255.0,255.0,255.0,255.0,255.0,255.0,255.0,255.0,255.0,255.0,255.0,255.0,255.0,255.0,255.0,255.0,255.0,255.0,255.0,255.0,255.0,255.0,255.0,255.0,255.0,255.0,255.0,255.0,255.0,255.0,255.0,255.0,255.0,255.0,255.0,255.0,255.0,255.0,255.0,255.0,255.0,255.0,255.0,255.0,255.0,255.0,255.0,255.0,255.0,255.0,255.0,255.0,255.0,255.0,255.0,255.0,255.0,255.0,255.0,255.0,255.0,255.0,255.0,255.0,255.0,255.0,255.0,255.0,255.0,255.0,255.0,255.0,255.0,255.0,255.0,255.0,255.0,255.0,255.0,255.0,255.0,255.0,255.0,255.0,255.0,255.0,255.0,255.0,255.0,255.0,255.0,255.0,255.0,255.0,255.0,255.0,255.0,255.0,255.0,255.0,255.0,255.0,255.0,255.0,255.0,255.0,255.0,255.0,255.0,255.0,255.0,255.0,255.0,255.0,255.0,255.0,255.0,255.0,255.0,255.0,255.0,255.0,255.0,255.0,255.0,255.0,255.0,255.0,255.0,255.0,255.0,255.0,255.0,255.0,255.0,255.0,255.0,255.0,255.0,255.0,255.0,255.0,255.0,255.0,255.0,255.0,255.0,255.0,255.0,255.0,255.0,255.0,255.0,255.0,255.0,255.0,255.0,255.0,255.0,255.0,255.0,255.0,255.0,255.0,255.0,255.0,255.0,255.0,255.0,255.0,255.0,255.0,255.0,255.0,255.0,255.0,255.0,255.0,255.0,255.0,255.0,255.0,255.0,255.0,255.0,255.0,255.0,255.0,255.0,255.0,255.0,255.0,255.0,255.0,255.0,255.0,255.0,255.0,255.0,255.0,255.0,255.0,255.0,255.0,255.0,255.0,255.0,255.0,255.0,255.0,255.0,255.0,255.0,255.0,255.0,255.0,255.0,255.0,255.0,255.0,255.0,255.0,255.0,255.0,255.0,255.0,255.0,255.0,255.0,255.0,255.0,255.0,255.0,255.0,255.0,255.0,255.0,255.0,255.0,255.0,255.0,255.0,255.0,255.0,255.0,255.0,255.0,255.0,255.0,255.0,255.0,255.0,255.0,255.0,255.0,255.0,255.0,255.0,255.0,255.0,255.0,255.0,255.0,255.0,255.0,255.0,255.0,255.0,255.0,255.0,255.0,255.0,255.0,255.0,255.0,255.0,255.0,255.0,255.0,255.0,255.0,255.0,255.0,255.0,255.0,255.0,255.0,255.0,255.0,255.0,255.0,255.0,255.0,255.0,255.0,255.0,255.0,255.0,255.0,255.0,255.0,255.0,255.0,255.0,255.0,255.0,255.0,255.0,255.0,255.0,255.0,255.0,255.0,255.0,255.0,255.0,255.0,255.0,255.0,255.0,255.0,255.0,255.0,255.0,255.0,255.0,255.0,255.0,255.0,255.0,255.0,255.0,255.0,255.0,255.0,255.0,255.0,255.0,255.0,255.0,255.0,255.0,255.0,255.0,255.0,255.0,255.0,255.0,255.0,255.0,255.0,255.0,255.0,255.0,255.0,255.0,255.0,255.0,255.0,255.0,255.0,255.0,255.0,255.0,255.0,255.0,255.0,255.0,255.0,255.0,255.0,255.0,255.0,255.0,255.0,255.0,255.0,255.0,255.0,255.0,255.0,255.0,255.0,255.0,255.0,255.0,255.0,255.0,255.0,255.0,255.0,255.0,255.0,255.0,255.0,255.0,255.0,255.0,255.0,255.0,255.0,255.0,255.0,255.0,255.0,255.0,255.0,255.0,255.0,255.0,255.0,255.0,255.0,255.0,255.0,255.0,255.0,255.0,255.0,255.0,255.0,255.0,255.0,255.0,255.0,255.0,255.0,255.0,255.0,255.0,255.0,255.0,255.0,255.0,255.0,255.0,255.0,255.0,255.0,255.0,255.0,255.0,255.0,255.0,255.0,255.0,255.0,255.0,255.0,255.0,255.0,255.0,255.0,255.0,255.0,255.0,255.0,255.0,255.0,255.0,255.0,255.0,255.0,255.0,255.0,255.0,255.0,255.0,255.0,255.0,255.0,255.0,255.0,255.0,255.0,255.0,255.0,255.0,255.0,255.0,255.0,255.0,255.0,255.0,255.0,255.0,255.0,255.0,255.0,255.0,255.0,255.0,255.0,255.0,255.0,255.0,255.0,255.0,255.0,255.0,255.0,255.0,255.0,255.0,255.0,255.0,255.0,255.0,255.0,255.0,255.0,255.0,255.0,255.0,255.0,255.0,255.0,255.0,255.0,255.0,255.0,255.0,255.0,255.0,255.0,255.0,255.0,255.0,255.0,255.0,255.0,255.0,255.0,255.0,255.0,255.0,255.0,255.0,255.0,255.0,255.0,255.0,255.0,255.0,255.0,255.0,255.0,255.0,255.0,255.0,255.0,255.0,255.0,255.0,255.0,255.0,255.0,255.0,255.0,255.0,255.0,255.0,255.0,255.0,255.0,255.0,255.0,255.0,255.0,255.0,255.0,255.0,255.0,255.0,255.0,255.0,255.0,255.0,255.0,255.0,255.0,255.0,255.0,255.0,255.0,255.0,255.0,255.0,255.0,255.0,255.0,255.0,255.0,255.0,255.0,255.0,255.0,255.0,255.0,255.0,255.0,255.0,255.0,255.0,255.0,255.0,255.0,255.0,255.0,255.0,255.0,255.0,255.0,255.0,255.0,255.0,255.0,255.0,255.0,255.0,255.0,255.0,255.0,255.0,255.0,255.0,255.0,255.0,255.0,255.0,255.0,255.0,255.0,255.0,255.0,255.0,255.0,255.0,255.0,255.0,255.0,255.0,255.0,255.0,255.0,255.0,255.0,255.0,255.0,255.0,255.0,255.0,255.0,255.0,255.0,255.0,255.0,255.0,255.0,255.0,255.0,255.0,255.0,255.0,255.0,255.0,255.0,255.0,255.0,255.0,255.0,255.0,255.0,255.0,255.0,255.0,255.0,255.0,255.0,255.0,255.0,255.0,255.0,255.0,255.0,255.0,255.0,255.0,255.0,255.0,255.0,255.0,255.0,255.0,255.0,255.0,255.0,255.0,255.0,255.0,255.0,255.0,255.0,255.0,255.0,255.0,255.0,255.0,255.0,255.0,255.0,255.0,255.0,255.0,255.0,255.0,255.0,255.0,255.0,255.0,255.0,255.0,255.0,255.0,255.0,255.0,255.0,
-1.44854e-02,4.88633e-04,-1.19870e-02,3.64743e-03,7.43327e-04,-9.10549e-04,-9.70236e-04,1.52445e-02,3.08395e-03,6.80305e-04,3.08286e-03,-1.25224e-03,2.68821e-03,-1.32586e-03,-1.18209e-02,1.16511e-03,-1.03157e-02,5.17904e-03,-1.78518e-02,-1.71802e-03,-4.69759e-03,1.23997e-02,-3.84871e-03,6.40332e-03,-1.32024e-03,1.50881e-02,-1.34044e-03,1.29641e-02,1.75804e-02,8.64646e-03,3.22926e-03,1.16615e-02,-5.02579e-03,-1.29765e-03,3.84448e-03,7.94627e-03,-9.98362e-03,1.37440e-04,-1.76139e-02,-1.73094e-02,-6.21996e-04,7.87432e-04,6.45903e-04,-1.50825e-02,6.57869e-03,-8.29877e-03,-7.35271e-04,8.08001e-03,-1.44905e-02,1.38697e-02,-5.11020e-03,9.60918e-03,5.07773e-03,-6.58393e-03,-1.42904e-02,-7.56464e-03,6.80226e-03,1.02612e-02,-2.55147e-03,3.00349e-03,3.47754e-03,-1.70015e-03,-1.71031e-02,-1.62175e-02,-4.24414e-03,1.41203e-02,7.30309e-03,8.50564e-03,-4.17329e-03,-1.22551e-03,-1.70010e-02,-5.70176e-03,-1.52457e-03,1.10112e-02,-7.65957e-03,-2.44502e-03,1.05664e-02,8.04456e-03,-1.65213e-03,-2.98251e-03,-4.95579e-03,5.57660e-03,1.64690e-02,8.90379e-03,-6.29097e-03,-1.71977e-02,7.46639e-03,5.10827e-03,-1.77052e-03,2.88145e-03,-1.75773e-02,5.96325e-03,-6.88657e-03,-2.63326e-03,-3.57059e-04,-2.17207e-03,1.43499e-02,-5.09247e-03,-8.41981e-03,-1.03869e-02,-1.01796e-03,5.22324e-03,1.44382e-02,-3.24283e-05,-4.27533e-03,9.91533e-03,2.25421e-04,1.59774e-02,6.55143e-03,-1.41302e-02,1.91662e-02,1.42624e-03,3.01045e-04,8.45950e-03,-1.88388e-03,1.25262e-03,1.15350e-02,-2.87893e-03,1.12660e-02,-4.72330e-03,1.07067e-02,1.44393e-02,3.82266e-03,7.79902e-03,7.73694e-03,4.14416e-03,-1.63609e-03,3.85458e-03,-9.35684e-03,1.03140e-02,1.22384e-02,6.86315e-03,5.13944e-03,6.44046e-03,-1.29704e-02,2.91038e-03,5.19412e-03,-6.04779e-04,-9.91955e-03,2.33605e-03,1.23741e-02,5.20778e-03,1.24480e-03,-1.48166e-02,-4.30057e-03,5.88940e-03,1.33724e-02,-7.44990e-03,1.10573e-02,-1.64033e-03,9.62321e-03,-1.51517e-02,5.58087e-03,-7.81202e-03,-4.43005e-03,9.55060e-03,-1.83399e-03,-3.39211e-03,-6.86622e-03,8.06506e-03,1.80131e-02,4.24909e-03,-4.01244e-03,4.12769e-03,-8.96692e-03,-1.06072e-02,-1.96175e-02,-3.83738e-03,4.33653e-04,5.94768e-03,1.53028e-03,2.33578e-03,-8.30254e-03,9.38720e-03,5.61818e-03,-1.59302e-02,-2.31636e-03,-1.52744e-03,6.93437e-03,-7.26864e-03,-1.01735e-04,-7.72841e-03,1.26557e-02,7.39405e-03,-7.43652e-03,-7.64969e-03,2.65797e-03,-5.84545e-03,9.32176e-03,1.18291e-02,-6.02498e-03,-1.52167e-03,-6.54686e-03,1.30884e-02,-5.85734e-04,-1.02932e-02,-1.55399e-02,1.05612e-02,-1.34052e-02,6.16419e-03,-2.39351e-03,1.11673e-02,1.04675e-02,-1.67269e-03,-1.43574e-02,1.77267e-03,-2.05485e-03,-7.92660e-03,8.94680e-03,-1.00290e-02,3.25975e-03,-2.29377e-04,-9.62609e-03,-4.13249e-03,1.42015e-02,-9.95144e-03,-1.28580e-03,-5.52216e-04,1.63823e-02,-1.96410e-02,9.55039e-03,-7.88403e-03,-1.00302e-02,-5.63078e-03,1.90103e-02,-1.39975e-02,2.44737e-03,9.31412e-03,-7.71156e-03,2.95309e-03,1.10220e-03,-7.12509e-03,1.96333e-03,-4.99956e-04,4.06742e-03,8.78257e-03,9.71791e-03,-8.80027e-03,4.62942e-03,1.34430e-02,-6.80392e-03,3.15225e-03,-1.63363e-03,1.68154e-03,8.90069e-03,-2.86580e-03,1.49121e-02,6.81868e-03,4.16594e-03,1.46042e-03,2.26752e-03,5.09113e-03,6.30830e-03,-8.21918e-05,1.59457e-02,-1.03184e-02,1.31891e-04,-1.53152e-03,1.23898e-02,-2.68769e-03,1.63715e-02,-1.13145e-02,-9.19796e-03,-7.35648e-03,-6.55330e-03,2.22935e-03,3.25682e-03,-2.95675e-03,-2.72116e-03,7.22086e-03,4.91047e-03,-1.65725e-02,-1.86495e-03,3.10276e-03,-1.06756e-02,1.29056e-02,8.00386e-03,-1.08842e-02,-3.52365e-03,-1.68443e-02,-1.37074e-03,3.24479e-03,-7.56291e-03,-3.92630e-03,-6.76703e-03,-1.04585e-02,-1.09383e-02,6.99341e-04,3.27619e-03,-3.60098e-03,2.60590e-03,-8.53716e-03,7.84895e-03,-8.68743e-04,6.40112e-03,6.66594e-03,-1.81984e-02,1.40840e-02,1.21096e-02,1.22856e-03,-1.39932e-03,7.07741e-03,-1.19580e-02,-3.51213e-03,-1.21975e-02,6.63104e-03,-5.66355e-04,-1.44924e-03,1.05231e-02,-1.04055e-02,6.49106e-03,9.00528e-03,-7.88142e-03,1.41760e-04,-8.19840e-03,1.24130e-02,1.27604e-02,5.73493e-05,-3.02984e-03,6.45096e-03,9.64267e-03,1.09444e-02,9.05760e-03,-4.65421e-03,-8.96387e-04,-5.34061e-03,3.72205e-04,9.92118e-04,3.62359e-03,-6.19244e-03,-3.92734e-03,-9.36065e-03,-5.80953e-03,2.32201e-03,7.98822e-03,2.04671e-03,2.86664e-03,1.97730e-02,4.00206e-03,-1.96979e-03,1.69357e-02,4.60142e-03,1.65547e-02,-7.97442e-03,-3.44718e-04,5.69477e-03,-8.13698e-03,-4.97990e-03,1.05876e-02,-3.76459e-03,-2.98332e-03,-1.39986e-02,-5.17432e-03,5.42856e-03,2.74340e-03,1.09015e-02,1.91383e-04,9.34376e-03,2.02548e-03,-1.68638e-02,-1.33370e-03,-1.11444e-04,-1.11970e-02,4.78010e-03,5.77268e-03,-1.48843e-03,1.56562e-02,7.66198e-04,-6.91983e-04,-1.44762e-03,-2.68514e-03,1.48155e-03,-9.65625e-03,3.93883e-03,-1.02271e-02,1.47196e-02,3.31442e-03,6.71072e-03,9.05108e-03,8.66013e-03,-2.90510e-03,-8.41008e-03,7.02318e-04,-6.92031e-03,1.37312e-02,1.35231e-03,-4.85204e-03,1.87517e-02,2.75454e-03,-6.39232e-03,1.17430e-02,-1.73062e-02,-9.71885e-03,7.02026e-03,-2.97611e-03,5.21220e-03,9.85981e-03,-7.06128e-04,-1.75938e-02,6.22376e-03,-1.79226e-05,4.17181e-03,1.20644e-02,-2.47672e-03,3.44119e-03,-5.93662e-04,-2.69640e-03,-1.71813e-03,3.54208e-04,8.32016e-03,6.05796e-03,8.66063e-03,-2.35908e-03,-6.26227e-04,2.34173e-05,-1.72350e-03,7.44355e-03,7.09492e-03,-3.49818e-03,1.89248e-02,-1.85002e-02,2.18286e-03,8.10777e-03,1.17947e-02,9.75039e-06,-4.88802e-03,-9.72491e-03,6.33813e-04,-1.32419e-02,-5.55170e-03,-9.88189e-03,-6.59163e-03,-2.62984e-03,-4.82520e-03,-6.76414e-03,1.00660e-02,2.43932e-03,5.42101e-03,3.88949e-03,-6.93127e-03,3.91330e-03,-1.01474e-02,-1.14430e-02,-4.18207e-04,6.49166e-03,3.40400e-03,2.58894e-03,-7.52304e-03,5.22803e-03,-1.05601e-02,-1.82450e-03,6.86539e-03,-2.64090e-04,-1.03800e-02,8.12045e-03,4.24279e-04,-1.21774e-02,-3.72701e-03,7.63392e-03,1.68176e-02,3.95236e-03,1.42995e-03,-1.18445e-03,2.78485e-03,-5.04493e-03,-2.38724e-03,2.41814e-05,-6.72597e-03,-2.00611e-03,-1.30664e-02,-4.92490e-03,3.29739e-03,-3.64356e-03,-1.24391e-02,4.89198e-03,-9.59643e-03,6.68452e-03,-3.43937e-03,-7.17468e-03,7.70477e-05,-9.64993e-03,5.18876e-03,-1.43497e-02,1.52792e-02,1.01224e-02,-7.25116e-03,1.06876e-02,5.80578e-03,7.26656e-03,-2.75713e-03,1.06382e-02,8.01400e-03,-8.34478e-03,1.19352e-03,-1.07994e-02,-1.47318e-02,1.47856e-03,-5.05473e-03,2.40742e-03,2.04308e-04,2.41649e-03,1.57148e-02,1.15062e-02,7.47386e-03,-1.03699e-02,1.41161e-02,1.34817e-02,9.69481e-03,4.31893e-03,4.40305e-03,2.75707e-03,4.46032e-03,5.79899e-03,1.26896e-02,-1.72199e-03,-1.34005e-02,1.03994e-02,-1.33715e-02,7.60082e-03,-1.04222e-02,-1.18634e-02,5.73960e-03,1.28753e-02,-1.63951e-02,-1.35859e-02,-1.65900e-02,-5.87644e-03,5.95425e-03,8.37015e-03,-6.68435e-03,-2.54162e-03,-4.17784e-03,5.44417e-03,-4.37676e-03,-1.26715e-02,-7.55864e-03,5.99034e-03,-7.27887e-03,-6.36403e-03,1.03298e-02,-1.02354e-02,-1.42143e-02,4.17550e-03,2.54302e-03,1.54124e-02,-1.34118e-02,9.13650e-03,4.80440e-03,1.72810e-03,-1.66509e-02,1.43481e-02,-6.78044e-03,9.04238e-03,-4.37438e-03,-2.27471e-03,-4.42772e-03,7.83369e-03,-4.89557e-03,-1.37312e-02,6.35295e-03,-1.59741e-02,4.10232e-03,-1.64889e-02,7.79416e-03,-1.03829e-02,-1.09872e-03,-2.54115e-03,4.81987e-04,1.10965e-02,-1.08508e-02,-1.22170e-02,1.67817e-02,6.85721e-04,8.69391e-03,3.51116e-03,4.26562e-03,-2.25321e-03,6.57688e-03,-1.67926e-03,-4.72592e-03,1.71580e-02,1.05113e-02,4.14672e-03,4.27189e-03,-5.34286e-03,9.64947e-03,4.21164e-03,1.04200e-02,1.09486e-02,6.57891e-03,-1.43186e-04,1.21793e-02,1.10313e-03,-1.00473e-02,-9.55823e-03,7.88869e-03,7.59646e-03,-3.59234e-03,8.33112e-03,-1.89116e-02,-1.39293e-03,-4.44171e-03,1.17639e-02,2.93003e-03,-1.15976e-02,-9.37787e-03,4.19161e-03,7.22062e-03,3.50997e-03,8.94146e-04,-1.00462e-02,3.35425e-04,-4.56648e-03,-3.28259e-03,4.36636e-03,1.06267e-02,-5.01284e-03,-8.69707e-03,9.94722e-03,-2.14180e-03,-4.44245e-03,-1.21891e-02,-5.97861e-05,4.36500e-04,-1.07171e-02,6.05639e-03,-1.52454e-02,1.07273e-02,-3.34369e-03,8.68147e-03,6.17527e-03,3.73787e-03,6.68236e-03,7.52953e-03,1.67824e-02,6.32165e-04,-7.94677e-03,-1.83749e-02,1.70047e-02,-8.01837e-04,-8.51592e-04,-6.65339e-03,-1.21414e-03,-1.93261e-02,-1.22145e-02,-1.94452e-02,-1.00706e-02,-3.22246e-03,-1.32819e-04,1.53234e-02,-7.40574e-03,-9.46612e-03,-1.29243e-02,-4.72798e-03,1.16307e-02,3.20621e-03,1.13956e-02,-1.12862e-02,-9.50185e-03,1.93214e-02,1.19095e-02,-1.76198e-02,-8.61791e-04,-7.10196e-03,-6.05416e-03,8.09114e-03,-4.79444e-04,1.05825e-02,6.91460e-03,7.79648e-04,-9.20863e-03,4.06583e-03,-1.29834e-02,5.09016e-03,7.37845e-04,2.99370e-03,-1.60341e-02,7.60020e-03,-5.33569e-03,4.41499e-03,-1.26358e-03,5.70475e-04,4.55825e-03,1.04531e-05,-1.66480e-02,1.09553e-02,8.56247e-03,-6.89265e-03,1.90544e-03,1.90339e-02,6.80269e-03,-4.15844e-03,1.50814e-02,8.21142e-03,-1.67059e-02,8.85904e-03,7.72001e-03,2.10692e-03,1.07019e-02,-8.88115e-03,1.89576e-03,-9.33400e-03,3.25780e-03,-2.56488e-03,-1.04043e-03,7.34832e-03,4.01743e-03,4.13959e-03,-2.50094e-03,-2.49434e-03,1.59296e-02,-2.32739e-03,-7.11458e-03,3.60870e-03,-3.59698e-03,5.85796e-04,-1.25203e-04,-3.32859e-03,-5.02164e-03,2.19112e-03,8.33038e-03,-2.82611e-03,5.74818e-03,-8.81289e-03,9.80933e-03,4.43333e-03,1.33485e-03,-4.75631e-03,-6.91185e-03,-6.31168e-03,-3.14815e-03,5.69893e-03,-1.01805e-02,-6.84189e-03,-1.98136e-03,-5.54125e-03,1.00630e-02,-7.96158e-03,-6.81206e-03,9.36360e-03,-1.40576e-02,-1.12474e-02,1.12458e-02,1.70106e-02,-1.03117e-02,1.69769e-02,4.83666e-03,7.34103e-03,-9.47545e-03,-1.09594e-02,1.70761e-02,-1.15395e-02,-3.20649e-03,4.85291e-04,-5.40875e-03,3.39384e-03,6.39124e-03,-1.30828e-02,5.17502e-03,7.74631e-03,-1.94242e-03,-5.43416e-03,-1.89442e-02,-6.95045e-04,-9.71741e-03,-3.59298e-03,-3.54370e-03,-9.00977e-03,-2.20698e-03,-1.16418e-02,7.82575e-04,-8.35933e-03,2.35284e-03,-1.79832e-03,5.14290e-03,1.53765e-03,5.83973e-05,-5.27079e-03,1.15421e-02,-5.10578e-03,-3.53596e-03,-1.78955e-03,-1.07913e-05,-8.12431e-03,
1.69327e-03,-9.88187e-03,4.92477e-03,-1.70733e-02,1.19795e-02,-1.14637e-02,4.36769e-03,-9.21099e-03,-1.16511e-02,-4.46766e-03,-3.43529e-03,-2.96072e-03,1.69184e-02,6.06362e-03,1.25028e-02,-6.42350e-03,-4.55029e-03,-5.55923e-03,1.20293e-02,-1.30690e-02,-6.32044e-03,-2.69017e-04,-1.78830e-03,1.09529e-02,-7.65114e-03,4.28306e-04,8.64057e-03,2.07670e-03,-1.52584e-02,5.19049e-03,8.25623e-03,-4.68224e-04,-6.53267e-03,2.04500e-03,-8.62704e-03,-1.02329e-03,1.03972e-02,-7.40102e-03,-3.55187e-03,-4.93062e-04,9.31177e-03,-1.93336e-03,-5.66636e-03,-2.39027e-03,1.58340e-03,-1.03674e-02,-2.59187e-04,-1.43561e-02,2.18900e-03,2.35046e-03,-7.40021e-03,-1.88585e-02,1.51726e-02,5.32181e-03,9.11003e-03,3.11823e-03,5.07590e-03,-6.44157e-03,5.04189e-03,6.82611e-03,-5.63466e-03,5.24802e-03,1.53749e-02,7.50152e-03,-1.23212e-02,8.61126e-03,-8.24629e-03,3.64477e-03,-1.10013e-02,-5.39548e-03,1.08834e-03,9.48315e-03,7.65864e-03,7.97995e-03,-2.00391e-03,-6.39897e-03,5.16793e-03,-7.11562e-03,1.30814e-02,8.34025e-03,4.44095e-03,-1.13089e-02,-1.00873e-02,3.60956e-03,1.57321e-03,-8.45627e-03,-9.90980e-03,-1.07452e-02,-1.37844e-02,2.50562e-03,1.09767e-04,1.34537e-02,4.28628e-03,3.39117e-05,1.58294e-03,-2.58758e-03,-2.43170e-03,8.20043e-03,6.39024e-03,8.72381e-03,-1.21787e-02,-2.00241e-03,8.90213e-03,1.19324e-02,-5.54447e-03,4.52117e-03,1.26155e-02,6.29192e-03,-7.47034e-03,1.04391e-02,-4.05770e-03,1.12333e-02,8.90424e-03,-3.37711e-03,2.64585e-03,5.92947e-03,1.15221e-02,8.16368e-03,4.75857e-03,-7.05209e-03,-1.21006e-02,-1.04969e-03,-2.31461e-03,-4.73759e-03,-1.12084e-02,-2.08908e-04,-1.45018e-02,3.88055e-03,-8.94345e-03,-1.32063e-02,-1.57773e-02,2.92969e-03,-1.13769e-02,9.03596e-03,-1.25864e-02,1.24806e-02,1.33161e-02,-4.91956e-03,4.89326e-03,-4.55507e-03,-4.06592e-03,1.07757e-04,-5.31336e-03,-6.56326e-03,1.32897e-03,-9.14382e-03,-9.27090e-04,-1.55576e-03,-1.07899e-02,-1.54288e-02,-3.42514e-03,3.52143e-03,-9.82682e-04,1.37857e-02,7.87892e-03,-1.28691e-02,-1.19135e-02,-2.77669e-04,7.00806e-03,2.09157e-03,-1.02792e-03,-1.40867e-02,-1.18974e-02,1.16215e-02,-9.05468e-03,-7.95452e-03,-7.59047e-03,2.76520e-03,-1.15017e-03,-1.90912e-02,1.68874e-02,-1.97969e-02,1.15911e-02,1.12682e-03,-1.57474e-03,-4.58100e-03,3.51854e-04,7.60753e-03,9.96586e-03,4.71045e-03,-9.98551e-03,-6.99441e-03,1.07362e-03,1.09510e-02,6.38865e-03,-3.36268e-03,-1.43321e-02,-1.36852e-02,7.70453e-04,1.40868e-02,1.26610e-02,-9.61430e-03,1.33935e-03,1.64690e-02,-7.84419e-03,-7.72358e-03,-1.45456e-03,-1.85504e-03,8.58271e-03,5.85130e-03,-1.33725e-02,3.86281e-03,-5.06775e-03,-2.60188e-03,1.85767e-02,-1.37309e-02,-2.66788e-03,1.70998e-02,3.35681e-03,-3.73756e-03,-4.59542e-04,6.00045e-05,-6.40270e-04,5.28435e-03,-1.91882e-03,1.97936e-02,6.99326e-03,-1.69556e-02,-6.73212e-03,4.20405e-03,-4.47015e-03,-4.35723e-03,4.47045e-03,-3.73600e-03,-9.16615e-03,-4.06948e-03,3.48950e-03,-8.68394e-03,-1.77139e-02,-1.51887e-03,-1.05323e-02,-1.18358e-04,6.97063e-03,8.51505e-03,-9.11902e-03,1.86590e-02,4.91410e-03,1.02244e-02,9.06612e-03,-8.76275e-03,-1.66921e-02,-9.63552e-03,-1.49882e-02,-2.96909e-03,4.09538e-03,-8.92851e-03,-1.15012e-02,-5.79371e-03,2.60717e-03,-1.31603e-02,4.77900e-04,-2.85564e-03,-1.43888e-03,-5.59040e-03,-5.61418e-03,2.24835e-03,-7.27600e-03,-5.00369e-03,-5.01513e-03,9.71794e-04,-1.86063e-04,-1.52219e-02,3.59667e-03,8.43574e-03,-6.61456e-03,-5.42104e-03,-2.69167e-03,-1.27728e-02,7.70051e-03,-1.60935e-02,-8.62943e-03,3.86600e-03,-3.96349e-04,-7.41746e-03,-8.37083e-03,-4.54038e-03,-1.26941e-02,-8.77154e-03,1.20464e-02,-2.37635e-03,-1.51100e-04,5.62334e-03,9.84859e-03,-9.16351e-03,1.21213e-02,-1.17861e-02,-1.21671e-02,-8.93329e-03,-1.24362e-03,1.34370e-02,-4.65934e-03,3.04027e-03,-5.79542e-03,-9.72644e-03,4.41773e-03,9.49696e-03,-7.11973e-03,1.83513e-03,7.42080e-03,5.39133e-03,3.73464e-04,-1.44418e-02,5.62941e-03,-6.02625e-03,1.89212e-02,1.76201e-02,3.32333e-03,1.02484e-02,-8.76930e-03,-2.16527e-03,-4.87703e-03,-8.97447e-03,9.57250e-03,-1.31462e-02,6.38548e-03,-2.90998e-03,1.91335e-02,-1.30747e-02,8.94029e-03,1.30836e-02,1.07011e-02,7.53357e-03,2.13137e-03,5.91435e-03,7.92498e-03,2.75421e-03,-8.71614e-03,6.22827e-03,4.11251e-03,1.67312e-02,-8.42561e-03,-1.96964e-02,8.15316e-04,-1.31765e-02,-8.80965e-03,-1.25527e-03,8.45313e-03,-3.33594e-03,-6.09340e-03,-2.53302e-03,1.38361e-02,-9.81542e-03,1.62320e-02,-1.04364e-02,-9.01258e-03,-8.73758e-03,1.59491e-03,-9.91072e-03,-2.19051e-03,1.83428e-04,8.69528e-03,-1.01965e-02,-1.79273e-02,-1.22268e-02,3.53250e-03,4.92145e-03,-4.08250e-03,-1.17948e-02,-1.40728e-04,-7.93547e-03,-1.28931e-02,1.14722e-02,1.66120e-02,9.50231e-03,4.53096e-03,8.18085e-03,1.11251e-02,4.99188e-03,9.56859e-03,1.06941e-02,-4.44689e-03,-8.57605e-03,-5.39355e-03,7.87664e-03,1.13885e-02,1.37387e-02,1.03971e-02,1.54927e-02,-8.19361e-03,-9.53614e-03,-1.92995e-03,-6.39410e-03,2.73405e-03,8.57763e-03,1.72128e-03,-2.73485e-03,4.61249e-03,-4.95626e-03,-1.53209e-02,1.32445e-02,1.33055e-02,5.87755e-03,-3.56638e-03,-6.05466e-03,-9.82117e-04,3.68739e-03,1.16810e-02,-2.95998e-03,6.92493e-03,-2.06334e-03,-7.44114e-04,6.97225e-03,-8.99158e-03,-4.30507e-03,-5.75012e-03,-8.94564e-03,1.87968e-03,-2.64249e-03,7.50234e-03,-1.94270e-03,1.05131e-02,-7.53178e-03,1.24734e-02,4.42570e-04,-3.93175e-03,8.09450e-03,6.85557e-03,4.64468e-03,3.59369e-03,-4.98593e-03,-8.35807e-03,7.82881e-03,-3.67223e-03,-1.21623e-02,-5.16679e-03,7.95293e-05,-1.58739e-02,-2.48789e-04,-5.75771e-03,-1.57694e-02,1.08662e-03,7.37968e-03,2.36747e-04,-4.08857e-03,-6.49543e-03,-1.13952e-02,2.40265e-04,1.86350e-02,-2.94712e-03,-3.66108e-03,9.93255e-03,1.36523e-02,-2.87111e-03,-7.08655e-03,4.05766e-03,2.56811e-03,-6.53904e-03,-6.39259e-03,7.45601e-03,-7.46611e-05,1.53333e-02,-1.93986e-03,-5.79545e-03,-1.87930e-02,-1.44530e-03,-1.21798e-03,-5.83578e-03,-9.58268e-03,2.81030e-04,-1.44504e-02,-7.52108e-03,-1.36056e-02,4.51496e-03,1.34277e-03,-2.26166e-03,-1.69321e-02,1.00387e-02,2.29371e-03,9.45782e-03,-5.36626e-03,1.02903e-03,-3.33573e-03,-2.13108e-04,7.31861e-03,3.98505e-03,-1.54853e-02,-1.54439e-02,-1.06361e-05,1.49275e-02,-8.49808e-03,1.10229e-02,8.79412e-03,-1.00812e-02,-2.54861e-03,1.29945e-03,1.63745e-02,-1.51383e-02,6.68234e-03,4.18024e-03,-3.91002e-03,9.20462e-03,-7.47402e-03,1.38826e-02,-1.52060e-02,1.81357e-02,-9.14981e-03,-4.73185e-03,1.32453e-02,-1.08424e-02,-1.08962e-03,7.19102e-03,1.17649e-02,7.32354e-03,-1.54773e-03,6.40093e-03,2.63057e-04,8.74762e-04,-9.87333e-03,3.47454e-03,1.53720e-02,-1.52746e-02,-1.77218e-02,-1.56897e-02,2.17584e-03,1.85753e-03,-6.36606e-03,-5.33648e-03,-2.93763e-03,-2.77935e-03,8.94741e-03,-2.80736e-03,-1.29046e-03,-3.81379e-03,-7.37045e-03,1.35401e-02,-4.30819e-05,-1.57804e-02,-4.62172e-03,6.85541e-04,-1.13040e-02,-2.87489e-04,1.68164e-03,-7.77370e-03,-9.81869e-03,1.07736e-02,7.54748e-03,-5.07006e-04,-4.45235e-04,1.18142e-02,-1.09910e-02,-5.55982e-03,-3.27846e-03,-3.84551e-03,3.22226e-03,1.36287e-02,-1.26283e-02,4.17033e-03,1.17884e-02,6.07450e-03,-1.39939e-02,-3.09897e-03,1.62678e-03,-6.33023e-03,-1.09982e-02,2.20883e-03,-2.64116e-03,-1.72674e-02,-1.38615e-02,-8.07354e-04,-1.90393e-02,8.69439e-03,-1.09363e-02,1.14077e-03,7.18039e-03,-1.01937e-02,1.02726e-03,4.67517e-04,1.69949e-02,1.14984e-02,-1.53551e-02,6.39524e-03,-1.10694e-02,-1.29729e-03,-1.34133e-02,1.64626e-02,1.01903e-02,-1.54956e-02,5.03752e-03,-7.16895e-03,-1.09316e-02,-1.07532e-02,6.80729e-03,1.43580e-02,-2.15225e-03,-1.16779e-02,-1.30677e-02,1.25959e-02,-2.16563e-03,1.19618e-02,6.25466e-03,-4.30517e-03,-7.77293e-03,3.93907e-03,8.62146e-03,-3.95868e-03,-9.51241e-04,9.70094e-04,3.69780e-03,8.13429e-03,-4.58141e-05,-3.82628e-04,-7.67512e-03,6.19894e-03,-1.99504e-03,4.82323e-03,-1.26967e-02,-4.99188e-03,-6.43274e-03,1.42033e-02,-1.70621e-02,-1.06944e-02,7.75937e-03,5.89988e-03,-5.45896e-03,8.39003e-03,-1.85801e-02,1.37438e-02,4.10807e-03,1.20488e-02,-4.75947e-03,6.18783e-03,-5.84445e-03,1.98668e-03,-1.07421e-02,3.51131e-03,2.97466e-03,-6.96018e-03,5.52609e-03,-1.67269e-02,5.31608e-03,4.69728e-03,-1.15805e-02,1.30592e-02,-1.87520e-03,1.27647e-02,6.34058e-03,7.16749e-03,-5.97189e-03,-5.20356e-03,-1.00813e-03,9.55252e-03,-2.46865e-03,7.63400e-03,1.24908e-02,8.70363e-03,-1.09307e-02,9.75328e-03,-2.92881e-03,3.21711e-03,9.86899e-03,6.44847e-03,5.74201e-03,-3.90638e-03,1.46772e-02,1.51776e-02,3.78273e-03,-4.23355e-03,-3.49809e-03,2.10301e-03,-7.03069e-03,-7.37579e-03,-3.70485e-04,1.15808e-02,-6.54754e-03,9.31249e-03,1.36513e-02,1.22624e-02,-1.45965e-03,-2.59274e-03,1.71296e-02,9.05658e-03,8.38383e-03,1.47524e-02,7.24252e-03,-6.06683e-04,1.19166e-03,-1.46219e-02,-1.91331e-02,1.43048e-02,-9.05326e-03,1.96149e-02,-5.59299e-03,-5.32395e-03,-1.26217e-02,1.42703e-02,-1.67938e-02,8.63389e-03,-9.04672e-03,-2.56220e-03,1.67831e-02,-1.35936e-03,-8.61312e-03,4.49904e-03,3.13017e-03,1.06197e-02,-3.07138e-03,5.31500e-03,-8.11320e-03,8.79890e-03,-7.11305e-03,-8.26542e-03,4.65471e-03,-2.62298e-03,-3.15440e-03,1.88631e-03,-1.51643e-03,-4.31971e-03,-6.82991e-03,3.90934e-03,1.41239e-03,1.97403e-03,5.87132e-03,-2.46670e-03,-1.48256e-02,-1.36342e-02,-7.38447e-03,-1.57099e-02,-1.14720e-02,5.88880e-03,1.87010e-02,-1.62131e-02,-1.67478e-02,7.10816e-03,-2.45417e-03,1.73044e-02,1.15972e-02,-1.71106e-03,-2.85895e-03,4.46323e-03,-1.41281e-02,3.69967e-03,-1.21964e-02,8.78157e-03,-6.78173e-03,2.98291e-05,-6.24507e-03,1.56500e-02,-1.19211e-02,-5.11704e-03,1.56787e-02,-4.70388e-03,-2.68660e-03,5.58733e-03,-1.06929e-02,-9.15035e-03,-9.99872e-03,-1.57146e-02,4.28260e-03,1.72455e-02,-2.95884e-03,6.52019e-03,-6.44300e-03,1.18547e-02,1.34349e-02,1.55819e-02,-1.14027e-02,2.19647e-03,-6.74529e-03,-8.71527e-03,3.37728e-03,-1.07038e-02,-9.14526e-04,9.57280e-03,7.71854e-03,4.69273e-03,8.67232e-03,-4.57150e-03,-3.95786e-03,-2.55261e-03,-6.53660e-03,5.62541e-03,1.08365e-02,-1.54831e-02,-5.69897e-03,-6.74280e-03,-1.23409e-02,-9.42799e-03,6.20582e-03,-1.32001e-02,-1.03184e-03,1.01309e-02,-1.23035e-03,-1.39596e-02,-2.83652e-04,
-7.17057e-03,-1.43151e-02,1.16899e-02,-1.51658e-02,-9.67713e-04,7.75212e-03,1.12246e-02,6.84057e-03,1.12400e-02,2.43312e-03,1.20492e-03,-8.47467e-03,-7.70666e-03,3.45452e-03,3.85062e-03,-4.42321e-03,-1.51103e-02,-4.47119e-03,6.02434e-03,-1.04492e-02,-1.85121e-02,-2.03551e-03,-1.20855e-02,-1.73894e-02,-8.05474e-03,-1.83456e-02,1.52745e-02,-8.72189e-03,-3.07314e-03,-2.12853e-03,5.90188e-03,7.38272e-04,2.82313e-03,4.60993e-03,2.43233e-03,7.07655e-03,9.15798e-03,-1.59440e-02,5.31218e-03,4.56560e-03,8.59306e-03,1.60952e-02,1.13084e-02,3.50133e-03,-8.13893e-03,-6.94948e-03,4.80713e-04,1.50485e-03,9.82056e-03,1.67971e-02,7.86813e-03,-1.00454e-02,9.83441e-03,9.55775e-03,-3.74451e-03,2.87282e-04,-5.78981e-03,1.31764e-03,-3.45478e-03,-1.11770e-03,-9.10747e-03,2.04356e-03,1.81266e-02,1.53763e-04,8.28826e-04,4.49597e-03,-3.62913e-04,3.35665e-03,4.63033e-03,-2.64835e-03,-4.08882e-03,-7.80894e-03,1.04328e-02,-1.01236e-02,3.21749e-03,-8.87659e-03,-1.43458e-02,6.92263e-03,1.03145e-03,1.24061e-02,-1.52705e-03,1.96344e-03,1.39397e-02,3.79109e-03,-7.78663e-03,1.31014e-02,-7.36539e-03,8.21686e-03,6.28764e-03,-8.91019e-03,-9.89233e-03,6.66773e-03,8.44124e-03,7.58504e-03,1.22169e-04,1.16498e-02,-7.19498e-03,-6.89079e-03,3.53034e-03,2.22328e-03,-1.56662e-02,1.85899e-03,6.10551e-03,1.66093e-02,-2.70182e-03,-4.31828e-03,1.26452e-02,-4.58685e-03,1.24086e-02,-3.07988e-03,3.11276e-03,1.03127e-02,-1.56555e-02,1.65519e-02,-8.33814e-03,-5.41442e-03,-1.62312e-03,2.35182e-03,-8.33717e-04,-3.02050e-03,-3.41982e-03,5.53132e-03,6.53070e-03,1.88000e-03,-6.49640e-03,1.10602e-02,1.27648e-02,-5.32290e-03,2.03953e-03,-6.79257e-03,-2.41184e-03,2.37394e-03,1.03597e-02,-4.15928e-03,-1.14634e-02,1.31447e-02,-1.28623e-02,-7.01856e-04,-1.54339e-02,9.79566e-03,1.89463e-02,-1.32088e-03,1.28916e-02,2.09077e-03,-1.79056e-02,-1.43491e-02,2.54021e-03,-4.36555e-03,-1.78249e-02,-1.05441e-02,-1.24370e-02,1.27607e-02,7.37382e-03,1.08073e-02,2.18924e-03,5.64648e-03,-2.66136e-03,4.62282e-03,1.07795e-03,-7.64438e-03,1.71343e-03,6.52967e-03,-8.14545e-03,-3.99142e-03,8.88712e-04,-1.91231e-02,9.69803e-03,-1.74426e-02,1.71967e-02,-1.44220e-02,-8.27078e-03,9.20472e-03,-9.34402e-03,1.48084e-03,-2.22770e-03,-6.30449e-03,-1.24020e-03,-1.05003e-02,4.97973e-03,-4.38081e-03,-9.21065e-03,-3.09489e-03,5.10591e-03,-1.17647e-02,-1.70150e-02,4.72625e-03,-5.20601e-03,-6.37510e-03,7.24026e-03,-6.22775e-03,-8.00471e-03,-1.66992e-03,1.04479e-02,-7.95427e-03,2.20149e-03,-4.76558e-04,2.27145e-03,-6.20143e-04,-1.26840e-02,-7.14192e-03,-2.03624e-03,3.40604e-03,-1.32209e-02,1.15212e-02,1.34648e-02,-6.00566e-03,-1.86583e-03,1.18406e-02,-1.05695e-02,-4.35330e-03,-1.41776e-02,8.93638e-03,1.55298e-03,9.23956e-03,4.17911e-03,1.53509e-03,-2.00249e-03,1.58391e-03,9.44773e-04,5.24204e-03,-2.72589e-03,1.60705e-03,7.37567e-03,-3.33717e-03,8.61264e-03,1.67353e-02,-1.61075e-02,4.20406e-03,2.83777e-03,-1.16165e-02,-6.21497e-03,1.04896e-02,-4.50920e-03,1.05758e-02,7.54117e-03,-5.40546e-03,-1.24206e-02,3.34138e-04,-1.27007e-03,-2.99219e-03,-2.26607e-03,1.73972e-02,4.55571e-03,6.67308e-03,6.05332e-03,4.99036e-03,-5.26249e-03,1.16568e-02,2.94482e-03,1.57316e-02,7.02960e-03,-1.75804e-02,-1.94080e-03,1.05512e-02,-3.13799e-03,-1.49486e-02,6.55128e-04,-1.83658e-02,9.81923e-03,-1.05543e-02,1.57501e-02,-1.68922e-03,2.99984e-03,3.65374e-04,9.60809e-03,-9.28317e-03,-5.39509e-03,4.59579e-03,5.94254e-03,4.11017e-03,6.84342e-03,6.80233e-03,6.83007e-03,-1.08585e-02,-4.64716e-03,-5.21686e-03,6.99564e-03,-1.91022e-03,-5.14143e-03,4.43884e-03,3.26253e-04,-2.66653e-03,-3.03840e-03,8.99001e-03,-8.14388e-03,-9.18531e-03,3.87269e-03,-1.84319e-02,-1.02701e-02,-1.94060e-02,-1.50135e-02,-2.54152e-03,-1.80723e-03,2.63185e-03,1.18164e-02,-8.69035e-03,6.38218e-03,9.11927e-04,5.50233e-03,1.40618e-03,8.61768e-03,-4.96245e-03,6.90828e-03,4.47957e-03,-1.72180e-03,1.31781e-03,-1.33566e-02,6.83004e-03,-1.13177e-02,7.10676e-03,-3.67682e-03,6.24308e-03,1.13384e-02,-1.11644e-02,5.01939e-03,7.96369e-03,3.82446e-03,8.14392e-03,-2.76515e-03,-1.27422e-02,3.00054e-03,-1.55235e-02,5.85791e-03,-1.09110e-02,2.95722e-03,9.11081e-04,-4.62453e-03,-3.67273e-03,-5.74312e-04,3.15248e-03,4.78989e-03,-1.74715e-02,1.25233e-02,-3.28444e-03,5.29424e-03,-2.56697e-03,2.72070e-03,-3.20410e-03,-1.67504e-03,1.27540e-04,-9.87152e-03,3.57874e-03,-5.22752e-03,-7.41044e-04,-4.65725e-03,-7.05043e-03,1.07755e-02,-2.51238e-03,-2.46405e-03,2.66213e-04,1.59554e-02,5.93438e-03,4.89227e-03,1.47919e-03,1.48393e-02,7.63747e-04,-4.55313e-03,-4.69394e-03,8.34330e-03,-7.05766e-03,8.93524e-03,-1.36927e-02,1.19014e-02,-2.23739e-03,5.49617e-03,8.75335e-03,3.17832e-03,1.23503e-02,-4.91243e-03,-9.31049e-04,-7.26768e-03,1.63430e-02,-4.48709e-03,-4.18757e-03,1.20325e-02,-1.01330e-02,1.52406e-03,-1.16139e-02,-3.61011e-03,1.47074e-02,4.38196e-03,3.43080e-05,3.90955e-04,-7.95946e-03,7.62629e-03,-1.35305e-02,1.98731e-02,1.28065e-02,5.15905e-03,-1.44322e-02,2.72355e-03,-8.54676e-03,9.36723e-03,6.21219e-03,-6.99899e-04,1.32614e-04,-1.82988e-02,-1.39949e-02,-1.65010e-02,-1.71802e-02,2.77892e-03,-6.71175e-03,8.54753e-03,-6.79150e-03,-6.57128e-04,1.26497e-03,3.07209e-03,-6.10959e-03,-1.64206e-02,-6.14213e-03,-1.56240e-02,-5.46773e-03,-5.77461e-03,1.58159e-02,5.48883e-03,4.01747e-03,-1.32533e-02,-9.36681e-03,1.84841e-02,-7.65118e-03,-1.28681e-03,-1.59387e-02,-4.55197e-03,-2.05602e-03,-1.47128e-03,-8.11546e-03,1.65808e-02,-1.03476e-02,5.25911e-04,1.87080e-02,8.03772e-03,-4.63635e-05,-1.84490e-02,1.63377e-03,-9.34931e-04,4.86483e-03,1.05344e-02,-1.20031e-03,-4.20544e-03,-1.12843e-02,-1.45127e-02,7.37003e-03,1.12234e-02,-7.17012e-03,1.43591e-02,2.65884e-03,-1.65510e-03,-6.01130e-03,8.08329e-03,-1.56909e-02,6.89523e-03,7.57485e-03,8.25897e-03,6.46976e-03,-1.12545e-03,-7.21586e-03,-1.96253e-02,-1.35928e-02,-1.45849e-02,1.71676e-03,5.52949e-03,4.77989e-03,1.04422e-02,-5.75969e-03,-3.46956e-03,1.90106e-02,-2.62426e-03,6.63458e-04,-4.62789e-03,1.12731e-02,-6.91902e-03,-1.11810e-03,9.14841e-03,-1.83848e-02,7.79946e-03,8.82388e-03,8.41359e-03,1.35873e-02,6.53972e-03,-5.34883e-03,-1.90300e-02,-1.53380e-02,1.16718e-02,2.75609e-03,7.44510e-05,1.61856e-02,1.91063e-02,-5.53058e-03,-1.70899e-02,2.98770e-03,-1.36561e-03,-6.79255e-03,-1.41871e-02,-4.30169e-03,6.17898e-04,1.88162e-02,1.35317e-02,6.00111e-03,-8.20822e-03,-7.29355e-03,-3.28404e-04,-6.00215e-03,1.19920e-02,-7.07338e-03,2.07826e-03,-7.62107e-03,8.79775e-03,1.46370e-03,-7.03647e-03,-4.58578e-03,1.72331e-03,1.06217e-02,-1.36586e-02,-5.65591e-03,-2.75892e-03,4.00794e-03,-1.49448e-03,6.83721e-03,1.48577e-02,3.90647e-03,1.27197e-02,1.87102e-02,-9.93437e-03,-3.73657e-04,-1.13858e-03,3.16735e-03,1.45067e-02,-5.12417e-03,-1.07623e-02,-1.07162e-02,5.29474e-03,1.60185e-02,-8.16032e-03,2.78367e-03,-7.74029e-03,-9.24760e-04,1.22101e-03,-1.44271e-02,-9.58302e-03,-4.33745e-04,5.35362e-03,1.50708e-03,-3.64818e-03,-4.82464e-03,1.78447e-02,2.79128e-03,-1.13433e-02,3.15627e-04,2.96242e-03,5.38419e-03,-1.40593e-02,1.02925e-02,-1.08719e-02,5.69685e-03,-1.83269e-02,1.06601e-02,-3.73831e-03,3.97970e-03,9.11980e-04,-2.54361e-03,-4.99329e-03,3.38372e-03,5.01523e-03,8.96073e-03,-1.22811e-02,1.35458e-02,-7.35649e-03,9.96674e-03,5.99576e-03,-4.60119e-03,1.54551e-02,-9.66347e-03,-1.25239e-02,3.66638e-03,-3.60866e-05,1.64807e-03,-8.32201e-03,-1.31462e-03,-3.67574e-03,-2.15651e-03,-5.60415e-04,-5.58810e-03,7.79034e-03,2.62602e-03,9.27857e-03,-5.13980e-03,-3.36225e-03,4.21883e-03,-9.17100e-03,-1.82684e-03,1.25051e-02,-1.66259e-02,8.16611e-03,-4.26761e-03,-4.03900e-04,1.33212e-02,-3.76471e-03,-1.25955e-02,4.66753e-04,-8.13047e-04,5.85860e-04,1.12299e-02,1.57962e-02,1.84559e-02,1.16089e-02,-5.58650e-04,-9.98178e-04,8.41911e-03,1.82207e-02,1.04590e-02,4.63809e-04,-1.82882e-02,1.74012e-03,-8.28452e-03,1.52097e-02,3.05906e-03,-8.32551e-04,-8.80577e-03,1.57104e-03,1.71095e-02,1.34130e-02,5.08512e-03,7.07361e-03,-1.37873e-02,7.71939e-03,-4.08076e-03,-6.02663e-04,4.63465e-03,1.15035e-02,3.92871e-03,2.17669e-03,-1.15273e-03,6.73278e-03,-7.94218e-03,1.45116e-02,1.61650e-02,5.19725e-03,-6.63189e-03,-5.42098e-03,1.52849e-02,-1.75560e-02,2.51212e-03,-1.66109e-05,1.62060e-02,-6.22465e-03,5.58847e-03,8.45043e-03,-1.58705e-03,4.55387e-03,3.02280e-03,-1.03251e-02,1.24920e-02,6.17438e-03,7.74385e-03,1.07464e-02,-1.02661e-02,-3.70376e-04,1.52849e-02,-1.53399e-02,-1.55753e-02,5.56528e-03,-7.23018e-03,-1.28331e-02,-4.65993e-03,8.71262e-03,4.98038e-03,-7.40951e-03,-1.54495e-02,1.38701e-02,7.36074e-03,-8.76510e-03,-8.35963e-04,1.73063e-03,8.88205e-03,-6.24209e-03,1.29669e-02,-1.17161e-02,-3.89389e-03,-1.53668e-03,3.03452e-03,-8.36505e-03,6.82682e-03,-7.21594e-03,1.66040e-02,-4.30440e-03,-1.22781e-02,-7.24724e-03,-2.68825e-03,-1.40363e-02,-1.37453e-02,1.39181e-02,5.69999e-03,-3.44024e-03,1.08405e-04,3.04717e-03,-8.98714e-04,1.21953e-02,4.47599e-03,7.77980e-04,1.79853e-02,-6.39953e-03,2.22592e-03,-5.75238e-04,5.42088e-03,7.39921e-03,6.24536e-04,-2.98255e-05,-2.88343e-03,-1.94112e-02,1.50053e-02,1.23068e-02,-1.67699e-02,-8.97373e-03,1.93011e-02,-8.14684e-03,-5.21769e-04,4.81592e-03,-1.21165e-02,1.31112e-02,7.60261e-03,-1.06906e-02,3.01801e-03,1.52858e-03,-1.34945e-02,-7.01341e-03,2.80484e-03,1.16881e-02,6.97730e-03,-9.39192e-03,-9.81065e-03,5.49761e-03,-3.03262e-03,-1.55677e-02,3.01076e-03,-1.20600e-02,5.19572e-03,-1.58267e-03,-9.34412e-03,-4.34406e-03,-4.55769e-03,-1.29904e-02,-1.04197e-02,-1.11538e-02,-1.41196e-02,6.09526e-04,7.20995e-03,6.07418e-03,-1.51969e-03,9.73767e-04,-1.49980e-03,2.43752e-03,5.39795e-04,1.27297e-02,1.10742e-02,-4.86433e-03,-2.26840e-03,-1.56097e-03,6.47143e-03,2.74704e-03,-7.33660e-03,-5.56176e-03,1.80542e-03,-2.57801e-03,-8.20827e-03,-4.66021e-03,-5.58048e-05,-2.01622e-03,-4.87895e-03,-1.94944e-02,1.37547e-03,1.49222e-02,-1.23635e-03,-5.43142e-03,7.43883e-03,1.13220e-02,-1.57571e-02,-1.88389e-02,-2.83917e-03,-1.25849e-02,-9.81856e-03,1.50255e-02,-7.19449e-04,2.18379e-03,-1.72607e-03,
5.40852e-03,1.88981e-02,-2.78519e-03,-1.65095e-03,3.43406e-03,-1.59132e-02,-1.90995e-02,-4.62046e-03,-3.64596e-03,7.20164e-03,-6.91267e-03,1.34240e-02,3.25389e-03,-1.20305e-03,9.11917e-03,6.19909e-03,1.07744e-03,1.51593e-02,4.45362e-04,9.48209e-03,3.59823e-03,-5.79997e-03,1.50373e-03,1.25949e-02,1.15050e-02,-1.27985e-02,3.55575e-04,4.71410e-03,1.62536e-02,-1.66944e-02,-3.75126e-03,-1.34149e-02,6.15747e-03,1.52169e-02,-8.77696e-03,-1.63720e-03,1.20655e-02,-4.49071e-03,4.56172e-03,5.45141e-03,-1.07669e-02,1.50820e-02,1.32446e-03,-3.20066e-03,7.20622e-03,1.98613e-02,2.02419e-03,1.70935e-02,-5.40662e-04,-1.68939e-03,-3.08699e-03,-1.09264e-03,5.60726e-03,3.28991e-03,7.99631e-03,-6.36138e-03,3.04167e-03,-2.47853e-03,-1.82664e-03,1.16802e-02,-1.86182e-02,1.99727e-03,-1.58581e-02,-5.19028e-03,-1.06207e-02,-9.92632e-03,1.30053e-02,-3.70588e-03,8.81378e-04,-8.20824e-03,-1.31787e-02,-6.46750e-03,-5.01449e-04,-6.10976e-03,-6.55164e-03,-8.36693e-03,-2.78048e-03,5.51451e-04,-6.53542e-03,9.26992e-03,6.70326e-03,-2.24316e-03,-3.11823e-03,-5.28048e-03,-1.21770e-02,-1.77621e-03,-1.78949e-03,-4.78738e-03,5.17487e-03,1.74559e-02,-1.51721e-02,-3.47184e-03,6.25737e-03,-2.23235e-03,2.51608e-03,1.45599e-02,1.10268e-04,5.66574e-03,6.78449e-03,4.42908e-03,5.62972e-04,3.99920e-03,5.25521e-03,-3.22544e-03,-8.86254e-03,5.48430e-03,8.42159e-03,9.48541e-03,5.07502e-03,1.43266e-02,2.25759e-03,-7.47491e-03,6.72279e-03,-2.99132e-03,-1.47204e-03,-1.83117e-03,4.20156e-03,8.27510e-03,-3.05850e-03,-7.63126e-03,-7.25495e-03,9.42713e-03,-1.27856e-02,-1.72861e-02,2.87885e-03,-6.01271e-03,8.45143e-03,3.47997e-03,5.52905e-03,-5.84005e-03,7.99114e-03,7.52676e-03,1.68447e-02,5.31752e-03,-2.89389e-03,6.45506e-03,3.26151e-03,-8.92797e-03,-1.16424e-02,-1.65879e-03,1.74416e-03,2.25638e-03,-1.31589e-02,7.08664e-03,2.71677e-03,-8.01655e-04,6.97508e-03,-1.93534e-03,7.73729e-03,-7.39649e-03,9.47758e-04,-1.68777e-02,7.19186e-03,1.63290e-03,-1.36766e-02,1.59810e-02,1.86771e-02,-1.51687e-02,-4.68747e-04,4.82442e-04,1.49711e-02,-1.55676e-03,2.71757e-03,1.50848e-02,1.45493e-02,-2.70315e-03,-7.21500e-03,8.58361e-04,7.16008e-03,1.54247e-02,-4.61266e-03,-1.59665e-03,2.91666e-03,-1.54389e-02,1.82878e-02,2.92514e-03,2.28395e-03,-5.64749e-05,9.25684e-03,-1.25001e-02,-5.74660e-03,-1.47734e-02,-1.20839e-02,-3.62761e-03,5.27786e-03,-1.69730e-02,1.36416e-04,5.08026e-03,1.21504e-02,-1.00590e-03,-8.25538e-03,4.61203e-03,-5.41796e-03,-1.27491e-02,4.11531e-03,-8.49530e-04,8.71415e-04,-8.55948e-03,-4.50405e-03,-1.67597e-03,1.21885e-03,-2.50307e-03,-4.73901e-03,1.69619e-02,2.21167e-03,-8.12468e-03,6.27393e-03,-4.97161e-03,-3.04704e-03,-9.35429e-03,6.88199e-03,1.21662e-02,1.56790e-02,5.01437e-03,3.56478e-03,-1.54784e-02,-2.89596e-04,-9.65547e-03,4.41970e-03,1.95840e-02,-8.27338e-03,-4.89515e-03,-9.63356e-03,1.25121e-02,5.84314e-04,5.10820e-03,6.20719e-03,-4.67152e-03,-1.95236e-03,4.79820e-03,-7.85487e-03,-3.39668e-03,-5.66008e-03,-6.08401e-03,-4.00037e-03,1.14661e-03,-1.75108e-02,-1.37487e-02,-4.61780e-03,-8.24050e-03,1.90304e-02,4.66217e-04,3.86642e-04,-9.32824e-03,-9.50537e-05,-9.62739e-03,-1.08172e-03,-1.39432e-02,-5.04357e-03,1.16912e-02,4.08108e-03,-9.71374e-03,1.21391e-02,-6.88171e-03,-8.04820e-03,1.09062e-02,-6.19915e-03,8.69737e-03,-2.94509e-03,-9.19008e-03,-4.77825e-03,6.72410e-03,-9.86845e-03,-4.80056e-03,1.07882e-02,3.38898e-03,-6.54999e-03,-1.26779e-02,1.01320e-02,6.79870e-03,-3.46976e-03,-7.45846e-03,1.29548e-02,4.42668e-03,-9.40337e-03,-1.67832e-02,1.45417e-02,-1.39689e-02,1.47278e-03,-7.46827e-04,-6.60421e-03,-1.00739e-02,1.43018e-02,-3.87658e-03,-4.71630e-04,1.79034e-02,7.53394e-03,1.19833e-02,5.93231e-03,-1.53718e-02,1.75756e-02,7.66236e-03,4.81395e-03,3.73909e-04,6.28027e-03,1.18756e-02,-1.30079e-02,7.54485e-04,6.63772e-03,-1.00754e-02,-8.33419e-03,-1.56811e-02,4.46747e-03,-6.08971e-03,4.25858e-03,-4.41385e-03,1.05626e-03,1.65760e-02,-6.49825e-03,1.60771e-02,4.52569e-03,-1.09293e-02,1.00824e-02,1.68256e-02,-5.48526e-03,1.50295e-02,2.54546e-03,5.51851e-03,-7.27112e-03,1.24117e-02,-2.30586e-04,-4.21592e-03,-7.81042e-03,2.40181e-03,1.55125e-03,-1.49617e-02,1.68229e-03,2.85669e-04,1.26712e-03,-5.12560e-03,-1.28741e-02,1.11382e-02,1.47066e-02,-6.46620e-03,-1.00894e-02,-7.91173e-04,-2.02653e-03,4.64083e-03,1.26509e-03,-1.11966e-02,-8.39742e-03,1.65763e-03,2.07455e-03,-7.23553e-03,-4.19749e-03,-7.32967e-03,-1.70809e-03,-1.10036e-02,7.37841e-03,-3.36295e-03,6.53637e-03,1.04240e-02,1.00324e-02,-7.10394e-03,1.70895e-02,4.59192e-03,-1.77390e-02,1.17592e-02,-9.60948e-03,-1.95920e-02,6.67962e-04,-2.75356e-03,-2.55097e-03,7.50687e-03,-1.00377e-02,-7.38368e-03,1.67165e-02,1.94507e-03,1.19607e-02,4.99559e-03,2.94190e-03,-3.77667e-03,1.18717e-02,-1.20731e-02,-1.99106e-02,3.26712e-03,7.86092e-03,1.26922e-02,3.57937e-03,-5.33243e-03,-7.03525e-03,-3.45433e-03,1.86202e-02,-2.35344e-03,3.50016e-03,1.50534e-02,1.36374e-02,-7.97202e-03,3.49690e-03,-7.40786e-03,1.32765e-02,1.17756e-02,2.57025e-03,-6.22537e-03,-4.70814e-03,1.12305e-03,-3.25006e-03,-1.77218e-02,-1.23474e-02,9.61826e-03,-8.35450e-03,-9.64150e-03,9.66606e-03,-7.32892e-03,-2.90966e-03,-1.64512e-02,-1.03165e-02,-8.49482e-03,7.80349e-03,3.30543e-04,-7.13938e-03,-6.57148e-03,2.40630e-03,1.14955e-02,1.93024e-02,1.06339e-02,1.59341e-04,-1.10146e-02,1.52218e-02,3.41876e-03,-4.31389e-03,-8.75235e-03,6.00039e-03,1.07969e-02,3.82354e-03,-1.76143e-02,-5.15879e-03,-9.21460e-03,1.04970e-02,8.64277e-04,-1.56195e-02,1.10607e-02,8.87884e-03,-1.54764e-02,-1.74134e-02,-2.17374e-03,-1.82701e-02,-1.62415e-02,-9.94745e-03,-9.13176e-03,1.89634e-02,3.62779e-03,9.38339e-03,-3.59306e-03,-1.47759e-02,1.47100e-03,9.06550e-03,3.45131e-03,6.24698e-03,-1.69824e-02,5.40448e-03,4.05977e-03,9.13411e-03,-6.84959e-03,4.16119e-04,6.88854e-03,-2.78475e-03,1.62821e-02,4.27045e-03,6.99147e-06,9.63682e-03,1.39072e-02,2.56198e-03,1.94848e-03,6.74827e-03,-1.05921e-02,-1.88874e-02,-5.59362e-03,-3.99790e-03,-2.99667e-03,-2.47301e-03,-3.07277e-04,-1.91022e-03,1.52149e-02,-6.05603e-03,-1.02689e-02,4.46140e-03,2.71342e-03,3.43973e-04,-6.82036e-03,-2.20031e-03,-1.28126e-02,3.48102e-03,-1.34596e-03,2.92663e-03,-1.07061e-02,-1.04118e-02,-9.21622e-03,1.85938e-03,2.05238e-03,-2.50957e-03,-5.56767e-03,-5.15585e-03,-5.77353e-03,8.99995e-04,-7.65096e-04,-1.07147e-03,1.81257e-03,-4.73666e-03,1.13300e-02,-1.40694e-02,-4.87168e-03,-4.50867e-03,-4.78805e-03,3.25547e-03,-1.95122e-02,-4.15600e-03,5.28984e-03,-8.06197e-03,9.64684e-03,-1.26822e-02,-8.79214e-03,6.32544e-03,-2.80478e-03,-3.13130e-03,1.42322e-02,-1.05050e-02,-5.06724e-03,1.19128e-02,-4.58028e-03,4.05966e-03,4.89494e-03,6.02850e-03,-4.42938e-03,-3.72209e-03,-4.19720e-03,1.26812e-02,7.68538e-03,-7.84388e-03,1.18556e-03,6.92174e-04,1.07445e-02,8.94383e-03,-1.40326e-02,-1.34374e-02,8.67711e-03,5.03988e-03,9.92824e-03,-4.95424e-03,-5.03200e-03,3.51978e-05,-6.75198e-03,1.26259e-02,6.85805e-03,-3.46091e-03,-2.76852e-03,-6.80501e-03,6.01890e-03,2.73308e-03,7.72427e-04,8.27130e-03,-8.56982e-03,1.16823e-02,-1.46554e-02,4.62370e-03,3.60601e-03,-6.68724e-03,-5.31098e-03,-7.82197e-03,-3.65308e-03,1.50354e-02,1.20902e-02,-1.65174e-02,1.05283e-02,1.35418e-02,8.62488e-04,-4.53067e-03,-6.78585e-03,9.07636e-03,3.33782e-03,1.23205e-03,-1.70119e-03,-1.10693e-02,1.55372e-03,-7.00343e-03,4.17042e-03,3.68784e-03,1.62652e-02,1.47821e-02,-4.41271e-03,8.44150e-03,-3.87547e-03,-8.78967e-03,-1.99284e-02,1.09117e-02,1.26224e-02,9.51866e-03,1.29392e-02,6.32559e-03,1.86864e-02,-9.03794e-03,-1.05202e-02,3.48617e-03,-1.31034e-03,1.13052e-02,1.29153e-02,6.40417e-03,-1.90260e-02,2.02831e-03,-4.86614e-04,-6.73956e-03,-1.26550e-02,-1.59156e-02,-1.21174e-02,-3.34487e-03,-1.20361e-02,1.39387e-03,-1.53789e-02,-3.43302e-04,6.61613e-04,2.08513e-03,3.23662e-04,-1.48076e-02,1.22389e-02,1.33099e-02,-7.38146e-04,-1.83346e-02,-1.67936e-02,-5.87205e-04,-2.95947e-03,-5.64996e-03,-6.75661e-03,-2.20189e-03,1.64038e-03,4.85127e-03,-9.66454e-03,-6.15223e-03,3.39944e-03,-3.37151e-03,-1.67178e-03,-1.55772e-02,-1.32112e-02,-1.44730e-02,1.31224e-02,-4.60751e-03,2.01168e-03,1.56474e-03,1.90382e-03,-1.61060e-02,-9.21118e-03,8.95756e-03,4.63021e-04,4.89436e-03,1.03556e-02,-1.01619e-03,-4.29452e-04,-2.85683e-03,9.35589e-03,2.09166e-03,1.10023e-02,2.87276e-03,-2.64669e-03,-3.91274e-03,-3.67013e-03,-4.89829e-03,1.38127e-02,1.97612e-02,-2.95522e-03,1.40773e-02,3.64183e-03,-2.95659e-04,9.55841e-03,-1.82025e-02,7.54315e-04,1.46442e-02,-6.94356e-03,4.79706e-03,1.21661e-03,2.84311e-03,1.78527e-02,1.01042e-02,-1.49438e-04,6.04166e-03,9.18316e-03,-3.11696e-03,-1.23932e-03,-1.72103e-02,3.71041e-03,-2.41816e-03,-5.52622e-03,-1.98840e-03,3.11771e-03,-9.99779e-03,4.16514e-03,-9.98619e-03,-1.70943e-02,-1.22879e-02,4.67312e-03,3.51022e-03,-6.28644e-03,1.11540e-03,1.65886e-02,-5.86780e-03,-4.28290e-03,-1.28056e-03,-1.11068e-03,1.26165e-02,1.30904e-02,1.85699e-03,1.39798e-03,-1.51752e-03,-1.06997e-02,3.05585e-03,-9.63216e-04,-7.43258e-03,8.19653e-03,-7.92226e-03,3.80647e-03,1.69589e-02,-1.52181e-02,-9.26967e-03,-1.72568e-03,-3.50978e-03,-4.68250e-03,-9.10818e-03,8.00715e-03,-6.40546e-03,6.11393e-03,1.78629e-03,-7.83852e-03,2.40300e-03,7.54406e-03,-1.00452e-02,-2.23473e-03,2.10517e-03,1.25460e-03,-3.73215e-03,1.26418e-02,4.60823e-03,-4.42064e-03,8.00814e-03,8.44394e-04,-2.33312e-03,-1.17564e-02,-1.92632e-02,1.28391e-02,-1.43756e-02,-2.84346e-03,-6.03419e-03,9.14281e-03,1.40835e-02,1.82660e-02,-1.07415e-02,7.70500e-03,-1.83863e-02,-1.06546e-02,-7.40497e-03,2.39332e-03,1.32897e-02,-5.19713e-03,3.65760e-03,-7.32596e-03,-3.26152e-03,1.29332e-02,-1.05933e-02,-1.24459e-02,-1.28604e-02,-1.32129e-03,3.02596e-04,-4.14789e-03,-4.33411e-03,2.98866e-03,-2.06534e-03,-1.56607e-02,-5.78843e-03,-6.56512e-03,4.02510e-03,2.24853e-03,-1.10975e-03,-7.37853e-03,-7.00348e-03,9.93380e-03,4.77236e-03,-1.82393e-02,-1.41403e-02,-7.84167e-03,-6.54760e-03,8.94158e-03,3.30909e-04,2.89012e-04,1.58978e-02,-6.43827e-03,-9.03690e-03,-5.44037e-03,
-9.72850e-04,-1.04352e-02,-8.34687e-03,4.34017e-03,2.73863e-03,1.60797e-02,-1.84932e-02,3.77863e-03,-4.44151e-03,9.15583e-03,1.29143e-02,-1.30316e-02,-1.02347e-02,4.22544e-03,2.53699e-03,1.59544e-02,1.67352e-02,-2.78514e-03,1.22550e-03,1.60858e-03,1.86271e-02,-2.13799e-03,9.84758e-03,-1.04147e-02,-1.42969e-02,1.24665e-02,-8.77268e-03,-4.90802e-03,5.01488e-03,-2.71141e-03,-9.91146e-03,-1.47271e-03,-1.06136e-02,-9.79506e-04,-1.06625e-02,-1.71913e-02,1.34084e-03,-6.00709e-03,8.43171e-03,1.60276e-02,5.89158e-03,6.89983e-03,-7.81717e-03,1.62268e-02,-3.20778e-04,5.10633e-03,-4.64624e-05,-1.09937e-02,1.01766e-02,-1.23391e-02,-1.13470e-02,2.58018e-03,8.62642e-03,6.19714e-03,1.65829e-02,-2.94003e-03,1.03129e-02,2.72297e-03,-1.24884e-02,5.20660e-03,-1.56273e-03,-1.76589e-03,4.45505e-03,1.95523e-02,-1.02181e-02,1.35745e-02,-1.45752e-02,1.32318e-03,-1.58036e-02,1.29423e-02,-3.52181e-03,-6.94340e-03,1.67925e-03,1.37449e-02,-8.66199e-04,8.88242e-03,-1.33034e-03,-3.78573e-03,-1.04215e-02,-1.95831e-02,-6.92617e-03,-8.99766e-03,-5.73310e-03,1.29057e-02,1.24791e-02,-1.72954e-03,1.00575e-02,9.97955e-03,1.19308e-02,-7.03671e-04,-1.24109e-02,-1.25089e-03,-7.77980e-03,-3.41584e-03,-1.18361e-03,8.31552e-03,1.35958e-02,1.22740e-02,-3.93443e-03,-9.16493e-03,-1.87506e-03,1.63436e-02,-1.23933e-02,1.39666e-02,1.68117e-03,1.24362e-03,-1.33900e-02,1.75992e-03,-1.18225e-02,-1.17882e-02,6.14930e-03,-6.59188e-03,6.29435e-03,-3.41622e-03,-1.28862e-02,5.81069e-03,1.11618e-02,1.72412e-02,-3.11868e-03,-1.41115e-02,4.62613e-03,2.45545e-03,7.89102e-03,-1.56712e-02,-5.27292e-03,-2.47663e-03,7.48027e-03,-3.24711e-03,-8.48530e-04,7.44380e-03,2.94128e-04,6.77231e-04,-8.29882e-04,2.68208e-03,6.59729e-03,-1.03619e-02,6.96847e-04,1.70713e-02,-1.12626e-02,2.25621e-03,-1.42000e-02,-7.35172e-03,-6.44926e-03,-7.67542e-03,8.56108e-03,1.12954e-02,-6.30763e-03,1.24503e-02,-5.67670e-03,8.48100e-03,6.82842e-04,-1.41261e-02,4.38567e-03,1.60359e-03,3.33866e-03,-3.90419e-03,-2.67697e-03,-6.38059e-04,1.13103e-02,1.34410e-02,6.06158e-03,1.11234e-03,1.94505e-05,2.80712e-03,1.46391e-02,-4.22041e-03,-1.47574e-03,-5.36632e-03,-1.51285e-02,-8.10201e-03,-1.11499e-02,3.23113e-03,9.18086e-04,-1.86067e-02,7.08691e-03,1.40164e-03,-4.91155e-03,8.70074e-03,-6.79338e-03,4.05678e-03,-1.84315e-03,1.05330e-02,-1.11698e-03,9.15590e-03,-4.22866e-03,-3.14729e-03,-1.22872e-02,-2.45932e-03,1.11956e-03,4.48777e-03,-8.28021e-03,-5.98447e-03,-2.91716e-03,1.81690e-02,-4.70007e-03,-3.38336e-03,1.61996e-02,-7.65322e-03,4.83478e-03,2.74532e-03,6.51420e-03,-2.65160e-03,-4.44462e-04,-1.16238e-03,-1.00091e-02,7.67441e-03,-2.98062e-03,8.12046e-03,4.10172e-03,-3.04813e-03,1.39439e-02,1.71521e-02,4.24483e-03,-2.81789e-03,-1.29740e-03,4.36479e-04,6.57422e-03,-3.15344e-03,1.05908e-02,-9.68218e-03,-1.57299e-03,-1.00111e-02,1.36556e-04,-2.63012e-03,-7.68199e-03,-2.16038e-03,1.28250e-02,4.47315e-03,-7.98221e-03,-2.74829e-03,-1.03405e-02,-1.78230e-02,6.63458e-03,-1.90226e-02,-9.53960e-03,-6.99859e-03,-7.05325e-03,-3.58198e-03,1.18120e-04,-1.91439e-02,1.16861e-02,5.21079e-03,1.00537e-02,3.09308e-03,6.19951e-03,8.99648e-03,1.51904e-02,-6.70178e-03,1.54230e-03,-4.93120e-03,5.65186e-03,-3.84559e-03,6.82645e-03,6.27387e-03,-9.76670e-03,-9.50877e-03,1.59425e-03,4.04849e-03,7.84973e-04,-1.23935e-02,-8.77639e-03,-1.34368e-03,-2.18397e-03,1.49684e-02,8.97867e-03,1.15437e-02,1.43306e-02,6.86973e-04,-1.45795e-03,-3.16922e-03,2.60262e-03,7.68790e-04,1.77709e-02,3.19360e-03,1.01607e-02,-6.47187e-03,1.78201e-03,6.12554e-03,2.54867e-03,1.65768e-02,8.62308e-04,-1.18471e-02,-1.56768e-02,-1.23608e-02,9.05022e-03,1.87733e-03,-1.48460e-02,-2.22803e-03,-1.89590e-02,4.09190e-03,3.38055e-03,-8.26534e-03,2.96522e-03,2.05864e-03,2.98334e-03,1.13688e-02,-6.91655e-03,1.07415e-02,-9.04320e-03,-1.21672e-02,1.09531e-02,1.71471e-03,-6.49766e-03,-1.48000e-03,5.14893e-03,-3.20882e-03,1.91844e-02,1.22066e-03,-6.51923e-04,-4.78075e-03,8.38651e-03,8.03977e-04,5.81855e-03,1.11334e-03,9.48733e-03,4.20278e-03,6.04458e-03,1.84899e-02,5.30669e-03,-1.71173e-03,2.13302e-03,3.32153e-03,4.74075e-03,-3.86492e-03,-1.13185e-03,4.62735e-03,-9.03003e-03,1.13346e-03,8.72601e-03,8.98646e-04,4.67371e-03,1.74212e-03,1.00607e-02,1.47946e-02,-8.52131e-03,-3.79613e-03,-4.70836e-03,-1.07716e-02,1.32033e-02,1.28403e-02,1.02913e-02,1.34987e-03,-4.66227e-03,1.29222e-02,5.52834e-03,-7.72537e-03,-4.16718e-03,7.28258e-03,9.98732e-03,1.00141e-03,-9.53663e-03,9.12367e-03,-1.51168e-02,1.19320e-02,-2.97897e-03,-1.17650e-02,-1.53508e-02,-2.00484e-03,6.13161e-03,5.94983e-03,9.27878e-03,-7.13579e-03,-5.21160e-03,6.18748e-03,-2.71720e-03,6.61975e-03,-1.98583e-02,2.09110e-03,7.77818e-03,4.93819e-03,6.19155e-03,-3.82202e-03,-1.98226e-02,1.37770e-02,-1.52831e-03,-9.99792e-03,1.50299e-02,-1.54182e-02,-8.32864e-03,5.32383e-03,-1.59201e-02,1.16450e-02,-5.33385e-03,1.49781e-02,1.07844e-02,3.33333e-04,8.04977e-03,-7.21048e-04,-1.03289e-02,6.19187e-03,-1.04429e-02,-1.48890e-02,6.14745e-03,-8.70456e-03,-8.31734e-03,-1.00450e-02,-7.17637e-04,1.69553e-03,1.76244e-02,7.55980e-03,-7.04497e-03,-3.42136e-03,1.85102e-02,5.13825e-03,5.93952e-03,7.11131e-03,7.16767e-03,1.98874e-02,-8.31256e-04,-3.64365e-03,5.57611e-03,-1.11071e-02,-7.01347e-03,-7.60021e-03,4.59900e-03,4.20733e-03,7.81091e-03,7.66669e-03,3.60720e-04,1.88060e-02,-1.25875e-02,1.14625e-02,2.29426e-03,-7.59467e-03,-1.39429e-02,-1.71078e-03,-1.79431e-03,-2.46560e-03,-2.63726e-03,-1.32010e-02,3.60292e-03,1.19428e-03,-1.24144e-02,-2.35431e-03,-6.17852e-03,-3.22442e-03,-2.07823e-03,-6.21154e-03,-5.70343e-03,6.90813e-03,-1.29405e-02,-1.04730e-02,-2.92603e-03,3.02460e-03,9.95133e-03,1.17646e-04,9.84065e-03,-2.31887e-03,-8.41030e-03,-3.35958e-03,3.85367e-03,-3.79551e-03,6.48850e-03,1.63407e-03,2.38583e-03,-2.05341e-03,-1.13819e-03,1.51471e-02,-7.87275e-03,3.92356e-03,4.28229e-03,3.97837e-03,-1.31978e-03,3.82515e-03,7.74385e-03,-1.00885e-02,7.07240e-03,-1.18087e-02,-7.78321e-03,-9.50990e-04,-1.14440e-03,3.94496e-03,-1.79076e-03,2.78777e-03,-7.72568e-03,4.60545e-03,5.56887e-04,-9.16414e-03,1.94046e-03,6.78296e-03,3.12674e-03,-1.94728e-02,1.07652e-02,1.83095e-02,1.29124e-03,-8.63193e-04,8.68171e-03,3.71868e-03,4.49186e-03,-2.50602e-03,-1.38522e-02,-3.24678e-03,1.38654e-03,3.32020e-04,-3.71912e-04,-8.97656e-03,-1.54523e-02,9.36781e-04,9.37840e-03,-5.69498e-03,1.05480e-02,8.19627e-03,-9.68618e-03,-4.18492e-03,-1.74167e-02,1.20665e-02,-8.44325e-03,1.27287e-02,-6.73966e-03,3.70668e-03,-1.28201e-03,4.56818e-04,-1.79896e-02,1.34572e-03,-4.91750e-04,1.82555e-02,-1.44729e-02,7.28669e-03,-4.56074e-03,1.52823e-02,6.55357e-03,1.40398e-02,1.61753e-03,1.06612e-02,6.62720e-03,-2.07426e-03,1.35287e-03,-1.26676e-02,1.11049e-02,-2.84794e-03,6.05310e-03,-2.87507e-03,1.22945e-02,-6.98709e-03,-4.82478e-03,6.42267e-03,8.50693e-03,-1.55526e-02,-3.37779e-03,-2.03883e-04,1.62155e-02,-7.81242e-03,1.77137e-02,-4.48340e-04,2.64666e-03,-5.86572e-03,7.07184e-03,2.07007e-03,-1.45677e-02,-3.20216e-03,-8.37210e-03,-2.49727e-03,-1.25499e-02,-1.45669e-02,6.26178e-03,1.25464e-03,8.71615e-03,1.79620e-02,-4.22225e-03,1.22774e-02,3.78275e-03,-1.95844e-02,1.08037e-02,-1.43145e-02,1.39901e-02,1.56607e-02,-1.83373e-04,5.16708e-03,1.13040e-02,-1.48778e-02,5.61012e-03,-7.53508e-03,6.43234e-03,6.58749e-03,-3.36224e-03,5.04171e-03,4.62224e-03,-1.25996e-03,4.70357e-03,1.11404e-03,1.08451e-02,1.07065e-02,-1.81854e-03,2.47382e-03,-1.17431e-02,-1.01703e-02,-3.49295e-03,3.30719e-03,-1.16398e-04,-5.93837e-03,-1.26301e-02,-4.39696e-03,3.07117e-03,-4.07612e-03,8.63353e-03,3.74450e-03,3.02947e-03,-1.10535e-03,9.20331e-04,1.26970e-02,-1.48144e-02,6.99494e-03,-1.19741e-02,3.43850e-03,-5.53227e-03,1.06646e-02,-7.23046e-03,-6.31639e-03,-1.20185e-02,-7.01686e-03,-1.10180e-02,8.39985e-03,1.66806e-03,-6.78234e-03,-2.45586e-03,1.21557e-02,2.81943e-03,-9.18300e-03,-4.59463e-03,-1.01676e-02,2.63532e-03,-1.20922e-02,-7.29206e-03,3.62707e-03,-7.32091e-03,-8.89591e-03,-1.17236e-02,-9.69355e-03,7.29042e-03,4.65006e-03,9.56186e-03,-1.26936e-03,-1.39587e-02,1.09645e-02,-1.64171e-03,5.38893e-03,7.51333e-03,7.20179e-03,-7.17706e-03,5.55159e-03,-1.52675e-02,-6.36815e-03,9.59872e-03,-1.37393e-02,6.37408e-03,-1.12275e-02,4.65602e-03,-1.64855e-02,-1.46901e-02,-1.21069e-03,1.02047e-02,-1.65631e-02,-1.30791e-02,-2.75922e-03,-3.92830e-03,4.47520e-04,1.42032e-02,-1.32156e-02,-6.85246e-03,-1.38494e-02,-1.02777e-03,8.03964e-03,7.83245e-04,1.31628e-02,-7.41384e-03,1.87131e-02,7.79845e-03,5.79241e-03,6.89022e-03,4.51594e-03,1.68736e-04,3.17545e-03,4.19582e-03,5.99819e-03,1.03678e-02,7.00797e-03,4.74797e-03,9.69117e-03,3.38174e-03,-8.28518e-03,6.98454e-03,-1.15019e-02,1.01146e-02,7.20103e-03,-6.14627e-04,6.10868e-03,1.24891e-02,-1.19192e-02,-9.00910e-03,1.49578e-02,3.52602e-03,2.70490e-04,8.78111e-03,-1.03883e-02,1.56474e-04,3.81609e-03,-6.57008e-03,-3.83399e-03,8.78571e-03,-2.33173e-03,1.40646e-02,-5.51645e-03,4.95601e-03,-1.01397e-02,1.77030e-02,1.05247e-02,1.29485e-02,-4.28986e-03,1.24079e-02,8.46240e-03,1.09383e-02,1.05916e-02,2.46364e-03,-1.27209e-02,-6.46387e-03,-3.63625e-03,-4.94305e-03,-5.86596e-03,-3.94222e-03,4.38742e-03,6.36200e-03,1.15588e-02,-3.63431e-03,-1.48485e-02,1.70372e-02,1.35837e-02,1.66731e-02,1.13477e-02,-4.58341e-03,-1.32685e-02,-5.05427e-04,-6.81897e-04,1.29718e-02,-2.00905e-03,1.96423e-03,9.94234e-03,-1.86464e-03,-1.10495e-02,1.85794e-03,-2.98630e-03,-7.59706e-04,-1.20950e-02,-1.50690e-02,1.64729e-02,3.29959e-04,-1.03524e-04,1.87381e-02,1.22213e-02,1.87545e-03,-4.27990e-04,-5.40276e-03,9.34932e-03,-5.73273e-03,-5.57639e-03,-2.40172e-04,-2.35676e-03,-3.79556e-03,1.10863e-02,-4.91935e-03,-3.61152e-03,9.74650e-03,-1.65442e-02,2.42451e-03,-4.02224e-03,-1.85411e-02,7.35988e-03,-1.35659e-03,-5.22780e-03,1.74772e-02,1.83115e-03,-1.43216e-02,2.76730e-03,9.59070e-03,3.12909e-04,-7.65763e-03,-1.14647e-02,2.26955e-03,7.22322e-03,-3.66057e-03,4.82596e-03,-1.82765e-03,8.17505e-03,9.79406e-03,4.44430e-03,
1.08888e-02,-1.99350e-03,-1.15850e-02,1.68216e-02,6.64922e-03,5.95683e-03,5.40699e-03,5.05698e-03,-3.45391e-03,-1.75821e-02,2.36888e-03,3.60761e-03,5.74764e-03,-9.52260e-04,5.41664e-03,8.06163e-03,-1.02725e-02,1.71187e-02,8.71097e-03,-1.37889e-03,3.06351e-03,-7.94886e-03,1.22296e-02,4.57473e-03,7.33804e-03,-3.45662e-03,-5.30770e-03,2.05567e-03,-1.71556e-03,-5.31137e-03,-3.82894e-03,-1.12224e-02,1.76535e-03,-4.33618e-03,3.05241e-03,-1.09135e-02,8.12203e-03,-1.23042e-02,-8.99800e-03,-6.36588e-03,1.50122e-02,-5.00783e-03,-1.03263e-02,-1.70796e-02,-3.19177e-03,-7.02511e-03,1.02303e-02,-1.09290e-02,-1.01246e-02,6.21380e-04,-4.76258e-03,-2.32691e-04,6.97803e-03,9.09936e-04,3.73618e-03,1.15704e-02,3.96672e-03,1.39000e-03,-7.01001e-03,-6.86796e-03,2.97483e-03,1.04772e-03,6.40371e-03,2.41207e-03,3.21354e-03,5.05033e-03,-3.38065e-03,-3.94180e-03,8.58901e-03,-3.98983e-05,-8.05672e-03,-1.67430e-02,-1.15371e-02,5.33686e-03,-3.13049e-04,4.32575e-03,-1.04369e-02,-6.47816e-03,-5.34953e-03,-3.70858e-03,-2.65740e-03,-3.04826e-03,-2.86957e-03,4.82541e-03,1.16139e-02,-5.03542e-03,1.15039e-03,-8.15171e-03,1.17635e-02,2.84650e-04,1.26995e-02,4.58526e-03,1.26950e-02,-8.42024e-03,-7.86341e-03,1.64003e-02,-1.45003e-02,6.89827e-03,-7.69002e-03,-1.53716e-02,-1.19286e-02,6.14794e-03,1.83288e-02,1.86422e-02,-4.56810e-03,1.80682e-02,1.71583e-03,4.89921e-03,-5.44672e-03,-4.80512e-03,-1.32638e-02,-6.85765e-03,-8.05209e-03,-6.08043e-03,-3.44679e-04,7.14844e-03,-1.31785e-02,-5.09726e-03,5.09913e-03,-2.21790e-03,9.27180e-03,2.30889e-03,3.64416e-03,5.42466e-03,-5.69933e-03,-2.06958e-03,-1.52597e-02,1.40970e-02,1.24795e-02,-5.80050e-03,8.67916e-03,-1.09617e-02,1.78783e-02,-8.56167e-03,7.05534e-03,1.51599e-02,-2.56168e-03,-8.67490e-03,1.77663e-03,-2.48716e-03,-9.19590e-03,-6.01385e-03,-7.99398e-04,3.52554e-03,7.51925e-03,-4.38399e-03,1.30827e-02,5.70221e-03,-9.74065e-03,3.86489e-03,-1.64195e-03,-2.88883e-03,-1.33740e-02,-1.24141e-03,1.50349e-02,4.23678e-03,1.10625e-02,3.79780e-03,1.27220e-02,4.90667e-03,1.60890e-02,-1.06114e-02,6.66661e-03,4.68925e-03,9.38215e-03,1.49809e-02,-5.72471e-03,-4.02133e-03,1.88247e-02,-5.89962e-03,9.50436e-04,-3.48807e-03,-1.22416e-02,1.30176e-02,1.76558e-03,-3.39925e-03,1.33425e-02,2.80123e-03,-9.76791e-03,1.25908e-02,9.25630e-03,-1.79130e-03,1.56043e-02,3.00188e-03,-1.39242e-02,-8.06015e-03,2.70062e-04,-2.79458e-03,2.04714e-03,-9.36157e-03,-8.60586e-03,4.96329e-03,-1.16562e-02,7.04882e-03,6.07072e-03,-7.00878e-03,1.21385e-02,-5.36246e-03,-5.03748e-03,-2.47583e-03,-5.34914e-04,3.58747e-03,6.22349e-03,-9.62450e-03,-8.59447e-03,-1.91984e-02,1.08080e-02,9.66637e-03,2.23835e-03,1.67588e-03,5.41369e-03,5.41653e-03,9.88303e-03,5.99563e-03,-9.10347e-03,-1.29730e-02,2.82377e-03,3.91608e-03,-1.00439e-02,1.73941e-02,1.00876e-02,-8.95884e-03,-1.80988e-02,4.65811e-03,1.50338e-02,-4.39903e-03,-6.33877e-04,1.92642e-03,6.27077e-03,-3.26006e-03,1.69692e-02,-5.30968e-03,-1.17545e-03,1.49885e-04,6.69368e-03,-5.06800e-04,5.46978e-03,8.17448e-03,3.55117e-03,1.88320e-02,1.55221e-03,-5.97614e-03,7.95888e-04,-4.90770e-03,7.10886e-03,-9.69973e-03,3.96045e-03,2.40504e-03,-2.68374e-03,-9.17236e-04,2.27951e-03,6.86757e-03,1.88368e-03,-9.59370e-03,-4.95187e-04,-5.57094e-03,6.97809e-03,-3.33889e-03,1.53819e-02,7.84370e-03,-7.67563e-04,-2.38900e-03,3.77195e-03,3.00449e-03,8.07540e-03,-2.34576e-03,1.07313e-02,1.56045e-03,-8.70737e-03,2.43167e-03,1.57273e-03,4.30686e-03,8.32871e-03,-4.43539e-03,1.36076e-02,-1.25019e-02,-1.45993e-03,1.01970e-02,-1.50992e-02,3.46145e-03,-1.46323e-02,5.59734e-03,-8.12915e-03,-1.38047e-03,-7.70585e-03,7.79455e-03,-9.64984e-03,-2.47270e-03,-1.58941e-02,-1.45974e-02,9.08522e-03,-1.97609e-02,-1.20460e-02,5.54763e-03,-7.03220e-03,1.65335e-02,1.62266e-03,-3.30332e-03,-4.32590e-03,7.98275e-03,-3.89735e-03,-2.45304e-03,3.64690e-03,-1.68234e-02,1.79442e-03,5.97324e-03,1.34671e-02,3.41053e-03,-1.27417e-02,-2.66091e-03,-7.66242e-03,-5.78261e-03,9.50344e-03,-8.25220e-03,1.06264e-02,1.36819e-03,1.80358e-03,1.44066e-02,-2.32738e-03,-1.54718e-04,1.60570e-03,8.83911e-03,-7.15925e-04,1.36155e-02,1.37231e-05,4.88601e-04,-6.50158e-03,-3.36446e-03,-1.18911e-02,8.99064e-05,-1.82741e-03,6.17388e-03,-1.33915e-02,-1.40642e-02,1.77898e-02,-1.24897e-02,3.49081e-03,-1.32260e-02,-7.07466e-04,3.84853e-03,5.33435e-03,4.68494e-03,-7.43339e-03,-3.55107e-03,-3.27728e-03,-7.03637e-03,9.15514e-03,1.35911e-03,-1.51822e-02,-1.94878e-03,-3.19214e-03,-6.86547e-03,-1.27242e-02,-3.31220e-03,5.16901e-03,-8.48310e-03,9.31610e-03,4.77106e-03,-1.01640e-02,-1.28289e-02,-3.66619e-03,1.55855e-03,5.10869e-03,3.11449e-03,-4.58699e-03,1.11543e-02,6.42617e-03,-1.37567e-03,-1.91224e-02,-5.40276e-03,-1.22855e-02,1.13294e-02,-1.14909e-02,-8.77039e-03,9.40140e-03,7.29041e-03,-1.12390e-04,2.96377e-04,5.56804e-03,-2.79905e-03,-1.09870e-02,2.25183e-03,-5.21121e-03,-1.17368e-02,1.05682e-02,4.14275e-04,4.37022e-03,1.53829e-02,-1.19183e-02,2.04292e-03,-1.19619e-02,-1.19777e-02,1.87505e-03,9.82388e-03,1.23009e-02,1.56750e-02,-2.84374e-03,2.94612e-03,-5.97439e-03,-6.90024e-03,2.60695e-03,1.74965e-03,-1.10793e-02,7.48000e-03,1.29996e-03,1.84277e-02,5.28318e-03,-2.48156e-03,1.33307e-02,-1.75671e-02,-4.88470e-03,6.41831e-03,-5.70064e-03,1.17200e-02,-7.81619e-03,1.60468e-02,-1.32074e-02,4.99796e-03,-1.66351e-02,3.13450e-03,2.47293e-03,-5.25748e-03,-4.96722e-03,3.29048e-03,-1.46738e-02,-9.25265e-03,-4.91654e-03,-1.59792e-03,1.10842e-02,-1.22015e-02,7.59288e-03,2.17153e-03,-9.86137e-03,-3.37534e-03,-1.36271e-02,3.96698e-03,2.29709e-04,3.75353e-03,-1.05432e-02,8.17863e-03,-5.75703e-03,1.59783e-02,4.76672e-03,1.64206e-02,-2.18372e-03,-9.57155e-03,-5.47074e-03,6.10345e-03,4.12260e-03,1.15216e-03,5.83807e-03,-1.10644e-02,-8.45522e-03,-2.63415e-03,1.19046e-02,-2.09323e-03,-3.33199e-03,-5.80998e-03,-1.09033e-02,1.43920e-02,3.74366e-03,-1.26544e-02,1.30632e-02,7.63255e-03,6.30997e-03,-1.09987e-02,-8.94171e-03,3.54264e-03,5.10614e-03,8.77453e-04,3.50249e-03,-3.03952e-03,-8.59946e-03,7.94005e-04,1.18887e-02,-1.35774e-02,6.38538e-04,-9.57648e-03,6.56170e-03,6.96135e-03,1.61735e-02,6.10865e-03,1.49482e-02,1.19443e-02,-1.41966e-02,2.10665e-03,-1.29453e-02,-1.33074e-02,1.08162e-03,1.40662e-02,1.14903e-02,-1.49146e-02,-9.04295e-03,-1.01885e-02,1.39268e-02,1.30474e-03,-1.21073e-03,5.68126e-03,2.66668e-03,2.13028e-03,-5.65492e-03,1.02897e-02,-1.04429e-02,1.25773e-02,-1.92722e-03,-1.03138e-02,-1.09505e-02,7.16720e-03,2.03361e-03,3.68139e-03,3.47015e-03,5.23189e-03,3.11110e-03,-1.03979e-02,5.04358e-03,6.98764e-03,7.47118e-03,-1.81152e-02,4.20044e-03,9.18818e-03,1.66600e-02,-1.39744e-02,1.20745e-02,8.63293e-04,1.21486e-02,1.53249e-02,-1.57826e-02,-5.38932e-03,-1.50010e-03,9.31795e-03,4.60097e-03,6.99255e-03,-1.66834e-04,5.11069e-03,4.76880e-03,-1.52217e-03,4.11348e-03,-6.50654e-03,-6.34132e-03,-3.90271e-04,1.73838e-02,-1.01570e-02,-7.20638e-03,-1.19941e-02,-1.27345e-02,-5.03960e-03,-6.77172e-04,-4.22450e-04,6.50195e-03,1.32666e-02,9.88669e-03,-1.27633e-03,-1.81051e-02,1.08240e-03,-8.53639e-03,-1.11018e-02,1.83732e-02,-1.13612e-02,1.56313e-02,-1.20892e-02,-1.01105e-02,-5.49769e-03,-8.73883e-03,-1.26934e-03,1.74334e-02,8.57580e-03,-4.10881e-03,1.31007e-02,3.82686e-03,1.30556e-04,9.29505e-04,-1.93624e-03,-1.66475e-02,2.05625e-03,-6.60200e-05,-4.55127e-03,-2.31783e-04,9.14278e-03,-1.12648e-03,-2.37389e-03,5.39379e-03,5.62309e-03,-1.72733e-02,1.36657e-02,5.54518e-03,5.86555e-03,5.99377e-03,1.56908e-02,8.64289e-03,9.95155e-03,7.07337e-03,-1.44509e-02,-4.86096e-03,1.87820e-02,-8.18513e-03,-7.71289e-03,-1.55484e-03,1.34245e-02,1.93265e-02,-5.55401e-03,-5.53061e-03,-5.54198e-03,-3.51392e-03,-1.59253e-03,3.72200e-03,1.44444e-02,4.01827e-03,8.18068e-03,2.38742e-03,-1.46204e-02,7.72985e-03,-1.08807e-02,2.72759e-03,4.57005e-03,-2.71185e-03,1.72784e-02,4.21923e-03,2.79625e-03,3.35084e-03,1.09625e-02,7.31506e-03,5.00184e-03,1.98648e-03,-6.16102e-03,-4.11944e-03,-3.24498e-03,-9.62168e-03,1.43069e-03,-6.89209e-03,-5.27156e-03,8.86980e-03,1.20173e-02,-1.91872e-02,6.87764e-03,-7.28387e-03,-8.18736e-03,-1.65626e-02,-1.01516e-02,6.20927e-03,1.75407e-03,-6.38100e-03,1.10235e-02,9.04592e-03,-1.27698e-03,-1.41752e-03,7.74406e-03,-7.51301e-03,-4.56969e-03,-1.18586e-02,-1.89697e-03,4.08253e-03,-5.84074e-03,4.70863e-03,-3.07079e-03,-1.45350e-02,-2.65435e-03,9.33826e-03,-1.04857e-02,1.26411e-02,3.84465e-03,-9.17724e-03,-1.97569e-02,6.59724e-03,3.97094e-03,3.77126e-03,8.14794e-03,-1.88425e-02,2.89046e-03,-3.70076e-03,1.52902e-02,-1.40214e-02,1.14462e-02,-6.55042e-03,7.53805e-03,-9.93808e-04,4.61471e-04,8.91373e-03,1.33511e-02,6.36045e-03,7.27041e-03,8.68920e-03,-1.11621e-02,2.73748e-03,6.60981e-03,1.47322e-03,1.20241e-02,1.22369e-02,-8.85892e-03,1.94767e-03,1.49715e-02,6.65353e-03,9.52896e-03,-1.32548e-02,1.83814e-04,1.27091e-02,-2.42786e-03,4.55586e-03,-3.35717e-03,1.64948e-02,5.42185e-04,-8.68423e-03,6.43425e-03,-9.42564e-03,-1.37926e-02,-1.68874e-03,-2.40211e-03,1.04637e-02,-8.22759e-03,4.19420e-03,-5.93526e-04,4.07402e-03,-6.86715e-03,-6.55169e-03,-4.75043e-03,4.18707e-03,7.08808e-03,4.59037e-03,-1.10491e-03,1.44779e-02,8.89510e-03,-2.34518e-03,2.24786e-03,5.20055e-03,-4.29774e-03,1.94528e-03,2.84797e-03,3.91761e-03,9.50632e-03,-3.39885e-03,-2.73290e-03,5.38033e-03,-6.63551e-03,1.81500e-02,-5.17127e-03,5.72494e-03,1.36102e-02,8.08531e-03,-1.16982e-02,-3.05341e-03,7.25890e-03,-1.12441e-02,-3.55106e-03,1.06385e-02,4.54998e-03,-5.21135e-03,6.37493e-03,-5.35897e-03,1.33693e-03,1.56840e-03,-1.17840e-02,1.29278e-02,4.66925e-04,-4.57353e-03,1.10070e-02,-1.28735e-02,-6.03785e-03,1.64927e-02,3.26020e-03,-9.53859e-03,9.65670e-03,-1.06239e-02,-4.00073e-03,1.26173e-02,1.00511e-02,1.94777e-03,-1.51121e-03,8.15707e-03,-2.99602e-03,6.11385e-03,-7.08444e-03,-1.33917e-02,-3.04672e-03,-1.27341e-02,8.74613e-03,6.15792e-05,-1.11417e-02,-6.07203e-03,4.40145e-04,3.57399e-03,7.12082e-03,-4.26284e-03,-7.88698e-03,8.44761e-03,-5.46532e-03,
-7.72049e-03,-8.71835e-03,-1.11699e-02,4.10315e-03,-8.19063e-03,-1.13120e-02,-3.57463e-03,-1.67575e-03,-7.65223e-03,3.30993e-03,-1.90201e-03,-2.21857e-03,6.82687e-03,1.42116e-02,-1.30772e-02,3.05886e-03,-6.45006e-03,1.08290e-02,1.73544e-03,7.51901e-03,-6.13510e-03,1.64944e-02,-2.51175e-04,1.84402e-03,-9.07955e-03,3.02679e-03,-1.07622e-02,-4.45795e-03,-2.91790e-03,-6.46695e-03,-1.65272e-02,-6.73413e-03,1.93726e-02,4.55232e-03,1.71603e-03,-2.13904e-03,4.81075e-03,-1.10756e-02,2.29103e-03,6.37630e-03,2.72415e-03,1.60386e-02,-3.21885e-03,1.29972e-02,-6.47619e-03,-1.02163e-03,8.49938e-03,-1.23252e-02,1.23881e-02,-1.17516e-02,1.15923e-02,-4.39003e-03,7.45946e-03,7.57139e-04,5.91237e-03,1.90075e-03,-7.49420e-03,-7.10958e-03,-4.15187e-03,-8.95501e-03,1.72977e-03,1.16523e-03,-3.18307e-03,1.36916e-03,-2.39364e-03,1.23378e-02,-8.52531e-03,1.15222e-02,3.48626e-03,-1.10645e-02,1.31547e-02,-2.36816e-03,-1.11456e-02,-1.22394e-02,1.04978e-02,-1.55231e-02,4.96335e-03,1.37710e-03,-1.18894e-02,2.58546e-03,2.06333e-03,-1.16339e-02,4.38384e-03,5.42933e-04,-3.75251e-03,-4.47010e-04,5.56533e-03,-2.78815e-03,-3.97717e-03,-9.97589e-03,9.09544e-03,1.60138e-02,1.26478e-02,-1.57418e-03,-6.80635e-03,-1.14318e-02,-1.63601e-03,1.06067e-03,-1.15920e-02,-5.49237e-03,-8.22981e-04,2.33416e-03,-1.00910e-02,-6.04136e-03,-1.59248e-03,6.56780e-03,-7.08641e-03,-4.37262e-04,-3.79826e-03,-1.09301e-02,3.20932e-03,1.26817e-03,1.73146e-02,7.18502e-03,-8.15234e-03,-8.05763e-04,-2.72201e-03,-3.51742e-03,6.79138e-03,-3.93922e-04,-1.92514e-02,-1.24728e-02,-9.33647e-04,4.51800e-04,1.73787e-02,1.76675e-02,3.24173e-03,7.90443e-03,-8.04062e-03,3.67473e-03,-1.45576e-02,3.67845e-04,5.26860e-03,-7.42577e-03,4.40608e-03,-2.92527e-03,7.08277e-03,2.68631e-03,1.40877e-02,1.23239e-02,1.64581e-02,2.99282e-03,1.80998e-02,1.09513e-02,1.00886e-02,-9.62647e-03,1.08786e-02,-4.17440e-03,5.74834e-03,-5.05898e-03,-2.82296e-03,9.83408e-03,-5.09670e-04,-3.46405e-03,-1.78770e-03,1.52907e-02,1.78084e-02,3.38943e-03,6.01746e-03,1.34819e-02,-7.18871e-03,-6.31252e-03,-3.57363e-03,-3.49550e-03,-5.56705e-04,-1.37609e-02,-6.58273e-03,-9.10334e-03,-9.72015e-03,-5.20849e-03,-2.37807e-03,-4.26120e-03,3.17675e-03,6.57665e-03,1.37799e-02,9.49712e-03,-9.18131e-03,-1.56209e-02,-3.37844e-04,-1.51147e-02,-1.55116e-02,-1.42970e-02,1.10023e-03,-4.64436e-03,-3.49859e-03,-9.09804e-04,-1.18553e-02,-1.32996e-02,1.04495e-02,-8.43144e-03,7.36843e-04,1.40411e-02,5.40199e-03,2.03257e-03,-6.35112e-03,2.98658e-03,1.17448e-02,-6.99439e-03,1.55725e-02,-1.48433e-02,-1.99089e-02,-1.14608e-02,-4.58458e-03,-9.46121e-03,-1.67767e-02,1.08844e-02,-1.54410e-02,-9.57586e-03,-3.17381e-03,-2.22994e-03,1.52907e-02,-1.01349e-02,1.13727e-02,-6.39288e-03,-4.68126e-04,-1.03217e-02,-2.39065e-03,6.00032e-03,1.99172e-02,-1.10228e-02,-4.73308e-03,-2.51746e-03,-1.38378e-02,-1.07430e-02,-2.98543e-03,6.06032e-03,-1.08812e-02,1.96707e-03,1.59900e-02,4.60924e-03,1.18975e-02,-4.46263e-03,1.52176e-02,-7.73999e-03,6.90057e-03,1.32359e-03,-2.65085e-03,1.40541e-03,5.32453e-04,-6.38167e-03,-4.57271e-03,1.59962e-03,4.49434e-03,4.58083e-03,2.97780e-03,3.16380e-03,1.22966e-02,5.53306e-03,7.70027e-03,-3.38009e-03,9.89334e-03,-8.30169e-03,-6.29331e-03,1.05577e-03,-8.17058e-03,2.30282e-03,-1.21866e-02,-3.37200e-03,-4.85582e-03,-8.90785e-03,-9.54965e-04,5.59171e-03,-1.13502e-02,-2.47212e-03,-4.90690e-03,-4.22960e-03,3.53880e-03,-8.28356e-04,1.17841e-02,1.05314e-02,8.29867e-03,-1.50141e-02,7.59947e-03,-5.74267e-03,-4.68815e-03,4.60223e-03,-1.07420e-03,-1.85842e-02,8.49528e-03,-1.07608e-02,7.89993e-03,1.91035e-03,-3.64294e-03,-1.53516e-02,-8.72203e-03,5.83556e-04,1.05828e-02,1.02470e-02,5.24254e-03,9.47256e-03,-1.78149e-03,-8.02667e-03,1.13022e-02,-2.79483e-03,8.53656e-03,1.34298e-02,-1.37294e-02,1.03440e-02,-2.20007e-03,-1.27038e-03,-1.39516e-02,-1.21001e-02,1.34227e-02,-8.20518e-04,7.99267e-03,1.54081e-02,7.35044e-04,6.89446e-03,-2.79607e-04,-1.32290e-02,-4.31158e-03,-5.20469e-03,-1.11160e-02,7.37074e-03,4.83017e-03,8.15444e-03,-2.46042e-03,8.02026e-03,5.25975e-04,8.67311e-03,1.77256e-03,-1.06546e-02,1.68307e-02,8.01985e-03,3.78485e-03,8.01886e-03,-1.15738e-02,-2.50019e-03,1.40860e-02,-1.36780e-02,-3.92255e-03,1.57124e-02,4.65593e-03,-1.28634e-03,4.63250e-03,4.17461e-03,-1.06316e-02,-1.73790e-03,-3.52026e-03,9.82440e-03,7.50635e-03,1.07963e-02,1.75193e-03,8.21063e-03,3.68573e-03,-3.83462e-03,4.85237e-04,5.89701e-03,1.18908e-02,6.59300e-03,8.68518e-04,-4.07637e-03,2.72019e-03,-6.04627e-03,9.88798e-03,-1.26665e-02,1.25034e-02,2.17964e-03,-6.25745e-03,-2.43773e-03,1.71625e-03,-1.16012e-02,8.65551e-03,-1.47864e-02,-5.02627e-04,9.55645e-03,-1.92667e-02,7.44007e-03,-6.60906e-03,-1.68394e-02,-1.37294e-02,-5.96602e-03,-1.05964e-03,-1.08045e-03,6.99016e-03,1.09490e-02,-8.91057e-03,-1.92588e-02,-5.70215e-03,-6.66087e-03,3.42394e-03,-5.64971e-03,-1.23952e-02,-4.56460e-03,7.40760e-03,-5.22994e-03,3.09178e-03,5.89109e-03,-1.61831e-02,-1.35349e-03,-1.49242e-02,5.87728e-03,6.89001e-03,-3.46108e-03,-4.53533e-03,6.64453e-03,-1.64917e-02,7.65445e-03,9.97439e-03,1.07002e-02,1.49116e-02,6.98292e-04,8.58908e-04,1.02616e-02,6.87675e-03,-1.86768e-02,4.98178e-03,1.18429e-02,-4.34661e-03,-1.09545e-02,-5.38835e-03,4.61017e-03,3.93415e-03,1.77732e-02,-5.62053e-03,1.33281e-04,1.37604e-02,1.61680e-02,1.06000e-02,8.74033e-03,-8.73752e-03,-4.93677e-03,2.41894e-04,-4.98122e-03,6.31679e-03,1.73563e-02,1.20798e-02,-5.41590e-03,-1.19352e-03,1.14760e-02,-1.57214e-03,5.95811e-03,-1.00208e-02,1.04992e-02,1.55778e-02,-4.97689e-03,5.33921e-04,1.27087e-02,3.32889e-03,1.37330e-03,2.56661e-03,4.55863e-04,2.47125e-03,1.34564e-02,6.73332e-03,3.56043e-03,4.31010e-03,-7.00835e-03,-8.13430e-05,-4.61527e-03,4.91216e-03,-1.84418e-02,-9.75284e-03,1.76088e-02,-5.32150e-03,5.28827e-03,1.31336e-02,4.31270e-04,-9.46909e-03,-2.08521e-03,8.19406e-03,1.05672e-02,3.71441e-03,-4.69090e-03,1.94646e-03,1.46258e-03,2.70562e-03,5.86455e-03,-4.51533e-03,2.93200e-03,5.68477e-03,2.20137e-03,2.01592e-03,9.37220e-04,5.70318e-03,-1.49437e-02,-4.13963e-03,-1.75244e-02,-1.27007e-02,1.56652e-02,-9.95179e-04,-1.19852e-02,-9.91739e-04,-3.64354e-03,-3.67074e-03,8.94042e-03,3.49960e-03,-8.82735e-03,-1.04750e-02,2.31983e-03,-1.23365e-02,-1.17688e-02,6.67084e-03,9.46277e-03,-3.64794e-03,-2.99572e-04,-8.50958e-04,9.52558e-04,7.86451e-03,1.71043e-02,1.51604e-02,-1.18598e-02,-3.86432e-03,7.26466e-03,1.22358e-02,-1.21301e-02,1.29402e-02,5.74627e-03,-1.03593e-02,2.68568e-03,9.69268e-03,6.37310e-03,7.29533e-04,8.87285e-03,5.65511e-03,5.05702e-03,-5.76783e-03,8.45875e-04,-9.63132e-03,-4.09863e-03,6.18210e-03,-1.99214e-03,-1.40476e-02,4.90887e-03,1.39134e-02,8.54820e-03,-9.34138e-03,1.23720e-02,-4.44457e-03,-4.61987e-03,2.66271e-03,5.90750e-03,-1.57742e-03,8.05897e-03,-9.28148e-03,-3.99076e-03,-6.66505e-04,1.63638e-02,-1.67276e-02,5.23601e-03,-1.96103e-02,1.69238e-05,1.63600e-03,1.34496e-02,-5.41742e-04,1.50880e-02,1.06074e-02,-1.25863e-02,1.74635e-02,-5.54520e-03,8.78490e-03,1.03147e-02,-8.81487e-03,-1.95136e-02,1.12428e-02,9.12753e-03,1.36859e-02,1.00017e-03,-4.70742e-04,-1.75803e-03,-1.20333e-02,-1.55738e-03,5.59453e-03,5.98361e-03,9.09476e-03,-7.67531e-03,-5.67363e-04,6.28958e-03,-6.20706e-04,5.81824e-03,-6.47556e-03,1.18586e-02,-7.94628e-03,-1.93933e-02,-2.80023e-04,1.45340e-05,8.77697e-03,-7.82649e-03,1.70508e-02,6.92138e-03,-8.24702e-03,7.29017e-03,-7.80362e-03,-1.19693e-03,-3.65914e-03,8.63683e-03,-1.51752e-03,-5.00772e-03,2.34854e-03,-1.23634e-02,9.32710e-03,2.14962e-03,6.16978e-03,-7.50020e-03,8.87340e-03,-1.00037e-02,5.37763e-03,-1.45828e-02,-9.47206e-03,2.70458e-03,-1.26037e-02,-5.30209e-04,-5.06979e-04,2.34980e-03,7.90005e-03,-3.92314e-03,1.05279e-02,9.66718e-03,4.74759e-03,-1.69003e-02,3.23208e-03,-1.35875e-02,1.19408e-02,-4.70792e-03,3.18350e-03,2.49846e-04,-6.00473e-03,-8.57351e-03,-3.62163e-03,-7.18002e-03,-1.76600e-03,5.75110e-03,-1.61321e-02,4.72598e-03,7.41459e-03,-1.91419e-03,-1.80355e-02,7.49492e-03,-8.12095e-05,6.43774e-03,1.43853e-02,3.87209e-03,1.47842e-02,1.09200e-02,1.83498e-02,5.93238e-03,-1.30059e-02,-1.28701e-02,-1.89484e-03,-9.07197e-03,-3.69127e-03,-1.77298e-02,-1.49257e-03,2.12472e-03,1.30233e-02,5.51013e-03,-3.93282e-03,9.47553e-03,-5.78539e-03,5.50252e-03,-9.71140e-03,-1.70945e-02,-1.08572e-03,1.32303e-02,1.29959e-02,-1.91994e-03,7.00936e-04,1.19931e-02,1.14224e-02,-1.09294e-02,-3.91195e-03,6.70090e-04,-1.38338e-03,1.04301e-02,-1.44026e-02,-5.70164e-03,-2.21043e-03,-6.24250e-03,8.05679e-04,1.39445e-02,2.55783e-03,2.39771e-04,-6.13817e-03,-4.85909e-03,-1.53364e-02,-6.38273e-03,1.89526e-02,-3.80544e-03,-5.61408e-03,2.60860e-03,3.27876e-03,-8.40238e-03,-5.94237e-03,5.74787e-03,1.66543e-02,-7.92173e-03,-6.20195e-03,8.51302e-03,-4.19852e-03,-1.43678e-02,-1.87963e-02,-7.53161e-03,9.09298e-03,-6.44374e-03,-5.82369e-03,-4.93972e-03,1.32974e-02,-1.06810e-02,8.83874e-03,5.37744e-03,9.62649e-03,-5.21549e-03,2.11709e-04,1.26597e-02,-2.21252e-03,1.22617e-02,2.60357e-03,8.24230e-03,-9.59732e-04,6.21877e-03,-6.39173e-03,-8.14230e-03,-1.52105e-02,-1.07606e-03,-1.13594e-02,-1.96692e-02,-1.90521e-02,1.43082e-02,7.95218e-03,1.27655e-02,-3.31098e-05,3.55302e-03,-1.12565e-02,4.58870e-03,-1.19003e-02,8.12564e-03,-4.78415e-03,1.09084e-02,8.87075e-03,5.03100e-03,-8.03144e-04,-8.03960e-04,8.97750e-05,6.48597e-03,9.15322e-03,-1.31403e-02,-1.16973e-02,-1.14066e-02,-1.25483e-04,5.59141e-03,3.31029e-03,5.48717e-03,-5.62118e-03,4.70252e-03,4.34163e-03,1.98270e-02,3.74317e-03,2.61389e-03,7.79081e-03,-1.03536e-02,2.64138e-03,3.00989e-03,-8.45671e-03,-1.80964e-02,-1.40024e-02,-4.92590e-03,-3.31234e-03,-8.18471e-03,-1.38560e-02,-4.33013e-03,5.39562e-03,-1.43949e-02,9.82563e-03,-9.02074e-03,-1.42652e-02,-3.47664e-03,5.84569e-04,5.88013e-03,-7.82888e-03,5.65443e-03,-2.35400e-04,-6.13258e-03,5.43778e-03,2.64970e-03,-5.45378e-03,-5.22155e-03,-8.21473e-03,-4.15624e-03,-1.39633e-02,-5.13181e-03,3.00632e-03,-7.35295e-04,1.34548e-02,-1.16877e-02,
4.00620e-03,4.37736e-04,1.76323e-03,2.82944e-03,-1.22502e-02,8.14978e-04,1.20118e-02,2.85777e-03,7.07551e-04,-1.78828e-02,1.73554e-02,-1.42709e-02,-4.13649e-03,-5.88717e-03,-1.42581e-02,6.45729e-04,2.35585e-03,-9.02818e-03,-1.01979e-02,8.32945e-03,1.87657e-02,8.35036e-03,-1.27335e-02,-1.70721e-02,3.22059e-03,2.95373e-03,4.89811e-03,2.35145e-03,-1.16505e-02,-8.62526e-04,1.19348e-02,-1.66532e-02,-5.51876e-03,-5.17755e-03,-3.39176e-03,-1.11335e-02,-2.55403e-03,-9.50631e-03,1.15634e-02,1.69909e-02,-4.02258e-03,-1.23836e-02,-2.78878e-04,-5.92443e-03,-1.38466e-02,7.36465e-03,8.39946e-03,-1.27878e-03,5.74382e-03,-1.41400e-02,9.41803e-03,-6.84243e-04,-9.85993e-04,8.43213e-03,-9.37284e-04,-3.04907e-03,2.64278e-03,1.09485e-02,1.76826e-02,-8.13399e-03,-1.29212e-02,1.06502e-02,-5.13187e-03,-7.94116e-03,-1.48748e-02,-4.31889e-03,5.16096e-03,-6.01597e-03,-3.74145e-03,-1.11311e-02,-1.81843e-02,5.16513e-03,1.10039e-02,-7.10447e-03,-9.23197e-04,4.60619e-03,-9.47510e-03,7.50131e-03,-5.51552e-03,1.26393e-02,8.93772e-03,1.80991e-02,-3.48712e-03,1.97213e-03,-2.29671e-03,-3.62940e-03,1.03606e-02,-3.32772e-03,1.44823e-03,-4.79327e-03,8.06306e-03,8.14429e-03,4.87073e-03,-7.56495e-03,4.97928e-03,-4.42209e-03,-1.89038e-02,-1.73481e-02,5.92847e-03,-1.11431e-02,-1.23927e-02,1.03465e-03,-8.74286e-03,8.64835e-03,-3.45095e-03,1.75207e-02,5.28531e-04,8.19219e-03,-5.64333e-03,1.11806e-02,9.88782e-03,-1.56998e-02,3.46249e-03,-4.25077e-03,-2.19466e-03,-3.09474e-03,-1.35124e-02,1.31463e-02,1.99645e-02,-5.73716e-03,6.80522e-03,1.54336e-02,8.68962e-03,1.64225e-02,-3.00486e-03,6.99803e-03,1.00157e-02,6.42481e-03,1.11295e-02,1.21142e-02,1.01397e-02,1.43785e-02,1.49439e-02,1.38216e-02,-2.46825e-03,4.67020e-03,-3.46443e-04,-2.17774e-03,2.89701e-03,-1.04689e-02,5.65456e-03,-3.20930e-03,5.39447e-03,-7.15181e-03,4.97258e-03,2.93457e-03,1.33059e-02,-1.29259e-02,-3.00533e-03,-4.04989e-04,5.47813e-03,7.59864e-03,-5.39788e-03,-4.17133e-03,6.04859e-03,-8.88780e-04,1.70667e-02,-2.44919e-03,2.70594e-03,6.55928e-03,-1.87653e-02,-1.08641e-02,9.36303e-03,-1.61493e-02,4.06129e-03,9.86658e-03,-4.02146e-03,8.26058e-03,1.14654e-03,5.18017e-03,1.54272e-02,-7.13895e-03,1.22735e-03,-6.86703e-03,-1.99786e-02,-1.12603e-02,-5.32397e-03,5.09358e-03,1.38068e-03,1.33631e-02,-8.04317e-03,2.86474e-04,2.43153e-03,5.19905e-03,1.44877e-03,-5.74817e-03,-4.63786e-03,-3.68112e-03,-9.72693e-03,6.23854e-03,6.82987e-03,4.55783e-03,7.72699e-03,7.70132e-03,-2.48128e-03,1.03349e-02,2.02051e-03,3.93165e-03,2.01119e-03,1.81398e-02,9.30169e-03,6.24839e-04,-6.14376e-04,6.37553e-03,6.40946e-03,-1.18092e-02,-1.26541e-03,6.09174e-04,-8.19833e-03,-3.36945e-03,-1.22966e-02,-1.87499e-02,-5.87638e-03,1.31107e-02,6.39943e-04,4.74430e-03,-1.75348e-02,-2.09719e-03,1.66901e-03,-6.17513e-03,7.93218e-03,8.93744e-04,-1.00834e-02,-4.17150e-03,-2.71090e-03,-6.46458e-03,1.21849e-02,-1.80499e-02,-1.62458e-03,-9.08006e-03,-3.00522e-03,-1.41374e-02,-6.84025e-03,1.00458e-03,-4.49041e-03,5.55417e-03,-4.53329e-03,-1.40280e-03,-1.15547e-03,4.67709e-03,-3.55166e-03,-2.67358e-03,-2.03811e-03,-9.54295e-04,-1.55121e-02,-1.91290e-02,2.09740e-03,-7.10154e-03,6.88963e-03,-6.77621e-04,-6.24789e-03,9.31614e-03,5.74469e-03,9.10766e-04,8.10296e-03,-8.39350e-03,2.01375e-03,2.39053e-03,-1.20440e-02,1.76485e-02,-4.30046e-03,-4.17506e-03,-1.53065e-03,7.38948e-03,6.31743e-03,-4.05104e-03,6.64014e-03,4.60994e-03,-4.27405e-03,1.05162e-03,1.23044e-02,1.08786e-02,1.09423e-02,7.24076e-03,4.60002e-03,-1.83859e-02,-5.34351e-03,-2.43354e-03,-5.43853e-04,-6.71691e-03,1.06653e-03,-1.54084e-02,-9.56796e-04,-4.20873e-03,-1.44142e-02,-7.62432e-04,7.79806e-03,-6.67486e-03,-3.14853e-03,-8.83013e-03,8.63684e-03,1.19096e-02,-3.77460e-04,-3.72410e-03,1.71609e-02,1.79123e-02,-8.42918e-03,1.18272e-02,3.18966e-03,1.73797e-03,1.19231e-03,-1.51897e-03,-1.05161e-02,4.40672e-03,-9.87262e-03,-8.09795e-03,-7.98814e-03,1.90887e-03,3.91604e-03,5.11558e-03,-2.93086e-03,8.97551e-03,1.15622e-02,3.18662e-03,3.85587e-03,-4.13832e-03,-1.31208e-02,6.13848e-03,1.63573e-02,-5.39473e-03,2.13846e-03,1.80594e-03,-1.41832e-02,-2.43680e-03,-1.57110e-03,2.09466e-03,6.65823e-03,1.82550e-02,1.29752e-02,1.05875e-02,1.06685e-02,-6.59050e-03,-5.82822e-03,5.64985e-03,-1.66615e-02,7.23471e-03,-3.85160e-03,-1.54252e-02,-1.50118e-02,-1.71458e-04,3.07202e-03,-8.47931e-03,-1.38869e-03,-2.77028e-03,5.09294e-03,-2.40574e-03,1.20490e-02,1.80936e-03,5.27611e-03,-5.54983e-03,7.87767e-04,5.90381e-03,5.97786e-03,-8.84703e-03,4.66422e-03,2.29142e-03,6.82290e-03,-9.69354e-03,-1.57480e-02,8.26542e-03,1.35774e-02,-2.92645e-04,-2.95647e-03,-2.52657e-03,-1.39947e-02,-6.08207e-03,5.09232e-03,1.16501e-02,-7.58612e-03,2.11249e-03,-1.87478e-02,-1.11184e-03,-1.94117e-02,1.13669e-02,-1.11650e-02,-1.39454e-02,-5.07048e-03,-5.13928e-03,1.05199e-02,-8.50919e-03,-2.46238e-03,1.32297e-02,-9.55407e-04,-4.52905e-03,-3.51674e-03,-1.70517e-02,-1.12232e-02,2.24751e-03,-1.60744e-03,-1.09566e-02,-5.62218e-03,2.39187e-03,7.77006e-03,-1.81405e-02,-6.30128e-04,3.88208e-03,-1.40778e-02,1.18800e-02,1.25718e-02,1.23010e-02,-5.47772e-04,1.01743e-03,1.30939e-02,-7.83878e-03,-1.07608e-03,1.47395e-03,3.45518e-03,-1.38270e-02,7.71265e-03,9.91334e-03,2.41648e-03,7.05059e-03,1.17910e-02,6.85573e-03,1.11842e-02,8.61090e-03,6.68843e-03,1.19212e-02,4.08305e-03,1.12723e-02,-3.70011e-03,-2.01210e-03,6.82034e-03,-5.65782e-03,-4.15949e-03,9.66842e-03,-1.82137e-02,6.80065e-03,-7.86574e-03,3.84206e-03,-1.21994e-02,-1.24898e-02,-1.74730e-04,-4.69090e-05,2.75613e-03,2.66177e-03,2.22952e-03,7.66815e-03,4.21763e-03,-6.50750e-03,1.36387e-02,-7.42358e-03,-3.09360e-04,4.94481e-03,1.73871e-03,-5.98890e-03,-2.33167e-03,9.76006e-03,9.79436e-03,1.70102e-02,-1.72599e-02,-4.21537e-03,9.72763e-03,8.10005e-04,-1.95690e-03,-6.66976e-03,-1.98851e-02,-3.26967e-04,-1.35380e-02,-7.29196e-03,-1.21585e-02,-3.95494e-03,7.04243e-03,-1.57740e-02,1.41721e-02,1.32810e-02,1.75389e-02,5.46730e-03,7.31024e-03,-4.15837e-03,9.80564e-03,-1.66507e-02,-1.48438e-02,1.30716e-02,-1.48816e-02,5.79000e-03,2.70054e-03,-7.31614e-03,1.20369e-02,7.96901e-03,6.52747e-03,-2.23372e-03,-1.59653e-02,-3.32910e-03,-2.77246e-03,-2.24784e-03,1.07976e-02,-2.59826e-03,-1.64571e-02,-2.74985e-03,-6.99400e-03,4.20826e-03,-1.57228e-03,-7.46053e-03,1.06309e-02,7.48924e-03,1.62393e-02,-1.67842e-03,1.71552e-04,-6.16479e-04,6.67860e-04,-6.40783e-03,4.04284e-03,-4.39378e-03,-4.28844e-03,-3.78625e-03,6.65158e-03,6.92110e-03,-3.77281e-03,-9.96566e-03,1.41574e-03,9.25878e-04,1.06196e-02,7.65761e-03,6.31330e-03,-1.32443e-02,-6.86738e-04,2.38943e-03,1.51235e-02,-1.01784e-02,3.60772e-03,-1.16537e-03,-1.64666e-03,5.16777e-03,3.29518e-03,7.09940e-04,4.11046e-03,3.32879e-04,-3.18072e-03,7.18586e-03,1.09501e-02,1.09470e-03,1.21244e-02,-3.00053e-03,-1.45933e-02,-1.19486e-02,-1.12553e-02,-9.22880e-03,3.59939e-03,8.59046e-03,6.46811e-03,4.69062e-04,5.49309e-03,1.47326e-02,-1.46931e-02,2.57599e-03,1.54947e-03,-1.54705e-02,-5.82729e-03,1.61189e-02,-5.92395e-04,-1.21939e-02,-1.16595e-02,8.05596e-04,8.37627e-03,6.41904e-03,-1.33745e-03,7.70682e-03,-1.98287e-02,2.67969e-04,-9.97155e-03,-1.70051e-02,1.63599e-02,-8.81746e-04,-1.76207e-02,-8.25819e-03,-1.00166e-02,-8.73788e-03,1.23126e-03,2.40500e-03,-5.64878e-03,-1.01702e-02,3.61363e-03,-5.62792e-03,7.52703e-04,6.06958e-03,-1.63283e-03,-1.59561e-02,1.92339e-02,-1.09406e-03,-1.81736e-02,1.80102e-02,-2.97106e-03,-3.92280e-03,-3.00902e-03,1.22165e-03,1.65491e-02,-1.28297e-02,1.10213e-02,-1.40467e-03,4.79650e-03,-6.49415e-03,8.42996e-03,1.26296e-02,-6.73007e-03,-6.13137e-03,7.73073e-03,2.99033e-03,4.90751e-03,3.03486e-03,-1.23981e-03,-3.41827e-03,-8.19154e-03,-1.74429e-02,-4.35475e-03,1.02705e-03,-6.62537e-03,-5.06461e-03,1.19130e-02,-2.01412e-03,3.35194e-03,6.34612e-03,-1.56471e-02,-4.71579e-05,1.17557e-02,-7.22959e-03,1.75975e-02,1.76994e-02,7.87399e-04,7.64679e-03,2.20070e-03,5.44658e-03,-1.83384e-02,-3.49939e-03,-4.08891e-03,3.26627e-04,-7.31246e-03,2.62225e-03,-5.36351e-03,-3.97867e-03,9.22502e-03,-2.67520e-03,-1.71969e-02,5.60887e-03,-9.61783e-03,-1.87110e-02,3.25133e-03,5.67835e-03,-2.55361e-03,7.50535e-03,-5.76804e-03,-2.10978e-03,-1.76255e-02,-5.64639e-04,-9.25436e-03,1.47862e-03,5.00188e-03,-1.84533e-03,8.16888e-03,-1.24858e-02,8.14554e-03,-3.97127e-03,4.70492e-03,9.47118e-03,1.03016e-02,-4.80917e-03,-8.28889e-04,1.25270e-02,6.09564e-03,-1.37749e-02,-1.05165e-02,-8.66692e-03,1.38937e-03,1.05724e-02,-3.47579e-03,-1.07437e-02,1.55395e-02,-9.53596e-03,3.81470e-03,-5.36677e-03,-9.00882e-03,9.44454e-03,3.15148e-03,-2.12124e-03,-5.78215e-03,-1.49687e-02,-1.10119e-02,-8.34734e-03,-1.65511e-04,-5.55761e-03,5.38126e-03,5.11495e-03,-4.82266e-04,-1.41249e-02,6.94429e-03,-1.17290e-02,6.19833e-03,1.50550e-02,-5.19667e-03,6.38099e-03,1.33100e-03,7.35525e-03,-4.14620e-03,1.03266e-02,-1.37316e-02,-2.57113e-03,3.66725e-03,-1.99961e-02,5.80105e-03,-8.30109e-03,-4.61586e-03,1.95217e-03,1.46775e-02,-9.65156e-03,-5.59602e-03,-8.27721e-03,-3.78941e-03,1.10018e-02,-4.47910e-03,-9.84653e-04,3.28558e-05,5.64771e-03,1.33144e-02,3.28162e-03,3.02649e-03,8.86649e-03,-7.87266e-03,-9.61082e-03,1.46067e-02,5.61992e-03,9.47751e-03,-3.97875e-03,-2.36755e-03,1.58354e-02,-4.59473e-03,2.49548e-03,-8.60606e-03,-1.34366e-02,1.52430e-02,2.08871e-03,1.46663e-02,6.34130e-03,-1.05597e-03,9.25305e-03,-1.07248e-02,6.69834e-03,5.49965e-03,-1.24159e-02,1.76042e-02,1.40517e-02,9.95528e-03,-1.37667e-02,-9.58654e-03,2.81399e-03,-1.03272e-02,-1.10486e-02,-4.53268e-04,-5.41073e-04,-7.93940e-03,5.87660e-03,-4.92671e-03,9.33344e-03,-5.64570e-03,1.76368e-02,4.44781e-03,4.91831e-03,1.34617e-02,-1.88980e-02,-7.89247e-03,1.60777e-02,-1.09591e-02,4.24849e-03,-7.55890e-03,1.35004e-02,6.43154e-03,4.56271e-03,-1.85096e-02,-9.37363e-03,-5.81871e-03,-6.60144e-03,2.06310e-03,6.24373e-03,4.25336e-04,-2.32057e-03,-2.69331e-03,-6.23088e-04,-1.41974e-02,-1.29674e-02,-7.05718e-04,-1.50701e-02,5.66727e-03,2.81128e-03,-5.18661e-03,1.40609e-03,
