// Neural Network File Format by Kyle Julian, Stanford 2016
1,784,10,784,
784,10,
0,
0.0,0.0,0.0,0.0,0.0,0.0,0.0,0.0,0.0,0.0,0.0,0.0,0.0,0.0,0.0,0.0,0.0,0.0,0.0,0.0,0.0,0.0,0.0,0.0,0.0,0.0,0.0,0.0,0.0,0.0,0.0,0.0,0.0,0.0,0.0,0.0,0.0,0.0,0.0,0.0,0.0,0.0,0.0,0.0,0.0,0.0,0.0,0.0,0.0,0.0,0.0,0.0,0.0,0.0,0.0,0.0,0.0,0.0,0.0,0.0,0.0,0.0,0.0,0.0,0.0,0.0,0.0,0.0,0.0,0.0,0.0,0.0,0.0,0.0,0.0,0.0,0.0,0.0,0.0,0.0,0.0,0.0,0.0,0.0,0.0,0.0,0.0,0.0,0.0,0.0,0.0,0.0,0.0,0.0,0.0,0.0,0.0,0.0,0.0,0.0,0.0,0.0,0.0,0.0,0.0,0.0,0.0,0.0,0.0,0.0,0.0,0.0,0.0,0.0,0.0,0.0,0.0,0.0,0.0,0.0,0.0,0.0,0.0,0.0,0.0,0.0,0.0,0.0,0.0,0.0,0.0,0.0,0.0,0.0,0.0,0.0,0.0,0.0,0.0,0.0,0.0,0.0,0.0,0.0,0.0,0.0,0.0,0.0,0.0,0.0,0.0,0.0,0.0,0.0,0.0,0.0,0.0,0.0,0.0,0.0,0.0,0.0,0.0,0.0,0.0,0.0,0.0,0.0,0.0,0.0,0.0,0.0,0.0,0.0,0.0,0.0,0.0,0.0,0.0,0.0,0.0,0.0,0.0,0.0,0.0,0.0,0.0,0.0,0.0,0.0,0.0,0.0,0.0,0.0,0.0,0.0,0.0,0.0,0.0,0.0,0.0,0.0,0.0,0.0,0.0,0.0,0.0,0.0,0.0,0.0,0.0,0.0,0.0,0.0,0.0,0.0,0.0,0.0,0.0,0.0,0.0,0.0,0.0,0.0,0.0,0.0,0.0,0.0,0.0,0.0,0.0,0.0,0.0,0.0,0.0,0.0,0.0,0.0,0.0,0.0,0.0,0.0,0.0,0.0,0.0,0.0,0.0,0.0,0.0,0.0,0.0,0.0,0.0,0.0,0.0,0.0,0.0,0.0,0.0,0.0,0.0,0.0,0.0,0.0,0.0,0.0,0.0,0.0,0.0,0.0,0.0,0.0,0.0,0.0,0.0,0.0,0.0,0.0,0.0,0.0,0.0,0.0,0.0,0.0,0.0,0.0,0.0,0.0,0.0,0.0,0.0,0.0,0.0,0.0,0.0,0.0,0.0,0.0,0.0,0.0,0.0,0.0,0.0,0.0,0.0,0.0,0.0,0.0,0.0,0.0,0.0,0.0,0.0,0.0,0.0,0.0,0.0,0.0,0.0,0.0,0.0,0.0,0.0,0.0,0.0,0.0,0.0,0.0,0.0,0.0,0.0,0.0,0.0,0.0,0.0,0.0,0.0,0.0,0.0,0.0,0.0,0.0,0.0,0.0,0.0,0.0,0.0,0.0,0.0,0.0,0.0,0.0,0.0,0.0,0.0,0.0,0.0,0.0,0.0,0.0,0.0,0.0,0.0,0.0,0.0,0.0,0.0,0.0,0.0,0.0,0.0,0.0,0.0,0.0,0.0,0.0,0.0,0.0,0.0,0.0,0.0,0.0,0.0,0.0,0.0,0.0,0.0,0.0,0.0,0.0,0.0,0.0,0.0,0.0,0.0,0.0,0.0,0.0,0.0,0.0,0.0,0.0,0.0,0.0,0.0,0.0,0.0,0.0,0.0,0.0,0.0,0.0,0.0,0.0,0.0,0.0,0.0,0.0,0.0,0.0,0.0,0.0,0.0,0.0,0.0,0.0,0.0,0.0,0.0,0.0,0.0,0.0,0.0,0.0,0.0,0.0,0.0,0.0,0.0,0.0,0.0,0.0,0.0,0.0,0.0,0.0,0.0,0.0,0.0,0.0,0.0,0.0,0.0,0.0,0.0,0.0,0.0,0.0,0.0,0.0,0.0,0.0,0.0,0.0,0.0,0.0,0.0,0.0,0.0,0.0,0.0,0.0,0.0,0.0,0.0,0.0,0.0,0.0,0.0,0.0,0.0,0.0,0.0,0.0,0.0,0.0,0.0,0.0,0.0,0.0,0.0,0.0,0.0,0.0,0.0,0.0,0.0,0.0,0.0,0.0,0.0,0.0,0.0,0.0,0.0,0.0,0.0,0.0,0.0,0.0,0.0,0.0,0.0,0.0,0.0,0.0,0.0,0.0,0.0,0.0,0.0,0.0,0.0,0.0,0.0,0.0,0.0,0.0,0.0,0.0,0.0,0.0,0.0,0.0,0.0,0.0,0.0,0.0,0.0,0.0,0.0,0.0,0.0,0.0,0.0,0.0,0.0,0.0,0.0,0.0,0.0,0.0,0.0,0.0,0.0,0.0,0.0,0.0,0.0,0.0,0.0,0.0,0.0,0.0,0.0,0.0,0.0,0.0,0.0,0.0,0.0,0.0,0.0,0.0,0.0,0.0,0.0,0.0,0.0,0.0,0.0,0.0,0.0,0.0,0.0,0.0,0.0,0.0,0.0,0.0,0.0,0.0,0.0,0.0,0.0,0.0,0.0,0.0,0.0,0.0,0.0,0.0,0.0,0.0,0.0,0.0,0.0,0.0,0.0,0.0,0.0,0.0,0.0,0.0,0.0,0.0,0.0,0.0,0.0,0.0,0.0,0.0,0.0,0.0,0.0,0.0,0.0,0.0,0.0,0.0,0.0,0.0,0.0,0.0,0.0,0.0,0.0,0.0,0.0,0.0,0.0,0.0,0.0,0.0,0.0,0.0,0.0,0.0,0.0,0.0,0.0,0.0,0.0,0.0,0.0,0.0,0.0,0.0,0.0,0.0,0.0,0.0,0.0,0.0,0.0,0.0,0.0,0.0,0.0,0.0,0.0,0.0,0.0,0.0,0.0,0.0,0.0,0.0,0.0,0.0,0.0,0.0,0.0,0.0,0.0,0.0,0.0,0.0,0.0,0.0,0.0,0.0,0.0,0.0,0.0,0.0,0.0,0.0,0.0,0.0,0.0,0.0,0.0,0.0,0.0,0.0,0.0,0.0,0.0,0.0,0.0,0.0,0.0,0.0,0.0,0.0,0.0,0.0,0.0,0.0,0.0,0.0,0.0,0.0,0.0,0.0,0.0,0.0,0.0,0.0,0.0,0.0,0.0,0.0,0.0,0.0,0.0,0.0,0.0,0.0,0.0,0.0,0.0,0.0,0.0,0.0,0.0,0.0,0.0,0.0,0.0,0.0,0.0,0.0,0.0,0.0,0.0,0.0,0.0,0.0,0.0,0.0,0.0,0.0,0.0,0.0,0.0,0.0,0.0,0.0,0.0,0.0,0.0,0.0,0.0,0.0,0.0,0.0,0.0,0.0,0.0,0.0,0.0,0.0,
255.0,255.0,255.0,255.0,255.0,255.0,255.0,255.0,255.0,255.0,255.0,255.0,255.0,255.0,255.0,255.0,255.0,255.0,255.0,255.0,255.0,255.0,255.0,255.0,255.0,255.0,255.0,255.0,255.0,255.0,255.0,255.0,255.0,255.0,255.0,255.0,255.0,255.0,255.0,255.0,255.0,255.0,255.0,255.0,255.0,255.0,255.0,255.0,255.0,255.0,255.0,255.0,255.0,255.0,255.0,255.0,255.0,255.0,255.0,255.0,255.0,255.0,255.0,255.0,255.0,255.0,255.0,255.0,255.0,255.0,255.0,255.0,255.0,255.0,255.0,255.0,255.0,255.0,255.0,255.0,255.0,255.0,255.0,255.0,255.0,255.0,255.0,255.0,255.0,255.0,255.0,255.0,255.0,255.0,255.0,255.0,255.0,255.0,255.0,255.0,255.0,255.0,255.0,255.0,255.0,255.0,255.0,255.0,255.0,255.0,255.0,255.0,255.0,255.0,255.0,255.0,255.0,255.0,255.0,255.0,255.0,255.0,255.0,255.0,255.0,255.0,255.0,255.0,255.0,255.0,255.0,255.0,255.0,255.0,255.0,255.0,255.0,255.0,255.0,255.0,255.0,255.0,255.0,255.0,255.0,255.0,255.0,255.0,255.0,255.0,255.0,255.0,255.0,255.0,255.0,255.0,255.0,255.0,255.0,255.0,255.0,255.0,255.0,255.0,255.0,255.0,255.0,255.0,255.0,255.0,255.0,255.0,255.0,255.0,255.0,255.0,255.0,255.0,255.0,255.0,255.0,255.0,255.0,255.0,255.0,255.0,255.0,255.0,255.0,255.0,255.0,255.0,255.0,255.0,255.0,255.0,255.0,255.0,255.0,255.0,255.0,255.0,255.0,255.0,255.0,255.0,255.0,255.0,255.0,255.0,255.0,255.0,255.0,255.0,255.0,255.0,255.0,255.0,255.0,255.0,255.0,255.0,255.0,255.0,255.0,255.0,255.0,255.0,255.0,255.0,255.0,255.0,255.0,255.0,255.0,255.0,255.0,255.0,255.0,255.0,255.0,255.0,255.0,255.0,255.0,255.0,255.0,255.0,255.0,255.0,255.0,255.0,255.0,255.0,255.0,255.0,255.0,255.0,255.0,255.0,255.0,255.0,255.0,255.0,255.0,255.0,255.0,255.0,255.0,255.0,255.0,255.0,255.0,255.0,255.0,255.0,255.0,255.0,255.0,255.0,255.0,255.0,255.0,255.0,255.0,255.0,255.0,255.0,255.0,255.0,255.0,255.0,255.0,255.0,255.0,255.0,255.0,255.0,255.0,255.0,255.0,255.0,255.0,255.0,255.0,255.0,255.0,255.0,255.0,255.0,255.0,255.0,255.0,255.0,255.0,255.0,255.0,255.0,255.0,255.0,255.0,255.0,255.0,255.0,255.0,255.0,255.0,255.0,255.0,255.0,255.0,255.0,255.0,255.0,255.0,255.0,255.0,255.0,255.0,255.0,255.0,255.0,255.0,255.0,255.0,255.0,255.0,255.0,255.0,255.0,255.0,255.0,255.0,255.0,255.0,255.0,255.0,255.0,255.0,255.0,255.0,255.0,255.0,255.0,255.0,255.0,255.0,255.0,255.0,255.0,255.0,255.0,255.0,255.0,255.0,255.0,255.0,255.0,255.0,255.0,255.0,255.0,255.0,255.0,255.0,255.0,255.0,255.0,255.0,255.0,255.0,255.0,255.0,255.0,255.0,255.0,255.0,255.0,255.0,255.0,255.0,255.0,255.0,255.0,255.0,255.0,255.0,255.0,255.0,255.0,255.0,255.0,255.0,255.0,255.0,255.0,255.0,255.0,255.0,255.0,255.0,255.0,255.0,255.0,255.0,255.0,255.0,255.0,255.0,255.0,255.0,255.0,255.0,255.0,255.0,255.0,255.0,255.0,255.0,255.0,255.0,255.0,255.0,255.0,255.0,255.0,255.0,255.0,255.0,255.0,255.0,255.0,255.0,255.0,255.0,255.0,255.0,255.0,255.0,255.0,255.0,255.0,255.0,255.0,255.0,255.0,255.0,255.0,255.0,255.0,255.0,255.0,255.0,255.0,255.0,255.0,255.0,255.0,255.0,255.0,255.0,255.0,255.0,255.0,255.0,255.0,255.0,255.0,255.0,255.0,255.0,255.0,255.0,255.0,255.0,255.0,255.0,255.0,255.0,255.0,255.0,255.0,255.0,255.0,255.0,255.0,255.0,255.0,255.0,255.0,255.0,255.0,255.0,255.0,255.0,255.0,255.0,255.0,255.0,255.0,255.0,255.0,255.0,255.0,255.0,255.0,255.0,255.0,255.0,255.0,255.0,255.0,255.0,255.0,255.0,255.0,255.0,255.0,255.0,255.0,255.0,255.0,255.0,255.0,255.0,255.0,255.0,255.0,255.0,255.0,255.0,255.0,255.0,255.0,255.0,255.0,255.0,255.0,255.0,255.0,255.0,255.0,255.0,255.0,255.0,255.0,255.0,255.0,255.0,255.0,255.0,255.0,255.0,255.0,255.0,255.0,255.0,255.0,255.0,255.0,255.0,255.0,255.0,255.0,255.0,255.0,255.0,255.0,255.0,255.0,255.0,255.0,255.0,255.0,255.0,255.0,255.0,255.0,255.0,255.0,255.0,255.0,255.0,255.0,255.0,255.0,255.0,255.0,255.0,255.0,255.0,255.0,255.0,255.0,255.0,255.0,255.0,255.0,255.0,255.0,255.0,255.0,255.0,255.0,255.0,255.0,255.0,255.0,255.0,255.0,255.0,255.0,255.0,255.0,255.0,255.0,255.0,255.0,255.0,255.0,255.0,255.0,255.0,255.0,255.0,255.0,255.0,255.0,255.0,255.0,255.0,255.0,255.0,255.0,255.0,255.0,255.0,255.0,255.0,255.0,255.0,255.0,255.0,255.0,255.0,255.0,255.0,255.0,255.0,255.0,255.0,255.0,255.0,255.0,255.0,255.0,255.0,255.0,255.0,255.0,255.0,255.0,255.0,255.0,255.0,255.0,255.0,255.0,255.0,255.0,255.0,255.0,255.0,255.0,255.0,255.0,255.0,255.0,255.0,255.0,255.0,255.0,255.0,255.0,255.0,255.0,255.0,255.0,255.0,255.0,255.0,255.0,255.0,255.0,255.0,255.0,255.0,255.0,255.0,255.0,255.0,255.0,255.0,255.0,255.0,255.0,255.0,255.0,255.0,255.0,255.0,255.0,255.0,255.0,255.0,255.0,255.0,255.0,255.0,255.0,255.0,255.0,255.0,255.0,255.0,255.0,255.0,255.0,255.0,255.0,255.0,255.0,255.0,255.0,255.0,255.0,255.0,255.0,255.0,255.0,255.0,255.0,255.0,255.0,255.0,255.0,255.0,255.0,255.0,255.0,255.0,255.0,255.0,255.0,255.0,255.0,255.0,255.0,255.0,255.0,255.0,255.0,255.0,255.0,
127.0,127.0,127.0,127.0,127.0,127.0,127.0,127.0,127.0,127.0,127.0,127.0,127.0,127.0,127.0,127.0,127.0,127.0,127.0,127.0,127.0,127.0,127.0,127.0,127.0,127.0,127.0,127.0,127.0,127.0,127.0,127.0,127.0,127.0,127.0,127.0,127.0,127.0,127.0,127.0,127.0,127.0,127.0,127.0,127.0,127.0,127.0,127.0,127.0,127.0,127.0,127.0,127.0,127.0,127.0,127.0,127.0,127.0,127.0,127.0,127.0,127.0,127.0,127.0,127.0,127.0,127.0,127.0,127.0,127.0,127.0,127.0,127.0,127.0,127.0,127.0,127.0,127.0,127.0,127.0,127.0,127.0,127.0,127.0,127.0,127.0,127.0,127.0,127.0,127.0,127.0,127.0,127.0,127.0,127.0,127.0,127.0,127.0,127.0,127.0,127.0,127.0,127.0,127.0,127.0,127.0,127.0,127.0,127.0,127.0,127.0,127.0,127.0,127.0,127.0,127.0,127.0,127.0,127.0,127.0,127.0,127.0,127.0,127.0,127.0,127.0,127.0,127.0,127.0,127.0,127.0,127.0,127.0,127.0,127.0,127.0,127.0,127.0,127.0,127.0,127.0,127.0,127.0,127.0,127.0,127.0,127.0,127.0,127.0,127.0,127.0,127.0,127.0,127.0,127.0,127.0,127.0,127.0,127.0,127.0,127.0,127.0,127.0,127.0,127.0,127.0,127.0,127.0,127.0,127.0,127.0,127.0,127.0,127.0,127.0,127.0,127.0,127.0,127.0,127.0,127.0,127.0,127.0,127.0,127.0,127.0,127.0,127.0,127.0,127.0,127.0,127.0,127.0,127.0,127.0,127.0,127.0,127.0,127.0,127.0,127.0,127.0,127.0,127.0,127.0,127.0,127.0,127.0,127.0,127.0,127.0,127.0,127.0,127.0,127.0,127.0,127.0,127.0,127.0,127.0,127.0,127.0,127.0,127.0,127.0,127.0,127.0,127.0,127.0,127.0,127.0,127.0,127.0,127.0,127.0,127.0,127.0,127.0,127.0,127.0,127.0,127.0,127.0,127.0,127.0,127.0,127.0,127.0,127.0,127.0,127.0,127.0,127.0,127.0,127.0,127.0,127.0,127.0,127.0,127.0,127.0,127.0,127.0,127.0,127.0,127.0,127.0,127.0,127.0,127.0,127.0,127.0,127.0,127.0,127.0,127.0,127.0,127.0,127.0,127.0,127.0,127.0,127.0,127.0,127.0,127.0,127.0,127.0,127.0,127.0,127.0,127.0,127.0,127.0,127.0,127.0,127.0,127.0,127.0,127.0,127.0,127.0,127.0,127.0,127.0,127.0,127.0,127.0,127.0,127.0,127.0,127.0,127.0,127.0,127.0,127.0,127.0,127.0,127.0,127.0,127.0,127.0,127.0,127.0,127.0,127.0,127.0,127.0,127.0,127.0,127.0,127.0,127.0,127.0,127.0,127.0,127.0,127.0,127.0,127.0,127.0,127.0,127.0,127.0,127.0,127.0,127.0,127.0,127.0,127.0,127.0,127.0,127.0,127.0,127.0,127.0,127.0,127.0,127.0,127.0,127.0,127.0,127.0,127.0,127.0,127.0,127.0,127.0,127.0,127.0,127.0,127.0,127.0,127.0,127.0,127.0,127.0,127.0,127.0,127.0,127.0,127.0,127.0,127.0,127.0,127.0,127.0,127.0,127.0,127.0,127.0,127.0,127.0,127.0,127.0,127.0,127.0,127.0,127.0,127.0,127.0,127.0,127.0,127.0,127.0,127.0,127.0,127.0,127.0,127.0,127.0,127.0,127.0,127.0,127.0,127.0,127.0,127.0,127.0,127.0,127.0,127.0,127.0,127.0,127.0,127.0,127.0,127.0,127.0,127.0,127.0,127.0,127.0,127.0,127.0,127.0,127.0,127.0,127.0,127.0,127.0,127.0,127.0,127.0,127.0,127.0,127.0,127.0,127.0,127.0,127.0,127.0,127.0,127.0,127.0,127.0,127.0,127.0,127.0,127.0,127.0,127.0,127.0,127.0,127.0,127.0,127.0,127.0,127.0,127.0,127.0,127.0,127.0,127.0,127.0,127.0,127.0,127.0,127.0,127.0,127.0,127.0,127.0,127.0,127.0,127.0,127.0,127.0,127.0,127.0,127.0,127.0,127.0,127.0,127.0,127.0,127.0,127.0,127.0,127.0,127.0,127.0,127.0,127.0,127.0,127.0,127.0,127.0,127.0,127.0,127.0,127.0,127.0,127.0,127.0,127.0,127.0,127.0,127.0,127.0,127.0,127.0,127.0,127.0,127.0,127.0,127.0,127.0,127.0,127.0,127.0,127.0,127.0,127.0,127.0,127.0,127.0,127.0,127.0,127.0,127.0,127.0,127.0,127.0,127.0,127.0,127.0,127.0,127.0,127.0,127.0,127.0,127.0,127.0,127.0,127.0,127.0,127.0,127.0,127.0,127.0,127.0,127.0,127.0,127.0,127.0,127.0,127.0,127.0,127.0,127.0,127.0,127.0,127.0,127.0,127.0,127.0,127.0,127.0,127.0,127.0,127.0,127.0,127.0,127.0,127.0,127.0,127.0,127.0,127.0,127.0,127.0,127.0,127.0,127.0,127.0,127.0,127.0,127.0,127.0,127.0,127.0,127.0,127.0,127.0,127.0,127.0,127.0,127.0,127.0,127.0,127.0,127.0,127.0,127.0,127.0,127.0,127.0,127.0,127.0,127.0,127.0,127.0,127.0,127.0,127.0,127.0,127.0,127.0,127.0,127.0,127.0,127.0,127.0,127.0,127.0,127.0,127.0,127.0,127.0,127.0,127.0,127.0,127.0,127.0,127.0,127.0,127.0,127.0,127.0,127.0,127.0,127.0,127.0,127.0,127.0,127.0,127.0,127.0,127.0,127.0,127.0,127.0,127.0,127.0,127.0,127.0,127.0,127.0,127.0,127.0,127.0,127.0,127.0,127.0,127.0,127.0,127.0,127.0,127.0,127.0,127.0,127.0,127.0,127.0,127.0,127.0,127.0,127.0,127.0,127.0,127.0,127.0,127.0,127.0,127.0,127.0,127.0,127.0,127.0,127.0,127.0,127.0,127.0,127.0,127.0,127.0,127.0,127.0,127.0,127.0,127.0,127.0,127.0,127.0,127.0,127.0,127.0,127.0,127.0,127.0,127.0,127.0,127.0,127.0,127.0,127.0,127.0,127.0,127.0,127.0,127.0,127.0,127.0,127.0,127.0,127.0,127.0,127.0,127.0,127.0,127.0,127.0,127.0,127.0,127.0,127.0,127.0,127.0,127.0,127.0,127.0,127.0,127.0,127.0,127.0,127.0,127.0,127.0,127.0,127.0,127.0,127.0,127.0,127.0,127.0,127.0,127.0,127.0,127.0,127.0,127.0,127.0,127.0,127.0,127.0,127.0,127.0,127.0,127.0,127.0,127.0,127.0,127.0,
255.0,255.0,255.0,255.0,255.0,255.0,255.0,255.0,255.0,255.0,255.0,255.0,255.0,255.0,255.0,255.0,255.0,255.0,255.0,255.0,255.0,255.0,255.0,255.0,255.0,255.0,255.0,255.0,255.0,255.0,255.0,255.0,255.0,255.0,255.0,255.0,255.0,255.0,255.0,255.0,255.0,255.0,255.0,255.0,255.0,255.0,255.0,255.0,255.0,255.0,255.0,255.0,255.0,255.0,255.0,255.0,255.0,255.0,255.0,255.0,255.0,255.0,255.0,255.0,255.0,255.0,255.0,255.0,255.0,255.0,255.0,255.0,255.0,255.0,255.0,255.0,255.0,255.0,255.0,255.0,255.0,255.0,255.0,255.0,255.0,255.0,255.0,255.0,255.0,255.0,255.0,255.0,255.0,255.0,255.0,255.0,255.0,255.0,255.0,255.0,255.0,255.0,255.0,255.0,255.0,255.0,255.0,255.0,255.0,255.0,255.0,255.0,255.0,255.0,255.0,255.0,255.0,255.0,255.0,255.0,255.0,255.0,255.0,255.0,255.0,255.0,255.0,255.0,255.0,255.0,255.0,255.0,255.0,255.0,255.0,255.0,255.0,255.0,255.0,255.0,255.0,255.0,255.0,255.0,255.0,255.0,255.0,255.0,255.0,255.0,255.0,255.0,255.0,255.0,255.0,255.0,255.0,255.0,255.0,255.0,255.0,255.0,255.0,255.0,255.0,255.0,255.0,255.0,255.0,255.0,255.0,255.0,255.0,255.0,255.0,255.0,255.0,255.0,255.0,255.0,255.0,255.0,255.0,255.0,255.0,255.0,255.0,255.0,255.0,255.0,255.0,255.0,255.0,255.0,255.0,255.0,255.0,255.0,255.0,255.0,255.0,255.0,255.0,255.0,255.0,255.0,255.0,255.0,255.0,255.0,255.0,255.0,255.0,255.0,255.0,255.0,255.0,255.0,255.0,255.0,255.0,255.0,255.0,255.0,255.0,255.0,255.0,255.0,255.0,255.0,255.0,255.0,255.0,255.0,255.0,255.0,255.0,255.0,255.0,255.0,255.0,255.0,255.0,255.0,255.0,255.0,255.0,255.0,255.0,255.0,255.0,255.0,255.0,255.0,255.0,255.0,255.0,255.0,255.0,255.0,255.0,255.0,255.0,255.0,255.0,255.0,255.0,255.0,255.0,255.0,255.0,255.0,255.0,255.0,255.0,255.0,255.0,255.0,255.0,255.0,255.0,255.0,255.0,255.0,255.0,255.0,255.0,255.0,255.0,255.0,255.0,255.0,255.0,255.0,255.0,255.0,255.0,255.0,255.0,255.0,255.0,255.0,255.0,255.0,255.0,255.0,255.0,255.0,255.0,255.0,255.0,255.0,255.0,255.0,255.0,255.0,255.0,255.0,255.0,255.0,255.0,255.0,255.0,255.0,255.0,255.0,255.0,255.0,255.0,255.0,255.0,255.0,255.0,255.0,255.0,255.0,255.0,255.0,255.0,255.0,255.0,255.0,255.0,255.0,255.0,255.0,255.0,255.0,255.0,255.0,255.0,255.0,255.0,255.0,255.0,255.0,255.0,255.0,255.0,255.0,255.0,255.0,255.0,255.0,255.0,255.0,255.0,255.0,255.0,255.0,255.0,255.0,255.0,255.0,255.0,255.0,255.0,255.0,255.0,255.0,255.0,255.0,255.0,255.0,255.0,255.0,255.0,255.0,255.0,255.0,255.0,255.0,255.0,255.0,255.0,255.0,255.0,255.0,255.0,255.0,255.0,255.0,255.0,255.0,255.0,255.0,255.0,255.0,255.0,255.0,255.0,255.0,255.0,255.0,255.0,255.0,255.0,255.0,255.0,255.0,255.0,255.0,255.0,255.0,255.0,255.0,255.0,255.0,255.0,255.0,255.0,255.0,255.0,255.0,255.0,255.0,255.0,255.0,255.0,255.0,255.0,255.0,255.0,255.0,255.0,255.0,255.0,255.0,255.0,255.0,255.0,255.0,255.0,255.0,255.0,255.0,255.0,255.0,255.0,255.0,255.0,255.0,255.0,255.0,255.0,255.0,255.0,255.0,255.0,255.0,255.0,255.0,255.0,255.0,255.0,255.0,255.0,255.0,255.0,255.0,255.0,255.0,255.0,255.0,255.0,255.0,255.0,255.0,255.0,255.0,255.0,255.0,255.0,255.0,255.0,255.0,255.0,255.0,255.0,255.0,255.0,255.0,255.0,255.0,255.0,255.0,255.0,255.0,255.0,255.0,255.0,255.0,255.0,255.0,255.0,255.0,255.0,255.0,255.0,255.0,255.0,255.0,255.0,255.0,255.0,255.0,255.0,255.0,255.0,255.0,255.0,255.0,255.0,255.0,255.0,255.0,255.0,255.0,255.0,255.0,255.0,255.0,255.0,255.0,255.0,255.0,255.0,255.0,255.0,255.0,255.0,255.0,255.0,255.0,255.0,255.0,255.0,255.0,255.0,255.0,255.0,255.0,255.0,255.0,255.0,255.0,255.0,255.0,255.0,255.0,255.0,255.0,255.0,255.0,255.0,255.0,255.0,255.0,255.0,255.0,255.0,255.0,255.0,255.0,255.0,255.0,255.0,255.0,255.0,255.0,255.0,255.0,255.0,255.0,255.0,255.0,255.0,255.0,255.0,255.0,255.0,255.0,255.0,255.0,255.0,255.0,255.0,255.0,255.0,255.0,255.0,255.0,255.0,255.0,255.0,255.0,255.0,255.0,255.0,255.0,255.0,255.0,255.0,255.0,255.0,255.0,255.0,255.0,255.0,255.0,255.0,255.0,255.0,255.0,255.0,255.0,255.0,255.0,255.0,255.0,255.0,255.0,255.0,255.0,255.0,255.0,255.0,255.0,255.0,255.0,255.0,255.0,255.0,255.0,255.0,255.0,255.0,255.0,255.0,255.0,255.0,255.0,255.0,255.0,255.0,255.0,255.0,255.0,255.0,255.0,255.0,255.0,255.0,255.0,255.0,255.0,255.0,255.0,255.0,255.0,255.0,255.0,255.0,255.0,255.0,255.0,255.0,255.0,255.0,255.0,255.0,255.0,255.0,255.0,255.0,255.0,255.0,255.0,255.0,255.0,255.0,255.0,255.0,255.0,255.0,255.0,255.0,255.0,255.0,255.0,255.0,255.0,255.0,255.0,255.0,255.0,255.0,255.0,255.0,255.0,255.0,255.0,255.0,255.0,255.0,255.0,255.0,255.0,255.0,255.0,255.0,255.0,255.0,255.0,255.0,255.0,255.0,255.0,255.0,255.0,255.0,255.0,255.0,255.0,255.0,255.0,255.0,255.0,255.0,255.0,255.0,255.0,255.0,255.0,255.0,255.0,255.0,255.0,255.0,255.0,255.0,255.0,255.0,255.0,255.0,255.0,255.0,255.0,255.0,255.0,255.0,255.0,255.0,255.0,255.0,255.0,255.0,255.0,255.0,255.0,255.0,255.0,255.0,255.0,
0.00000e+00,0.00000e+00,0.00000e+00,0.00000e+00,0.00000e+00,0.00000e+00,0.00000e+00,0.00000e+00,0.00000e+00,0.00000e+00,0.00000e+00,0.00000e+00,-2.29184e-06,-1.12400e-05,-6.92352e-06,-2.88480e-07,0.00000e+00,0.00000e+00,0.00000e+00,0.00000e+00,0.00000e+00,0.00000e+00,0.00000e+00,0.00000e+00,0.00000e+00,0.00000e+00,0.00000e+00,0.00000e+00,0.00000e+00,0.00000e+00,0.00000e+00,0.00000e+00,-5.33974e-10,-4.88857e-08,-8.68615e-06,-1.67838e-05,-1.74002e-05,-1.89310e-05,-2.77503e-04,2.91845e-03,8.25447e-03,3.73967e-03,-1.78281e-04,3.33934e-03,9.11715e-03,3.61879e-03,-7.96613e-04,-3.63406e-04,-1.51535e-04,-5.12398e-05,-4.00654e-06,-6.58583e-07,0.00000e+00,0.00000e+00,0.00000e+00,0.00000e+00,0.00000e+00,0.00000e+00,-5.15086e-09,1.79163e-04,6.14638e-05,-8.00281e-07,-1.79994e-03,-2.25741e-03,-2.38799e-03,-9.27408e-03,-1.14877e-02,-1.75956e-02,-1.82202e-02,-2.14789e-02,-2.73399e-02,-2.98697e-02,-2.82162e-02,-2.72022e-02,-2.37829e-02,-1.81479e-02,-1.06914e-02,-4.27786e-03,-2.56167e-03,-1.08621e-03,-2.27010e-04,-5.39595e-06,0.00000e+00,0.00000e+00,0.00000e+00,0.00000e+00,-1.14342e-08,4.36672e-04,-7.19772e-04,-1.04424e-02,-1.23247e-02,-1.42733e-02,-4.30345e-03,-2.50950e-02,-3.61967e-02,-2.67587e-02,-4.05598e-02,-2.88791e-02,-5.48235e-02,-6.24369e-02,-6.19726e-02,-7.26250e-02,-8.56958e-02,-8.97382e-02,-7.38608e-02,-6.50034e-02,-4.43943e-02,-1.56407e-02,-7.91162e-03,-1.50010e-03,-2.63947e-04,0.00000e+00,0.00000e+00,-8.47890e-09,-1.50387e-05,-6.30550e-06,-1.63529e-03,-1.58933e-02,-1.82266e-02,-1.82520e-02,-2.90871e-02,-3.33361e-02,-4.26403e-02,-3.98863e-02,-6.98590e-02,-6.45138e-02,-7.68104e-02,-3.24849e-02,-4.71279e-02,3.02579e-03,-2.94727e-02,-3.92495e-02,-5.48312e-02,-6.65833e-02,-6.52020e-02,-6.12812e-02,-4.17452e-02,-1.34136e-02,-1.06238e-03,-2.74037e-05,0.00000e+00,0.00000e+00,-5.53522e-05,-1.25902e-04,-6.92418e-03,-2.53141e-02,-3.56984e-02,-5.51332e-02,-5.39388e-02,-6.55912e-02,-1.44585e-02,-5.54988e-03,3.94193e-02,1.31428e-01,1.48798e-01,1.44302e-01,1.24439e-01,1.68519e-01,1.41012e-01,6.07153e-02,9.59847e-03,1.92441e-02,-2.94979e-02,-8.85287e-02,-8.69647e-02,-2.99330e-02,-8.47378e-03,-1.03151e-03,0.00000e+00,-7.95042e-07,-8.28303e-05,-1.36444e-03,-1.14364e-02,-2.23601e-02,-4.33635e-02,-6.18365e-02,-7.60501e-02,-1.08005e-01,3.80484e-03,5.27996e-02,6.16935e-02,1.48415e-01,1.46024e-01,1.34749e-01,1.74289e-01,2.20734e-01,2.20219e-01,1.31555e-01,8.18667e-02,1.43304e-01,9.98541e-02,-3.32598e-02,-1.31925e-01,-6.37027e-02,-2.29886e-02,-3.57840e-03,0.00000e+00,-1.07703e-04,-5.51917e-04,-3.25216e-03,-1.98809e-02,-2.61735e-02,-5.16910e-02,-7.03250e-02,-9.34518e-02,-2.75054e-02,3.14142e-02,6.38981e-02,1.15226e-01,1.05269e-01,8.13552e-02,9.03205e-02,1.53379e-01,1.91006e-01,1.95493e-01,1.36335e-01,7.73058e-02,1.16716e-01,1.57918e-01,7.58402e-02,-7.12211e-02,-8.38773e-02,-3.29508e-02,-2.27291e-03,0.00000e+00,-2.05452e-04,-1.47776e-03,-8.33082e-03,-4.64769e-02,-6.58141e-02,-8.75110e-02,-7.69475e-02,-3.47905e-02,2.16385e-02,2.84997e-02,3.20028e-02,6.79410e-02,3.98151e-02,6.31785e-02,1.31109e-01,2.53231e-01,2.13819e-01,1.41862e-01,1.35006e-01,1.01615e-01,9.13730e-02,1.82363e-01,1.91902e-01,-1.80001e-02,-9.15250e-02,-2.72137e-02,-1.30836e-03,-3.14513e-07,-3.78286e-04,-1.15698e-03,-1.44963e-02,-4.90497e-02,-6.03178e-02,-6.61363e-02,-4.13656e-02,-1.02490e-02,2.42014e-02,5.62940e-02,-5.34745e-02,-4.00577e-02,5.11778e-02,9.31513e-03,2.23819e-02,1.29958e-01,1.76840e-01,1.73033e-01,1.76885e-01,1.11155e-01,4.50167e-02,1.46509e-01,2.65443e-01,6.07317e-02,-8.95407e-02,-3.00194e-02,-8.30846e-04,-9.53229e-07,-3.91720e-04,2.89109e-03,-1.42155e-02,-3.66125e-02,-4.99998e-02,-3.13076e-02,-9.13799e-03,2.53612e-03,8.17152e-03,-5.84288e-02,-5.69562e-02,-7.29318e-03,1.50944e-02,-3.92784e-02,-8.88282e-02,-3.73909e-02,1.09525e-01,1.35337e-01,1.14370e-01,1.05068e-01,9.35666e-02,2.09174e-01,3.23328e-01,1.37010e-01,-7.09242e-02,-3.22867e-02,-4.23237e-04,-2.57451e-05,-1.52656e-04,-2.72388e-03,-1.68104e-02,-7.06923e-02,-6.48379e-02,-9.47071e-03,1.74053e-02,7.97063e-03,-4.85052e-02,-6.56910e-02,-4.57049e-02,-1.15627e-02,-6.21013e-02,-2.61937e-01,-4.15245e-01,-3.67871e-01,-1.53393e-01,-2.65674e-02,8.02462e-02,9.44557e-02,1.64978e-01,2.52627e-01,3.36519e-01,2.05808e-01,-2.88154e-02,-1.70524e-02,-1.86359e-04,-3.71963e-07,-8.48876e-07,-3.14159e-03,-2.69385e-02,-8.33791e-02,-3.08008e-02,9.25396e-02,5.27932e-02,9.14599e-03,-4.29428e-02,-5.95461e-03,1.65297e-02,7.41327e-02,-1.16605e-01,-4.56855e-01,-5.92892e-01,-4.87910e-01,-2.26622e-01,-4.74977e-02,3.08258e-02,-1.12508e-02,1.00120e-01,2.87411e-01,3.89092e-01,2.71321e-01,3.60084e-03,-6.32084e-03,-4.81407e-05,-1.79518e-09,3.50024e-04,-1.67612e-03,-1.88798e-02,-5.83774e-02,3.63026e-02,1.98399e-01,1.80828e-01,7.51885e-02,3.13924e-03,7.33689e-02,9.34497e-02,3.55572e-02,-3.00784e-01,-5.37803e-01,-6.06791e-01,-4.92943e-01,-2.51355e-01,-8.27461e-02,-7.52376e-02,-1.10898e-01,5.62167e-02,2.69772e-01,3.97303e-01,2.38858e-01,1.31727e-02,-2.51427e-03,-3.03568e-04,-1.04883e-05,-3.78934e-05,-4.57203e-04,-1.87569e-02,-4.53452e-02,1.27055e-01,2.26195e-01,2.32075e-01,1.47328e-01,1.22646e-01,1.33559e-01,1.25384e-01,-4.56233e-02,-3.56612e-01,-5.49598e-01,-5.81769e-01,-4.97387e-01,-2.13835e-01,-7.15782e-02,-6.72593e-02,-1.25950e-02,9.93396e-02,2.18398e-01,3.44755e-01,2.20529e-01,-1.93386e-03,-3.20509e-03,-1.47497e-05,-4.43954e-06,-5.28322e-05,-6.68822e-04,-2.49319e-02,-1.83715e-02,1.87809e-01,1.81495e-01,2.12298e-01,1.63768e-01,1.89194e-01,2.36323e-01,5.54695e-02,-2.15182e-01,-4.89847e-01,-6.14853e-01,-5.82295e-01,-4.21933e-01,-2.09773e-01,-4.48260e-02,-1.37553e-02,7.73897e-02,9.04514e-02,1.91053e-01,2.68630e-01,1.53802e-01,-1.02492e-02,-3.80802e-03,-3.18475e-04,-5.74469e-06,-6.83009e-05,-1.48359e-03,-2.70160e-02,1.90926e-02,2.15734e-01,2.25284e-01,1.68755e-01,1.99811e-01,2.23245e-01,2.41325e-01,2.58131e-02,-2.91930e-01,-5.53702e-01,-5.80920e-01,-4.82992e-01,-3.23430e-01,-8.69664e-02,-1.63057e-02,3.23899e-02,7.67630e-02,1.02852e-01,1.59340e-01,1.65900e-01,5.61095e-02,-2.29821e-02,-9.86078e-03,-2.96713e-04,0.00000e+00,-6.56162e-05,-2.10932e-03,-2.53647e-02,2.13502e-02,1.91498e-01,2.46654e-01,2.11508e-01,1.78499e-01,2.14222e-01,2.61643e-01,8.10920e-03,-2.80114e-01,-5.22306e-01,-5.43223e-01,-3.57176e-01,-1.19817e-01,4.33388e-02,5.39006e-03,1.46570e-02,3.79915e-02,6.58796e-02,1.28828e-01,7.41859e-02,2.00383e-03,-1.74038e-02,-6.02771e-03,3.26643e-03,-5.11655e-06,-1.40268e-05,-2.84900e-03,-4.34009e-02,-1.19374e-02,1.43697e-01,2.22047e-01,1.82703e-01,2.17645e-01,2.44216e-01,3.13771e-01,1.06420e-01,-2.31013e-01,-4.33528e-01,-4.10580e-01,-1.60966e-01,-6.61110e-03,6.64494e-03,-4.34012e-02,-1.19794e-02,-3.68689e-02,5.04498e-02,9.54640e-02,1.82684e-02,-2.39500e-02,-1.39637e-02,-3.67831e-03,-1.92785e-03,-3.46219e-10,1.31966e-03,-3.31620e-03,-4.61086e-02,-5.86638e-02,1.00657e-01,1.92736e-01,1.78566e-01,2.06836e-01,2.51159e-01,3.01414e-01,2.36351e-01,4.64513e-02,-1.39903e-01,-1.25523e-01,-5.31409e-02,-2.34977e-02,-2.37520e-02,-2.86822e-02,-5.93967e-02,-5.50359e-03,5.34689e-02,3.57746e-02,-3.33311e-02,-2.58094e-02,-1.61949e-02,-2.13388e-03,-3.95604e-04,0.00000e+00,3.31845e-03,-4.12959e-03,-4.51443e-02,-4.91308e-02,5.32994e-02,1.36165e-01,1.73930e-01,1.80929e-01,2.33584e-01,3.36066e-01,3.50117e-01,2.39782e-01,7.61528e-02,-4.45451e-03,-2.10693e-02,-4.76636e-02,-3.51650e-02,-1.01450e-01,-8.72989e-02,-1.25624e-02,5.94754e-04,-3.45071e-02,-6.79958e-02,-3.53766e-02,-1.32386e-02,-1.06021e-03,-1.89143e-05,-1.03204e-08,-3.48923e-05,-4.06139e-03,-3.34461e-02,-4.07967e-02,7.60871e-03,6.62206e-02,1.19713e-01,1.40413e-01,1.48733e-01,2.54374e-01,3.19459e-01,2.32569e-01,8.26575e-02,2.34613e-02,3.66005e-03,-2.57871e-03,-8.53469e-02,-1.00821e-01,-8.89115e-02,-5.77711e-02,-6.65059e-02,-6.19078e-02,-4.37956e-02,-2.51312e-02,-4.69292e-03,3.39747e-03,6.13990e-07,-9.99792e-09,-2.23547e-07,-1.31418e-03,-2.18850e-02,-6.69501e-02,-3.39573e-02,2.14472e-02,9.45353e-02,1.53259e-01,1.67319e-01,2.21272e-01,2.52021e-01,2.03756e-01,2.52426e-01,1.52581e-01,1.39795e-01,6.05924e-02,-2.70076e-03,-7.12418e-02,-1.15237e-01,-1.36967e-01,-1.01825e-01,-4.37561e-02,-1.11734e-02,-9.48124e-03,-9.43429e-04,3.72682e-04,1.13352e-06,0.00000e+00,0.00000e+00,-1.61179e-04,-9.76343e-03,-4.81289e-02,-6.27706e-02,-2.37903e-02,3.76778e-02,8.57559e-02,1.48201e-01,1.99951e-01,2.74637e-01,2.58098e-01,2.38673e-01,2.11418e-01,1.09709e-01,-2.51907e-02,-5.16208e-02,-1.53752e-01,-1.78367e-01,-1.59914e-01,-8.98281e-02,-3.66259e-02,-1.18458e-02,-8.55776e-03,-6.17294e-04,-4.15976e-06,0.00000e+00,0.00000e+00,0.00000e+00,-9.62937e-04,-2.14899e-03,-1.04169e-02,-2.83617e-02,-4.18751e-02,-7.34429e-02,-6.94538e-02,-7.02057e-02,-7.48612e-02,-4.61655e-02,4.83954e-02,6.34486e-02,2.22799e-02,-5.76264e-02,-1.11817e-01,-1.13311e-01,-1.28567e-01,-1.09127e-01,-9.32377e-02,-6.99521e-02,-2.88747e-02,-8.61670e-03,-1.70044e-03,-8.85804e-05,-1.37182e-07,0.00000e+00,0.00000e+00,0.00000e+00,-3.77879e-06,-6.80362e-05,-1.80762e-03,-6.65850e-03,-2.51918e-02,-4.72094e-02,-6.84794e-02,-1.03773e-01,-1.43711e-01,-1.56825e-01,-1.72603e-01,-1.56851e-01,-1.44450e-01,-1.48064e-01,-1.22297e-01,-1.02235e-01,-7.72152e-02,-5.22673e-02,-4.67951e-02,-3.81224e-02,-1.59083e-02,-3.59381e-03,-6.46664e-04,-1.40075e-07,-1.21248e-07,0.00000e+00,0.00000e+00,0.00000e+00,0.00000e+00,0.00000e+00,-1.07730e-04,-1.67320e-03,-7.63706e-03,-1.34400e-02,-2.09546e-02,-3.87441e-02,-4.23502e-02,-3.64085e-02,-2.55872e-02,-4.27153e-02,-5.58654e-02,-4.36502e-02,-2.96712e-02,-2.27954e-02,-1.69823e-02,-6.39542e-03,-1.30032e-02,-1.49293e-02,-9.23818e-03,-7.56999e-04,-7.23054e-07,-2.25035e-08,0.00000e+00,0.00000e+00,0.00000e+00,0.00000e+00,0.00000e+00,0.00000e+00,-1.26504e-06,-2.35860e-05,-2.82719e-05,-9.18689e-05,-2.64311e-04,-4.46549e-04,-3.82837e-04,-6.87602e-04,-3.60870e-03,-5.20759e-03,-6.00247e-03,-6.48289e-03,-3.72041e-03,-2.77799e-03,-2.80714e-03,-2.09354e-03,-4.70870e-03,-3.99892e-03,-9.69615e-03,-2.22855e-03,0.00000e+00,0.00000e+00,0.00000e+00,0.00000e+00,
0.00000e+00,0.00000e+00,0.00000e+00,0.00000e+00,0.00000e+00,0.00000e+00,0.00000e+00,0.00000e+00,0.00000e+00,0.00000e+00,0.00000e+00,0.00000e+00,-4.37468e-06,-9.82971e-06,-2.78933e-07,-1.16222e-08,0.00000e+00,0.00000e+00,0.00000e+00,0.00000e+00,0.00000e+00,0.00000e+00,0.00000e+00,0.00000e+00,0.00000e+00,0.00000e+00,0.00000e+00,0.00000e+00,0.00000e+00,0.00000e+00,0.00000e+00,0.00000e+00,-8.93365e-09,-2.62988e-08,-2.80161e-08,-3.75983e-05,-1.82540e-03,-1.50981e-03,-9.52935e-04,-4.79359e-04,-3.95973e-04,-2.71334e-04,6.07153e-03,8.76401e-03,-2.54706e-03,-1.32159e-03,-7.11242e-05,-3.33867e-05,-7.91546e-05,-2.26834e-04,-1.92176e-05,-6.59939e-07,0.00000e+00,0.00000e+00,0.00000e+00,0.00000e+00,0.00000e+00,0.00000e+00,-2.57473e-10,-1.34343e-11,-1.10355e-06,-1.07624e-06,-6.44579e-06,-8.20524e-04,-6.17254e-03,-1.15879e-02,-1.36680e-02,-1.31480e-02,1.61219e-03,2.42043e-02,2.73049e-02,5.23697e-02,2.92877e-02,3.30383e-03,-9.23507e-04,1.01356e-03,-5.50924e-03,-3.75352e-03,-1.23490e-03,-1.02094e-03,-4.05028e-04,-1.01539e-05,0.00000e+00,0.00000e+00,0.00000e+00,0.00000e+00,-5.40886e-09,-2.01348e-08,-1.55740e-05,-4.37099e-04,-1.61203e-03,-9.60126e-03,-2.58895e-02,-4.26847e-02,-5.37486e-02,-6.77720e-02,-3.85758e-02,-1.79416e-02,-5.04923e-03,2.12897e-02,1.18123e-02,-2.54988e-02,-4.08998e-02,-4.47800e-02,-4.84229e-02,-3.30509e-02,-2.09056e-02,-1.60624e-02,-1.23133e-02,-1.93449e-03,-1.85113e-03,0.00000e+00,0.00000e+00,-6.99115e-09,-1.94866e-06,-1.26971e-04,7.21999e-04,8.50225e-03,8.19312e-04,-2.39324e-02,-4.13900e-02,-5.31499e-02,-4.58334e-02,-5.28472e-02,5.18020e-03,8.13893e-02,1.09795e-01,9.76456e-02,6.96543e-02,1.08744e-02,6.07782e-03,9.84344e-02,1.19571e-01,1.13965e-01,6.27885e-02,7.70226e-03,-3.19266e-02,-1.55793e-02,-9.95046e-04,-5.02153e-04,0.00000e+00,0.00000e+00,-1.21488e-05,1.09926e-03,1.18618e-03,1.89122e-02,-6.31103e-03,-5.95549e-02,-1.24344e-01,-1.40509e-01,-1.04965e-01,-8.47877e-02,-1.79461e-02,8.20174e-02,9.25270e-02,7.29475e-02,-3.88279e-02,-6.60319e-02,-8.95277e-03,6.54982e-02,1.69226e-01,2.31957e-01,1.63287e-01,6.62958e-02,1.04716e-02,-2.63047e-02,-2.61737e-03,-6.87082e-04,0.00000e+00,-4.61098e-07,-2.09618e-03,1.18121e-04,-8.57775e-04,-1.49604e-02,-4.49763e-02,-1.03416e-01,-1.78002e-01,-2.13001e-01,-1.60416e-01,-8.73107e-02,-8.17607e-02,-8.77397e-02,-1.13098e-01,-2.09261e-01,-1.88391e-01,-1.86443e-01,-9.92877e-02,-1.70170e-02,1.03366e-01,1.30263e-01,8.92998e-02,1.37633e-02,-2.08652e-02,-2.95481e-02,-3.04799e-03,-5.91243e-04,0.00000e+00,-2.17843e-04,-2.08722e-03,-3.20003e-03,-6.25417e-03,-3.83178e-02,-8.01343e-02,-1.27744e-01,-2.31211e-01,-2.49761e-01,-2.19639e-01,-1.80870e-01,-1.04794e-01,-1.79303e-01,-1.70360e-01,-2.71871e-01,-2.03256e-01,-1.71475e-01,-1.66230e-01,-3.92072e-02,3.59125e-02,2.22883e-02,-1.26683e-02,-7.68888e-02,-1.11118e-01,-5.06431e-02,-2.26863e-03,-6.77418e-04,0.00000e+00,-1.93937e-04,-9.88718e-04,-1.59141e-03,-1.02837e-02,-3.43052e-02,-9.03405e-02,-1.45577e-01,-2.40019e-01,-2.75472e-01,-2.64343e-01,-1.90502e-01,-9.96559e-02,-9.06384e-02,-2.83668e-02,-2.60674e-02,-1.25720e-01,-3.63499e-02,-1.05801e-01,-1.01004e-01,-7.84593e-02,-1.02932e-01,-1.56911e-01,-1.86759e-01,-1.56830e-01,-6.30239e-02,-5.07112e-03,-4.90348e-04,-9.68548e-09,-2.68468e-05,-1.18794e-03,-2.56282e-03,-1.48394e-02,-5.20835e-02,-9.43095e-02,-1.21222e-01,-1.85462e-01,-2.34900e-01,-2.20718e-01,-1.51530e-01,-9.92534e-02,5.15552e-02,2.05269e-01,2.61219e-01,6.58383e-02,2.13082e-03,-1.00017e-01,-1.62937e-01,-1.84209e-01,-2.16555e-01,-2.37467e-01,-2.16115e-01,-1.39667e-01,-5.58820e-02,-8.12994e-03,-1.85537e-03,-3.35403e-08,-1.54750e-05,-1.29710e-03,-8.04385e-03,-1.19825e-02,-5.51992e-02,-1.04552e-01,-1.17569e-01,-1.49458e-01,-1.88079e-01,-1.51115e-01,-1.00932e-01,-1.51604e-02,1.72682e-01,3.93556e-01,4.57003e-01,1.75768e-01,-6.76660e-03,-1.55920e-01,-1.70495e-01,-2.42373e-01,-2.32255e-01,-2.04588e-01,-1.69840e-01,-1.12502e-01,-3.69397e-02,-6.97706e-03,-3.21126e-04,-1.33038e-06,8.53468e-05,-3.47623e-04,-4.24152e-03,-6.80291e-03,-3.46405e-02,-8.88386e-02,-1.18035e-01,-1.51951e-01,-1.97911e-01,-1.86400e-01,-1.93744e-01,-6.96005e-02,2.16453e-01,5.64843e-01,5.61303e-01,1.61905e-01,-5.23385e-02,-9.86159e-02,-1.76074e-01,-1.77014e-01,-1.41399e-01,-1.05590e-01,-7.85412e-02,-5.39909e-02,-1.97945e-02,-3.22052e-03,1.02358e-03,-1.21416e-08,-3.33204e-05,-3.92099e-04,5.06971e-04,7.40600e-04,-2.58812e-02,-5.38954e-02,-8.38038e-02,-1.33133e-01,-1.73825e-01,-2.67276e-01,-3.18257e-01,-1.18081e-01,2.05543e-01,7.19146e-01,5.19445e-01,1.07342e-01,-2.86041e-02,-1.08643e-01,-1.56065e-01,-1.29991e-01,-8.83408e-02,-6.47748e-02,-3.84668e-02,-2.60962e-02,-1.04804e-02,-4.22012e-03,9.44597e-04,2.02186e-05,-6.82782e-06,-1.79538e-04,2.01225e-03,3.11271e-04,-2.32276e-02,-4.75435e-02,-8.01466e-02,-9.81700e-02,-1.84704e-01,-3.83126e-01,-4.42913e-01,-1.88672e-01,2.86016e-01,6.77940e-01,4.21470e-01,5.22063e-02,-5.57547e-02,-2.30600e-01,-1.98723e-01,-1.39132e-01,-9.48725e-02,-7.38376e-02,-5.44130e-02,-3.61356e-02,-1.62547e-02,-6.17158e-03,-1.37515e-04,-2.16534e-07,-4.48122e-06,2.14311e-04,3.62891e-03,1.08846e-04,-2.91458e-02,-5.87068e-02,-9.24893e-02,-1.13208e-01,-2.17449e-01,-4.12502e-01,-4.40206e-01,-8.78096e-02,3.66748e-01,5.85149e-01,3.57682e-01,8.04215e-03,-2.77451e-01,-3.33724e-01,-2.44859e-01,-1.59083e-01,-1.05616e-01,-7.24186e-02,-4.76315e-02,-2.15214e-02,-1.18163e-02,-2.36969e-03,-4.52039e-06,-1.18287e-07,-7.89137e-06,1.32679e-03,1.26776e-03,-7.63028e-03,-4.98535e-02,-9.45328e-02,-1.12564e-01,-1.35309e-01,-2.39711e-01,-3.38232e-01,-2.52956e-01,1.26247e-02,4.13501e-01,5.86803e-01,2.07083e-01,-1.27358e-01,-4.12326e-01,-3.44619e-01,-2.38993e-01,-1.63979e-01,-1.14039e-01,-7.95237e-02,-5.19866e-02,-3.24884e-02,-1.24429e-02,-4.62949e-03,-4.91782e-04,-2.70781e-07,-1.01308e-05,5.83266e-04,-1.50714e-03,-1.45801e-02,-7.55509e-02,-1.48804e-01,-1.80074e-01,-1.99209e-01,-1.94957e-01,-1.65711e-01,-1.08391e-01,-1.14720e-02,3.97616e-01,5.64232e-01,5.14868e-02,-2.52249e-01,-4.46090e-01,-3.34668e-01,-2.30621e-01,-1.62493e-01,-1.11075e-01,-8.41926e-02,-6.32159e-02,-4.38535e-02,-2.60639e-02,-9.28468e-03,-1.73786e-04,0.00000e+00,1.41475e-04,-4.75201e-04,-5.42617e-03,-2.44566e-02,-1.23486e-01,-2.23238e-01,-2.35057e-01,-2.02847e-01,-1.39181e-01,-1.71459e-02,-7.14503e-02,8.53460e-02,3.82116e-01,3.90740e-01,-1.27630e-02,-2.66504e-01,-3.59726e-01,-2.75957e-01,-1.85342e-01,-1.28095e-01,-9.32871e-02,-6.96142e-02,-6.32744e-02,-4.94792e-02,-3.95282e-02,-5.39417e-03,-1.39212e-04,-4.91643e-07,2.05916e-05,-8.13202e-04,-7.88912e-03,-3.65800e-02,-1.44483e-01,-2.75157e-01,-2.50281e-01,-1.21263e-01,-3.74770e-02,-8.16192e-02,-3.20024e-02,9.95690e-02,2.28030e-01,1.89629e-01,-7.70690e-02,-1.91684e-01,-1.75909e-01,-1.47868e-01,-1.13489e-01,-7.24468e-02,-7.30207e-02,-7.76520e-02,-6.98479e-02,-4.07317e-02,-1.10694e-02,3.64941e-04,-4.54877e-06,7.93538e-06,3.79762e-05,-9.50990e-04,-7.84282e-03,-4.33600e-02,-1.47365e-01,-1.77637e-01,-1.20135e-01,-4.61599e-02,-4.52370e-04,-8.47001e-02,-9.87450e-03,2.26271e-02,1.48423e-01,2.77531e-03,-4.07855e-02,3.51311e-02,-1.97308e-02,-2.11198e-02,-1.99340e-02,-4.25434e-02,-5.38591e-02,-6.88737e-02,-5.32123e-02,-2.06145e-02,5.11788e-04,-2.05777e-05,1.02686e-05,0.00000e+00,-1.81054e-05,-2.83564e-03,-1.18384e-02,-2.94014e-02,-7.20883e-02,-2.76187e-02,8.62414e-03,8.91197e-02,3.53702e-02,2.08744e-02,4.13903e-02,5.53856e-03,-2.10885e-02,-2.93331e-02,-3.60527e-02,1.11580e-01,1.43437e-01,9.60673e-02,4.94915e-02,3.73924e-04,-4.24349e-02,-5.69658e-02,-4.08183e-02,-2.25305e-02,-3.51406e-03,2.30051e-03,3.84236e-05,5.07522e-05,-2.47103e-06,-4.82550e-03,-5.55483e-03,1.38477e-02,8.57810e-02,1.19949e-01,1.24960e-01,1.44949e-01,3.06076e-02,2.50710e-02,-1.06362e-01,-1.70571e-01,-1.77794e-01,-4.80330e-02,1.02147e-02,7.20798e-02,1.30645e-01,1.26739e-01,5.59916e-02,3.61992e-02,6.05008e-03,-5.75896e-02,-4.08970e-02,-9.22767e-03,-2.30202e-03,-6.74123e-04,-1.78089e-12,4.91662e-05,1.57581e-05,-4.47633e-03,-2.41635e-03,3.32412e-02,1.86843e-01,2.00366e-01,1.56494e-01,1.16228e-01,4.71807e-02,-7.97773e-02,-2.35975e-01,-3.56410e-01,-2.91854e-01,-1.04055e-01,4.19372e-02,8.72050e-02,1.68915e-01,1.46934e-01,5.48977e-02,1.12207e-02,-3.31919e-02,-5.44888e-02,-2.87012e-02,-9.92674e-03,-1.93224e-03,1.81723e-03,-3.28779e-12,0.00000e+00,0.00000e+00,-5.09849e-05,-9.31778e-03,2.88322e-02,1.38092e-01,1.69332e-01,9.64869e-02,4.19147e-02,-1.87195e-02,-1.24185e-01,-1.95168e-01,-1.70128e-01,-1.68149e-01,-1.20868e-01,4.84723e-02,9.11979e-02,1.36847e-01,4.53826e-02,6.35035e-03,-2.45369e-02,-4.12996e-02,-3.18349e-02,-2.48579e-02,-5.00422e-03,2.63785e-03,4.36591e-03,0.00000e+00,0.00000e+00,0.00000e+00,-4.16959e-06,-6.71126e-03,-4.36145e-03,2.64620e-02,2.53427e-02,-4.73961e-02,-1.13810e-01,-1.59546e-01,-2.17069e-01,-2.48553e-01,-2.39126e-01,-2.24415e-01,-1.90384e-01,-1.46642e-01,-1.33376e-01,-4.58711e-02,-1.35128e-02,-2.88264e-03,-9.84220e-03,-6.58167e-03,-1.17666e-02,-6.50359e-03,-1.95848e-03,1.21584e-03,2.60990e-04,0.00000e+00,0.00000e+00,0.00000e+00,-3.85203e-08,-2.88686e-04,-8.82737e-03,-1.95052e-02,-3.07870e-02,-5.83673e-02,-7.57432e-02,-9.56122e-02,-1.41720e-01,-1.36365e-01,-1.17477e-01,-1.53831e-01,-1.59727e-01,-1.53996e-01,-1.16056e-01,-6.15318e-02,-2.31774e-02,-1.58792e-02,-8.25975e-03,-2.39554e-03,-1.47481e-03,-4.60389e-04,-8.50588e-06,-1.37951e-06,-1.64775e-06,0.00000e+00,0.00000e+00,0.00000e+00,0.00000e+00,0.00000e+00,-2.09485e-04,-1.06782e-03,-1.96523e-03,-3.45500e-03,-7.37536e-03,-1.25765e-02,-2.10707e-02,-2.00670e-02,-2.57066e-02,-4.32656e-02,-3.80149e-02,-2.54381e-02,-1.73267e-02,-6.64890e-03,-5.91836e-03,-3.07789e-03,-1.65181e-03,-7.01435e-04,-1.34179e-04,-3.97182e-06,-2.45565e-10,-2.71905e-09,0.00000e+00,0.00000e+00,0.00000e+00,0.00000e+00,0.00000e+00,0.00000e+00,-7.56955e-07,-1.96633e-06,-1.77900e-06,-1.03137e-05,-2.04511e-05,-6.12335e-06,-8.22282e-04,-1.62487e-04,-3.89909e-04,-4.34104e-04,-5.95957e-04,-3.67620e-04,-2.35217e-04,-7.38801e-04,-1.92947e-03,-9.93925e-05,-6.85342e-05,-2.23512e-05,-5.33367e-05,-1.57159e-06,0.00000e+00,0.00000e+00,0.00000e+00,0.00000e+00,
0.00000e+00,0.00000e+00,0.00000e+00,0.00000e+00,0.00000e+00,0.00000e+00,0.00000e+00,0.00000e+00,0.00000e+00,0.00000e+00,0.00000e+00,0.00000e+00,-3.10958e-04,-4.06730e-04,3.05089e-04,1.27120e-05,0.00000e+00,0.00000e+00,0.00000e+00,0.00000e+00,0.00000e+00,0.00000e+00,0.00000e+00,0.00000e+00,0.00000e+00,0.00000e+00,0.00000e+00,0.00000e+00,0.00000e+00,0.00000e+00,0.00000e+00,0.00000e+00,-3.62894e-07,-1.61179e-06,-1.05587e-04,-1.49032e-04,1.90513e-03,7.28282e-04,-3.42295e-03,-1.16049e-02,-8.08689e-03,-4.56019e-03,3.31338e-03,4.03019e-03,1.57739e-02,2.28847e-03,-4.00156e-03,-2.39815e-03,-1.22689e-03,-1.61048e-03,-1.80478e-04,-6.43437e-05,0.00000e+00,0.00000e+00,0.00000e+00,0.00000e+00,0.00000e+00,0.00000e+00,-1.27642e-08,-6.04206e-07,-8.47306e-04,-1.34341e-04,-4.25453e-04,-2.87178e-04,4.08781e-03,1.60776e-02,1.49440e-02,2.77523e-02,2.36441e-02,1.92556e-02,1.90440e-02,2.65934e-02,2.03114e-02,-1.53669e-03,-7.13285e-03,-2.14832e-02,-1.56527e-02,-1.53158e-02,-1.16760e-02,-2.89939e-03,7.99234e-03,6.07697e-03,0.00000e+00,0.00000e+00,0.00000e+00,0.00000e+00,3.29901e-07,-1.83709e-05,-2.91414e-04,2.63197e-03,5.79547e-03,1.93084e-02,4.19460e-02,1.23601e-01,1.39237e-01,1.60141e-01,1.81002e-01,1.85724e-01,1.20523e-01,8.52555e-02,1.05506e-01,5.14668e-02,-3.93958e-02,-6.10186e-02,-7.47109e-02,-5.79310e-02,-5.48302e-02,-4.36546e-02,-1.07120e-02,4.39314e-03,-3.81490e-04,0.00000e+00,0.00000e+00,-3.07678e-07,-1.15833e-04,-1.36042e-03,-1.00054e-02,1.37630e-02,3.60771e-02,5.79064e-02,1.31876e-01,2.28508e-01,2.23550e-01,2.76369e-01,2.92354e-01,2.25142e-01,1.92523e-01,1.35330e-01,1.33699e-01,1.15703e-01,2.73222e-02,-5.17873e-02,-8.36055e-02,-1.18485e-01,-1.23256e-01,-9.59659e-02,-5.18139e-02,-1.04200e-02,-1.26277e-03,-1.07820e-03,0.00000e+00,0.00000e+00,8.24137e-05,-9.08801e-05,1.07652e-02,2.44177e-02,9.83797e-02,1.74696e-01,2.13544e-01,2.12641e-01,2.15128e-01,2.46723e-01,2.57292e-01,2.49401e-01,2.68551e-01,2.68009e-01,2.56513e-01,2.15089e-01,1.16815e-01,-3.45426e-02,-7.78263e-02,-8.32259e-02,-1.05186e-01,-1.23792e-01,-7.97764e-02,-1.96330e-02,-4.66897e-03,-1.60607e-03,0.00000e+00,-1.17290e-06,-4.90288e-04,5.11535e-03,2.97583e-02,5.36670e-02,1.51184e-01,1.68715e-01,1.14225e-01,1.28157e-01,8.87876e-02,3.14708e-02,4.53358e-02,6.07391e-02,8.63799e-02,1.13302e-01,6.77617e-02,2.76640e-02,7.28646e-03,-7.87957e-02,-1.09911e-01,-1.01102e-01,-1.38844e-01,-1.67956e-01,-8.41802e-02,-2.48234e-02,-3.64402e-03,-1.05854e-03,0.00000e+00,-1.90732e-04,2.28476e-03,9.22583e-03,6.27702e-02,8.48045e-02,1.97485e-01,1.05046e-01,6.44533e-02,6.65373e-03,-1.22500e-02,2.07887e-02,-3.95698e-02,2.04498e-02,4.83898e-03,-3.71961e-02,-5.70825e-02,-1.12337e-01,-6.89193e-02,-7.28218e-02,-8.93158e-02,-4.69248e-02,-6.24911e-02,-1.90997e-01,-1.30335e-01,-3.42231e-02,-4.37404e-03,-3.12613e-04,0.00000e+00,-4.56976e-04,7.28948e-04,1.13208e-02,6.81625e-02,8.44363e-02,1.31475e-01,8.86486e-02,2.30940e-02,3.25368e-02,1.54721e-01,1.25482e-01,4.78863e-02,4.85412e-02,7.86291e-02,6.01862e-02,-1.23588e-02,-3.20262e-02,-2.19852e-03,6.66908e-02,8.18195e-03,-3.63771e-02,-8.86981e-02,-1.49413e-01,-1.59439e-01,-4.61922e-02,-5.52125e-03,-3.43592e-04,-3.05388e-06,-2.84199e-04,4.17919e-03,1.63794e-02,5.14547e-02,1.29906e-01,9.44207e-02,1.05491e-02,-6.24488e-02,5.70912e-02,1.44548e-01,1.14238e-01,8.17028e-02,1.16646e-01,1.59238e-01,1.35179e-01,1.50691e-01,7.15834e-02,1.56988e-01,8.33982e-02,-3.40077e-03,-6.55906e-02,-3.26506e-02,-1.38351e-01,-1.45969e-01,-3.95266e-02,-4.25254e-03,-6.62589e-04,-7.36265e-06,-8.36361e-05,3.14780e-03,1.88532e-02,-7.69874e-03,7.77349e-02,6.48726e-02,-1.16475e-01,-1.57431e-01,-1.87111e-01,-1.25840e-01,-1.13882e-01,-1.78283e-01,-2.12945e-01,-7.26716e-02,-1.00713e-01,-2.20558e-02,3.05350e-02,1.33891e-01,1.05179e-01,-3.19566e-02,-4.29911e-02,-6.56184e-02,-1.05200e-01,-9.26274e-02,-2.52906e-02,-1.64557e-04,-2.49816e-04,-7.38809e-06,-7.69195e-05,-3.20003e-03,-8.69188e-03,-5.66408e-02,-7.43432e-02,-1.83788e-01,-3.50451e-01,-4.04035e-01,-4.07552e-01,-4.92489e-01,-5.04241e-01,-5.75492e-01,-5.86450e-01,-4.32169e-01,-3.06278e-01,-1.72490e-01,-1.58423e-01,-4.02147e-02,1.01240e-01,-3.66442e-03,-2.71616e-02,-1.02184e-01,-1.09813e-01,-4.90857e-02,1.27730e-02,2.96534e-03,-6.83440e-05,-2.15642e-06,-7.14651e-06,-2.53392e-03,-2.56404e-02,-8.83674e-02,-2.52293e-01,-4.47569e-01,-5.66453e-01,-4.77371e-01,-4.84146e-01,-5.24243e-01,-4.80449e-01,-5.30632e-01,-4.76276e-01,-4.13529e-01,-3.61177e-01,-2.71215e-01,-2.58557e-01,-1.23151e-01,4.45061e-02,-2.61959e-03,-3.08319e-02,-1.26680e-01,-1.81678e-01,-1.53851e-02,5.73540e-02,2.39548e-02,3.12534e-03,-3.28640e-06,-5.60835e-06,-7.52796e-04,-2.97601e-02,-1.47355e-01,-3.63531e-01,-5.19724e-01,-4.91799e-01,-3.58552e-01,-2.86790e-01,-1.96634e-01,-1.28861e-01,-1.04495e-01,-4.10852e-02,-5.37571e-02,-2.00028e-01,-2.67088e-01,-1.74067e-01,-1.16009e-01,-6.50615e-02,-6.19266e-02,-6.86674e-02,-1.18387e-01,-1.39815e-01,3.00070e-02,1.17569e-01,5.59429e-02,1.86404e-02,-3.93196e-06,-1.55652e-03,-1.04237e-03,-2.41416e-02,-1.22512e-01,-3.08754e-01,-2.81521e-01,-1.43346e-01,-6.33958e-02,-1.69451e-02,7.76273e-03,8.87928e-02,9.18248e-02,2.19936e-01,1.25891e-01,-5.72564e-02,-9.67182e-02,-1.57954e-01,-1.02103e-01,-1.19826e-01,-6.64882e-02,-8.19551e-02,-9.98274e-02,-8.94317e-02,4.55180e-02,1.37860e-01,6.91895e-02,1.69360e-03,-1.30003e-06,-3.13682e-03,-1.42507e-03,3.21777e-03,-1.62871e-03,-3.73931e-03,4.11660e-02,3.13372e-02,3.70749e-02,2.34662e-02,1.37166e-02,-9.62689e-03,7.11616e-02,2.00141e-01,1.59988e-01,4.34965e-02,1.10141e-02,-9.44755e-02,-1.49682e-01,-1.00116e-01,-1.59164e-01,-8.72942e-02,-1.02701e-01,-4.72117e-02,1.55080e-01,2.06485e-01,8.99549e-02,8.30491e-03,-7.18551e-08,-1.85158e-03,-6.27595e-03,3.90448e-02,1.32332e-01,1.92004e-01,2.03124e-01,1.29846e-01,3.32904e-02,8.74190e-02,8.94863e-02,1.03377e-01,2.34002e-01,2.71134e-01,1.23070e-01,5.14455e-02,1.53874e-01,5.05832e-02,-2.13657e-02,-4.48052e-02,-5.58123e-02,6.94477e-02,8.34893e-02,1.15554e-01,2.43191e-01,3.07975e-01,1.25228e-01,1.06188e-02,0.00000e+00,-8.51217e-04,-6.34676e-03,6.94505e-02,2.37329e-01,3.00693e-01,2.24180e-01,1.78052e-01,1.25229e-01,1.41533e-01,1.81076e-01,2.48722e-01,3.02940e-01,2.01739e-01,1.03061e-01,1.33743e-01,9.14869e-02,-2.42765e-02,-2.05617e-02,8.87914e-04,4.82982e-02,1.11562e-01,1.40219e-01,1.81999e-01,3.45389e-01,3.35897e-01,8.47366e-02,5.53041e-03,-3.51713e-06,-1.30020e-04,-1.99957e-02,5.34575e-02,2.86959e-01,3.51517e-01,2.54789e-01,2.70758e-01,1.13961e-01,1.12626e-01,2.10836e-01,2.33969e-01,3.02200e-01,3.05707e-01,1.58952e-01,2.81618e-02,9.99577e-02,1.06546e-01,1.12451e-01,8.16449e-02,6.32991e-02,1.27389e-01,1.79975e-01,3.53141e-01,4.35023e-01,2.40626e-01,3.51698e-02,7.43579e-03,-5.86732e-06,-7.74944e-04,-1.48396e-02,2.40329e-02,2.24149e-01,2.46749e-01,2.35471e-01,2.68357e-01,1.50578e-01,1.31856e-01,2.31442e-01,2.55374e-01,2.35193e-01,2.56372e-01,1.36841e-01,1.15290e-01,8.49059e-02,1.10729e-01,1.53552e-01,6.25858e-02,1.03771e-01,1.92186e-01,3.05026e-01,3.79368e-01,3.15422e-01,1.65153e-01,3.82999e-02,2.41111e-03,0.00000e+00,-1.85340e-03,9.79125e-04,5.16362e-02,1.97512e-01,2.25436e-01,2.17988e-01,2.72789e-01,1.93210e-01,1.94924e-01,2.02738e-01,2.23215e-01,1.46906e-01,7.56988e-02,4.26171e-02,7.83072e-02,5.89548e-02,4.29824e-02,1.50232e-01,1.91718e-01,2.09410e-01,3.24986e-01,3.54004e-01,3.42344e-01,2.41454e-01,8.18669e-02,1.38581e-02,-2.52118e-05,-3.69281e-05,-1.71511e-04,7.49557e-03,6.70617e-02,1.19951e-01,1.35434e-01,1.61354e-01,1.55121e-01,1.39452e-01,1.92771e-01,1.26590e-01,6.98409e-02,2.37662e-02,4.09068e-02,3.55847e-02,-3.72276e-02,3.60227e-03,6.59341e-02,1.56576e-01,2.44210e-01,1.72713e-01,2.60278e-01,3.11496e-01,2.81580e-01,1.61053e-01,4.58070e-02,7.29289e-03,-9.59542e-08,-3.57741e-05,-1.16693e-05,4.43985e-03,4.44615e-02,8.50502e-02,7.63203e-02,7.59450e-02,7.64790e-02,1.35883e-01,1.58109e-01,1.09222e-01,8.46809e-02,6.56739e-03,-4.86854e-02,-9.67218e-02,-1.23593e-01,-6.23180e-02,3.60948e-02,1.57396e-01,2.33174e-01,2.46655e-01,2.41610e-01,2.25163e-01,1.32623e-01,8.29703e-02,2.44645e-02,-3.96082e-03,-1.77146e-07,0.00000e+00,0.00000e+00,1.90228e-03,-9.49846e-04,5.85568e-03,-1.41657e-02,-6.57845e-02,-8.31496e-02,-4.01610e-02,1.31850e-02,-1.02528e-02,-2.24916e-03,-4.10185e-02,-1.31344e-01,-1.28915e-01,-1.15180e-01,-5.45128e-02,-2.53270e-02,9.56689e-02,1.81745e-01,1.75365e-01,1.64308e-01,1.17671e-01,2.89854e-02,2.97557e-02,1.46563e-02,-2.88157e-03,0.00000e+00,0.00000e+00,0.00000e+00,-1.71754e-03,-2.01014e-02,-3.93736e-02,-6.93551e-02,-1.24522e-01,-1.70269e-01,-1.77160e-01,-1.87823e-01,-2.26498e-01,-1.89388e-01,-1.15994e-01,-6.51192e-02,-2.08036e-02,-4.85830e-02,-4.53716e-02,-2.56186e-03,1.18433e-02,-3.61447e-02,-4.58046e-02,-6.08075e-03,-1.48785e-02,-1.19437e-02,3.08272e-02,2.17524e-02,3.28692e-03,0.00000e+00,0.00000e+00,0.00000e+00,-1.68565e-05,-5.14830e-03,-1.84922e-02,-3.27711e-02,-4.40283e-02,-8.30265e-02,-1.30890e-01,-1.42988e-01,-1.33958e-01,-1.33595e-01,-1.15300e-01,-8.45455e-02,-5.41945e-02,-3.22201e-02,-3.80893e-02,-4.60510e-02,-6.74346e-02,-7.81139e-02,-5.84152e-02,-4.21285e-02,-3.22858e-02,-2.11235e-02,-3.32431e-03,2.91872e-03,3.48979e-03,0.00000e+00,0.00000e+00,0.00000e+00,0.00000e+00,0.00000e+00,-4.58947e-04,-1.65340e-03,-3.23438e-03,-8.20582e-03,-1.28953e-02,-1.38209e-02,-1.34389e-02,-1.68076e-02,-9.91679e-03,-1.56961e-02,-1.42537e-02,-1.46720e-02,-1.77192e-02,-2.07400e-02,-1.54535e-02,-9.52185e-03,-7.87386e-03,-5.49397e-03,-1.17195e-03,-2.46011e-05,-9.50166e-08,-1.31291e-07,0.00000e+00,0.00000e+00,0.00000e+00,0.00000e+00,0.00000e+00,0.00000e+00,-5.31860e-07,-1.44018e-06,-3.20305e-06,-3.39582e-05,-5.91497e-05,-3.38712e-05,-1.58330e-04,-1.62071e-04,-2.11705e-04,-2.41078e-04,-2.76989e-04,-3.76612e-04,-3.57373e-04,-3.26156e-04,-4.98798e-04,-6.27138e-04,-8.63798e-04,-3.00315e-04,-5.56141e-04,-1.04480e-05,0.00000e+00,0.00000e+00,0.00000e+00,0.00000e+00,
0.00000e+00,0.00000e+00,0.00000e+00,0.00000e+00,0.00000e+00,0.00000e+00,0.00000e+00,0.00000e+00,0.00000e+00,0.00000e+00,0.00000e+00,0.00000e+00,-2.05157e-05,-5.31518e-05,-9.15784e-06,-3.81577e-07,0.00000e+00,0.00000e+00,0.00000e+00,0.00000e+00,0.00000e+00,0.00000e+00,0.00000e+00,0.00000e+00,0.00000e+00,0.00000e+00,0.00000e+00,0.00000e+00,0.00000e+00,0.00000e+00,0.00000e+00,0.00000e+00,-8.39029e-10,-5.10556e-09,-3.89031e-06,-8.31504e-06,-6.04413e-05,-8.33966e-05,-5.49564e-05,-7.25200e-05,-1.88328e-04,-1.48188e-04,-6.01593e-04,-7.96863e-04,-3.38619e-04,-1.27903e-04,-1.94094e-05,-2.57394e-05,-4.73054e-05,-1.07005e-04,-8.92737e-06,-2.14753e-07,0.00000e+00,0.00000e+00,0.00000e+00,0.00000e+00,0.00000e+00,0.00000e+00,-2.21016e-10,-1.34584e-09,-4.57202e-07,-2.11741e-05,-1.38021e-04,-4.71212e-04,-1.66426e-03,-4.02222e-03,-2.53135e-03,2.65861e-03,3.75864e-03,-1.97520e-03,3.81306e-04,-4.04435e-03,-3.24241e-03,-3.00197e-03,-7.74366e-03,-6.87868e-03,-3.35590e-03,-3.04671e-03,-1.77337e-03,-5.73533e-04,-3.43888e-05,-5.50168e-07,0.00000e+00,0.00000e+00,0.00000e+00,0.00000e+00,-3.05895e-07,-2.20927e-07,-1.30224e-04,1.48260e-02,9.83540e-03,2.20041e-02,3.50183e-02,3.02563e-02,4.76036e-02,1.04352e-01,1.41373e-01,1.49627e-01,1.94935e-01,1.69725e-01,1.29049e-01,1.04072e-01,8.04032e-02,5.32530e-02,3.04038e-02,-3.13905e-02,-3.43846e-02,-1.21886e-02,-4.02823e-03,-1.33130e-04,-1.55811e-05,0.00000e+00,0.00000e+00,1.75077e-06,3.38262e-04,4.28097e-03,1.73653e-02,5.38477e-02,7.21895e-02,1.37109e-01,1.91682e-01,2.22797e-01,2.70373e-01,2.80175e-01,2.80951e-01,3.13604e-01,2.63179e-01,1.97109e-01,1.33829e-01,4.10411e-02,4.19894e-02,-1.86586e-02,-5.86991e-02,-9.50969e-02,-8.86679e-02,-7.15034e-02,-1.27286e-02,-2.21130e-03,-6.08905e-05,-9.07223e-06,0.00000e+00,0.00000e+00,1.28061e-03,2.21843e-02,4.19173e-02,1.04901e-01,1.44968e-01,2.06091e-01,2.04051e-01,2.31309e-01,2.15918e-01,1.51362e-01,7.26021e-02,1.71567e-02,8.18093e-03,1.22641e-01,1.77566e-01,4.09334e-02,8.07851e-03,-1.59636e-03,-1.06731e-01,-1.71244e-01,-1.62231e-01,-1.39800e-01,-4.16686e-02,-9.76412e-03,-1.30043e-03,-4.97803e-05,0.00000e+00,7.00096e-05,4.02777e-03,5.08493e-02,9.11466e-02,1.57109e-01,2.05780e-01,1.66525e-01,1.90434e-01,2.08700e-01,1.98891e-01,9.86145e-02,7.72949e-02,1.42146e-01,1.27873e-01,1.83618e-01,1.97221e-01,1.37940e-01,1.30611e-01,-2.75669e-02,4.23471e-04,-8.79409e-02,-1.78122e-01,-1.58318e-01,-7.81526e-02,-2.47381e-02,-2.55014e-03,-2.34443e-04,0.00000e+00,2.17621e-03,3.75681e-03,5.34874e-02,1.60250e-01,2.25106e-01,1.71314e-01,1.11845e-01,7.66745e-02,9.29873e-02,8.57724e-02,8.00436e-02,9.21125e-02,1.53274e-01,2.38019e-01,2.28960e-01,9.92532e-02,1.28918e-01,8.83682e-02,7.56300e-02,9.31511e-02,-4.40566e-03,-1.38058e-01,-1.58999e-01,-1.11271e-01,-3.20433e-02,-2.46636e-03,-8.60737e-05,0.00000e+00,-1.62044e-03,-6.87318e-04,4.09910e-02,1.70498e-01,2.14912e-01,1.82170e-01,9.49256e-02,6.03878e-02,6.59556e-02,5.10557e-02,-7.80309e-03,-7.25986e-03,6.66092e-02,1.87064e-01,2.50575e-01,1.56169e-01,1.15675e-01,1.57272e-01,1.35241e-01,1.90919e-01,1.13030e-01,1.51436e-02,-1.84194e-01,-1.48212e-01,-4.93183e-02,-3.22616e-03,-1.78251e-05,-2.65355e-05,-2.46450e-03,9.44755e-03,3.39342e-02,1.64624e-01,1.34806e-01,8.99376e-02,7.88871e-02,-7.97138e-03,-4.57202e-02,-1.84574e-01,-2.85196e-01,-2.27730e-01,-7.87630e-02,1.78782e-01,3.41991e-01,2.70723e-01,1.95502e-01,1.20068e-01,1.60538e-01,2.60141e-01,1.94978e-01,4.76912e-02,-1.29859e-01,-1.27640e-01,-3.11221e-02,-3.01719e-03,-2.55522e-04,-6.41487e-05,-2.25959e-03,8.09763e-03,5.56492e-02,7.38835e-02,5.98952e-03,-5.56772e-02,-1.12905e-01,-2.31905e-01,-3.06421e-01,-4.26795e-01,-4.30394e-01,-3.29508e-01,1.14116e-04,2.29734e-01,2.48281e-01,2.68934e-01,2.10558e-01,2.18017e-01,2.28500e-01,2.83979e-01,1.13180e-01,-1.95301e-02,-1.05082e-01,-8.35058e-02,-1.67187e-02,-1.62128e-03,-7.89340e-05,-7.93073e-05,-1.07859e-03,7.78885e-03,4.90951e-02,1.39829e-02,-1.02700e-01,-2.09368e-01,-3.25988e-01,-3.69395e-01,-3.60456e-01,-3.14432e-01,-1.54411e-01,-4.40811e-02,1.46254e-01,2.15066e-01,2.00861e-01,1.42315e-01,2.23607e-01,1.79838e-01,1.70763e-01,1.57070e-01,-7.09850e-02,-1.05178e-01,-1.11920e-01,-6.40303e-02,-8.45318e-03,-8.65453e-04,-1.09981e-05,-1.13228e-05,-1.26456e-03,-3.88457e-03,-1.94483e-03,-3.67905e-02,-1.51759e-01,-2.75259e-01,-3.35736e-01,-3.16873e-01,-1.41261e-01,-2.52619e-02,-2.59698e-02,3.94406e-02,1.29926e-01,2.83916e-01,1.86359e-01,1.20212e-01,1.23238e-01,3.97464e-02,-3.59336e-02,-5.43790e-02,-2.24468e-01,-1.92458e-01,-1.26652e-01,-5.58704e-02,-4.39267e-03,-2.18996e-04,-1.64081e-05,-5.41351e-06,-7.27682e-04,-2.94012e-03,-6.55757e-03,-5.84367e-02,-1.47300e-01,-2.52329e-01,-3.02517e-01,-1.98289e-01,-5.84607e-02,-9.08582e-02,-9.84162e-02,9.37191e-02,2.14118e-01,1.93759e-01,-7.46719e-03,1.32952e-01,1.69024e-01,5.89113e-02,-9.79051e-02,-1.95933e-01,-2.03415e-01,-2.00564e-01,-1.18157e-01,-5.15336e-02,-8.85037e-03,-4.46886e-04,-3.49757e-04,-2.15598e-04,2.83547e-03,8.41766e-04,-7.87274e-04,-1.79073e-02,-1.05056e-01,-2.25979e-01,-2.50858e-01,-1.69263e-01,-1.05709e-01,-1.33644e-01,-1.15755e-01,1.21611e-01,1.10210e-01,5.94843e-02,-4.90285e-03,1.38826e-02,9.16019e-02,5.95274e-02,-1.00954e-02,-9.09575e-02,-2.29698e-02,-1.07208e-01,-7.32808e-02,-3.13315e-02,-1.62372e-02,-2.30497e-03,-2.51390e-04,-7.21228e-05,6.53164e-03,7.25830e-03,1.51753e-02,3.67375e-02,-1.57086e-02,-1.12808e-01,-1.74008e-01,-2.08019e-01,-2.03656e-01,-1.75629e-01,-7.07346e-02,1.01693e-01,1.60370e-01,7.97280e-02,-4.53187e-02,-1.01348e-01,-1.90730e-02,6.99601e-02,1.14778e-01,1.66571e-01,1.39044e-01,8.54695e-02,2.82997e-02,-1.26503e-03,-2.05398e-02,-2.77234e-03,-1.38882e-04,-8.73591e-06,5.25721e-03,3.18159e-02,7.44025e-02,1.22608e-01,3.41871e-02,-7.66401e-02,-1.44644e-01,-2.35422e-01,-2.28416e-01,-2.21083e-01,-8.79106e-02,3.70196e-02,1.00533e-01,-5.55937e-02,-1.74292e-01,-1.86604e-01,7.82140e-03,1.70400e-01,2.04738e-01,1.68445e-01,1.62828e-01,1.61263e-01,8.69704e-02,3.35705e-02,-2.82263e-02,-5.85240e-03,-1.54687e-04,0.00000e+00,2.09402e-03,4.71477e-02,1.50639e-01,1.69674e-01,5.44867e-02,-5.23260e-02,-1.16923e-01,-2.01219e-01,-3.69004e-01,-4.24915e-01,-3.94136e-01,-2.58521e-01,-2.16072e-01,-2.49272e-01,-2.03880e-01,-6.75932e-03,1.49259e-01,1.38321e-01,2.01156e-01,1.37786e-01,2.02262e-01,2.26410e-01,1.09685e-01,-3.48072e-02,-4.63737e-02,-5.88185e-03,-2.12926e-04,-1.76450e-04,3.13470e-04,5.20115e-02,2.15250e-01,2.16033e-01,1.58811e-01,2.59989e-02,-1.19629e-01,-1.64258e-01,-2.73022e-01,-3.97341e-01,-3.83431e-01,-3.78876e-01,-3.23106e-01,-2.58600e-01,-2.26369e-02,1.74123e-01,1.81457e-01,2.45643e-01,2.39029e-01,1.71156e-01,2.87330e-01,2.58856e-01,6.91338e-02,-6.96159e-02,-3.28526e-02,-4.53257e-03,-7.89999e-05,-3.22608e-07,1.19548e-04,4.62651e-02,2.20743e-01,2.51108e-01,2.33493e-01,9.67946e-02,1.04321e-02,-2.99530e-02,-8.80903e-02,-1.61488e-01,-2.60233e-01,-2.70619e-01,-2.53331e-01,-1.60893e-01,-3.80914e-02,1.41402e-01,2.49454e-01,2.46784e-01,2.27595e-01,1.84440e-01,2.57148e-01,1.44182e-01,1.55906e-02,-6.13720e-02,-2.71865e-02,-2.64326e-03,-2.21397e-05,0.00000e+00,3.32064e-04,3.79927e-02,2.08926e-01,2.69482e-01,2.04439e-01,1.53234e-01,1.03997e-01,9.00774e-02,8.19319e-02,-2.14703e-02,-1.34787e-01,-2.24958e-01,-1.51002e-01,-4.52726e-02,-7.18414e-03,9.22317e-02,1.56931e-01,2.36384e-01,2.06483e-01,1.64799e-01,1.03696e-01,9.91046e-03,-2.57511e-02,-5.21718e-02,-1.49921e-02,-1.02741e-03,-2.35534e-05,-2.25751e-06,5.45987e-04,3.37468e-02,1.41314e-01,2.00909e-01,1.73209e-01,1.16194e-01,6.42524e-02,6.82655e-02,2.14658e-02,1.56450e-02,-6.33568e-02,-9.95609e-02,-8.40924e-02,-1.86781e-02,7.26514e-02,1.18325e-01,1.05895e-01,1.75245e-01,1.70384e-01,9.94950e-02,-3.38533e-03,-7.61649e-02,-7.97034e-02,-5.44041e-02,-9.90396e-03,-1.26089e-03,-3.30560e-08,-2.18696e-06,7.56330e-06,2.34263e-02,7.51351e-02,1.21011e-01,1.43612e-01,1.48116e-01,1.06831e-01,-5.97065e-03,-1.13274e-03,5.98990e-02,1.35358e-02,-4.60499e-02,-1.34787e-03,3.24375e-02,6.37049e-02,7.64791e-02,6.19957e-02,9.71979e-02,1.29665e-01,6.06858e-02,-7.14900e-02,-5.78633e-02,-4.69212e-02,-3.42822e-02,-9.50211e-03,-2.83026e-04,-6.10265e-08,0.00000e+00,0.00000e+00,1.11640e-02,5.74194e-02,1.03511e-01,1.48226e-01,2.15967e-01,2.03063e-01,6.49638e-02,3.45100e-02,4.74433e-02,7.61730e-02,1.89424e-02,7.27107e-02,-5.54831e-03,-8.52234e-03,-5.80639e-02,5.62709e-02,9.58842e-02,-2.63829e-03,-5.24463e-02,-6.25701e-02,-5.28233e-02,-2.63132e-02,-1.24009e-02,-7.61246e-03,3.28381e-04,0.00000e+00,0.00000e+00,0.00000e+00,7.74141e-03,3.72495e-02,8.02814e-02,1.14039e-01,2.21961e-01,2.82801e-01,2.60098e-01,2.66168e-01,2.86256e-01,2.92245e-01,2.37009e-01,2.30828e-01,1.70955e-01,6.29008e-02,5.49001e-02,1.04231e-02,-1.03785e-01,-9.21225e-02,-4.25547e-02,-3.29338e-02,-2.24178e-02,-9.10055e-03,-6.53950e-03,-1.74313e-03,-5.20449e-06,0.00000e+00,0.00000e+00,0.00000e+00,6.71911e-04,-2.69305e-03,8.64049e-03,3.29833e-02,7.33705e-02,1.29556e-01,1.96246e-01,2.43090e-01,2.71847e-01,2.90270e-01,2.86751e-01,2.29647e-01,1.45642e-01,5.76839e-02,3.10789e-02,-1.48524e-02,-2.55603e-02,6.58600e-03,-2.02330e-02,-3.50060e-02,-1.47555e-02,-2.60362e-03,-1.08744e-04,-1.51726e-04,-1.85696e-06,0.00000e+00,0.00000e+00,0.00000e+00,0.00000e+00,0.00000e+00,1.53190e-04,3.66959e-03,6.15223e-03,1.29841e-02,1.18259e-02,1.01052e-02,1.03789e-02,7.95244e-03,-1.02402e-02,-1.87260e-02,-2.95438e-02,-2.58032e-02,-4.38477e-03,-1.31735e-03,-2.64132e-03,-5.54619e-03,-1.37574e-02,-9.10440e-03,-2.17595e-04,-8.32744e-05,-3.31578e-07,-7.57015e-08,0.00000e+00,0.00000e+00,0.00000e+00,0.00000e+00,0.00000e+00,0.00000e+00,-2.33981e-07,-9.87666e-07,-4.52211e-06,-1.81933e-05,-4.02121e-05,-1.21248e-04,-4.61389e-04,-6.17675e-04,-1.49590e-03,-1.87819e-03,-2.99075e-03,-2.82987e-03,-3.07392e-03,-2.66606e-03,-1.68278e-03,-1.12071e-03,-5.60689e-04,-1.53041e-04,-1.33408e-04,-1.08569e-05,0.00000e+00,0.00000e+00,0.00000e+00,0.00000e+00,
0.00000e+00,0.00000e+00,0.00000e+00,0.00000e+00,0.00000e+00,0.00000e+00,0.00000e+00,0.00000e+00,0.00000e+00,0.00000e+00,0.00000e+00,0.00000e+00,-1.15763e-03,-2.66537e-03,-1.45284e-04,-6.05349e-06,0.00000e+00,0.00000e+00,0.00000e+00,0.00000e+00,0.00000e+00,0.00000e+00,0.00000e+00,0.00000e+00,0.00000e+00,0.00000e+00,0.00000e+00,0.00000e+00,0.00000e+00,0.00000e+00,0.00000e+00,0.00000e+00,-9.20979e-06,-6.55067e-05,-7.15853e-03,-1.73020e-02,-1.47988e-02,-5.85824e-03,-1.00560e-02,-1.38670e-02,-2.47114e-02,-2.17741e-02,-1.97530e-02,-2.21170e-02,-1.67025e-02,-5.69706e-03,-4.37246e-03,-4.21792e-03,-3.06284e-03,-5.34223e-03,-7.62605e-03,-3.11507e-03,0.00000e+00,0.00000e+00,0.00000e+00,0.00000e+00,0.00000e+00,0.00000e+00,-5.28247e-07,-1.55971e-04,-9.54456e-05,-1.66416e-04,-8.26495e-03,-2.39797e-02,-3.34623e-02,-3.28414e-02,-5.82921e-02,-6.38361e-02,-1.05593e-01,-1.10448e-01,-9.65393e-02,-9.28882e-02,-8.61728e-02,-5.54336e-02,-3.75323e-02,-1.54944e-02,-7.28597e-03,-5.53069e-03,-8.34027e-03,-6.16268e-03,-8.21738e-04,-1.54656e-04,0.00000e+00,0.00000e+00,0.00000e+00,0.00000e+00,-1.16536e-06,-5.06465e-04,-2.72836e-04,-1.60053e-03,-1.34406e-02,-2.68794e-02,-5.70173e-02,-8.58882e-02,-1.07065e-01,-1.37941e-01,-2.13565e-01,-2.62783e-01,-2.19409e-01,-1.98062e-01,-1.60606e-01,-1.22328e-01,-7.97235e-02,-2.03997e-02,7.18420e-03,5.65214e-03,1.00334e-03,1.13567e-03,-2.64469e-03,1.85383e-05,-5.11421e-05,0.00000e+00,0.00000e+00,-8.07740e-08,-5.25634e-07,-1.22753e-04,3.69881e-03,6.94227e-03,-8.48046e-04,-1.61231e-02,-5.97158e-02,-1.17880e-01,-1.72913e-01,-1.87219e-01,-2.18232e-01,-2.30177e-01,-2.35121e-01,-2.12707e-01,-1.60957e-01,-1.17128e-01,-7.55597e-02,-5.61106e-03,4.33811e-02,3.90137e-02,6.97038e-02,7.16610e-02,3.86004e-02,4.29441e-03,-1.00404e-03,-3.39047e-04,0.00000e+00,0.00000e+00,-2.02925e-05,4.21540e-04,5.13591e-03,2.36318e-02,2.10756e-02,1.33006e-02,-9.90187e-03,-3.68037e-02,-9.79198e-02,-1.27520e-01,-1.55539e-01,-1.99595e-01,-1.22693e-01,-6.07225e-02,7.77791e-03,-1.36620e-02,4.13922e-02,1.11389e-01,9.75318e-02,1.05944e-01,1.55322e-01,2.05731e-01,8.23834e-02,4.51006e-03,-3.59858e-03,-8.25374e-05,0.00000e+00,-1.82372e-07,-3.26937e-03,-3.71361e-03,2.05643e-02,5.28620e-02,4.42799e-02,5.69154e-02,1.99990e-02,-3.43644e-02,-1.04090e-01,-2.06187e-01,-2.09861e-01,-2.52854e-01,-3.19576e-01,-2.59855e-01,-2.19147e-01,-1.88176e-01,-1.88790e-01,-3.93273e-02,-9.51634e-03,7.83861e-02,2.15181e-01,2.68437e-01,9.04226e-02,-5.81480e-03,3.61963e-03,-9.08652e-04,0.00000e+00,-2.15851e-04,-4.05243e-03,-2.31757e-03,3.34280e-02,7.36341e-02,4.53045e-02,4.22164e-02,-1.58498e-02,-6.83810e-02,-1.72173e-01,-2.64465e-01,-3.42397e-01,-3.52928e-01,-4.75559e-01,-4.39332e-01,-3.91877e-01,-2.45128e-01,-2.27625e-01,-1.36945e-01,-8.04426e-02,9.71323e-03,1.76270e-01,2.07422e-01,7.24100e-02,-3.54505e-03,3.35291e-03,-3.85100e-04,0.00000e+00,-3.96656e-03,-2.75989e-03,-6.70773e-03,1.42747e-02,6.94356e-02,6.88791e-03,-1.70538e-02,-9.79150e-02,-6.02514e-02,-1.64964e-01,-1.74342e-01,-2.67902e-01,-2.80497e-01,-4.82022e-01,-4.11226e-01,-3.09573e-01,-1.44049e-01,-9.69423e-02,-8.68245e-02,-5.79353e-02,-1.65548e-02,5.86337e-02,8.86815e-02,1.47919e-02,-1.89329e-02,-1.74078e-02,-2.57490e-04,-7.84078e-07,-4.12620e-03,-6.36879e-03,-3.85549e-02,-2.89757e-02,-8.57490e-04,-5.47555e-02,-6.22907e-02,-7.14845e-02,-4.70332e-02,-1.06122e-01,-1.01997e-01,-7.37012e-02,-1.70452e-01,-5.26847e-01,-3.43779e-01,-1.00133e-01,-1.27891e-02,-5.48896e-02,-2.45128e-02,-5.01310e-02,-5.16934e-02,-5.31065e-02,-6.91743e-02,-1.29844e-01,-9.14932e-02,-2.56958e-02,-3.72825e-03,-1.99925e-06,-3.75477e-03,-1.31502e-02,-4.89146e-02,-4.42670e-02,-4.89363e-02,-7.10303e-02,-4.29913e-02,-1.24266e-02,8.94773e-02,6.21823e-02,3.14904e-02,1.07716e-01,-2.35684e-01,-5.62900e-01,-2.18982e-01,1.75990e-02,6.84987e-02,-3.14423e-02,2.62187e-03,-1.12743e-01,-1.41915e-01,-1.61977e-01,-2.21819e-01,-1.86212e-01,-1.12336e-01,-2.63038e-02,-1.09658e-03,-1.60017e-05,-4.84074e-03,-2.97015e-02,-3.73832e-02,-6.18716e-02,-4.57867e-02,-5.96046e-03,3.85752e-02,9.77047e-02,2.17498e-01,2.73310e-01,2.12078e-01,2.15989e-01,-3.36275e-01,-4.97948e-01,-4.53429e-02,2.68902e-01,1.31441e-01,-2.53140e-02,-7.03432e-02,-1.56855e-01,-1.44227e-01,-1.64232e-01,-1.80468e-01,-1.35631e-01,-5.53286e-02,-9.67804e-03,-3.94784e-04,-7.34307e-07,-8.38236e-03,-3.42240e-02,-4.78871e-02,-8.19068e-02,-2.79651e-02,8.66878e-02,1.70072e-01,2.55516e-01,2.99731e-01,3.90049e-01,4.30539e-01,3.77924e-01,-1.22018e-01,-3.42871e-01,7.05779e-02,3.18178e-01,1.69698e-01,3.78152e-03,-2.25011e-02,-5.27312e-02,-2.77209e-02,-5.94723e-02,-1.09720e-01,-5.29133e-02,-1.31085e-02,-7.33295e-03,-1.77718e-03,-1.05356e-07,-7.06320e-03,-1.96257e-02,-3.65091e-02,-4.22144e-02,9.37501e-02,2.58550e-01,3.21507e-01,3.30319e-01,2.85726e-01,4.19926e-01,5.43103e-01,3.10519e-01,-9.32226e-02,-1.73030e-01,1.36709e-01,2.75408e-01,2.52195e-01,9.34738e-02,1.00006e-01,1.29996e-01,8.14105e-02,5.50632e-02,-2.03141e-02,-4.24849e-02,-2.67474e-03,-2.87354e-03,-3.97252e-03,-9.49912e-06,-3.72334e-03,-8.70988e-03,-1.02249e-02,7.65636e-02,2.31020e-01,3.14622e-01,4.03043e-01,3.43804e-01,2.88897e-01,3.40932e-01,3.58612e-01,2.00780e-01,-1.00475e-01,-9.42718e-02,1.19331e-01,3.69187e-01,3.95714e-01,1.86982e-01,2.32453e-01,1.63754e-01,8.28199e-02,6.04014e-02,-2.45635e-03,-5.66291e-02,-2.60861e-02,-1.33408e-02,-4.23858e-04,-7.31140e-06,-4.56678e-05,2.44704e-03,8.65382e-03,6.42318e-02,1.88031e-01,2.60970e-01,3.51087e-01,3.51047e-01,3.29962e-01,1.86486e-01,1.74865e-01,9.55339e-02,-8.63710e-02,-2.35136e-03,2.92055e-01,4.58874e-01,3.67993e-01,1.81144e-01,1.51457e-01,3.94837e-02,3.97958e-03,2.69615e-02,-3.30824e-02,-1.02201e-01,-5.33636e-02,-5.76375e-04,-5.06034e-04,-2.40061e-05,-2.40484e-05,-2.54364e-03,-2.67336e-02,-3.73634e-02,6.39536e-02,1.92712e-01,2.76477e-01,3.20965e-01,2.10326e-01,3.50402e-02,-1.87473e-02,1.42305e-02,4.03239e-02,2.55149e-01,4.82504e-01,4.43157e-01,2.95586e-01,1.70305e-01,8.33741e-02,6.27092e-02,3.89778e-02,-5.85358e-02,-9.17425e-02,-7.50103e-02,-5.00949e-02,-2.37401e-02,-8.46938e-04,0.00000e+00,-1.30578e-05,-6.15516e-03,-6.33565e-02,-6.30111e-02,-2.42506e-02,7.55877e-02,1.81477e-01,2.02880e-01,1.03618e-01,-1.11697e-02,-5.64471e-02,3.68692e-02,2.17164e-01,4.52379e-01,4.57797e-01,3.60256e-01,1.82793e-01,1.56355e-01,-2.90097e-02,-3.71221e-02,-4.75749e-02,-1.24684e-01,-9.55497e-02,-7.79711e-02,-6.62522e-02,-1.36890e-02,-4.19279e-03,-1.55062e-03,-1.48356e-06,-7.98438e-03,-6.31684e-02,-8.24947e-02,-9.67078e-02,-1.02041e-01,-1.95530e-02,3.30620e-02,-1.76771e-02,-1.88959e-01,-1.44453e-01,-3.54147e-03,1.52275e-01,2.97593e-01,2.91621e-01,1.94534e-01,-5.64876e-02,-5.90103e-02,-1.43001e-01,-1.14010e-01,-1.30271e-01,-1.90807e-01,-1.20381e-01,-7.36285e-02,-5.74873e-02,-4.73926e-03,-1.42926e-05,-1.49159e-09,-6.26699e-06,-7.14773e-03,-2.91403e-02,-8.79994e-02,-1.05135e-01,-1.80883e-01,-1.99357e-01,-2.41278e-01,-2.89976e-01,-3.46858e-01,-3.24497e-01,-2.83603e-01,-1.19817e-01,5.81529e-02,5.77009e-02,-4.05897e-02,-1.29626e-01,-1.31803e-01,-2.10938e-01,-1.80770e-01,-1.51757e-01,-2.00592e-01,-1.24066e-01,-5.89531e-02,-2.29820e-02,-7.38736e-04,-3.29366e-08,0.00000e+00,-1.39968e-05,-4.35907e-03,-2.72263e-02,-7.16303e-02,-1.19286e-01,-1.99252e-01,-2.99136e-01,-3.68946e-01,-3.78314e-01,-3.72138e-01,-3.25981e-01,-2.63165e-01,-2.67734e-01,-9.04385e-02,-4.26026e-02,-3.85804e-02,-5.92517e-02,-1.17594e-01,-1.51025e-01,-1.38834e-01,-9.38465e-02,-1.26919e-01,-8.41597e-02,-3.59576e-02,-1.21840e-02,-2.23027e-04,-1.36989e-05,-3.47265e-07,-1.39082e-06,-7.91810e-04,-2.44486e-02,-4.76197e-02,-7.52733e-02,-1.77506e-01,-2.60201e-01,-2.70075e-01,-2.81203e-01,-2.82269e-01,-1.83913e-01,-1.45704e-01,-1.54902e-01,-6.86224e-02,3.56330e-03,-4.00759e-02,-7.77059e-03,-4.56530e-02,-2.56383e-02,-2.34354e-02,-2.56172e-02,-4.81906e-02,-2.68766e-02,-2.14970e-02,-1.05108e-02,-1.80743e-04,-3.99539e-10,-3.36413e-07,-1.15510e-07,-3.31330e-04,-1.68138e-02,-2.93700e-02,-5.28011e-02,-1.04010e-01,-1.66166e-01,-1.89033e-01,-2.07710e-01,-1.80120e-01,-1.15037e-01,-8.87052e-02,-7.79909e-02,-3.44138e-02,7.60480e-03,-3.56218e-02,4.78425e-02,6.37257e-02,1.42059e-01,9.73576e-02,7.85684e-02,1.16563e-02,-2.23018e-02,-2.29241e-02,-1.17331e-02,1.96523e-04,-7.37610e-10,0.00000e+00,0.00000e+00,-6.07667e-05,-5.94982e-03,-1.19624e-02,-3.00441e-02,-4.93347e-02,-7.92495e-02,-1.03411e-01,-1.08045e-01,-1.13503e-01,-5.32011e-02,-8.54425e-02,-3.98103e-02,1.68346e-02,1.71699e-02,5.37221e-02,8.34199e-02,1.84679e-01,1.82246e-01,1.47032e-01,8.57478e-02,-8.06886e-03,-1.49691e-02,-1.42694e-02,-1.89823e-03,1.84638e-04,0.00000e+00,0.00000e+00,0.00000e+00,-5.32736e-06,-9.24360e-04,-8.25331e-03,-1.13345e-02,-3.20179e-02,-5.28803e-02,-5.95049e-02,-6.15023e-02,-7.34339e-02,-3.94834e-02,-1.08514e-01,-9.99282e-02,-4.32880e-02,-4.57163e-02,-7.70945e-03,-2.76997e-02,3.28495e-02,5.80386e-02,4.10520e-02,1.42558e-02,-1.24705e-03,-4.51710e-03,-9.32563e-03,1.98803e-04,-3.43183e-05,0.00000e+00,0.00000e+00,0.00000e+00,-4.46907e-06,-4.79900e-05,-3.61473e-03,-1.58559e-02,-3.67707e-02,-7.29315e-02,-1.18581e-01,-1.37112e-01,-1.53949e-01,-2.15832e-01,-2.49022e-01,-2.03580e-01,-1.74930e-01,-2.34860e-01,-2.49558e-01,-2.44630e-01,-1.90102e-01,-1.58430e-01,-9.12120e-02,-5.57061e-02,-2.43424e-02,-1.09223e-02,-6.10850e-03,-3.85093e-04,-3.63552e-05,0.00000e+00,0.00000e+00,0.00000e+00,0.00000e+00,0.00000e+00,-7.26958e-04,-7.75376e-03,-2.16406e-02,-3.22767e-02,-6.25388e-02,-9.82325e-02,-1.05698e-01,-1.41887e-01,-1.65816e-01,-1.65576e-01,-1.93436e-01,-1.98321e-01,-1.81012e-01,-1.43744e-01,-1.20925e-01,-1.00100e-01,-5.47509e-02,-2.42144e-02,-9.62111e-03,-3.05222e-04,-1.33459e-04,-1.07547e-08,0.00000e+00,0.00000e+00,0.00000e+00,0.00000e+00,0.00000e+00,0.00000e+00,-1.52270e-07,-7.84895e-07,-1.30798e-03,-7.60214e-03,-8.68506e-03,-4.07270e-03,-5.74250e-03,-7.38013e-03,-1.51880e-02,-7.38793e-03,-2.14163e-02,-1.64596e-02,-1.28293e-02,-8.74568e-03,-1.04091e-02,-1.04098e-02,-2.68844e-03,-8.19342e-04,-9.90259e-04,-1.43506e-04,0.00000e+00,0.00000e+00,0.00000e+00,0.00000e+00,
0.00000e+00,0.00000e+00,0.00000e+00,0.00000e+00,0.00000e+00,0.00000e+00,0.00000e+00,0.00000e+00,0.00000e+00,0.00000e+00,0.00000e+00,0.00000e+00,-1.61931e-05,-3.55486e-05,-1.01580e-07,-4.23251e-09,0.00000e+00,0.00000e+00,0.00000e+00,0.00000e+00,0.00000e+00,0.00000e+00,0.00000e+00,0.00000e+00,0.00000e+00,0.00000e+00,0.00000e+00,0.00000e+00,0.00000e+00,0.00000e+00,0.00000e+00,0.00000e+00,-6.93542e-09,-2.20403e-08,-5.19056e-06,-1.03836e-05,-2.93652e-05,-1.95948e-05,-3.93856e-05,-8.53236e-05,-1.90822e-03,-1.92761e-03,-5.42186e-04,-6.55399e-04,-8.77017e-04,-3.03745e-04,-1.89741e-04,-3.55162e-04,-2.52955e-04,-8.20994e-05,-6.39435e-06,-3.63395e-06,0.00000e+00,0.00000e+00,0.00000e+00,0.00000e+00,0.00000e+00,0.00000e+00,-1.21924e-07,-1.88142e-06,-1.55738e-06,-2.30165e-07,-1.21622e-05,-2.48834e-04,-3.95226e-04,-2.63235e-03,-7.25477e-03,-1.60200e-02,-2.03463e-02,-2.08718e-02,-1.96465e-02,-1.88769e-02,-1.26350e-02,2.16299e-03,4.14947e-03,7.89464e-04,-1.30934e-02,-1.27219e-02,-5.16394e-03,-2.19560e-03,-1.55161e-03,-1.13706e-04,0.00000e+00,0.00000e+00,0.00000e+00,0.00000e+00,-2.69264e-07,-7.85759e-05,-9.01473e-05,-5.56681e-03,-3.55760e-03,-1.01392e-02,-1.30381e-02,-2.49644e-02,-2.32349e-02,-3.96390e-02,-4.33545e-02,-5.17077e-02,-3.38136e-02,-2.90869e-03,-3.18538e-02,-1.72664e-02,3.21521e-02,4.77372e-02,5.05706e-02,4.89570e-02,3.67915e-02,-5.32019e-03,-9.33543e-03,7.23568e-03,1.55251e-03,0.00000e+00,0.00000e+00,-1.26770e-06,-2.07029e-04,-2.03985e-03,-9.11986e-03,-4.16958e-02,-5.88489e-02,-7.59321e-02,-1.24837e-01,-1.34811e-01,-1.08549e-01,-6.90878e-02,-8.90616e-02,-1.33249e-01,-6.55532e-02,3.32236e-02,5.90273e-02,7.78799e-02,1.19058e-01,6.33424e-02,1.18610e-02,1.09054e-01,1.18523e-01,1.22599e-01,8.98930e-02,3.36013e-02,3.51674e-03,-2.73623e-04,0.00000e+00,0.00000e+00,-1.23852e-03,-1.24421e-02,-2.88252e-02,-7.65380e-02,-1.20677e-01,-1.12946e-01,-9.43763e-02,-2.41544e-02,3.05087e-02,5.85814e-02,2.70146e-02,-4.75690e-02,-8.51656e-02,-9.42625e-02,-9.90138e-03,7.49909e-02,1.27630e-01,7.04863e-02,1.62197e-01,1.83451e-01,2.20396e-01,2.39915e-01,1.91102e-01,1.06954e-01,1.98039e-02,5.78828e-04,0.00000e+00,-4.36224e-06,-2.94794e-04,-2.93055e-02,-6.62551e-02,-1.01435e-01,-1.33624e-01,-7.32153e-02,-1.28324e-02,4.99924e-02,9.19267e-02,7.74185e-02,6.24872e-02,3.01507e-02,7.45796e-02,-7.25622e-02,-7.78866e-02,3.07671e-02,9.90061e-02,1.61936e-01,1.36788e-01,1.25751e-01,2.15462e-01,3.20821e-01,3.95044e-01,1.93563e-01,5.53952e-02,9.65607e-03,0.00000e+00,-3.61801e-04,-5.34897e-03,-3.76208e-02,-1.36578e-01,-1.51479e-01,-1.48518e-01,-2.78276e-02,8.11456e-02,1.22213e-01,1.80143e-01,1.34886e-01,5.72125e-02,-2.92022e-02,-2.90065e-03,-1.10099e-01,2.77583e-02,7.59573e-02,6.50726e-02,8.16030e-02,6.40772e-02,8.09279e-02,1.70973e-01,3.74568e-01,5.00929e-01,3.38299e-01,9.08733e-02,6.00557e-03,0.00000e+00,-5.31159e-04,-6.82506e-03,-3.78079e-02,-1.63497e-01,-1.82894e-01,-1.50010e-01,-5.09870e-02,1.18238e-01,1.44196e-01,1.41068e-01,1.64384e-01,3.70880e-02,-5.73593e-02,-1.20077e-01,-2.56078e-01,-1.17619e-01,-6.77475e-02,-5.21152e-02,8.01456e-03,7.80281e-02,1.02516e-01,1.70364e-01,4.79654e-01,6.74488e-01,4.58533e-01,1.04676e-01,4.53645e-03,-1.84049e-06,-5.78531e-04,-4.85474e-03,-3.56257e-02,-1.49233e-01,-1.60661e-01,-1.08765e-01,3.06326e-02,2.31417e-01,2.11445e-01,2.14368e-01,3.03193e-01,1.61916e-01,5.33245e-02,-1.37703e-01,-3.36624e-01,-3.24085e-01,-2.32075e-01,-1.48808e-01,-8.40180e-02,1.18755e-02,1.52288e-01,2.71828e-01,5.14395e-01,7.34539e-01,5.17397e-01,1.17973e-01,9.75653e-03,-4.71040e-06,-4.69467e-04,-4.59243e-03,-3.58716e-02,-8.29793e-02,-6.85041e-02,-1.50156e-02,1.23311e-01,2.99096e-01,3.32399e-01,2.90854e-01,2.91876e-01,2.70686e-01,2.21623e-01,7.64792e-02,-9.95519e-02,-2.25615e-01,-3.13978e-01,-2.78944e-01,-2.18759e-01,-1.01893e-01,2.00257e-02,1.11267e-01,3.27184e-01,5.59990e-01,4.62941e-01,1.28957e-01,6.44641e-03,-3.91011e-05,-2.73855e-03,-6.89350e-03,-3.33894e-02,-2.61664e-02,1.78860e-03,1.07134e-01,1.41490e-01,2.34859e-01,2.41120e-01,2.06325e-01,2.06922e-01,3.10737e-01,3.84839e-01,1.84076e-01,-2.28855e-02,-1.61014e-01,-2.30823e-01,-2.48615e-01,-3.49308e-01,-4.23790e-01,-3.47600e-01,-3.16792e-01,-1.27589e-01,7.39981e-02,1.94461e-01,7.28000e-02,4.18617e-03,-1.57156e-06,-3.45208e-03,-6.12763e-03,-8.30915e-03,1.40893e-02,4.49651e-02,1.54076e-01,1.83958e-01,1.55683e-01,6.20687e-02,2.49789e-01,3.22151e-01,3.61657e-01,3.44491e-01,7.91497e-02,-7.55791e-02,-2.68972e-01,-2.51994e-01,-1.78865e-01,-2.41152e-01,-3.76171e-01,-4.62673e-01,-5.10671e-01,-4.23503e-01,-2.68172e-01,1.22289e-03,2.45705e-02,-6.58567e-04,-6.88101e-07,-6.20890e-04,-2.23515e-03,2.70906e-03,3.32613e-02,7.23263e-02,6.62280e-02,1.28633e-01,1.04360e-01,1.28178e-01,2.46218e-01,2.90863e-01,3.39565e-01,2.24599e-01,1.74333e-02,-1.83164e-01,-2.92369e-01,-2.27607e-01,-1.04340e-01,-7.64406e-02,-1.07559e-01,-2.41314e-01,-3.02852e-01,-3.53466e-01,-2.29540e-01,-3.37892e-02,-1.52025e-03,-5.32698e-03,1.05378e-03,-2.30912e-04,-5.15048e-04,4.58592e-03,7.26648e-03,-5.48903e-03,-4.93603e-02,-5.41050e-02,9.79024e-02,1.83411e-01,2.29040e-01,1.07447e-01,1.32457e-01,8.59627e-02,-8.44841e-02,-1.69615e-01,-2.22935e-01,-2.10047e-01,-9.72122e-02,-9.63037e-02,-2.74352e-02,-1.03379e-01,-1.03725e-01,-1.72803e-01,-1.31681e-01,-4.58758e-02,-6.30599e-03,-1.54355e-04,3.21038e-04,-3.00873e-04,-1.13970e-03,-4.15068e-03,-1.81554e-02,-1.24562e-01,-1.52918e-01,-1.71758e-01,-4.64159e-02,7.97133e-02,1.06073e-01,1.32970e-01,1.15972e-01,-9.15901e-02,-2.33659e-01,-2.04263e-01,-1.61290e-01,-1.32110e-01,-1.80050e-02,-4.55894e-02,-5.25812e-02,-3.60008e-02,-6.35775e-02,-2.97206e-02,-4.91067e-02,-3.81272e-02,-1.12129e-02,-1.27318e-03,-1.37182e-04,-1.75737e-04,-5.53322e-03,-2.94262e-03,-1.77408e-02,-8.59585e-02,-1.70472e-01,-2.88451e-01,-3.03439e-01,-2.42628e-01,-1.21498e-01,-5.94117e-02,-4.90728e-02,-2.08160e-01,-2.94734e-01,-2.03425e-01,-1.50436e-01,-6.99094e-02,-7.11488e-02,-3.66597e-03,5.04719e-02,2.53795e-03,2.64941e-02,4.45643e-02,-5.01830e-03,-3.61888e-02,-1.10305e-02,-2.87327e-03,0.00000e+00,-1.94483e-04,-9.29424e-03,-1.33937e-03,2.23932e-02,8.24361e-02,1.10198e-01,-1.87643e-01,-2.92165e-01,-2.76640e-01,-2.65860e-01,-2.17583e-01,-2.76778e-01,-3.47139e-01,-2.88295e-01,-1.37109e-01,-6.28706e-02,3.33447e-02,4.84872e-02,2.36994e-02,8.09167e-02,5.44770e-02,2.90604e-03,5.65254e-02,4.92901e-02,-3.02838e-02,-6.27180e-03,-7.04259e-04,-8.71286e-05,-6.44886e-05,-6.98465e-03,4.09081e-03,6.70400e-02,1.60485e-01,3.32093e-01,1.18713e-01,-4.75151e-02,-1.38802e-01,-1.80336e-01,-1.89625e-01,-1.68783e-01,-1.25094e-01,-4.49318e-02,-6.41867e-02,-3.23272e-02,7.30216e-02,-1.33895e-02,3.49156e-02,1.29005e-01,7.48291e-02,4.40795e-02,1.00372e-01,6.41683e-02,-1.97786e-02,-5.78075e-03,-1.71841e-03,-9.72609e-09,-7.88789e-05,-5.35716e-03,-1.13994e-03,8.02121e-02,1.66033e-01,2.93025e-01,2.03895e-01,2.73186e-01,1.21211e-01,3.19515e-02,5.01589e-02,8.65896e-02,5.88578e-02,6.11789e-02,1.27089e-02,2.71745e-02,5.06333e-02,3.56524e-02,6.09807e-02,1.25743e-01,9.12508e-02,8.46108e-02,1.22579e-01,5.88585e-02,1.86446e-03,-5.06832e-03,-3.85078e-04,0.00000e+00,-1.63454e-04,-4.84473e-03,-6.86885e-03,3.38506e-02,1.47265e-01,1.87242e-01,1.25419e-01,3.01065e-01,2.38801e-01,8.22895e-02,1.40202e-01,6.59768e-02,2.94576e-02,-7.60785e-03,2.48147e-02,8.76559e-02,1.11469e-01,7.28170e-02,5.48937e-02,8.78989e-02,9.97315e-02,1.87797e-01,9.88693e-02,3.43440e-02,1.41893e-02,-7.99685e-04,2.61391e-04,-2.25434e-07,-1.02814e-04,-5.64612e-03,-3.05931e-03,4.15552e-02,3.61150e-02,1.15564e-01,1.78676e-01,2.33291e-01,1.91039e-01,1.06834e-01,1.48833e-01,1.09493e-01,7.90865e-02,6.38429e-02,4.20945e-02,4.35510e-02,5.54995e-02,2.09631e-02,6.54663e-02,1.48436e-01,1.83175e-01,1.67628e-01,6.29231e-02,3.11327e-02,2.18185e-02,3.54036e-04,-2.89988e-07,-2.18389e-07,-1.04122e-06,-3.45925e-03,-4.20273e-03,2.97790e-02,-6.36345e-03,-3.52019e-02,-2.74937e-03,1.44479e-01,1.89096e-01,6.32384e-02,1.06067e-01,1.69501e-01,1.90620e-01,1.25971e-01,4.21034e-02,7.09382e-02,3.95988e-02,4.15995e-02,8.26904e-02,9.51280e-02,7.99129e-02,6.94429e-02,5.21263e-02,3.42534e-02,2.00865e-02,3.74936e-03,-5.35362e-07,0.00000e+00,0.00000e+00,-3.34811e-04,3.73960e-03,2.13453e-02,1.43039e-02,-3.17231e-02,-3.81793e-02,7.39144e-02,1.75598e-01,2.12878e-01,1.75720e-01,1.44714e-01,3.14790e-02,2.95395e-02,9.46833e-03,6.23871e-02,-2.69208e-02,-5.18843e-02,3.09670e-03,3.01469e-02,-1.08401e-02,8.42512e-03,4.35493e-02,2.67188e-02,1.19373e-02,2.10778e-03,0.00000e+00,0.00000e+00,0.00000e+00,-2.13324e-04,6.79894e-03,-4.47698e-03,-6.93358e-03,-2.04061e-02,5.59048e-03,3.29963e-02,1.41600e-01,1.31651e-01,1.42883e-01,1.78895e-01,1.89364e-01,1.89981e-01,1.36411e-01,5.36146e-02,2.18806e-02,4.24776e-02,2.07643e-02,2.70220e-03,-1.19654e-03,3.93398e-02,3.78237e-02,1.80273e-02,-1.56085e-03,-3.02742e-05,0.00000e+00,0.00000e+00,0.00000e+00,-3.79262e-06,6.85893e-03,6.52436e-03,-9.09565e-03,-1.31604e-02,-1.21143e-02,1.75294e-03,4.89133e-02,6.17192e-02,9.44462e-02,1.07874e-01,1.24001e-01,7.91169e-02,9.54992e-02,5.75158e-02,2.80691e-02,2.74819e-04,5.27479e-03,1.74353e-03,2.39817e-02,3.83688e-02,3.17027e-02,1.79680e-02,-1.31463e-06,-6.81098e-07,0.00000e+00,0.00000e+00,0.00000e+00,0.00000e+00,0.00000e+00,-5.80426e-04,-2.13862e-03,-6.28272e-03,-1.23098e-02,-1.76617e-02,-2.00596e-02,-1.59323e-02,1.93971e-02,3.31558e-02,6.46902e-03,-7.31681e-03,4.19700e-03,-7.78283e-03,-2.92564e-02,-2.49084e-02,9.06947e-04,1.06325e-02,1.07460e-02,4.42614e-03,-3.55394e-05,-2.66213e-06,-3.75801e-09,0.00000e+00,0.00000e+00,0.00000e+00,0.00000e+00,0.00000e+00,0.00000e+00,-4.48523e-07,-8.29000e-06,-1.15521e-05,-1.68916e-04,-3.69337e-04,-2.12768e-04,2.40734e-03,5.55756e-03,4.54648e-03,-7.16813e-04,-5.22321e-03,-3.87028e-03,-2.64900e-03,-2.74234e-03,-2.23380e-03,-2.35487e-03,-1.47427e-03,-6.11064e-04,-1.09481e-03,-2.34488e-04,0.00000e+00,0.00000e+00,0.00000e+00,0.00000e+00,
0.00000e+00,0.00000e+00,0.00000e+00,0.00000e+00,0.00000e+00,0.00000e+00,0.00000e+00,0.00000e+00,0.00000e+00,0.00000e+00,0.00000e+00,0.00000e+00,2.19122e-03,4.70685e-03,-1.01461e-04,-4.22756e-06,0.00000e+00,0.00000e+00,0.00000e+00,0.00000e+00,0.00000e+00,0.00000e+00,0.00000e+00,0.00000e+00,0.00000e+00,0.00000e+00,0.00000e+00,0.00000e+00,0.00000e+00,0.00000e+00,0.00000e+00,0.00000e+00,1.01012e-05,6.92725e-05,7.38124e-03,1.78029e-02,1.57065e-02,7.55928e-03,1.60384e-02,2.66935e-02,3.47051e-02,2.94840e-02,1.37110e-02,1.12351e-02,3.02934e-03,5.13249e-03,1.00943e-02,8.97437e-03,5.76131e-03,7.90859e-03,7.93446e-03,3.23526e-03,0.00000e+00,0.00000e+00,0.00000e+00,0.00000e+00,0.00000e+00,0.00000e+00,8.99049e-07,-5.23541e-06,9.07074e-04,3.35813e-04,1.11563e-02,2.93240e-02,4.29316e-02,5.42984e-02,9.62809e-02,1.08929e-01,1.57098e-01,1.53999e-01,1.39510e-01,1.13521e-01,1.28219e-01,1.14135e-01,9.17351e-02,8.19233e-02,6.59627e-02,5.21440e-02,3.47821e-02,1.49327e-02,-4.45078e-03,-5.57273e-03,0.00000e+00,0.00000e+00,0.00000e+00,0.00000e+00,1.96349e-06,2.24428e-04,1.74864e-03,3.27312e-03,1.99538e-02,3.45151e-02,5.36171e-02,7.62370e-02,1.05908e-01,1.14846e-01,1.42187e-01,1.89079e-01,1.89188e-01,1.97899e-01,2.23243e-01,2.55298e-01,2.38746e-01,2.16973e-01,1.84307e-01,1.71094e-01,1.22808e-01,8.44115e-02,4.51697e-02,-7.77251e-03,2.91790e-03,0.00000e+00,0.00000e+00,-1.46517e-08,-4.77500e-06,-4.32934e-04,1.72421e-03,-9.61992e-03,-1.53760e-03,1.26155e-02,4.32838e-02,4.23663e-02,5.55163e-02,-1.46776e-02,-9.32541e-03,1.58418e-02,-2.35960e-03,-1.55329e-02,9.47684e-02,1.81299e-01,2.04929e-01,2.11387e-01,2.17594e-01,2.12911e-01,1.78019e-01,1.12007e-01,2.10794e-02,-4.06598e-03,-1.22361e-03,2.28971e-03,0.00000e+00,0.00000e+00,1.53149e-05,-4.50737e-03,-2.40525e-03,-4.26506e-02,-3.57278e-02,-3.91151e-02,2.10843e-02,1.99372e-02,1.09091e-02,-1.34949e-01,-1.15826e-01,-1.52606e-01,-1.04888e-01,-1.18534e-01,-6.33839e-02,3.67128e-02,1.13670e-01,1.42219e-01,1.28610e-01,9.89545e-02,8.40617e-02,7.16003e-02,2.21663e-02,-1.62691e-02,4.44492e-03,3.41092e-03,0.00000e+00,-4.50898e-08,-3.96356e-04,-9.14321e-03,-9.81112e-03,-5.10975e-02,-8.10128e-02,-3.27668e-02,-1.00245e-02,-2.55171e-02,-1.22669e-01,-1.45015e-01,-1.39764e-01,-2.12533e-01,-1.78672e-01,-1.47779e-01,-1.54824e-01,-1.43717e-01,-1.38273e-01,-8.46855e-02,-4.12672e-02,-4.44903e-02,-4.85853e-02,-4.26807e-02,-2.32120e-02,-1.49842e-02,-9.09190e-03,-1.14825e-03,0.00000e+00,-2.57463e-05,-1.45336e-03,-1.52515e-02,-1.79061e-02,-6.22618e-02,-9.69576e-02,-2.35636e-02,-1.28157e-02,-7.94276e-02,-1.57272e-01,-1.46053e-01,-1.79281e-01,-1.97722e-01,-1.60671e-01,-1.26625e-01,-2.37383e-01,-2.41356e-01,-2.84920e-01,-2.75833e-01,-2.15837e-01,-1.99792e-01,-1.97754e-01,-1.38603e-01,-5.01725e-02,-4.05099e-02,-9.57070e-03,-1.85115e-03,0.00000e+00,-7.51396e-05,-1.86618e-03,-1.52198e-02,-2.68877e-02,-8.19527e-02,-1.07248e-01,-6.40430e-02,-4.88050e-02,-9.49371e-02,-1.51310e-01,-1.61655e-01,-1.39327e-01,-2.06813e-01,-2.18155e-01,-2.47565e-01,-3.28183e-01,-3.64554e-01,-4.68542e-01,-4.44620e-01,-3.43182e-01,-2.99692e-01,-2.79373e-01,-2.10827e-01,-1.25624e-01,-6.77405e-02,-2.60564e-02,-1.91321e-03,-3.91618e-09,-3.97486e-05,-2.43276e-03,-1.69013e-02,-3.30728e-02,-1.03231e-01,-9.46883e-02,-2.25109e-02,-3.12744e-02,-1.11412e-01,-1.38805e-01,-1.04569e-01,-1.36162e-01,-1.96881e-01,-1.57621e-01,-2.71279e-01,-4.19028e-01,-4.96361e-01,-4.93896e-01,-4.59036e-01,-3.53266e-01,-2.94962e-01,-2.97785e-01,-2.01084e-01,-1.44028e-01,-1.07858e-01,-3.86835e-02,-2.91265e-03,-2.18244e-08,-1.31143e-05,-5.48691e-03,-1.88436e-02,-4.44248e-02,-8.14484e-02,-6.00483e-02,2.29234e-02,6.93756e-03,-8.48540e-02,-4.29538e-02,-2.93371e-02,-1.02443e-01,-5.89618e-02,-1.71168e-01,-3.47376e-01,-4.18459e-01,-4.14367e-01,-4.07331e-01,-3.99488e-01,-2.77755e-01,-1.93138e-01,-1.45808e-01,-1.02958e-01,-1.07386e-01,-1.12803e-01,-3.67261e-02,-5.74762e-03,-1.59613e-06,-2.61112e-05,-5.85017e-04,-2.13770e-02,-3.95429e-02,-3.08619e-02,3.46236e-03,8.62422e-02,4.70602e-02,1.92754e-02,6.25916e-02,3.15324e-02,4.12092e-02,4.34451e-03,-2.26835e-01,-4.02455e-01,-2.98311e-01,-2.77201e-01,-2.39722e-01,-2.29244e-01,-1.38765e-01,-9.55701e-03,7.00361e-02,1.16629e-01,3.12660e-03,-7.47327e-02,-3.48963e-02,-3.02556e-03,-5.21872e-09,-5.47672e-05,-5.70939e-04,-1.69879e-02,-4.48919e-02,-9.29975e-03,7.58347e-02,1.45650e-01,8.81247e-02,1.09134e-01,8.81769e-02,1.64047e-01,1.15927e-01,2.50758e-03,-2.20637e-01,-2.35939e-01,-1.06970e-01,-1.15221e-01,-1.44973e-01,-1.57535e-01,-2.92908e-02,1.26334e-01,2.40524e-01,2.95182e-01,1.30420e-01,-3.89205e-02,-2.90933e-02,-1.97027e-03,-8.66581e-07,-7.61373e-05,-3.82279e-04,-1.39817e-02,-4.29111e-02,2.14393e-02,1.46426e-01,1.19538e-01,9.38322e-02,1.60450e-01,1.96065e-01,1.59912e-01,9.55943e-02,-6.03825e-02,-1.62616e-01,-1.50055e-02,1.08050e-02,-1.15375e-01,-1.48090e-01,-3.56327e-02,1.21692e-02,1.94601e-01,3.07278e-01,3.72764e-01,1.95501e-01,-4.19646e-02,-3.08977e-02,-6.23664e-03,-2.86860e-05,-8.08288e-06,-3.86789e-05,-6.79023e-03,-6.38074e-02,-6.14516e-04,1.26441e-01,7.81842e-02,1.07821e-01,1.99118e-01,2.60259e-01,2.84122e-01,9.51738e-02,-9.06321e-02,-4.83267e-02,6.48200e-02,4.18402e-02,-1.52689e-01,-1.32709e-01,-5.54024e-02,2.66220e-02,1.71872e-01,2.84622e-01,2.98986e-01,1.57445e-01,-1.34226e-02,-3.19273e-02,-6.65936e-04,-9.56765e-06,-9.28550e-06,-1.02678e-04,-1.94762e-02,-1.01781e-01,-3.41049e-02,9.60419e-02,1.30689e-01,1.75144e-01,2.18311e-01,3.43803e-01,3.40134e-01,1.15899e-01,1.85108e-02,1.32902e-01,1.26902e-01,8.17899e-03,-4.83294e-02,-7.95817e-02,-4.08811e-04,1.06941e-01,1.59639e-01,1.65138e-01,1.74321e-01,1.05818e-01,-1.24177e-02,-4.35198e-02,-3.78439e-03,-9.99370e-07,-1.86956e-05,-9.77413e-04,-3.40127e-02,-1.32992e-01,-6.35723e-02,8.58167e-02,1.82698e-01,2.06839e-01,2.59114e-01,3.86806e-01,4.18502e-01,8.79809e-02,6.86524e-02,1.63350e-01,8.66443e-02,-2.74869e-02,-7.48858e-02,1.71194e-02,8.25852e-02,5.04009e-02,5.54329e-02,6.67256e-02,8.60222e-02,5.18393e-02,-4.20152e-02,-4.11846e-02,-5.96709e-03,0.00000e+00,-1.64045e-05,-1.97958e-03,-4.55151e-02,-1.60048e-01,-1.09238e-01,-8.86071e-03,1.43251e-01,2.06348e-01,2.41647e-01,4.16605e-01,4.26952e-01,1.73883e-01,1.04176e-01,1.01360e-01,6.55312e-03,-6.64611e-02,2.40182e-02,1.16724e-01,1.18179e-01,3.85061e-02,3.97210e-02,8.12287e-02,4.80033e-02,-1.43176e-02,-4.78008e-02,-3.44341e-02,-2.88261e-03,-1.13935e-06,-3.41419e-06,-1.82745e-03,-4.85307e-02,-1.57768e-01,-1.90354e-01,-7.71524e-02,9.31804e-02,1.69570e-01,2.28570e-01,3.55870e-01,3.93990e-01,3.80713e-01,1.90269e-01,7.11439e-02,5.56855e-02,1.46427e-01,1.87815e-01,1.80255e-01,4.22769e-02,2.86656e-02,7.43722e-02,4.86595e-02,8.06135e-04,-5.59896e-02,-2.37136e-02,-1.28095e-02,-3.52435e-03,-3.82731e-08,-7.20380e-05,-1.57114e-03,-3.83468e-02,-1.22407e-01,-2.00596e-01,-1.34398e-01,4.81306e-03,6.15471e-02,1.97007e-01,3.39188e-01,4.96603e-01,4.18507e-01,2.28598e-01,1.63922e-01,1.92860e-01,2.05971e-01,1.83461e-01,1.38147e-01,1.11054e-01,7.91883e-02,6.11757e-02,8.86219e-03,-4.70559e-02,-5.08746e-02,-3.74622e-02,-1.59916e-02,-1.59531e-03,0.00000e+00,-1.88859e-04,-1.53189e-03,-2.72624e-02,-9.59061e-02,-1.92544e-01,-1.99132e-01,-7.45603e-02,-3.93416e-02,1.15335e-01,2.35188e-01,3.02823e-01,3.89044e-01,3.94167e-01,3.83131e-01,2.74317e-01,1.99003e-01,1.67871e-01,1.99553e-01,1.08407e-01,6.02104e-02,-3.41160e-02,-8.64269e-02,-5.64980e-02,-3.57826e-02,-1.65573e-02,-2.72006e-03,-1.39917e-06,-5.32627e-07,-2.61684e-05,-1.15133e-03,-1.70606e-02,-7.30121e-02,-1.41093e-01,-2.36116e-01,-1.65029e-01,-9.67883e-02,1.59486e-02,1.51798e-01,2.37932e-01,3.53423e-01,4.38130e-01,4.12615e-01,2.76131e-01,2.09208e-01,2.28810e-01,1.67993e-01,4.45487e-02,-2.79380e-02,-7.06959e-02,-5.20118e-02,-2.92480e-02,-1.53665e-02,-7.15379e-03,-4.31540e-04,-1.38672e-08,-5.15982e-07,-1.66702e-07,-2.94708e-04,-6.26953e-03,-3.47138e-02,-8.45771e-02,-1.70888e-01,-2.15035e-01,-2.38375e-01,-1.84967e-01,-9.20994e-02,-5.40593e-02,5.89946e-02,7.84129e-02,1.23179e-02,1.90843e-02,-5.14835e-03,-4.32491e-02,-8.92135e-02,-7.08419e-02,-5.57522e-02,-4.19016e-02,-5.71815e-02,-3.64785e-02,-1.18174e-02,-2.95506e-03,-9.48081e-05,-2.56009e-08,0.00000e+00,0.00000e+00,-2.08748e-05,-1.94360e-03,-8.37585e-03,-2.64481e-02,-6.61483e-02,-1.33593e-01,-2.02323e-01,-2.57404e-01,-3.02833e-01,-3.06111e-01,-2.33004e-01,-1.72925e-01,-1.48959e-01,-1.15857e-01,-1.48990e-01,-1.30547e-01,-8.29964e-02,-5.56711e-02,-4.64906e-02,-4.56901e-02,-3.07554e-02,-1.68817e-02,-7.92370e-03,-1.63854e-03,-3.64507e-05,0.00000e+00,0.00000e+00,0.00000e+00,-1.26676e-06,-2.56679e-04,-1.04199e-03,-6.29987e-03,-1.72290e-02,-3.63804e-02,-7.52776e-02,-1.16638e-01,-1.49358e-01,-1.77261e-01,-1.75535e-01,-1.87450e-01,-1.69357e-01,-1.40846e-01,-1.12548e-01,-8.09104e-02,-5.62142e-02,-4.76992e-02,-3.02400e-02,-2.80104e-02,-1.72838e-02,-6.87858e-03,-1.89338e-03,-2.24458e-04,-1.59476e-05,0.00000e+00,0.00000e+00,0.00000e+00,-8.03237e-08,-2.85535e-05,-5.79598e-04,-1.27391e-03,-3.70944e-03,-6.28307e-03,-1.93112e-02,-3.64858e-02,-4.04881e-02,-3.94774e-02,-4.04220e-02,-4.85265e-02,-4.46545e-02,-4.32285e-02,-3.87899e-02,-2.71137e-02,-2.22354e-02,-1.76996e-02,-1.20958e-02,-8.60529e-03,-4.54061e-03,-1.43195e-03,-5.12230e-04,-1.04808e-05,-1.19655e-05,0.00000e+00,0.00000e+00,0.00000e+00,0.00000e+00,0.00000e+00,-1.32479e-05,-1.48845e-04,-5.99443e-04,-8.99462e-04,-2.72510e-03,-7.50897e-03,-9.52355e-03,-8.21035e-03,-6.01712e-03,-7.01003e-03,-6.36792e-03,-5.65798e-03,-5.14163e-03,-4.45718e-03,-4.27737e-03,-2.89033e-03,-2.30849e-03,-1.47378e-03,-2.06051e-04,-1.95139e-05,-2.36205e-07,-1.11657e-10,0.00000e+00,0.00000e+00,0.00000e+00,0.00000e+00,0.00000e+00,0.00000e+00,-1.04208e-08,-1.58250e-07,-6.53095e-07,-1.87135e-05,-3.46082e-05,-9.22742e-06,-2.06862e-05,-2.80037e-05,-2.37128e-04,-2.23276e-04,-4.45103e-04,-5.93107e-04,-4.44858e-04,-4.05028e-04,-2.24890e-04,-1.38892e-04,-1.99817e-04,-6.52222e-05,-1.30735e-04,-6.61063e-06,0.00000e+00,0.00000e+00,0.00000e+00,0.00000e+00,
0.00000e+00,0.00000e+00,0.00000e+00,0.00000e+00,0.00000e+00,0.00000e+00,0.00000e+00,0.00000e+00,0.00000e+00,0.00000e+00,0.00000e+00,0.00000e+00,-3.83117e-06,-1.07525e-05,-2.63016e-06,-1.09590e-07,0.00000e+00,0.00000e+00,0.00000e+00,0.00000e+00,0.00000e+00,0.00000e+00,0.00000e+00,0.00000e+00,0.00000e+00,0.00000e+00,0.00000e+00,0.00000e+00,0.00000e+00,0.00000e+00,0.00000e+00,0.00000e+00,-5.30023e-09,-2.14818e-07,-1.73324e-05,-7.79552e-05,-3.90617e-04,-3.54987e-04,-3.59405e-04,-1.52041e-03,-4.15717e-03,-9.66294e-04,-1.58739e-04,-1.47744e-03,-3.93216e-03,-1.83454e-03,-1.63781e-05,-7.19102e-05,-4.56608e-05,-3.50187e-06,-6.77402e-06,-9.29988e-06,0.00000e+00,0.00000e+00,0.00000e+00,0.00000e+00,0.00000e+00,0.00000e+00,-7.86366e-13,-7.94724e-06,-3.49225e-06,-8.77282e-07,-3.50105e-04,-6.11721e-04,-1.22820e-03,-2.70639e-03,-6.68147e-03,-8.89259e-03,-9.78520e-03,-5.19136e-03,-7.14521e-03,-9.21681e-03,-7.99073e-03,-5.31951e-03,-2.22259e-03,-1.80995e-03,-6.82955e-04,-3.11494e-04,-2.56207e-04,-2.77116e-05,-1.34755e-05,-6.73953e-09,0.00000e+00,0.00000e+00,0.00000e+00,0.00000e+00,-1.74048e-12,-2.33111e-05,-8.55433e-05,-5.39070e-04,-1.08998e-03,-3.65751e-03,-1.02435e-02,-1.44344e-02,-2.64887e-02,-3.62673e-02,-3.65701e-02,-3.82070e-02,-4.15100e-02,-4.41178e-02,-4.33596e-02,-3.68345e-02,-2.68766e-02,-1.53065e-02,-1.28392e-02,-7.16987e-03,-3.02737e-03,-8.93873e-04,-6.10490e-04,-1.63998e-06,-3.55360e-08,0.00000e+00,0.00000e+00,-2.35890e-09,-6.63941e-09,-9.64662e-06,-5.59767e-04,-3.94530e-03,-6.37790e-03,-1.83527e-02,-3.25969e-02,-5.10323e-02,-7.52889e-02,-9.83319e-02,-1.25856e-01,-1.44906e-01,-1.69835e-01,-1.70043e-01,-1.60882e-01,-1.35339e-01,-1.06334e-01,-7.81973e-02,-6.17094e-02,-3.96921e-02,-2.72349e-02,-1.13003e-02,-3.77571e-03,-6.25270e-04,-1.63839e-04,-5.92869e-06,0.00000e+00,0.00000e+00,-3.33970e-06,-2.48471e-04,6.66517e-05,1.86008e-02,1.74882e-02,4.64577e-03,2.09249e-03,-2.75274e-02,-8.64256e-02,-1.47710e-01,-2.01152e-01,-2.69912e-01,-3.19167e-01,-3.17658e-01,-3.10236e-01,-2.90310e-01,-2.45610e-01,-2.16056e-01,-1.78208e-01,-1.22979e-01,-8.34845e-02,-4.69749e-02,-1.79248e-02,-4.90814e-03,-1.68788e-03,-3.48908e-05,0.00000e+00,-7.52828e-07,6.67409e-03,7.63354e-03,3.13535e-03,3.99851e-02,8.10391e-02,9.14985e-02,1.35439e-01,1.28579e-01,7.48526e-02,7.41309e-02,3.12888e-03,-1.18346e-01,-1.27977e-01,-9.47671e-02,-6.59803e-02,-9.26505e-02,-1.40837e-01,-1.13304e-01,-9.51951e-02,-8.61279e-02,-1.03647e-01,-8.09450e-02,-4.97611e-02,-2.30872e-02,-7.79961e-03,-5.27977e-04,0.00000e+00,1.44880e-03,1.67278e-02,3.78593e-02,2.67502e-02,6.24709e-02,1.46912e-01,1.83299e-01,2.16515e-01,2.45721e-01,2.35598e-01,2.36182e-01,1.81249e-01,9.81722e-02,2.10850e-02,6.34011e-02,1.43790e-01,1.80861e-01,1.74344e-01,1.36890e-01,1.05613e-01,2.36812e-02,-3.28255e-02,-4.89239e-02,-5.97223e-02,-3.40408e-02,-8.77950e-03,-2.82481e-04,0.00000e+00,1.35174e-02,3.83880e-02,9.15985e-02,1.09979e-01,1.16133e-01,1.54134e-01,2.36001e-01,2.16884e-01,1.78267e-01,1.62382e-01,2.45882e-01,2.60186e-01,1.51499e-01,2.05771e-01,2.57294e-01,2.54784e-01,2.56655e-01,2.75741e-01,1.99956e-01,1.63907e-01,3.13833e-02,2.09957e-02,-2.25310e-02,-7.65311e-02,-4.90807e-02,-1.05937e-02,-2.54490e-03,2.37780e-04,1.68982e-02,4.34524e-02,1.48768e-01,1.84275e-01,1.55969e-01,1.27175e-01,7.31927e-02,4.44646e-02,8.10351e-03,1.92831e-02,1.21190e-01,1.74940e-01,1.79768e-01,2.89949e-01,3.12194e-01,3.33794e-01,3.11304e-01,2.31932e-01,2.78799e-01,2.03811e-01,1.50044e-01,5.97189e-02,-4.43819e-02,-6.85289e-02,-3.02656e-02,-3.48639e-03,7.11988e-03,5.73814e-04,1.68306e-02,6.15329e-02,1.46024e-01,2.07929e-01,1.65251e-01,4.16200e-02,2.08652e-02,-2.21679e-02,8.07010e-03,4.66831e-02,1.18474e-03,6.82033e-03,1.22241e-01,2.38548e-01,3.88999e-01,4.80271e-01,3.43228e-01,2.52084e-01,2.73496e-01,2.66757e-01,2.09028e-01,9.49937e-02,-5.70282e-02,-6.40281e-02,-2.60047e-02,-2.82012e-03,1.71913e-03,6.71838e-04,2.35508e-02,1.00579e-01,1.58171e-01,2.32496e-01,1.37393e-01,6.00911e-02,9.11711e-02,3.23472e-03,1.08923e-01,1.15578e-01,5.09018e-02,-4.98113e-02,4.42064e-02,1.87993e-01,3.59554e-01,4.56854e-01,3.30101e-01,2.96730e-01,1.87437e-01,2.35849e-01,1.80872e-01,8.08807e-02,-5.66700e-02,-6.26513e-02,-2.82206e-02,-8.45660e-03,2.96007e-04,7.11609e-04,2.69916e-02,1.06351e-01,1.79495e-01,2.29392e-01,1.39443e-01,4.74940e-03,8.96573e-02,1.28553e-01,9.32772e-03,-6.81914e-02,-1.93507e-01,-3.57775e-01,-3.91936e-01,-1.24352e-01,2.21100e-01,3.41194e-01,2.52283e-01,1.96204e-01,7.29805e-02,1.31478e-01,4.83737e-02,3.69506e-02,-4.75120e-02,-5.14747e-02,-1.97387e-03,2.81653e-03,2.54079e-03,-3.41896e-06,1.51123e-02,6.05391e-02,1.29525e-01,1.45835e-01,5.96923e-02,-8.62425e-03,1.30776e-02,-3.69588e-02,-1.39163e-01,-2.03379e-01,-4.51980e-01,-6.78373e-01,-6.63645e-01,-2.88487e-01,4.38719e-02,1.38301e-01,8.98525e-02,1.29813e-01,8.51659e-02,1.12966e-01,6.01189e-02,2.36341e-02,-6.15737e-03,-9.46574e-03,9.18330e-03,1.07678e-03,-7.78131e-04,-9.25384e-06,7.21601e-03,2.87062e-02,5.64554e-02,4.79994e-02,1.55332e-02,-4.44482e-02,-5.21004e-02,-1.52245e-01,-2.40505e-01,-3.44367e-01,-5.47157e-01,-6.84036e-01,-5.83666e-01,-2.24245e-01,-3.30082e-02,4.48158e-02,2.15403e-01,3.38641e-01,3.49867e-01,2.11471e-01,1.52874e-01,1.49242e-01,7.13940e-02,2.94710e-03,5.47758e-03,-1.04006e-03,-9.56557e-06,3.38225e-05,-7.88613e-05,1.02468e-02,2.38655e-02,1.04330e-02,-7.76202e-02,-8.58114e-02,-1.33712e-01,-2.38904e-01,-2.79965e-01,-3.41364e-01,-4.87304e-01,-5.03897e-01,-3.31690e-01,-1.17282e-01,4.79857e-02,5.34254e-02,3.49654e-01,4.13470e-01,3.23792e-01,3.16714e-01,2.78251e-01,2.09659e-01,5.81099e-02,-9.69565e-03,-1.18378e-02,-1.18830e-03,-1.97829e-04,2.10586e-04,-1.40737e-03,1.41484e-03,-5.56338e-03,-1.47710e-02,-1.05760e-01,-1.14104e-01,-1.04132e-01,-2.06889e-01,-2.03067e-01,-2.97758e-01,-3.75044e-01,-2.40462e-01,-1.37945e-01,-1.97553e-02,1.03000e-01,1.02435e-01,2.20534e-01,2.08630e-01,2.39623e-01,2.40002e-01,1.95526e-01,7.37261e-02,-9.54675e-03,-1.95869e-02,-1.70399e-02,-1.70134e-03,-1.28831e-04,0.00000e+00,-9.82346e-05,-1.26580e-03,-3.14482e-02,-2.98612e-02,-1.02129e-01,-1.71818e-01,-2.02129e-01,-2.04420e-01,-1.92874e-01,-3.07920e-01,-2.34779e-01,-9.64518e-02,4.63102e-02,9.76888e-02,2.47589e-02,-2.38523e-02,1.48212e-02,6.93710e-02,4.10808e-02,5.43455e-02,2.20272e-02,-5.62621e-03,-3.82655e-02,-1.90398e-02,3.49932e-03,4.69830e-03,-3.27153e-04,1.51983e-03,-2.43098e-06,1.66974e-03,-1.93945e-02,-3.42715e-02,-1.22763e-01,-2.37394e-01,-2.51215e-01,-2.73769e-01,-2.94883e-01,-3.28256e-01,-2.09743e-01,-1.09585e-01,7.40703e-02,4.98187e-02,-4.78120e-02,-1.54970e-01,-1.14475e-01,-7.79882e-02,-5.86387e-02,-8.98384e-02,-1.26473e-01,-1.21788e-01,-1.23471e-01,-7.48320e-02,-7.46189e-03,4.12066e-03,-8.76380e-06,-8.81275e-08,6.14567e-04,-8.90724e-04,-2.10379e-02,-3.16257e-02,-1.13425e-01,-2.08336e-01,-2.72068e-01,-2.74659e-01,-2.83634e-01,-2.68706e-01,-2.00959e-01,-4.39291e-02,5.31712e-02,9.68679e-02,-8.37847e-02,-2.23667e-01,-2.25034e-01,-2.32281e-01,-1.71780e-01,-2.48347e-01,-2.92138e-01,-2.27834e-01,-1.53898e-01,-4.91524e-02,-1.02947e-02,-1.83031e-03,-2.06294e-07,0.00000e+00,3.34027e-05,-5.92553e-03,-3.47937e-02,-7.40509e-02,-1.21072e-01,-2.10445e-01,-2.57545e-01,-2.29421e-01,-2.43237e-01,-2.06955e-01,-1.46383e-01,-7.26520e-03,3.93050e-02,2.73375e-02,-1.17730e-01,-2.28084e-01,-2.50345e-01,-3.23183e-01,-2.88080e-01,-3.31162e-01,-3.00328e-01,-2.21346e-01,-1.19387e-01,-2.32835e-02,-8.04069e-03,-1.14090e-03,-1.28946e-05,-1.67631e-06,-3.89845e-05,-1.22156e-02,-4.29039e-02,-7.61254e-02,-1.06376e-01,-1.54725e-01,-1.89451e-01,-1.57122e-01,-1.81230e-01,-1.39004e-01,-8.39303e-02,-5.62258e-02,-6.97965e-02,-1.49705e-01,-1.27353e-01,-1.52817e-01,-2.24018e-01,-2.60314e-01,-2.94008e-01,-2.89589e-01,-2.48871e-01,-1.81520e-01,-9.40002e-02,-2.27842e-02,-5.85644e-03,-3.55872e-04,-8.53576e-10,-1.62393e-06,-2.39671e-06,-8.19961e-03,-2.87263e-02,-4.13455e-02,-2.02038e-02,-2.67334e-02,1.33520e-03,-3.53468e-02,-9.28173e-02,-5.78651e-02,-1.15094e-01,-8.87379e-02,-1.72772e-01,-1.20819e-01,-5.08155e-02,-1.00629e-01,-1.37919e-01,-1.87909e-01,-2.28058e-01,-2.42423e-01,-1.97703e-01,-1.25250e-01,-7.38690e-02,-2.30075e-02,-9.58076e-03,-6.04026e-05,-1.57583e-09,0.00000e+00,0.00000e+00,-7.25076e-03,-1.67000e-02,1.90692e-02,6.91146e-02,1.51466e-01,1.80946e-01,1.82905e-02,1.66017e-02,2.51057e-02,-4.43901e-02,-6.41574e-02,-8.56589e-02,-2.35165e-02,3.32672e-02,-2.99954e-02,-6.96816e-02,-1.21846e-01,-1.98040e-01,-1.99425e-01,-1.63859e-01,-1.01825e-01,-6.92174e-02,-2.18133e-02,-1.10549e-02,-3.43592e-05,0.00000e+00,0.00000e+00,0.00000e+00,-3.75407e-03,4.86347e-03,5.94297e-02,1.45359e-01,2.21074e-01,2.39836e-01,1.82580e-01,1.53592e-01,1.80204e-01,1.42241e-01,1.38851e-01,1.41050e-01,9.65374e-02,1.20649e-01,6.32841e-02,3.68197e-02,-1.79360e-02,-7.48846e-02,-1.07320e-01,-9.65200e-02,-7.25820e-02,-6.37570e-02,-2.28458e-02,-1.00298e-02,-7.52442e-07,0.00000e+00,0.00000e+00,0.00000e+00,-1.17747e-03,8.16490e-03,4.91834e-02,8.26090e-02,1.19189e-01,1.62129e-01,2.26843e-01,2.65472e-01,2.21856e-01,3.07559e-01,2.75805e-01,2.32822e-01,2.38029e-01,2.17824e-01,1.67309e-01,1.52394e-01,1.16180e-01,1.59468e-02,-3.96916e-02,-3.90385e-02,-1.28499e-02,-1.97873e-02,-2.30210e-03,-5.80950e-04,-6.48832e-07,0.00000e+00,0.00000e+00,0.00000e+00,0.00000e+00,0.00000e+00,-1.98373e-03,-3.39686e-03,4.03098e-03,2.69432e-02,6.90116e-02,1.08532e-01,1.08884e-01,1.29638e-01,1.06336e-01,1.70064e-01,1.98333e-01,1.95216e-01,1.38443e-01,1.25191e-01,9.90425e-02,4.68345e-02,-4.58925e-03,-2.23131e-03,1.48861e-02,-1.21291e-03,-1.05204e-05,1.02641e-06,0.00000e+00,0.00000e+00,0.00000e+00,0.00000e+00,0.00000e+00,0.00000e+00,1.16052e-05,7.11859e-05,-3.48190e-05,2.57934e-04,4.57180e-03,6.46341e-03,6.32969e-03,-1.30297e-03,1.48879e-02,3.34912e-02,4.39700e-02,4.63896e-02,3.93294e-02,4.14828e-02,4.48720e-02,3.06290e-02,1.15381e-02,3.42513e-03,8.71601e-03,2.99476e-03,0.00000e+00,0.00000e+00,0.00000e+00,0.00000e+00,
