// Neural Network File Format by Kyle Julian, Stanford 2016
1,784,10,784,
784,10,
0,
0,0,0,0,0,0,0,0,0,0,0,0,0,0,0,0,0,0,0,0,0,0,0,0,0,0,0,0,0,0,0,0,0,0,0,0,0,0,0,0,0,0,0,0,0,0,0,0,0,0,0,0,0,0,0,0,0,0,0,0,0,0,0,0,0,0,0,0,0,0,0,0,0,0,0,0,0,0,0,0,0,0,0,0,0,0,0,0,0,0,0,0,0,0,0,0,0,0,0,0,0,0,0,0,0,0,0,0,0,0,0,0,0,0,0,0,0,0,0,0,0,0,0,0,0,0,0,0,0,0,0,0,0,0,0,0,0,0,0,0,0,0,0,0,0,0,0,0,0,0,0,0,0,0,0,0,0,0,0,0,0,0,0,0,0,0,0,0,0,0,0,0,0,0,0,0,0,0,0,0,0,0,0,0,0,0,0,0,0,0,0,0,0,0,0,0,0,0,0,0,0,0,0,0,0,0,0,0,0,0,0,0,0,0,0,0,0,0,0,0,0,0,0,0,0,0,0,0,0,0,0,0,0,0,0,0,0,0,0,0,0,0,0,0,0,0,0,0,0,0,0,0,0,0,0,0,0,0,0,0,0,0,0,0,0,0,0,0,0,0,0,0,0,0,0,0,0,0,0,0,0,0,0,0,0,0,0,0,0,0,0,0,0,0,0,0,0,0,0,0,0,0,0,0,0,0,0,0,0,0,0,0,0,0,0,0,0,0,0,0,0,0,0,0,0,0,0,0,0,0,0,0,0,0,0,0,0,0,0,0,0,0,0,0,0,0,0,0,0,0,0,0,0,0,0,0,0,0,0,0,0,0,0,0,0,0,0,0,0,0,0,0,0,0,0,0,0,0,0,0,0,0,0,0,0,0,0,0,0,0,0,0,0,0,0,0,0,0,0,0,0,0,0,0,0,0,0,0,0,0,0,0,0,0,0,0,0,0,0,0,0,0,0,0,0,0,0,0,0,0,0,0,0,0,0,0,0,0,0,0,0,0,0,0,0,0,0,0,0,0,0,0,0,0,0,0,0,0,0,0,0,0,0,0,0,0,0,0,0,0,0,0,0,0,0,0,0,0,0,0,0,0,0,0,0,0,0,0,0,0,0,0,0,0,0,0,0,0,0,0,0,0,0,0,0,0,0,0,0,0,0,0,0,0,0,0,0,0,0,0,0,0,0,0,0,0,0,0,0,0,0,0,0,0,0,0,0,0,0,0,0,0,0,0,0,0,0,0,0,0,0,0,0,0,0,0,0,0,0,0,0,0,0,0,0,0,0,0,0,0,0,0,0,0,0,0,0,0,0,0,0,0,0,0,0,0,0,0,0,0,0,0,0,0,0,0,0,0,0,0,0,0,0,0,0,0,0,0,0,0,0,0,0,0,0,0,0,0,0,0,0,0,0,0,0,0,0,0,0,0,0,0,0,0,0,0,0,0,0,0,0,0,0,0,0,0,0,0,0,0,0,0,0,0,0,0,0,0,0,0,0,0,0,0,0,0,0,0,0,0,0,0,0,0,0,0,0,0,0,0,0,0,0,0,0,0,0,0,0,0,0,0,0,0,0,0,0,0,0,0,0,0,0,0,0,0,0,0,0,0,0,0,0,0,0,0,0,0,0,0,0,0,0,0,0,0,0,0,0,0,0,0,0,0,0,0,0,0,0,0,0,0,0,0,0,0,0,0,0,0,0,0,0,0,0,0,0,0,0,0,0,0,0,0,0,0,0,0,0,0,0,0,0,0,0,0,0,0,0,0,0,0,0,0,
255.0,255.0,255.0,255.0,255.0,255.0,255.0,255.0,255.0,255.0,255.0,255.0,255.0,255.0,255.0,255.0,255.0,255.0,255.0,255.0,255.0,255.0,255.0,255.0,255.0,255.0,255.0,255.0,255.0,255.0,255.0,255.0,255.0,255.0,255.0,255.0,255.0,255.0,255.0,255.0,255.0,255.0,255.0,255.0,255.0,255.0,255.0,255.0,255.0,255.0,255.0,255.0,255.0,255.0,255.0,255.0,255.0,255.0,255.0,255.0,255.0,255.0,255.0,255.0,255.0,255.0,255.0,255.0,255.0,255.0,255.0,255.0,255.0,255.0,255.0,255.0,255.0,255.0,255.0,255.0,255.0,255.0,255.0,255.0,255.0,255.0,255.0,255.0,255.0,255.0,255.0,255.0,255.0,255.0,255.0,255.0,255.0,255.0,255.0,255.0,255.0,255.0,255.0,255.0,255.0,255.0,255.0,255.0,255.0,255.0,255.0,255.0,255.0,255.0,255.0,255.0,255.0,255.0,255.0,255.0,255.0,255.0,255.0,255.0,255.0,255.0,255.0,255.0,255.0,255.0,255.0,255.0,255.0,255.0,255.0,255.0,255.0,255.0,255.0,255.0,255.0,255.0,255.0,255.0,255.0,255.0,255.0,255.0,255.0,255.0,255.0,255.0,255.0,255.0,255.0,255.0,255.0,255.0,255.0,255.0,255.0,255.0,255.0,255.0,255.0,255.0,255.0,255.0,255.0,255.0,255.0,255.0,255.0,255.0,255.0,255.0,255.0,255.0,255.0,255.0,255.0,255.0,255.0,255.0,255.0,255.0,255.0,255.0,255.0,255.0,255.0,255.0,255.0,255.0,255.0,255.0,255.0,255.0,255.0,255.0,255.0,255.0,255.0,255.0,255.0,255.0,255.0,255.0,255.0,255.0,255.0,255.0,255.0,255.0,255.0,255.0,255.0,255.0,255.0,255.0,255.0,255.0,255.0,255.0,255.0,255.0,255.0,255.0,255.0,255.0,255.0,255.0,255.0,255.0,255.0,255.0,255.0,255.0,255.0,255.0,255.0,255.0,255.0,255.0,255.0,255.0,255.0,255.0,255.0,255.0,255.0,255.0,255.0,255.0,255.0,255.0,255.0,255.0,255.0,255.0,255.0,255.0,255.0,255.0,255.0,255.0,255.0,255.0,255.0,255.0,255.0,255.0,255.0,255.0,255.0,255.0,255.0,255.0,255.0,255.0,255.0,255.0,255.0,255.0,255.0,255.0,255.0,255.0,255.0,255.0,255.0,255.0,255.0,255.0,255.0,255.0,255.0,255.0,255.0,255.0,255.0,255.0,255.0,255.0,255.0,255.0,255.0,255.0,255.0,255.0,255.0,255.0,255.0,255.0,255.0,255.0,255.0,255.0,255.0,255.0,255.0,255.0,255.0,255.0,255.0,255.0,255.0,255.0,255.0,255.0,255.0,255.0,255.0,255.0,255.0,255.0,255.0,255.0,255.0,255.0,255.0,255.0,255.0,255.0,255.0,255.0,255.0,255.0,255.0,255.0,255.0,255.0,255.0,255.0,255.0,255.0,255.0,255.0,255.0,255.0,255.0,255.0,255.0,255.0,255.0,255.0,255.0,255.0,255.0,255.0,255.0,255.0,255.0,255.0,255.0,255.0,255.0,255.0,255.0,255.0,255.0,255.0,255.0,255.0,255.0,255.0,255.0,255.0,255.0,255.0,255.0,255.0,255.0,255.0,255.0,255.0,255.0,255.0,255.0,255.0,255.0,255.0,255.0,255.0,255.0,255.0,255.0,255.0,255.0,255.0,255.0,255.0,255.0,255.0,255.0,255.0,255.0,255.0,255.0,255.0,255.0,255.0,255.0,255.0,255.0,255.0,255.0,255.0,255.0,255.0,255.0,255.0,255.0,255.0,255.0,255.0,255.0,255.0,255.0,255.0,255.0,255.0,255.0,255.0,255.0,255.0,255.0,255.0,255.0,255.0,255.0,255.0,255.0,255.0,255.0,255.0,255.0,255.0,255.0,255.0,255.0,255.0,255.0,255.0,255.0,255.0,255.0,255.0,255.0,255.0,255.0,255.0,255.0,255.0,255.0,255.0,255.0,255.0,255.0,255.0,255.0,255.0,255.0,255.0,255.0,255.0,255.0,255.0,255.0,255.0,255.0,255.0,255.0,255.0,255.0,255.0,255.0,255.0,255.0,255.0,255.0,255.0,255.0,255.0,255.0,255.0,255.0,255.0,255.0,255.0,255.0,255.0,255.0,255.0,255.0,255.0,255.0,255.0,255.0,255.0,255.0,255.0,255.0,255.0,255.0,255.0,255.0,255.0,255.0,255.0,255.0,255.0,255.0,255.0,255.0,255.0,255.0,255.0,255.0,255.0,255.0,255.0,255.0,255.0,255.0,255.0,255.0,255.0,255.0,255.0,255.0,255.0,255.0,255.0,255.0,255.0,255.0,255.0,255.0,255.0,255.0,255.0,255.0,255.0,255.0,255.0,255.0,255.0,255.0,255.0,255.0,255.0,255.0,255.0,255.0,255.0,255.0,255.0,255.0,255.0,255.0,255.0,255.0,255.0,255.0,255.0,255.0,255.0,255.0,255.0,255.0,255.0,255.0,255.0,255.0,255.0,255.0,255.0,255.0,255.0,255.0,255.0,255.0,255.0,255.0,255.0,255.0,255.0,255.0,255.0,255.0,255.0,255.0,255.0,255.0,255.0,255.0,255.0,255.0,255.0,255.0,255.0,255.0,255.0,255.0,255.0,255.0,255.0,255.0,255.0,255.0,255.0,255.0,255.0,255.0,255.0,255.0,255.0,255.0,255.0,255.0,255.0,255.0,255.0,255.0,255.0,255.0,255.0,255.0,255.0,255.0,255.0,255.0,255.0,255.0,255.0,255.0,255.0,255.0,255.0,255.0,255.0,255.0,255.0,255.0,255.0,255.0,255.0,255.0,255.0,255.0,255.0,255.0,255.0,255.0,255.0,255.0,255.0,255.0,255.0,255.0,255.0,255.0,255.0,255.0,255.0,255.0,255.0,255.0,255.0,255.0,255.0,255.0,255.0,255.0,255.0,255.0,255.0,255.0,255.0,255.0,255.0,255.0,255.0,255.0,255.0,255.0,255.0,255.0,255.0,255.0,255.0,255.0,255.0,255.0,255.0,255.0,255.0,255.0,255.0,255.0,255.0,255.0,255.0,255.0,255.0,255.0,255.0,255.0,255.0,255.0,255.0,255.0,255.0,255.0,255.0,255.0,255.0,255.0,255.0,255.0,255.0,255.0,255.0,255.0,255.0,255.0,255.0,255.0,255.0,255.0,255.0,255.0,255.0,255.0,255.0,255.0,255.0,255.0,255.0,255.0,255.0,255.0,255.0,255.0,255.0,255.0,255.0,255.0,255.0,255.0,255.0,255.0,255.0,255.0,255.0,255.0,255.0,255.0,255.0,255.0,255.0,255.0,255.0,
127.0,127.0,127.0,127.0,127.0,127.0,127.0,127.0,127.0,127.0,127.0,127.0,127.0,127.0,127.0,127.0,127.0,127.0,127.0,127.0,127.0,127.0,127.0,127.0,127.0,127.0,127.0,127.0,127.0,127.0,127.0,127.0,127.0,127.0,127.0,127.0,127.0,127.0,127.0,127.0,127.0,127.0,127.0,127.0,127.0,127.0,127.0,127.0,127.0,127.0,127.0,127.0,127.0,127.0,127.0,127.0,127.0,127.0,127.0,127.0,127.0,127.0,127.0,127.0,127.0,127.0,127.0,127.0,127.0,127.0,127.0,127.0,127.0,127.0,127.0,127.0,127.0,127.0,127.0,127.0,127.0,127.0,127.0,127.0,127.0,127.0,127.0,127.0,127.0,127.0,127.0,127.0,127.0,127.0,127.0,127.0,127.0,127.0,127.0,127.0,127.0,127.0,127.0,127.0,127.0,127.0,127.0,127.0,127.0,127.0,127.0,127.0,127.0,127.0,127.0,127.0,127.0,127.0,127.0,127.0,127.0,127.0,127.0,127.0,127.0,127.0,127.0,127.0,127.0,127.0,127.0,127.0,127.0,127.0,127.0,127.0,127.0,127.0,127.0,127.0,127.0,127.0,127.0,127.0,127.0,127.0,127.0,127.0,127.0,127.0,127.0,127.0,127.0,127.0,127.0,127.0,127.0,127.0,127.0,127.0,127.0,127.0,127.0,127.0,127.0,127.0,127.0,127.0,127.0,127.0,127.0,127.0,127.0,127.0,127.0,127.0,127.0,127.0,127.0,127.0,127.0,127.0,127.0,127.0,127.0,127.0,127.0,127.0,127.0,127.0,127.0,127.0,127.0,127.0,127.0,127.0,127.0,127.0,127.0,127.0,127.0,127.0,127.0,127.0,127.0,127.0,127.0,127.0,127.0,127.0,127.0,127.0,127.0,127.0,127.0,127.0,127.0,127.0,127.0,127.0,127.0,127.0,127.0,127.0,127.0,127.0,127.0,127.0,127.0,127.0,127.0,127.0,127.0,127.0,127.0,127.0,127.0,127.0,127.0,127.0,127.0,127.0,127.0,127.0,127.0,127.0,127.0,127.0,127.0,127.0,127.0,127.0,127.0,127.0,127.0,127.0,127.0,127.0,127.0,127.0,127.0,127.0,127.0,127.0,127.0,127.0,127.0,127.0,127.0,127.0,127.0,127.0,127.0,127.0,127.0,127.0,127.0,127.0,127.0,127.0,127.0,127.0,127.0,127.0,127.0,127.0,127.0,127.0,127.0,127.0,127.0,127.0,127.0,127.0,127.0,127.0,127.0,127.0,127.0,127.0,127.0,127.0,127.0,127.0,127.0,127.0,127.0,127.0,127.0,127.0,127.0,127.0,127.0,127.0,127.0,127.0,127.0,127.0,127.0,127.0,127.0,127.0,127.0,127.0,127.0,127.0,127.0,127.0,127.0,127.0,127.0,127.0,127.0,127.0,127.0,127.0,127.0,127.0,127.0,127.0,127.0,127.0,127.0,127.0,127.0,127.0,127.0,127.0,127.0,127.0,127.0,127.0,127.0,127.0,127.0,127.0,127.0,127.0,127.0,127.0,127.0,127.0,127.0,127.0,127.0,127.0,127.0,127.0,127.0,127.0,127.0,127.0,127.0,127.0,127.0,127.0,127.0,127.0,127.0,127.0,127.0,127.0,127.0,127.0,127.0,127.0,127.0,127.0,127.0,127.0,127.0,127.0,127.0,127.0,127.0,127.0,127.0,127.0,127.0,127.0,127.0,127.0,127.0,127.0,127.0,127.0,127.0,127.0,127.0,127.0,127.0,127.0,127.0,127.0,127.0,127.0,127.0,127.0,127.0,127.0,127.0,127.0,127.0,127.0,127.0,127.0,127.0,127.0,127.0,127.0,127.0,127.0,127.0,127.0,127.0,127.0,127.0,127.0,127.0,127.0,127.0,127.0,127.0,127.0,127.0,127.0,127.0,127.0,127.0,127.0,127.0,127.0,127.0,127.0,127.0,127.0,127.0,127.0,127.0,127.0,127.0,127.0,127.0,127.0,127.0,127.0,127.0,127.0,127.0,127.0,127.0,127.0,127.0,127.0,127.0,127.0,127.0,127.0,127.0,127.0,127.0,127.0,127.0,127.0,127.0,127.0,127.0,127.0,127.0,127.0,127.0,127.0,127.0,127.0,127.0,127.0,127.0,127.0,127.0,127.0,127.0,127.0,127.0,127.0,127.0,127.0,127.0,127.0,127.0,127.0,127.0,127.0,127.0,127.0,127.0,127.0,127.0,127.0,127.0,127.0,127.0,127.0,127.0,127.0,127.0,127.0,127.0,127.0,127.0,127.0,127.0,127.0,127.0,127.0,127.0,127.0,127.0,127.0,127.0,127.0,127.0,127.0,127.0,127.0,127.0,127.0,127.0,127.0,127.0,127.0,127.0,127.0,127.0,127.0,127.0,127.0,127.0,127.0,127.0,127.0,127.0,127.0,127.0,127.0,127.0,127.0,127.0,127.0,127.0,127.0,127.0,127.0,127.0,127.0,127.0,127.0,127.0,127.0,127.0,127.0,127.0,127.0,127.0,127.0,127.0,127.0,127.0,127.0,127.0,127.0,127.0,127.0,127.0,127.0,127.0,127.0,127.0,127.0,127.0,127.0,127.0,127.0,127.0,127.0,127.0,127.0,127.0,127.0,127.0,127.0,127.0,127.0,127.0,127.0,127.0,127.0,127.0,127.0,127.0,127.0,127.0,127.0,127.0,127.0,127.0,127.0,127.0,127.0,127.0,127.0,127.0,127.0,127.0,127.0,127.0,127.0,127.0,127.0,127.0,127.0,127.0,127.0,127.0,127.0,127.0,127.0,127.0,127.0,127.0,127.0,127.0,127.0,127.0,127.0,127.0,127.0,127.0,127.0,127.0,127.0,127.0,127.0,127.0,127.0,127.0,127.0,127.0,127.0,127.0,127.0,127.0,127.0,127.0,127.0,127.0,127.0,127.0,127.0,127.0,127.0,127.0,127.0,127.0,127.0,127.0,127.0,127.0,127.0,127.0,127.0,127.0,127.0,127.0,127.0,127.0,127.0,127.0,127.0,127.0,127.0,127.0,127.0,127.0,127.0,127.0,127.0,127.0,127.0,127.0,127.0,127.0,127.0,127.0,127.0,127.0,127.0,127.0,127.0,127.0,127.0,127.0,127.0,127.0,127.0,127.0,127.0,127.0,127.0,127.0,127.0,127.0,127.0,127.0,127.0,127.0,127.0,127.0,127.0,127.0,127.0,127.0,127.0,127.0,127.0,127.0,127.0,127.0,127.0,127.0,127.0,127.0,127.0,127.0,127.0,127.0,127.0,127.0,127.0,127.0,127.0,127.0,127.0,127.0,127.0,127.0,127.0,127.0,127.0,127.0,127.0,127.0,127.0,127.0,127.0,127.0,127.0,127.0,127.0,127.0,127.0,127.0,127.0,127.0,127.0,
255.0,255.0,255.0,255.0,255.0,255.0,255.0,255.0,255.0,255.0,255.0,255.0,255.0,255.0,255.0,255.0,255.0,255.0,255.0,255.0,255.0,255.0,255.0,255.0,255.0,255.0,255.0,255.0,255.0,255.0,255.0,255.0,255.0,255.0,255.0,255.0,255.0,255.0,255.0,255.0,255.0,255.0,255.0,255.0,255.0,255.0,255.0,255.0,255.0,255.0,255.0,255.0,255.0,255.0,255.0,255.0,255.0,255.0,255.0,255.0,255.0,255.0,255.0,255.0,255.0,255.0,255.0,255.0,255.0,255.0,255.0,255.0,255.0,255.0,255.0,255.0,255.0,255.0,255.0,255.0,255.0,255.0,255.0,255.0,255.0,255.0,255.0,255.0,255.0,255.0,255.0,255.0,255.0,255.0,255.0,255.0,255.0,255.0,255.0,255.0,255.0,255.0,255.0,255.0,255.0,255.0,255.0,255.0,255.0,255.0,255.0,255.0,255.0,255.0,255.0,255.0,255.0,255.0,255.0,255.0,255.0,255.0,255.0,255.0,255.0,255.0,255.0,255.0,255.0,255.0,255.0,255.0,255.0,255.0,255.0,255.0,255.0,255.0,255.0,255.0,255.0,255.0,255.0,255.0,255.0,255.0,255.0,255.0,255.0,255.0,255.0,255.0,255.0,255.0,255.0,255.0,255.0,255.0,255.0,255.0,255.0,255.0,255.0,255.0,255.0,255.0,255.0,255.0,255.0,255.0,255.0,255.0,255.0,255.0,255.0,255.0,255.0,255.0,255.0,255.0,255.0,255.0,255.0,255.0,255.0,255.0,255.0,255.0,255.0,255.0,255.0,255.0,255.0,255.0,255.0,255.0,255.0,255.0,255.0,255.0,255.0,255.0,255.0,255.0,255.0,255.0,255.0,255.0,255.0,255.0,255.0,255.0,255.0,255.0,255.0,255.0,255.0,255.0,255.0,255.0,255.0,255.0,255.0,255.0,255.0,255.0,255.0,255.0,255.0,255.0,255.0,255.0,255.0,255.0,255.0,255.0,255.0,255.0,255.0,255.0,255.0,255.0,255.0,255.0,255.0,255.0,255.0,255.0,255.0,255.0,255.0,255.0,255.0,255.0,255.0,255.0,255.0,255.0,255.0,255.0,255.0,255.0,255.0,255.0,255.0,255.0,255.0,255.0,255.0,255.0,255.0,255.0,255.0,255.0,255.0,255.0,255.0,255.0,255.0,255.0,255.0,255.0,255.0,255.0,255.0,255.0,255.0,255.0,255.0,255.0,255.0,255.0,255.0,255.0,255.0,255.0,255.0,255.0,255.0,255.0,255.0,255.0,255.0,255.0,255.0,255.0,255.0,255.0,255.0,255.0,255.0,255.0,255.0,255.0,255.0,255.0,255.0,255.0,255.0,255.0,255.0,255.0,255.0,255.0,255.0,255.0,255.0,255.0,255.0,255.0,255.0,255.0,255.0,255.0,255.0,255.0,255.0,255.0,255.0,255.0,255.0,255.0,255.0,255.0,255.0,255.0,255.0,255.0,255.0,255.0,255.0,255.0,255.0,255.0,255.0,255.0,255.0,255.0,255.0,255.0,255.0,255.0,255.0,255.0,255.0,255.0,255.0,255.0,255.0,255.0,255.0,255.0,255.0,255.0,255.0,255.0,255.0,255.0,255.0,255.0,255.0,255.0,255.0,255.0,255.0,255.0,255.0,255.0,255.0,255.0,255.0,255.0,255.0,255.0,255.0,255.0,255.0,255.0,255.0,255.0,255.0,255.0,255.0,255.0,255.0,255.0,255.0,255.0,255.0,255.0,255.0,255.0,255.0,255.0,255.0,255.0,255.0,255.0,255.0,255.0,255.0,255.0,255.0,255.0,255.0,255.0,255.0,255.0,255.0,255.0,255.0,255.0,255.0,255.0,255.0,255.0,255.0,255.0,255.0,255.0,255.0,255.0,255.0,255.0,255.0,255.0,255.0,255.0,255.0,255.0,255.0,255.0,255.0,255.0,255.0,255.0,255.0,255.0,255.0,255.0,255.0,255.0,255.0,255.0,255.0,255.0,255.0,255.0,255.0,255.0,255.0,255.0,255.0,255.0,255.0,255.0,255.0,255.0,255.0,255.0,255.0,255.0,255.0,255.0,255.0,255.0,255.0,255.0,255.0,255.0,255.0,255.0,255.0,255.0,255.0,255.0,255.0,255.0,255.0,255.0,255.0,255.0,255.0,255.0,255.0,255.0,255.0,255.0,255.0,255.0,255.0,255.0,255.0,255.0,255.0,255.0,255.0,255.0,255.0,255.0,255.0,255.0,255.0,255.0,255.0,255.0,255.0,255.0,255.0,255.0,255.0,255.0,255.0,255.0,255.0,255.0,255.0,255.0,255.0,255.0,255.0,255.0,255.0,255.0,255.0,255.0,255.0,255.0,255.0,255.0,255.0,255.0,255.0,255.0,255.0,255.0,255.0,255.0,255.0,255.0,255.0,255.0,255.0,255.0,255.0,255.0,255.0,255.0,255.0,255.0,255.0,255.0,255.0,255.0,255.0,255.0,255.0,255.0,255.0,255.0,255.0,255.0,255.0,255.0,255.0,255.0,255.0,255.0,255.0,255.0,255.0,255.0,255.0,255.0,255.0,255.0,255.0,255.0,255.0,255.0,255.0,255.0,255.0,255.0,255.0,255.0,255.0,255.0,255.0,255.0,255.0,255.0,255.0,255.0,255.0,255.0,255.0,255.0,255.0,255.0,255.0,255.0,255.0,255.0,255.0,255.0,255.0,255.0,255.0,255.0,255.0,255.0,255.0,255.0,255.0,255.0,255.0,255.0,255.0,255.0,255.0,255.0,255.0,255.0,255.0,255.0,255.0,255.0,255.0,255.0,255.0,255.0,255.0,255.0,255.0,255.0,255.0,255.0,255.0,255.0,255.0,255.0,255.0,255.0,255.0,255.0,255.0,255.0,255.0,255.0,255.0,255.0,255.0,255.0,255.0,255.0,255.0,255.0,255.0,255.0,255.0,255.0,255.0,255.0,255.0,255.0,255.0,255.0,255.0,255.0,255.0,255.0,255.0,255.0,255.0,255.0,255.0,255.0,255.0,255.0,255.0,255.0,255.0,255.0,255.0,255.0,255.0,255.0,255.0,255.0,255.0,255.0,255.0,255.0,255.0,255.0,255.0,255.0,255.0,255.0,255.0,255.0,255.0,255.0,255.0,255.0,255.0,255.0,255.0,255.0,255.0,255.0,255.0,255.0,255.0,255.0,255.0,255.0,255.0,255.0,255.0,255.0,255.0,255.0,255.0,255.0,255.0,255.0,255.0,255.0,255.0,255.0,255.0,255.0,255.0,255.0,255.0,255.0,255.0,255.0,255.0,255.0,255.0,255.0,255.0,255.0,255.0,255.0,255.0,255.0,255.0,255.0,255.0,255.0,255.0,255.0,255.0,255.0,255.0,255.0,255.0,255.0,255.0,255.0,
9.67898e-03,1.58844e-02,-8.84216e-03,1.34737e-02,-1.80544e-03,-1.03723e-02,1.23588e-03,-1.73302e-03,3.80141e-03,-9.11285e-03,-1.02364e-02,8.97829e-03,-1.59793e-02,1.72949e-02,-8.32679e-03,-3.35727e-03,-4.52636e-03,-4.93998e-03,3.18317e-03,-1.03855e-02,-6.76219e-03,-1.75264e-02,-1.07478e-02,-4.39363e-03,-6.41481e-03,1.12463e-02,-8.81387e-03,-1.23398e-02,7.79996e-04,-5.63945e-03,-8.59155e-03,1.49554e-02,1.87163e-02,7.12895e-03,-1.05112e-02,5.55317e-03,-5.04433e-04,-1.21219e-02,8.86964e-03,-1.32849e-02,6.21312e-03,1.10176e-02,3.03689e-03,5.51137e-03,-6.54976e-03,-2.43693e-03,-4.50507e-03,3.64891e-04,-1.24333e-03,-4.83205e-03,-1.07878e-03,4.54042e-03,-1.80687e-02,9.23494e-03,-9.15900e-03,-1.88489e-02,1.03960e-02,-2.14103e-03,2.10873e-03,-1.07346e-02,-5.60353e-03,-4.29203e-04,6.03129e-05,3.80279e-03,3.18142e-03,-1.08060e-03,7.63751e-04,-1.17213e-02,-2.30206e-02,-1.72931e-02,-2.69208e-02,-2.47088e-02,-1.93110e-02,-1.97509e-02,-2.85055e-02,-3.21468e-02,-1.15894e-02,6.18085e-03,-1.90680e-02,1.17497e-02,-5.37451e-04,-3.32970e-03,4.27248e-03,-1.39934e-02,-9.53573e-03,-1.00254e-02,1.21598e-02,5.95521e-03,3.35494e-03,-1.65301e-03,-8.94251e-03,-2.15643e-02,-1.23916e-02,-2.23027e-02,-3.50650e-02,-1.28636e-02,-3.85789e-02,-3.21190e-02,-5.96083e-02,-5.36746e-02,-6.69283e-02,-7.68152e-02,-7.77765e-02,-8.94046e-02,-6.41272e-02,-8.31860e-02,-5.11088e-02,-2.47958e-02,3.83997e-03,-1.39369e-03,1.17670e-02,-3.02185e-03,1.52357e-02,4.28044e-03,7.05749e-03,-1.07792e-02,2.84357e-03,-2.76338e-02,-1.33936e-02,-2.18102e-02,-1.47259e-02,-4.43372e-02,-4.47651e-02,-4.80993e-02,-6.84403e-02,-6.42755e-02,-7.62629e-02,-3.62368e-02,-4.29339e-02,6.46926e-03,-3.40427e-02,-3.97692e-02,-6.15057e-02,-7.10889e-02,-7.01711e-02,-7.23223e-02,-5.16031e-02,-2.87162e-02,4.25434e-03,1.00953e-02,3.52735e-03,3.03914e-03,-8.23197e-03,-7.91928e-03,-1.62294e-02,-2.79245e-02,-3.23498e-02,-5.12938e-02,-4.19527e-02,-5.30805e-02,-5.03839e-03,-6.48381e-03,3.07945e-02,1.37641e-01,1.56829e-01,1.42618e-01,1.20579e-01,1.67361e-01,1.47068e-01,5.86104e-02,1.71348e-02,1.52375e-02,-2.27555e-02,-9.78800e-02,-8.57314e-02,-4.52204e-02,8.05796e-03,-1.31165e-02,-4.06855e-03,1.72061e-02,7.53474e-03,5.59133e-03,-1.57685e-02,-3.18059e-02,-5.15315e-02,-6.43754e-02,-8.52440e-02,-9.95941e-02,4.20155e-03,5.81591e-02,6.72826e-02,1.44229e-01,1.47057e-01,1.34731e-01,1.75444e-01,2.09173e-01,2.21157e-01,1.35203e-01,7.89351e-02,1.38771e-01,9.74041e-02,-3.50058e-02,-1.35775e-01,-6.85061e-02,-1.76672e-02,5.99571e-04,2.13866e-03,3.68949e-03,4.14147e-03,-6.30878e-03,-2.78524e-02,-1.90734e-02,-3.34453e-02,-7.57280e-02,-9.76235e-02,-3.51172e-02,3.47554e-02,5.59805e-02,1.30228e-01,1.06213e-01,7.96058e-02,8.77718e-02,1.61639e-01,1.81251e-01,1.97708e-01,1.43349e-01,7.84525e-02,1.18619e-01,1.48041e-01,8.42427e-02,-6.17567e-02,-7.48343e-02,-3.33047e-02,1.27243e-02,1.01654e-02,1.07856e-02,4.19995e-03,9.50814e-03,-5.57816e-02,-6.69836e-02,-8.79428e-02,-7.60946e-02,-2.89295e-02,2.60535e-02,1.83205e-02,3.40021e-02,6.19444e-02,4.53838e-02,6.74106e-02,1.26401e-01,2.51100e-01,2.18888e-01,1.38406e-01,1.39154e-01,1.01556e-01,9.67730e-02,1.79619e-01,1.95244e-01,-3.46621e-02,-9.49698e-02,-4.10179e-02,1.22529e-02,-5.61989e-05,2.53302e-03,-9.53417e-03,-2.50164e-02,-4.91374e-02,-7.07530e-02,-6.69143e-02,-3.93535e-02,-7.68986e-03,1.78349e-02,6.20843e-02,-4.66528e-02,-4.04606e-02,5.56103e-02,-1.40869e-03,3.03367e-02,1.22679e-01,1.73072e-01,1.82373e-01,1.63214e-01,1.25477e-01,3.22803e-02,1.49362e-01,2.66418e-01,7.55026e-02,-8.20276e-02,-2.19982e-02,-1.52375e-02,-1.08740e-02,6.15423e-03,7.68112e-03,-1.26151e-02,-2.27809e-02,-4.89165e-02,-4.19481e-02,-6.35916e-03,1.15615e-02,-3.41884e-03,-5.13472e-02,-6.17038e-02,-2.76905e-03,1.28548e-02,-4.01436e-02,-8.94714e-02,-2.36298e-02,9.87222e-02,1.35472e-01,1.15023e-01,1.14187e-01,8.46641e-02,2.15655e-01,3.17025e-01,1.27398e-01,-7.57432e-02,-4.11465e-02,-1.13892e-02,1.56137e-02,8.69044e-03,7.48879e-03,-1.84755e-02,-7.46109e-02,-7.01324e-02,-4.24493e-03,8.54982e-03,1.53146e-02,-5.77875e-02,-6.32387e-02,-5.44134e-02,-1.15816e-02,-5.77518e-02,-2.57376e-01,-4.14483e-01,-3.77463e-01,-1.49907e-01,-2.08725e-02,6.38763e-02,1.01172e-01,1.78447e-01,2.60635e-01,3.32018e-01,2.05863e-01,-1.48541e-02,6.77333e-04,-7.04252e-03,-9.01071e-03,1.65868e-02,1.82220e-03,-3.15857e-02,-8.85815e-02,-2.69771e-02,1.09891e-01,4.90006e-02,1.62719e-02,-3.05215e-02,-8.54023e-03,5.84986e-03,7.35078e-02,-1.20899e-01,-4.59560e-01,-6.01602e-01,-4.90078e-01,-2.19978e-01,-5.35205e-02,2.60164e-02,-1.00666e-02,8.55388e-02,2.91955e-01,3.79887e-01,2.84719e-01,1.42303e-02,-5.81302e-03,-7.14373e-03,-3.07856e-03,1.36981e-02,-1.24577e-02,-2.47982e-02,-4.81414e-02,4.94656e-02,1.93985e-01,1.84520e-01,6.65207e-02,1.36645e-02,9.05098e-02,7.88794e-02,4.62926e-02,-2.93313e-01,-5.47647e-01,-6.08854e-01,-4.95353e-01,-2.54275e-01,-7.29839e-02,-6.83413e-02,-1.13350e-01,5.81204e-02,2.72121e-01,3.82514e-01,2.34409e-01,5.97218e-04,-1.95144e-02,-3.00497e-03,-1.47811e-03,8.62797e-03,8.77407e-03,-3.67296e-02,-4.46562e-02,1.36756e-01,2.27608e-01,2.36978e-01,1.45869e-01,1.17093e-01,1.33457e-01,1.32129e-01,-4.10085e-02,-3.64068e-01,-5.37705e-01,-5.83215e-01,-4.97257e-01,-2.19106e-01,-6.62550e-02,-7.47660e-02,-1.83222e-02,1.02559e-01,2.15076e-01,3.52869e-01,2.19670e-01,-3.33377e-03,-1.19325e-02,-8.12088e-03,1.71199e-03,-1.23734e-02,-3.43716e-03,-2.39719e-02,-2.11658e-02,1.96827e-01,1.65267e-01,2.10295e-01,1.60802e-01,1.94213e-01,2.38282e-01,5.78035e-02,-2.12711e-01,-4.80858e-01,-6.33729e-01,-5.78757e-01,-4.26174e-01,-2.18400e-01,-3.28676e-02,-2.44400e-02,9.42266e-02,7.97754e-02,1.94429e-01,2.66201e-01,1.70744e-01,-1.46258e-02,2.94613e-03,1.66465e-03,7.22935e-03,-1.81189e-03,4.14828e-03,-2.02260e-02,2.40507e-02,2.03832e-01,2.33675e-01,1.76282e-01,1.90746e-01,2.37796e-01,2.36301e-01,2.93842e-02,-2.93502e-01,-5.48344e-01,-5.70419e-01,-4.92322e-01,-3.10397e-01,-8.11499e-02,-1.35727e-02,2.10686e-02,6.79261e-02,1.01015e-01,1.65334e-01,1.53324e-01,4.97391e-02,-1.40737e-02,-1.14580e-02,1.03468e-03,-1.28508e-02,-9.32577e-04,-1.23952e-03,-2.77839e-02,2.28963e-02,1.89190e-01,2.53216e-01,2.01438e-01,1.82972e-01,2.10086e-01,2.59512e-01,-8.32588e-04,-2.67114e-01,-5.38904e-01,-5.48136e-01,-3.62500e-01,-1.12135e-01,2.84032e-02,1.80866e-02,1.00520e-02,5.36940e-02,7.62924e-02,1.28093e-01,7.63664e-02,2.19551e-03,-2.81037e-02,9.36946e-03,8.50992e-03,-1.03309e-02,-1.65245e-02,1.30110e-02,-4.61199e-02,2.63395e-03,1.37988e-01,2.23406e-01,1.80042e-01,2.11804e-01,2.44785e-01,3.05673e-01,1.04115e-01,-2.26556e-01,-4.15215e-01,-4.07618e-01,-1.69585e-01,-7.00245e-03,-2.47126e-03,-3.21235e-02,-2.28493e-02,-4.75686e-02,4.95886e-02,9.57341e-02,2.30307e-02,-4.37388e-03,-2.11999e-02,-6.09632e-03,-1.61205e-02,-1.10121e-02,4.61348e-03,-7.08591e-03,-5.87242e-02,-5.96484e-02,1.04602e-01,1.95511e-01,1.81169e-01,2.06561e-01,2.53103e-01,3.17229e-01,2.26269e-01,4.42737e-02,-1.42363e-01,-1.38527e-01,-4.36378e-02,-2.23033e-02,-1.41253e-02,-4.36747e-02,-6.42699e-02,-9.12598e-04,5.50167e-02,2.10356e-02,-4.19247e-02,-2.77468e-02,-1.55503e-02,1.09449e-02,1.61299e-03,4.37000e-03,1.10699e-02,5.08384e-03,-5.56082e-02,-5.66843e-02,6.67335e-02,1.26589e-01,1.78313e-01,1.75629e-01,2.22951e-01,3.37089e-01,3.47466e-01,2.39461e-01,7.97650e-02,-1.12202e-02,-1.76292e-02,-3.80280e-02,-3.23450e-02,-1.07650e-01,-9.54457e-02,-2.35862e-02,-2.28824e-03,-3.48161e-02,-6.15620e-02,-4.14529e-02,-1.42912e-02,1.03636e-03,-8.40033e-03,-1.82710e-03,1.08551e-02,-8.15280e-03,-3.72756e-02,-4.21236e-02,1.26910e-02,6.20798e-02,1.09165e-01,1.54426e-01,1.59103e-01,2.42739e-01,3.27018e-01,2.33492e-01,9.59354e-02,2.75077e-02,-3.52883e-03,-2.70110e-03,-8.31271e-02,-9.52878e-02,-7.80529e-02,-5.42217e-02,-6.21990e-02,-6.72624e-02,-4.61920e-02,-1.72568e-02,1.23569e-02,9.41558e-03,1.18194e-02,5.52674e-03,-1.32501e-02,5.08450e-03,-2.00719e-02,-6.44248e-02,-3.65850e-02,1.31695e-02,1.00306e-01,1.54874e-01,1.65272e-01,2.22087e-01,2.58211e-01,1.95057e-01,2.55468e-01,1.37363e-01,1.48647e-01,4.96209e-02,-3.38100e-03,-6.79552e-02,-1.08287e-01,-1.26649e-01,-1.02264e-01,-3.97984e-02,-1.94547e-02,-1.18869e-02,1.45332e-02,1.18758e-02,6.46200e-03,2.31979e-03,7.91629e-03,1.25103e-02,-6.77559e-03,-4.42671e-02,-6.97668e-02,-1.90640e-02,2.56248e-02,8.63269e-02,1.50799e-01,1.98288e-01,2.74258e-01,2.66583e-01,2.40280e-01,2.01998e-01,1.21954e-01,-1.75710e-02,-5.97714e-02,-1.62000e-01,-1.81192e-01,-1.70033e-01,-8.31547e-02,-2.77906e-02,-2.01938e-02,-2.29802e-02,4.54519e-03,8.23138e-03,-9.04520e-03,-1.31341e-02,7.10538e-03,-4.83662e-03,-9.91664e-03,-1.46609e-02,-2.30135e-02,-4.25152e-02,-7.47782e-02,-6.35082e-02,-6.39585e-02,-8.25289e-02,-5.19457e-02,5.21244e-02,6.90347e-02,2.09376e-02,-6.42593e-02,-1.12289e-01,-1.29763e-01,-1.17918e-01,-1.17493e-01,-9.79102e-02,-7.43423e-02,-4.09330e-02,-1.55866e-02,7.85510e-03,8.32999e-03,-1.74690e-02,1.37028e-02,-9.48011e-03,-8.12650e-04,-6.43116e-04,-7.70179e-03,1.80759e-02,-2.32183e-02,-3.49578e-02,-3.05289e-02,-6.32452e-02,-9.55903e-02,-1.44673e-01,-1.56927e-01,-1.69599e-01,-1.44167e-01,-1.27842e-01,-1.43986e-01,-1.30929e-01,-8.68688e-02,-5.89518e-02,-3.49804e-02,-4.45067e-02,-3.90647e-02,-2.06922e-02,-2.64216e-03,-1.07409e-02,-1.26435e-02,1.14461e-02,-7.60221e-03,2.83540e-03,-5.39766e-03,5.00469e-03,-7.88624e-03,2.20024e-03,-3.82552e-03,-1.08357e-02,-2.34730e-02,-2.02640e-02,-3.41356e-02,-4.08896e-02,-3.73608e-02,-3.73768e-02,-3.99178e-02,-6.81439e-02,-3.89336e-02,-3.16412e-02,-1.50891e-02,-6.21850e-03,-2.02242e-03,4.34008e-03,-3.05255e-02,-2.22414e-03,-8.08682e-03,1.23176e-02,-1.09714e-02,1.41716e-02,8.22960e-03,6.58818e-03,-1.19099e-02,-7.38584e-03,-6.28321e-03,-4.98609e-03,-9.72163e-04,5.74565e-03,4.91223e-04,7.11298e-04,2.82401e-03,1.09800e-02,-3.14566e-03,-1.89985e-03,-1.31347e-02,-3.10499e-03,-2.13402e-03,2.89600e-03,-4.78350e-04,-7.69085e-03,-1.11462e-02,3.37343e-03,-1.24316e-02,-1.03331e-02,-1.20724e-02,1.48533e-03,1.36573e-02,1.87861e-03,2.80567e-03,
-8.81655e-03,3.86361e-03,-6.35051e-03,6.02937e-03,-9.42051e-04,-5.99002e-03,-1.26431e-02,4.91378e-04,1.28793e-02,-1.63588e-02,1.43308e-02,4.74493e-03,1.05527e-03,-1.48424e-03,6.15191e-03,-1.41510e-03,1.89940e-03,-2.20934e-03,8.24960e-03,5.97164e-03,-8.96208e-03,3.39877e-03,-1.15488e-02,4.07750e-03,2.84309e-03,3.27714e-03,2.58879e-03,8.08145e-03,8.32162e-03,9.18136e-03,1.25653e-02,1.22154e-02,4.15553e-03,-1.33421e-02,-7.26163e-03,1.22577e-02,1.34642e-02,-1.08484e-02,-7.83840e-03,-8.38637e-03,1.02693e-02,-4.24372e-03,7.60895e-04,2.45796e-02,-5.40077e-03,-2.72722e-04,-3.95609e-03,-1.68941e-03,-1.32026e-02,-1.30748e-03,-4.13487e-04,-1.00433e-02,2.04005e-03,-1.64213e-02,-3.03311e-03,-3.95559e-03,-6.12549e-03,1.29143e-02,2.04252e-03,-8.04364e-03,-1.64929e-03,2.76139e-03,-8.38088e-03,-3.22826e-03,-1.48618e-02,-2.10322e-02,-2.78307e-03,-1.79274e-02,1.25705e-02,2.10560e-02,2.17438e-02,6.49822e-02,3.81062e-02,4.00959e-03,4.81506e-03,6.53880e-03,-4.39309e-03,2.54898e-03,-1.83515e-02,-1.43692e-02,-1.11536e-02,-5.08856e-03,1.22329e-03,4.16579e-03,-7.93857e-03,1.20331e-02,-1.24795e-03,1.20494e-02,4.25233e-03,-1.42117e-02,-1.63080e-02,-2.02186e-02,-9.64143e-03,-3.67493e-02,-6.46660e-02,-5.74749e-02,-5.73690e-02,-1.03229e-02,-4.40252e-03,2.32386e-02,3.15775e-03,-3.71153e-02,-4.25059e-02,-4.11764e-02,-4.77187e-02,-2.76109e-02,-2.81940e-02,-1.27448e-02,-1.13279e-02,-7.49168e-03,2.24056e-04,-4.51765e-03,-5.87782e-03,4.78093e-03,4.55424e-03,1.04343e-02,-6.43043e-05,1.06508e-02,-2.21070e-03,-2.01027e-02,-3.94668e-02,-4.74779e-02,-4.48588e-02,-6.44889e-02,2.02118e-02,7.55861e-02,1.09854e-01,9.80733e-02,7.93759e-02,1.93702e-02,-2.76113e-03,9.05894e-02,1.25409e-01,9.92053e-02,8.14709e-02,-2.03045e-03,-4.47258e-02,-1.43237e-02,-9.62497e-03,-1.41221e-02,-2.04093e-03,1.85687e-02,-6.10510e-04,-9.37980e-03,1.80702e-02,8.09848e-03,-4.95827e-03,-6.10710e-02,-1.35991e-01,-1.36192e-01,-9.48728e-02,-8.23597e-02,-2.97925e-02,8.18477e-02,9.49745e-02,8.01423e-02,-4.43901e-02,-6.74500e-02,-3.06115e-04,6.65255e-02,1.76416e-01,2.30097e-01,1.52523e-01,7.64974e-02,2.27738e-02,-3.09971e-02,4.46976e-03,5.70849e-03,-1.60074e-03,-7.10400e-03,-1.30246e-02,4.12976e-03,4.31698e-03,-1.61167e-02,-4.32857e-02,-1.03689e-01,-1.76027e-01,-2.09964e-01,-1.50295e-01,-8.45229e-02,-7.75900e-02,-8.75330e-02,-1.17945e-01,-1.99100e-01,-1.86255e-01,-1.89446e-01,-9.02580e-02,-2.80500e-02,1.01388e-01,1.24509e-01,9.03075e-02,1.10120e-02,-2.09475e-02,-3.90589e-02,-3.41033e-03,2.49919e-03,-1.09945e-02,-6.00956e-04,3.01777e-03,-1.27406e-02,-6.89761e-03,-5.33019e-02,-8.15731e-02,-1.20615e-01,-2.18663e-01,-2.59216e-01,-2.14986e-01,-1.84674e-01,-1.01676e-01,-1.77109e-01,-1.66678e-01,-2.82116e-01,-2.14152e-01,-1.69813e-01,-1.65617e-01,-3.89522e-02,4.49354e-02,2.10723e-02,-1.20672e-02,-7.98183e-02,-1.08641e-01,-4.31962e-02,-6.46453e-03,2.47204e-03,2.26737e-03,6.06967e-03,2.44589e-03,3.15178e-03,-9.93404e-03,-3.44514e-02,-8.94531e-02,-1.45231e-01,-2.36741e-01,-2.83208e-01,-2.78984e-01,-1.82966e-01,-9.66769e-02,-8.61696e-02,-2.58204e-02,-2.94200e-02,-1.23916e-01,-3.99034e-02,-9.36386e-02,-9.69299e-02,-7.76348e-02,-1.00829e-01,-1.49355e-01,-1.98615e-01,-1.71016e-01,-4.91609e-02,-5.80496e-03,-2.47736e-03,1.51243e-02,-6.24295e-03,-5.26818e-03,8.80124e-03,-9.87922e-03,-6.14685e-02,-8.18769e-02,-1.22290e-01,-1.91101e-01,-2.31246e-01,-2.11732e-01,-1.39791e-01,-1.05823e-01,3.90093e-02,2.12410e-01,2.64503e-01,6.90948e-02,-6.43735e-04,-1.07310e-01,-1.66061e-01,-1.79635e-01,-2.18449e-01,-2.40420e-01,-2.24571e-01,-1.25489e-01,-3.65503e-02,2.64905e-03,5.60697e-04,-4.26346e-03,-2.25303e-03,5.77284e-03,-1.99757e-02,-9.24986e-03,-4.11633e-02,-8.90058e-02,-1.32792e-01,-1.47254e-01,-1.91536e-01,-1.49090e-01,-9.37788e-02,-1.97144e-02,1.79646e-01,3.91885e-01,4.59872e-01,1.77538e-01,-9.89447e-03,-1.54262e-01,-1.82970e-01,-2.39435e-01,-2.26177e-01,-2.17896e-01,-1.69440e-01,-1.24230e-01,-3.23535e-02,1.71454e-03,-4.42626e-03,1.19984e-02,-3.19665e-03,-3.31926e-03,-1.44105e-02,-2.01800e-02,-3.50504e-02,-8.13975e-02,-1.20545e-01,-1.43464e-01,-1.99376e-01,-1.88150e-01,-1.99593e-01,-7.49044e-02,2.27783e-01,5.49041e-01,5.66066e-01,1.72293e-01,-5.20983e-02,-8.77798e-02,-1.76005e-01,-1.68797e-01,-1.44207e-01,-9.98514e-02,-7.13181e-02,-6.32031e-02,-1.35546e-02,2.71793e-03,-3.85267e-03,-6.25224e-03,-1.45375e-02,1.60134e-03,-7.59748e-03,1.03213e-04,-2.81026e-02,-6.48440e-02,-8.31286e-02,-1.36790e-01,-1.68086e-01,-2.61940e-01,-3.22626e-01,-1.23209e-01,2.06219e-01,7.16390e-01,5.19702e-01,1.00115e-01,-2.71884e-02,-1.15474e-01,-1.64407e-01,-1.24421e-01,-8.15882e-02,-4.82494e-02,-3.93672e-02,-2.38290e-02,-1.16071e-02,5.24918e-03,-9.28953e-03,6.76743e-03,1.26132e-02,3.15691e-03,3.31416e-03,-1.94895e-03,-2.44399e-02,-5.68562e-02,-7.85549e-02,-1.03221e-01,-1.87808e-01,-3.90107e-01,-4.33882e-01,-1.87696e-01,2.85590e-01,6.84782e-01,4.10201e-01,4.71873e-02,-6.18513e-02,-2.16925e-01,-1.96873e-01,-1.45313e-01,-1.02094e-01,-6.76697e-02,-4.78620e-02,-2.70277e-02,-1.77497e-02,-1.49239e-02,5.17293e-03,-1.12505e-02,-5.00878e-03,-4.16217e-03,-2.56895e-03,3.41200e-03,-2.47888e-02,-5.53098e-02,-9.78610e-02,-1.08770e-01,-2.17255e-01,-4.15306e-01,-4.31371e-01,-7.92242e-02,3.64255e-01,5.69040e-01,3.69181e-01,1.48143e-02,-2.84903e-01,-3.40138e-01,-2.54143e-01,-1.43225e-01,-9.69878e-02,-8.83720e-02,-4.75142e-02,-2.33357e-02,-5.71133e-03,-6.54520e-03,2.33337e-03,-1.76013e-03,-1.38554e-02,1.30638e-02,-6.81507e-03,-7.20221e-05,-4.91127e-02,-8.04966e-02,-1.27758e-01,-1.37069e-01,-2.37978e-01,-3.34353e-01,-2.51849e-01,8.08106e-03,4.22281e-01,5.90127e-01,2.09414e-01,-1.40046e-01,-4.02689e-01,-3.42570e-01,-2.39936e-01,-1.75602e-01,-1.32587e-01,-8.00402e-02,-3.87860e-02,-3.65011e-02,-1.41600e-02,-2.28029e-02,1.75339e-02,5.35703e-03,1.51281e-02,-1.25064e-02,-5.76886e-03,-2.21990e-02,-7.75151e-02,-1.50906e-01,-1.77262e-01,-2.01192e-01,-2.02295e-01,-1.62482e-01,-1.13598e-01,-6.00502e-03,3.99163e-01,5.63460e-01,4.80467e-02,-2.43160e-01,-4.38488e-01,-3.29654e-01,-2.30933e-01,-1.65726e-01,-1.18217e-01,-6.84003e-02,-6.78454e-02,-4.36028e-02,-3.54935e-02,-9.62177e-03,-8.63321e-03,-1.27114e-02,-1.04250e-02,3.74925e-03,-2.13093e-02,-3.92907e-02,-1.06465e-01,-2.20993e-01,-2.22817e-01,-2.05370e-01,-1.28778e-01,-5.50693e-03,-7.85579e-02,7.54587e-02,3.83206e-01,3.85453e-01,-2.25973e-02,-2.64341e-01,-3.62704e-01,-2.72254e-01,-1.79986e-01,-1.21964e-01,-8.98086e-02,-5.89041e-02,-4.82918e-02,-5.84823e-02,-2.54740e-02,5.74560e-03,7.67931e-03,5.01602e-03,5.20104e-03,8.57399e-03,4.18228e-03,-3.52474e-02,-1.46434e-01,-2.74573e-01,-2.59649e-01,-1.24920e-01,-4.77655e-02,-8.33202e-02,-3.47807e-02,1.05626e-01,2.28090e-01,2.06309e-01,-7.95465e-02,-1.94972e-01,-1.90236e-01,-1.51695e-01,-1.14313e-01,-6.12896e-02,-6.81457e-02,-9.53609e-02,-7.07136e-02,-4.87173e-02,-2.59462e-03,-7.07306e-03,-6.55811e-03,7.04148e-03,9.17521e-03,-1.42321e-03,-1.46780e-02,-5.81404e-02,-1.52237e-01,-1.86096e-01,-1.03549e-01,-5.14221e-02,4.21043e-03,-9.26422e-02,-1.87995e-02,2.27303e-02,1.48384e-01,-1.22945e-02,-2.99312e-02,3.97450e-02,-1.77397e-02,-1.73469e-02,-1.31869e-02,-5.59156e-02,-6.11302e-02,-6.58820e-02,-5.70622e-02,-1.21579e-02,-1.58872e-02,3.96920e-03,-5.74964e-04,-6.95580e-03,1.63814e-02,-9.57894e-03,-1.33824e-02,-4.11474e-02,-8.12699e-02,-1.60298e-02,-3.25318e-03,7.52581e-02,4.09777e-02,1.52150e-02,3.67054e-02,8.71083e-03,-1.94533e-02,-1.59787e-02,-3.26759e-02,1.13916e-01,1.45669e-01,9.22646e-02,6.29599e-02,2.53001e-03,-2.91910e-02,-5.10208e-02,-3.44494e-02,-1.19455e-02,-7.60150e-03,2.62696e-03,-1.04494e-02,1.41888e-02,1.12780e-02,-3.14608e-03,-7.50057e-03,1.73477e-02,7.82232e-02,1.15662e-01,1.34276e-01,1.45195e-01,3.73916e-02,2.36166e-02,-1.04745e-01,-1.62673e-01,-1.86683e-01,-5.52096e-02,2.17194e-03,8.41206e-02,1.17436e-01,1.11704e-01,4.78060e-02,2.69570e-02,-1.66773e-03,-5.97966e-02,-2.67086e-02,-1.58658e-02,4.14059e-03,7.89483e-03,-3.29565e-03,-1.20055e-02,3.72671e-03,2.43313e-03,-6.30094e-03,1.97633e-02,1.99054e-01,1.88651e-01,1.60275e-01,1.10438e-01,5.53613e-02,-8.33701e-02,-2.31069e-01,-3.56913e-01,-2.99150e-01,-9.49138e-02,3.38492e-02,9.14186e-02,1.63757e-01,1.56422e-01,6.16240e-02,5.85754e-03,-3.89211e-02,-4.22129e-02,-4.17940e-02,-9.54877e-04,-9.93666e-03,2.63268e-03,3.44078e-03,-6.75480e-03,1.11024e-02,4.74112e-03,-9.49988e-03,3.92670e-02,1.41679e-01,1.59795e-01,9.37570e-02,4.15037e-02,-1.33027e-02,-1.25870e-01,-2.02027e-01,-1.74001e-01,-1.62924e-01,-1.06624e-01,4.96112e-02,8.13454e-02,1.32216e-01,4.78699e-02,1.20839e-02,-3.56840e-02,-4.91367e-02,-1.57114e-02,-2.91417e-02,-1.30228e-02,2.18466e-03,-2.47464e-03,-1.67408e-02,1.06571e-02,-7.65851e-03,1.00965e-02,-1.78772e-02,-1.42963e-02,3.99826e-02,3.35608e-02,-4.42072e-02,-1.05465e-01,-1.78859e-01,-2.05642e-01,-2.45628e-01,-2.40669e-01,-2.26744e-01,-2.00258e-01,-1.42338e-01,-1.34210e-01,-3.76880e-02,3.54508e-03,-1.20758e-02,-1.08852e-02,-9.47277e-03,-9.48494e-03,5.65059e-03,1.12312e-02,-5.62262e-04,-4.88057e-03,-9.92289e-03,3.45363e-03,-4.68846e-03,1.88673e-02,-4.52826e-03,-1.21396e-02,-8.77296e-03,-2.88862e-02,-6.33974e-02,-7.68368e-02,-9.74265e-02,-1.36358e-01,-1.28973e-01,-1.16866e-01,-1.55110e-01,-1.68118e-01,-1.43386e-01,-1.03123e-01,-6.04390e-02,-1.06456e-02,-1.93763e-02,1.06790e-03,5.96415e-04,-2.28115e-03,6.93419e-03,-1.08829e-02,-1.33698e-02,-5.64379e-03,1.20296e-02,-7.69558e-03,-1.08994e-02,-4.03836e-03,-6.07258e-03,-1.25251e-02,1.03610e-03,-2.70556e-03,-6.00857e-03,1.11830e-04,-2.14148e-02,-3.01903e-02,-2.64163e-02,-3.89577e-02,-4.64108e-02,-3.96989e-02,-2.30779e-02,-1.75125e-02,-1.73275e-02,-2.11020e-03,-1.38725e-02,-8.37057e-03,5.11713e-03,-8.05389e-03,1.65871e-02,1.45121e-02,4.44859e-04,3.56072e-03,1.36114e-03,5.62707e-04,2.88499e-05,-1.45213e-02,2.93658e-03,5.46529e-03,-5.16038e-03,-1.43277e-02,1.66009e-02,4.62256e-03,-7.27463e-03,-7.34911e-03,-5.22874e-03,-3.66478e-03,9.03075e-03,-1.49044e-03,-1.38268e-02,-1.81091e-02,3.33540e-03,-5.11349e-03,-1.08096e-02,6.18658e-03,-1.04993e-03,9.95796e-04,1.15300e-04,1.26211e-02,-2.62870e-03,-7.67655e-03,-2.59271e-03,
-7.90787e-03,-7.71639e-04,-9.96747e-03,1.78343e-02,7.56682e-04,-1.07299e-02,5.52105e-03,6.43294e-03,1.98823e-02,-6.78148e-04,1.54769e-02,2.27507e-03,6.81179e-03,9.46040e-03,5.96800e-03,1.41513e-02,-1.43780e-02,1.69255e-03,-3.49565e-03,1.09062e-02,1.12052e-02,3.29465e-04,4.10416e-03,-1.97261e-02,-1.94733e-03,-1.45890e-03,-1.33984e-02,-1.84365e-03,1.39952e-04,-3.94780e-03,6.97360e-03,1.04953e-02,8.28994e-03,8.68126e-03,-5.05721e-04,1.19055e-03,-1.79313e-02,1.25824e-03,-1.66050e-02,-1.30569e-02,-2.44979e-02,7.02510e-03,8.04036e-03,1.49724e-02,3.09444e-02,1.44969e-02,1.02699e-02,-4.69712e-03,1.00920e-02,1.10428e-02,-6.97578e-03,-5.63948e-03,1.03374e-02,9.80450e-03,7.36780e-03,-4.34822e-04,-2.86048e-03,-1.02014e-02,-1.24111e-02,2.72281e-03,-7.15998e-04,-1.01795e-02,-1.22722e-02,-1.17631e-02,3.86675e-03,1.31878e-03,2.90969e-02,3.41751e-02,2.31178e-02,2.25728e-02,2.96110e-02,3.02077e-02,2.43463e-02,1.41542e-02,-4.46019e-03,-2.25809e-02,-5.82772e-03,-2.34910e-02,-5.19862e-03,-6.55386e-03,2.38301e-02,-2.98246e-03,1.04908e-03,2.20316e-03,7.23680e-03,1.49843e-03,1.25728e-03,7.24026e-03,-1.65824e-02,-8.55891e-04,-7.77585e-03,1.19053e-02,2.80750e-02,1.17513e-01,1.51265e-01,1.48884e-01,1.73737e-01,1.84849e-01,1.05724e-01,1.05970e-01,1.00047e-01,4.29862e-02,-4.07716e-02,-6.64913e-02,-8.36639e-02,-5.75439e-02,-4.86392e-02,-4.04490e-02,-8.76699e-03,6.26043e-03,9.07913e-03,5.97702e-03,-9.52744e-03,-6.35905e-03,1.43276e-02,-1.56210e-03,-3.86347e-03,4.48851e-03,3.01593e-02,6.37516e-02,1.32811e-01,2.40300e-01,2.26043e-01,2.66299e-01,2.88968e-01,2.30675e-01,1.92172e-01,1.39305e-01,1.25468e-01,1.13602e-01,3.62519e-02,-5.24072e-02,-7.31728e-02,-1.27328e-01,-1.12651e-01,-1.00747e-01,-4.62133e-02,-2.51320e-02,1.25890e-02,-7.78205e-03,-1.95031e-02,1.69373e-02,-3.13258e-03,-1.20682e-02,1.44183e-02,1.55568e-02,9.41694e-02,1.78632e-01,2.15933e-01,2.06678e-01,2.13156e-01,2.59095e-01,2.56256e-01,2.35286e-01,2.73830e-01,2.72975e-01,2.52986e-01,2.19920e-01,1.22085e-01,-4.38465e-02,-8.12273e-02,-9.87381e-02,-1.05473e-01,-1.22629e-01,-7.61298e-02,-1.14290e-02,-1.92856e-03,-2.41419e-03,1.71330e-02,1.38743e-02,1.21043e-02,-1.84576e-03,4.35054e-02,5.80947e-02,1.47483e-01,1.76322e-01,1.06592e-01,1.23925e-01,9.38566e-02,1.92071e-02,4.34660e-02,7.55428e-02,8.63616e-02,1.23296e-01,6.12883e-02,1.23717e-02,1.31397e-02,-8.11798e-02,-1.04760e-01,-1.03697e-01,-1.27067e-01,-1.75910e-01,-8.96204e-02,-3.65414e-02,-1.25878e-02,-8.26846e-03,-1.03968e-02,-6.27735e-03,-5.78635e-03,1.93266e-03,5.01816e-02,8.82148e-02,1.97822e-01,1.04780e-01,6.53977e-02,1.19001e-02,-8.95771e-03,2.77487e-02,-3.87039e-02,1.01984e-02,7.03183e-03,-4.78910e-02,-6.00510e-02,-9.95827e-02,-7.44777e-02,-5.84196e-02,-1.00944e-01,-4.61163e-02,-6.26924e-02,-1.97485e-01,-1.26672e-01,-2.75092e-02,6.65872e-03,-4.68485e-03,-4.03141e-03,-1.34187e-02,1.12958e-02,1.41843e-02,7.67295e-02,7.69527e-02,1.23492e-01,9.98287e-02,2.20705e-02,2.80289e-02,1.46309e-01,1.31005e-01,4.49535e-02,5.87807e-02,8.54999e-02,6.01320e-02,-1.52245e-02,-2.78363e-02,-4.69416e-04,5.60063e-02,1.80806e-02,-2.59054e-02,-8.43452e-02,-1.59014e-01,-1.57850e-01,-4.09224e-02,-2.23018e-02,7.68049e-03,-7.12461e-03,6.96502e-03,9.06491e-03,2.49633e-02,4.80600e-02,1.31388e-01,1.11187e-01,-1.91103e-03,-6.08258e-02,5.84729e-02,1.42372e-01,1.23028e-01,7.84274e-02,1.09971e-01,1.62494e-01,1.32848e-01,1.45005e-01,6.55862e-02,1.62785e-01,8.68161e-02,-4.23120e-03,-7.30966e-02,-3.36746e-02,-1.34849e-01,-1.40533e-01,-3.88964e-02,-3.71685e-03,7.95514e-04,4.51399e-04,-3.04858e-03,-7.01388e-03,1.44893e-02,-2.65071e-03,7.08849e-02,7.24334e-02,-1.06351e-01,-1.60143e-01,-1.79820e-01,-1.36978e-01,-1.19668e-01,-1.79904e-01,-2.09802e-01,-8.23226e-02,-9.39001e-02,-1.24823e-02,2.59168e-02,1.32838e-01,1.05043e-01,-2.37009e-02,-3.01727e-02,-6.34520e-02,-1.09707e-01,-9.68344e-02,-3.67289e-02,9.53688e-03,1.28206e-03,6.30830e-03,7.84299e-03,-6.46050e-03,-1.64825e-02,-4.78995e-02,-8.80535e-02,-1.85269e-01,-3.49699e-01,-4.00606e-01,-4.02827e-01,-4.85638e-01,-4.90318e-01,-5.78973e-01,-5.86470e-01,-4.38855e-01,-3.00346e-01,-1.76802e-01,-1.62342e-01,-4.27300e-02,8.93369e-02,-1.59673e-02,-3.00145e-02,-9.89437e-02,-9.66746e-02,-4.18582e-02,2.62877e-02,-1.68839e-03,-2.05212e-03,1.20222e-02,-1.63707e-02,-1.40805e-03,-2.21855e-02,-7.39883e-02,-2.61945e-01,-4.33801e-01,-5.76168e-01,-4.66636e-01,-4.92424e-01,-5.23048e-01,-4.86102e-01,-5.24085e-01,-4.80138e-01,-4.09221e-01,-3.58132e-01,-2.77901e-01,-2.56937e-01,-1.13802e-01,4.72507e-02,-6.09370e-03,-2.42789e-02,-1.38841e-01,-1.92409e-01,-2.39553e-02,6.01124e-02,1.82857e-02,2.88675e-03,-3.31834e-03,-6.93046e-03,-4.75202e-03,-2.31688e-02,-1.55758e-01,-3.70614e-01,-5.24118e-01,-4.83494e-01,-3.66527e-01,-2.83233e-01,-2.03789e-01,-1.28844e-01,-1.09872e-01,-3.89676e-02,-6.41011e-02,-2.01414e-01,-2.55717e-01,-1.83127e-01,-1.27179e-01,-4.79994e-02,-5.45042e-02,-6.42350e-02,-1.09663e-01,-1.32227e-01,3.60223e-02,1.25513e-01,4.86665e-02,2.95292e-02,-1.67877e-03,-7.40714e-03,4.24743e-03,-3.48857e-02,-1.27870e-01,-3.01744e-01,-2.78901e-01,-1.48745e-01,-5.78290e-02,-1.66131e-02,1.08039e-02,9.17629e-02,9.15182e-02,2.28965e-01,1.24456e-01,-5.87598e-02,-9.33567e-02,-1.60403e-01,-1.06007e-01,-1.14367e-01,-8.05089e-02,-8.12889e-02,-8.98580e-02,-1.00356e-01,3.35701e-02,1.36071e-01,7.29438e-02,-1.39273e-02,-3.81547e-04,1.79171e-03,9.67630e-03,1.42620e-02,1.30621e-02,6.30223e-03,3.97454e-02,2.15381e-02,4.74104e-02,1.99440e-02,2.80209e-02,-8.11184e-03,7.40919e-02,2.03855e-01,1.49407e-01,4.70482e-02,8.00544e-03,-8.11556e-02,-1.58166e-01,-1.06080e-01,-1.60341e-01,-7.63786e-02,-1.18663e-01,-3.78432e-02,1.61842e-01,2.05416e-01,1.07543e-01,1.29173e-02,6.07294e-04,5.66739e-03,-2.04795e-02,3.57196e-02,1.40024e-01,1.85264e-01,2.11677e-01,1.26659e-01,2.57432e-02,9.50485e-02,9.47416e-02,8.95266e-02,2.35253e-01,2.67837e-01,1.37304e-01,3.78856e-02,1.55248e-01,5.17117e-02,-2.63015e-03,-5.06002e-02,-6.40240e-02,7.02023e-02,8.58897e-02,1.14738e-01,2.58917e-01,3.12999e-01,1.22119e-01,6.60804e-03,9.61566e-03,8.73426e-03,-2.11479e-02,7.63013e-02,2.35333e-01,3.01885e-01,2.17758e-01,1.75860e-01,1.26605e-01,1.42185e-01,1.87487e-01,2.49940e-01,2.96733e-01,2.02524e-01,1.01451e-01,1.37442e-01,1.06581e-01,-3.43986e-02,-2.79652e-02,7.07180e-03,4.59530e-02,1.19163e-01,1.30793e-01,1.73854e-01,3.39219e-01,3.24178e-01,9.94863e-02,2.96706e-03,2.93551e-03,1.77195e-03,-1.41855e-02,4.18608e-02,2.81707e-01,3.49662e-01,2.61582e-01,2.64872e-01,1.07989e-01,1.14381e-01,2.02074e-01,2.32997e-01,3.10000e-01,3.05494e-01,1.54267e-01,2.96583e-02,8.84989e-02,1.13284e-01,1.16344e-01,7.46752e-02,5.85434e-02,1.14446e-01,1.98647e-01,3.52366e-01,4.48534e-01,2.49257e-01,3.94491e-02,2.35973e-02,-2.60703e-04,1.72227e-02,-2.89717e-02,4.18792e-02,2.28026e-01,2.49465e-01,2.42093e-01,2.61407e-01,1.47287e-01,1.26191e-01,2.36469e-01,2.40479e-01,2.30738e-01,2.63752e-01,1.40900e-01,1.15298e-01,9.03267e-02,1.05920e-01,1.61105e-01,6.19525e-02,1.14783e-01,1.93385e-01,2.94504e-01,3.69415e-01,3.17315e-01,1.69545e-01,2.42318e-02,3.21207e-03,7.88653e-03,1.21570e-02,1.35813e-02,4.18579e-02,1.93347e-01,2.18861e-01,2.23079e-01,2.66524e-01,2.04655e-01,1.92431e-01,2.03396e-01,2.30075e-01,1.48125e-01,7.49525e-02,4.13143e-02,8.61954e-02,5.72889e-02,4.52037e-02,1.45558e-01,1.85009e-01,2.17441e-01,3.29320e-01,3.55310e-01,3.53627e-01,2.37884e-01,8.39149e-02,3.51286e-03,8.84189e-03,-8.77250e-03,7.32678e-03,1.40785e-02,8.49734e-02,1.05418e-01,1.31381e-01,1.57802e-01,1.58554e-01,1.32262e-01,1.95559e-01,1.20745e-01,7.59517e-02,2.43127e-02,3.29608e-02,4.29297e-02,-3.50813e-02,-2.51603e-04,5.19726e-02,1.67616e-01,2.42815e-01,1.65045e-01,2.71359e-01,3.10983e-01,2.87642e-01,1.66459e-01,5.18831e-02,-1.14043e-03,-1.25006e-02,-1.67715e-03,-5.94251e-03,6.32882e-03,5.31696e-02,8.63385e-02,7.13630e-02,7.69707e-02,7.01273e-02,1.46032e-01,1.54567e-01,1.00297e-01,8.97788e-02,8.65801e-03,-4.70536e-02,-1.00498e-01,-1.14904e-01,-4.95418e-02,4.25567e-02,1.41918e-01,2.29419e-01,2.60535e-01,2.38402e-01,2.20802e-01,1.19584e-01,7.91459e-02,2.31591e-02,-2.41883e-03,3.60419e-03,1.14965e-02,-3.93539e-03,-7.50210e-03,-3.59517e-03,6.29305e-03,-1.60747e-02,-6.41378e-02,-8.43012e-02,-3.83626e-02,1.54145e-02,-3.52088e-03,7.09148e-03,-4.10310e-02,-1.33715e-01,-1.29340e-01,-1.25323e-01,-6.80414e-02,-1.21291e-02,9.85959e-02,1.92224e-01,1.70418e-01,1.49300e-01,1.10046e-01,2.81756e-02,3.59073e-02,1.49248e-02,9.68743e-03,1.70004e-02,-8.60358e-03,-1.86275e-02,-1.15494e-02,-3.38249e-03,-4.47002e-02,-6.16843e-02,-1.40678e-01,-1.69907e-01,-1.76829e-01,-2.00496e-01,-2.36122e-01,-1.88106e-01,-1.18291e-01,-6.56185e-02,-1.81345e-02,-4.20313e-02,-3.52915e-02,-8.71369e-03,8.55395e-03,-3.21893e-02,-4.52127e-02,1.10327e-02,-2.88637e-02,1.56625e-03,3.11259e-02,2.60131e-02,9.98460e-03,-1.18152e-02,-1.29168e-03,6.73266e-03,-9.90343e-03,-1.95418e-02,-2.58039e-02,-4.01881e-02,-4.04348e-02,-8.38259e-02,-1.40980e-01,-1.24810e-01,-1.33855e-01,-1.33580e-01,-1.12683e-01,-9.02760e-02,-5.07327e-02,-2.83222e-02,-4.65587e-02,-4.56142e-02,-7.38491e-02,-8.38572e-02,-6.45414e-02,-5.09245e-02,-4.03633e-02,-2.27770e-02,-7.96156e-03,-3.23750e-03,2.15852e-03,7.28288e-03,1.90449e-02,-1.78250e-03,1.14465e-03,1.11123e-02,8.38093e-03,3.43533e-03,6.25376e-04,-4.93287e-03,-1.95648e-02,-2.19575e-03,-3.35542e-03,-8.95258e-03,-1.76294e-02,-2.23730e-02,-1.78900e-03,-2.72916e-03,-1.46957e-02,-3.60145e-02,-4.89103e-03,5.09306e-03,5.33529e-03,-7.14967e-03,-1.19506e-03,-5.08974e-04,5.02251e-03,1.20126e-02,1.80074e-03,1.91122e-02,-3.60989e-03,-8.61607e-03,1.40015e-02,-7.16433e-03,1.57336e-03,7.32620e-03,-3.21123e-03,-9.77684e-03,-1.54383e-02,-4.16990e-03,-5.65758e-03,-1.24465e-02,2.10283e-03,-1.66047e-03,-5.57470e-03,-2.64924e-04,-1.99379e-02,8.69914e-03,-3.96955e-03,-1.01132e-02,5.34098e-03,-1.07636e-03,1.84550e-02,-1.03510e-02,7.36300e-03,1.09215e-03,-2.84178e-03,-1.15969e-04,
-6.52987e-03,-2.94500e-04,-1.27451e-02,-1.12422e-02,-4.19658e-03,-3.16088e-03,-8.14021e-03,-1.52221e-04,-6.88718e-03,1.53174e-02,-6.44903e-03,-1.12333e-02,-1.54644e-02,2.29657e-03,-7.42957e-03,1.89521e-03,-9.50938e-03,1.23106e-02,9.57263e-03,1.21171e-03,-6.93287e-03,2.55272e-03,-3.68491e-03,4.88469e-03,-5.67325e-03,3.19773e-03,1.63540e-02,2.54486e-03,-1.06709e-02,2.33173e-03,7.55537e-03,-1.17312e-02,-4.45569e-03,-7.12574e-03,-1.68513e-02,-1.51276e-02,7.05196e-03,4.92042e-03,4.42797e-03,1.39080e-02,2.54731e-03,-1.76562e-02,-6.61090e-04,-9.73487e-03,-4.68140e-03,1.28966e-02,1.82824e-03,1.65389e-02,-1.40586e-02,1.00190e-02,2.80412e-03,7.14012e-03,1.31003e-03,-1.01366e-02,4.38516e-03,-1.03820e-02,4.92682e-03,5.75164e-04,1.41186e-02,8.40578e-03,1.06980e-02,-1.30564e-02,-1.47017e-02,8.83610e-04,8.58876e-03,-1.41828e-02,7.18698e-03,-7.03684e-03,2.11858e-02,1.06624e-03,-9.33532e-03,-7.79179e-05,7.27901e-03,1.11404e-02,-1.25739e-02,-1.80013e-02,1.46523e-03,-2.13971e-03,-1.35854e-03,9.80347e-03,-1.35140e-02,-1.15932e-02,-4.74711e-03,-8.16055e-03,1.02384e-02,-6.12043e-03,-1.31563e-02,-8.82360e-03,-2.93731e-03,1.29792e-02,1.64352e-02,1.85894e-02,4.40706e-02,3.12068e-02,6.10758e-02,1.08196e-01,1.36589e-01,1.44370e-01,1.88168e-01,1.67079e-01,1.43392e-01,9.65503e-02,8.26322e-02,4.01686e-02,2.12834e-02,-2.97874e-02,-3.12023e-02,-1.52734e-02,-5.80488e-03,-3.59383e-04,5.16588e-03,-7.14659e-03,-1.19791e-02,-6.29741e-03,2.54826e-04,1.31671e-02,1.75940e-02,4.84869e-02,6.19295e-02,1.37210e-01,1.98203e-01,2.16191e-01,2.74436e-01,2.75244e-01,2.75598e-01,3.13733e-01,2.44416e-01,2.10361e-01,1.35872e-01,4.88615e-02,4.18763e-02,-2.04561e-02,-7.31246e-02,-9.44124e-02,-1.02629e-01,-7.67842e-02,-7.61221e-03,5.43898e-03,-1.44147e-02,6.24839e-03,6.44599e-03,6.52883e-03,-5.01722e-03,1.19015e-02,4.94734e-02,9.74327e-02,1.40082e-01,1.99497e-01,1.97876e-01,2.32180e-01,2.28205e-01,1.60019e-01,6.37961e-02,2.98011e-02,1.27486e-02,1.21329e-01,1.78927e-01,3.16060e-02,4.63947e-03,-1.06698e-02,-9.12643e-02,-1.75418e-01,-1.53918e-01,-1.56009e-01,-3.71428e-02,-1.10642e-02,5.00396e-03,-7.03834e-03,-6.00231e-03,7.34792e-03,3.53835e-03,6.00092e-02,9.68791e-02,1.50620e-01,2.12923e-01,1.82085e-01,1.83611e-01,2.16354e-01,1.94397e-01,9.66211e-02,7.41802e-02,1.49942e-01,1.18970e-01,1.89770e-01,1.92047e-01,1.40143e-01,1.29983e-01,-2.69623e-02,-1.29580e-03,-8.40079e-02,-1.79530e-01,-1.73808e-01,-8.27556e-02,-3.99094e-02,-5.96163e-03,-8.54711e-03,3.76226e-03,7.70247e-05,-2.67594e-03,5.78121e-02,1.66527e-01,2.24835e-01,1.68571e-01,1.12175e-01,7.57313e-02,8.43428e-02,9.23230e-02,6.91040e-02,1.03957e-01,1.52334e-01,2.42131e-01,2.30846e-01,9.47291e-02,1.24992e-01,9.19744e-02,7.85328e-02,9.00235e-02,-1.06804e-02,-1.42189e-01,-1.59583e-01,-1.14497e-01,-4.20286e-02,1.08652e-03,-2.31886e-03,-1.90229e-02,8.06286e-03,1.12133e-03,4.79941e-02,1.58287e-01,2.14198e-01,1.85704e-01,1.07794e-01,5.49039e-02,6.63775e-02,5.45964e-02,-6.86215e-03,-5.21950e-03,6.75248e-02,1.79747e-01,2.56570e-01,1.53453e-01,1.16841e-01,1.64261e-01,1.34604e-01,1.94971e-01,1.21690e-01,7.93447e-03,-1.90269e-01,-1.50758e-01,-4.61476e-02,3.63645e-03,-9.01245e-03,-1.55133e-02,-1.57361e-02,4.30529e-03,3.56196e-02,1.63176e-01,1.29751e-01,7.34293e-02,8.63196e-02,-1.58424e-04,-4.25575e-02,-1.78414e-01,-2.82145e-01,-2.31774e-01,-7.11163e-02,1.78873e-01,3.32902e-01,2.78731e-01,1.88558e-01,1.22896e-01,1.66369e-01,2.63595e-01,1.96961e-01,5.35199e-02,-1.34232e-01,-1.37330e-01,-1.58381e-02,2.26073e-03,2.17893e-03,-1.27650e-02,2.04766e-03,2.10196e-03,4.31297e-02,8.84263e-02,9.65472e-03,-4.67040e-02,-1.10346e-01,-2.35569e-01,-3.06986e-01,-4.38719e-01,-4.26548e-01,-3.34344e-01,-4.28810e-03,2.23033e-01,2.60578e-01,2.69701e-01,2.05812e-01,2.12678e-01,2.18105e-01,2.72669e-01,1.24097e-01,-2.95854e-02,-9.49998e-02,-8.38460e-02,-1.60261e-02,-1.08168e-02,6.70711e-03,-6.79726e-03,-4.39803e-03,3.57323e-04,3.73011e-02,1.30557e-02,-9.62536e-02,-2.07283e-01,-3.28064e-01,-3.51679e-01,-3.70519e-01,-3.04551e-01,-1.49217e-01,-3.48377e-02,1.41126e-01,2.18167e-01,1.95395e-01,1.35848e-01,2.30424e-01,1.80165e-01,1.73665e-01,1.67155e-01,-6.98006e-02,-1.07317e-01,-1.18815e-01,-5.86145e-02,-2.40158e-02,-1.19200e-03,6.33320e-04,9.03115e-03,-1.73968e-02,-6.07633e-04,5.77176e-03,-3.18672e-02,-1.52462e-01,-2.65986e-01,-3.37380e-01,-3.11464e-01,-1.36050e-01,-3.25403e-02,-3.58296e-02,3.23299e-02,1.37743e-01,2.82085e-01,1.83462e-01,1.28733e-01,1.21006e-01,3.90674e-02,-4.03712e-02,-5.35762e-02,-2.30172e-01,-1.87536e-01,-1.21501e-01,-5.24143e-02,4.76129e-03,5.90554e-03,-2.07374e-04,1.01809e-02,-1.28097e-02,-5.24593e-03,-6.37885e-03,-6.46691e-02,-1.36997e-01,-2.63587e-01,-2.89156e-01,-2.02834e-01,-4.89996e-02,-8.38898e-02,-9.93939e-02,1.05011e-01,1.96541e-01,1.98711e-01,-6.50196e-03,1.33127e-01,1.57303e-01,6.40374e-02,-1.01751e-01,-1.94194e-01,-2.14016e-01,-2.03009e-01,-1.24244e-01,-4.93950e-02,-3.09152e-03,1.24538e-02,2.03031e-03,-1.57521e-02,3.93863e-03,1.81993e-03,5.92980e-03,-2.71666e-02,-9.77898e-02,-2.37555e-01,-2.52651e-01,-1.73964e-01,-1.07021e-01,-1.37170e-01,-1.12696e-01,1.23831e-01,1.20542e-01,5.11047e-02,-2.59042e-03,1.00165e-02,9.75780e-02,5.13459e-02,-3.89838e-04,-9.13771e-02,-1.91270e-02,-1.18641e-01,-8.73568e-02,-4.40589e-02,-1.64275e-02,-1.43459e-02,1.34918e-02,3.15430e-04,8.68135e-03,1.92018e-02,1.29302e-02,3.15150e-02,-1.40668e-02,-1.12341e-01,-1.78990e-01,-2.11202e-01,-1.99673e-01,-1.67856e-01,-6.09233e-02,9.37570e-02,1.70002e-01,6.67092e-02,-3.69226e-02,-1.07804e-01,-1.58464e-02,7.99989e-02,1.03054e-01,1.50390e-01,1.56292e-01,9.80386e-02,3.27367e-02,4.66006e-03,-1.19679e-03,-7.41271e-03,-3.65785e-03,-1.01914e-03,1.77738e-03,2.15296e-02,8.00470e-02,1.26025e-01,4.11727e-02,-8.27636e-02,-1.39635e-01,-2.32933e-01,-2.30246e-01,-2.22506e-01,-8.90455e-02,2.44602e-02,1.11361e-01,-5.39436e-02,-1.79905e-01,-1.76575e-01,1.72776e-03,1.69561e-01,2.01143e-01,1.80103e-01,1.57161e-01,1.49913e-01,8.22486e-02,2.74428e-02,-4.42767e-02,-1.38932e-03,5.11081e-03,-1.73623e-03,9.60927e-04,4.65652e-02,1.45374e-01,1.64328e-01,6.18234e-02,-4.42425e-02,-1.16239e-01,-2.06585e-01,-3.59168e-01,-4.16129e-01,-3.92941e-01,-2.55192e-01,-2.24178e-01,-2.51259e-01,-2.08215e-01,-1.06622e-02,1.58358e-01,1.38379e-01,2.03318e-01,1.27024e-01,1.97415e-01,2.28874e-01,9.60659e-02,-3.07737e-02,-3.82499e-02,-7.52561e-03,-1.09100e-02,-1.09712e-02,-5.40427e-03,6.60275e-02,2.15386e-01,2.08230e-01,1.65252e-01,1.89640e-02,-1.24838e-01,-1.61501e-01,-2.85469e-01,-3.97037e-01,-3.84132e-01,-3.80635e-01,-3.19280e-01,-2.56951e-01,-2.64017e-02,1.74509e-01,1.72000e-01,2.57860e-01,2.40553e-01,1.61080e-01,2.87587e-01,2.55740e-01,7.86521e-02,-7.13485e-02,-4.87257e-02,1.12599e-03,8.97284e-03,1.57587e-02,-1.16648e-02,5.11144e-02,2.06513e-01,2.50297e-01,2.43829e-01,9.02652e-02,1.16101e-02,-3.28582e-02,-8.10944e-02,-1.75432e-01,-2.63992e-01,-2.74121e-01,-2.44726e-01,-1.53774e-01,-3.53840e-02,1.51704e-01,2.38869e-01,2.37601e-01,2.18148e-01,1.93877e-01,2.56725e-01,1.47658e-01,1.81931e-02,-6.00583e-02,-1.78517e-02,3.75961e-03,1.03346e-02,-5.39387e-03,-3.88605e-04,3.35957e-02,1.98163e-01,2.73248e-01,2.08153e-01,1.60461e-01,1.03279e-01,1.00927e-01,8.17176e-02,-2.09751e-02,-1.29245e-01,-2.22762e-01,-1.54334e-01,-5.16680e-02,-4.46769e-03,9.88649e-02,1.69704e-01,2.26499e-01,2.13342e-01,1.76452e-01,9.05279e-02,2.40444e-02,-3.81768e-02,-5.16990e-02,-4.99550e-03,-1.18685e-02,4.34489e-03,-1.76101e-03,4.06622e-03,2.97263e-02,1.41672e-01,2.02896e-01,1.68906e-01,1.04608e-01,6.59125e-02,6.11606e-02,8.62218e-03,2.62794e-02,-6.30460e-02,-1.02665e-01,-7.19478e-02,-2.43834e-02,7.61611e-02,1.13277e-01,1.08165e-01,1.83247e-01,1.66752e-01,9.81050e-02,-1.17836e-02,-7.00800e-02,-8.55576e-02,-5.16592e-02,-2.69472e-02,7.03800e-04,-8.10180e-03,-4.04489e-03,9.23434e-03,2.94212e-02,8.64881e-02,1.24387e-01,1.44662e-01,1.48326e-01,1.04301e-01,3.83407e-03,1.42162e-02,5.42598e-02,4.90945e-03,-4.09949e-02,2.68990e-03,2.64988e-02,7.37018e-02,6.13498e-02,5.46402e-02,9.00985e-02,1.31472e-01,6.92057e-02,-6.91485e-02,-5.80251e-02,-5.47118e-02,-2.56865e-02,-9.79664e-03,-1.50359e-02,-3.91904e-04,1.39008e-02,-2.44811e-04,2.22663e-02,6.22596e-02,9.58114e-02,1.47682e-01,2.04926e-01,2.02633e-01,5.91051e-02,3.89038e-02,4.88084e-02,7.45690e-02,3.14643e-02,6.51426e-02,-6.17780e-03,-4.30563e-03,-5.09368e-02,6.77624e-02,8.53950e-02,-1.73191e-03,-5.85378e-02,-6.69661e-02,-5.58706e-02,-4.49028e-02,-1.89353e-02,-1.86784e-02,4.74262e-03,-1.04884e-02,-6.41541e-03,2.70152e-03,1.10832e-02,5.09420e-02,9.95849e-02,1.08699e-01,2.10866e-01,2.95441e-01,2.61085e-01,2.64828e-01,2.77674e-01,2.95765e-01,2.34802e-01,2.35752e-01,1.70407e-01,5.89649e-02,4.41738e-02,1.53245e-02,-1.06929e-01,-9.12229e-02,-4.09419e-02,-4.42675e-02,-2.00661e-02,-1.47337e-02,-1.67473e-02,-1.51870e-03,-1.04982e-02,-8.34931e-03,9.12395e-04,7.04924e-03,4.71384e-03,5.52430e-03,8.79436e-03,2.74267e-02,7.88666e-02,1.37366e-01,1.80937e-01,2.42534e-01,2.68317e-01,2.94847e-01,2.74441e-01,2.39578e-01,1.52640e-01,6.52018e-02,3.73415e-02,-1.67707e-02,-4.31383e-02,2.16544e-02,-2.25814e-02,-4.11036e-02,1.03165e-03,5.64768e-04,-4.13403e-03,9.51503e-03,-7.76083e-04,-4.14091e-04,4.27896e-03,-9.82621e-03,5.16975e-03,-1.12550e-02,-1.04762e-02,8.55890e-03,1.23710e-02,6.12291e-03,1.31319e-02,1.91840e-02,9.39374e-03,2.26715e-02,-1.31242e-02,-2.75286e-02,-3.07779e-02,-3.25088e-02,3.00020e-03,-1.42271e-02,-6.76230e-03,3.83281e-03,-1.71216e-02,-1.46503e-02,1.09807e-02,-1.75895e-02,-7.03435e-03,-4.30823e-03,-2.71179e-03,-7.36711e-03,-5.20115e-04,-1.48679e-02,1.06943e-02,1.28052e-02,-9.40611e-03,-8.17405e-03,9.34147e-03,1.06767e-02,-1.30673e-02,-1.29449e-02,-4.80268e-05,1.22193e-02,-5.08007e-03,-1.36801e-02,-1.51120e-02,-8.37858e-03,4.56927e-03,-3.00357e-03,-8.31914e-03,-7.41116e-03,2.92049e-03,-1.39457e-02,-4.99811e-03,8.35898e-03,-1.39352e-03,1.21709e-02,9.71383e-03,-1.20731e-02,
-2.62513e-03,-1.40296e-02,9.66206e-03,6.77161e-03,-8.62205e-03,-1.16050e-02,1.22390e-02,-3.00580e-03,-8.68087e-03,-1.53483e-02,-3.19564e-03,7.79313e-04,3.50780e-04,1.17190e-02,-1.47065e-02,-1.76597e-03,8.85841e-03,7.77878e-03,1.55236e-02,-5.89062e-03,3.65156e-03,9.22015e-03,-3.45582e-03,-8.10071e-03,-1.91761e-02,1.35657e-02,-6.06717e-04,1.79498e-02,-8.71968e-03,-6.11205e-03,-3.74053e-05,-1.43921e-03,-7.61803e-03,2.13269e-03,-1.27106e-02,-2.07144e-03,-2.57515e-03,-6.95167e-03,-1.09374e-02,-1.22647e-02,-2.72098e-02,-3.95019e-02,-2.48601e-02,-1.35715e-02,-1.23685e-02,5.49009e-03,-8.61328e-03,-9.53863e-03,2.15115e-03,-1.29108e-02,-3.76578e-03,3.27096e-04,-1.25168e-02,1.42023e-02,-6.85563e-03,-1.85604e-03,-4.20688e-03,1.00509e-02,4.45106e-04,-1.19321e-03,-1.23987e-02,-1.48375e-02,-1.43740e-02,-2.21595e-02,-2.72985e-02,-3.41599e-02,-7.41388e-02,-6.61059e-02,-9.56815e-02,-1.04647e-01,-9.57640e-02,-8.12093e-02,-8.61252e-02,-5.33996e-02,-2.34531e-02,-2.59406e-02,-9.38361e-03,1.12157e-02,8.21970e-03,8.70241e-03,-2.40606e-03,1.94802e-03,-1.58394e-02,1.17657e-03,-1.61050e-02,-1.48617e-02,-5.97692e-03,3.89099e-03,5.25767e-03,8.22300e-03,-2.04449e-02,-2.75961e-02,-5.84881e-02,-8.74068e-02,-1.15182e-01,-1.22584e-01,-2.12996e-01,-2.55805e-01,-2.10263e-01,-1.90679e-01,-1.75152e-01,-1.15725e-01,-7.40405e-02,-4.14166e-03,9.92829e-03,3.07597e-03,4.07032e-03,5.32838e-03,-3.42420e-03,-3.04337e-03,7.45611e-04,-8.65672e-03,-1.23325e-02,1.31316e-02,-1.46705e-02,1.78985e-02,-6.04508e-03,1.14519e-02,-6.71256e-05,-2.42936e-02,-6.18072e-02,-1.11631e-01,-1.73433e-01,-1.79083e-01,-2.09926e-01,-2.46451e-01,-2.36879e-01,-2.12341e-01,-1.60492e-01,-1.26750e-01,-5.95515e-02,-7.89492e-04,4.21666e-02,4.32082e-02,7.76075e-02,7.41566e-02,3.49271e-02,1.23026e-02,9.90933e-03,2.60818e-03,-4.03943e-03,2.72897e-03,-3.34133e-03,-6.03546e-03,1.57465e-02,1.91275e-02,2.84787e-02,4.71942e-03,-2.23487e-03,-2.86545e-02,-1.01176e-01,-1.32822e-01,-1.51775e-01,-2.08926e-01,-1.10068e-01,-5.48898e-02,6.74303e-03,-1.92105e-02,3.46923e-02,1.02878e-01,9.84392e-02,1.12065e-01,1.41104e-01,2.11314e-01,8.38780e-02,2.62687e-03,1.39686e-02,1.42185e-03,1.59071e-02,3.80930e-03,5.37809e-03,-1.75288e-02,2.26403e-02,6.27528e-02,2.96912e-02,6.17602e-02,1.82717e-02,-4.60410e-02,-1.03459e-01,-1.98849e-01,-2.06194e-01,-2.57065e-01,-3.09963e-01,-2.67491e-01,-2.19107e-01,-1.83543e-01,-1.86428e-01,-4.00352e-02,-1.00826e-02,7.67413e-02,2.17581e-01,2.71669e-01,8.91371e-02,-9.68313e-04,2.61255e-03,8.56657e-03,1.12744e-02,3.60098e-03,-6.31795e-03,-2.17454e-02,3.22471e-02,6.30660e-02,4.67659e-02,5.18251e-02,-1.04284e-02,-6.80516e-02,-1.74243e-01,-2.67735e-01,-3.40573e-01,-3.53399e-01,-4.77069e-01,-4.34737e-01,-4.02861e-01,-2.43348e-01,-2.35580e-01,-1.31898e-01,-8.23749e-02,8.93997e-03,1.67631e-01,2.09163e-01,6.94973e-02,-1.62980e-02,8.62129e-03,3.95803e-03,9.60635e-03,-1.85072e-02,1.07039e-02,-1.41334e-02,1.92052e-02,7.98615e-02,-8.89080e-03,-1.40704e-02,-1.00415e-01,-6.43983e-02,-1.52987e-01,-1.79870e-01,-2.61148e-01,-2.75611e-01,-4.89776e-01,-4.10695e-01,-3.04866e-01,-1.33855e-01,-9.60131e-02,-8.68312e-02,-4.68511e-02,-1.12657e-02,6.75543e-02,9.67802e-02,1.50164e-02,-2.33390e-02,-1.13597e-02,-3.60130e-03,-6.68102e-03,-2.00731e-03,-1.10581e-02,-4.30316e-02,-2.76106e-02,-1.90030e-02,-4.17139e-02,-7.23695e-02,-6.21712e-02,-6.39451e-02,-1.17348e-01,-9.97535e-02,-7.21644e-02,-1.59661e-01,-5.22620e-01,-3.45678e-01,-1.07179e-01,-2.56468e-02,-5.25188e-02,-2.84994e-02,-5.68535e-02,-5.65396e-02,-5.39939e-02,-6.32996e-02,-1.24231e-01,-8.14377e-02,-1.42856e-02,-1.44657e-02,-1.33080e-02,-5.02834e-03,-7.61267e-03,-3.47020e-02,-4.12490e-02,-4.24111e-02,-7.51497e-02,-3.60237e-02,-4.10670e-03,9.63159e-02,7.42632e-02,2.88777e-02,1.05801e-01,-2.36940e-01,-5.67647e-01,-2.14291e-01,1.28335e-02,8.03335e-02,-3.00132e-02,6.72171e-03,-1.05954e-01,-1.48070e-01,-1.53297e-01,-2.38056e-01,-1.83669e-01,-1.13012e-01,-2.21617e-02,-7.78470e-03,-2.18080e-03,-6.76503e-03,-1.67984e-02,-2.36552e-02,-6.44197e-02,-5.08503e-02,5.31031e-03,4.60092e-02,1.02419e-01,2.27331e-01,2.59132e-01,2.06485e-01,2.07416e-01,-3.45648e-01,-4.93869e-01,-4.74914e-02,2.80735e-01,1.25657e-01,-3.45380e-02,-7.43686e-02,-1.63705e-01,-1.32160e-01,-1.53104e-01,-1.82778e-01,-1.24694e-01,-6.10809e-02,-2.21058e-02,-6.25140e-03,6.26997e-03,-2.45059e-03,-4.80869e-02,-6.46886e-02,-7.33616e-02,-2.99851e-02,7.75627e-02,1.75605e-01,2.52458e-01,2.97343e-01,4.02517e-01,4.33112e-01,3.84966e-01,-1.19552e-01,-3.38103e-01,6.01909e-02,3.14951e-01,1.73371e-01,1.95702e-03,-2.50727e-02,-5.80208e-02,-3.82905e-02,-6.33984e-02,-1.16347e-01,-5.99081e-02,-2.84878e-03,-1.92338e-02,4.52388e-04,6.06915e-03,3.26687e-04,-2.19080e-02,-2.90347e-02,-3.31805e-02,1.00061e-01,2.52665e-01,3.11836e-01,3.31408e-01,2.92379e-01,4.13467e-01,5.40673e-01,3.09355e-01,-9.84176e-02,-1.75808e-01,1.42420e-01,2.73251e-01,2.43486e-01,9.86462e-02,1.13105e-01,1.38905e-01,7.80963e-02,5.97614e-02,-2.04768e-02,-3.39667e-02,-5.19216e-03,-6.06943e-03,-1.73381e-02,-5.00150e-04,-2.35329e-03,-1.45067e-02,-1.40529e-02,7.34349e-02,2.36058e-01,3.15203e-01,3.99046e-01,3.45484e-01,2.81978e-01,3.46714e-01,3.61087e-01,1.92515e-01,-9.33229e-02,-8.92295e-02,1.10994e-01,3.77837e-01,3.97587e-01,1.82366e-01,2.31968e-01,1.51078e-01,8.23756e-02,6.16877e-02,5.36936e-03,-6.79953e-02,-8.43959e-03,-8.38810e-03,-5.96025e-04,6.03799e-03,1.70956e-02,7.06238e-03,4.43050e-03,5.85908e-02,1.85250e-01,2.59628e-01,3.49356e-01,3.44822e-01,3.44359e-01,1.88323e-01,1.76300e-01,1.05271e-01,-9.85393e-02,7.77749e-03,2.79942e-01,4.65624e-01,3.69239e-01,1.86537e-01,1.51091e-01,3.84634e-02,2.97613e-03,3.51769e-02,-4.45943e-02,-8.88213e-02,-5.03826e-02,-6.54380e-03,9.68832e-03,8.05852e-04,-5.59142e-03,8.46270e-03,-2.68036e-02,-4.58486e-02,6.68526e-02,2.00662e-01,2.82275e-01,3.12194e-01,2.09632e-01,4.24199e-02,-1.88303e-02,7.09649e-03,4.63711e-02,2.59708e-01,4.67794e-01,4.54141e-01,2.92940e-01,1.63319e-01,7.55692e-02,6.93791e-02,4.28487e-02,-6.67687e-02,-1.01707e-01,-7.38585e-02,-4.91403e-02,-8.90637e-03,7.81911e-03,3.45917e-03,-9.10942e-03,-1.24899e-02,-7.78661e-02,-6.08499e-02,-1.81254e-02,7.74042e-02,1.76606e-01,1.97255e-01,1.09911e-01,-6.92134e-03,-6.52901e-02,3.04561e-02,2.14741e-01,4.60936e-01,4.57670e-01,3.64844e-01,1.81295e-01,1.64382e-01,-2.93427e-02,-4.28805e-02,-5.63473e-02,-1.18373e-01,-9.97299e-02,-9.00355e-02,-5.69036e-02,-2.21910e-02,-3.29595e-03,1.17349e-02,1.31876e-02,-2.10540e-02,-7.05631e-02,-7.86670e-02,-9.36129e-02,-9.98582e-02,-2.19796e-02,2.96998e-02,-1.80105e-02,-1.84600e-01,-1.49023e-01,-9.43916e-03,1.62064e-01,2.96840e-01,2.98494e-01,1.84800e-01,-5.23353e-02,-5.48003e-02,-1.51323e-01,-1.01202e-01,-1.31572e-01,-1.89249e-01,-1.21501e-01,-7.15752e-02,-5.47769e-02,4.70731e-03,-9.17914e-03,-1.84204e-03,-1.05597e-02,-3.76352e-03,-3.41740e-02,-8.33473e-02,-1.10414e-01,-1.93599e-01,-2.06386e-01,-2.41890e-01,-2.92390e-01,-3.52992e-01,-3.29719e-01,-2.77833e-01,-1.27681e-01,4.33706e-02,6.82802e-02,-4.35530e-02,-1.27177e-01,-1.31353e-01,-2.09830e-01,-1.86626e-01,-1.48791e-01,-1.99172e-01,-1.18916e-01,-6.79324e-02,-3.01884e-02,5.93024e-03,1.45056e-02,1.13591e-02,-1.17060e-02,-5.21292e-03,-1.73011e-02,-6.64166e-02,-1.26263e-01,-1.97715e-01,-2.89563e-01,-3.63606e-01,-3.85272e-01,-3.70287e-01,-3.23388e-01,-2.61019e-01,-2.73103e-01,-8.31773e-02,-4.08955e-02,-4.25145e-02,-6.78903e-02,-1.11105e-01,-1.58750e-01,-1.38596e-01,-8.23103e-02,-1.20223e-01,-8.95609e-02,-2.93824e-02,2.21438e-03,1.55693e-02,-5.58263e-03,1.71098e-03,-1.68368e-02,2.45477e-03,-1.15122e-02,-5.31182e-02,-8.89542e-02,-1.82649e-01,-2.58136e-01,-2.67929e-01,-2.88664e-01,-2.83344e-01,-1.78155e-01,-1.42314e-01,-1.49859e-01,-6.89915e-02,1.59849e-02,-3.63535e-02,-1.65469e-02,-4.23781e-02,-1.96052e-02,-3.11935e-02,-2.86907e-02,-3.24431e-02,-3.09557e-02,-2.17327e-02,-4.46295e-03,-6.78818e-03,6.37816e-04,-3.80948e-03,-1.77229e-02,-1.40747e-02,-3.87331e-03,-3.77035e-02,-5.36160e-02,-1.05534e-01,-1.75745e-01,-1.96202e-01,-1.96072e-01,-1.80865e-01,-1.24219e-01,-9.10925e-02,-7.00176e-02,-3.86885e-02,1.92681e-03,-3.92094e-02,5.57006e-02,5.70864e-02,1.36384e-01,9.15521e-02,8.40621e-02,1.10869e-02,-3.60709e-02,-2.43965e-02,2.64383e-03,1.00170e-03,7.84838e-03,3.30131e-04,-4.91061e-03,9.13804e-03,1.89451e-03,-1.42867e-02,-3.87495e-02,-3.96591e-02,-7.80967e-02,-9.69733e-02,-1.11540e-01,-1.07958e-01,-4.69373e-02,-8.42077e-02,-4.03223e-02,2.18189e-02,1.80101e-02,6.11962e-02,7.16795e-02,1.83417e-01,1.76805e-01,1.59132e-01,7.05082e-02,-9.72250e-03,-2.77579e-02,-1.20667e-02,-1.21863e-02,-1.55201e-02,1.26903e-03,-7.87306e-03,3.96890e-03,-3.25442e-03,-1.36532e-02,-9.86106e-03,1.36561e-03,-3.40373e-02,-6.09832e-02,-6.87830e-02,-7.41272e-02,-7.51054e-02,-4.51433e-02,-9.52696e-02,-1.07248e-01,-4.08625e-02,-4.28102e-02,1.72077e-03,-2.72056e-02,4.82031e-02,5.01665e-02,4.39637e-02,1.77281e-02,4.87317e-03,8.40853e-03,-2.64297e-02,2.23352e-04,8.35194e-03,1.37689e-02,1.08799e-02,5.15103e-03,5.11498e-03,7.08408e-03,-1.69197e-02,-3.17314e-03,-3.22538e-02,-8.31835e-02,-1.03952e-01,-1.34516e-01,-1.51303e-01,-2.20138e-01,-2.58811e-01,-2.00782e-01,-1.76892e-01,-2.41201e-01,-2.52599e-01,-2.58361e-01,-1.82635e-01,-1.57712e-01,-8.45824e-02,-6.67493e-02,-3.05338e-02,-1.15699e-02,-7.12242e-03,-2.45917e-03,2.47042e-03,1.73964e-02,-1.81265e-02,4.13935e-03,1.09480e-02,5.60768e-03,-1.57337e-02,-3.99761e-03,-4.07530e-02,-3.28434e-02,-4.91481e-02,-1.00036e-01,-1.15589e-01,-1.53262e-01,-1.66974e-01,-1.60794e-01,-1.97238e-01,-1.93276e-01,-1.66959e-01,-1.41487e-01,-1.33401e-01,-1.14157e-01,-5.17729e-02,-2.32656e-02,-4.48320e-04,8.05798e-04,5.53186e-03,-6.97704e-03,5.79543e-03,1.40017e-05,1.26717e-02,1.58206e-02,1.64517e-02,-4.99187e-03,-1.45698e-03,2.06035e-03,7.89357e-03,5.82117e-03,-1.24574e-02,4.84548e-03,-4.85803e-03,-5.58409e-03,-1.57962e-02,-8.72913e-03,-2.87436e-02,-2.35912e-02,-1.39457e-02,-1.52810e-02,-2.21108e-03,-4.23124e-03,-4.62852e-03,-1.10875e-02,-7.14660e-03,-3.06127e-03,-9.28808e-03,1.40991e-02,1.42172e-02,-4.75018e-03,
-1.00439e-02,-2.13068e-03,5.06703e-03,2.84300e-03,-5.74932e-03,1.26914e-02,1.39934e-02,1.20069e-02,5.43745e-03,-1.16831e-02,1.75182e-02,-1.12017e-02,-4.92970e-03,-4.61719e-03,3.53512e-03,-1.84261e-02,4.03495e-03,1.16935e-02,-3.28655e-03,-1.72425e-02,1.46012e-02,1.35142e-03,1.39746e-02,-5.32539e-03,-1.02449e-02,-3.48146e-03,1.05414e-02,1.15993e-02,-6.22104e-03,-6.47010e-03,-2.16257e-04,-5.22032e-03,-5.38848e-03,4.09924e-03,1.41845e-02,-1.51722e-03,-3.60459e-03,6.36051e-03,-3.67625e-03,2.09670e-03,4.08430e-03,-8.44099e-03,1.65886e-04,1.16565e-02,-1.75970e-03,1.48132e-02,-6.07151e-03,-2.75935e-03,1.05995e-02,-7.32004e-03,-1.17081e-02,-7.70799e-03,7.20081e-03,-5.89900e-03,-3.08583e-03,1.20496e-02,1.08700e-02,-4.70310e-03,-8.55123e-03,1.04157e-02,-5.07121e-03,-7.53419e-03,1.35569e-03,-1.95260e-02,1.59006e-02,-8.71369e-04,4.93976e-03,-2.93107e-02,-2.42099e-02,-1.94441e-02,-2.78210e-02,-3.68785e-03,-2.21321e-03,4.40618e-04,-1.16162e-03,1.38901e-02,-1.24151e-02,-3.30664e-03,-8.71697e-03,1.30079e-02,-8.05805e-03,1.02210e-02,6.68885e-03,-5.61172e-03,-9.17586e-03,-7.55337e-03,-2.50451e-04,-9.04511e-04,6.89560e-03,-5.26248e-03,3.75387e-03,-2.72450e-03,-1.99269e-03,-2.24284e-02,-2.71485e-02,-3.35453e-02,-4.47824e-02,-4.41745e-02,-3.26803e-02,-2.80571e-03,-2.45926e-02,-1.23634e-02,3.51505e-02,4.64403e-02,4.48568e-02,5.28627e-02,3.43752e-02,4.51490e-03,-1.63493e-02,1.48205e-02,6.09809e-03,4.67524e-03,1.38608e-02,5.71058e-03,2.29494e-05,-6.72189e-03,-3.44935e-03,-3.70207e-02,-5.97087e-02,-6.88331e-02,-1.37140e-01,-1.35144e-01,-1.14266e-01,-7.37951e-02,-8.95960e-02,-1.47231e-01,-6.55893e-02,2.93292e-02,5.82597e-02,8.30930e-02,1.24890e-01,5.40441e-02,5.08827e-03,1.02105e-01,1.20491e-01,1.18041e-01,9.08818e-02,3.19380e-02,-3.25587e-05,-7.39721e-03,-3.07538e-03,-6.41956e-03,6.07616e-03,-1.40817e-02,-2.92184e-02,-6.81242e-02,-1.17894e-01,-1.19960e-01,-1.01700e-01,-1.22495e-02,4.76638e-02,5.07403e-02,2.54780e-02,-3.84262e-02,-7.38176e-02,-1.04162e-01,-1.02598e-02,7.32007e-02,1.24305e-01,6.83113e-02,1.72070e-01,1.86823e-01,2.19713e-01,2.24238e-01,1.95421e-01,9.48988e-02,2.00570e-02,-5.60190e-03,-3.87255e-03,-2.62405e-03,2.73727e-04,-3.37349e-02,-7.03808e-02,-1.02154e-01,-1.37729e-01,-8.21479e-02,-9.84228e-03,5.87272e-02,8.69436e-02,8.90513e-02,5.17553e-02,3.22028e-02,7.14547e-02,-7.08153e-02,-7.60513e-02,1.80158e-02,1.04010e-01,1.61184e-01,1.23233e-01,1.28198e-01,2.20867e-01,3.08274e-01,3.92008e-01,1.89626e-01,4.83988e-02,-8.09520e-05,4.46602e-03,1.58706e-03,-5.30328e-03,-4.70381e-02,-1.33623e-01,-1.59897e-01,-1.34934e-01,-2.57727e-02,7.04613e-02,1.17729e-01,1.69577e-01,1.45731e-01,5.22152e-02,-2.33901e-02,-1.62076e-03,-1.08370e-01,2.87744e-02,7.27347e-02,6.94996e-02,8.76675e-02,6.82541e-02,7.48667e-02,1.69857e-01,3.71709e-01,5.17503e-01,3.30694e-01,9.17939e-02,1.63293e-02,1.48169e-02,7.26802e-03,-6.53562e-03,-3.12387e-02,-1.66927e-01,-1.99395e-01,-1.50031e-01,-5.61305e-02,1.23652e-01,1.48962e-01,1.37014e-01,1.69452e-01,4.13909e-02,-6.09872e-02,-1.12527e-01,-2.67599e-01,-1.19598e-01,-7.49399e-02,-4.50179e-02,1.28100e-02,8.17609e-02,9.59734e-02,1.74449e-01,4.80585e-01,6.72580e-01,4.57218e-01,1.03490e-01,1.90695e-02,1.11974e-02,8.86525e-03,-2.26435e-03,-5.08923e-02,-1.46003e-01,-1.46296e-01,-1.00808e-01,3.52765e-02,2.33951e-01,2.07878e-01,2.17560e-01,3.08984e-01,1.56443e-01,4.86982e-02,-1.34825e-01,-3.32680e-01,-3.15514e-01,-2.26272e-01,-1.57999e-01,-8.08516e-02,7.30749e-03,1.62035e-01,2.78943e-01,5.14106e-01,7.28821e-01,5.06805e-01,1.26001e-01,8.53242e-03,4.40112e-03,6.68583e-03,-8.01628e-03,-3.29440e-02,-9.48260e-02,-7.47523e-02,-2.47421e-02,1.33374e-01,3.10156e-01,3.20341e-01,2.98381e-01,2.84156e-01,2.80995e-01,2.15772e-01,7.39568e-02,-1.08166e-01,-2.12406e-01,-3.22559e-01,-2.91453e-01,-2.16570e-01,-1.06155e-01,1.93040e-02,1.23469e-01,3.17508e-01,5.67349e-01,4.68219e-01,1.34281e-01,2.53562e-04,-3.98056e-03,-1.30794e-02,-2.02075e-03,-2.90099e-02,-2.13522e-02,-3.92940e-03,1.14042e-01,1.34581e-01,2.49065e-01,2.33240e-01,2.02270e-01,2.16355e-01,3.03516e-01,3.92146e-01,1.88570e-01,-2.86109e-02,-1.62651e-01,-2.28159e-01,-2.34304e-01,-3.58371e-01,-4.16166e-01,-3.37826e-01,-3.22569e-01,-1.32851e-01,6.67379e-02,1.99915e-01,7.33057e-02,4.50200e-03,-1.20689e-02,-8.47092e-03,-4.07917e-04,-1.84876e-03,3.70990e-04,5.31512e-02,1.59904e-01,1.79362e-01,1.56713e-01,7.72154e-02,2.49480e-01,3.17964e-01,3.60998e-01,3.35825e-01,8.07703e-02,-6.93040e-02,-2.74729e-01,-2.53539e-01,-1.84614e-01,-2.37755e-01,-3.89712e-01,-4.72077e-01,-5.11921e-01,-4.27663e-01,-2.71096e-01,-7.34358e-03,2.29879e-02,2.03515e-03,-8.93587e-03,-1.82008e-02,-6.48897e-03,1.39180e-02,2.81397e-02,8.16178e-02,5.05267e-02,1.32824e-01,1.14464e-01,1.30006e-01,2.41547e-01,2.93404e-01,3.44943e-01,2.25680e-01,1.56564e-02,-1.90687e-01,-2.88900e-01,-2.21781e-01,-1.14055e-01,-6.88444e-02,-1.00440e-01,-2.39313e-01,-3.02821e-01,-3.64452e-01,-2.13307e-01,-3.52320e-02,-2.05212e-02,-2.04869e-02,7.19433e-03,-4.72066e-03,2.80331e-04,4.88209e-03,9.94849e-03,-8.42641e-03,-4.08959e-02,-6.80807e-02,9.40562e-02,1.75358e-01,2.33377e-01,1.03934e-01,1.37145e-01,8.23118e-02,-8.01091e-02,-1.69131e-01,-2.23188e-01,-2.14412e-01,-8.90774e-02,-1.10220e-01,-2.73524e-02,-9.77955e-02,-1.10849e-01,-1.55267e-01,-1.25416e-01,-3.44790e-02,-1.36501e-02,1.10524e-03,1.11744e-02,-7.96903e-03,-1.00656e-02,-2.33212e-03,-1.18030e-02,-1.37361e-01,-1.54937e-01,-1.73705e-01,-4.04649e-02,9.06342e-02,1.09987e-01,1.39092e-01,1.19027e-01,-9.53867e-02,-2.32456e-01,-2.06494e-01,-1.66589e-01,-1.21433e-01,-2.20363e-02,-3.78683e-02,-5.28709e-02,-4.23375e-02,-5.66000e-02,-3.42150e-02,-4.32756e-02,-3.55485e-02,-4.19477e-03,2.10024e-03,5.41797e-03,-5.11563e-03,-1.63348e-02,1.06317e-02,-8.94715e-03,-7.17606e-02,-1.58558e-01,-2.88327e-01,-3.19048e-01,-2.29634e-01,-1.27034e-01,-6.11393e-02,-4.68132e-02,-2.08621e-01,-2.96311e-01,-2.00555e-01,-1.51276e-01,-6.09025e-02,-7.31773e-02,-5.27354e-03,4.14007e-02,6.13542e-03,3.16024e-02,4.40871e-02,-1.72607e-03,-3.24062e-02,-6.53328e-04,-1.42986e-02,-1.73432e-02,8.01046e-03,-2.14667e-02,8.25562e-04,2.11366e-02,7.81364e-02,1.13324e-01,-1.86793e-01,-2.87600e-01,-2.82595e-01,-2.49804e-01,-2.27845e-01,-2.74779e-01,-3.46521e-01,-2.86885e-01,-1.36184e-01,-5.35904e-02,2.25817e-02,5.64335e-02,1.42638e-02,8.52207e-02,6.15369e-02,-7.48877e-03,6.03965e-02,4.53108e-02,-2.79071e-02,-1.20748e-02,4.98751e-03,-5.30613e-03,9.11337e-03,-1.44434e-02,-7.79019e-03,7.56560e-02,1.51548e-01,3.38210e-01,1.03747e-01,-4.80879e-02,-1.33456e-01,-1.91293e-01,-1.96605e-01,-1.69474e-01,-1.28575e-01,-5.29621e-02,-6.58102e-02,-4.44727e-02,7.68885e-02,-1.35721e-02,4.03372e-02,1.21406e-01,6.36085e-02,3.90276e-02,9.55269e-02,5.85516e-02,-5.85912e-03,1.28263e-03,-1.00585e-03,-1.17752e-03,4.23563e-03,3.26329e-03,-4.03205e-03,8.70336e-02,1.65831e-01,2.91900e-01,2.02226e-01,2.75157e-01,1.21829e-01,2.47856e-02,6.10144e-02,9.53071e-02,6.42223e-02,6.15621e-02,1.73890e-02,2.72919e-02,5.25398e-02,3.70999e-02,4.86013e-02,1.29626e-01,9.14426e-02,7.63452e-02,1.34975e-01,6.11056e-02,-5.41794e-03,-7.13686e-03,9.45983e-03,2.28387e-03,-5.63133e-03,-2.51935e-03,-1.63256e-02,4.25045e-02,1.43976e-01,1.88263e-01,1.32415e-01,2.99037e-01,2.39663e-01,7.69962e-02,1.32465e-01,6.08193e-02,2.86239e-02,-6.07148e-03,3.51466e-02,8.92207e-02,1.14674e-01,6.02426e-02,6.63775e-02,8.89052e-02,1.10412e-01,1.92522e-01,1.01229e-01,4.36810e-02,1.75079e-02,-7.53344e-03,-3.15871e-03,-8.55793e-03,5.40955e-03,-1.36165e-02,-4.77883e-03,4.46117e-02,2.83073e-02,1.13945e-01,1.70679e-01,2.33637e-01,1.89333e-01,1.12655e-01,1.51044e-01,1.10752e-01,8.39343e-02,6.56616e-02,4.23881e-02,4.93333e-02,4.51484e-02,2.39184e-02,6.53680e-02,1.43463e-01,1.64263e-01,1.77195e-01,6.05113e-02,2.21946e-02,2.92986e-02,1.00134e-02,1.68636e-02,2.09481e-03,3.80694e-03,4.19353e-03,-1.01023e-02,4.34567e-02,-1.39484e-02,-3.08890e-02,-2.79675e-03,1.50579e-01,1.89968e-01,6.17455e-02,9.71775e-02,1.80730e-01,1.82171e-01,1.26761e-01,4.24275e-02,6.27712e-02,4.59430e-02,3.74897e-02,9.01795e-02,1.04894e-01,9.37505e-02,6.04708e-02,5.11278e-02,2.20356e-02,1.71720e-02,-5.61553e-04,-6.96255e-03,3.02935e-03,6.96731e-04,1.51812e-02,1.39859e-02,1.87432e-02,1.22799e-02,-4.03778e-02,-3.93025e-02,7.81187e-02,1.74551e-01,2.13738e-01,1.84639e-01,1.47864e-01,2.48599e-02,3.88371e-02,1.14130e-02,6.75394e-02,-3.55892e-02,-4.48997e-02,-8.36259e-03,1.88895e-02,-9.38398e-03,1.58813e-02,4.12924e-02,3.59340e-02,9.94050e-03,7.71651e-03,9.36716e-04,-1.58455e-04,-1.31661e-02,6.63535e-03,8.69492e-03,7.06471e-03,-1.48831e-02,-1.27001e-02,9.20576e-03,1.90195e-02,1.40177e-01,1.24673e-01,1.46210e-01,1.73596e-01,1.90296e-01,1.88978e-01,1.36802e-01,4.79206e-02,2.24595e-02,4.05224e-02,2.04651e-02,3.46039e-03,2.90075e-03,3.16910e-02,3.75666e-02,1.56521e-02,-4.44420e-03,8.67111e-03,-4.94770e-03,-4.54239e-04,-2.84090e-03,1.19217e-04,-8.66248e-03,2.62258e-02,-2.01287e-02,-1.38898e-02,-1.50770e-02,1.09540e-02,4.14949e-02,5.63428e-02,1.08554e-01,1.00931e-01,1.31012e-01,7.60966e-02,9.03437e-02,6.21994e-02,4.32609e-02,-6.92792e-03,6.91098e-03,1.18384e-03,2.05483e-02,4.32738e-02,2.97297e-02,2.07248e-02,2.13722e-03,-1.46074e-02,-2.58491e-03,-1.57536e-02,1.34286e-02,5.92138e-03,7.45185e-03,-1.19886e-02,-1.07151e-03,-3.75563e-03,-3.53430e-03,-2.32456e-02,-2.61055e-02,-8.41039e-03,1.66995e-02,1.49192e-02,2.68629e-03,-9.65856e-03,5.51493e-03,-7.32712e-03,-1.58215e-02,-1.55034e-02,-4.92781e-03,1.13308e-02,1.46891e-02,1.27533e-02,1.31668e-02,2.64478e-03,-8.25349e-03,7.80004e-03,1.45023e-02,-4.94587e-03,-7.54641e-03,-5.41536e-03,-8.15619e-03,-6.42201e-03,-4.14574e-03,-6.15032e-03,-1.76140e-03,-9.59873e-03,-6.60747e-03,1.36253e-02,1.38254e-04,-1.49035e-03,-2.31598e-03,-2.31755e-02,-1.51854e-02,-1.27134e-02,-1.31813e-02,-5.31862e-03,-1.27968e-02,4.18987e-04,-6.98405e-04,-9.76712e-03,4.73815e-03,1.07765e-03,1.22228e-02,-8.85595e-03,-7.71632e-03,
1.32478e-02,1.57666e-02,-5.44550e-04,1.92627e-02,-4.25450e-03,-1.33873e-03,1.27455e-02,-4.46791e-03,6.04627e-03,-7.17070e-03,-1.44876e-03,-5.02827e-03,1.64986e-02,1.35026e-02,-6.40516e-03,7.21504e-03,-7.76978e-03,5.11256e-03,8.13291e-03,-8.08144e-03,-4.82717e-03,-5.48018e-03,2.73181e-03,-6.83306e-03,7.00661e-04,-1.95164e-02,1.50786e-02,-7.52650e-03,-1.52825e-03,1.20125e-02,-1.12721e-02,1.55200e-02,-1.40843e-02,-6.91603e-03,6.99626e-03,2.88993e-02,3.02810e-02,5.27291e-03,4.10574e-03,1.34346e-02,3.91247e-02,2.07222e-02,4.71545e-03,3.94233e-03,5.51183e-03,6.23591e-04,1.54792e-02,5.78254e-03,1.16070e-02,2.55226e-03,1.83835e-02,-3.80683e-04,2.44219e-03,1.65638e-02,-5.84419e-03,8.91268e-03,3.23630e-03,1.81148e-03,-6.85985e-03,1.10082e-02,-1.20029e-02,-4.84628e-03,2.31122e-02,3.31676e-02,3.42900e-02,5.66884e-02,1.02100e-01,1.24389e-01,1.58176e-01,1.57868e-01,1.47698e-01,1.11963e-01,1.39408e-01,1.21889e-01,9.06294e-02,9.78830e-02,6.99170e-02,5.61723e-02,3.77767e-02,2.37678e-03,-1.10394e-02,3.75410e-03,-9.33302e-03,1.30131e-02,-1.07804e-02,1.49705e-02,-5.69724e-03,8.47099e-03,-5.57840e-03,-1.63121e-02,3.12241e-02,3.88968e-02,5.52239e-02,6.81300e-02,1.05128e-01,1.17496e-01,1.29463e-01,1.83610e-01,1.85038e-01,1.93214e-01,2.30900e-01,2.55219e-01,2.35381e-01,2.17856e-01,1.66859e-01,1.71592e-01,1.22035e-01,8.88080e-02,5.10503e-02,4.49214e-03,7.99830e-04,2.63314e-03,9.38702e-03,9.76077e-03,8.96607e-03,-1.06687e-02,-3.24660e-03,-1.37979e-02,-7.33791e-03,1.10354e-02,3.89007e-02,4.72772e-02,6.19811e-02,-1.13447e-02,-6.76193e-03,1.33982e-02,-4.30850e-03,-1.06166e-02,1.00237e-01,1.72823e-01,2.18194e-01,2.10942e-01,2.29186e-01,2.08164e-01,1.89776e-01,1.19753e-01,2.95536e-02,-8.66307e-04,1.02512e-02,-1.86522e-03,-4.36946e-03,-1.15239e-02,6.03684e-03,1.96160e-04,1.64139e-03,-4.78768e-02,-3.48311e-02,-5.29446e-02,3.26721e-02,7.46210e-03,4.89331e-03,-1.34363e-01,-1.24167e-01,-1.40154e-01,-1.06850e-01,-1.16577e-01,-7.41485e-02,3.16447e-02,1.15667e-01,1.37415e-01,1.23236e-01,9.01749e-02,7.47175e-02,8.30961e-02,1.74376e-02,-1.89994e-02,-1.52657e-03,-1.44943e-03,8.59762e-03,-9.22013e-03,-2.71353e-03,-1.61464e-02,-1.44746e-02,-4.05233e-02,-8.27032e-02,-2.88090e-02,-1.31156e-02,-1.81235e-02,-1.31136e-01,-1.41108e-01,-1.42977e-01,-2.11603e-01,-1.63796e-01,-1.58175e-01,-1.56723e-01,-1.42786e-01,-1.40805e-01,-8.61285e-02,-4.05015e-02,-6.10590e-02,-3.88059e-02,-5.76739e-02,-4.19864e-02,-4.68845e-03,-1.25868e-02,1.48484e-03,-7.43058e-04,-8.01641e-03,-3.95988e-03,-3.29896e-02,-1.57401e-02,-6.49723e-02,-9.66486e-02,-2.78222e-02,-2.61409e-02,-6.61647e-02,-1.53300e-01,-1.45112e-01,-1.83389e-01,-1.95970e-01,-1.61312e-01,-1.19625e-01,-2.34520e-01,-2.40545e-01,-2.87267e-01,-2.76818e-01,-2.09330e-01,-2.01293e-01,-1.98116e-01,-1.32874e-01,-4.91081e-02,-3.91361e-02,8.05843e-03,-1.43102e-02,-6.83489e-03,5.26617e-04,-9.95085e-04,-5.14642e-03,-3.58188e-02,-8.79072e-02,-1.03249e-01,-6.89422e-02,-3.63196e-02,-9.89266e-02,-1.53021e-01,-1.60109e-01,-1.33407e-01,-2.10291e-01,-2.15805e-01,-2.54905e-01,-3.36788e-01,-3.60578e-01,-4.67830e-01,-4.34554e-01,-3.39239e-01,-2.90944e-01,-2.81435e-01,-2.08130e-01,-1.21876e-01,-5.93238e-02,-2.14277e-02,-1.11630e-03,7.99103e-03,6.06733e-03,1.24795e-02,-1.54481e-02,-2.29487e-02,-9.95431e-02,-8.81309e-02,-1.58376e-02,-3.58924e-02,-1.18501e-01,-1.34743e-01,-9.75976e-02,-1.46587e-01,-1.97788e-01,-1.60431e-01,-2.78315e-01,-4.07769e-01,-4.98425e-01,-5.03299e-01,-4.55832e-01,-3.55046e-01,-2.93237e-01,-2.97539e-01,-2.17803e-01,-1.42003e-01,-1.04595e-01,-3.97518e-02,-4.64574e-03,1.73803e-02,-1.79898e-03,-1.09942e-02,-1.94955e-02,-3.51220e-02,-9.35799e-02,-6.67866e-02,3.23067e-02,1.24655e-02,-8.95086e-02,-3.94456e-02,-2.44063e-02,-9.95765e-02,-5.02731e-02,-1.68146e-01,-3.33846e-01,-4.28229e-01,-4.02171e-01,-4.23822e-01,-3.99299e-01,-2.81811e-01,-1.89693e-01,-1.42821e-01,-8.86303e-02,-9.92249e-02,-1.07902e-01,-4.80729e-02,5.31356e-03,-3.92509e-04,-1.61547e-02,-1.23265e-02,-1.67033e-02,-5.05384e-02,-2.40165e-02,5.97169e-03,8.31097e-02,5.27339e-02,1.79382e-02,4.96018e-02,3.36125e-02,3.77952e-02,-7.15641e-03,-2.18077e-01,-4.11174e-01,-3.03913e-01,-2.66091e-01,-2.31475e-01,-2.36244e-01,-1.42745e-01,2.76848e-03,7.44854e-02,1.08809e-01,2.34484e-03,-6.63189e-02,-4.35142e-02,3.47554e-03,1.20735e-02,-8.03448e-03,1.16274e-02,-1.24205e-02,-3.40088e-02,-5.89815e-03,7.66444e-02,1.43434e-01,8.80567e-02,1.18933e-01,9.31880e-02,1.64470e-01,1.10409e-01,3.20608e-03,-2.34711e-01,-2.34375e-01,-1.04837e-01,-1.27004e-01,-1.48638e-01,-1.51023e-01,-3.00839e-02,1.18764e-01,2.34841e-01,2.91085e-01,1.22120e-01,-4.04603e-02,-1.97969e-02,7.65342e-03,-8.87833e-03,1.34869e-02,9.90352e-03,-1.63010e-02,-3.21592e-02,2.69009e-02,1.44618e-01,1.22400e-01,9.05739e-02,1.70974e-01,1.90526e-01,1.58213e-01,9.54666e-02,-5.53651e-02,-1.55661e-01,-6.05517e-03,3.96736e-03,-1.13384e-01,-1.48957e-01,-2.95547e-02,2.26308e-03,2.01612e-01,3.10839e-01,3.76070e-01,1.80057e-01,-4.16589e-02,-2.44829e-02,-2.65994e-03,-4.10700e-03,1.63249e-03,8.81809e-03,1.35267e-03,-6.39694e-02,-7.86785e-03,1.17730e-01,8.44908e-02,1.00714e-01,2.00029e-01,2.56853e-01,2.93503e-01,8.61660e-02,-9.12452e-02,-6.22062e-02,7.55805e-02,3.68800e-02,-1.48766e-01,-1.33254e-01,-6.08482e-02,3.61460e-02,1.65535e-01,2.90080e-01,3.09587e-01,1.56516e-01,-1.89027e-02,-3.27345e-02,-1.61230e-02,1.66724e-02,-1.92913e-02,3.92141e-03,-2.95206e-02,-1.03386e-01,-1.85417e-02,9.48422e-02,1.35582e-01,1.66774e-01,2.13933e-01,3.55889e-01,3.49410e-01,1.13844e-01,2.77686e-02,1.32409e-01,1.19667e-01,7.47529e-04,-3.66836e-02,-8.53648e-02,3.92345e-03,9.80085e-02,1.62508e-01,1.66993e-01,1.66736e-01,1.04201e-01,-1.77659e-04,-4.66592e-02,-5.13938e-03,1.86250e-02,-6.20712e-03,-6.67445e-03,-3.05396e-02,-1.24857e-01,-7.06147e-02,8.62769e-02,1.76233e-01,2.15320e-01,2.62318e-01,3.89137e-01,4.19575e-01,8.20900e-02,6.38261e-02,1.66163e-01,8.62723e-02,-1.87739e-02,-7.21407e-02,1.28616e-02,8.11897e-02,5.71755e-02,5.33136e-02,5.95970e-02,8.66156e-02,4.96387e-02,-4.74973e-02,-4.77242e-02,-3.25978e-03,-1.17646e-02,7.54724e-03,1.47968e-03,-3.51652e-02,-1.57704e-01,-1.02055e-01,-1.37316e-02,1.42510e-01,2.01447e-01,2.48987e-01,4.19868e-01,4.17177e-01,1.72893e-01,1.13872e-01,9.51645e-02,1.06686e-02,-7.03264e-02,2.26036e-02,1.24667e-01,1.05313e-01,2.58768e-02,4.69207e-02,7.75322e-02,4.50092e-02,6.09096e-04,-5.15483e-02,-3.91127e-02,-9.94083e-04,4.41024e-03,3.24011e-03,-2.85688e-03,-5.62485e-02,-1.50530e-01,-1.82854e-01,-6.55442e-02,8.72582e-02,1.64076e-01,2.32461e-01,3.44822e-01,4.00640e-01,3.79309e-01,1.84553e-01,7.08432e-02,5.71699e-02,1.45519e-01,1.95139e-01,1.75197e-01,4.72656e-02,4.14470e-02,6.99508e-02,6.03434e-02,4.39948e-04,-6.34258e-02,-2.80387e-02,-6.55176e-03,-1.32723e-02,9.98369e-03,-1.14894e-03,3.51282e-03,-3.83583e-02,-1.31234e-01,-1.96023e-01,-1.26148e-01,-5.19969e-03,7.06453e-02,1.91994e-01,3.34028e-01,4.89269e-01,4.26429e-01,2.34539e-01,1.61603e-01,1.91447e-01,2.07114e-01,1.90692e-01,1.37405e-01,1.11307e-01,7.14118e-02,4.99054e-02,7.88634e-03,-4.06732e-02,-3.68099e-02,-4.23994e-02,-1.69980e-02,-5.30720e-03,1.64457e-02,1.89896e-03,7.92969e-03,-2.20616e-02,-1.11505e-01,-1.95510e-01,-2.00768e-01,-7.64158e-02,-4.56335e-02,1.18200e-01,2.31558e-01,3.12369e-01,3.79947e-01,3.99496e-01,3.80830e-01,2.79962e-01,1.95553e-01,1.65454e-01,2.10914e-01,1.01557e-01,6.47861e-02,-2.82394e-02,-9.04062e-02,-6.42157e-02,-3.01450e-02,-2.32134e-02,3.19514e-03,-1.09017e-02,-4.35285e-03,-1.07852e-02,-2.47181e-03,6.33460e-04,-6.32735e-02,-1.59034e-01,-2.37552e-01,-1.67616e-01,-1.00215e-01,2.75212e-02,1.51001e-01,2.40607e-01,3.47831e-01,4.39275e-01,4.27203e-01,2.77376e-01,2.07736e-01,2.19977e-01,1.53232e-01,6.17837e-02,-2.09617e-02,-6.71676e-02,-4.70644e-02,-4.33222e-02,2.18138e-03,-1.28720e-02,7.10582e-03,-1.05628e-02,-7.00269e-03,1.43783e-02,2.08172e-03,-6.29950e-03,-3.95342e-02,-7.88203e-02,-1.65950e-01,-2.01319e-01,-2.46191e-01,-1.86101e-01,-9.94565e-02,-4.95006e-02,5.66773e-02,7.52396e-02,1.18204e-02,2.06981e-02,-1.34694e-02,-3.24403e-02,-8.88225e-02,-7.82392e-02,-4.49638e-02,-5.96479e-02,-4.20820e-02,-4.20888e-02,-1.26632e-02,-1.50312e-02,1.39277e-02,1.11002e-02,2.27335e-03,-1.87076e-02,-1.13610e-03,-1.08966e-02,-2.73093e-02,-2.86738e-02,-5.69727e-02,-1.50325e-01,-2.06540e-01,-2.39728e-01,-3.03320e-01,-2.94344e-01,-2.31814e-01,-1.63230e-01,-1.42730e-01,-1.17784e-01,-1.48926e-01,-1.34245e-01,-8.07716e-02,-5.55132e-02,-5.11031e-02,-5.78202e-02,-3.97741e-02,-1.59758e-02,-2.40653e-02,-2.22365e-03,-1.19353e-02,-1.65862e-02,1.87805e-02,-9.02452e-04,2.46450e-03,-1.25921e-02,1.85681e-02,-4.48252e-03,-2.59451e-02,-4.51532e-02,-7.91785e-02,-1.31913e-01,-1.38212e-01,-1.83125e-01,-1.74875e-01,-1.97976e-01,-1.62158e-01,-1.40026e-01,-9.37333e-02,-9.77886e-02,-6.39051e-02,-4.20857e-02,-3.57964e-02,-2.77605e-02,-1.37869e-02,-1.79590e-02,-1.81293e-02,-1.06962e-02,-1.27009e-03,1.07981e-02,1.92944e-03,1.11055e-02,2.56975e-04,1.31109e-02,6.49215e-03,1.80161e-02,1.69123e-03,7.42084e-03,-2.48823e-02,-4.70020e-02,-4.71436e-02,-4.49084e-02,-5.11315e-02,-4.69089e-02,-4.84616e-02,-3.78406e-02,-4.09779e-02,-3.58818e-02,-2.83862e-02,-8.74028e-03,-1.22070e-02,-2.20819e-02,4.93590e-03,5.45914e-03,-2.16060e-03,-8.07742e-03,5.61219e-03,5.60682e-03,-4.99587e-03,2.70560e-03,7.64967e-03,-9.92612e-03,-2.33800e-03,1.43597e-02,1.69211e-02,-7.62970e-03,1.58236e-02,1.00844e-02,-2.91877e-02,-2.27355e-02,-6.11608e-03,1.45047e-03,-9.95476e-03,-2.01353e-02,-1.93286e-03,1.00272e-02,-5.58740e-03,-5.42225e-03,3.40144e-03,9.90292e-03,-6.62571e-03,2.89203e-03,-1.16453e-02,9.36891e-03,2.22395e-03,-8.72785e-04,-2.09222e-03,1.71991e-02,-4.32455e-03,9.75867e-03,1.15141e-03,1.36369e-02,-8.88663e-03,5.48187e-03,-1.51563e-03,6.11663e-03,-1.06417e-02,6.15509e-03,-5.55027e-03,1.96608e-04,6.69261e-03,-9.53606e-03,-5.48283e-03,1.27927e-03,6.83465e-03,-9.56474e-03,-1.33754e-03,-3.03392e-03,5.54204e-03,1.29269e-02,-5.80657e-03,-8.31413e-03,-7.65058e-03,-3.09159e-03,
-9.67947e-03,3.19134e-03,3.33409e-03,1.32628e-03,-1.41269e-02,1.49161e-02,-9.43909e-03,3.27111e-03,-2.13216e-04,-1.17230e-02,-1.17387e-02,8.47827e-03,-5.34477e-03,1.24665e-02,8.94210e-03,-3.87085e-03,-5.86234e-03,-2.69662e-03,-9.37948e-03,-1.61417e-03,-2.89608e-03,8.26064e-03,-1.37825e-02,-6.52257e-03,7.22048e-03,1.16030e-02,-7.01401e-03,-4.06694e-03,1.20371e-02,-3.26495e-03,3.69642e-03,-5.07793e-03,-5.72133e-03,1.91373e-04,-8.80892e-03,-1.38044e-03,1.02533e-02,-3.71186e-03,-6.60036e-03,-3.53029e-03,-1.11794e-02,-4.83265e-03,8.83225e-03,-1.07509e-02,7.03219e-03,-7.33739e-03,3.70718e-03,9.25142e-03,1.88157e-05,-1.07017e-02,-9.47641e-03,8.77861e-04,1.54035e-02,9.82905e-03,6.22234e-03,1.10930e-02,1.52337e-02,4.31675e-03,1.63974e-02,3.61490e-03,6.52888e-03,1.00812e-02,-1.23874e-02,-3.19858e-03,-1.09209e-02,-1.26114e-02,-1.29947e-02,-8.76767e-03,2.13719e-03,2.39437e-03,-1.21193e-02,-5.41762e-03,3.07440e-04,-2.64468e-03,-7.47171e-03,-7.57068e-03,-1.00302e-03,-1.28301e-03,-1.44197e-02,-9.61665e-03,1.21190e-02,-1.91514e-03,-5.59852e-03,1.16883e-02,6.01488e-03,1.11698e-02,-3.71260e-03,1.12597e-03,-1.34511e-02,-1.57836e-03,-3.68182e-03,-9.18303e-03,-4.31592e-04,-1.75621e-02,-2.16116e-02,-3.63011e-02,-3.73385e-02,-4.23343e-02,-5.47346e-02,-4.94089e-02,-2.66641e-02,-2.91645e-02,-2.63246e-02,-4.07041e-03,-2.29392e-02,6.51653e-03,-1.47267e-03,1.61113e-02,3.44168e-03,5.66488e-03,-6.64142e-03,-1.74065e-03,3.52579e-03,1.56374e-03,2.15766e-03,-1.05437e-02,8.20702e-03,-9.44549e-03,6.93770e-03,-3.45713e-02,-4.39965e-02,-5.91995e-02,-8.15397e-02,-9.74651e-02,-1.40318e-01,-1.36847e-01,-1.67403e-01,-1.71794e-01,-1.54531e-01,-1.43718e-01,-1.11960e-01,-6.64040e-02,-4.59338e-02,-2.36261e-02,-2.73540e-02,7.01689e-03,-1.61755e-03,-1.10308e-02,-3.11869e-04,1.05417e-02,4.21961e-03,4.36520e-03,2.10131e-03,1.05060e-02,1.16737e-02,2.94747e-02,2.68648e-02,1.10314e-02,-3.65958e-04,-2.34647e-02,-8.31529e-02,-1.45958e-01,-2.09501e-01,-2.67608e-01,-3.11897e-01,-3.00845e-01,-3.19448e-01,-2.86952e-01,-2.50325e-01,-2.28094e-01,-1.82295e-01,-1.25289e-01,-8.41773e-02,-5.36959e-02,-1.37358e-03,-1.35060e-02,9.43482e-03,-1.61814e-03,-1.87069e-02,-5.76526e-03,2.06812e-03,2.29181e-02,-9.71943e-03,3.68287e-02,8.05679e-02,9.37146e-02,1.39561e-01,1.23821e-01,8.71352e-02,6.68176e-02,1.23392e-02,-1.11340e-01,-1.40097e-01,-8.73215e-02,-6.84266e-02,-9.82163e-02,-1.37999e-01,-1.19334e-01,-8.87085e-02,-9.01171e-02,-8.75875e-02,-8.25684e-02,-4.04792e-02,-1.92277e-02,6.97139e-03,-1.95612e-02,-3.93445e-03,-1.41748e-02,5.71094e-03,3.06185e-02,8.01106e-03,7.29375e-02,1.50068e-01,1.93252e-01,2.21820e-01,2.39130e-01,2.23279e-01,2.34999e-01,1.74605e-01,9.63829e-02,3.21659e-02,6.11445e-02,1.34524e-01,1.84772e-01,1.78939e-01,1.32602e-01,1.13759e-01,2.30890e-02,-4.83194e-02,-4.37745e-02,-5.72730e-02,-3.39335e-02,-1.67052e-02,-1.87557e-02,-1.04009e-02,6.10974e-03,3.81210e-02,8.44289e-02,1.15244e-01,1.01519e-01,1.58977e-01,2.33058e-01,2.13808e-01,1.82324e-01,1.72075e-01,2.59934e-01,2.69828e-01,1.40157e-01,2.10494e-01,2.51678e-01,2.55297e-01,2.55342e-01,2.81159e-01,1.99680e-01,1.70554e-01,2.42274e-02,2.18105e-02,-1.96780e-02,-8.75783e-02,-5.27565e-02,7.99713e-03,1.85780e-03,-1.07901e-02,4.37126e-03,4.99103e-02,1.52562e-01,1.98414e-01,1.42598e-01,1.25659e-01,7.11643e-02,5.09450e-02,6.71509e-03,1.93996e-03,1.21361e-01,1.80210e-01,1.82919e-01,2.75754e-01,3.20741e-01,3.28700e-01,3.06262e-01,2.38545e-01,2.78282e-01,1.99698e-01,1.62306e-01,5.99511e-02,-4.78427e-02,-7.86410e-02,-3.31617e-02,-6.61113e-03,2.12407e-02,-2.20121e-03,1.80630e-03,6.40799e-02,1.45687e-01,2.15263e-01,1.66872e-01,5.04517e-02,2.61129e-02,-1.20528e-02,1.53037e-02,4.46561e-02,-3.53569e-03,8.80807e-03,1.30417e-01,2.35777e-01,3.88670e-01,4.81073e-01,3.51886e-01,2.40249e-01,2.70776e-01,2.72391e-01,2.05438e-01,9.88084e-02,-5.43750e-02,-6.81804e-02,-3.62344e-02,-7.75510e-03,-3.32943e-03,6.16540e-03,1.27165e-02,1.03174e-01,1.59289e-01,2.22095e-01,1.42936e-01,5.10163e-02,9.71595e-02,1.05424e-03,1.08654e-01,1.19213e-01,4.90818e-02,-4.15875e-02,3.56179e-02,1.73898e-01,3.67143e-01,4.58395e-01,3.31171e-01,2.88782e-01,1.92049e-01,2.29245e-01,1.85281e-01,9.94890e-02,-6.00831e-02,-6.93611e-02,-2.20930e-02,-1.89866e-02,2.70917e-03,2.18737e-03,3.55322e-02,1.09528e-01,1.81909e-01,2.27257e-01,1.32778e-01,7.06640e-03,8.65356e-02,1.35869e-01,1.86030e-02,-6.73725e-02,-1.96879e-01,-3.61883e-01,-3.84520e-01,-1.22273e-01,2.20906e-01,3.35419e-01,2.59159e-01,1.96981e-01,6.39551e-02,1.41348e-01,4.22930e-02,3.62689e-02,-5.40824e-02,-5.14876e-02,-1.33214e-03,-2.64871e-03,1.56277e-02,8.12036e-03,1.20629e-02,7.79904e-02,1.34481e-01,1.48664e-01,6.38191e-02,-1.87065e-02,4.02125e-03,-3.27431e-02,-1.55368e-01,-2.07832e-01,-4.41692e-01,-6.80210e-01,-6.71556e-01,-2.98166e-01,5.24749e-02,1.28732e-01,7.29703e-02,1.39453e-01,7.71554e-02,1.19002e-01,5.69573e-02,2.57859e-02,-7.15909e-03,-1.17606e-03,1.13031e-02,-6.46360e-03,2.25033e-03,6.17199e-03,1.67013e-02,2.55074e-02,6.55027e-02,4.49047e-02,2.15576e-02,-2.70674e-02,-6.26493e-02,-1.43652e-01,-2.29069e-01,-3.36198e-01,-5.51702e-01,-6.90226e-01,-5.77172e-01,-2.11349e-01,-4.05215e-02,4.24788e-02,2.24823e-01,3.43411e-01,3.53742e-01,2.05668e-01,1.43225e-01,1.49558e-01,6.66379e-02,2.35017e-03,-1.82030e-03,5.86516e-04,7.37114e-03,-3.31101e-03,-1.98911e-03,-4.54863e-03,1.35164e-02,1.56942e-02,-7.53227e-02,-9.94444e-02,-1.27055e-01,-2.52260e-01,-2.84989e-01,-3.31009e-01,-4.99221e-01,-4.88072e-01,-3.33073e-01,-1.19677e-01,4.56759e-02,6.56102e-02,3.51116e-01,4.03155e-01,3.28907e-01,2.99576e-01,2.82836e-01,2.23498e-01,4.95839e-02,6.00220e-03,-2.08203e-02,-2.37126e-03,-4.54144e-04,-2.90432e-03,-1.11974e-03,-9.36033e-05,6.66442e-03,-1.18421e-02,-1.00145e-01,-1.08313e-01,-1.04242e-01,-1.99178e-01,-2.01877e-01,-2.85088e-01,-3.78991e-01,-2.43114e-01,-1.41448e-01,-1.91720e-02,1.00190e-01,9.72059e-02,2.13716e-01,2.23314e-01,2.30543e-01,2.55742e-01,1.88384e-01,8.04053e-02,-3.52637e-03,-3.65089e-02,-3.33862e-02,-3.47483e-03,7.02113e-03,-1.08347e-02,-8.21694e-03,8.27905e-03,-3.59074e-02,-1.95233e-02,-1.06945e-01,-1.70826e-01,-2.08501e-01,-2.14513e-01,-1.98820e-01,-2.91334e-01,-2.45340e-01,-9.41544e-02,4.73498e-02,1.00101e-01,3.18224e-02,-1.62930e-02,4.61281e-03,7.19357e-02,3.73150e-02,5.43833e-02,1.04191e-02,-1.54638e-02,-5.38940e-02,-2.07496e-02,1.80256e-02,3.86693e-03,1.91446e-03,4.70017e-03,-1.39389e-02,1.30529e-02,-9.58559e-03,-3.89984e-02,-1.32925e-01,-2.41224e-01,-2.55810e-01,-2.74961e-01,-2.87893e-01,-3.42760e-01,-2.05316e-01,-1.08705e-01,7.31724e-02,4.11334e-02,-5.46539e-02,-1.46731e-01,-1.11161e-01,-8.10861e-02,-6.37992e-02,-1.00949e-01,-1.24764e-01,-1.05608e-01,-1.14148e-01,-7.34037e-02,2.65057e-03,-5.63760e-03,-3.90343e-03,4.70668e-03,-1.98569e-03,5.24773e-04,-2.19174e-02,-3.52266e-02,-1.03931e-01,-2.15483e-01,-2.69251e-01,-2.60636e-01,-2.86557e-01,-2.75641e-01,-2.09198e-01,-3.32194e-02,5.08037e-02,1.02024e-01,-8.03022e-02,-2.14338e-01,-2.35432e-01,-2.24168e-01,-1.74370e-01,-2.43821e-01,-2.96127e-01,-2.30078e-01,-1.36633e-01,-4.60165e-02,-8.52235e-03,-1.58465e-02,1.28601e-02,1.58483e-03,1.94551e-02,-2.40849e-02,-2.77490e-02,-7.39586e-02,-1.21526e-01,-2.03761e-01,-2.51309e-01,-2.35296e-01,-2.31360e-01,-2.16849e-01,-1.34803e-01,-2.55466e-03,3.73601e-02,2.32700e-02,-1.19727e-01,-2.28797e-01,-2.47107e-01,-3.25391e-01,-2.83621e-01,-3.37163e-01,-2.82462e-01,-2.31793e-01,-1.19692e-01,-3.85168e-02,8.98460e-03,8.84556e-03,-4.43571e-03,-1.54512e-03,9.12195e-03,-5.14340e-03,-4.60207e-02,-8.87471e-02,-1.09072e-01,-1.44629e-01,-1.81281e-01,-1.69396e-01,-1.76897e-01,-1.43373e-01,-8.91516e-02,-6.06024e-02,-6.35615e-02,-1.45372e-01,-1.31948e-01,-1.49657e-01,-2.32261e-01,-2.54021e-01,-3.03593e-01,-2.76668e-01,-2.44270e-01,-1.83966e-01,-9.05345e-02,-2.18904e-02,4.98004e-03,-7.87469e-03,8.46387e-03,-1.17104e-02,6.23851e-04,-9.45710e-04,-2.01903e-02,-3.72489e-02,-3.58949e-02,-3.07453e-02,-3.52038e-03,-3.75134e-02,-8.98247e-02,-6.10171e-02,-1.13068e-01,-8.42785e-02,-1.75755e-01,-1.16590e-01,-4.90706e-02,-9.53791e-02,-1.35196e-01,-1.98374e-01,-2.22854e-01,-2.41275e-01,-2.10430e-01,-1.18261e-01,-8.16539e-02,-2.35278e-02,-1.44751e-02,-1.18752e-02,-1.03053e-02,-9.94874e-03,7.10070e-03,-1.78366e-02,-1.69582e-02,3.00022e-02,5.66783e-02,1.48527e-01,1.79925e-01,3.19795e-02,1.54777e-02,2.51156e-02,-4.52231e-02,-6.25546e-02,-7.79855e-02,-2.16712e-02,3.17840e-02,-3.87571e-02,-7.84749e-02,-1.28851e-01,-1.93341e-01,-1.92221e-01,-1.75338e-01,-9.35153e-02,-8.29332e-02,-1.93172e-02,-4.22462e-03,-1.50728e-03,5.74899e-03,-1.28325e-02,-1.17389e-02,4.07804e-03,-4.27669e-03,6.56961e-02,1.42690e-01,2.27848e-01,2.38043e-01,1.77789e-01,1.53235e-01,1.76308e-01,1.47761e-01,1.30833e-01,1.37863e-01,8.65825e-02,1.23570e-01,6.93103e-02,4.81338e-02,-2.62790e-02,-6.99068e-02,-1.09475e-01,-1.09763e-01,-6.61910e-02,-6.50916e-02,-3.06751e-02,-1.52525e-03,2.22037e-03,-1.40712e-02,1.64040e-02,-3.24162e-03,-7.39089e-03,-1.46235e-03,5.26127e-02,9.03413e-02,1.09607e-01,1.55462e-01,2.24952e-01,2.67789e-01,2.27631e-01,3.00248e-01,2.72171e-01,2.39393e-01,2.47260e-01,2.21860e-01,1.54071e-01,1.59722e-01,1.15266e-01,2.02859e-02,-4.03856e-02,-3.23798e-02,-3.07962e-04,-1.08104e-02,1.27945e-02,-1.32399e-02,1.07955e-02,1.25335e-02,-6.55873e-03,-7.05901e-03,1.87237e-02,2.51043e-03,-2.70734e-03,-4.54457e-03,1.63344e-02,3.44369e-02,7.50346e-02,1.07092e-01,1.10419e-01,1.23298e-01,1.19539e-01,1.69752e-01,1.90521e-01,2.01228e-01,1.56300e-01,1.25237e-01,8.63356e-02,3.63063e-02,4.62638e-03,-1.08117e-02,1.99851e-03,3.31655e-03,-7.72343e-03,3.23947e-03,8.25658e-03,-1.31509e-02,-8.94180e-03,-5.41793e-03,-5.10574e-03,3.80360e-03,-1.11298e-02,6.19952e-03,-1.38700e-02,-1.82403e-02,1.28318e-03,1.29002e-02,5.89838e-03,2.60908e-04,1.60571e-02,2.84868e-02,4.85425e-02,3.72058e-02,2.67335e-02,5.27246e-02,5.78609e-02,2.94860e-02,9.16353e-03,1.07555e-02,6.50995e-03,-4.19010e-03,-1.47194e-02,9.10983e-03,5.89370e-03,3.96334e-03,
