// Neural Network File Format by Kyle Julian, Stanford 2016
2,784,10,784,
784,25,10,
0,
0,0,0,0,0,0,0,0,0,0,0,0,0,0,0,0,0,0,0,0,0,0,0,0,0,0,0,0,0,0,0,0,0,0,0,0,0,0,0,0,0,0,0,0,0,0,0,0,0,0,0,0,0,0,0,0,0,0,0,0,0,0,0,0,0,0,0,0,0,0,0,0,0,0,0,0,0,0,0,0,0,0,0,0,0,0,0,0,0,0,0,0,0,0,0,0,0,0,0,0,0,0,0,0,0,0,0,0,0,0,0,0,0,0,0,0,0,0,0,0,0,0,0,0,0,0,0,0,0,0,0,0,0,0,0,0,0,0,0,0,0,0,0,0,0,0,0,0,0,0,0,0,0,0,0,0,0,0,0,0,0,0,0,0,0,0,0,0,0,0,0,0,0,0,0,0,0,0,0,0,0,0,0,0,0,0,0,0,0,0,0,0,0,0,0,0,0,0,0,0,0,0,0,0,0,0,0,0,0,0,0,0,0,0,0,0,0,0,0,0,0,0,0,0,0,0,0,0,0,0,0,0,0,0,0,0,0,0,0,0,0,0,0,0,0,0,0,0,0,0,0,0,0,0,0,0,0,0,0,0,0,0,0,0,0,0,0,0,0,0,0,0,0,0,0,0,0,0,0,0,0,0,0,0,0,0,0,0,0,0,0,0,0,0,0,0,0,0,0,0,0,0,0,0,0,0,0,0,0,0,0,0,0,0,0,0,0,0,0,0,0,0,0,0,0,0,0,0,0,0,0,0,0,0,0,0,0,0,0,0,0,0,0,0,0,0,0,0,0,0,0,0,0,0,0,0,0,0,0,0,0,0,0,0,0,0,0,0,0,0,0,0,0,0,0,0,0,0,0,0,0,0,0,0,0,0,0,0,0,0,0,0,0,0,0,0,0,0,0,0,0,0,0,0,0,0,0,0,0,0,0,0,0,0,0,0,0,0,0,0,0,0,0,0,0,0,0,0,0,0,0,0,0,0,0,0,0,0,0,0,0,0,0,0,0,0,0,0,0,0,0,0,0,0,0,0,0,0,0,0,0,0,0,0,0,0,0,0,0,0,0,0,0,0,0,0,0,0,0,0,0,0,0,0,0,0,0,0,0,0,0,0,0,0,0,0,0,0,0,0,0,0,0,0,0,0,0,0,0,0,0,0,0,0,0,0,0,0,0,0,0,0,0,0,0,0,0,0,0,0,0,0,0,0,0,0,0,0,0,0,0,0,0,0,0,0,0,0,0,0,0,0,0,0,0,0,0,0,0,0,0,0,0,0,0,0,0,0,0,0,0,0,0,0,0,0,0,0,0,0,0,0,0,0,0,0,0,0,0,0,0,0,0,0,0,0,0,0,0,0,0,0,0,0,0,0,0,0,0,0,0,0,0,0,0,0,0,0,0,0,0,0,0,0,0,0,0,0,0,0,0,0,0,0,0,0,0,0,0,0,0,0,0,0,0,0,0,0,0,0,0,0,0,0,0,0,0,0,0,0,0,0,0,0,0,0,0,0,0,0,0,0,0,0,0,0,0,0,0,0,0,0,0,0,0,0,0,0,0,0,0,0,0,0,0,0,0,0,0,0,0,0,0,0,0,0,0,0,0,0,0,0,0,0,0,0,0,0,0,0,0,0,0,0,0,0,0,0,0,0,0,0,0,0,0,0,0,0,0,0,0,0,0,0,0,0,0,0,0,0,0,0,0,0,0,0,0,0,0,0,0,0,0,0,0,0,0,0,0,0,0,0,0,0,0,0,0,0,0,0,0,0,0,0,
255,255,255,255,255,255,255,255,255,255,255,255,255,255,255,255,255,255,255,255,255,255,255,255,255,255,255,255,255,255,255,255,255,255,255,255,255,255,255,255,255,255,255,255,255,255,255,255,255,255,255,255,255,255,255,255,255,255,255,255,255,255,255,255,255,255,255,255,255,255,255,255,255,255,255,255,255,255,255,255,255,255,255,255,255,255,255,255,255,255,255,255,255,255,255,255,255,255,255,255,255,255,255,255,255,255,255,255,255,255,255,255,255,255,255,255,255,255,255,255,255,255,255,255,255,255,255,255,255,255,255,255,255,255,255,255,255,255,255,255,255,255,255,255,255,255,255,255,255,255,255,255,255,255,255,255,255,255,255,255,255,255,255,255,255,255,255,255,255,255,255,255,255,255,255,255,255,255,255,255,255,255,255,255,255,255,255,255,255,255,255,255,255,255,255,255,255,255,255,255,255,255,255,255,255,255,255,255,255,255,255,255,255,255,255,255,255,255,255,255,255,255,255,255,255,255,255,255,255,255,255,255,255,255,255,255,255,255,255,255,255,255,255,255,255,255,255,255,255,255,255,255,255,255,255,255,255,255,255,255,255,255,255,255,255,255,255,255,255,255,255,255,255,255,255,255,255,255,255,255,255,255,255,255,255,255,255,255,255,255,255,255,255,255,255,255,255,255,255,255,255,255,255,255,255,255,255,255,255,255,255,255,255,255,255,255,255,255,255,255,255,255,255,255,255,255,255,255,255,255,255,255,255,255,255,255,255,255,255,255,255,255,255,255,255,255,255,255,255,255,255,255,255,255,255,255,255,255,255,255,255,255,255,255,255,255,255,255,255,255,255,255,255,255,255,255,255,255,255,255,255,255,255,255,255,255,255,255,255,255,255,255,255,255,255,255,255,255,255,255,255,255,255,255,255,255,255,255,255,255,255,255,255,255,255,255,255,255,255,255,255,255,255,255,255,255,255,255,255,255,255,255,255,255,255,255,255,255,255,255,255,255,255,255,255,255,255,255,255,255,255,255,255,255,255,255,255,255,255,255,255,255,255,255,255,255,255,255,255,255,255,255,255,255,255,255,255,255,255,255,255,255,255,255,255,255,255,255,255,255,255,255,255,255,255,255,255,255,255,255,255,255,255,255,255,255,255,255,255,255,255,255,255,255,255,255,255,255,255,255,255,255,255,255,255,255,255,255,255,255,255,255,255,255,255,255,255,255,255,255,255,255,255,255,255,255,255,255,255,255,255,255,255,255,255,255,255,255,255,255,255,255,255,255,255,255,255,255,255,255,255,255,255,255,255,255,255,255,255,255,255,255,255,255,255,255,255,255,255,255,255,255,255,255,255,255,255,255,255,255,255,255,255,255,255,255,255,255,255,255,255,255,255,255,255,255,255,255,255,255,255,255,255,255,255,255,255,255,255,255,255,255,255,255,255,255,255,255,255,255,255,255,255,255,255,255,255,255,255,255,255,255,255,255,255,255,255,255,255,255,255,255,255,255,255,255,255,255,255,255,255,255,255,255,255,255,255,255,255,255,255,255,255,255,255,255,255,255,255,255,255,255,255,255,255,255,255,255,255,255,255,255,255,255,255,255,255,255,255,255,255,255,255,255,255,255,255,255,255,255,255,255,255,255,255,255,255,255,255,255,255,255,255,255,255,255,255,255,255,255,255,255,255,255,255,255,255,255,255,255,255,255,255,255,255,255,255,255,255,255,255,255,255,255,255,255,255,255,255,255,255,255,255,255,255,255,255,255,255,255,255,255,255,255,
0,0,0,0,0,0,0,0,0,0,0,0,0,0,0,0,0,0,0,0,0,0,0,0,0,0,0,0,0,0,0,0,0,0,0,0,0,0,0,0,0,0,0,0,0,0,0,0,0,0,0,0,0,0,0,0,0,0,0,0,0,0,0,0,0,0,0,0,0,0,0,0,0,0,0,0,0,0,0,0,0,0,0,0,0,0,0,0,0,0,0,0,0,0,0,0,0,0,0,0,0,0,0,0,0,0,0,0,0,0,0,0,0,0,0,0,0,0,0,0,0,0,0,0,0,0,0,0,0,0,0,0,0,0,0,0,0,0,0,0,0,0,0,0,0,0,0,0,0,0,0,0,0,0,0,0,0,0,0,0,0,0,0,0,0,0,0,0,0,0,0,0,0,0,0,0,0,0,0,0,0,0,0,0,0,0,0,0,0,0,0,0,0,0,0,0,0,0,0,0,0,0,0,0,0,0,0,0,0,0,0,0,0,0,0,0,0,0,0,0,0,0,0,0,0,0,0,0,0,0,0,0,0,0,0,0,0,0,0,0,0,0,0,0,0,0,0,0,0,0,0,0,0,0,0,0,0,0,0,0,0,0,0,0,0,0,0,0,0,0,0,0,0,0,0,0,0,0,0,0,0,0,0,0,0,0,0,0,0,0,0,0,0,0,0,0,0,0,0,0,0,0,0,0,0,0,0,0,0,0,0,0,0,0,0,0,0,0,0,0,0,0,0,0,0,0,0,0,0,0,0,0,0,0,0,0,0,0,0,0,0,0,0,0,0,0,0,0,0,0,0,0,0,0,0,0,0,0,0,0,0,0,0,0,0,0,0,0,0,0,0,0,0,0,0,0,0,0,0,0,0,0,0,0,0,0,0,0,0,0,0,0,0,0,0,0,0,0,0,0,0,0,0,0,0,0,0,0,0,0,0,0,0,0,0,0,0,0,0,0,0,0,0,0,0,0,0,0,0,0,0,0,0,0,0,0,0,0,0,0,0,0,0,0,0,0,0,0,0,0,0,0,0,0,0,0,0,0,0,0,0,0,0,0,0,0,0,0,0,0,0,0,0,0,0,0,0,0,0,0,0,0,0,0,0,0,0,0,0,0,0,0,0,0,0,0,0,0,0,0,0,0,0,0,0,0,0,0,0,0,0,0,0,0,0,0,0,0,0,0,0,0,0,0,0,0,0,0,0,0,0,0,0,0,0,0,0,0,0,0,0,0,0,0,0,0,0,0,0,0,0,0,0,0,0,0,0,0,0,0,0,0,0,0,0,0,0,0,0,0,0,0,0,0,0,0,0,0,0,0,0,0,0,0,0,0,0,0,0,0,0,0,0,0,0,0,0,0,0,0,0,0,0,0,0,0,0,0,0,0,0,0,0,0,0,0,0,0,0,0,0,0,0,0,0,0,0,0,0,0,0,0,0,0,0,0,0,0,0,0,0,0,0,0,0,0,0,0,0,0,0,0,0,0,0,0,0,0,0,0,0,0,0,0,0,0,0,0,0,0,0,0,0,0,0,0,0,0,0,0,0,0,0,0,0,0,0,0,0,0,0,0,0,0,0,0,0,0,0,0,0,0,0,0,0,0,0,0,0,0,0,0,0,0,0,0,0,0,0,0,0,0,0,0,0,0,0,0,0,0,0,0,0,0,0,0,0,0,0,0,0,0,0,0,0,0,0,0,0,0,0,0,0,0,0,0,0,0,0,0,0,0,0,0,0,0,0,0,0,0,0,0,0,0,0,0,0,0,0,0,0,0,0,0,
0,0,0,0,0,0,0,0,0,0,0,0,0,0,0,0,0,0,0,0,0,0,0,0,0,0,0,0,0,0,0,0,0,0,0,0,0,0,0,0,0,0,0,0,0,0,0,0,0,0,0,0,0,0,0,0,0,0,0,0,0,0,0,0,0,0,0,0,0,0,0,0,0,0,0,0,0,0,0,0,0,0,0,0,0,0,0,0,0,0,0,0,0,0,0,0,0,0,0,0,0,0,0,0,0,0,0,0,0,0,0,0,0,0,0,0,0,0,0,0,0,0,0,0,0,0,0,0,0,0,0,0,0,0,0,0,0,0,0,0,0,0,0,0,0,0,0,0,0,0,0,0,0,0,0,0,0,0,0,0,0,0,0,0,0,0,0,0,0,0,0,0,0,0,0,0,0,0,0,0,0,0,0,0,0,0,0,0,0,0,0,0,0,0,0,0,0,0,0,0,0,0,0,0,0,0,0,0,0,0,0,0,0,0,0,0,0,0,0,0,0,0,0,0,0,0,0,0,0,0,0,0,0,0,0,0,0,0,0,0,0,0,0,0,0,0,0,0,0,0,0,0,0,0,0,0,0,0,0,0,0,0,0,0,0,0,0,0,0,0,0,0,0,0,0,0,0,0,0,0,0,0,0,0,0,0,0,0,0,0,0,0,0,0,0,0,0,0,0,0,0,0,0,0,0,0,0,0,0,0,0,0,0,0,0,0,0,0,0,0,0,0,0,0,0,0,0,0,0,0,0,0,0,0,0,0,0,0,0,0,0,0,0,0,0,0,0,0,0,0,0,0,0,0,0,0,0,0,0,0,0,0,0,0,0,0,0,0,0,0,0,0,0,0,0,0,0,0,0,0,0,0,0,0,0,0,0,0,0,0,0,0,0,0,0,0,0,0,0,0,0,0,0,0,0,0,0,0,0,0,0,0,0,0,0,0,0,0,0,0,0,0,0,0,0,0,0,0,0,0,0,0,0,0,0,0,0,0,0,0,0,0,0,0,0,0,0,0,0,0,0,0,0,0,0,0,0,0,0,0,0,0,0,0,0,0,0,0,0,0,0,0,0,0,0,0,0,0,0,0,0,0,0,0,0,0,0,0,0,0,0,0,0,0,0,0,0,0,0,0,0,0,0,0,0,0,0,0,0,0,0,0,0,0,0,0,0,0,0,0,0,0,0,0,0,0,0,0,0,0,0,0,0,0,0,0,0,0,0,0,0,0,0,0,0,0,0,0,0,0,0,0,0,0,0,0,0,0,0,0,0,0,0,0,0,0,0,0,0,0,0,0,0,0,0,0,0,0,0,0,0,0,0,0,0,0,0,0,0,0,0,0,0,0,0,0,0,0,0,0,0,0,0,0,0,0,0,0,0,0,0,0,0,0,0,0,0,0,0,0,0,0,0,0,0,0,0,0,0,0,0,0,0,0,0,0,0,0,0,0,0,0,0,0,0,0,0,0,0,0,0,0,0,0,0,0,0,0,0,0,0,0,0,0,0,0,0,0,0,0,0,0,0,0,0,0,0,0,0,0,0,0,0,0,0,0,0,0,0,0,0,0,0,0,0,0,0,0,0,0,0,0,0,0,0,0,0,0,0,0,0,0,0,0,0,0,0,0,0,0,0,0,0,0,0,0,0,0,0,0,0,0,0,0,0,0,0,0,0,0,0,0,0,0,0,0,0,0,0,0,0,0,0,0,0,0,0,0,0,0,0,0,0,0,0,0,0,0,0,0,0,0,0,0,0,0,0,0,0,0,0,0,0,0,
-1.45822e-02,-1.00730e-01,5.46515e-02,-1.46088e-01,2.01222e-02,-9.64162e-02,1.21773e-01,6.64552e-02,1.39859e-01,-8.55963e-02,8.83311e-02,-2.64820e-02,-1.00308e-02,5.11835e-02,1.06365e-02,-5.54714e-02,1.98793e-01,7.04438e-02,5.53984e-03,3.76893e-02,-5.23576e-02,-5.60885e-02,6.55254e-02,-6.24688e-02,-2.68508e-02,4.21740e-03,4.93597e-03,-2.18641e-04,6.21874e-02,-8.80669e-02,6.14126e-02,-8.12887e-02,-6.35713e-02,-8.73651e-02,-8.27013e-02,-2.47379e-02,9.09979e-02,1.34639e-01,6.95651e-02,-6.86613e-02,-2.53204e-02,-1.10895e-01,-1.71793e-02,4.69117e-02,4.17323e-02,-3.14368e-02,-2.93895e-02,-2.58366e-01,4.38359e-02,8.10961e-02,-1.14104e-01,1.18620e-01,1.03687e-02,-1.17311e-01,-1.26735e-01,6.09923e-02,3.06098e-02,-1.61326e-01,-4.19983e-03,1.07460e-01,1.01835e-01,4.14183e-04,-7.10556e-02,-2.11828e-01,-1.76254e-01,2.61291e-02,-3.01811e-02,9.55418e-02,9.37050e-02,-1.24563e-01,1.10895e-01,-9.70952e-02,-1.74729e-01,-9.80311e-02,2.75590e-03,-9.05896e-02,9.63255e-02,-5.76049e-02,-5.20949e-02,-6.72028e-02,6.49233e-02,-1.77303e-02,5.90451e-02,1.43831e-01,9.03108e-02,1.40022e-03,-8.39555e-02,5.41995e-03,9.62902e-02,-4.91587e-02,-2.77448e-02,3.69974e-02,-3.05471e-03,3.06256e-02,5.12777e-02,-8.52562e-04,1.00878e-01,5.72973e-03,5.07724e-02,-6.68252e-03,7.51591e-02,-1.90009e-01,-2.05060e-01,-2.27925e-02,-1.59837e-01,-1.96953e-01,-6.49044e-02,-1.15318e-01,-1.37358e-01,3.66341e-02,-8.26875e-02,-5.97718e-02,-1.42275e-01,-1.59695e-01,-1.98427e-02,-8.10442e-02,1.10523e-02,-5.54253e-03,-2.77465e-02,1.09654e-01,5.66841e-02,1.14349e-01,1.46131e-01,1.45054e-01,-7.49160e-02,-3.27998e-02,-6.03076e-03,-5.81599e-02,2.58728e-02,-1.59908e-01,-5.57058e-02,-9.36831e-02,-1.24523e-01,-2.31128e-01,-3.90869e-02,8.45159e-04,-1.47866e-01,4.67779e-02,1.13625e-01,-8.24459e-02,-1.57363e-01,-5.06596e-02,8.59423e-02,6.11234e-03,-2.68189e-02,3.18861e-02,-9.49323e-02,-5.34637e-03,1.07202e-01,1.63198e-01,4.51888e-02,-6.60083e-03,7.11538e-03,-1.88660e-01,1.18492e-01,6.92026e-02,1.31854e-03,-6.65211e-02,-6.85766e-02,-2.25971e-02,3.37617e-02,2.33799e-02,-6.42275e-02,7.55853e-02,-4.25149e-02,1.29735e-01,-5.24041e-02,3.82461e-02,9.08448e-02,4.33861e-02,-5.73963e-02,1.59612e-01,-9.22209e-02,-1.02585e-01,8.26635e-02,3.30456e-02,-1.23042e-01,-3.40155e-03,1.07651e-01,3.96995e-02,1.12644e-01,-1.62953e-02,1.79929e-01,2.63748e-02,2.02140e-01,1.18910e-01,3.28659e-02,-1.24515e-03,1.21377e-01,-5.67386e-02,3.39946e-02,1.07082e-01,9.28404e-02,1.56843e-01,-2.89758e-02,5.56316e-02,-1.06870e-01,-1.76723e-02,1.72116e-01,5.74005e-03,-4.16858e-02,-1.54969e-01,-5.70885e-02,9.93034e-02,-4.04598e-02,1.40294e-01,6.61004e-02,7.74053e-02,2.14260e-01,1.11996e-01,1.81898e-01,2.87394e-01,1.61589e-01,1.95556e-01,1.10373e-01,1.67967e-02,4.89721e-02,-2.69091e-04,-1.31084e-01,-8.53127e-02,2.29240e-01,1.82966e-01,1.41550e-01,-6.40328e-02,4.11629e-02,-1.16635e-01,-1.81455e-01,3.54369e-02,-1.62078e-01,-9.65407e-03,-1.04446e-01,1.74686e-01,8.38765e-02,5.12674e-03,2.40005e-01,2.07388e-01,2.50418e-01,-7.24760e-03,6.14101e-02,2.40774e-01,2.26418e-01,1.91013e-01,1.13015e-01,1.06882e-01,-4.45960e-04,1.64291e-01,-7.79638e-02,4.67893e-02,2.37357e-01,2.80162e-01,2.13413e-01,-2.71814e-02,-1.09940e-01,-2.61868e-02,1.54944e-01,-5.24806e-02,-1.94871e-01,5.14032e-02,9.06415e-03,8.65124e-02,-4.88393e-02,1.89152e-02,4.43779e-02,2.19400e-01,1.19183e-01,1.33666e-01,-1.00245e-02,-9.28784e-02,7.41481e-02,-6.59809e-02,1.07858e-01,1.25846e-01,-1.61033e-01,8.62242e-02,-3.68933e-02,9.05003e-02,1.20342e-01,2.82758e-01,1.35367e-01,3.62480e-02,-3.43037e-02,4.06239e-03,-1.03833e-01,-1.15371e-01,4.44372e-02,-1.21660e-01,-9.30653e-02,9.37192e-02,1.39771e-01,-8.19007e-02,1.79366e-01,-7.31601e-02,7.80619e-02,-1.31803e-01,-1.74706e-01,-1.40813e-01,1.34642e-01,3.79073e-03,-2.82256e-02,-7.86472e-02,-2.19277e-01,1.99723e-02,-4.78736e-02,-1.42540e-01,2.71542e-02,1.28252e-01,2.32830e-01,-3.98922e-02,3.05466e-02,9.32165e-02,4.45704e-02,-1.28567e-01,-9.78025e-02,-5.19306e-02,-6.89441e-02,4.85360e-02,-3.61330e-02,-3.10973e-02,-1.58805e-01,3.29703e-02,-2.35840e-01,-2.48506e-01,-5.04519e-02,-9.12800e-02,6.86784e-02,4.58592e-02,7.75695e-02,1.52976e-02,-1.09933e-01,-1.16488e-01,-3.07819e-01,-3.06353e-01,-1.16957e-01,6.10633e-02,6.78379e-02,6.76918e-02,4.75521e-02,-1.28322e-01,-1.70759e-01,9.43285e-03,6.07343e-02,1.41956e-02,-2.41550e-03,-5.53574e-02,-1.45784e-01,-1.65643e-01,-1.48589e-01,-8.20143e-02,-3.21216e-01,-2.28314e-01,-1.29026e-01,3.58727e-02,8.63680e-02,2.04902e-01,-3.98141e-02,1.28054e-01,-5.95638e-02,-1.32475e-01,-3.46917e-01,-1.78041e-01,-2.94012e-01,1.46851e-02,-1.28301e-01,-2.84618e-02,-4.81150e-02,-2.46321e-02,2.31892e-02,4.89371e-03,1.86718e-01,9.47910e-02,-9.23158e-02,-2.07085e-01,-1.66344e-01,1.38571e-01,-1.64234e-01,9.55204e-02,-8.29892e-02,4.50023e-02,9.54336e-02,-1.71094e-01,3.46280e-02,2.39200e-02,5.50729e-02,1.70314e-01,-6.92503e-02,-2.83929e-01,-3.50387e-01,-1.77758e-01,-2.62224e-01,1.06952e-01,7.99152e-02,2.01722e-02,4.89880e-02,3.07483e-02,-3.01446e-03,1.06264e-01,-1.01226e-02,-5.99380e-02,6.60326e-03,-1.02995e-01,5.28738e-02,1.95716e-01,-3.97573e-02,1.77623e-02,1.60498e-01,-1.89314e-02,-1.42684e-02,6.81427e-02,9.95140e-02,1.27011e-01,1.13743e-01,-1.92625e-02,-1.65745e-01,-2.14577e-01,-1.71182e-01,-2.24119e-01,-2.84222e-01,1.19379e-01,5.62797e-02,3.45456e-02,2.62774e-02,-8.49212e-02,3.73459e-03,4.95358e-02,9.05774e-02,-3.23898e-02,-2.96054e-02,1.19216e-01,-6.79483e-04,1.11936e-01,6.79504e-02,-8.47817e-02,1.82290e-01,2.29117e-01,5.82753e-02,7.38007e-02,8.77339e-02,1.93849e-01,1.24730e-01,-1.58636e-03,-1.61632e-02,-2.08352e-02,-1.11559e-01,-1.26882e-01,6.03961e-02,1.23703e-01,-4.30080e-02,7.48097e-02,1.61539e-01,5.32292e-02,-2.98783e-02,1.60841e-01,8.91578e-02,7.93149e-02,-6.57626e-02,2.11237e-02,-4.60113e-02,-4.91089e-02,1.92061e-01,1.22704e-01,1.45629e-01,-3.05373e-02,-1.05006e-01,5.86800e-02,3.21243e-01,1.23513e-01,6.88180e-02,-6.06585e-02,-3.15224e-02,-1.06209e-02,-1.03317e-01,-8.68790e-02,1.03125e-01,6.72025e-02,8.28361e-02,1.66387e-01,1.34758e-01,-1.90567e-01,-1.64835e-02,2.49745e-01,1.20153e-01,1.55622e-01,1.49729e-01,-1.10416e-01,-7.32012e-02,-5.08165e-02,7.74868e-02,5.59380e-02,2.61692e-02,1.74072e-01,1.65104e-01,9.83802e-02,2.03370e-01,1.43147e-01,4.44581e-02,8.90917e-02,-6.78557e-02,6.24418e-02,-1.19003e-01,1.15469e-02,1.32603e-01,1.72793e-01,1.96097e-01,-3.51997e-02,-6.95318e-02,4.52345e-02,-8.79511e-02,1.99982e-01,2.76016e-01,1.47180e-01,1.93820e-01,3.21085e-02,-6.16232e-02,-8.72669e-02,-2.75043e-01,1.03091e-01,-1.56857e-02,2.34955e-02,1.60058e-01,2.49795e-02,2.10602e-01,7.93845e-02,1.10878e-01,9.96535e-02,-1.37861e-01,2.85253e-02,1.62911e-01,1.93296e-02,1.29684e-01,3.02234e-01,1.70724e-01,6.79492e-02,-1.37634e-01,-9.11860e-02,-5.01655e-02,2.69238e-02,1.21616e-01,8.87141e-02,8.95260e-02,-6.42736e-03,-6.51784e-02,-1.30022e-01,-1.52906e-01,-6.46842e-02,-4.36819e-02,3.81066e-02,4.04233e-02,-2.62610e-02,9.23383e-02,7.55151e-03,-1.52875e-01,7.31936e-02,8.69997e-02,7.42508e-03,1.14223e-01,9.24158e-02,2.31914e-01,1.89924e-01,1.29204e-01,1.84678e-01,-9.42296e-02,-6.46734e-02,4.36603e-04,3.60757e-02,1.53482e-01,1.29453e-01,-2.68228e-02,1.10445e-02,-6.17972e-02,-1.47193e-01,-1.33914e-01,-9.87344e-02,-7.01938e-02,-1.61255e-02,1.24198e-01,-2.81451e-02,1.02763e-01,-3.01041e-02,9.05527e-02,-5.33512e-02,1.96776e-01,-8.70853e-02,1.64345e-01,1.93491e-01,1.03707e-01,2.17944e-01,-2.18248e-02,8.01399e-03,-2.17923e-01,-1.07948e-01,3.58617e-02,2.35283e-01,-3.36001e-02,8.33449e-03,-2.75390e-02,8.58765e-02,-4.22239e-02,3.12825e-02,-3.28232e-02,-3.52921e-03,3.99451e-02,-5.86949e-02,1.88382e-02,-3.45774e-02,-1.41666e-01,-3.91583e-02,-7.55811e-02,5.37146e-02,1.35801e-01,1.82549e-01,9.59665e-02,1.10053e-01,1.68077e-01,1.04694e-01,1.52605e-01,4.28098e-02,7.09557e-02,-6.99573e-02,-5.65048e-02,1.39284e-01,1.62004e-01,-1.21727e-01,4.75387e-02,-2.53253e-01,-5.52402e-02,1.93202e-02,-1.30242e-01,-2.36370e-02,-1.50621e-01,-5.59505e-02,8.38452e-02,-2.82844e-02,-1.54232e-01,1.45689e-02,4.50882e-02,-1.07089e-02,1.97193e-01,1.84673e-01,9.78826e-02,2.22004e-01,8.17784e-02,1.76122e-01,-1.59709e-01,1.10014e-01,-3.11946e-02,-1.36413e-01,-1.73408e-02,5.38451e-02,-5.57911e-02,-2.18311e-02,-4.17449e-02,-1.91369e-01,2.87373e-02,-9.41844e-02,-1.78679e-02,7.10852e-02,6.57314e-02,-4.36722e-02,-2.02886e-01,-1.88672e-01,-3.19623e-02,-1.55449e-01,-1.21274e-01,-6.35633e-02,9.14007e-02,1.31386e-02,1.61419e-01,8.63423e-02,6.62467e-02,-1.02114e-01,2.22187e-02,6.78664e-02,1.06846e-02,-2.11273e-02,-2.55931e-02,-7.56223e-02,-1.42372e-01,-5.50190e-02,-1.18837e-01,8.55917e-03,1.26929e-02,-1.14085e-02,1.11477e-01,4.90661e-02,1.60479e-01,1.10242e-01,-4.81480e-02,1.84826e-01,6.20402e-02,1.38794e-01,1.54478e-01,9.32315e-02,1.15712e-01,2.33971e-01,9.87917e-02,1.20151e-01,2.44050e-02,8.99604e-02,-1.01982e-01,-4.89159e-02,-4.06839e-02,-2.51357e-02,-1.59297e-02,4.83514e-02,7.49641e-02,2.25655e-01,1.93792e-01,2.05955e-03,2.65408e-01,1.36440e-01,1.54293e-01,1.79750e-01,3.76553e-01,2.84391e-01,1.72234e-01,2.44877e-01,3.15615e-01,2.35240e-01,7.87805e-02,1.30264e-01,1.99662e-01,3.35271e-01,1.36760e-01,7.53853e-02,9.28479e-02,4.19419e-02,-1.34140e-02,-4.24586e-02,-1.19490e-01,5.25818e-02,-8.79795e-02,3.04943e-02,1.29996e-01,1.80162e-01,9.02479e-03,1.88238e-01,8.00826e-02,1.38376e-01,2.99251e-01,2.08145e-01,2.50537e-01,1.05451e-01,2.85956e-01,2.62308e-01,2.27820e-01,1.58901e-01,2.03109e-01,5.77599e-02,2.12567e-01,1.39145e-01,-5.78628e-02,-9.90012e-03,-5.68739e-02,1.65575e-02,1.36784e-01,-4.19347e-02,1.29933e-02,6.55940e-02,1.28032e-01,6.08959e-02,-1.11343e-01,1.50022e-01,-4.88432e-02,2.34656e-02,4.65739e-02,3.28911e-02,3.95438e-02,1.10105e-01,-9.25380e-03,-1.73626e-02,1.01873e-01,2.04593e-03,7.77593e-03,6.67226e-02,1.54602e-01,3.05393e-02,2.09555e-01,2.18920e-01,1.36219e-01,-1.06300e-01,1.35926e-01,9.04852e-03,3.17891e-02,-1.21057e-01,
9.27983e-02,3.78668e-02,-1.88743e-02,1.87148e-01,-1.47828e-01,9.47438e-02,3.34926e-02,-1.23764e-02,5.41293e-02,-1.43562e-01,-5.99292e-02,2.01314e-02,8.94665e-02,4.07919e-02,-1.24489e-01,1.54894e-02,-7.44674e-02,1.49030e-01,-6.68470e-02,-1.10691e-02,3.69844e-02,6.26773e-02,1.15481e-01,-5.75085e-02,-7.71777e-02,7.40213e-02,7.78724e-02,-2.39610e-03,-1.32865e-01,-1.25570e-01,8.23771e-02,2.85601e-02,2.25297e-03,-2.37608e-02,-5.51385e-02,-1.29945e-01,-8.96683e-02,7.85500e-03,1.77344e-01,-3.17377e-02,1.81682e-01,1.96443e-02,3.08428e-02,-8.69423e-02,-1.11495e-01,-6.87938e-02,-2.28288e-02,3.86801e-02,7.71643e-02,2.27689e-02,5.31077e-02,1.40786e-01,-2.70707e-02,-7.28162e-02,1.64421e-02,-5.81803e-02,-8.11062e-03,-5.15155e-02,1.25689e-01,7.25563e-02,9.11814e-02,1.37384e-01,-1.51042e-02,3.79923e-02,-1.51104e-01,8.48700e-02,-2.96493e-03,-4.05915e-02,-8.16062e-02,1.03355e-01,-2.47220e-02,1.30338e-02,-4.94373e-02,-1.10500e-01,-1.70895e-02,-7.02284e-02,-3.60024e-02,-2.85596e-01,-6.58795e-02,-1.38976e-01,-5.40592e-02,9.92101e-02,-1.38542e-01,-7.26884e-02,-1.55734e-01,-1.21948e-01,1.79845e-01,-3.68263e-02,2.17145e-02,4.57122e-02,-8.17448e-02,-1.87356e-01,1.62220e-01,-7.42786e-02,1.15157e-01,6.13672e-02,8.78845e-02,-1.66534e-02,-2.09290e-03,1.35952e-01,8.69498e-02,-4.17856e-02,-1.66811e-01,-1.91787e-01,-2.47569e-02,-2.04356e-01,-7.50197e-02,-1.74017e-01,-1.31973e-01,8.65081e-02,-1.78115e-01,1.15381e-02,-1.00901e-01,-9.62970e-02,3.32404e-02,-7.80593e-03,-1.64164e-01,-1.50615e-01,-2.34361e-02,-1.33818e-01,5.63454e-02,2.04931e-02,1.88049e-01,2.43532e-01,2.75353e-01,9.12277e-02,2.51053e-01,2.12624e-01,-8.06989e-02,1.12843e-01,3.10135e-02,-1.51232e-01,-1.30306e-01,-2.89451e-01,-2.85686e-01,-3.04523e-01,5.73081e-02,1.60950e-01,8.07920e-03,6.63827e-04,-9.26180e-02,-1.59783e-01,3.09172e-02,3.83186e-02,-8.40324e-03,8.66875e-02,-4.95294e-02,1.66805e-01,-9.32058e-02,-5.74467e-02,-4.18852e-02,-8.47050e-03,7.30963e-02,3.10067e-01,1.75412e-01,1.62563e-01,-8.05638e-02,-6.79697e-02,-2.28265e-02,-2.19841e-01,-4.22456e-02,-3.24776e-02,-1.18549e-01,-1.98913e-01,-1.14830e-01,5.59520e-02,-5.08071e-02,5.40097e-02,1.31144e-01,-8.09476e-02,-4.15741e-02,1.12026e-01,7.93775e-02,-1.58854e-01,1.19602e-01,-2.13301e-03,-4.59967e-02,8.18365e-03,1.18367e-01,1.04738e-01,2.43267e-01,4.35295e-02,1.75607e-01,3.30744e-01,1.15880e-01,1.91215e-01,9.86292e-02,1.31025e-01,5.53701e-02,-1.70878e-01,-3.16153e-02,-2.36498e-01,-6.19897e-02,1.26718e-01,-1.49376e-02,9.79971e-02,-4.18243e-02,9.18955e-02,2.13657e-01,4.07820e-02,8.49253e-02,-3.37988e-02,5.02639e-02,-7.38763e-02,1.07075e-01,5.89469e-02,1.38828e-01,1.61016e-01,4.46475e-02,1.37096e-01,1.81236e-01,2.32966e-01,3.25492e-01,2.05382e-01,3.29038e-02,-2.70801e-02,4.81604e-02,-1.03837e-02,6.11561e-02,-4.44421e-02,-8.70534e-02,-2.11437e-02,-1.15024e-01,1.26720e-03,-1.88141e-02,1.04945e-01,-6.50963e-02,1.93320e-01,1.60911e-01,8.94128e-02,7.35854e-02,6.30922e-02,7.61472e-02,1.56050e-02,1.94258e-01,8.25344e-02,1.73018e-01,1.04833e-01,2.32510e-01,1.53890e-01,2.46679e-01,8.49709e-02,1.73066e-02,-4.13800e-03,5.05141e-03,1.21233e-01,7.13811e-02,-4.79637e-02,-7.26965e-02,-1.81731e-01,-3.50472e-02,-6.05885e-02,-1.19183e-01,8.19469e-03,8.06560e-02,1.11195e-01,-7.98729e-02,9.24889e-02,1.25736e-01,5.26948e-02,2.69368e-02,1.18648e-01,6.41462e-02,-5.88448e-02,2.05920e-02,5.90863e-02,2.59819e-01,8.71951e-02,1.08238e-01,1.95625e-02,1.66794e-01,7.44749e-02,-6.53792e-02,1.82625e-01,7.52573e-02,1.12504e-02,4.06491e-03,1.78678e-02,-8.55516e-03,-5.92228e-02,6.45906e-02,-4.39592e-02,8.14687e-02,8.90547e-02,1.03662e-01,-1.46811e-01,1.44751e-01,-4.37038e-02,-2.61423e-02,1.03987e-01,2.25022e-02,2.22219e-02,-6.26883e-02,1.45918e-01,1.90123e-01,4.21909e-02,-7.43167e-02,6.53054e-02,1.85672e-01,1.66991e-01,1.22291e-01,1.53215e-01,2.09578e-01,2.43122e-02,1.65067e-01,1.47160e-01,-8.95815e-02,-1.10282e-01,1.77237e-01,-1.26212e-01,1.78792e-01,2.50827e-01,4.89948e-02,7.79760e-02,-6.70249e-02,8.18059e-02,3.51834e-02,-1.28017e-01,2.80934e-02,-1.22775e-01,-1.74323e-01,7.10296e-02,1.49326e-01,1.07841e-01,2.27469e-02,-5.04511e-02,1.36132e-01,2.67519e-01,2.53481e-01,5.45701e-02,3.14490e-01,1.56154e-01,1.73309e-01,9.33767e-02,6.38292e-02,5.82831e-02,1.33315e-01,3.71279e-02,-1.20510e-02,5.48323e-02,-1.34863e-03,1.17694e-01,-5.86893e-02,-8.45446e-02,5.94516e-04,9.76357e-02,-7.02627e-02,-5.79718e-02,-7.27010e-02,1.93305e-01,1.37629e-01,1.41773e-01,6.05847e-02,-9.29176e-02,1.26772e-01,2.93177e-01,6.64392e-02,1.44341e-01,1.19296e-01,1.79603e-01,7.13020e-02,2.63046e-01,-7.21706e-02,-5.18896e-02,6.77078e-02,-7.53348e-02,1.23455e-01,-3.48621e-02,1.04809e-02,8.36664e-02,-4.11214e-02,-1.02403e-01,-1.73971e-01,-2.46925e-01,-2.15772e-01,-1.30364e-01,-1.40490e-01,7.45772e-02,8.23825e-02,-4.62874e-02,1.10347e-01,8.50358e-02,-7.69148e-02,1.85400e-01,-1.14514e-01,7.45409e-02,1.08119e-02,1.72052e-02,6.80056e-02,4.24268e-02,1.23417e-01,-1.45326e-01,3.07846e-02,-1.67684e-02,-3.15663e-02,4.09045e-02,-3.55220e-02,-9.64762e-02,-1.69202e-01,-7.26673e-02,-4.08063e-02,-5.26851e-02,-8.17216e-02,-5.20416e-02,5.68472e-02,2.13145e-02,1.01314e-01,2.15293e-01,-1.55782e-01,-1.86749e-02,2.83611e-02,-1.85768e-01,-2.62914e-02,-1.44104e-01,5.90593e-04,4.00113e-02,-5.44643e-02,5.45679e-03,5.77064e-03,4.72100e-02,-8.39312e-02,-3.94930e-02,-1.07637e-01,-1.62434e-01,2.89415e-03,-5.52275e-02,-6.68866e-02,-1.56654e-01,-1.94863e-01,-1.90645e-01,-2.79980e-01,-9.98783e-02,7.59225e-02,2.20302e-01,-6.51836e-02,-1.06468e-01,7.17612e-02,1.50532e-02,-3.38371e-02,4.06050e-02,-8.81191e-02,-1.20936e-01,-1.22579e-01,-8.04519e-02,6.24047e-02,-7.00937e-02,-4.20984e-02,1.12959e-01,1.74261e-01,8.65539e-02,1.23871e-01,1.54501e-01,-5.82287e-03,-8.46528e-02,-9.99030e-02,3.68064e-02,-1.32977e-01,-7.76471e-02,-4.95771e-02,-7.04634e-02,4.78843e-02,4.60949e-02,-9.60157e-02,-5.66873e-02,-3.76404e-02,5.31578e-02,-2.35526e-01,-2.17809e-02,5.47250e-02,-1.52367e-01,-9.37971e-02,-9.80813e-02,1.74132e-02,-4.92372e-02,7.49973e-02,2.49908e-03,-1.83527e-01,9.61979e-02,1.00064e-01,1.60430e-02,6.28939e-03,3.63110e-02,-9.30922e-02,-8.38952e-02,-2.21498e-02,-4.22302e-03,1.04328e-02,1.16514e-02,1.04145e-01,-9.95373e-03,-1.89096e-01,6.25184e-02,2.42841e-02,3.72092e-03,-8.47637e-02,-1.83378e-02,-2.26943e-02,4.83654e-02,3.44338e-02,4.65855e-02,-9.95310e-03,3.72722e-02,1.47746e-01,6.81639e-02,-7.94223e-02,5.18646e-02,6.32364e-02,3.41536e-02,-7.54231e-02,8.48810e-02,7.44025e-03,8.47156e-04,-3.74460e-02,4.63534e-02,-1.30839e-03,1.67160e-01,1.17098e-02,7.20447e-02,-1.22559e-01,-1.25818e-01,3.51290e-02,1.22702e-01,1.34724e-01,-4.71580e-02,-2.96325e-02,9.22600e-02,-1.70231e-02,1.64652e-01,-9.79314e-02,2.29472e-03,-3.12061e-02,-8.51701e-02,-1.99324e-02,4.66025e-03,1.12022e-01,1.60962e-01,6.14797e-02,-2.25715e-02,2.21971e-02,5.17897e-02,1.43006e-01,5.13499e-02,5.94094e-02,2.18952e-01,4.05549e-03,-3.13290e-03,1.33549e-01,9.91069e-02,1.19744e-02,1.00892e-01,1.62728e-01,1.16087e-01,9.59266e-02,2.29700e-01,7.40118e-02,-1.12554e-01,-7.95583e-02,3.02183e-02,-5.87952e-02,1.48056e-01,1.05961e-01,7.72946e-02,1.91268e-02,2.43031e-01,1.01450e-01,9.79180e-02,-4.70034e-02,1.48339e-01,6.81746e-02,9.97845e-02,1.64814e-01,-5.03018e-02,1.62549e-01,3.03824e-02,-2.81535e-02,6.28360e-02,-1.58109e-01,1.42585e-01,-1.07115e-01,-2.60992e-02,8.77302e-02,-6.12974e-02,1.30550e-02,-1.33328e-01,3.84586e-02,-1.19478e-01,8.69995e-02,1.43794e-02,3.62598e-03,1.29154e-01,7.23999e-02,1.72368e-02,-2.25067e-02,8.51016e-02,1.16295e-01,2.21066e-01,1.40258e-02,-1.78447e-02,4.49493e-02,6.86074e-02,4.42779e-03,1.29888e-01,-2.04214e-02,1.75996e-01,-1.22864e-01,-1.53143e-01,9.91610e-03,1.82438e-01,-1.63522e-02,1.50527e-01,-7.51212e-02,-4.80735e-02,-1.08033e-01,1.08383e-02,-6.85638e-02,2.29982e-02,1.26519e-01,8.46535e-02,7.00640e-02,1.28136e-01,5.14257e-02,1.50014e-01,2.18427e-01,1.32702e-01,1.16480e-01,1.07417e-01,-1.16961e-01,1.19002e-01,-6.14489e-02,7.91727e-02,2.72673e-02,6.26679e-02,2.78991e-02,-1.99389e-02,-4.61921e-02,-1.87138e-01,2.75212e-02,-1.75616e-02,-1.15927e-01,9.83372e-02,-1.09422e-01,4.60850e-02,-2.62770e-02,1.99800e-02,-4.06382e-02,8.56395e-02,1.45044e-01,1.39363e-01,-1.21470e-01,1.98909e-02,6.84304e-02,1.78109e-01,1.24936e-01,7.63896e-02,9.65810e-02,1.03507e-01,1.76518e-01,2.41433e-01,6.87369e-02,1.12580e-01,5.65472e-02,6.47597e-02,8.55177e-03,8.54020e-02,-6.67719e-02,-1.32544e-01,1.92750e-02,7.63562e-02,2.00875e-01,9.18514e-02,-2.04462e-01,-8.47780e-02,-3.53281e-02,4.16139e-02,7.31937e-02,7.71847e-02,-1.59029e-01,-6.31124e-02,2.33920e-02,-1.14847e-01,5.98649e-04,5.46597e-02,1.33846e-01,1.65718e-01,1.66603e-01,6.23279e-02,2.35629e-01,3.21191e-02,-6.11834e-02,9.99361e-02,-1.08851e-01,9.22349e-03,3.25854e-02,-3.02144e-02,1.48885e-02,1.57150e-01,6.61095e-03,-1.43156e-01,5.27404e-02,4.55558e-03,-1.82281e-01,-8.87480e-02,-7.61176e-02,1.16058e-01,-4.80564e-02,-3.18249e-02,2.64729e-02,4.01516e-03,-8.24378e-03,1.23393e-01,7.41910e-02,1.71234e-01,1.15206e-01,1.85677e-01,-2.47784e-02,2.34078e-01,9.40771e-02,1.91099e-01,3.04587e-01,8.88059e-02,2.38407e-01,3.20147e-02,1.00008e-01,1.18380e-01,-3.18260e-02,-7.25314e-02,3.12723e-02,3.93784e-02,-6.77007e-03,-9.58046e-02,-9.61987e-02,5.37674e-02,-4.29614e-02,1.10274e-01,3.50951e-02,1.30542e-01,1.31700e-01,2.05328e-01,2.24360e-01,2.79417e-01,1.48936e-01,3.92969e-01,2.25008e-01,2.84645e-01,3.29622e-01,9.29118e-02,1.96243e-01,2.70681e-01,1.07462e-01,-1.75563e-02,1.79816e-01,1.06576e-01,6.15845e-02,-4.27702e-03,4.20830e-02,-3.52358e-03,-3.07308e-02,-4.62418e-02,1.01254e-01,9.40223e-03,1.12285e-01,-4.01166e-02,-8.81550e-02,-3.98331e-03,1.75999e-03,1.38160e-01,-6.00257e-02,7.81052e-02,-6.60843e-02,-2.33714e-02,3.35161e-02,3.48235e-02,4.51545e-02,1.72632e-01,2.81301e-02,3.66788e-02,-4.58266e-02,1.14940e-01,3.14182e-02,-6.50517e-02,-6.95517e-02,-5.32347e-02,-1.70367e-01,4.68094e-02,
1.49232e-01,6.99288e-02,-1.05680e-01,3.59916e-02,2.42930e-03,2.26189e-02,2.32116e-02,1.11881e-01,3.02228e-02,1.42464e-01,8.31234e-03,-4.33324e-02,-7.78928e-02,1.81854e-01,-1.09797e-01,8.91217e-02,-9.59979e-02,-1.14273e-02,-4.96289e-02,1.95378e-02,-1.30276e-01,-1.13094e-01,4.35212e-02,8.19060e-02,-7.17097e-02,-6.06466e-02,9.28013e-02,-6.22199e-02,4.54966e-02,2.76864e-02,1.86482e-02,-9.80708e-02,-1.43553e-01,8.53682e-02,-4.61477e-02,1.46270e-01,1.90272e-01,1.51494e-01,5.55494e-02,2.75824e-01,2.85811e-02,-9.79933e-02,-4.33409e-02,-3.95877e-02,-1.23446e-01,1.61953e-02,2.31763e-01,1.06482e-01,8.44805e-02,-1.33355e-01,7.94040e-02,2.39568e-02,2.71874e-03,-1.20310e-01,2.54362e-02,-2.10402e-02,7.49545e-03,-8.57679e-02,5.75400e-02,6.81444e-02,1.66288e-01,8.30951e-02,-1.92851e-03,3.23695e-02,2.52110e-01,2.57040e-02,1.20264e-01,9.77191e-02,1.12477e-01,-6.64383e-02,1.13283e-01,2.13843e-01,1.32860e-01,1.41463e-01,1.34922e-01,2.25728e-01,1.97470e-01,6.18035e-02,1.13520e-01,1.20473e-01,2.89493e-02,1.03983e-01,-3.64220e-03,-5.30230e-02,-1.73550e-01,-5.25366e-02,1.68778e-01,4.37183e-02,9.10013e-02,1.33499e-01,-1.08941e-02,3.87260e-02,8.72398e-02,-1.00309e-01,1.31723e-01,-7.23684e-03,-3.01642e-02,-6.30278e-02,-7.46649e-02,8.77800e-02,1.56700e-03,4.59858e-02,1.19040e-01,2.38627e-01,2.11600e-01,-8.78888e-03,1.46956e-01,2.20475e-01,2.11864e-01,1.52212e-01,-2.36413e-02,6.13902e-02,-5.21176e-02,-4.12634e-03,8.03490e-03,8.42530e-02,-4.25623e-03,4.13125e-02,-3.22884e-02,5.25190e-02,5.98788e-02,-1.09188e-01,-1.19837e-01,-8.10124e-03,-6.80962e-02,-7.79276e-02,-6.88251e-02,-1.90047e-01,1.42718e-01,1.17260e-01,-9.30769e-03,-1.09516e-01,1.34154e-01,2.49953e-01,9.51400e-02,1.07209e-01,-1.02456e-02,9.55436e-03,-1.04508e-01,-1.41458e-01,-1.02256e-01,1.40414e-01,-7.32911e-03,-7.97806e-02,-4.67317e-02,-9.30475e-02,-1.50775e-01,-1.75572e-01,-1.38802e-01,9.09083e-02,-1.30727e-01,-1.11185e-01,-1.23870e-01,-1.08411e-01,-8.43328e-02,-1.17083e-01,2.72222e-02,2.78849e-02,-1.00934e-01,-8.21788e-02,1.64344e-01,-9.66747e-02,1.03681e-01,-7.65010e-02,2.77583e-02,-6.22275e-02,6.25173e-03,-1.98937e-01,1.95946e-02,1.56502e-01,1.22223e-01,9.76586e-02,-1.05759e-01,-2.45851e-03,-5.24908e-02,-1.04300e-01,-5.02299e-02,1.00790e-01,1.31114e-01,5.00387e-02,2.60714e-02,8.12913e-02,1.64979e-01,1.10989e-01,-4.74042e-02,1.51786e-01,7.95147e-02,4.65840e-02,5.34871e-02,2.08588e-02,3.35028e-04,-1.85456e-01,4.99257e-02,-1.58665e-01,4.06192e-02,2.98437e-02,-3.06277e-02,-1.79995e-01,-7.19758e-02,6.73967e-02,-1.10220e-01,-1.03762e-01,1.85358e-02,-1.45595e-01,-7.65578e-02,-2.34921e-02,1.45093e-01,-4.75165e-02,1.87539e-01,1.09173e-01,1.90830e-01,2.07091e-01,2.47961e-01,2.58313e-01,1.66880e-01,1.73481e-02,3.90013e-02,9.62651e-03,1.91963e-02,-1.37100e-01,-1.01130e-01,4.50623e-02,1.11500e-02,-6.17138e-02,-3.45730e-02,1.57659e-01,3.33644e-02,-1.09695e-01,-5.60541e-02,3.77701e-02,-2.39974e-01,1.75323e-01,1.34940e-01,4.01719e-02,-5.60699e-02,2.93883e-01,1.61251e-01,1.84400e-01,1.92589e-01,1.38207e-01,1.39357e-01,5.81411e-02,2.38699e-02,5.19390e-02,8.68348e-02,-1.31459e-01,-1.05444e-01,4.34720e-03,-9.70034e-02,-1.60719e-01,2.97278e-02,-1.38049e-01,7.69817e-02,3.69716e-02,1.13201e-01,5.44876e-02,8.47460e-02,-7.28264e-02,1.00345e-01,-9.19947e-02,1.12601e-01,8.53652e-02,6.95835e-02,1.29003e-01,1.91654e-01,2.18405e-01,4.38505e-02,4.32990e-03,1.48061e-01,1.54018e-01,-1.05082e-01,-1.34892e-01,9.10374e-02,-4.44053e-02,-4.20177e-02,-1.35175e-01,-7.75591e-02,-6.25536e-02,-8.49094e-02,-1.92228e-01,-1.10252e-02,1.67528e-01,1.16739e-01,-1.36772e-01,1.40759e-01,4.11370e-02,4.46572e-02,2.12531e-01,8.96424e-02,1.22307e-01,1.99361e-01,2.75800e-01,1.24282e-01,3.58679e-01,1.87167e-01,3.85055e-02,-1.13217e-01,-8.91752e-02,1.00450e-01,1.67532e-01,9.79597e-02,1.73824e-01,1.36627e-01,1.03674e-01,1.06498e-01,-2.06912e-02,7.86475e-02,7.69462e-02,3.82700e-02,1.18550e-01,1.94210e-01,-6.01452e-03,8.25702e-02,2.83463e-01,1.93812e-01,7.98701e-02,1.26857e-01,1.82763e-02,2.21846e-01,2.22362e-01,7.71121e-02,1.01304e-01,1.49218e-02,-8.68292e-02,3.89777e-02,2.85913e-02,6.54273e-02,4.93974e-02,1.02316e-01,2.31785e-01,2.93413e-01,2.16349e-01,1.77329e-01,-1.86583e-02,-1.55229e-01,-1.55233e-01,1.17274e-01,2.41898e-02,2.58512e-01,1.83563e-01,1.31670e-01,1.27322e-01,1.77949e-01,2.62004e-01,3.59728e-01,1.96819e-01,4.62645e-02,1.33414e-01,8.25301e-02,5.13657e-02,-2.88633e-01,-1.69409e-01,-6.05620e-02,-6.50030e-02,-2.08356e-02,9.06296e-02,2.42824e-01,3.60099e-01,2.08157e-01,1.36874e-01,1.83422e-01,-2.34031e-03,-1.03044e-01,-3.64737e-02,-6.00117e-02,7.66998e-02,1.10268e-01,1.04783e-01,4.09301e-02,1.60267e-01,1.06278e-01,1.62742e-01,1.94792e-01,1.74628e-01,4.44891e-02,-9.28124e-03,-7.58408e-02,-1.75915e-01,-1.97167e-01,-7.95547e-02,3.92853e-02,9.51678e-02,-3.23029e-02,2.20715e-01,6.19462e-02,4.36319e-02,3.10557e-01,1.88741e-01,2.13653e-01,-1.45816e-01,-1.35168e-01,4.90653e-02,-5.18648e-02,-1.11052e-01,6.58298e-02,1.01193e-01,6.94884e-02,1.55095e-01,2.46196e-01,8.80344e-02,7.07045e-02,-1.15458e-01,6.15302e-02,-3.98454e-02,-2.18444e-01,-3.07590e-01,-3.77389e-01,-1.17591e-01,-4.34818e-02,-6.93437e-02,7.01355e-02,1.47167e-01,2.00758e-01,1.23448e-01,1.14235e-01,2.68363e-01,1.80604e-01,-1.13439e-01,-1.61340e-01,4.52324e-02,-5.31301e-02,-1.42099e-01,4.19407e-03,-9.63271e-03,2.30448e-02,1.71766e-02,1.73755e-01,1.17472e-01,5.59439e-02,2.18260e-01,5.75343e-02,-2.43881e-01,-3.26655e-01,-3.08673e-01,-1.35168e-01,-5.82061e-02,-4.83335e-02,-2.33178e-01,1.91098e-01,1.92935e-01,3.09218e-01,2.29423e-01,2.84381e-01,2.71487e-01,1.08410e-01,8.94128e-02,-2.13103e-01,-5.16185e-02,-7.77159e-03,-6.40923e-02,7.07853e-02,-1.12503e-01,-1.26119e-01,1.07362e-01,-2.48972e-02,1.79876e-01,5.95468e-02,6.67761e-02,6.26030e-03,7.40836e-03,-3.79784e-01,-2.56873e-01,-2.88584e-01,-1.29852e-01,-8.75864e-02,7.69764e-02,4.31948e-02,-4.54456e-02,7.24186e-02,6.96324e-02,2.74620e-01,-2.29717e-03,-3.32509e-02,-1.96367e-01,-1.77371e-01,-1.37673e-02,1.43789e-01,-8.02653e-02,-1.28843e-02,-9.81655e-02,-1.21863e-01,1.61155e-01,-1.75748e-02,1.71478e-01,2.46937e-01,2.01998e-01,1.75835e-01,1.53612e-01,-1.23601e-01,-1.20543e-01,-2.12375e-01,-2.71007e-01,-9.53418e-02,9.30326e-02,4.11144e-02,3.94885e-02,1.03480e-01,1.96950e-01,-1.35281e-02,6.39356e-02,-1.52340e-01,-9.65046e-02,-1.80076e-01,6.79945e-03,-3.42617e-02,1.10981e-01,-1.81601e-01,-1.89378e-01,-1.87457e-01,-3.12589e-03,7.28796e-03,-4.26715e-02,-1.11170e-02,1.73225e-01,2.50022e-01,8.07590e-02,-2.63387e-02,-1.85626e-01,2.67895e-02,-7.27446e-02,6.43118e-02,1.26150e-01,1.99217e-01,-5.05624e-02,-8.49397e-03,-1.30519e-01,1.71679e-01,-1.20130e-01,7.61163e-03,-2.31517e-01,5.69440e-02,-4.13849e-03,5.48883e-02,1.19497e-01,-6.62992e-02,-2.21058e-01,-1.26453e-01,7.28301e-02,1.18660e-01,-2.97920e-02,2.39002e-02,-1.15776e-02,1.24179e-01,1.06028e-01,7.58044e-02,6.80389e-02,-1.11824e-02,1.57081e-01,-8.58730e-02,-1.29736e-02,-2.64595e-03,2.57283e-01,-7.24757e-02,4.99987e-02,-5.81134e-02,2.16867e-02,-1.97653e-01,-2.24416e-01,-7.07788e-02,1.73111e-02,1.72770e-02,-7.33694e-02,-2.60662e-02,-1.34267e-01,-2.54813e-01,-2.91302e-02,-6.64863e-02,7.87440e-02,-2.05624e-02,-2.85553e-02,3.05618e-01,1.97787e-01,2.10291e-01,3.19277e-01,1.05488e-01,-8.45651e-03,1.74695e-01,3.80193e-02,4.83537e-02,3.75560e-03,-2.82674e-02,-7.22612e-02,-1.72483e-01,-1.77571e-01,2.86792e-02,-9.24953e-03,-5.39833e-02,1.44506e-01,1.16224e-02,-4.32097e-02,8.18506e-02,-2.91042e-01,-1.10622e-01,-2.03625e-01,1.15465e-01,-1.86304e-01,1.74454e-01,3.56870e-02,1.28253e-01,1.81274e-01,1.05375e-01,1.31110e-01,3.17879e-01,5.41372e-02,1.44523e-01,9.92324e-02,-6.62623e-02,-1.72487e-02,3.79401e-02,-1.35539e-01,-1.28860e-01,-6.45868e-02,-4.48896e-02,1.29550e-01,-5.59325e-02,9.20160e-02,4.68711e-02,7.56210e-03,-9.84162e-02,-2.41528e-01,-1.04040e-01,-3.19305e-02,1.17974e-02,1.20579e-03,7.24751e-02,3.28881e-02,2.37437e-01,1.20339e-01,1.88324e-01,2.14911e-01,8.19533e-02,1.74394e-01,-1.37911e-01,-2.78176e-02,-2.70790e-01,-8.49072e-02,-1.80595e-01,-1.02083e-02,-2.58932e-01,6.17654e-03,-4.55880e-02,1.06374e-01,-2.43783e-02,2.66913e-02,1.66334e-02,2.69062e-02,3.39529e-02,-7.00494e-02,-8.62013e-02,6.35716e-02,1.13771e-01,9.40085e-02,2.01564e-01,9.65786e-02,-6.69351e-03,2.44098e-01,1.43541e-02,2.07317e-02,5.26994e-02,-1.22403e-01,-1.52709e-01,-6.25235e-02,-5.71800e-02,-1.38832e-01,-1.64338e-01,-9.38979e-03,-7.70987e-02,-2.03917e-02,8.58408e-02,-1.26687e-01,-1.46890e-01,1.80695e-02,6.55854e-03,2.69254e-02,-1.31884e-01,1.55966e-02,-5.28943e-02,1.18313e-01,4.73105e-02,1.06760e-01,1.80029e-01,1.12626e-01,-5.87899e-02,2.21745e-02,2.89522e-02,3.61824e-02,9.83255e-02,4.93346e-03,1.22380e-02,-3.78292e-02,-1.33845e-01,-1.79967e-01,-5.24915e-02,-1.41852e-01,-5.91620e-02,-1.00981e-01,9.46426e-03,-5.19804e-02,2.83595e-02,2.63064e-02,-9.12728e-02,2.87935e-02,-6.85866e-02,2.09997e-01,2.51985e-01,2.07517e-01,5.80965e-02,2.13014e-02,2.92503e-01,1.52614e-01,8.43295e-02,1.86441e-01,2.09277e-01,1.94634e-01,1.20530e-01,1.03705e-01,1.45377e-01,8.59976e-02,1.62049e-01,-1.11065e-02,1.28617e-01,1.46331e-01,-9.86922e-03,1.46600e-01,1.52802e-01,1.14473e-01,2.37770e-02,-1.21094e-03,1.53767e-01,-9.55565e-02,1.51781e-01,7.43504e-02,-7.96495e-02,7.88743e-02,7.48197e-02,1.82368e-01,2.47392e-01,2.70578e-01,1.60867e-01,1.07332e-01,1.57131e-01,1.60009e-01,3.28537e-01,2.56199e-01,4.08366e-01,2.73939e-01,1.48156e-01,5.60037e-02,7.89382e-02,4.61502e-02,1.05481e-03,4.97014e-02,-1.47828e-01,9.41004e-02,-1.21598e-01,-1.14781e-01,5.50555e-02,-1.26024e-02,6.43146e-02,-1.02024e-01,1.42829e-01,-3.20851e-02,5.74662e-02,9.96034e-03,5.57433e-02,4.12717e-02,-5.83144e-02,1.70923e-01,2.50108e-01,1.23160e-01,2.02904e-01,7.61682e-02,2.17995e-01,3.48337e-01,1.06960e-01,1.36325e-01,1.80493e-01,5.49510e-02,-1.48025e-01,1.91256e-01,7.41310e-02,-1.10930e-01,9.95342e-02,4.88202e-02,
1.14817e-01,1.95951e-01,7.91441e-02,7.25031e-03,1.10128e-01,7.85067e-03,-4.24225e-02,5.00133e-03,5.05618e-02,1.58263e-01,9.54646e-02,-9.39101e-02,1.43365e-01,-1.56732e-01,1.44935e-01,-4.02336e-02,1.35434e-01,-8.05032e-02,-1.39897e-01,-3.84657e-02,7.66844e-02,6.61485e-03,-4.23440e-02,-7.78752e-02,4.95561e-02,-6.40597e-02,1.64372e-01,-9.46583e-02,1.12952e-02,-1.48904e-01,4.27486e-02,-1.42321e-02,-1.09976e-01,1.13461e-01,1.92381e-01,-9.62387e-02,-9.25634e-03,1.13673e-01,1.95296e-02,-5.67097e-02,2.04114e-02,1.50173e-01,-4.64967e-02,-1.34925e-01,5.27490e-02,5.05469e-02,1.45885e-01,1.40578e-01,2.17446e-01,1.82550e-01,4.55287e-02,7.34269e-02,-3.33905e-02,-8.33995e-02,1.62063e-01,9.89496e-02,4.25068e-03,1.25163e-01,8.47206e-02,-8.49211e-02,8.95200e-02,-8.81755e-02,5.02982e-02,-5.92072e-02,7.23452e-02,1.18018e-01,1.38689e-01,2.26531e-01,1.24451e-01,4.55981e-02,1.05956e-01,1.69928e-01,8.44330e-02,5.22562e-02,1.62559e-01,6.96720e-02,5.14706e-02,1.38787e-01,-5.98921e-03,6.47202e-02,-1.35107e-01,5.56518e-02,-4.68140e-02,-8.03078e-02,9.27520e-02,-7.66490e-02,1.65224e-02,3.75120e-03,-1.20031e-01,3.37078e-02,-1.09573e-02,1.25284e-01,1.95918e-01,2.04255e-01,1.46116e-01,2.67765e-01,1.61849e-01,1.20244e-01,9.31196e-03,1.53359e-01,-1.55075e-02,1.49405e-01,1.54277e-01,1.90784e-01,1.41900e-01,1.22012e-01,5.31011e-02,1.78917e-01,1.01934e-01,-5.99765e-02,2.44443e-02,-8.00168e-02,-5.71528e-02,7.59283e-02,-1.09053e-01,1.59791e-01,-5.80643e-03,6.55781e-02,1.94488e-01,1.68495e-02,2.62702e-02,1.38923e-01,1.75875e-01,1.01438e-01,8.62098e-02,-1.12780e-01,-3.04912e-04,2.60534e-02,7.92593e-02,-4.50914e-02,-1.24137e-01,1.19173e-01,-7.99983e-02,6.63211e-02,1.23669e-01,6.40524e-03,2.57224e-02,-5.68883e-02,-1.53067e-01,-1.17471e-01,7.57533e-02,1.96845e-02,-1.23078e-01,1.24319e-01,-2.48079e-02,2.60270e-01,6.79802e-02,2.43133e-01,1.75200e-01,1.88741e-01,1.63131e-01,-2.48154e-02,-1.58376e-01,-1.42916e-01,8.37780e-02,3.59509e-02,3.88435e-02,1.20934e-01,5.48014e-02,-2.74568e-02,9.37494e-02,6.57414e-02,-8.83576e-02,-4.96697e-02,-1.93974e-01,-1.32126e-01,-8.77342e-02,-4.98223e-02,6.58682e-02,2.14026e-01,1.43413e-01,9.26199e-02,8.38720e-02,2.45774e-01,7.68076e-02,2.33476e-02,7.98444e-02,5.87590e-02,4.89748e-02,1.28822e-01,-1.54050e-01,1.18924e-01,-1.95906e-01,-1.12222e-01,8.06975e-03,7.75831e-03,3.97699e-02,-7.46103e-02,-7.14643e-02,6.07662e-02,-2.18379e-02,-3.89878e-02,-8.61064e-02,-2.38395e-01,3.79923e-02,-8.21258e-02,-5.92171e-02,3.04351e-02,2.15073e-01,2.12627e-01,3.55778e-01,2.11949e-01,7.23116e-02,1.34719e-01,1.12413e-01,6.81052e-02,6.88270e-02,2.79796e-02,-2.18863e-03,-1.79093e-01,-7.97017e-02,-1.59574e-01,8.45344e-02,1.37425e-01,-7.71252e-02,1.63139e-02,-3.11667e-02,-5.17360e-02,-2.10384e-01,-1.55023e-01,-3.67069e-01,-2.23593e-01,-1.39274e-01,-7.95155e-02,4.25528e-02,5.54895e-02,4.45173e-02,1.71535e-01,3.42229e-01,1.34309e-01,1.51854e-02,8.30024e-02,-8.07717e-03,3.88456e-02,9.38317e-02,-6.30525e-02,-1.44472e-01,-7.83322e-02,3.85326e-02,8.79380e-02,1.10218e-01,-1.81063e-02,6.22848e-02,-3.63517e-02,-9.52652e-03,-1.93020e-01,7.59910e-02,-2.45785e-01,-1.84759e-01,-3.49727e-01,-2.24726e-01,5.29251e-02,1.04220e-01,1.28999e-01,2.16222e-01,4.02964e-02,1.87487e-01,1.02534e-01,-8.17397e-02,-4.45510e-02,-4.65804e-02,7.74566e-02,-1.27885e-01,-1.40242e-01,-6.95796e-02,3.33965e-02,-2.30472e-02,8.02657e-02,1.99442e-01,1.50451e-01,1.00838e-01,5.41605e-02,1.04766e-01,-2.03429e-02,-2.03130e-01,-3.00507e-02,-5.18819e-01,-4.87029e-01,-3.11913e-01,2.81576e-02,2.58379e-02,-8.49592e-02,2.13305e-02,2.47177e-01,1.31086e-01,8.27296e-02,-1.78766e-01,-7.79302e-03,-2.17955e-01,-1.22713e-01,-1.06327e-01,-9.34545e-02,5.33064e-02,-1.70603e-01,-1.97033e-02,5.36829e-02,1.82049e-01,2.02411e-01,5.71026e-02,5.51667e-02,1.39803e-01,8.73926e-02,-1.89346e-02,-1.72305e-01,-2.18578e-01,-1.00480e-01,-2.69292e-01,9.29361e-02,-7.84080e-02,1.40356e-01,4.48113e-02,3.30049e-01,1.43333e-01,-3.96413e-02,-7.34596e-02,-1.22115e-01,-1.60603e-01,-2.03823e-01,-1.50219e-01,-1.23192e-01,-1.61266e-01,-1.16161e-01,-4.77612e-02,-4.65187e-02,2.64274e-01,3.21724e-01,1.69659e-01,2.68054e-01,1.20828e-01,1.51548e-01,4.74796e-02,1.00243e-01,-1.21628e-01,-8.04896e-02,-1.55430e-01,-2.74030e-02,-6.08394e-02,7.79737e-02,1.93117e-01,3.12499e-02,-2.61068e-02,3.02679e-02,-4.77321e-02,-7.39766e-02,-2.03166e-01,3.87752e-02,-3.81414e-03,7.01529e-02,-1.74064e-01,-3.32803e-01,-1.58503e-01,-1.10719e-01,7.84356e-02,1.24966e-02,1.07054e-01,1.19670e-01,-3.62667e-02,6.86776e-03,2.02940e-01,2.08649e-01,2.84556e-02,4.44863e-02,-1.36966e-01,-3.29008e-02,1.00639e-01,-7.02797e-04,1.69433e-01,4.34326e-02,-7.30311e-02,5.25550e-02,-1.10795e-01,-1.48214e-01,7.24455e-02,1.24347e-01,-2.65866e-02,3.10951e-02,-1.47593e-01,-2.12148e-01,-1.83438e-01,-8.78384e-02,1.13008e-01,7.59776e-02,-4.76961e-02,1.22819e-01,1.65809e-01,2.33609e-02,2.85207e-01,2.38614e-01,2.63075e-01,1.37026e-01,-5.53964e-02,3.28420e-02,-6.90425e-02,2.26523e-02,-3.26059e-02,2.04266e-02,-9.88133e-02,-4.93143e-02,2.70245e-01,4.35149e-02,1.86804e-01,1.38728e-01,5.00690e-02,-1.63812e-01,-1.44763e-01,-8.73361e-02,-1.75955e-01,-1.12025e-01,7.48978e-02,1.50339e-01,7.35883e-02,7.42439e-02,1.21456e-01,5.66269e-02,1.93812e-01,1.67871e-01,1.95134e-01,6.05141e-02,-6.13692e-02,-1.28024e-01,-7.96588e-02,3.43210e-02,1.38107e-01,1.17942e-01,3.74264e-02,8.78249e-02,2.18542e-01,3.51884e-01,2.19281e-01,1.06287e-01,2.00403e-01,8.85126e-03,-9.77839e-02,-2.08463e-01,-2.57323e-02,2.02346e-01,9.44971e-02,2.12414e-01,5.84167e-02,3.02209e-01,3.43679e-01,1.19538e-01,2.93924e-01,2.09564e-01,2.51137e-01,1.48035e-01,3.99175e-02,1.34480e-01,8.23983e-02,-8.75855e-02,-7.42553e-02,2.28366e-01,2.21236e-01,1.78369e-01,3.28699e-01,2.88352e-01,2.30709e-01,2.25481e-01,1.06918e-02,6.32872e-02,-1.74735e-03,-2.30235e-01,1.17399e-01,1.68788e-01,3.20642e-01,2.54974e-01,2.83645e-01,1.81303e-01,1.17795e-01,2.54938e-01,2.87213e-01,1.63416e-01,-2.47099e-02,1.07665e-01,2.27581e-01,-3.96218e-02,-1.75926e-02,1.34192e-01,-1.53488e-01,4.98779e-02,-7.35342e-02,4.55837e-02,1.13133e-01,1.75632e-01,3.47586e-03,1.75953e-01,1.84487e-01,-6.02275e-02,-5.96419e-02,8.09774e-02,5.86830e-02,-1.41318e-02,1.26524e-01,2.14167e-01,8.85181e-02,2.28287e-01,4.18151e-02,1.91858e-01,6.75719e-02,8.48876e-02,7.31325e-02,1.45083e-01,6.69777e-02,-3.92451e-02,1.73465e-01,3.89148e-02,1.58843e-01,2.94263e-02,1.37796e-01,4.53189e-02,7.08652e-02,-5.21424e-02,-5.77390e-02,1.13579e-01,4.22162e-02,2.43178e-02,3.69254e-02,2.53887e-02,-1.41524e-02,2.75665e-01,6.12541e-02,1.91793e-01,1.97815e-01,2.82796e-02,1.34117e-01,1.93876e-02,-3.38811e-02,5.01750e-02,7.09043e-02,2.80726e-01,-1.15371e-02,8.05753e-02,-3.41414e-02,6.10791e-02,-7.02106e-02,1.15577e-01,8.37683e-02,-4.19984e-03,-3.53218e-02,-3.35618e-02,8.24851e-02,2.47849e-02,-1.89824e-02,1.02924e-01,4.58775e-02,4.72953e-02,8.55430e-02,2.34645e-01,1.44114e-01,1.74490e-01,1.03832e-01,1.39608e-01,-7.79591e-02,1.16257e-01,-6.56992e-02,-5.86513e-02,9.57301e-02,2.11236e-01,2.87386e-01,1.85780e-01,-3.40099e-02,9.25324e-02,5.92763e-02,4.90336e-02,4.57552e-02,1.48791e-02,-4.47933e-02,-9.45886e-02,5.99857e-02,-9.47684e-02,-4.48414e-02,9.01156e-02,1.02792e-01,1.64637e-01,8.37871e-02,1.56820e-01,1.35072e-02,1.76561e-01,1.73740e-01,1.95993e-02,-9.56152e-03,-6.10231e-02,-9.24760e-02,-2.26659e-01,1.92630e-01,1.72705e-01,1.14473e-01,1.02401e-01,-3.51564e-02,8.18083e-02,3.30166e-02,1.12519e-02,1.68608e-02,-3.84820e-02,-7.82699e-02,5.18160e-02,-8.66649e-03,-1.36341e-01,9.94447e-02,-9.70824e-02,3.95664e-02,1.53302e-01,1.50644e-01,1.63957e-01,1.29334e-01,1.25583e-01,1.82835e-01,-4.67724e-02,-3.91058e-02,-9.43021e-02,-9.67906e-02,-1.56519e-01,1.53242e-01,-4.29930e-02,-2.47554e-02,1.74916e-01,-3.81818e-03,-9.38728e-02,1.24275e-01,2.32407e-02,7.64324e-02,-1.74219e-02,9.93836e-02,1.20985e-01,3.55466e-02,-2.76010e-02,-5.21174e-02,-1.16530e-01,-1.17427e-01,-1.25960e-02,7.01049e-02,-1.13484e-01,4.30576e-03,-1.00521e-01,2.82795e-02,2.54094e-02,-9.29929e-02,-3.68823e-02,-4.38796e-02,2.10707e-02,-4.59093e-02,6.79645e-02,-9.78863e-02,-1.81620e-01,-6.27921e-02,-9.73193e-02,-4.95808e-02,-3.39614e-02,-7.78175e-02,6.38461e-02,1.89209e-01,1.09006e-01,-1.19106e-01,-2.08924e-02,-4.69491e-02,2.28542e-02,-5.65649e-03,1.83622e-02,-2.28706e-01,-2.15083e-01,-9.25682e-02,-1.28784e-01,-3.62312e-03,-3.88921e-02,-2.04813e-01,2.01709e-02,-1.61326e-01,-9.60655e-02,-6.00655e-02,1.28979e-01,-9.48022e-02,-3.87972e-02,9.54912e-02,-1.45416e-02,7.76565e-02,5.90752e-02,1.29043e-01,-9.23229e-03,1.49444e-01,-4.30610e-02,2.51693e-02,-7.53934e-02,1.29728e-02,3.45378e-02,5.39428e-02,9.46445e-02,-1.37507e-01,-4.45752e-02,-8.63414e-02,-1.30653e-01,-1.47411e-01,-2.98413e-02,-5.16211e-02,4.40706e-02,-6.60287e-02,-1.56276e-01,-6.26800e-02,1.70911e-01,4.40059e-03,-1.11640e-02,-1.42461e-02,9.47110e-02,-1.68639e-01,1.01074e-01,1.79355e-01,4.46447e-02,3.98383e-02,1.97451e-01,1.90422e-01,2.19757e-01,1.08667e-01,8.79319e-02,6.94956e-02,-3.31350e-02,1.64846e-02,-4.77354e-03,4.08216e-02,2.76410e-02,-1.08851e-01,-1.07643e-01,-6.22333e-02,-1.10337e-01,-2.53653e-01,5.09421e-02,1.23043e-01,-1.43614e-02,1.07029e-01,6.96066e-02,-1.91525e-02,7.22601e-02,1.14904e-01,-1.49214e-01,-9.47869e-02,1.50491e-01,-5.09991e-02,1.16827e-01,-8.09212e-02,1.99908e-02,2.57308e-02,9.69991e-02,9.16031e-02,1.91865e-01,1.18495e-01,-7.51631e-03,4.01350e-03,5.91151e-02,8.12869e-03,-7.51425e-02,-2.02677e-01,-1.66960e-01,-1.64704e-02,-6.41233e-02,9.86613e-03,-1.07192e-02,-3.39672e-02,6.46958e-02,1.98173e-02,4.52686e-02,-4.48380e-02,-2.33199e-02,5.20082e-02,-8.80032e-02,6.24425e-02,-9.41797e-02,8.24217e-03,5.71888e-02,-6.27519e-03,5.36203e-02,-4.09141e-02,2.18236e-01,1.72551e-01,2.92533e-01,-4.86511e-02,1.07507e-01,1.04928e-01,6.85627e-03,-7.42663e-02,-1.80510e-01,3.09269e-02,-5.90687e-02,4.17840e-02,-1.27569e-03,-9.29279e-02,2.97471e-02,
-1.97127e-01,5.76088e-02,1.22005e-02,-4.46145e-02,-6.56592e-02,-5.04989e-02,1.60357e-02,5.24319e-02,-4.26789e-02,-1.42229e-01,1.04409e-02,6.76833e-02,5.95377e-03,-1.43309e-02,-6.11812e-02,-1.00764e-01,1.80325e-01,-5.08433e-02,6.45046e-02,-1.84519e-01,-1.15105e-01,-1.25850e-02,-5.19628e-02,-3.74485e-03,9.46676e-02,-5.67977e-02,7.44618e-02,9.80916e-02,9.17130e-02,2.81659e-02,2.95423e-03,1.27670e-01,1.25713e-01,-1.50443e-01,-1.39225e-01,3.23759e-02,1.48975e-02,2.61317e-02,-1.07717e-01,1.12552e-01,-1.25612e-01,-2.24128e-04,-1.39151e-01,4.55748e-03,-4.04866e-02,-2.03918e-01,-9.71098e-02,-1.60770e-01,2.51937e-02,4.17905e-02,-2.05846e-02,1.20617e-01,3.53007e-02,1.73351e-01,-9.24827e-02,2.03811e-02,1.19479e-01,1.14837e-01,2.98114e-02,2.74991e-03,-7.39696e-02,-1.63690e-01,4.62124e-02,1.17047e-02,-1.03979e-01,-3.57191e-02,-1.47817e-01,-8.16746e-02,-1.72666e-01,-1.20422e-01,-1.92929e-01,-7.24372e-02,-2.35840e-01,-8.32898e-02,-2.34619e-01,1.51340e-02,5.37609e-02,-1.50022e-01,-5.08091e-02,-1.56188e-02,-3.49934e-02,7.97144e-02,4.23653e-02,-5.94649e-02,9.28834e-02,8.40029e-03,-1.35218e-01,-1.18227e-01,-3.17728e-02,-1.19434e-01,-2.56020e-02,-1.63605e-02,-1.58838e-01,1.03112e-01,-1.19897e-01,4.70199e-02,8.15253e-02,-6.43341e-02,1.27436e-01,1.74952e-01,7.23077e-02,2.16523e-02,-9.05069e-02,1.36036e-02,3.51166e-02,-2.35120e-01,-3.48803e-02,-9.65900e-02,-1.25320e-01,3.84870e-02,8.89732e-02,1.14608e-01,-8.60063e-02,5.52916e-02,-1.29658e-01,-1.23468e-01,-1.35294e-01,-6.86534e-02,1.83206e-01,1.00012e-01,4.01324e-02,4.83946e-02,7.79363e-02,1.59064e-01,1.51514e-01,-3.87883e-02,9.33869e-02,-6.19358e-02,2.47480e-02,-2.20910e-02,-9.80857e-02,1.10980e-01,-1.95508e-01,-1.12472e-01,-9.08042e-02,-1.61501e-01,-1.38711e-01,5.12393e-03,1.04415e-01,-5.08323e-03,-1.03558e-01,8.00535e-02,-3.38464e-03,5.31433e-03,-1.41594e-02,2.66468e-01,2.93937e-01,1.39608e-01,-5.85346e-02,2.35998e-01,-6.68147e-02,1.69307e-01,-7.76342e-02,4.08482e-02,-7.45033e-02,-4.99543e-02,1.07160e-01,-1.78852e-02,-3.97078e-02,-6.43680e-02,-2.37307e-01,-1.54869e-01,-5.64040e-02,-1.37541e-01,-6.25347e-02,1.82632e-01,6.90391e-02,-3.97348e-02,-6.14045e-02,-9.80324e-02,1.97703e-02,8.78414e-02,2.77471e-01,7.57110e-02,8.73913e-02,2.05685e-01,1.40306e-01,2.40533e-01,4.69590e-02,1.74740e-01,9.24731e-02,1.95594e-01,2.66423e-01,2.42413e-02,2.38207e-01,1.27792e-01,3.31346e-02,-2.98633e-02,4.98352e-02,-3.69214e-03,-1.93075e-01,-1.68045e-01,-2.01922e-01,-1.87309e-02,-2.71646e-03,2.04343e-02,1.15859e-01,-1.04382e-01,-1.18944e-01,4.24473e-02,7.03010e-02,2.30781e-01,1.23604e-01,1.69015e-02,3.29598e-02,3.99347e-02,6.31852e-02,9.20050e-02,1.92781e-02,2.93590e-01,1.38262e-01,2.16895e-01,2.28779e-01,-1.12638e-02,1.44918e-01,7.35972e-02,-8.87041e-03,-1.78698e-01,3.94255e-02,-2.43315e-01,-1.42662e-01,-4.51674e-03,1.29758e-01,2.06800e-02,4.02007e-02,1.32544e-01,1.11075e-02,8.97179e-02,4.90787e-02,1.39290e-01,1.10823e-01,6.94845e-02,2.40700e-01,-2.29353e-02,1.09915e-01,2.21026e-01,-1.01196e-01,9.97980e-02,1.17388e-01,3.06438e-01,1.84809e-01,2.21932e-01,1.78230e-01,1.61460e-01,1.69766e-01,1.37178e-01,-1.41130e-01,-3.94460e-02,3.59530e-02,9.06721e-02,3.03595e-03,1.42944e-01,7.10161e-02,-2.48798e-03,-3.11079e-02,1.15969e-01,5.80924e-02,1.11952e-01,3.16456e-02,-1.08472e-01,-7.90185e-02,4.22576e-02,-1.14961e-01,-1.55511e-01,6.31288e-02,7.50927e-02,-3.20393e-02,1.11528e-01,1.34035e-01,1.73324e-02,5.62276e-02,1.15579e-01,1.70821e-01,5.48445e-03,-1.38979e-01,-1.40505e-01,1.48415e-01,1.46488e-01,-1.36945e-01,1.53229e-01,1.38741e-01,-7.95314e-02,-1.01186e-01,3.73827e-02,-1.03000e-01,-4.66698e-03,-1.91152e-01,-1.11173e-01,-1.06793e-01,-5.85771e-02,5.73743e-02,9.38658e-02,-1.70949e-01,3.20344e-02,1.38927e-01,-5.77112e-02,1.72213e-01,1.31704e-01,1.78505e-01,4.13727e-02,-1.27990e-01,-1.75149e-01,-2.00160e-02,-1.22992e-01,1.10071e-01,1.16527e-01,-4.13706e-02,-2.84137e-02,-1.04883e-02,-3.54405e-02,-5.06241e-02,9.47941e-02,1.44199e-02,1.31525e-01,-3.77012e-02,1.27085e-02,-1.41583e-01,-7.05045e-02,-1.71001e-01,1.15528e-01,1.52835e-01,3.20382e-02,1.42481e-01,5.98446e-02,1.69489e-01,1.43463e-01,1.34229e-01,1.61298e-01,-1.26188e-01,-1.08649e-01,-3.50754e-01,-2.48374e-01,-1.82943e-01,9.07539e-03,-1.44875e-02,-2.05105e-02,9.32211e-02,-7.61635e-02,4.31510e-02,2.51173e-02,8.88265e-02,2.55996e-02,1.47034e-01,8.46602e-02,-1.16084e-01,9.75794e-02,6.75815e-03,-2.26762e-03,-1.16539e-01,1.55094e-01,-6.61066e-02,1.80310e-01,2.00234e-01,1.32349e-01,1.72838e-01,-5.04974e-03,9.59492e-02,-2.95858e-01,-1.83966e-01,-2.51645e-01,-6.74970e-02,-4.04321e-02,1.09578e-01,-3.00769e-02,-8.59923e-02,7.86361e-02,-5.49953e-02,4.20078e-02,2.04474e-01,-1.47922e-02,8.02729e-02,2.14712e-01,6.80519e-02,-6.76520e-02,1.58124e-01,1.07252e-01,1.50299e-01,4.23545e-02,1.78106e-01,3.84049e-02,1.10522e-01,1.34405e-01,1.90254e-01,1.52465e-01,9.00686e-02,9.19212e-02,-1.36478e-01,-1.90763e-01,-2.28601e-01,-1.84607e-02,7.59473e-03,-2.08206e-01,-7.52889e-02,1.89061e-02,-9.89041e-02,-8.89532e-03,2.57757e-01,1.58757e-01,1.25209e-01,1.30126e-01,2.27743e-01,-5.26472e-02,1.15218e-01,2.72784e-03,1.17626e-02,2.66519e-02,6.54595e-02,6.44156e-03,1.21460e-01,2.75543e-01,1.18969e-01,-4.10969e-02,6.50812e-02,7.10879e-03,-1.87974e-02,-2.46591e-01,-2.35856e-01,6.09859e-04,-4.94598e-02,-3.23047e-02,-8.34039e-02,1.33653e-02,1.07080e-01,7.53700e-02,2.59919e-01,2.04078e-02,-8.17938e-02,8.98464e-02,-1.55730e-01,8.30895e-02,9.30045e-02,-7.89522e-02,2.81071e-02,-1.75530e-02,-2.44414e-01,-4.30109e-02,4.28254e-02,9.04993e-02,2.09290e-01,3.27589e-01,1.77704e-01,7.50342e-02,-8.25571e-03,-9.39062e-02,-4.91866e-02,-2.18735e-02,1.55255e-01,5.12365e-02,4.58444e-02,3.38280e-02,-1.77062e-02,9.29515e-02,9.34449e-02,-2.38219e-02,-5.20253e-02,-6.15896e-02,-7.95219e-02,-2.10644e-01,-5.14286e-02,-9.01104e-02,2.48716e-02,-1.85888e-01,-1.43514e-01,-1.63294e-01,4.83381e-02,1.45423e-01,1.81820e-01,1.03918e-01,1.39748e-01,-7.11001e-02,4.47911e-02,1.59494e-02,-1.43445e-02,-5.17942e-02,1.66309e-01,-1.20940e-01,2.64633e-04,8.57032e-02,-3.34241e-02,2.95665e-01,8.28441e-02,-6.13166e-02,-2.67300e-02,-1.21748e-01,-1.70589e-01,-2.08246e-01,-2.18727e-01,-2.75383e-01,-2.92555e-01,-2.61846e-01,-2.46222e-01,-8.28184e-02,7.92008e-02,1.19536e-01,3.20257e-02,7.19737e-02,1.95689e-01,1.12750e-01,1.11799e-02,1.61668e-01,-1.80074e-01,7.13126e-02,4.31875e-02,4.00034e-02,-3.20450e-02,-6.77481e-02,3.53406e-02,2.61280e-01,2.95535e-02,7.15810e-02,7.61180e-02,3.76225e-02,-2.86351e-01,-2.23313e-01,-1.87288e-01,-2.06132e-01,-1.13635e-01,-3.08370e-01,-5.43415e-02,5.45674e-02,4.26303e-02,2.65451e-01,1.41100e-01,1.01439e-01,1.74040e-01,1.61291e-01,1.42176e-02,1.62899e-03,-1.79831e-01,-3.19689e-02,-1.57586e-01,2.20634e-01,1.20398e-01,5.42386e-02,9.59456e-02,2.03907e-01,5.79182e-02,1.07218e-01,-1.72184e-01,-6.99257e-02,-6.41632e-02,-1.14840e-01,-8.56938e-02,-3.02894e-01,-5.71842e-02,-2.36075e-01,-8.59865e-02,2.11064e-02,9.70578e-02,-3.79046e-02,2.32321e-02,1.45032e-02,5.51430e-02,4.74247e-02,9.46296e-02,-7.83100e-02,-1.85634e-01,-1.03873e-01,1.82845e-02,-1.35855e-01,-1.27199e-02,7.94889e-02,-4.42052e-02,2.14764e-01,1.72128e-01,1.26690e-01,1.35939e-01,-1.56371e-01,-3.63543e-02,-2.42239e-01,2.94060e-02,-1.32955e-01,-1.15101e-01,-1.17153e-01,4.39297e-02,-8.82956e-02,2.89361e-03,5.70364e-02,9.13180e-02,1.84779e-01,-1.07162e-02,4.87858e-02,-7.70590e-02,-2.73956e-02,1.61669e-02,-9.79663e-02,-6.77283e-02,-1.34668e-01,-1.36116e-01,-8.63132e-02,4.48927e-02,1.90939e-01,9.34149e-02,1.61417e-01,1.43657e-02,-3.94307e-03,1.05613e-01,-4.37275e-02,-3.00720e-02,-7.94945e-02,-9.26708e-02,-6.47980e-02,-1.92641e-01,-2.86094e-02,3.60427e-02,-8.75430e-03,9.85426e-02,1.47271e-01,-8.58823e-02,6.70308e-02,-2.29046e-01,-6.00645e-02,-1.37411e-01,-5.21717e-02,-8.50734e-02,-1.18108e-01,-1.06779e-02,-5.02095e-02,7.73508e-02,1.17291e-01,6.47128e-02,4.59328e-02,-6.68559e-02,1.18657e-01,-1.52473e-02,5.30627e-02,9.73460e-02,6.58487e-02,-3.72867e-02,-7.40354e-02,1.26278e-01,-9.52782e-02,9.54557e-02,9.68677e-02,-1.34223e-01,1.00677e-01,2.74836e-02,-5.11772e-02,-2.48269e-02,-1.69633e-02,7.82230e-02,3.62193e-02,1.61947e-01,-1.01028e-01,-1.47686e-01,2.58349e-02,5.01856e-02,2.30878e-01,8.75810e-02,5.42433e-02,1.24394e-02,4.12041e-02,1.95058e-01,1.34249e-01,6.43404e-03,-6.01481e-03,7.77757e-02,-3.86120e-02,1.20213e-01,-7.99309e-02,-1.21973e-01,-3.75458e-02,1.70433e-02,-1.15286e-01,-6.75073e-03,4.90890e-02,8.96742e-02,1.03969e-02,2.88211e-03,2.88929e-02,6.66293e-02,-1.15858e-01,1.99122e-01,4.05727e-03,-1.25222e-02,-4.50743e-03,5.23024e-02,8.28456e-02,1.81076e-01,1.85491e-01,3.02473e-01,1.15752e-01,1.25182e-01,-2.14899e-02,3.80162e-02,2.39388e-01,1.51020e-01,-2.01825e-02,1.17535e-01,2.39049e-02,7.46847e-02,-3.99678e-02,-6.59888e-02,1.25504e-01,-4.65643e-02,2.84034e-02,1.31134e-01,-1.77691e-01,2.47772e-04,1.57972e-02,-1.31022e-02,-6.39527e-03,2.22546e-02,-8.38004e-03,3.21893e-02,2.16374e-01,2.84922e-01,2.54002e-01,4.03424e-01,2.32961e-01,2.82724e-01,1.25768e-01,2.98386e-01,3.07968e-01,1.34557e-01,2.79360e-01,1.60975e-01,1.49237e-01,2.26266e-01,1.32878e-01,1.10774e-01,3.32992e-01,1.63446e-01,7.45591e-02,-5.04121e-03,6.19040e-02,7.19266e-03,4.61035e-02,-1.63719e-02,4.64413e-02,-1.58816e-02,-3.33105e-02,-2.80694e-03,9.91376e-02,-2.81850e-02,1.20402e-01,1.99614e-01,7.19068e-02,1.76655e-01,1.62502e-01,2.88081e-01,2.52782e-01,2.75133e-01,2.49233e-01,3.21719e-01,1.48996e-01,1.53788e-01,8.30472e-02,2.86027e-01,1.37923e-01,-3.77002e-02,1.19285e-01,3.06073e-02,-3.65339e-02,2.34841e-02,2.30160e-02,-5.08453e-02,2.42350e-03,4.71677e-04,-1.37079e-01,1.02472e-01,1.86747e-03,3.30885e-03,-5.84995e-02,3.68957e-02,3.12146e-02,7.43280e-02,-1.90264e-02,2.74689e-03,7.27639e-02,1.87522e-01,-7.24091e-02,-9.69363e-02,-1.43490e-01,-5.76696e-02,2.10900e-02,-2.57420e-02,8.49531e-02,-5.83378e-02,5.32144e-02,1.17352e-01,-1.79558e-01,7.97952e-02,-1.60371e-01,
-1.84026e-01,3.39121e-02,4.83194e-03,-3.88982e-02,3.34075e-02,-1.10293e-02,5.86670e-02,1.44960e-01,-5.30576e-02,9.81025e-02,9.98298e-02,2.44297e-02,9.23608e-04,-2.57100e-02,1.17720e-01,-3.62844e-02,1.99967e-02,-1.04995e-01,4.03294e-02,-8.01810e-02,1.40440e-01,-4.63497e-02,-9.51325e-02,-1.39374e-01,-2.52133e-02,1.21696e-01,-1.08000e-01,2.79928e-02,-2.73983e-02,-4.00380e-02,-1.74207e-03,9.98856e-02,1.36258e-01,1.29088e-03,-5.28988e-02,-1.88904e-02,5.49666e-02,-9.43821e-02,6.76319e-02,-4.19772e-02,7.08698e-02,1.44304e-02,1.98827e-01,4.76091e-02,8.72288e-02,-9.69244e-03,2.21432e-01,6.93986e-02,9.91562e-02,2.45467e-02,1.26604e-01,-2.98091e-02,9.06023e-02,4.55572e-02,-1.44729e-02,-7.86022e-02,9.81311e-02,6.65590e-02,6.25527e-02,6.93251e-02,-1.03337e-02,-3.05285e-02,3.61425e-02,1.67245e-01,-4.07749e-02,7.54027e-02,2.73450e-01,8.79820e-02,2.32130e-01,3.06207e-01,3.51168e-01,1.56575e-01,7.89416e-02,2.57358e-02,9.93476e-02,-3.60046e-02,4.72113e-02,7.44237e-02,-2.30479e-02,-1.92588e-02,-3.04446e-02,1.47757e-01,1.00238e-01,1.08405e-01,7.79916e-02,-2.20281e-02,-6.75194e-03,-8.81786e-02,9.20584e-02,5.96601e-02,-9.42724e-04,2.33421e-01,1.51958e-03,3.49382e-02,-1.31584e-02,3.67640e-02,1.29622e-01,3.41652e-01,1.56286e-01,4.81573e-02,1.03420e-01,3.29483e-02,-1.47095e-03,-4.40224e-02,1.72964e-01,-7.14521e-02,-1.73584e-02,1.17054e-01,1.97897e-01,-5.68248e-02,-2.95347e-02,-1.68234e-02,1.63581e-01,-1.30577e-03,3.19041e-02,7.35691e-02,1.96077e-01,2.70540e-01,9.33349e-02,1.73669e-01,1.39972e-01,1.44465e-01,2.82459e-01,1.97064e-01,1.60750e-01,1.96805e-01,1.28757e-01,6.47891e-02,1.86636e-01,1.52836e-01,5.77127e-02,1.71902e-01,-3.27194e-02,1.46412e-01,-1.32985e-01,-1.73244e-01,-9.31393e-02,-1.00701e-01,-2.01403e-01,-7.52016e-02,1.10380e-01,9.09852e-02,1.79779e-01,1.39371e-01,-3.51471e-02,9.21044e-02,7.49296e-02,2.68478e-01,9.28356e-02,5.34937e-03,1.52657e-01,7.47366e-03,1.57229e-01,1.88371e-01,1.10891e-01,1.18055e-01,4.52481e-02,2.08541e-02,8.14012e-02,7.34427e-02,-3.71850e-02,1.18355e-01,1.22644e-02,-1.05693e-01,-5.96758e-02,-7.74846e-02,-2.20815e-01,-1.79306e-02,8.73850e-02,-3.69922e-02,1.34554e-01,4.97500e-02,8.70168e-02,9.75557e-02,6.28346e-02,2.14109e-01,-1.30055e-02,1.31399e-02,2.85881e-02,-4.37174e-02,3.62601e-02,-1.10235e-01,1.15453e-01,2.95152e-02,-5.84176e-02,1.40989e-01,-7.81415e-02,9.30634e-02,1.87923e-01,1.34365e-01,-9.54896e-02,-1.34492e-01,1.74884e-02,-5.64100e-04,6.06780e-02,-1.35980e-01,1.53536e-01,8.53752e-02,2.73262e-02,9.81286e-02,1.35127e-01,8.55802e-02,2.68999e-02,1.63762e-01,5.77255e-02,-7.16050e-02,-5.21272e-02,-8.07807e-02,-1.56528e-01,-1.66057e-01,1.04884e-01,-1.30586e-01,1.14051e-02,-3.07376e-02,-4.12584e-02,-1.14805e-01,1.03786e-01,5.59929e-02,-1.39647e-01,-9.99127e-02,-2.75589e-01,-1.50917e-01,-7.45030e-02,-9.99038e-02,1.84031e-01,-1.56652e-01,2.91567e-02,1.66820e-01,1.40043e-01,1.21912e-01,-7.32131e-02,-3.82228e-02,9.17769e-02,-1.26729e-01,-1.55395e-01,-1.56837e-01,6.84451e-02,5.66130e-02,1.09291e-01,1.33051e-01,1.46893e-02,2.96612e-02,-1.85496e-02,8.83198e-02,-1.57809e-01,-1.54983e-01,-7.05013e-02,-1.37436e-01,-2.58024e-01,-1.11554e-01,-2.67074e-01,1.68761e-03,-4.20782e-02,5.28158e-02,-4.78071e-02,-2.09016e-02,1.39545e-01,9.46774e-02,7.12896e-02,-8.84536e-02,-1.44655e-01,-2.90398e-01,-9.58982e-02,-2.02351e-01,-1.15551e-01,-5.49120e-02,-1.01733e-01,3.06988e-01,8.38091e-02,1.08360e-01,9.78118e-02,1.05795e-01,-1.06229e-01,-2.06361e-01,-5.21128e-03,-2.23184e-01,-3.45702e-01,-2.22470e-01,-1.99637e-02,6.98801e-02,-1.15700e-01,-6.32764e-03,2.35023e-03,2.64945e-03,1.50905e-01,-8.68653e-02,1.21163e-02,-2.14203e-01,-1.75794e-01,-8.61221e-02,-1.70199e-01,-1.63608e-01,-2.33182e-01,-3.24652e-02,2.24202e-01,1.21730e-01,-6.37131e-02,7.57249e-02,1.39479e-01,4.08269e-02,1.28116e-01,-2.48081e-02,3.95946e-02,-1.23960e-01,-1.01045e-01,-2.65531e-01,-2.31157e-01,-1.07238e-01,-1.20658e-01,-4.54986e-02,7.20241e-02,1.87173e-02,-1.56502e-01,7.72936e-03,-2.16229e-01,-1.09446e-01,-1.10908e-01,-3.22733e-01,-9.12657e-02,-3.07406e-01,-1.62467e-01,1.71561e-01,1.65224e-01,1.59602e-01,1.37340e-01,1.17976e-01,-1.80276e-01,-5.80206e-02,4.08097e-02,7.40861e-02,1.86725e-02,2.58262e-01,2.58006e-01,2.62331e-02,-6.22264e-03,-1.28980e-01,1.50349e-01,4.87220e-02,-1.09047e-02,5.23701e-02,-2.03605e-02,-1.01257e-01,-2.70332e-01,-4.90121e-02,-4.08569e-02,-2.79534e-01,-2.57904e-01,-1.67129e-01,1.32825e-01,1.91097e-01,1.61713e-01,1.45582e-01,1.90557e-01,-8.82118e-02,-1.69431e-01,-6.11138e-02,-4.61751e-02,1.30442e-01,4.50366e-02,1.67599e-01,1.45508e-01,1.78532e-01,1.39514e-01,-4.22716e-02,-7.96727e-03,9.72120e-03,2.96488e-02,-2.47161e-02,-2.08965e-02,-1.65493e-01,-8.96370e-02,-7.28704e-02,-1.21756e-01,8.33146e-02,-1.62942e-01,-1.38346e-01,1.79714e-01,1.34406e-01,2.05409e-01,4.39556e-02,4.38363e-02,9.29492e-02,-4.68934e-02,4.83685e-02,-3.61685e-02,8.67602e-02,-4.74601e-02,1.18163e-01,1.51809e-01,1.94927e-01,-6.06331e-02,-1.06786e-02,8.36125e-03,-5.95570e-02,-2.42324e-02,3.32085e-02,-1.43999e-01,-8.63603e-02,1.24573e-02,-9.41766e-04,-1.18782e-01,-1.65781e-01,-2.05238e-02,-1.10391e-01,1.27504e-01,1.42481e-01,3.07532e-01,2.11320e-01,-2.75893e-02,-3.59893e-04,-1.02491e-01,6.81303e-02,-2.12989e-02,1.29807e-01,-1.02343e-01,-9.49779e-03,-1.26434e-01,2.26572e-01,-1.89596e-02,2.86653e-03,-5.55486e-03,8.62118e-02,1.13757e-01,-9.88375e-02,-1.10809e-01,4.40565e-02,-4.25409e-02,-1.32923e-01,1.73237e-01,-8.51897e-02,-3.88214e-03,7.46379e-02,1.32872e-01,3.77504e-01,2.00451e-01,2.01491e-01,-1.78600e-01,-2.14801e-02,1.55574e-02,-7.39907e-02,1.63294e-02,9.34151e-02,-8.67339e-02,1.25888e-01,6.72369e-02,-9.07496e-02,-9.05565e-03,-5.76668e-02,-7.57560e-02,2.78641e-02,1.07783e-01,1.49785e-01,5.21688e-03,-8.28886e-02,-4.99493e-02,9.99164e-02,-1.13935e-01,8.14708e-02,-3.26295e-02,5.07299e-02,3.59851e-02,3.74494e-01,2.84896e-01,-6.05897e-02,-3.96365e-02,-1.18856e-01,-6.24061e-02,4.38849e-03,1.98799e-01,1.33054e-01,2.46538e-01,-3.45806e-02,-6.20589e-02,3.46064e-02,1.39239e-01,-1.17940e-01,1.61254e-01,1.85376e-01,1.71356e-02,1.33497e-01,2.12533e-01,4.81012e-02,1.41174e-01,-2.56291e-02,-1.33392e-01,-1.12539e-01,-3.92847e-02,6.51192e-02,2.58521e-01,1.11555e-01,5.26164e-02,1.13529e-01,6.67165e-03,-8.25554e-02,2.09020e-02,1.22449e-01,1.65141e-01,-4.65213e-02,9.63095e-02,1.46448e-02,4.14419e-02,2.40522e-02,-1.10534e-01,3.55414e-02,5.55883e-02,5.72318e-03,1.28840e-01,1.61135e-01,1.79822e-01,1.11780e-01,-1.03070e-03,-1.52447e-02,8.01921e-02,5.48399e-02,-5.41676e-02,1.00193e-02,1.09669e-01,6.60769e-02,-5.32802e-02,-1.36804e-01,9.59355e-02,1.45665e-01,7.69886e-02,9.81958e-02,-2.27541e-02,-1.29607e-02,9.19732e-02,9.01707e-02,3.67957e-02,-3.10577e-02,-8.44608e-02,5.04230e-03,9.40103e-02,-5.66262e-02,1.18302e-01,2.11567e-01,-3.50398e-02,-4.28554e-02,-4.15509e-02,6.52333e-02,1.96274e-01,1.44076e-01,1.06106e-01,2.46914e-01,1.87042e-01,-2.95440e-02,3.57804e-02,9.41442e-02,1.81346e-01,3.79439e-02,1.14889e-01,6.65372e-02,1.72150e-02,1.83639e-01,2.85100e-02,-1.51803e-01,-1.18018e-01,1.23804e-01,-1.27775e-02,3.55854e-02,-9.21100e-02,2.85736e-02,1.13305e-01,2.84633e-01,2.26028e-01,1.39350e-01,1.90771e-02,8.82934e-02,5.47859e-02,1.58037e-01,1.16325e-01,7.48072e-02,8.69290e-02,1.81267e-01,8.28809e-02,7.13756e-02,2.02894e-01,1.31370e-01,2.10606e-01,1.37959e-01,2.34575e-01,1.50962e-01,-1.14812e-01,-8.93416e-03,-5.72064e-02,-1.89357e-01,5.65519e-02,-4.46781e-02,5.32615e-02,-8.76885e-02,8.18646e-02,2.29705e-01,2.13013e-01,5.45933e-02,2.75950e-01,8.25821e-02,1.43521e-01,1.75342e-01,6.25979e-02,9.18665e-02,-9.51359e-02,2.24454e-01,-1.48544e-02,3.99937e-02,1.29428e-01,8.27669e-02,7.71503e-02,4.65187e-02,1.27802e-01,4.67137e-02,-1.67622e-01,-1.62406e-01,-1.54749e-01,-1.41919e-01,7.88154e-02,-2.00223e-02,9.81544e-02,-1.73927e-02,2.41395e-01,2.48450e-01,1.11566e-01,1.91473e-01,2.85507e-01,1.58990e-02,8.23119e-03,4.88395e-02,2.97459e-02,4.89994e-02,-4.74772e-02,6.81051e-02,2.09479e-01,5.69934e-02,5.62867e-02,1.07065e-01,1.52461e-01,1.08503e-01,-2.70860e-02,-9.54800e-02,-1.69057e-02,-1.84295e-01,-1.67476e-01,-4.88046e-02,6.82832e-02,-6.78351e-02,4.37798e-03,-9.24159e-02,1.51295e-01,2.33512e-01,1.28815e-01,3.15884e-02,4.83444e-02,2.03844e-01,4.93604e-02,7.65814e-02,5.39916e-03,-2.32326e-02,6.49359e-02,4.98167e-02,7.04903e-02,1.83379e-01,2.02286e-02,6.43224e-02,1.61690e-02,-9.42342e-02,-1.58217e-01,-5.43744e-02,-2.25258e-01,-3.50256e-02,-6.43193e-02,1.36110e-01,9.00054e-02,-8.65518e-04,-1.80750e-01,-5.71559e-02,8.05574e-02,-8.43161e-03,6.50286e-02,-5.07522e-02,8.00323e-02,-1.66740e-01,1.39029e-01,7.46319e-02,2.68230e-02,4.98891e-02,-1.03050e-01,-8.62334e-03,1.24730e-02,4.12031e-02,-1.74208e-02,-4.22142e-03,-2.16590e-02,-9.44949e-02,-1.59299e-01,-4.72273e-03,-9.44363e-02,-1.59024e-01,-8.02105e-02,-8.43426e-02,-1.48353e-01,1.13328e-01,4.29649e-02,-1.89886e-02,-9.12822e-02,-5.88476e-02,-7.84462e-02,-6.14810e-02,-2.95861e-02,-1.53191e-01,-4.16128e-02,-1.87691e-01,-1.38179e-02,-2.78313e-02,-4.03340e-02,-1.80086e-01,-9.22549e-02,-3.32570e-02,-1.04164e-01,4.26754e-04,-2.72720e-01,-2.18030e-02,-1.28476e-01,-7.64656e-03,-1.95706e-02,-7.68711e-02,-1.36072e-02,1.36574e-01,9.09397e-02,-1.89583e-01,1.37636e-01,-1.71925e-02,-3.42732e-02,-1.28225e-01,-1.80308e-01,-8.21934e-02,-2.14650e-01,-2.38789e-01,-1.22523e-01,-2.04290e-01,-2.20686e-01,-2.87187e-01,-2.17516e-01,-1.61711e-01,-3.45427e-01,-1.93952e-01,-3.32538e-01,-7.80304e-02,3.62420e-02,-7.81841e-02,-2.04043e-01,-5.01167e-02,1.35714e-01,-7.92621e-02,-1.42595e-01,1.30575e-01,-1.04718e-01,-1.12946e-01,-1.06705e-01,-3.01075e-03,-6.33637e-02,-9.22351e-03,-8.63221e-02,-8.11632e-02,-1.36622e-01,-1.50279e-01,9.30404e-02,-3.67035e-02,-7.02657e-02,5.70761e-02,-3.35449e-02,-1.37931e-01,-1.08986e-01,-1.05573e-01,-1.29716e-02,1.37515e-01,-2.43434e-02,-1.92100e-01,3.24417e-02,9.25003e-02,-7.66979e-02,1.11676e-01,-7.35651e-03,1.50598e-01,2.35995e-02,1.15367e-01,
5.66479e-02,4.42444e-02,-1.33100e-03,3.09260e-02,5.39021e-02,-3.21150e-02,-8.08621e-02,1.01766e-01,4.19662e-02,5.46652e-02,-1.61524e-01,2.27276e-02,4.12993e-02,1.20188e-01,-9.48495e-02,6.31070e-02,-7.53765e-03,1.11211e-01,-6.92204e-02,1.40364e-01,-2.64181e-02,4.30232e-02,1.45653e-01,1.05486e-01,5.73196e-02,-1.59444e-01,-1.75512e-01,-1.88444e-01,-6.39322e-02,9.95462e-02,-4.35337e-02,1.16192e-01,7.49566e-02,1.00849e-01,4.70057e-02,-6.71377e-02,2.29781e-02,2.36565e-01,-8.84515e-02,1.12824e-01,2.28150e-01,-1.02227e-01,2.24325e-01,1.41525e-02,2.00352e-02,-2.98800e-02,2.05716e-01,2.21815e-01,-7.68431e-03,-2.17782e-02,2.08740e-01,-8.25026e-03,-5.34268e-02,-7.31125e-02,-9.91730e-03,5.19666e-02,1.50654e-01,9.04010e-03,3.61213e-02,1.45104e-02,-3.96072e-02,-8.70726e-02,2.50362e-01,3.92698e-02,4.42228e-02,2.45625e-02,-2.64808e-03,6.95244e-02,2.05072e-01,2.49897e-01,1.24557e-01,1.38545e-01,2.22505e-01,9.05950e-02,1.11122e-01,2.38547e-01,1.50066e-01,3.66872e-02,2.93977e-02,-1.57863e-02,5.75436e-02,8.03708e-02,7.97324e-03,4.46571e-02,2.05729e-02,-1.25421e-01,-4.51947e-02,6.18910e-02,-3.16257e-02,7.09161e-02,4.42582e-02,2.30006e-01,1.15262e-02,8.85588e-02,1.41676e-01,-8.98886e-02,-9.30921e-02,5.34758e-02,1.36316e-01,-4.84650e-03,3.17292e-02,1.38975e-01,1.68460e-01,2.84417e-02,-1.13073e-02,1.43630e-01,4.09343e-02,1.20923e-01,1.53658e-01,1.79302e-01,1.52003e-01,-7.25546e-02,-8.56554e-02,-8.30749e-02,-7.03263e-02,-1.55357e-01,-3.76646e-02,-2.02335e-01,4.89725e-02,1.74919e-01,-2.26572e-02,6.28771e-02,5.55257e-02,6.44211e-02,5.40503e-02,-7.00958e-02,2.03393e-01,1.04839e-01,-8.86455e-03,1.31981e-01,1.39668e-01,2.37152e-01,1.07903e-01,1.48428e-01,3.46611e-01,2.74299e-01,1.93303e-02,-6.02337e-02,-1.17642e-01,-5.03155e-02,1.58491e-01,3.86687e-02,-5.74988e-02,-2.17547e-01,8.73087e-02,-1.40027e-01,-1.90153e-01,1.22060e-01,3.71192e-02,1.21997e-01,1.30920e-02,1.20452e-01,1.36739e-01,7.54633e-02,1.98709e-01,2.55760e-01,1.47707e-01,2.12548e-01,6.76381e-02,1.23742e-01,1.25276e-01,2.49319e-01,1.32056e-01,3.37816e-01,3.81623e-02,1.64528e-01,6.17179e-02,-1.24187e-01,1.06357e-03,4.86587e-02,-9.00924e-02,3.59315e-02,-2.68687e-02,1.04672e-02,-1.83360e-01,1.68736e-01,2.37067e-02,1.35737e-01,-6.98574e-02,-1.07057e-01,7.00749e-02,-1.64806e-01,-1.76700e-01,-2.28800e-02,-2.95577e-01,-7.56058e-02,-1.73082e-01,6.52556e-03,1.40835e-01,1.72762e-01,1.60156e-01,8.47595e-02,1.83783e-01,2.79212e-01,-5.37959e-02,-2.29418e-02,4.61380e-03,1.64175e-02,-7.86917e-02,-2.69502e-02,-9.11081e-02,-4.24028e-02,-3.59643e-02,5.25751e-02,1.34861e-03,6.70380e-02,-8.81287e-02,-6.87646e-02,-1.32078e-01,-2.39919e-01,-3.84451e-01,-1.21901e-01,-3.98896e-01,-2.62768e-01,-1.57166e-01,-9.55620e-02,-2.20399e-01,1.28389e-02,4.06431e-02,9.44692e-03,6.65566e-02,9.02077e-02,6.97931e-04,-3.76210e-02,-4.38977e-02,-1.59448e-01,1.46589e-01,1.21240e-01,-1.34119e-01,-5.03737e-02,2.79095e-02,-9.99909e-02,1.06111e-01,-3.78266e-03,4.26066e-02,-1.45337e-01,-1.09137e-01,-1.99727e-01,-2.43414e-01,-3.17226e-01,-4.73425e-02,-8.38926e-02,8.20811e-03,-2.64776e-02,-5.49664e-02,-8.10742e-02,1.03878e-01,-6.67409e-02,1.50059e-02,1.15010e-01,4.38260e-02,-1.11791e-03,-8.00378e-03,-7.17140e-02,3.63480e-02,8.79311e-02,-2.05253e-01,6.38258e-02,-1.08464e-02,-4.32818e-02,1.83728e-01,8.66453e-02,1.16048e-01,-7.45961e-02,-1.93236e-02,-1.25340e-01,-1.42449e-01,-2.77777e-01,-1.26532e-01,-1.27459e-01,-1.18355e-01,-9.79955e-02,-1.95208e-01,-1.59980e-01,-1.20293e-01,-7.85774e-02,-7.58170e-02,-1.44762e-01,2.52678e-02,-5.44670e-02,-1.76953e-01,5.00868e-03,-4.16756e-02,2.55888e-02,-1.99729e-01,2.04062e-02,-5.01138e-02,-3.67266e-02,1.49357e-01,-6.65298e-02,1.66561e-01,3.33437e-02,-1.04763e-01,-1.12114e-02,-1.16704e-01,-1.01976e-01,-7.42450e-02,-6.94095e-02,-1.56673e-01,-2.30549e-01,-2.02349e-01,-1.69905e-01,9.99410e-03,-1.05749e-01,-9.87085e-02,-6.84932e-02,6.25353e-02,6.71241e-02,1.73809e-02,9.70438e-03,3.53684e-02,3.25710e-02,-1.60466e-01,-6.37508e-03,1.06130e-01,9.66430e-02,-2.13146e-02,2.55179e-01,-5.96744e-02,-7.88615e-02,5.40026e-02,1.81311e-02,-3.93321e-02,-1.08595e-01,-3.57498e-02,-3.72834e-02,-6.94570e-02,7.95207e-03,-2.27602e-01,-4.78023e-02,-1.49300e-01,-7.52429e-02,-5.77969e-02,7.65666e-02,-8.56258e-02,-1.12534e-01,6.35094e-03,-1.98547e-02,-1.39142e-01,1.25625e-01,-1.90408e-01,-1.83514e-01,7.27605e-02,-1.67402e-01,5.55010e-02,3.72517e-02,-9.57239e-02,1.70268e-01,-9.01269e-03,2.71323e-02,-8.91564e-02,-2.33679e-02,5.91752e-04,-2.64773e-02,1.30792e-01,-4.62310e-02,-6.95791e-02,-1.51636e-01,1.52685e-01,-2.03432e-02,-1.28129e-03,1.14966e-01,1.71777e-02,-1.65687e-01,1.18794e-02,-1.04557e-01,-1.28141e-01,-1.49229e-01,-1.16406e-01,-5.33086e-02,-7.83518e-02,1.51881e-01,5.15239e-02,8.71511e-02,1.04349e-01,3.39629e-01,2.76756e-01,1.23311e-01,1.83958e-01,8.71591e-02,1.77942e-01,-8.47509e-02,1.20755e-01,5.36549e-02,-8.52587e-02,-1.21674e-02,-8.18111e-03,2.99871e-03,-5.96850e-02,5.12489e-02,-9.17673e-02,-4.37658e-02,7.95012e-02,-8.32041e-02,-1.88155e-01,-2.75241e-02,-1.85306e-01,7.64499e-02,2.03252e-03,1.41375e-02,9.31195e-02,1.21165e-01,1.61246e-01,1.17218e-01,4.99168e-02,1.62454e-01,3.10679e-01,1.79459e-01,1.07025e-01,-1.01895e-01,5.97905e-02,1.99292e-02,8.88173e-02,3.35372e-02,-3.00379e-02,-4.52041e-02,-6.52916e-02,-5.79511e-03,-7.63736e-02,-1.30349e-01,2.42048e-02,6.84950e-03,-1.06619e-01,1.26647e-01,-1.44857e-02,-6.13508e-02,1.39535e-01,2.46370e-01,1.59189e-01,1.29042e-01,1.39625e-01,2.02579e-01,1.59842e-01,2.36347e-01,2.52162e-01,3.39446e-01,3.36718e-02,4.54659e-02,1.78657e-02,-6.50762e-02,-5.53006e-02,-2.02036e-01,6.06939e-02,5.72710e-02,1.44137e-01,-6.52788e-02,-3.68202e-02,7.51198e-02,1.20414e-01,1.23053e-01,5.34665e-02,8.29126e-02,-4.72770e-02,-6.11702e-02,3.72424e-02,-1.78598e-02,7.65282e-02,7.20394e-02,2.46937e-01,1.30817e-01,1.81757e-01,2.17316e-01,2.07588e-01,2.02936e-01,1.75293e-01,2.07093e-02,7.95715e-02,5.12098e-02,-7.95662e-02,-7.25915e-02,-2.23467e-01,7.43799e-02,9.23805e-02,-3.80337e-02,-4.29005e-02,1.02738e-01,6.69887e-02,6.05204e-02,-1.86693e-01,-2.24330e-01,-9.05123e-02,-1.02776e-01,-1.02656e-01,1.25856e-02,4.09973e-02,1.48695e-02,2.74426e-01,1.77862e-01,1.69265e-01,2.74779e-01,3.21547e-01,1.98791e-01,1.16329e-02,4.10290e-02,-1.32981e-01,9.17874e-02,-1.30203e-01,1.54976e-01,8.44015e-03,1.78637e-01,1.52481e-01,-4.44289e-02,-1.09024e-01,-1.27425e-01,-5.17695e-02,-2.05174e-02,-1.66996e-01,-2.31838e-01,-1.27138e-01,-2.83046e-02,-1.40930e-01,-7.22281e-02,-4.51809e-02,2.32208e-01,1.08014e-01,2.15282e-01,3.25767e-01,3.30182e-01,3.20335e-02,8.96956e-02,2.51138e-02,1.14709e-01,-1.31502e-01,1.59921e-01,-6.49212e-03,3.48868e-02,3.78779e-02,3.62647e-02,5.54826e-02,-2.18364e-02,1.19650e-01,6.57018e-02,-3.10132e-02,-1.04799e-01,3.93656e-02,-6.70684e-02,-3.22767e-01,-1.26236e-01,-1.05389e-01,-6.85992e-02,-5.60041e-02,8.35176e-02,1.59112e-01,1.50873e-01,1.00596e-01,3.07436e-01,2.47973e-01,9.48124e-02,1.23885e-01,1.50081e-01,-4.25039e-03,2.09816e-01,-3.69385e-02,-1.80117e-02,-3.41587e-02,8.43628e-04,1.62584e-01,4.07632e-03,1.10959e-01,1.40051e-01,-2.79001e-02,-4.00591e-02,-1.29401e-01,-2.83333e-01,-1.57443e-01,-8.86842e-02,-1.06476e-01,-3.28162e-02,-1.60269e-01,3.04038e-02,2.34257e-01,7.94136e-02,7.07604e-02,2.79599e-01,2.34422e-01,8.60534e-02,7.52635e-02,1.24477e-01,5.15421e-03,1.77804e-01,1.03258e-01,2.26221e-01,4.13432e-02,1.84404e-01,6.20265e-02,-2.93394e-03,1.73879e-02,8.46686e-02,-2.59293e-02,-2.18864e-02,1.03278e-01,-1.46446e-01,-9.45815e-02,-8.54166e-02,-8.50489e-02,-1.93794e-01,-1.31881e-01,5.88605e-02,1.68546e-01,2.08356e-01,1.85716e-01,6.20596e-02,8.29334e-02,4.80163e-02,-3.18495e-02,1.60527e-01,-3.30510e-02,8.03214e-02,2.64172e-02,2.56630e-01,1.27226e-01,9.52071e-02,2.65256e-02,-1.02845e-01,-1.17778e-01,5.42382e-02,3.97200e-02,-8.21322e-02,7.28092e-02,8.94834e-02,-2.73971e-02,-1.72915e-01,-1.00191e-01,-9.63255e-02,-3.13394e-01,-9.50899e-02,-9.64684e-02,-8.26619e-02,-9.96537e-02,-1.08498e-01,-4.42429e-02,5.48836e-02,4.88576e-02,-6.59640e-02,-3.64224e-02,2.38413e-01,1.27828e-01,1.13344e-01,-2.24887e-02,1.93276e-01,1.24749e-01,-1.20784e-01,1.28375e-01,-8.44193e-02,1.33682e-02,-4.83945e-02,-1.45987e-01,-4.39921e-02,-7.63526e-04,-2.44251e-01,-4.16510e-02,-1.39756e-01,-7.29899e-02,-1.98671e-01,-2.01726e-01,-2.11641e-01,-1.04007e-01,-6.62995e-02,-9.46646e-02,1.47235e-01,1.11434e-01,1.11643e-02,-1.92212e-02,1.20189e-01,-6.24219e-02,3.75503e-03,-1.21809e-01,-1.52277e-01,-7.34054e-02,7.45788e-02,-1.23486e-01,1.53411e-01,-3.71314e-03,-3.90414e-02,-5.20295e-03,-7.04135e-02,-7.59621e-02,-9.53681e-02,-1.61977e-01,-2.56687e-01,-3.15399e-01,-2.74945e-01,-3.65365e-01,-5.03795e-02,-1.62874e-01,-2.28026e-01,-2.00077e-01,-1.04108e-01,7.39587e-03,-5.96149e-03,1.57630e-02,1.57913e-02,-8.26023e-02,-8.39659e-03,9.83012e-02,-9.34247e-02,4.23385e-03,1.49384e-01,1.03891e-01,2.29887e-02,1.89863e-01,4.18519e-02,-1.76637e-01,-6.77978e-02,-6.49707e-02,-1.21705e-01,-3.21915e-01,-1.34439e-01,-1.45365e-01,-1.63732e-01,-2.40746e-01,-3.02069e-01,-1.65495e-01,-1.03417e-01,-9.18662e-02,-3.01816e-01,-3.42284e-01,-1.44654e-01,-2.78004e-01,-8.67550e-02,-6.42207e-02,-1.52293e-01,-2.71183e-02,-4.20912e-02,8.21552e-03,-1.62998e-03,3.88025e-02,-6.72848e-02,1.36435e-01,5.46111e-02,1.26509e-01,-5.87533e-02,-1.39442e-01,-2.47294e-02,-2.60572e-02,-1.96567e-01,-8.24838e-02,-1.32212e-01,-2.32526e-01,-2.81095e-01,-7.32027e-02,-1.98900e-01,-1.71416e-01,-3.43654e-01,-1.49544e-01,-2.67914e-01,-3.11172e-01,-2.37364e-01,-1.76008e-01,-2.08926e-01,-4.96746e-02,-2.77470e-02,-1.44338e-01,1.23583e-01,-2.46282e-02,-1.62995e-02,-5.16096e-03,-1.36153e-01,-1.15294e-01,1.84396e-01,3.22153e-02,-7.64656e-02,-1.65082e-01,7.86542e-02,-5.74103e-02,-2.36320e-01,6.28422e-02,-6.13966e-02,-1.30760e-01,1.88943e-02,-1.95612e-01,-8.19186e-02,-7.57623e-02,-1.45945e-01,4.65694e-02,-9.26382e-02,4.52640e-02,1.54005e-01,-7.55458e-02,-2.19786e-03,1.57589e-01,6.66442e-02,-1.17209e-01,3.15186e-03,
1.66672e-01,1.43736e-01,-3.02660e-02,-1.03362e-01,-1.19606e-01,2.52187e-02,9.33160e-02,1.39625e-01,7.74950e-02,-6.95316e-02,2.86574e-02,-1.36471e-01,-1.44802e-02,1.04605e-01,7.88084e-03,-1.51405e-02,-1.73099e-01,-6.30855e-02,1.34914e-01,1.67122e-01,-3.13933e-02,3.01728e-02,-1.53780e-01,-1.31374e-01,1.20463e-01,-9.14578e-02,1.39387e-01,-1.24607e-01,-9.99198e-02,9.43949e-02,1.40391e-01,1.01104e-01,-1.00460e-01,-3.53414e-02,1.68269e-01,1.02812e-01,1.64402e-01,-1.92081e-01,-8.59975e-02,1.24927e-01,3.39875e-02,-5.95494e-02,1.07824e-01,1.03860e-01,-3.77828e-02,-8.29546e-02,-1.75445e-01,-1.49201e-01,-6.34178e-02,3.99825e-02,1.34024e-01,2.19245e-02,-8.91677e-02,9.24006e-02,1.51895e-01,-3.22477e-02,-2.95414e-02,6.54033e-02,-3.26609e-02,1.71641e-01,5.64024e-02,-1.11416e-01,1.72893e-02,5.82487e-03,-1.87200e-01,1.05453e-02,-7.09877e-02,-3.07355e-02,-1.96515e-02,-3.86327e-02,1.06958e-02,1.80025e-01,-7.52689e-02,-9.90678e-02,-8.35472e-02,-4.59374e-02,-1.10863e-01,-7.96586e-02,-1.78650e-01,6.95158e-02,-4.61992e-02,-5.99550e-02,7.21586e-02,-2.33889e-02,7.98965e-02,1.36118e-01,1.37538e-01,1.02573e-01,1.68090e-01,-1.38067e-01,-1.95534e-01,-2.15393e-01,3.18204e-02,-8.20820e-02,1.39754e-02,-2.04890e-01,-1.36796e-01,-3.15459e-02,-7.27089e-02,-1.35693e-01,-4.45768e-02,-6.69171e-02,-1.69424e-01,-1.81206e-01,-1.50148e-01,-8.15950e-02,-1.47073e-01,-8.94828e-02,4.73504e-02,-5.29563e-02,2.31436e-03,7.77094e-02,-7.30628e-04,-6.89443e-02,6.84234e-02,7.20286e-02,-5.20504e-02,-1.83166e-02,-1.40865e-01,-1.08592e-01,-2.06624e-01,-2.09535e-01,-1.37738e-02,1.01458e-02,4.98321e-02,1.19581e-01,-1.93462e-02,-8.77778e-02,-3.45715e-02,-5.75151e-02,-1.64050e-01,1.37846e-01,7.91635e-02,1.77395e-02,-3.28123e-02,9.19041e-02,-5.76232e-02,-3.07105e-03,6.30691e-02,-7.91626e-02,-1.21484e-01,-4.93098e-02,-5.80163e-02,1.13506e-01,2.99805e-02,1.57032e-01,-1.18781e-01,-1.84265e-01,-1.55803e-02,-9.67660e-04,-7.06335e-02,-2.02467e-01,-2.91555e-02,3.69662e-03,1.24100e-01,-2.32548e-02,-8.14961e-02,-3.62971e-02,-8.04381e-02,7.56809e-02,-5.16486e-03,4.62391e-02,8.37685e-02,-3.25834e-02,-8.54818e-02,-1.66525e-01,8.84447e-02,-3.27451e-02,-3.18563e-04,-1.78491e-01,7.18779e-02,6.95618e-02,-1.80296e-02,2.92417e-02,1.46610e-02,-1.39987e-03,5.81118e-03,1.35449e-01,5.43599e-02,9.52088e-05,1.82037e-01,1.12643e-02,-3.32886e-02,-5.58368e-02,-1.07397e-01,-1.45115e-01,-7.43412e-02,-1.33497e-01,-5.71614e-02,4.57040e-02,3.62502e-02,-2.14938e-01,-5.87181e-02,-8.34683e-02,-9.09805e-02,-2.32689e-03,4.67138e-02,-2.08255e-02,6.51354e-02,8.42119e-02,1.33764e-01,9.11658e-02,9.42095e-02,6.00367e-02,1.53571e-02,-1.25254e-01,-3.34841e-02,1.84601e-01,1.36302e-01,-8.19523e-03,6.88639e-02,1.31818e-02,-3.46011e-02,8.37714e-02,1.03018e-01,7.71497e-02,2.99732e-02,-2.86806e-03,-8.21389e-02,-1.58861e-01,6.12999e-02,-2.64542e-01,4.76926e-02,1.28681e-01,8.56780e-02,1.15805e-01,2.43204e-01,6.05876e-02,-3.82511e-03,-5.62191e-03,-4.01454e-02,-9.87752e-03,5.04576e-02,-6.91310e-02,5.29007e-03,2.75873e-02,2.06484e-01,1.18386e-01,6.19705e-02,8.01046e-02,1.20233e-01,5.71627e-02,1.08742e-01,1.50751e-01,-2.57605e-02,4.13679e-02,-1.25696e-01,-2.50569e-01,-1.34335e-03,5.03269e-02,-3.43292e-02,1.51457e-01,1.56866e-01,-4.76224e-02,2.12893e-01,2.58252e-01,2.63753e-03,8.73400e-02,1.12306e-01,7.17992e-02,1.09993e-01,8.66275e-02,4.22958e-04,6.44664e-02,9.30898e-02,1.20962e-01,2.37580e-01,1.78154e-01,2.70337e-01,1.09228e-01,7.40450e-02,-3.16187e-02,-1.01816e-01,-8.99495e-02,-1.35626e-01,-8.55227e-02,-1.19746e-01,2.99685e-04,-2.08990e-01,-4.63324e-02,7.66868e-02,-8.92676e-02,7.06459e-02,-4.40270e-03,7.42038e-02,3.13023e-02,1.17585e-01,-5.86769e-03,7.38440e-02,-1.95693e-02,9.43875e-03,8.81780e-02,1.65069e-02,9.62534e-02,1.14068e-01,1.29722e-01,3.35443e-01,1.55652e-01,1.13683e-01,2.39549e-02,1.06482e-02,3.43178e-03,9.37180e-02,-1.56011e-01,-2.75737e-01,-8.12199e-02,-6.28551e-02,1.64373e-01,-1.24753e-02,4.39271e-02,1.34038e-01,8.15155e-02,9.73928e-02,4.82165e-02,7.78739e-02,1.64476e-01,2.12838e-01,7.72964e-02,2.79644e-02,-1.20539e-01,8.41350e-02,8.04452e-02,2.37425e-01,2.59926e-01,1.16099e-01,2.05791e-01,5.49367e-02,-5.50694e-02,2.40259e-01,5.99679e-02,1.07538e-01,-5.28452e-02,-6.86969e-02,7.28822e-02,1.05726e-01,8.36542e-02,2.04948e-02,1.28704e-01,4.67114e-02,1.56298e-01,2.35973e-01,1.46449e-02,-2.14267e-02,9.68938e-02,8.02330e-02,-1.26628e-01,-1.35020e-01,-1.31399e-01,-2.52225e-01,-1.18468e-02,2.21690e-01,-1.34265e-02,1.35877e-01,1.64207e-01,1.39245e-01,7.96782e-02,-2.27062e-03,2.88152e-02,-2.65008e-02,-1.31909e-01,-3.72415e-02,-6.90622e-02,-1.75289e-01,-8.86411e-02,-9.31910e-02,6.54935e-02,1.29509e-01,2.06187e-02,6.37768e-02,1.11880e-02,-1.31144e-02,-6.69618e-02,2.70941e-02,3.64052e-02,-4.25417e-02,-2.90303e-01,-2.69318e-01,1.68051e-01,1.74406e-01,4.26491e-02,1.01049e-02,6.41159e-02,1.18486e-01,2.79223e-02,-6.24331e-02,3.48109e-02,-1.30112e-01,-2.72754e-01,-1.36583e-01,-5.18803e-02,-8.14973e-02,1.31600e-01,-6.87913e-02,-2.14884e-02,2.11570e-02,2.18431e-03,4.51442e-02,4.48862e-02,-2.68640e-02,-2.49777e-01,-2.25970e-01,-2.26712e-01,-2.12368e-01,-2.30883e-01,-2.04308e-01,-8.66818e-02,3.31221e-01,5.63119e-03,6.22074e-02,-1.76251e-02,-1.16406e-01,-2.86655e-02,-1.43381e-01,-1.58215e-01,-2.55614e-02,7.96594e-02,-7.45162e-02,-5.18381e-02,-7.36965e-02,-2.42668e-02,7.17270e-02,-8.46962e-02,1.50418e-01,8.30516e-02,-5.78350e-02,-8.77386e-02,-2.10276e-01,-1.28329e-01,-1.05032e-01,-1.17689e-01,-8.17416e-02,-3.26668e-01,-6.28706e-02,1.27839e-02,2.00952e-01,9.75267e-02,-1.21889e-01,8.00730e-02,3.96426e-02,2.24196e-02,1.06645e-01,-6.93184e-02,4.42115e-02,7.32115e-02,2.98426e-02,2.59718e-02,-4.85549e-02,2.42299e-02,6.61634e-02,-3.43139e-02,9.61177e-02,5.95069e-02,3.27411e-02,-1.50107e-01,-2.51995e-01,-2.24824e-01,-2.14713e-01,-1.50364e-01,-1.36298e-02,-1.47658e-01,5.40377e-02,2.22705e-01,1.32062e-01,1.54607e-01,-1.57776e-01,-5.26409e-02,7.36357e-02,-7.04252e-02,3.47458e-02,-4.71357e-02,-1.29116e-02,1.85830e-02,-7.19433e-02,-2.15687e-01,2.33292e-02,6.58812e-02,7.85215e-03,-3.72947e-02,8.89087e-02,8.12025e-02,6.52266e-02,-2.30672e-01,-3.27541e-01,-5.82017e-02,-2.08315e-01,-1.24378e-01,-4.72092e-02,-6.45778e-02,7.95508e-02,2.17772e-01,3.10434e-02,-1.16858e-01,7.59715e-02,-8.18977e-02,-1.94779e-01,2.56269e-02,-1.66394e-01,-5.58078e-02,5.43971e-02,-2.44477e-01,-1.69722e-01,-2.99009e-01,7.25354e-02,-1.91798e-02,-9.81452e-02,7.09791e-02,-1.47363e-01,-3.48530e-02,-1.93204e-01,-2.59444e-01,-3.53720e-01,-2.08390e-01,-1.63039e-01,-7.43559e-02,8.83521e-02,-4.67944e-02,2.61776e-01,-3.04462e-02,1.36744e-01,1.55108e-01,-3.03467e-02,1.10204e-01,7.06041e-02,1.19169e-01,-3.38169e-02,-1.06437e-01,-2.39116e-01,-1.37652e-01,-1.87347e-01,-1.49194e-01,-2.17657e-01,5.83012e-02,1.03621e-01,-3.85223e-02,1.48067e-01,-1.72683e-01,-1.51099e-01,-1.47150e-01,-3.76285e-01,-2.92907e-01,-1.01455e-01,-1.28941e-01,-8.56974e-03,1.14500e-01,1.33402e-01,1.37079e-01,1.03672e-01,5.57542e-02,6.03470e-02,-1.45810e-01,7.41184e-03,-1.58643e-02,-1.36208e-01,-7.47450e-02,-2.64159e-01,-1.38427e-01,-8.72300e-03,-1.63696e-01,4.13391e-02,-1.27779e-01,-2.61251e-02,6.78761e-02,-6.96122e-02,-1.29838e-02,-1.75418e-01,-3.16791e-01,-1.84610e-01,-2.34876e-01,-2.47494e-01,6.05678e-02,2.85644e-02,-3.50271e-02,1.23780e-01,-1.20427e-01,1.03280e-01,-7.09048e-02,1.02757e-01,-8.61688e-02,-1.30452e-01,-5.00775e-03,-1.68900e-01,-1.28856e-01,-3.47402e-01,-1.36144e-01,-9.15253e-02,-2.46238e-01,-4.43107e-02,8.35595e-03,-5.40708e-02,4.16903e-02,-5.38128e-02,-3.35866e-02,-2.05351e-01,-3.10330e-01,1.02961e-03,-2.28802e-01,-1.13997e-01,-7.16064e-03,1.06080e-01,-4.27611e-02,9.20648e-03,3.07242e-02,-2.96474e-02,3.65542e-02,2.05563e-02,3.41543e-02,-3.52804e-02,-4.80466e-02,-1.75892e-01,-1.43319e-01,3.18999e-02,-1.99010e-01,-1.77353e-01,-1.59238e-01,6.31413e-03,6.24502e-02,1.28676e-01,5.06899e-02,-1.66527e-01,-1.79985e-01,2.98785e-02,-1.41671e-01,-1.37761e-01,1.44554e-01,-1.43446e-01,-1.34241e-01,1.24483e-01,-1.82728e-01,-8.53833e-02,1.69748e-01,-6.71550e-02,-4.17397e-02,5.41834e-02,-8.18931e-05,2.56486e-03,-7.82523e-02,-7.92092e-02,-9.26205e-02,-2.80234e-01,-4.72504e-02,-8.91555e-02,-4.13159e-02,-2.70971e-03,6.93147e-02,-3.27338e-03,-2.00500e-03,-7.72624e-02,-2.32814e-01,-9.87097e-02,5.20260e-02,-2.57075e-02,9.90244e-03,4.24342e-02,8.85719e-02,-8.93578e-02,1.16809e-01,1.20606e-01,9.50837e-02,1.22996e-01,1.66269e-01,1.29159e-01,1.00161e-01,1.01914e-01,-7.18325e-02,-7.73428e-02,-2.48716e-01,-2.94104e-01,-5.91978e-02,-7.12120e-02,-9.59895e-02,5.65581e-02,1.48423e-01,8.75014e-02,-6.05716e-02,1.30503e-01,1.17709e-01,1.51878e-02,2.25565e-01,7.65603e-02,1.06193e-01,1.34056e-01,-1.25418e-01,-6.33680e-02,-1.21790e-01,-2.37603e-02,-8.78100e-02,1.98442e-02,4.07049e-02,7.18639e-02,1.89357e-02,-1.77876e-02,-3.16490e-02,-7.16721e-02,1.76716e-02,-5.80708e-02,3.07857e-02,-1.65091e-01,-5.48161e-02,-1.11748e-01,1.37224e-01,3.70779e-02,-1.96903e-01,-2.00480e-01,3.64931e-02,7.02508e-02,-4.17577e-02,7.68464e-02,2.28566e-01,1.23129e-01,2.68353e-02,-2.00937e-02,1.36270e-01,1.07989e-01,7.05458e-02,2.70346e-01,8.13255e-02,4.05356e-02,1.24281e-02,-7.36899e-02,1.06419e-02,-1.02129e-01,-1.35723e-01,-3.48907e-02,-1.30763e-01,-2.84061e-02,-7.40276e-02,-1.89542e-01,5.82449e-02,3.80833e-02,-1.51000e-01,-1.43336e-03,-1.93799e-01,-8.71222e-02,1.33303e-02,-1.20756e-01,1.57716e-01,2.87814e-01,1.21159e-01,1.26120e-01,5.89804e-03,1.25681e-01,6.67704e-02,3.36135e-02,1.44559e-01,3.30860e-02,2.62142e-01,2.28389e-01,1.45915e-01,-1.44144e-01,1.01638e-02,5.39111e-02,1.09553e-01,-1.48935e-02,6.90025e-02,1.95780e-01,1.22078e-02,3.69857e-02,-5.18565e-02,-4.86583e-02,2.97769e-02,-1.02697e-01,-9.99578e-03,2.46445e-01,1.59895e-01,1.19975e-01,9.43640e-02,3.75655e-02,1.45364e-01,1.35657e-01,1.32467e-01,2.13674e-01,2.59969e-01,1.48545e-01,3.80886e-02,2.20665e-01,3.95894e-02,8.17449e-02,-1.17897e-01,-8.00333e-02,1.80873e-02,-2.01922e-02,-8.68645e-02,-2.29533e-02,3.17241e-02,
-3.57414e-02,-9.93812e-02,-5.56152e-02,-7.52936e-02,-5.46149e-02,-9.96564e-02,1.13487e-01,1.41448e-01,-3.96149e-02,-8.03178e-02,9.25435e-02,-9.50416e-02,3.32049e-03,-6.04200e-02,4.39782e-02,9.97582e-02,-1.04679e-01,-3.55522e-02,-6.86319e-02,-5.96628e-02,1.07550e-01,-7.80786e-02,-1.16319e-01,-6.93066e-02,-5.42963e-02,3.74046e-02,-1.19975e-01,9.00788e-03,-3.77317e-02,-4.71429e-02,-1.15489e-01,5.99496e-02,-2.00406e-01,-3.69378e-02,-9.58296e-02,6.56872e-03,-1.80783e-01,3.83464e-02,-6.49086e-02,-7.46284e-03,5.83095e-02,-2.03529e-01,7.48775e-02,1.66112e-01,-1.46867e-01,9.45114e-02,-1.19834e-01,-1.05613e-01,-9.19932e-02,-1.03789e-01,9.00825e-02,4.23276e-02,-4.82648e-02,-3.96175e-02,1.19378e-01,1.08650e-01,4.80862e-03,1.60758e-01,5.29517e-02,-1.37380e-01,-3.04875e-02,8.75276e-02,1.43573e-02,5.59501e-02,2.06248e-02,4.60562e-02,-1.46704e-01,9.60789e-02,-1.86156e-01,-1.08162e-01,1.40124e-01,1.26903e-01,6.93578e-02,1.19102e-01,-1.15894e-01,-8.86818e-02,-4.53977e-02,-5.10113e-02,-2.78807e-01,6.31701e-02,1.14053e-01,9.04855e-02,2.61109e-02,7.60077e-02,8.33671e-02,-2.37090e-02,-3.15240e-02,1.06724e-02,8.10381e-02,-3.82655e-02,4.36819e-02,9.91006e-02,-6.08657e-02,1.04489e-01,3.91870e-02,2.13992e-02,1.53848e-01,1.95930e-01,-2.16455e-02,-2.77995e-02,1.29253e-01,-4.03480e-03,-9.82677e-02,-1.34712e-02,-1.77980e-01,-1.33881e-01,-2.48712e-01,-2.26055e-01,7.56827e-02,1.37844e-01,-5.87336e-02,-6.51778e-02,2.35529e-02,-7.54720e-02,-7.33826e-02,8.75152e-02,-5.65779e-02,-1.54576e-01,1.78840e-01,8.02307e-03,-1.15753e-02,3.59025e-02,8.60356e-02,1.94375e-01,2.53995e-02,4.80498e-02,1.02028e-01,1.00156e-01,1.40035e-01,-1.60869e-02,3.56333e-03,1.83095e-01,-2.93322e-02,-8.95926e-02,5.91502e-02,-3.79813e-02,-3.22540e-02,-1.00419e-01,-7.04701e-02,-1.65598e-01,-1.32561e-01,7.96016e-02,-1.00481e-01,3.81326e-02,1.19281e-01,1.52707e-01,-3.63131e-02,1.13714e-01,2.99603e-03,-3.05658e-02,-9.46064e-03,1.96162e-01,1.83314e-01,2.99989e-02,5.02958e-02,1.31455e-02,4.69602e-02,-4.27525e-02,-9.94541e-02,-1.73732e-01,-8.15388e-02,1.07782e-01,4.84652e-03,-2.71602e-02,-3.04184e-02,-8.34010e-02,1.59671e-02,1.47426e-01,8.91560e-02,-3.53777e-03,-5.37230e-02,2.23690e-01,1.09568e-01,1.14691e-01,-5.04243e-02,-1.72262e-01,7.15330e-02,-3.79932e-02,1.47302e-01,-3.76333e-02,1.80363e-01,-1.99279e-02,2.76692e-02,-2.41703e-02,5.22644e-02,2.33840e-02,-3.64083e-02,-3.38195e-02,5.11512e-04,-5.86603e-02,-1.15514e-01,5.91988e-04,-1.36373e-01,-7.30046e-02,-2.74139e-02,1.39491e-01,1.05307e-01,1.46512e-01,-7.74472e-03,9.97482e-03,1.70015e-01,-7.06875e-02,5.91672e-02,6.35293e-02,-8.49445e-02,-1.24418e-01,-4.20749e-03,7.06558e-02,7.92013e-02,8.50487e-02,1.13195e-01,4.64933e-02,1.25868e-01,9.58716e-02,1.98411e-01,1.24288e-01,4.86249e-02,1.48138e-01,-1.36653e-01,-9.86261e-02,-2.79797e-01,-2.23889e-01,-1.54665e-01,1.57888e-01,1.23740e-01,6.62387e-02,9.87920e-02,7.84955e-02,7.50687e-02,-7.93922e-03,-9.34325e-02,-3.71950e-02,-1.94031e-01,9.67298e-02,-7.55348e-03,3.20232e-02,9.41103e-02,1.66587e-02,2.13216e-01,2.51861e-01,1.25211e-01,1.26488e-02,2.07858e-01,-3.74074e-02,8.98331e-02,-1.01774e-01,-1.78871e-02,-2.11148e-01,-1.97182e-01,-1.64443e-01,-1.05699e-01,6.68200e-02,8.94491e-02,1.17089e-02,3.94128e-02,8.28929e-03,-1.36406e-01,-1.04784e-01,-1.22328e-01,-9.96060e-02,-1.18755e-01,-1.35332e-02,-1.61827e-01,5.25360e-02,-4.78163e-02,5.78924e-02,2.48023e-01,1.53060e-01,1.65387e-01,2.18012e-01,2.17836e-01,1.20149e-01,7.27858e-02,-6.64192e-02,-4.69611e-02,-1.37326e-01,-9.44952e-02,6.49818e-02,-6.96260e-02,6.13756e-02,1.24966e-01,-1.81099e-03,1.15718e-01,1.19908e-01,1.13957e-01,-1.10986e-01,8.11690e-02,-4.45121e-02,-3.65990e-02,-1.15288e-01,-1.21288e-01,-7.66287e-02,-2.76059e-01,-7.95025e-02,7.61541e-03,2.72218e-01,2.51460e-01,6.00951e-02,2.08179e-01,1.55967e-01,7.26833e-03,4.52792e-02,-1.24670e-01,-2.01412e-01,-1.30486e-01,-4.52725e-02,-2.26350e-01,-8.47461e-02,3.42830e-03,7.68117e-02,1.24768e-02,-4.77225e-02,-1.43867e-01,-1.08856e-01,-2.43669e-01,-2.05216e-01,-1.41490e-01,-3.30886e-02,-1.78063e-01,-2.13951e-01,-4.38099e-01,-2.92209e-01,1.15098e-01,6.38735e-02,8.75088e-02,-4.39324e-02,1.73642e-01,7.30417e-02,7.50678e-02,-1.90140e-01,3.63698e-02,-3.08170e-01,-1.68121e-01,6.45457e-02,-3.20634e-02,-9.42662e-02,-7.86344e-02,1.46625e-01,1.15295e-01,-1.58463e-02,-7.43189e-02,-1.50720e-01,-6.92814e-02,-1.91365e-01,-1.92384e-01,-5.30388e-02,-2.74004e-01,-3.42718e-01,-2.68135e-01,-1.51944e-01,-1.02964e-01,2.16672e-01,5.46487e-02,-4.57477e-02,5.27175e-02,3.55093e-02,1.85814e-02,-1.52309e-01,-1.49846e-01,-1.95492e-01,-2.13384e-01,-1.81571e-01,1.31134e-01,1.71754e-01,4.39388e-02,1.30296e-01,1.18264e-01,-3.62606e-02,-4.73814e-02,-2.12257e-01,-2.96871e-01,-1.93135e-01,-8.31977e-02,-1.29509e-01,-3.35224e-01,-2.90545e-01,-3.12089e-01,1.82121e-02,8.58206e-02,7.04398e-02,1.95422e-01,-2.22450e-02,2.11959e-02,-8.17890e-02,-1.67846e-01,-1.94212e-01,-6.71313e-02,-1.95075e-02,1.12629e-03,-1.91997e-03,3.51374e-02,-2.97836e-02,1.95212e-01,-1.26928e-01,-4.80130e-02,-3.50615e-02,-4.97984e-02,-2.82141e-01,-1.15369e-01,-6.67775e-02,-1.07878e-01,-4.48822e-02,-1.71865e-01,-1.24255e-01,-1.23798e-01,-3.47280e-02,1.26753e-01,2.98637e-02,2.47082e-02,1.25386e-01,1.15627e-01,-2.63155e-02,-6.81714e-02,-8.46905e-02,-1.44169e-01,-1.66637e-01,-1.48657e-01,4.44659e-02,2.06588e-01,-7.54269e-02,8.22575e-02,-1.33845e-01,-1.43444e-01,-6.44361e-02,5.45159e-02,-5.91366e-02,9.82680e-02,-2.52331e-02,-3.50594e-03,-6.88035e-02,4.83774e-02,-5.01781e-02,-2.54919e-02,9.52919e-02,1.97529e-01,-2.24653e-02,9.88802e-02,1.77003e-01,-9.57859e-02,-5.82829e-02,-9.21339e-03,-1.56549e-01,-1.41403e-01,-2.35185e-01,-1.61012e-02,4.92227e-02,2.29378e-01,-3.45422e-02,1.04563e-01,-1.79513e-01,8.33952e-02,-9.29580e-02,-4.26915e-02,1.64837e-01,-1.07613e-01,1.80210e-01,-1.09183e-01,6.61582e-02,-1.29691e-01,5.29869e-02,5.81299e-02,-4.17137e-03,1.39224e-01,1.21296e-01,-1.03509e-01,-6.64431e-02,-7.50646e-02,-1.90703e-01,-1.11466e-01,1.56308e-03,1.04015e-01,-5.10942e-02,-9.91648e-02,1.36599e-01,1.53937e-01,-1.62179e-02,-9.66966e-02,-8.12500e-02,-1.49125e-01,4.77118e-03,1.05153e-01,1.86463e-01,-3.30761e-02,7.89683e-02,-3.42825e-02,6.76200e-02,-7.95522e-02,1.01743e-01,2.45944e-02,1.38186e-01,9.46495e-02,1.82463e-01,2.16397e-01,1.86267e-01,-1.67034e-01,-2.30434e-02,-5.36032e-02,-1.58524e-01,2.62920e-03,-3.65176e-02,-7.20463e-03,2.90786e-01,9.36366e-02,2.78988e-02,-2.63531e-02,1.37693e-01,1.62279e-02,-5.79330e-03,1.47946e-01,4.15396e-02,-8.24971e-04,-4.48755e-02,-1.12994e-01,1.15951e-01,-3.61295e-02,-5.64527e-02,1.27595e-01,2.28895e-01,1.91649e-01,1.79532e-01,-6.56302e-02,-6.39245e-02,-2.11386e-02,4.98448e-03,7.16134e-02,-9.31959e-02,5.96345e-04,2.24925e-01,1.86209e-01,5.68900e-02,-6.28693e-02,2.12513e-01,-1.56442e-01,7.37067e-02,-2.59872e-02,1.12860e-01,1.87984e-02,5.05446e-02,2.12611e-01,1.36017e-01,1.03066e-01,-4.83813e-02,2.25424e-03,1.54750e-01,1.31265e-01,8.74583e-02,-1.39022e-02,-1.13960e-01,-1.24553e-02,-9.78804e-02,-1.61867e-01,6.88808e-02,-4.64899e-02,-9.19537e-03,2.68695e-02,7.87566e-02,1.20871e-01,2.48968e-01,1.53516e-01,1.23311e-02,-1.94373e-01,3.59431e-02,6.87843e-02,-4.90160e-02,3.10973e-01,2.61619e-02,2.95273e-02,-3.14416e-02,2.71438e-02,1.95751e-01,1.56336e-02,9.53964e-02,7.26790e-02,-6.67156e-02,1.81478e-03,-8.16641e-03,-2.13789e-01,-1.98650e-01,-1.48756e-01,1.27272e-01,-2.42600e-02,4.25732e-02,1.65297e-01,1.00397e-01,2.13692e-01,2.21709e-01,-4.20906e-02,5.98303e-02,5.69364e-02,6.36700e-02,-4.16586e-02,1.09434e-01,2.04218e-01,1.48778e-01,4.56891e-02,1.15957e-01,2.07337e-01,3.30033e-02,1.42401e-01,1.93889e-02,1.12911e-01,-6.05120e-02,-1.05971e-01,-1.35956e-01,-8.69611e-02,1.24941e-02,-2.26719e-03,3.98434e-03,1.15476e-01,7.44473e-02,-7.87527e-02,1.90113e-01,5.26350e-02,8.10963e-02,5.88864e-03,7.42748e-02,-4.74674e-02,4.55315e-02,4.04038e-02,5.13193e-02,2.14333e-01,3.51876e-02,9.09991e-02,2.41806e-01,-1.37942e-02,2.19433e-01,8.49108e-02,-1.00330e-01,-2.36778e-01,-1.93440e-01,-1.70622e-01,6.15667e-02,2.04469e-02,-4.50866e-02,-1.45903e-02,4.29259e-02,1.79971e-01,6.61485e-02,1.11577e-01,2.95132e-01,2.94961e-01,2.39033e-01,4.72875e-02,-7.55431e-02,-6.78339e-02,1.01479e-01,2.69473e-02,-4.83718e-02,4.23232e-02,2.96679e-01,1.32416e-01,2.35836e-01,7.12470e-02,-6.05063e-02,8.00498e-02,-1.87548e-01,-1.28073e-01,-9.24535e-02,-1.87556e-01,-6.69547e-02,2.16331e-02,-3.18011e-02,9.61111e-02,-3.68363e-02,-4.94989e-04,-1.14526e-01,2.32329e-01,1.35515e-01,-9.71940e-03,2.93023e-03,-4.84254e-02,-8.13493e-02,5.82088e-02,2.44251e-02,4.87068e-02,-1.33633e-02,1.24440e-02,1.03237e-01,3.82943e-02,4.66336e-02,1.22245e-01,6.79032e-02,-1.07001e-02,-5.69054e-02,-1.69899e-01,-1.28172e-02,-7.33817e-02,-4.93192e-02,-1.50133e-01,3.41882e-02,1.21219e-01,1.01558e-01,-1.00241e-01,2.07387e-01,5.92191e-02,8.89628e-03,4.13409e-02,2.64938e-02,-4.53962e-02,1.85711e-01,-1.81988e-01,-4.17746e-02,1.19164e-01,-7.13059e-02,1.46486e-01,4.44110e-02,1.41648e-01,1.34462e-01,2.33998e-01,3.01230e-01,6.72977e-02,1.21447e-01,1.80919e-01,5.36408e-02,8.74836e-02,7.55033e-02,1.41239e-01,-2.37418e-02,8.84688e-02,2.29953e-01,3.01274e-01,1.43927e-01,-3.04695e-02,1.24979e-01,-8.42361e-02,3.79646e-02,6.39095e-02,-8.15914e-02,1.47573e-01,-1.19052e-01,6.14575e-02,-1.25885e-01,8.93534e-02,1.85311e-01,-7.55650e-02,1.68730e-01,5.20781e-02,2.16516e-01,9.52336e-02,3.56698e-02,2.62461e-01,1.77944e-01,3.01445e-01,2.14940e-01,1.05245e-01,2.16166e-01,2.88099e-01,3.24876e-01,1.32957e-01,9.96342e-02,1.24335e-01,1.37011e-01,-6.71724e-02,-6.32865e-02,4.46500e-02,-3.99408e-02,8.67467e-02,8.99768e-02,4.56778e-02,1.74790e-01,8.42355e-02,1.28052e-02,-5.86439e-02,1.73216e-01,-6.00910e-04,1.53906e-01,2.70103e-01,1.70570e-01,-2.84405e-02,2.20903e-02,2.65533e-01,-2.01626e-02,6.59887e-02,6.67513e-02,6.53929e-04,4.48603e-02,6.79126e-02,-1.37864e-01,-4.27198e-02,7.91917e-02,-1.47554e-01,-6.25816e-02,1.63223e-01,3.16849e-02,
