//Neural Network File Format by Kyle Julian, Stanford 2016.
3, 1, 1, 10,
1, 10, 4, 1,
This line extraneous
-6.55e4,
6.55e4,
0.0,0.0,
1.0,1.0,
0.8362452741957562,
-0.9376209292769082,
0.8837656867633985,
0.17079647770496642,
-0.37792369826433925,
-0.8856302727283087,
-0.46388606801902066,
-0.5133510617822776,
-0.13159175735749074,
0.3000446490926145,
0.342197659588956,
-0.9857423364667435,
-0.4500631919943445,
-0.635257817984924,
0.35150522806742623,
-0.03299626074310291,
-0.7336268084965458,
-0.4341315601001079,
0.050843238914173305,
-0.8445963259569309,
0.21654253486084762, -0.48740863206263496, 0.4412952168195621, 0.12397243123839496, -0.04968689415178629, 0.9182498134223334, 0.4258498649832294, -0.17423615416857263, -0.7814252581759593, 0.9862134384965331,
0.8103814143631749, -0.9472765607853475, 0.7002126138080484, -0.9152859513577405, -0.8828777611522578, -0.07519209656240511, -0.5832898152544508, 0.9817949966974493, -0.18526456968954363, -0.4766779757509294,
0.7963107473629645, 0.6162929426040238, -0.56787598068283, 0.2521364266203272, 0.05806519309403679, 0.468350808242215, -0.7788096137827685, -0.6605214015981975, 0.04686167784157824, -0.2407907008075587,
-0.8799534687072077, 0.15764368242283533, 0.984288815594641, 0.08191521433481164, 0.9903389106493465, -0.40114531470584636, -0.9830165662794892, 0.7444621513944862, -0.5243461679148482, 0.7323831714563704,
0.8856989253136236,
-0.564538632250716,
-0.19180499341778523,
-0.047023987872135464,
0.9333973933378714, 0.5911720603170085, -0.7481048534042625, 0.8628288507710575,
-0.6690865235008969,
