//Neural Network File Format by Kyle Julian, Stanford 2016.
2, 4, 4, 8,
4, 8, 4,
This line extraneous
-6.55e4,-6.55e4,-6.55e4,-6.55e4,
6.55e4,6.55e4,6.55e4,6.55e4,
0.0,0.0,0.0,0.0,0.0,
1.0,1.0,1.0,1.0,1.0,
0.17624873813557462, 0.2703559659813215, 0.6553000550442509, -0.19969828889988328,
0.13365528296545826, -0.2948742472357724, -0.07064709101543931, -0.9903481141618702,
-0.5815584516347889, -0.7395275149487963, 0.5000181789547558, -0.9866440434949064,
-0.27014935092699544, 0.5492873447988003, 0.4829606910797186, -0.2333091950964925,
-0.6738902392106807, -0.2947662348867013, 0.023779799066792506, -0.6869037397415201,
-0.0054145014651965084, -0.3624826517346724, 0.9278780573419945, -0.14540348557695415,
0.5227573765430225, 0.6851841533309253, 0.927759678787599, 0.8776149817228425,
-0.2378102171286094, -0.11822748051158305, 0.23860618160614733, -0.47576063739024477,
0.874321456526137,
-0.9758103251084229,
-0.4738777788176023,
0.008930693342157792,
-0.30148996914319204,
-0.5017771407406522,
0.644695604008489,
0.7820146101863226,
-0.14176246166639794, -0.7349172841908391, -0.7843395883433186, 0.7698214641524457, -0.2596823543121154, 0.7053210297228247, 0.15749498166932208, 0.811910596750399,
-0.23109373847483816, -0.7106723050830812, -0.11213676175570475, -0.4356899651608894, -0.37837381556932836, 0.3010437607703573, -0.03344165382141684, 0.651745042053427,
-0.7777544730104426, -0.758331681326815, -0.6893435422469052, -0.7439135642517782, -0.5509858381816111, -0.7037670435025118, 0.21869036065869363, 0.32964171349869087,
-0.3994272654493418, -0.9257218602229704, 0.4371616505950304, -0.7643172076259779, -0.5719286914005535, -0.7664182960692965, 0.9780898515975496, 0.39343646081569883,
-0.8947441214922245,
0.41402774773079987,
0.09290092724998456,
-0.4089780353506183,
