//Neural Network File Format by Kyle Julian, Stanford 2016.
2, 4, 4, 8,
4, 8, 4,
This line extraneous
-6.55e4,-6.55e4,-6.55e4,-6.55e4,
6.55e4,6.55e4,6.55e4,6.55e4,
0.0,0.0,0.0,0.0,0.0,
1.0,1.0,1.0,1.0,1.0,
0.9062494582305551, -0.7580744379954982, 0.006786166533407467, -0.7244757323446556,
0.94990114953317, -0.32908941308100514, -0.5166851475344045, -0.5672020559961339,
0.8102261352570799, 0.9362007777700598, -0.4019851467123394, -0.778901861924385,
0.026111394824708256, -0.9784317122866786, -0.020453073721531823, -0.7312154002715996,
-0.7066067835104595, -0.11243685170438589, -0.9074426381997642, 0.006815330941419617,
0.1912364184853219, -0.2758042151131952, 0.4879036266805805, -0.8028804417945037,
0.2602291367915961, -0.6103323381556383, 0.3588104185710179, -0.3351624986295181,
0.27696903526106187, 0.8236180083214606, -0.6411356115908236, 0.16512554233863153,
0.46359554649619295,
-0.9652220095703221,
0.9237603212740852,
-0.656055183200476,
-0.6737741465441469,
-0.8876877382404214,
0.4950751333104697,
0.7899859655946759,
0.5823699093458199, 0.013192856246540874, -0.4758178896807932, 0.4211979616627928, -0.8409027145202601, 0.65659733327348, 0.9943432856972612, 0.7398257868367328,
0.3205809469086982, 0.9358369906430335, 0.04075693392089308, 0.9033440654324005, 0.155668508037627, 0.1216931224572102, 0.5648576224035762, -0.8840686031956349,
0.8316590984575924, -0.8522702995267801, 0.1287194498187949, -0.8882563811172592, 0.7115686573098707, -0.9035528148679952, 0.32909793134719667, -0.06427918627576368,
-0.6577487320192508, 0.4769735261139716, 0.6389423074483069, 0.5109487482760859, 0.5964545780100852, 0.6722052822529498, 0.33377935722670227, -0.2816949052924591,
0.479505311717193,
-0.746645114004052,
0.4422278741980352,
-0.6442449818524669,
