//Neural Network File Format by Kyle Julian, Stanford 2016.
3, 1, 1, 10,
1, 10, 4, 1,
This line extraneous
-6.55e4,
6.55e4,
0.0,0.0,
1.0,1.0,
-0.028410950950929603,
0.3717058059606071,
0.21268886671593723,
-0.11757556797640856,
-0.5985089693581793,
0.04127078028005515,
0.527128188753208,
0.5431611440316777,
0.22006450563569047,
0.968725772340584,
0.09047508825045103,
0.3675713160798604,
0.9291363690878254,
0.9589340127261181,
0.034461874302548434,
0.7200767050355252,
0.00883336604955609,
-0.9418005940367169,
0.07013136640428552,
0.7128369991840895,
-0.6910257192562068, -0.835296092761276, 0.19333378137734014, -0.17033625313602263, -0.6320413471556527, 0.11739882370682819, 0.12773729126872801, 0.14880929455893988, 0.42967662945772656, 0.8969073145815791,
-0.316379395188243, 0.2094595828588104, -0.9443674697125188, -0.0937426382322184, -0.11514040621737331, -0.2427918820813315, 0.04904192664104201, 0.9570154031812068, -0.6424867814757542, -0.5572595544794052,
0.25411474520492616, -0.5100312901696276, -0.5388247738989049, -0.1437550704028414, 0.3862621265909687, -0.524570127963472, -0.7945555449003363, 0.7033497325425997, -0.6868088760376101, 0.3011408550592196,
0.006583013963272322, -0.5645500737759259, -0.9246385321103885, 0.9441628126690556, 0.44836524625036, 0.8355100709368917, -0.8139093076346224, 0.7080040802924921, -0.9149138931764962, -0.4192706354184179,
0.30667387483950215,
0.6519522042786723,
0.1421775934062537,
-0.5947641443963669,
0.6729132199712837, 0.8649595509247456, 0.6650373327855852, -0.8796382665994993,
0.039975226575241773,
