//Neural Network File Format by Kyle Julian, Stanford 2016.
3, 1, 1, 10,
1, 10, 4, 1,
This line extraneous
-6.55e4,
6.55e4,
0.0,0.0,
1.0,1.0,
0.15826877664603378,
-0.20724602933116065,
-0.0017893605876744267,
0.7772299286292927,
0.47876184772638464,
0.681138312581655,
0.0864216368440891,
0.6230762359148634,
-0.3652514858132605,
-0.6070853474642282,
-0.49719715125282393,
-0.2944606874021862,
-0.9041181351206471,
-0.3032478813554338,
0.7713009633698995,
-0.5802711886222776,
-0.8906119140598174,
0.9896908273383742,
-0.53884189855652,
-0.10295185156857034,
-0.6279356774550173, 0.5209959095619223, 0.6836142297123806, 0.44637252312427034, 0.6634261776541717, -0.1377903849970039, -0.24267181622067202, -0.4799953384492146, -0.4877433083200504, 0.11799678657595303,
-0.778846124287786, -0.6576125983524741, -0.9242754042996579, -0.39908231946530925, 0.10207205655373164, -0.7216928810874954, 0.2746828211728154, 0.4929519361921919, 0.8772299133682684, 0.680738186121725,
-0.5668813408725297, 0.9365277361935211, 0.17713577664317315, 0.3155353627576192, 0.8836951077580548, -0.9555306191976944, 0.704158983753945, -0.8088015837334694, 0.40848974947484784, -0.6795270505709392,
0.2908489672432273, -0.5068056449602469, -0.59606248576572, -0.8747989599747732, 0.2037062647426966, -0.5149850756647862, -0.45179317082791615, 0.8875208651909894, -0.5195279958741272, -0.4137800548354509,
0.11753362272099288,
-0.42369604701850694,
0.09062833808045934,
-0.4104936290460781,
-0.5969048610184058, 0.1923856227278038, 0.21683963133472073, -0.1448365239032099,
-0.9037315902640155,
