//Neural Network File Format by Kyle Julian, Stanford 2016.
3, 1, 1, 10,
1, 10, 4, 1,
This line extraneous
-6.55e4,
6.55e4,
0.0,0.0,
1.0,1.0,
-0.5825617458348336,
-0.2854029431978904,
-0.976032140263217,
-0.485453388698454,
0.4263342616222978,
0.06352515855169738,
-0.03793601041557082,
0.6744913252564184,
0.8174958925205034,
-0.04363800640286675,
0.7597911954348788,
0.945580389066913,
-0.2604796514829646,
0.9928647213895108,
-0.9201925837784595,
-0.2075192867158,
0.7039617262085387,
-0.7197442778765932,
-0.9385306856091127,
0.415041671733718,
-0.8724497572918368, 0.24297448007861844, 0.9086870711877184, -0.4305322312606443, -0.22160496732575785, 0.498926537200167, 0.07146210434705047, 0.5000942228264589, -0.9800349416424798, -0.49556977976573746,
-0.6505152812645538, 0.43694168279503653, 0.8380926902770667, -0.7366849324606934, 0.2008838853210082, -0.9424431949553704, 0.851488201958071, 0.08425776831242837, 0.9295394550225056, -0.5219911675432103,
-0.7974995728128662, -0.6106529835981864, -0.04816941630282123, -0.39570044094283086, 0.381595022823646, 0.7776529579350395, -0.19689126464317175, 0.9392899734080125, 0.4846226802916789, -0.035372454340916626,
-0.9993356502237019, -0.236725267775737, -0.5590908482438843, 0.8505974105067517, -0.41989895684712586, 0.4253942311901424, 0.02921524508541129, 0.8081245508033117, 0.0685916217579079, -0.39565243887875434,
0.03864400617125252,
0.665917614023964,
-0.581339387932533,
-0.06093816238542216,
-0.16666446117956513, -0.9804214887078424, 0.7419987027801103, -0.8254169048292983,
-0.15146772291155042,
