//Neural Network File Format by Kyle Julian, Stanford 2016.
2, 4, 4, 8,
4, 8, 4,
This line extraneous
-6.55e4,-6.55e4,-6.55e4,-6.55e4,
6.55e4,6.55e4,6.55e4,6.55e4,
0.0,0.0,0.0,0.0,0.0,
1.0,1.0,1.0,1.0,1.0,
0.48481605959498486, -0.40516720254819916, -0.33713460857811306, 0.8436857295049598,
0.6004231427393099, -0.19783447937076026, -0.989949467215145, -0.41848917260309326,
-0.7870660476066047, 0.07150179518899247, -0.17519918995462946, 0.5881918558137733,
0.4353448179736885, 0.93479597776621, 0.15261557173727613, 0.7136249778977088,
-0.38169996527443084, 0.07322633977057658, 0.15073239269444283, -0.12504947123185106,
-0.3525217554461846, 0.8284082093366258, 0.07502521677958196, -0.4678755996777335,
0.17084942353431076, 0.9509029298709972, -0.4225398657849042, -0.9809873014414978,
-0.671731017220027, -0.5570350442419443, 0.43382063641424784, 0.04714056144492318,
0.15373840475098133,
-0.7578248157779952,
0.24381309522710382,
-0.26204484108220427,
0.187284338368936,
-0.1170305164088985,
-0.5457346612188818,
-0.884009887932069,
-0.22581963093056912, 0.6937531454946217, 0.1848593660364677, -0.0744872611943701, -0.6116748728954717, -0.6879426908342787, -0.9125118025751151, 0.6841126737509211,
0.7393330257514834, 0.3273268401955991, -0.6949394782846374, -0.5833515776445846, 0.3365224344723212, -0.3550883105609426, -0.5907974258271729, -0.6177196443784032,
-0.3208080086682594, -0.5970185870082276, -0.12209861717145332, 0.09735906344202272, 0.5205383738355889, -0.05293532359833231, 0.8287669346422204, 0.9595231487161349,
-0.3660148821316045, -0.44401475091858167, 0.7157989433462655, 0.6831281892505956, 0.7561669152718906, -0.4174033513116404, -0.4995867396333056, -0.42164745501200596,
-0.46795851790400356,
-0.3584074914609956,
-0.5503184700952666,
-0.9629917380210582,
