//Neural Network File Format by Kyle Julian, Stanford 2016.
2, 4, 4, 8,
4, 8, 4,
This line extraneous
-6.55e4,-6.55e4,-6.55e4,-6.55e4,
6.55e4,6.55e4,6.55e4,6.55e4,
0.0,0.0,0.0,0.0,0.0,
1.0,1.0,1.0,1.0,1.0,
0.006191222014123365, -0.23268634978468228, -0.5914300656609295, 0.06390065012739754,
0.08988324452424523, -0.868465334821849, 0.6558482308262343, 0.26265397278731184,
0.8228356251292337, -0.8188556228107582, -0.9340790416369003, 0.4523512087760446,
0.12001777254178414, -0.8016428796627517, 0.47856370057910347, -0.6585636198535609,
0.46093471178329404, -0.7092757806956049, 0.11451086339743677, -0.2691963066867915,
0.677188693000569, -0.7827160713812726, 0.5026801697846102, 0.18789227260419672,
-0.4851869245574547, -0.24982813334123222, -0.3673136938238777, 0.7458451529112331,
-0.5320346740638944, -0.8890843361493017, 0.27069406971983234, 0.18767581158888458,
0.12760780582795173,
0.24114008458946223,
-0.6297017376207186,
0.9534675484106736,
-0.34391517216461853,
-0.652319141359166,
0.16904326486376497,
0.44545773270788525,
-0.27195327627123067, -0.10173551519112323, -0.19799323887958087, -0.4192732930601091, 0.4430577603387311, -0.011887819071469963, 0.3804651412160154, 0.3706031726867707,
0.8612003561120662, 0.8256691167172443, 0.2291739963275794, -0.5204976232845167, 0.41718493260046685, 0.08810888119354132, -0.8599746801852062, -0.23722337468381083,
0.21715810443107797, -0.2506468081024775, -0.1040847080772771, -0.9708569872830481, -0.2876604480859246, -0.5978721288095179, 0.5471608002513793, 0.14816665222408565,
0.0491427682308454, -0.33234146135940934, -0.29517759520365283, 0.3247314428553265, 0.06447506399067615, -0.17617790904065078, 0.17412400698384412, 0.5173479568930701,
0.19850053843574722,
0.32253210094253193,
-0.1193977740020622,
0.44963470346367096,
