//Neural Network File Format by Kyle Julian, Stanford 2016.
2, 4, 4, 8,
4, 8, 4,
This line extraneous
-6.55e4,-6.55e4,-6.55e4,-6.55e4,
6.55e4,6.55e4,6.55e4,6.55e4,
0.0,0.0,0.0,0.0,0.0,
1.0,1.0,1.0,1.0,1.0,
0.5378079486431977, 0.912699660243256, -0.770701681120546, 0.14379372924020828,
-0.2298797307625673, 0.8670855698784496, 0.5727732277161759, -0.9699392293528954,
0.60884871183735, 0.3374837925314105, -0.9037769395800028, 0.13917669510826247,
0.04757906689371527, 0.7423681691551676, 0.0879452447649598, -0.6890829098600544,
-0.3357771094042352, 0.5005369437299225, 0.12916667137991755, -0.9991237346543738,
-0.031018947614818604, -0.2844830198014714, 0.2045569441013817, 0.02018318630922389,
0.35061483958430184, 0.12868557845712658, -0.013377770291704394, -0.910835884431382,
-0.1140140532774061, -0.15157888925095309, 0.500893473584302, 0.4694657721018962,
0.8897874546174873,
0.8166486065833554,
0.5538033859246743,
0.6175191959967181,
-0.21574301772850824,
-0.351679615004429,
-0.08994750159671927,
-0.2943654785009997,
-0.5275556186563333, 0.302874095615135, 0.09935633176362968, 0.2767410387450995, -0.9297120486129096, -0.7967136245822299, -0.813133704325351, -0.24009710133397988,
0.46635317190576053, -0.16638689108910043, -0.6652671165024993, -0.3491977615987758, 0.8410397667046343, 0.051911935847940516, 0.9776083026757032, -0.8137305105300432,
0.4685460159660222, 0.6260939492445265, -0.004834297914320551, -0.2692679499907986, -0.2635144288063369, -0.060600516704279794, -0.4802875441588439, -0.298510975843123,
0.5720344734835274, -0.3888246235322952, -0.5499097040123377, 0.0839379348307423, -0.6023919626901613, -0.9851939530559215, 0.5349511827591944, 0.7668672836025898,
0.07715983407709359,
-0.45876829289976806,
-0.5630379094274964,
0.5372474819836404,
