//Neural Network File Format by Kyle Julian, Stanford 2016.
2, 4, 4, 8,
4, 8, 4,
This line extraneous
-6.55e4,-6.55e4,-6.55e4,-6.55e4,
6.55e4,6.55e4,6.55e4,6.55e4,
0.0,0.0,0.0,0.0,0.0,
1.0,1.0,1.0,1.0,1.0,
0.018756320722543407, -0.16529265292564377, 0.879830131356595, 0.5443713583347911,
0.6649844648646663, -0.22533812187530788, -0.5214265860078324, 0.0015916950142584874,
0.14334768701050082, 0.5948517735970364, -0.7827683258869342, -0.6601057859976551,
0.7342419910783091, 0.7678802315331774, -0.9673737197821239, -0.45299587310156086,
-0.9638588100193832, 0.00465386161919179, 0.8582135179460093, -0.9688922208692188,
0.4340883395303452, -0.7595475560960963, -0.1409014730082121, -0.22307760076676297,
0.3631672331077693, 0.8478929830045163, 0.4333368507962043, 0.589055977317472,
-0.528513607130717, 0.16387204949321044, -0.08743242015167496, 0.31934608183832536,
-0.5225310125149374,
0.26802299769254967,
0.7923262955367618,
-0.9498950083705822,
-0.7490350421424066,
0.41008055380942343,
0.9490168132243877,
0.28254359160634657,
-0.8619021184073183, -0.2720422239393576, 0.3505334942891123, -0.13607950888425835, -0.32392992281802613, 0.6439799737707941, -0.8492712709848371, -0.965752656989852,
-0.9813279153716321, 0.6782029598392052, -0.015568532369959254, 0.6019067177962745, 0.9974614330993492, -0.9187809235683919, 0.8193839063309292, 0.23709095258386137,
-0.7654731446493788, 0.6997634974353812, -0.6958522896465684, 0.3340020624756477, -0.04149096200482072, -0.8637500263587348, -0.1602189729838046, 0.6931599595749032,
0.6992933545081659, 0.9570178279197799, 0.8053920076909225, 0.49784752253522724, 0.8357600345008356, 0.6236324099987063, 0.17829512950215154, 0.9692535134002225,
-0.8434650285065919,
-0.7927718495771554,
-0.895888202520339,
0.6793460475618893,
