//Neural Network File Format by Kyle Julian, Stanford 2016.
2, 4, 4, 8,
4, 8, 4,
This line extraneous
-6.55e4,-6.55e4,-6.55e4,-6.55e4,
6.55e4,6.55e4,6.55e4,6.55e4,
0.0,0.0,0.0,0.0,0.0,
1.0,1.0,1.0,1.0,1.0,
0.7058878785905156, 0.8978313119019949, -0.2848836590037638, -0.20612219090319472,
-0.2182032486735257, -0.43027875343975364, 0.4356652211300003, 0.42089735970419007,
0.7964678632906281, -0.4230103148883604, 0.8524138888623618, 0.37206400745438595,
0.40541848859277074, 0.06926944789358513, 0.6593490706084806, -0.030823002782719655,
0.08111660924972375, 0.4219392404761022, 0.017594442752870254, 0.7639960679693889,
-0.08876113811471242, -0.02498579456109784, -0.7476010440997531, 0.7384742604512442,
0.42911195449540784, -0.720705779172131, -0.4940916450870487, 0.6405315831596474,
0.9857774451414558, -0.7155602927783518, 0.3449633308998368, -0.572738354603548,
0.7058936402669311,
-0.09059403844519087,
-0.9357085950169446,
-0.7160886567590903,
0.7962414525779518,
-0.6176845294643258,
-0.18702242684213033,
-0.2190249920973848,
-0.787957815852073, 0.9700832334613523, 0.9702984781944419, -0.4135698422983358, 0.11180865870588441, 0.46864011863650923, 0.6475298242175094, -0.21737988684962506,
-0.5379244607550389, -0.881463108664033, -0.94216391689202, 0.2106129064196156, 0.8707685025671519, -0.6548794444995014, -0.20050876717327215, 0.5281144009291436,
0.8253687386047259, 0.4559677538338831, 0.7132738444594935, -0.5150720140023615, 0.683643425940188, 0.16100169272474707, 0.13697069541739326, 0.40040306662110936,
0.8272386900129898, 0.7738352704515168, -0.9054969252511733, -0.8789818389185684, 0.6495413235835445, 0.30055009630279494, -0.4798427173058326, -0.022217912744870283,
0.007842860563044951,
0.6912527000074085,
0.04957267650828179,
0.9891196269035412,
