//Neural Network File Format by Kyle Julian, Stanford 2016.
2, 4, 4, 8,
4, 8, 4,
This line extraneous
-6.55e4,-6.55e4,-6.55e4,-6.55e4,
6.55e4,6.55e4,6.55e4,6.55e4,
0.0,0.0,0.0,0.0,0.0,
1.0,1.0,1.0,1.0,1.0,
0.8473324693046376, 0.01299908911746206, 0.8427673449904813, 0.0315122032347972,
-0.5308314715346709, 0.3500595587396891, -0.5972847107803334, 0.5035854149501042,
-0.04855250302885539, 0.8638703357107391, 0.9127349565175686, 0.9195534565056644,
0.3656519504308111, -0.6843259329398279, 0.8988780152187523, -0.1592595147842908,
-0.33191231580064473, 0.6054335580105521, -0.7457623453179116, -0.13636245424349624,
0.8405248002695194, 0.7569018575700879, 0.5183133097797832, 0.8646510411371713,
0.7858136283248398, 0.4449790977255086, -0.4627804331415235, -0.5645610255092723,
-0.002122422224873688, 0.3848077301948236, 0.48065128138788626, 0.2208259845541507,
-0.30536337672201697,
-0.9958502016101529,
0.8508643028781653,
-0.46696336507705416,
0.7550834990018589,
-0.4385086206728661,
-0.7646155979273108,
0.3121331128283851,
-0.5850753694019142, 0.5382391620299583, 0.3117981465775155, -0.0067786594860690386, 0.7332076797753331, 0.9340452119344951, 0.8309146256385618, -0.9268466784348703,
0.4498586970501499, 0.4139542159337437, 0.20786234253989733, 0.5868124346202719, 0.6666492934692685, 0.19696570912131106, 0.5980096706429556, -0.15845464030261747,
0.4583440930910365, -0.571019360624593, -0.3583243762996138, 0.0709402820427969, -0.9328299993717399, -0.4683615706647819, -0.17105030564317714, -0.18493659107642513,
-0.7105538502664048, 0.07799693492779625, 0.11869354899354434, 0.16509407889134087, -0.5019570319345372, 0.02403563283722976, 0.5637547706248331, -0.9162993923499863,
-0.6173091749220068,
0.972034281734814,
0.5502395610153106,
0.6545341808182861,
