//Neural Network File Format by Kyle Julian, Stanford 2016.
2, 4, 4, 8,
4, 8, 4,
This line extraneous
-6.55e4,-6.55e4,-6.55e4,-6.55e4,
6.55e4,6.55e4,6.55e4,6.55e4,
0.0,0.0,0.0,0.0,0.0,
1.0,1.0,1.0,1.0,1.0,
-0.124199772391822, -0.24004554808090406, 0.7143176257481723, 0.27118231700815,
-0.4995961656744683, 0.5282547806416935, -0.15312531407079222, -0.4524800095670205,
-0.32080115126054176, 0.24747866174621969, -0.907433272546847, 0.5711212917682524,
-0.03034422960218386, 0.6593316417637656, -0.984223912688369, -0.5024917889056604,
-0.6466294716798666, 0.5825183316482883, -0.10598541986389565, 0.5341954306136651,
-0.609893391464039, 0.40342800373531107, 0.7426044820651616, -0.545006763624202,
-0.8737508692914444, -0.17333679354817688, -0.9866324274090132, -0.7728123670963343,
-0.4287064446618878, -0.02011210924515927, 0.6167557066985947, -0.07184223310462245,
-0.8796747406662422,
-0.3776504730301524,
-0.5888435505412475,
-0.3398419284387928,
-0.7732167170602287,
0.21742067959120615,
0.46567018305402064,
0.5694802328163968,
0.7805156867869036, -0.19103746903325858, -0.6277877580446516, -0.7846235429407322, 0.21882032366265047, 0.8246898158662233, 0.8642616737176843, -0.1833148397925095,
0.701688027096, 0.8782668923421708, 0.9190427867250994, 0.21498086237941827, 0.22555548666271097, 0.41909770654580525, 0.7721693746905189, -0.08664305092645375,
-0.17012563942379844, -0.6458446284499111, 0.1872862569590361, -0.9609508112319367, 0.7354640526632119, -0.910196499505779, 0.34825511209269067, -0.19582129182347385,
0.6121946254531889, -0.9362774812663885, 0.03689390965791173, -0.6343881633228721, 0.8697824142076671, 0.23771680157197927, -0.11003470235248969, -0.03670493641121775,
-0.10499716804791293,
-0.9952003823939415,
0.5751157003811782,
-0.320383098103886,
