//Neural Network File Format by Kyle Julian, Stanford 2016.
2, 4, 4, 8,
4, 8, 4,
This line extraneous
-6.55e4,-6.55e4,-6.55e4,-6.55e4,
6.55e4,6.55e4,6.55e4,6.55e4,
0.0,0.0,0.0,0.0,0.0,
1.0,1.0,1.0,1.0,1.0,
0.43777727531296806, -0.5654868116613923, 0.8743385128935794, -0.8499287728834815,
-0.6937649281869969, -0.7674273981285489, 0.3662585822834452, 0.7769432282847277,
0.9707312525069876, -0.897983887728238, -0.4422296034950812, 0.1827782173157244,
0.8150148941746984, 0.3047247192585627, 0.020217424663500072, 0.16121730919191002,
-0.11640884307034005, -0.8101468576485109, -0.502835310596125, -0.18460973390930402,
-0.37305539446311764, 0.6241684136108394, -0.6552440323932274, 0.9952157543272997,
-0.7252907330575504, 0.4156099354309615, -0.5413916280733115, 0.7048354014919056,
-0.10115300018203577, -0.7387490314011749, 0.4042968465993879, -0.8971717572010469,
-0.4546908219436565,
-0.3707281218714127,
-0.4903158890748891,
-0.11476170030810362,
-0.7882391178503596,
0.33238718046886717,
0.5778573257695747,
0.7312673630441231,
0.06417249675171988, 0.7504085834251035, -0.41081268252419223, -0.1253646087107989, -0.05489287345677818, -0.8808736582343224, 0.2168627460382564, -0.644900439093635,
-0.18474518923256733, -0.2923836650435354, -0.5004713827970306, 0.3952917569626093, 0.6286394806913878, -0.492732601205605, -0.38196849195810456, 0.18552761528449313,
0.6631940660980349, -0.33425229917699983, 0.3316197850985594, 0.6282297993191341, 0.7260082626109674, -0.972170001368442, 0.018048500315903215, 0.3627425757022382,
-0.3193220184335277, -0.868335071308318, 0.630641674938329, 0.3672038724656441, 0.0017570610137380704, 0.770651937711174, -0.33966088293666097, -0.1226499492658828,
-0.9236653952740457,
-0.24399619855981713,
0.2114556407492736,
-0.7580600039582404,
