//Neural Network File Format by Kyle Julian, Stanford 2016.
3, 1, 1, 10,
1, 10, 4, 1,
This line extraneous
-6.55e4,
6.55e4,
0.0,0.0,
1.0,1.0,
0.3939246851243152,
-0.7916731538309216,
0.3241052561194788,
0.18380646021333646,
0.6123291847798682,
-0.7864507194731942,
0.6409729679959306,
0.09689112164865987,
-0.8604133255805797,
0.5702541902727325,
0.7506278918312934,
-0.7925022380932503,
0.8353864060364549,
-0.7737726857262981,
0.019660835857740366,
-0.38433407862328384,
0.6705821900398479,
-0.13349123904531446,
-0.7121787814453464,
0.19308404494648812,
-0.8155845513794149, -0.574822726060658, -0.8161622740163446, 0.7119633779253771, -0.3147468721325857, 0.12031762243147348, 0.22195464126289366, 0.9861354320711944, -0.7317637447580072, 0.6268052542782523,
-0.19360718506734065, 0.8506265689558883, -0.10197409320104045, 0.6897921985882798, -0.2069949308366934, 0.10320135977686107, -0.7880174384856331, -0.3571464620304514, 0.1288663499979381, 0.9065515220995759,
-0.39459127918712245, 0.3384707474214692, 0.5737032710934296, -0.4353722668737463, 0.6721229346166746, 0.7490075619553465, 0.08648149544287076, -0.3160075037456713, -0.26485962965698695, 0.8425109395924961,
-0.9421109449857403, 0.011514709073284557, 0.0730891185501048, -0.5535170568073196, 0.8404362413547393, -0.7414484974301678, 0.9645087406958286, 0.8031957327589261, -0.18568452527521817, -0.7878411284658746,
0.6055176251383116,
0.7579487276758679,
0.4717194399715279,
0.2529503374758222,
0.09713666636105511, -0.08011673289334631, 0.39203823216998224, 0.2988583317604099,
-0.7860388355842134,
