//Neural Network File Format by Kyle Julian, Stanford 2016.
3, 1, 1, 10,
1, 10, 4, 1,
This line extraneous
-6.55e4,
6.55e4,
0.0,0.0,
1.0,1.0,
0.15427641809905746,
0.7554890932805902,
-0.32187511106793876,
0.058491010600548066,
-0.7447495708460288,
-0.19768246527550248,
0.29642658920284903,
-0.3268416167658619,
0.018628271057046675,
-0.9547166043394997,
-0.7654560136222548,
0.017051007725401135,
-0.4093512514499751,
-0.16229641430583364,
-0.17125325133908031,
-0.30379675383927074,
-0.33682815860109194,
0.7891262955419265,
0.20232101504636324,
0.7711193356187596,
-0.5920628710365201, 0.1052101528018885, 0.2751675521530683, -0.3973355947942738, -0.8099182780230758, 0.05783983324084607, 0.1926243080687251, -0.2596393378452211, -0.4458716832397167, -0.7112248160827606,
0.6042167959554208, -0.9373221997844148, 0.9048301675042856, -0.6107007124552926, 0.30845996268528575, -0.5094199790368825, -0.4053963381056498, 0.5707290180657436, -0.08292750930919279, -0.2307551289608849,
-0.33081337899672736, -0.8723629448086871, 0.46404773434489455, -0.4978480347857972, -0.8365779964565427, 0.8398408317567378, -0.6317466572047814, 0.17887294179436264, -0.16598213338107648, -0.6953139283580008,
0.6727151235481554, -0.08889279910225589, 0.4027059973309157, -0.5795984171543367, 0.8830568864983523, -0.43116626101635847, -0.3921700282962606, 0.10845107131113263, -0.11876439604497291, 0.4508910529575614,
0.7439396764382287,
-0.6101727662256029,
0.6567307317345543,
0.852328334695899,
-0.9632819574142726, 0.43977886292212354, -0.9249337311376835, -0.2066743478307176,
0.32876857673376003,
