//Neural Network File Format by Kyle Julian, Stanford 2016.
2, 4, 4, 8,
4, 8, 4,
This line extraneous
-6.55e4,-6.55e4,-6.55e4,-6.55e4,
6.55e4,6.55e4,6.55e4,6.55e4,
0.0,0.0,0.0,0.0,0.0,
1.0,1.0,1.0,1.0,1.0,
-0.09160558093056403, 0.9494628700800951, 0.037783679141740745, -0.43093837632215415,
-0.0544823850334093, -0.13049739793541137, -0.34053137361261543, 0.019822287720393295,
0.1827963191103512, -0.3797253345656433, 0.6252012383097578, -0.975630948635728,
-0.22197639348209375, -0.14556781888038017, 0.7778041131965856, 0.27538261037155465,
0.7789384543478972, -0.3664348251675684, 0.47716687360610077, 0.7922553091539375,
0.907114883214184, 0.9219605919992082, -0.18996739994831557, -0.9230248909789283,
0.026870221711509323, -0.18238864042509606, -0.8081386803777368, 0.07965355305938626,
-0.029368210768486502, 0.9248357135823286, 0.4720229772982121, 0.3490512078560162,
0.30137755232816144,
0.2948507446646138,
-0.2510392155910046,
0.2802215634061054,
0.22512130000014352,
-0.7054406848852084,
-0.05850214136896259,
0.38530603949761266,
0.0017937129063581025, 0.1386851790651602, 0.24215073802359255, 0.18207567993104767, 0.6534983094951801, 0.08000603418014052, -0.30374455590076943, 0.7754675820089254,
0.294627815309795, 0.7191335821948548, 0.5830722445773358, -0.7979298622229978, -0.1423241365968071, 0.3010766431827103, 0.9409691688203652, 0.3331768371632795,
0.21417371620688952, 0.4495099453901088, -0.4092014954297807, -0.972522317292984, -0.784542310997014, -0.026533175155282862, 0.6719776486694018, 0.8200634460700682,
-0.01756056195755651, 0.8330888198225095, -0.9843508573140922, -0.04982963547543484, -0.5520870299182081, 0.8599960556163433, -0.3969703277898522, 0.5015439710007161,
0.5851302253370361,
0.6055783898248852,
0.4042057671702137,
0.299061410655848,
