//Neural Network File Format by Kyle Julian, Stanford 2016.
3, 1, 1, 10,
1, 10, 4, 1,
This line extraneous
-6.55e4,
6.55e4,
0.0,0.0,
1.0,1.0,
0.684010527472076,
-0.4685707970102735,
-0.8766024197127185,
-0.2834681827363932,
-0.5494361264506118,
0.770381553717538,
0.9162387407663704,
-0.8317018781312697,
-0.8277209391485743,
0.36689486635416335,
-0.2053939768528883,
0.26927192554211743,
-0.8138361745026885,
0.541069008167832,
-0.2348448486078425,
-0.445690221362224,
-0.8840909230624501,
0.5295605869102076,
0.13986353880260705,
-0.28813613353379,
-0.05068558775287002, 0.6014416472583597, -0.03496865753371514, 0.7411987675120066, 0.855995581539363, 0.548185183631622, -0.04423179953509093, -0.39748128795181126, 0.8287911110213133, -0.10064589229418752,
0.11906863395496536, -0.5513951774666812, 0.8613684048397805, 0.4140365824200778, -0.5410832056779129, -0.6500940341808397, -0.5022487983383419, 0.6696219240515058, -0.944682891998534, -0.652428538765748,
-0.898605289048263, 0.6221961439657631, -0.2358654645889695, 0.8426404960035923, 0.01325752054580498, 0.10017131363973064, -0.5883193298675877, 0.69289531447177, -0.20198119570217, -0.2939330065047021,
0.7119869723686172, -0.5946982934396985, 0.8931027506470031, -0.007657864683112248, -0.7276012078080658, 0.7373077913240178, -0.9076436779839425, 0.9963765959202249, -0.07034175021823286, -0.00900274132013612,
-0.6520995486492489,
0.9196412253369068,
-0.20165543452463064,
-0.4243867101833936,
-0.21895619165092928, -0.041824402923789084, -0.898805506964663, 0.2583997090839607,
0.7601170950919389,
