//Neural Network File Format by Kyle Julian, Stanford 2016.
3, 1, 1, 10,
1, 10, 4, 1,
This line extraneous
-6.55e4,
6.55e4,
0.0,0.0,
1.0,1.0,
-0.2316732272060147,
-0.399865332015378,
0.8604820823169712,
-0.8621220641374636,
0.8720945613942388,
-0.7631063708514954,
0.8838909867082294,
-0.9941471825295234,
-0.9133357789387389,
-0.5073553267023603,
-0.33335127323246905,
0.0033374328428221745,
0.6196512728239565,
0.8651024064561201,
0.24464763325215655,
-0.05766731695336924,
-0.28744099155794567,
-0.8626727723096539,
0.16664842075142738,
-0.9439887263075639,
0.8362569423718114, 0.33191334942783257, -0.21374595113649741, -0.8576768461500768, -0.5316491720715337, -0.9668661280897712, -0.9258012293790041, -0.12689035858829456, 0.5370437800804968, -0.5056137202857429,
0.9233505918383198, 0.3961113397763314, 0.4942217715260422, 0.09547134711239291, -0.2535857902915186, -0.3852018069149503, 0.819915896707375, 0.667755077249323, -0.7450025159761475, 0.04265410304713768,
-0.3064524135358364, -0.7311644535222062, 0.07124466151111042, -0.14922992356893783, -0.8015010660506645, 0.35551921254834795, 0.1649539478511679, -0.2212145157894767, 0.9573965495755923, -0.8704407884360159,
-0.03742159932590727, 0.9442321485224681, -0.02401649963749719, -0.052986266436700014, 0.18501586609088427, -0.26448393068872544, 0.0014867092978505525, -0.29680770479303176, -0.9422640216401152, -0.04547557147730208,
0.7700913930978603,
-0.8687644635586182,
0.7943575217034495,
-0.8824666679885267,
0.12638986474379577, -0.147457713923568, 0.04639940027424094, -0.3629530429648171,
-0.36838081699065617,
