//Neural Network File Format by Kyle Julian, Stanford 2016.
2, 4, 4, 8,
4, 8, 4,
This line extraneous
-6.55e4,-6.55e4,-6.55e4,-6.55e4,
6.55e4,6.55e4,6.55e4,6.55e4,
0.0,0.0,0.0,0.0,0.0,
1.0,1.0,1.0,1.0,1.0,
-0.885798875315106, 0.7121921829530011, -0.21312645684249087, 0.817661573493973,
-0.3433012158780775, -0.2237255124919857, 0.8394303045836322, 0.2179586066231356,
-0.5535583598417593, -0.9931276223996202, 0.6158848075165579, -0.23438507231828565,
-0.10800644809573479, -0.7108126075758077, 0.1955186208812134, -0.9021977970718971,
0.7412362712200977, -0.9583439701278667, 0.6405610677810771, -0.582941547761691,
0.7477712922687689, -0.3288808198519857, -0.285181496321826, -0.414417648851078,
-0.9526765079613151, -0.7102994083690675, 0.2516303602392478, 0.9736398772983454,
-0.7397470621885165, 0.28886080669456193, -0.4577099544915648, 0.6336475250029565,
0.967088958678572,
-0.6742799849413994,
0.4517157463706627,
0.03722277600713486,
-0.834860788787056,
0.9758269561039992,
-0.9225991185812616,
0.6278963123638719,
-0.29933527588342557, -0.7106161750253555, 0.7276929240497054, -0.5150662477387442, -0.30066022232958156, 0.8791491134574305, 0.6158542222057366, 0.4788335528243648,
0.5548826534141065, -0.40938168750155546, -0.9994976913952041, -0.13166550196624272, 0.17758820880281911, -0.41127353997367333, -0.5776157720294992, 0.9936280845189929,
-0.6187539935644213, 0.5508939381857991, 0.39803299215226184, -0.044082625835817346, 0.3279889684995303, -0.9976719865608308, -0.14987601821582563, 0.21137812864426575,
-0.8101707546802404, -0.8328152768080326, -0.5405958194764202, -0.5058228288434043, 0.26036208156631657, 0.9179124065473405, 0.6610005586900911, -0.792327597403875,
-0.4025311440619661,
0.9512449717626184,
-0.25589407702181877,
0.6214931685288279,
