//Neural Network File Format by Kyle Julian, Stanford 2016.
3, 1, 1, 10,
1, 10, 4, 1,
This line extraneous
-6.55e4,
6.55e4,
0.0,0.0,
1.0,1.0,
-0.4407865669396105,
-0.11415686124883306,
-0.42135274786478627,
-0.5041874600361584,
0.662148098552402,
-0.8022292920300202,
0.34925769332221135,
-0.7645610959737188,
-0.22384880756311176,
0.8596801908080045,
0.2991172952980521,
0.04240429147094105,
0.46544523539834604,
-0.4615074475123717,
0.7636534802091854,
0.1507364116071539,
0.16944268164833654,
0.07397158921449476,
0.7931813975213311,
0.10699341966870346,
0.7800811845298363, 0.9003746052599211, 0.7720247939405631, 0.9938640214468912, 0.27238186949362, -0.49164465900907306, 0.5920213815963065, -0.17661309471720976, -0.8932715194550647, 0.3468615421495529,
-0.27727327526638845, 0.8089899827139928, -0.9458991690012684, 0.1142815820028229, -0.14431985641220457, -0.2531638502764686, 0.9735518164916614, 0.46027213256680266, 0.705881042855681, 0.33415028784762324,
0.5275896716655368, -0.4403736014620776, -0.884432038323975, 0.5572384782536157, -0.019832532658524915, -0.06459234176356965, 0.34882959117776924, 0.8216247429046417, -0.36985615124744564, -0.9750746897619416,
-0.9577549198622624, -0.49637666354810106, 0.016241582209082672, 0.1631312785363992, -0.31169530288420777, 0.2179217644022975, 0.8208274143962973, 0.6776603210587417, 0.2805731089615624, -0.5488410513852124,
0.308268226765279,
-0.7087009568223652,
-0.12450674733371248,
0.5329668402800629,
-0.42787339905883703, -0.3791365711332122, -0.5105613657572383, 0.9299597117349183,
0.8664574866580206,
