//Neural Network File Format by Kyle Julian, Stanford 2016.
3, 1, 1, 10,
1, 10, 4, 1,
This line extraneous
-6.55e4,
6.55e4,
0.0,0.0,
1.0,1.0,
-0.022475149807354988,
-0.0008142305514335924,
0.39750047890970963,
0.31135383163889596,
0.13936105593231574,
0.7349345687776561,
0.7110967728509179,
-0.3090603457254302,
-0.6370325967789179,
0.5746885259736074,
0.5514283905106985,
0.42590447141015053,
0.38251027104175206,
-0.9042597606887686,
0.6383801054470402,
-0.4835696346408658,
-0.6365844907601383,
-0.6528989859534731,
0.6472198209357076,
-0.983819423791592,
0.6011624358441505, -0.4603196754101866, -0.018852033362390053, -0.7933200254981938, 0.11660793964591587, -0.27437392412628236, 0.6981357923747269, -0.3750310592072523, 0.2041722421661527, -0.33799866003114687,
-0.22870270639495338, 0.21468467712997485, 0.7033773516294435, -0.41713054322876664, -0.27654635049873955, 0.3338819684546088, 0.8737228352122774, 0.21162272590883768, 0.16816388438495755, 0.9518864475405935,
-0.2976859358981243, 0.8068914898504365, -0.5648350369274517, -0.30384411094601615, -0.12827996715460488, 0.29924542120392505, 0.8022489394821921, 0.6583160512255772, 0.09613470564465398, 0.3572689464485932,
0.2666975873541877, -0.3280208522696473, -0.13284123585909713, 0.2878935953812012, 0.5977117072731355, 0.5777392320219121, 0.28345169633767897, -0.41506800657713727, -0.6297713652769161, 0.41280694888907643,
0.3847652868404525,
0.21291329143063553,
0.7247334454199894,
0.6813637352545427,
-0.16732607569333524, -0.9113493737735681, -0.7873071684047344, -0.6885016437677662,
0.04885058164298206,
