//Neural Network File Format by Kyle Julian, Stanford 2016.
2, 4, 4, 8,
4, 8, 4,
This line extraneous
-6.55e4,-6.55e4,-6.55e4,-6.55e4,
6.55e4,6.55e4,6.55e4,6.55e4,
0.0,0.0,0.0,0.0,0.0,
1.0,1.0,1.0,1.0,1.0,
0.9401331505381778, 0.2940798061043517, 0.49103988034267276, -0.1530206054845502,
0.30425758388540824, 0.30196393252186926, -0.45950307545594216, 0.08589022623226183,
-0.9860943681058538, -0.49738353733254526, 0.8685672263811433, 0.3315816280144577,
0.723557634225406, -0.904296236167835, 0.8046548281362651, 0.6266168189099757,
-0.8149369204423778, 0.24195170335848992, 0.46106516517787455, 0.7743017302058051,
0.4867315664868084, 0.6360325409694791, -0.7587235843048283, 0.21539334612813787,
-0.19956572193902788, -0.6389787472539412, -0.7611883692867631, -0.899442265458521,
-0.6675367638163925, -0.3498094827029008, 0.5438564513777338, 0.4046977694472056,
-0.7096772313434005,
-0.07840652619233923,
0.314320744873839,
0.46790512008740714,
0.22252728693565738,
-0.20329937203066306,
-0.7312696950680198,
-0.2502762107835981,
0.5276015103723646, -0.5488748527509633, -0.24786275293125515, 0.5687005709895927, 0.09857298489264243, 0.991832163496766, -0.5431632730986755, -0.1815438503711917,
0.901777232910542, -0.25032038767178477, -0.5266896694197363, -0.2029742324064121, -0.5983513445273707, -0.9127072602049404, 0.21497721075932352, 0.9918700718976603,
-0.3632345212192285, -0.37341502139401905, -0.4112204389878764, 0.3877363766202899, 0.34270473015273417, -0.03228555462302296, 0.11372732425792798, -0.9468380358246038,
-0.3034300249911954, -0.17548982553866477, 0.7390156714392111, -0.6193361703559837, 0.14903399902319814, -0.5299751059540689, -0.8182235432767251, -0.2886357161416271,
-0.6120713596624152,
-0.3520134247429514,
0.9541241952065431,
0.3455427380758809,
