//Neural Network File Format by Kyle Julian, Stanford 2016.
3, 1, 1, 10,
1, 10, 4, 1,
This line extraneous
-6.55e4,
6.55e4,
0.0,0.0,
1.0,1.0,
0.7988724079691445,
-0.5613705756076213,
0.8333419723367692,
-0.8180943065277639,
0.6631962828568336,
0.8913507655473341,
-0.7394893124070032,
0.17597862447752588,
-0.03157583200489711,
0.7494909089261137,
-0.9153985184613034,
-0.21516168541157032,
0.6458407209938577,
-0.40860717975809946,
-0.054307434093092244,
0.7754094651940688,
0.557702705244397,
0.5550497527487837,
-0.3386282945990602,
0.08474493714442932,
-0.00429169450680833, 0.22012571893719413, -0.27525846139262233, -0.21204293469384172, 0.6916117775109583, 0.5366327491257725, -0.5804338143051972, -0.5795205590280101, -0.45149893000774366, 0.4426137444984968,
0.9891834320240607, -0.999061722101072, -0.4854420010533902, 0.7361919337987297, 0.8610960241300654, 0.7044973337792273, -0.3286668817888807, 0.8486189140806712, -0.6938956165285366, 0.679984186820251,
-0.7306973247564548, -0.0706568947188142, 0.8757855799563536, -0.6701791188577517, -0.017213485007419926, -0.8486113381236469, -0.6509727606608222, -0.7209474665900752, -0.8738318955458824, 0.8850336495438849,
0.26912006647136044, 0.5820286543325546, -0.07026846895350447, 0.9339166366042546, -0.027289474238682665, -0.22400221819410193, 0.8688677343510864, 0.6679355614651832, -0.04344424709893735, 0.7416457040595699,
-0.017277715111725822,
-0.6522865484376092,
-0.5094457609147818,
0.1498418247422233,
-0.006338387386516153, -0.13941868742334895, -0.8158367191705085, 0.5556396664563406,
0.08750871675202765,
