//Neural Network File Format by Kyle Julian, Stanford 2016.
3, 1, 1, 10,
1, 10, 4, 1,
This line extraneous
-6.55e4,
6.55e4,
0.0,0.0,
1.0,1.0,
0.6042058180837087,
0.17797844750843517,
-0.8497175210966765,
0.501897141691459,
0.23099430753262373,
-0.820100443274999,
0.25380950178817985,
-0.2864562158270032,
0.17020824598948847,
-0.7998445361374915,
0.8102287076861505,
0.7438340663972784,
-0.08902202359942457,
-0.5420688557778837,
0.1828879837598958,
0.16696269009139098,
-0.1237078830426741,
0.6133491959013417,
-0.06404698859255964,
-0.5637610782447866,
0.5687483690007844, -0.3319475110643455, 0.1548452452485276, -0.4794906688348073, 0.20257632162094064, 0.04121678486495117, 0.23120735619039667, 0.025486406727302402, 0.41453953663116927, 0.23044454648887314,
0.8222652675914572, -0.03332308153828345, -0.6425269262605457, 0.16715548288378912, 0.8065863687945556, 0.3393590121312182, -0.2875636949834184, -0.6223983485523288, 0.823014849478426, -0.3749432707908271,
-0.8545908872051116, 0.4566988726868515, 0.8516104693482944, -0.8950125830986351, 0.5322501373099136, 0.3226352741936003, 0.5080638774474866, 0.717623856873141, -0.8304069914676293, -0.3297260424513926,
-0.4841804624579984, 0.4284878610109124, 0.7935213671721888, 0.26155887003072653, 0.9789620576151075, 0.902204372479249, -0.18166808472445206, -0.5419282056545529, 0.600555079757779, 0.40568790139836075,
-0.3773575079484073,
-0.1518719007428877,
-0.4419175304347167,
0.9412294784683595,
-0.2858538181894117, -0.09030874131989153, 0.5607728163933183, 0.6541000958314136,
0.5950825614942326,
