//Neural Network File Format by Kyle Julian, Stanford 2016.
3, 1, 1, 10,
1, 10, 4, 1,
This line extraneous
-6.55e4,
6.55e4,
0.0,0.0,
1.0,1.0,
-0.16268572620870314,
-0.38005262760207614,
0.12167270711348888,
0.8713035896596324,
0.33691733671413404,
0.6253242232476537,
-0.912689425941339,
0.5637634319742855,
0.36501739619669493,
0.7353966389344926,
-0.5214833382603157,
-0.2716650181124747,
-0.8649298363206772,
0.34751515510270004,
0.006514389609126425,
-0.7818429070669599,
0.8240092915679353,
0.46735359082506234,
-0.7778811113412121,
-0.24416118123913888,
-0.13318252438896705, 0.9718554707457217, -0.722160922179345, 0.7826251767082808, -0.6739893917911814, -0.1964846469601227, 0.2563849201784203, 0.475344020365704, -0.8336126523065355, -0.6045469811951341,
-0.5078823547797948, -0.9901424263608085, 0.5327031977918413, -0.08818607261952938, -0.9567267822820482, -0.5817527895531631, 0.9060882580407394, 0.32329862306694457, 0.939924999678913, -0.2703171562597757,
-0.8390706419606979, 0.35194440230339197, -0.7654381775063976, 0.6416280066982272, 0.46114458228643906, 0.34696441411484047, 0.015540188183038595, -0.8293658574241052, -0.94514111393599, 0.2468109913153156,
0.012065387354184054, 0.16785793779516833, -0.982554302122169, -0.6201789567306424, -0.46980156478285906, -0.992744985496981, -0.0805699248535876, 0.07059707140919125, -0.5400044838129534, 0.5475211439121823,
-0.8328583206515292,
-0.31256561598206867,
-0.6638911823288174,
-0.9216671847738054,
-0.8667684634628987, -0.6178381477755832, 0.2747193172978073, 0.2385455733756503,
-0.7308696852597452,
