//Neural Network File Format by Kyle Julian, Stanford 2016.
3, 1, 1, 10,
1, 10, 4, 1,
This line extraneous
-6.55e4,
6.55e4,
0.0,0.0,
1.0,1.0,
-0.2258007742143926,
-0.3157989842029787,
-0.36625612809373287,
0.2456263342428735,
-0.4772447679301566,
0.5448589739230494,
-0.9141859863554185,
0.8340100882481258,
-0.6670948806258621,
-0.6178001575157013,
-0.8000121488272001,
0.32323202760677017,
0.8885718292070011,
0.5732648700881815,
-0.6274822377869937,
-0.19377234771018204,
-0.33896187209005646,
0.08317030340709897,
0.8001704172290225,
0.843480207004264,
0.7463116431959174, 0.41907316769493486, 0.2214674021425651, -0.7556943216741203, 0.065371629430508, -0.659717141695261, -0.1065446368990175, 0.8276504230613706, 0.6654134552239652, -0.369139652223923,
-0.09593070406950277, 0.24361517418215106, -0.03304744317590069, 0.5507505921368705, 0.1007208935645405, 0.9831467715446425, -0.8802542452435107, -0.17952720464900596, -0.27829134227527064, 0.31539624558107393,
-0.8059038041079827, 0.207534642170768, 0.856436152690228, 0.07915409975205634, -0.7604527524097251, -0.385133235256681, 0.9191041557065205, 0.5298506160263341, 0.42620807372651237, 0.11823203009441885,
-0.6299797724243885, 0.9407994424093711, 0.9553726671391933, 0.2271466132609179, -0.09967302099043929, 0.35940478556352007, 0.6865036479011013, 0.9743160356817171, 0.33488245174965847, -0.8183760430091782,
-0.07515523951102354,
0.1406436053483775,
-0.17774806851597402,
0.08814987525221074,
0.4911239434404995, -0.4697086930718166, -0.5900844483034846, -0.797944945288986,
-0.9892380912569134,
